2.621517889201641083e-02
3.930912166833877563e-02
2.792341401800513268e-03
8.855524472892284393e-03
-9.672175161540508270e-03
2.958180150017142296e-03
-8.252163417637348175e-03
-1.197644509375095367e-02
2.905871719121932983e-03
-3.773188963532447815e-02
1.214050129055976868e-02
9.706878103315830231e-03
3.446086775511503220e-03
3.930158913135528564e-03
-3.542939573526382446e-02
-1.021459349431097507e-03
-9.060154668986797333e-03
-5.120910238474607468e-03
-6.141691654920578003e-02
2.441760525107383728e-02
-1.228023599833250046e-02
-2.650751795840733394e-08
-1.306105032563209534e-02
8.527850732207298279e-03
7.214062497951090336e-04
2.582656219601631165e-02
-4.384998173918575048e-04
-1.201320067048072815e-02
-2.710059843957424164e-02
1.089172065258026123e-02
-7.996373809874057770e-03
-2.599231339991092682e-02
-1.278560608625411987e-02
2.363881655037403107e-02
-1.926020160317420959e-02
-2.774726599454879761e-02
3.919360227882862091e-03
2.184671116992831230e-03
2.773191407322883606e-02
4.719343036413192749e-02
-2.859534323215484619e-02
2.082828246057033539e-02
9.107260964810848236e-03
5.534624215215444565e-04
-2.441543713212013245e-02
-1.350745745003223419e-02
1.955235609784722328e-03
3.258056472986936569e-03
-2.707296516746282578e-04
8.301840163767337799e-03
-6.396190728992223740e-03
-1.619284972548484802e-02
-1.809388585388660431e-02
3.559651784598827362e-03
-1.217587385326623917e-02
2.877862378954887390e-02
2.522830851376056671e-02
-2.631591446697711945e-02
-2.044545486569404602e-02
3.670928627252578735e-02
