-9.022822603583335876e-03
-6.728765089064836502e-03
-6.925143301486968994e-03
6.801524432376027107e-04
-3.216927126049995422e-02
-2.395206131041049957e-03
2.414848096668720245e-02
2.549710869789123535e-02
6.034810096025466919e-03
-1.797502045519649982e-03
-1.441007386893033981e-02
-1.276679430156946182e-02
-4.388344939798116684e-03
6.790675688534975052e-03
-1.075064414180815220e-03
-1.825443934649229050e-03
-1.311445521423593163e-04
2.554575912654399872e-03
-1.063519995659589767e-02
-9.595105424523353577e-03
-6.734271533787250519e-03
-3.192012896761298180e-03
8.056182414293289185e-03
-7.861318998038768768e-03
-3.355435095727443695e-03
-1.443406194448471069e-02
-2.489261562004685402e-03
-6.955583579838275909e-03
-5.698083899915218353e-03
-2.926425263285636902e-02
-5.390867590904235840e-03
2.255208557471632957e-03
6.673770956695079803e-03
-1.512349396944046021e-02
-9.951220825314521790e-03
-3.880527568981051445e-03
1.158662792295217514e-02
8.893513120710849762e-03
-7.628861814737319946e-03
-1.495118904858827591e-02
1.728463731706142426e-02
2.367960102856159210e-02
-2.394466847181320190e-02
-2.570961788296699524e-02
-7.650849409401416779e-03
-4.715437535196542740e-03
-3.444275259971618652e-02
-1.290741027332842350e-03
-9.452207945287227631e-03
-4.664437379688024521e-03
8.312285877764225006e-03
-3.311963519081473351e-03
6.674594245851039886e-03
2.331848023459315300e-03
-1.465746317990124226e-04
-1.613088324666023254e-02
3.419891931116580963e-03
4.932113923132419586e-03
5.385948345065116882e-03
6.398431025445461273e-03
5.895861424505710602e-03
-3.346675948705524206e-04
9.078253060579299927e-04
1.766844466328620911e-02
-1.700772717595100403e-02
-1.114897895604372025e-02
1.204706542193889618e-02
4.876631777733564377e-03
-3.460194915533065796e-03
-4.515869077295064926e-03
2.449858933687210083e-03
-1.471866387873888016e-02
-5.746712908148765564e-02
6.035144906491041183e-03
6.982004735618829727e-03
-7.406355813145637512e-03
-1.189502514898777008e-02
-1.605605147778987885e-02
-4.331825766712427139e-03
1.253246009582653642e-04
1.593084074556827545e-02
-4.676922690123319626e-04
-1.456947764381766319e-03
-1.965730637311935425e-02
1.965595781803131104e-02
2.087890403345227242e-03
2.158030169084668159e-03
-1.246771309524774551e-02
6.355774123221635818e-03
1.226997561752796173e-02
1.057133078575134277e-02
2.411287045106291771e-03
3.541429061442613602e-03
-1.017365045845508575e-02
9.760474204085767269e-04
-1.930327713489532471e-02
4.051701165735721588e-03
5.617233109660446644e-04
-3.911970648914575577e-03
9.104884811677038670e-04
