2.955851703882217407e-02 -3.466313183307647705e-01 -4.008780717849731445e-01 1.352497190237045288e-01 -1.985407769680023193e-01 4.005010053515434265e-02 -8.403542451560497284e-03 1.084719076752662659e-01 -1.734784692525863647e-01 -1.882975846529006958e-01 5.216816663742065430e-01 2.944590151309967041e-01 7.246270775794982910e-02 -4.234148263931274414e-01 -1.366529315710067749e-01 -5.679633468389511108e-02 -9.707126021385192871e-02 -1.132549047470092773e-01 -3.474345803260803223e-01 -2.549623697996139526e-02
3.428883105516433716e-02 3.682709634304046631e-01 1.993201076984405518e-01 5.703915953636169434e-01 4.645621478557586670e-01 4.211677610874176025e-01 -6.989998817443847656e-01 -2.397377602756023407e-02 -4.178451299667358398e-01 8.813788890838623047e-01 1.316592842340469360e-01 -4.248716533184051514e-01 -6.876373887062072754e-01 -7.760744690895080566e-01 6.744595766067504883e-01 8.461649417877197266e-01 -5.310539007186889648e-01 7.373908758163452148e-01 -4.186607897281646729e-01 -2.536441087722778320e-01
7.170843482017517090e-01 7.687038779258728027e-01 -7.759750485420227051e-01 -3.775037825107574463e-02 5.882683396339416504e-01 1.101304531097412109e+00 4.939025640487670898e-02 1.747580766677856445e+00 -4.125801920890808105e-01 -7.019234448671340942e-02 2.966125309467315674e-01 8.964321017265319824e-01 -1.041140854358673096e-01 -7.539653778076171875e-01 3.214685320854187012e-01 -6.133359670639038086e-01 -2.422055900096893311e-01 -2.012087553739547729e-01 7.651104927062988281e-01 -4.494094550609588623e-01
-9.840236976742744446e-03 2.941456139087677002e-01 7.787802815437316895e-02 -3.092597126960754395e-01 1.838225573301315308e-01 -1.664417088031768799e-01 -4.780482351779937744e-01 -2.217745333909988403e-01 -5.189462006092071533e-02 6.414703726768493652e-01 -4.065784625709056854e-03 -2.479832619428634644e-01 -3.059693379327654839e-03 -1.677867621183395386e-01 2.901436984539031982e-01 3.932062089443206787e-01 -3.903115987777709961e-01 1.310174316167831421e-01 2.505728006362915039e-01 -1.373432860418688506e-05
-3.448771238327026367e-01 7.924666404724121094e-01 -5.966115370392799377e-02 -5.098868012428283691e-01 -5.140534043312072754e-01 5.682445764541625977e-01 -3.581164181232452393e-01 -2.779244184494018555e-01 4.363766014575958252e-01 3.797442317008972168e-01 -5.759873390197753906e-01 3.278916478157043457e-01 -2.026732265949249268e-01 1.055952012538909912e-01 6.220511794090270996e-01 5.489383935928344727e-01 -8.126976490020751953e-01 -2.079627215862274170e-01 3.735370635986328125e-01 -2.485605701804161072e-02
