-1.723779737949371338e-02
5.112238693982362747e-03
-6.706994958221912384e-03
-7.787252776324748993e-03
-1.848428323864936829e-02
-6.845400668680667877e-03
6.647554691880941391e-04
1.268943119794130325e-02
-1.375203393399715424e-02
-2.031682757660746574e-03
4.506871104240417480e-02
-3.598185256123542786e-02
4.956710152328014374e-03
-5.459789931774139404e-02
3.524724394083023071e-02
1.717290468513965607e-02
-1.848549768328666687e-02
-3.974417224526405334e-02
2.854545600712299347e-02
-2.157008647918701172e-02
3.375542582944035530e-03
-2.538246847689151764e-02
1.154580269940197468e-03
2.719438634812831879e-02
-5.532712489366531372e-02
-2.813959494233131409e-03
6.143745407462120056e-02
-7.844710722565650940e-03
-3.086434490978717804e-02
-1.239333115518093109e-02
-1.645512529648840427e-03
2.396225172560662031e-04
-6.496747490018606186e-03
-3.697241097688674927e-02
3.456987207755446434e-03
-1.254689041525125504e-02
5.443913862109184265e-03
-1.391910109668970108e-02
-7.104149088263511658e-03
2.598832827061414719e-03
