2.372695505619049072e-01 -1.313209682703018188e-01 -5.283341929316520691e-02 1.083956193178892136e-02 2.623475790023803711e-01 -3.107351623475551605e-02 -2.698318064212799072e-01 3.953213393688201904e-01 3.600108996033668518e-02 5.766106396913528442e-02 -2.658652961254119873e-01 1.219140067696571350e-01 1.328260153532028198e-01 5.513901636004447937e-02 -8.543439954519271851e-02 1.880473345518112183e-01 2.270982973277568817e-02 -8.721577003598213196e-03 -9.242438524961471558e-02 -5.063207820057868958e-02
-2.069804668426513672e-01 -1.827957630157470703e-01 -1.510100811719894409e-01 -2.343041747808456421e-01 1.121750101447105408e-01 2.016284465789794922e-01 2.631398439407348633e-01 3.600015342235565186e-01 -1.189282312989234924e-01 1.699417233467102051e-01 2.629887163639068604e-01 -1.405111104249954224e-01 -2.056379318237304688e-01 -1.260090153664350510e-02 -8.305849879980087280e-02 1.471908986568450928e-01 4.371919482946395874e-02 -1.875624060630798340e-01 4.306019097566604614e-02 -7.599839568138122559e-02
4.151254147291183472e-02 2.721987664699554443e-01 3.589507937431335449e-02 -3.400707244873046875e-02 3.395439684391021729e-01 -6.968384142965078354e-03 1.637682020664215088e-01 -7.388755679130554199e-02 2.016779780387878418e-02 -2.787259817123413086e-01 1.966316103935241699e-01 1.735023111104965210e-01 -2.104229480028152466e-01 -2.808705531060695648e-02 -1.392489224672317505e-01 2.079043835401535034e-01 -2.138018459081649780e-01 -9.457093477249145508e-02 -5.408213660120964050e-02 -1.782739013433456421e-01
5.661625764332711697e-04 -4.723427817225456238e-02 2.660217583179473877e-01 1.045878082513809204e-01 1.027857214212417603e-01 2.372587770223617554e-01 -7.404782623052597046e-02 1.555103715509176254e-02 -9.160269051790237427e-02 -1.186749264597892761e-01 1.157888919115066528e-01 1.864453703165054321e-01 6.135446485131978989e-03 -6.334673147648572922e-03 1.561582684516906738e-01 2.620756439864635468e-02 -1.209069713950157166e-01 -6.594006903469562531e-03 -1.747256070375442505e-01 1.013076864182949066e-02
-1.313402652740478516e-01 -2.081726044416427612e-01 -1.769826412200927734e-01 -8.645214140415191650e-02 6.022938713431358337e-02 2.871668636798858643e-01 -5.839684233069419861e-02 -1.996298134326934814e-01 1.186905335634946823e-02 -6.915276497602462769e-02 -1.321419179439544678e-01 -1.140476390719413757e-01 -1.167246624827384949e-01 1.326227039098739624e-01 2.168167084455490112e-01 7.943012565374374390e-02 1.439412683248519897e-01 2.584492564201354980e-01 2.494912892580032349e-01 -8.316095173358917236e-02
2.213645540177822113e-02 3.357067704200744629e-02 -3.446099162101745605e-02 -1.033085212111473083e-01 -6.419082731008529663e-02 -6.535827368497848511e-02 -7.332093268632888794e-02 1.601542085409164429e-01 2.251196280121803284e-02 -6.347956508398056030e-02 -4.746621102094650269e-02 3.141492605209350586e-02 4.947701469063758850e-02 2.610726058483123779e-01 1.288203150033950806e-01 -1.102780923247337341e-01 -1.119721904397010803e-01 7.486581802368164062e-02 3.292410075664520264e-01 1.410165131092071533e-01
-5.554911121726036072e-02 -1.185949221253395081e-01 -9.916660189628601074e-02 -9.618148952722549438e-02 -3.835229203104972839e-02 2.176561206579208374e-01 -2.072851955890655518e-01 1.527257412672042847e-01 3.940708003938198090e-03 5.774739384651184082e-02 -1.648886799812316895e-01 -4.657771810889244080e-02 1.559929251670837402e-01 -1.210447177290916443e-01 -1.910472959280014038e-01 -1.268085092306137085e-01 1.931498050689697266e-01 1.238978058099746704e-01 2.792251706123352051e-01 9.267311543226242065e-02
2.421576976776123047e-01 -7.418582588434219360e-02 2.005145400762557983e-01 3.175765872001647949e-01 2.099417895078659058e-02 -3.518889844417572021e-01 -3.570836484432220459e-01 -1.318936198949813843e-01 -8.403619378805160522e-02 1.565319150686264038e-01 1.515104621648788452e-01 -2.990201674401760101e-02 -7.467158883810043335e-02 1.714630275964736938e-01 -1.045964136719703674e-01 -2.396161407232284546e-01 9.837629646062850952e-02 1.562454700469970703e-01 -1.199805513024330139e-01 3.346892595291137695e-01
-3.369008600711822510e-01 3.255982697010040283e-02 -7.557494938373565674e-02 1.907712966203689575e-01 -6.314897537231445312e-02 1.309691369533538818e-01 4.403078183531761169e-02 -5.917599797248840332e-02 1.107986122369766235e-01 -7.037754636257886887e-03 5.797919631004333496e-02 -1.919878646731376648e-02 -2.215355075895786285e-02 -3.693901598453521729e-01 -2.392837107181549072e-01 -4.519213363528251648e-02 1.677161753177642822e-01 -1.153757497668266296e-01 2.422403395175933838e-01 -2.706732451915740967e-01
-1.144720911979675293e-01 1.945405825972557068e-02 -3.658373951911926270e-01 -1.331217121332883835e-02 1.322133839130401611e-01 -9.346655011177062988e-02 1.654147952795028687e-01 1.924715191125869751e-01 -1.211271286010742188e-01 4.657367989420890808e-02 1.003308892250061035e-01 -1.168521866202354431e-01 -2.601056396961212158e-01 9.534629434347152710e-02 -3.847157359123229980e-01 1.648845523595809937e-01 1.316351629793643951e-02 1.305168420076370239e-01 -1.464599817991256714e-01 2.671631984412670135e-02
