-1.508685946464538574e-01 2.890078723430633545e-01 1.929547488689422607e-01 1.513639390468597412e-01 -2.181187123060226440e-01 -4.226563498377799988e-02 -2.090245485305786133e-01 7.845395058393478394e-02 -1.079407930374145508e-01 2.117987871170043945e-01 2.271396368741989136e-01 3.834089934825897217e-01 -1.029719263315200806e-01 -2.074659317731857300e-01 -7.758796215057373047e-02 2.198370993137359619e-01 -1.134806871414184570e-01 6.091169640421867371e-02 -3.197214305400848389e-01 -1.402696669101715088e-01 4.430113732814788818e-02 5.868954467587172985e-04 1.827500015497207642e-01 -2.277068197727203369e-01 2.627656161785125732e-01 -6.375222653150558472e-02 8.979033678770065308e-02 6.519994139671325684e-02 8.006620407104492188e-02 -7.312683016061782837e-02 -3.151139914989471436e-01 -3.563856780529022217e-01 2.980434335768222809e-02 3.437952697277069092e-01 -4.347136616706848145e-02 2.122285813093185425e-01 3.355874866247177124e-02 1.277875751256942749e-01 1.400692313909530640e-01 8.053977042436599731e-02 -1.046213880181312561e-01 -2.140281051397323608e-01 4.155061393976211548e-02 7.060249336063861847e-03 -7.092722505331039429e-02 -1.312609761953353882e-01 4.306356981396675110e-02 -2.553716003894805908e-01 -5.332838371396064758e-02 1.848282963037490845e-01 5.321491509675979614e-02 3.073895536363124847e-02 -7.636939734220504761e-02 2.783713676035404205e-02 1.073568016290664673e-01 -4.744365811347961426e-02 -2.568545043468475342e-01 -1.113929674029350281e-01 2.503368631005287170e-02 4.298870265483856201e-02 7.952554523944854736e-02 5.864236876368522644e-02 -2.725258171558380127e-01 -1.131682917475700378e-01 7.529724389314651489e-02 -1.273260563611984253e-01 8.416920155286788940e-02 1.747920811176300049e-01 -1.457433551549911499e-01 1.910546869039535522e-01 2.670277655124664307e-01 -3.806060254573822021e-01 2.356015443801879883e-01 1.473590880632400513e-01 3.476512432098388672e-01 1.957950880751013756e-03 1.235588118433952332e-01 6.769140809774398804e-02 -1.911455839872360229e-01 1.128764897584915161e-01 -9.295286238193511963e-02 -2.171264141798019409e-01 1.169971153140068054e-01 -1.365566905587911606e-02 1.442919075489044189e-01 -1.230008006095886230e-01 2.392739504575729370e-01 1.808474808931350708e-01 -6.233520060777664185e-02 -1.693920493125915527e-01 6.272838264703750610e-02 1.952074170112609863e-01 -3.847946226596832275e-01 -1.054299296811223030e-03 -8.437664806842803955e-02 1.113727316260337830e-02 -2.977337241172790527e-01 -1.717586442828178406e-02 -2.177433818578720093e-01 -6.571975350379943848e-02 1.371750980615615845e-01 2.415291070938110352e-01 -9.891730546951293945e-02 -9.906856715679168701e-02 -7.554923649877309799e-03 -2.032874673604965210e-01 1.008105427026748657e-01 -2.769937813282012939e-01 8.420477807521820068e-02 -4.197627678513526917e-02 -7.311036437749862671e-02 -3.714280724525451660e-01 1.748453974723815918e-01 2.343536540865898132e-02 1.190727278590202332e-01 1.693854182958602905e-01 1.509494632482528687e-01 1.444862186908721924e-01 -1.410636007785797119e-01 3.601178526878356934e-02
-4.796738177537918091e-02 -3.290065331384539604e-03 -6.267035752534866333e-02 -8.050647377967834473e-02 6.668761372566223145e-02 -1.149686947464942932e-01 2.794971130788326263e-02 -1.555237919092178345e-01 -1.084710955619812012e-01 -2.919854521751403809e-01 3.518122062087059021e-02 -2.852630317211151123e-01 1.831728816032409668e-01 -2.609160728752613068e-03 -3.992969915270805359e-02 1.368481218814849854e-01 -1.668200939893722534e-01 -8.909969776868820190e-02 1.068662852048873901e-02 6.526600569486618042e-02 8.067765086889266968e-02 2.179892808198928833e-01 -1.723960489034652710e-01 1.681871265172958374e-01 -6.479740887880325317e-02 2.110741585493087769e-01 1.160152480006217957e-01 3.177844882011413574e-01 -1.165460869669914246e-01 2.604319453239440918e-01 -3.305731341242790222e-02 4.461602866649627686e-02 3.039183914661407471e-01 4.827240481972694397e-02 -1.861626356840133667e-01 1.218634769320487976e-01 2.204562723636627197e-01 1.050112023949623108e-01 -3.025254011154174805e-01 2.835897505283355713e-01 -4.877368360757827759e-02 -8.703337982296943665e-03 -1.664329618215560913e-01 -5.524638295173645020e-02 -3.579331561923027039e-02 -2.010607719421386719e-02 9.180529415607452393e-02 -2.070675194263458252e-01 -1.651760749518871307e-02 -3.282562196254730225e-01 6.405366212129592896e-02 -2.811599075794219971e-01 1.674511879682540894e-01 1.678574979305267334e-01 5.211655423045158386e-02 1.565865725278854370e-01 1.889299601316452026e-01 -9.643056243658065796e-02 1.421110481023788452e-01 7.629406452178955078e-02 6.255181133747100830e-02 -2.718098163604736328e-01 -4.999566078186035156e-02 2.222817391157150269e-02 2.057754099369049072e-01 6.652187556028366089e-03 -3.262324929237365723e-01 -8.368918299674987793e-02 -2.868152037262916565e-02 -4.963420331478118896e-02 1.955908983945846558e-01 5.703824386000633240e-02 2.767553329467773438e-01 -2.225466817617416382e-01 -2.914439514279365540e-02 -8.831211179494857788e-02 -8.988142013549804688e-02 -3.240086734294891357e-01 -2.035584300756454468e-01 -1.782308369874954224e-01 3.077523410320281982e-01 -3.553269430994987488e-02 -3.544262349605560303e-01 -2.338914386928081512e-02 -2.142082899808883667e-02 2.173371613025665283e-01 -3.959286212921142578e-01 1.940346956253051758e-01 -1.034030318260192871e-01 2.245691269636154175e-01 1.652247309684753418e-01 -3.169660866260528564e-01 -1.152436733245849609e-01 -2.788327932357788086e-01 -1.146881207823753357e-01 -1.395444124937057495e-01 7.572963088750839233e-02 -2.082316391170024872e-02 -1.130480319261550903e-01 3.788616955280303955e-01 1.981231272220611572e-01 9.965687058866024017e-03 -5.011498928070068359e-02 3.665959089994430542e-02 1.335420906543731689e-01 1.586231440305709839e-01 1.335177421569824219e-01 -8.739786595106124878e-02 1.566818356513977051e-01 2.344213724136352539e-01 8.916939049959182739e-02 8.504235744476318359e-02 2.420563995838165283e-01 3.502211272716522217e-01 2.488189488649368286e-01 6.671752035617828369e-02 -2.054753154516220093e-02 -9.507762640714645386e-02 -3.088930845260620117e-01 -2.190923988819122314e-01
-1.865871995687484741e-01 1.113052517175674438e-01 -1.154706999659538269e-01 1.187642216682434082e-01 2.205090969800949097e-01 -7.055892795324325562e-02 -2.674722075462341309e-01 2.877945005893707275e-01 3.754812479019165039e-02 -2.349891960620880127e-01 2.848733961582183838e-01 3.775285482406616211e-01 -1.521701067686080933e-01 2.492611408233642578e-01 -1.623025722801685333e-02 8.607301861047744751e-02 1.921656578779220581e-01 -7.770257443189620972e-02 1.073170229792594910e-01 -1.902438998222351074e-01 2.576017379760742188e-01 1.253037452697753906e-01 1.749582141637802124e-01 -3.321225345134735107e-01 1.594351045787334442e-02 -2.367041110992431641e-01 -1.614455133676528931e-01 1.104747578501701355e-01 -3.180844485759735107e-01 1.236618217080831528e-02 9.219971485435962677e-03 2.106334269046783447e-01 1.558195054531097412e-01 -1.691409051418304443e-01 -8.355449885129928589e-02 9.245824068784713745e-02 2.033349275588989258e-01 -2.954914271831512451e-01 3.180835023522377014e-02 -7.058564573526382446e-02 3.746092692017555237e-02 8.138787001371383667e-02 -9.356163442134857178e-02 3.514741361141204834e-01 5.580529198050498962e-02 -7.409564405679702759e-02 -6.132811307907104492e-02 3.219387531280517578e-01 -2.424419857561588287e-02 -1.920806057751178741e-02 1.295655500143766403e-02 -3.206066787242889404e-01 7.646720111370086670e-02 -1.548412293195724487e-01 1.004846617579460144e-01 -2.537650167942047119e-01 1.766156852245330811e-01 -4.286942631006240845e-02 -3.327300772070884705e-02 2.772012948989868164e-01 -1.126676946878433228e-01 8.712727576494216919e-02 3.436399400234222412e-01 1.253809481859207153e-01 3.406618162989616394e-02 -3.811969161033630371e-01 -2.763435058295726776e-02 4.402399528771638870e-03 1.577392071485519409e-01 1.582094281911849976e-01 -4.238184913992881775e-02 1.562083214521408081e-01 1.276287883520126343e-01 4.405369982123374939e-02 8.673184365034103394e-02 -1.996267884969711304e-01 6.641163676977157593e-02 1.964918822050094604e-01 -8.814250677824020386e-02 -3.231481015682220459e-01 1.257413476705551147e-01 2.594300210475921631e-01 -8.724667131900787354e-02 2.315519303083419800e-01 3.486497104167938232e-01 2.472485750913619995e-01 2.973490357398986816e-01 -3.483716771006584167e-02 -9.769869595766067505e-02 -2.760207355022430420e-01 2.637008130550384521e-01 2.186291664838790894e-01 2.056428641080856323e-01 -6.400749832391738892e-02 -6.710530072450637817e-02 -2.402983047068119049e-02 1.049408912658691406e-01 7.150270044803619385e-02 4.124752804636955261e-02 -2.083691358566284180e-01 1.044427156448364258e-01 -2.247839272022247314e-01 -2.268064320087432861e-01 7.393467426300048828e-02 -1.360959857702255249e-01 3.390466868877410889e-01 2.040205001831054688e-01 6.008398160338401794e-02 -3.099901378154754639e-01 -2.114042490720748901e-01 -8.602406829595565796e-02 3.799962624907493591e-02 -1.975572854280471802e-02 -4.622106999158859253e-02 -8.582230657339096069e-02 -4.013423621654510498e-02 2.116976082324981689e-01 9.481349959969520569e-03 1.686722189188003540e-01 2.829809784889221191e-01
5.053653195500373840e-02 -8.225075900554656982e-02 -1.042584404349327087e-01 1.965628117322921753e-01 2.128503983840346336e-03 9.533322416245937347e-03 -7.722022384405136108e-02 -1.193240191787481308e-02 2.453024387359619141e-01 -1.691831201314926147e-01 -1.385813951492309570e-01 9.703487157821655273e-02 -6.437966972589492798e-02 -1.333162635564804077e-01 2.514096200466156006e-01 2.115582972764968872e-01 -1.698711700737476349e-02 6.711637973785400391e-02 -3.299094736576080322e-01 1.021981760859489441e-01 1.326711382716894150e-02 -4.125524312257766724e-02 1.715046018362045288e-01 -2.240035831928253174e-01 -5.518402904272079468e-03 3.967474400997161865e-01 -2.780950963497161865e-01 -1.252592206001281738e-01 -1.371033638715744019e-01 -1.041456460952758789e-01 1.845956146717071533e-01 -1.395890563726425171e-01 3.967131301760673523e-02 2.718543112277984619e-01 1.698364317417144775e-01 3.640589118003845215e-01 -2.976432144641876221e-01 4.102202877402305603e-02 1.488759666681289673e-01 -1.787374727427959442e-02 -2.120074480772018433e-01 -2.611564397811889648e-01 -1.329887509346008301e-01 3.069594874978065491e-02 -2.597188651561737061e-01 -1.656083576381206512e-02 1.442765295505523682e-01 -3.826659917831420898e-02 -1.947107166051864624e-01 1.073757931590080261e-01 1.710094213485717773e-01 -4.517456144094467163e-02 -2.273698709905147552e-02 6.777398288249969482e-02 -1.890968233346939087e-01 2.854629158973693848e-01 1.346392650157213211e-02 7.266633212566375732e-02 1.840994209051132202e-01 2.569392025470733643e-01 -1.535654719918966293e-02 1.981298774480819702e-01 -3.714196979999542236e-01 7.115026563405990601e-02 1.438702195882797241e-01 3.188310191035270691e-03 -1.389466226100921631e-01 2.702383697032928467e-01 1.150865480303764343e-01 -9.696763008832931519e-02 -8.137452602386474609e-02 -1.039993949234485626e-02 3.501776233315467834e-02 5.312422662973403931e-02 5.210668593645095825e-02 -1.682491600513458252e-01 1.253637075424194336e-01 1.249860674142837524e-01 -6.347025185823440552e-02 -3.261488080024719238e-01 7.056167814880609512e-03 9.380104392766952515e-02 -8.424171060323715210e-02 2.312677949666976929e-01 -3.469700515270233154e-01 1.744464039802551270e-01 -1.209988743066787720e-01 3.085550367832183838e-01 9.551847726106643677e-02 -2.778208553791046143e-01 4.303327947854995728e-02 3.105518519878387451e-01 -2.962835691869258881e-02 1.574467569589614868e-01 -1.970387808978557587e-02 -6.806493550539016724e-02 7.143002748489379883e-02 -9.496454149484634399e-02 -1.540655940771102905e-01 1.177682280540466309e-01 -3.727423250675201416e-01 -1.382113993167877197e-02 -6.833349913358688354e-02 -1.880592405796051025e-01 3.392637372016906738e-01 5.932787060737609863e-02 1.576794087886810303e-01 -1.683984249830245972e-01 -2.021305412054061890e-01 3.972737193107604980e-01 1.439771205186843872e-01 -9.035514295101165771e-02 7.292252033948898315e-02 3.946909680962562561e-02 -2.086058408021926880e-01 2.220146507024765015e-01 2.281504217535257339e-03 -4.351059347391128540e-02 -2.442984133958816528e-01 1.000396236777305603e-01
3.750970959663391113e-01 2.255339175462722778e-01 -3.220627307891845703e-01 1.550116240978240967e-01 1.957416981458663940e-01 -1.049475627951323986e-03 -9.104432910680770874e-02 1.053776517510414124e-01 4.157925769686698914e-02 -1.143682003021240234e-02 8.414354175329208374e-02 1.064072623848915100e-01 4.127747565507888794e-02 -1.217159256339073181e-01 1.179662719368934631e-02 -7.726647704839706421e-02 1.382328011095523834e-02 -1.399598568677902222e-01 2.312597483396530151e-01 3.876500129699707031e-01 7.016383856534957886e-02 2.130171507596969604e-01 -2.940035760402679443e-01 -9.908580034971237183e-02 5.246927961707115173e-02 8.446015417575836182e-02 9.184835106134414673e-02 3.239901661872863770e-01 8.039185404777526855e-02 2.504519224166870117e-01 8.487265557050704956e-02 2.553837895393371582e-01 -9.069528430700302124e-02 -2.954646013677120209e-02 2.170428335666656494e-01 -1.329621523618698120e-01 -7.938850671052932739e-02 -1.731557250022888184e-01 1.331199407577514648e-01 7.420614361763000488e-03 -3.866041004657745361e-01 -1.111434251070022583e-01 -4.022583737969398499e-02 -4.649883601814508438e-03 -2.718493640422821045e-01 -2.827090024948120117e-01 -1.759424954652786255e-01 9.083488583564758301e-02 -2.598930299282073975e-01 -2.260496467351913452e-01 -2.445110529661178589e-01 -2.314648479223251343e-01 9.627000242471694946e-02 -5.141780525445938110e-02 1.846739053726196289e-01 -1.421769410371780396e-01 2.730671167373657227e-01 -2.547868900001049042e-02 5.587909743189811707e-02 1.955563575029373169e-01 3.436823487281799316e-01 -2.720164954662322998e-01 -1.822290420532226562e-01 -1.440568864345550537e-01 -1.789737641811370850e-01 1.199204549193382263e-01 -8.549871295690536499e-02 -3.588019311428070068e-02 1.191860362887382507e-01 -1.939233392477035522e-01 2.077145688235759735e-02 5.819686129689216614e-02 -1.259838193655014038e-01 1.301821917295455933e-01 1.116145178675651550e-01 1.065662056207656860e-01 -1.037511453032493591e-01 -2.262352705001831055e-01 3.828917443752288818e-01 1.573907285928726196e-01 -2.676351368427276611e-01 -7.674102485179901123e-02 2.689497172832489014e-01 1.414768695831298828e-01 3.336271345615386963e-01 1.790934503078460693e-01 2.151230871677398682e-01 -1.434060037136077881e-01 2.873183488845825195e-01 -2.712176553905010223e-02 1.973131000995635986e-01 1.550819575786590576e-01 -3.387872278690338135e-01 -8.280407637357711792e-02 -2.549214065074920654e-01 1.142260581254959106e-01 1.122060641646385193e-01 2.164737321436405182e-02 -1.710818558931350708e-01 -1.446800529956817627e-01 -2.676613628864288330e-02 -2.491345256567001343e-01 1.017749682068824768e-01 -1.815035566687583923e-02 -3.426853418350219727e-01 -1.923194378614425659e-01 -6.816104054450988770e-02 1.260308083146810532e-02 -4.590750113129615784e-02 -6.834127753973007202e-02 -2.523410022258758545e-01 2.335890978574752808e-01 -3.204250633716583252e-01 1.772421896457672119e-01 -4.349169880151748657e-02 6.094703078269958496e-02 -2.214991301298141479e-02 -2.840730845928192139e-01 -1.377974599599838257e-01 2.740088403224945068e-01
1.797270774841308594e-01 8.449546992778778076e-02 -1.793967038393020630e-01 2.291992008686065674e-01 2.228910177946090698e-01 -2.523694746196269989e-02 7.960679382085800171e-02 1.983365789055824280e-02 -1.718493998050689697e-01 2.328201383352279663e-01 -4.942974448204040527e-02 -1.940063685178756714e-01 -1.598755717277526855e-01 -3.905373439192771912e-02 1.029116008430719376e-02 -2.215362340211868286e-01 1.121090427041053772e-01 7.699673622846603394e-02 1.005956903100013733e-01 1.162390038371086121e-01 -8.412673324346542358e-02 2.439613342285156250e-01 -2.740542590618133545e-01 -1.647384166717529297e-01 1.659096777439117432e-01 1.046326532959938049e-01 -3.047898709774017334e-01 8.664019405841827393e-03 1.098578497767448425e-01 1.853538560681045055e-03 1.024158820509910583e-01 -1.178421527147293091e-01 8.694574981927871704e-02 8.465873450040817261e-02 -7.151351869106292725e-02 6.426713615655899048e-02 1.689245551824569702e-01 1.563975661993026733e-01 -6.203697249293327332e-02 1.475135087966918945e-01 -1.543756276369094849e-01 3.720297515392303467e-01 5.443448945879936218e-02 -7.250436395406723022e-02 -1.731683462858200073e-01 -5.233251675963401794e-02 -2.497535198926925659e-01 -3.618272021412849426e-02 1.950627714395523071e-01 3.293795883655548096e-02 -1.332214623689651489e-01 2.682447247207164764e-02 6.084252521395683289e-02 -3.049817681312561035e-01 1.245622858405113220e-01 -4.887729883193969727e-02 -1.739637702703475952e-01 -1.216670498251914978e-01 3.231082558631896973e-01 -1.913950443267822266e-01 -1.936091184616088867e-01 -7.866730540990829468e-02 -1.224623098969459534e-01 2.628203630447387695e-01 -6.117653567343950272e-03 1.223164796829223633e-01 1.606642752885818481e-01 -3.122562766075134277e-01 -2.268575280904769897e-01 7.320937514305114746e-02 -3.078636825084686279e-01 3.993236646056175232e-02 8.422877639532089233e-02 5.140168592333793640e-02 -1.524800807237625122e-02 -2.159385979175567627e-01 1.341976132243871689e-02 1.423510164022445679e-01 6.024160888046026230e-03 -2.310207933187484741e-01 2.379813045263290405e-01 -7.209060341119766235e-02 1.106841396540403366e-02 -1.303685009479522705e-01 2.464231997728347778e-01 2.119269669055938721e-01 -2.802764810621738434e-02 -2.953785657882690430e-01 -2.431970089673995972e-01 3.407897055149078369e-01 -5.260882899165153503e-02 4.819073900580406189e-02 6.074033305048942566e-02 -1.990918628871440887e-02 -2.340131253004074097e-01 -1.123340725898742676e-01 1.237040087580680847e-01 -5.085893347859382629e-02 -3.010987341403961182e-01 -1.301755905151367188e-01 2.272570878267288208e-01 2.130195125937461853e-02 2.227077037096023560e-01 -1.966301053762435913e-01 -1.813892871141433716e-01 -3.785817325115203857e-02 -3.174074888229370117e-01 -2.936730086803436279e-01 -7.292178273200988770e-02 1.921885907649993896e-01 3.238402679562568665e-02 6.334239244461059570e-02 -6.441616266965866089e-02 2.114466428756713867e-01 -1.520470082759857178e-01 3.428130447864532471e-01 -1.917138844728469849e-01 -1.462675184011459351e-01 1.567344963550567627e-01 1.406280696392059326e-01
-2.272770702838897705e-01 -3.020399510860443115e-01 -3.404472768306732178e-01 -1.505954563617706299e-01 -4.041192308068275452e-02 2.743070200085639954e-02 1.604550890624523163e-02 1.345518082380294800e-01 -4.651425406336784363e-02 5.798620171844959259e-03 7.908155769109725952e-02 2.464173883199691772e-01 2.550010979175567627e-01 -3.434271737933158875e-02 -7.778815180063247681e-02 9.327777475118637085e-02 -1.606182195246219635e-02 -9.408999234437942505e-02 1.061675474047660828e-01 -3.868110179901123047e-01 -3.184306621551513672e-02 -3.122187554836273193e-01 -1.971570849418640137e-01 -2.713847756385803223e-01 -1.138178855180740356e-01 -1.956271678209304810e-01 -7.764372974634170532e-02 1.178580522537231445e-01 -5.208406597375869751e-02 -3.534249365329742432e-01 -9.953829646110534668e-02 -2.156927064061164856e-02 2.650230824947357178e-01 -3.168131038546562195e-02 -2.833810448646545410e-01 -1.922354400157928467e-01 3.985845744609832764e-01 -1.283513009548187256e-01 -2.721283212304115295e-02 -1.625345200300216675e-01 -3.588827699422836304e-02 9.357412904500961304e-02 -3.840565383434295654e-01 -1.953954249620437622e-01 2.565723955631256104e-01 -1.658414453268051147e-01 -3.256078660488128662e-01 2.957073226571083069e-02 8.070009946823120117e-02 -2.154156416654586792e-01 1.207154020667076111e-01 1.239657178521156311e-01 -1.245987508445978165e-02 -7.448472082614898682e-02 4.279192071408033371e-03 1.953485459089279175e-01 2.442228645086288452e-01 3.773373365402221680e-02 2.260863780975341797e-01 1.572055071592330933e-01 1.202467828989028931e-01 -1.965202540159225464e-01 -1.979560852050781250e-01 -1.072623301297426224e-02 -3.536482155323028564e-02 -1.840942651033401489e-01 -2.369918078184127808e-01 -1.796278804540634155e-01 -3.483635187149047852e-01 -1.313720494508743286e-01 2.183208912611007690e-01 2.363394759595394135e-02 -5.500637367367744446e-02 -2.203171327710151672e-02 -1.062257513403892517e-01 -1.762665659189224243e-01 -3.149280548095703125e-01 2.223875373601913452e-01 1.099282875657081604e-01 1.358203887939453125e-01 1.173050999641418457e-01 -2.151593752205371857e-02 2.197311222553253174e-01 2.654869258403778076e-01 6.362491846084594727e-02 8.990789949893951416e-02 -7.809364236891269684e-03 -1.145296916365623474e-01 3.425234556198120117e-02 3.929244279861450195e-01 -1.152140051126480103e-01 2.654801309108734131e-01 6.341619044542312622e-02 -2.104801870882511139e-02 -1.678133457899093628e-01 1.057006120681762695e-01 -1.786964237689971924e-01 3.957284390926361084e-01 -8.553398400545120239e-02 -2.611096575856208801e-02 -1.012917906045913696e-01 2.323275655508041382e-01 2.469488680362701416e-01 1.352533251047134399e-01 1.457294672727584839e-01 2.191797345876693726e-01 -1.229229569435119629e-01 -4.408590868115425110e-02 -2.351792603731155396e-01 -1.598429977893829346e-01 -6.931578367948532104e-02 1.347510069608688354e-01 1.403198838233947754e-01 7.235461473464965820e-02 -2.955286204814910889e-01 3.799114748835563660e-02 1.273811906576156616e-01 2.603302299976348877e-01 1.069718748331069946e-01 4.691551253199577332e-02
-2.270857393741607666e-01 3.285891413688659668e-01 -8.973525837063789368e-03 -1.319789141416549683e-01 -1.189996115863323212e-02 2.036531418561935425e-01 3.341502845287322998e-01 1.215168014168739319e-01 1.297393441200256348e-01 -1.500477194786071777e-01 -2.274179458618164062e-01 -1.063618808984756470e-01 1.119961738586425781e-01 -1.021943464875221252e-01 -2.782034315168857574e-02 -1.175220310688018799e-02 1.230945140123367310e-01 -1.821986027061939240e-02 1.191552504897117615e-01 1.113328617066144943e-02 -2.124152518808841705e-02 3.319147974252700806e-02 9.681987017393112183e-02 1.065879240632057190e-01 2.192955315113067627e-01 -1.291162222623825073e-01 1.292452812194824219e-01 6.638845056295394897e-02 -2.031804174184799194e-01 -2.192939966917037964e-01 1.768381744623184204e-01 3.794341087341308594e-01 -1.666036695241928101e-01 1.132146269083023071e-01 3.085284493863582611e-02 1.242508292198181152e-01 -1.119022965431213379e-01 -1.372767984867095947e-01 -9.959172457456588745e-02 -1.408694963902235031e-02 -2.793629467487335205e-01 1.967893689870834351e-01 1.681540533900260925e-02 -9.938891977071762085e-02 1.531767100095748901e-01 -4.142066836357116699e-02 -1.779835484921932220e-02 -5.476992204785346985e-02 1.866320967674255371e-01 -3.331620991230010986e-02 1.387177109718322754e-01 -9.386190772056579590e-02 -9.932007640600204468e-02 2.740989997982978821e-02 -3.138762414455413818e-01 3.540191352367401123e-01 -2.485487377271056175e-03 -1.668222844600677490e-01 2.386999875307083130e-01 8.595949970185756683e-03 -1.188377737998962402e-01 1.154785528779029846e-01 -1.280615180730819702e-01 3.727901875972747803e-01 -4.952339828014373779e-02 2.372407466173171997e-01 -1.271462738513946533e-01 1.785207912325859070e-02 1.046905443072319031e-01 -1.603422611951828003e-01 1.695736646652221680e-01 -2.550575435161590576e-01 8.180936425924301147e-02 -2.342223227024078369e-01 -1.198574528098106384e-02 1.790756434202194214e-01 -8.268247544765472412e-02 6.570509821176528931e-02 3.029153123497962952e-02 1.132935006171464920e-02 1.140618100762367249e-01 -1.859553158283233643e-01 2.233449518680572510e-01 -1.073100194334983826e-01 -2.695203199982643127e-02 -1.735850051045417786e-02 -1.775319427251815796e-01 7.723376154899597168e-02 -3.319343030452728271e-01 2.433443814516067505e-01 -6.057925056666135788e-03 1.564943343400955200e-01 2.806730940937995911e-02 -2.234401740133762360e-02 1.120179519057273865e-01 7.833056151866912842e-02 1.264050137251615524e-02 -8.050514012575149536e-02 3.661591559648513794e-02 -2.740696072578430176e-01 -7.024610787630081177e-02 -7.868736237287521362e-02 2.002352774143218994e-01 9.341560304164886475e-02 8.481497317552566528e-02 -6.586356461048126221e-02 2.032561600208282471e-01 -1.399582773447036743e-01 3.638846874237060547e-01 -1.101829335093498230e-01 -7.555493712425231934e-02 1.364704817533493042e-01 8.697798848152160645e-02 -1.430717557668685913e-01 -8.976785838603973389e-02 -5.424239113926887512e-02 -3.939388096332550049e-01 2.996748313307762146e-03 6.516071408987045288e-02 2.713367342948913574e-01
-1.966781616210937500e-01 -7.023814320564270020e-02 -1.467110961675643921e-01 -4.091908782720565796e-02 -1.806476712226867676e-02 -7.078120112419128418e-02 7.527515292167663574e-02 -3.609471023082733154e-01 -1.905865967273712158e-01 -4.152544960379600525e-02 4.190815240144729614e-02 -2.116857618093490601e-01 9.134527295827865601e-02 -2.247642576694488525e-01 -1.563094109296798706e-01 -1.371601223945617676e-01 -2.520678937435150146e-01 -4.292231053113937378e-02 -1.204417124390602112e-01 -5.506193637847900391e-02 1.527433395385742188e-01 8.420548588037490845e-02 -2.217254936695098877e-01 2.428441345691680908e-01 3.377069905400276184e-02 -1.015187501907348633e-01 1.067590266466140747e-01 1.915217936038970947e-01 1.417398899793624878e-01 -2.981971763074398041e-02 5.693363770842552185e-02 -7.099286466836929321e-02 -7.131465524435043335e-02 -2.235420793294906616e-02 -9.047144651412963867e-02 1.061385422945022583e-01 -3.763948082923889160e-01 1.067098900675773621e-01 2.061309665441513062e-01 1.082340255379676819e-01 2.766247093677520752e-01 -2.036409229040145874e-01 2.255977243185043335e-01 -2.312675565481185913e-01 -1.524056792259216309e-01 -1.568487286567687988e-01 3.980063796043395996e-01 -2.393203526735305786e-01 -2.248344868421554565e-01 2.367579191923141479e-01 2.169030718505382538e-02 7.263249903917312622e-02 2.498400509357452393e-01 -5.445554479956626892e-02 -5.582264065742492676e-02 -1.132806576788425446e-02 1.055060997605323792e-01 4.454595223069190979e-02 2.664484977722167969e-01 2.639393210411071777e-01 -1.848920136690139771e-01 -2.189575694501399994e-02 1.153805628418922424e-01 -6.274197995662689209e-02 7.473547011613845825e-02 1.358092278242111206e-01 1.488225758075714111e-01 -1.663773693144321442e-02 -1.131678968667984009e-01 -5.630465969443321228e-02 2.895498415455222130e-03 2.533634938299655914e-02 5.023526772856712341e-02 -7.943132519721984863e-02 2.328733950853347778e-01 9.013571590185165405e-02 -9.428093209862709045e-03 1.263979077339172363e-01 1.141229644417762756e-01 1.667186990380287170e-02 1.408249139785766602e-01 3.736331686377525330e-02 -3.345457836985588074e-02 7.765444368124008179e-02 -1.459237337112426758e-01 4.447655752301216125e-02 1.898914724588394165e-01 -3.524332940578460693e-01 1.729901582002639771e-01 1.055722832679748535e-01 -3.084492981433868408e-01 -1.307795792818069458e-01 1.493426412343978882e-01 5.835864692926406860e-02 3.059709211811423302e-03 -2.032059431076049805e-01 5.505518987774848938e-02 -5.455322936177253723e-02 1.682638227939605713e-01 -1.661081761121749878e-01 1.284280121326446533e-01 -4.518590867519378662e-02 -3.521859049797058105e-01 -1.951103061437606812e-01 -2.540456950664520264e-01 2.252256721258163452e-01 -7.922058552503585815e-02 -1.904391646385192871e-01 1.467327959835529327e-02 5.437471345067024231e-02 -1.002846583724021912e-01 2.908329665660858154e-01 7.165645062923431396e-02 1.394491642713546753e-01 1.016588136553764343e-01 -1.703789681196212769e-01 7.138543576002120972e-02 1.470037549734115601e-01 1.178928166627883911e-01 -5.740565061569213867e-02
-1.041537523269653320e-01 -1.760198175907135010e-01 -1.355120688676834106e-01 -1.581498831510543823e-01 3.004668653011322021e-01 -1.527618318796157837e-01 -2.297908514738082886e-01 -1.064108870923519135e-02 1.501126289367675781e-01 8.988970518112182617e-02 -1.179386526346206665e-01 -1.554499864578247070e-01 -1.423670947551727295e-01 2.586383521556854248e-01 2.672144174575805664e-01 -3.035643696784973145e-02 -4.023140296339988708e-02 9.453102201223373413e-02 1.263115257024765015e-01 -2.842247188091278076e-01 -7.663785666227340698e-02 -9.234538674354553223e-02 8.139326423406600952e-02 -9.291552752256393433e-02 7.864972203969955444e-02 -1.618979126214981079e-01 1.288549304008483887e-01 1.045361086726188660e-01 -4.485986754298210144e-02 -1.540042459964752197e-02 -6.597975641489028931e-02 -1.571080237627029419e-01 -2.673210799694061279e-01 3.437750637531280518e-01 -1.416182219982147217e-01 2.851472795009613037e-01 -3.336767554283142090e-01 1.116382107138633728e-01 -1.451040059328079224e-01 1.893946230411529541e-01 3.874808847904205322e-01 -1.029751077294349670e-01 -5.960600450634956360e-02 7.095452398061752319e-03 2.158570140600204468e-01 9.894882887601852417e-02 1.030662432312965393e-01 5.675451830029487610e-02 -1.548185050487518311e-01 1.779929036274552345e-03 -2.262450195848941803e-02 1.675620377063751221e-01 1.176277771592140198e-01 -1.526991128921508789e-01 2.760143876075744629e-01 -1.218983530998229980e-01 -2.114581167697906494e-01 1.203238293528556824e-01 -9.690792858600616455e-02 -2.925746440887451172e-01 -2.788588404655456543e-01 -2.564758062362670898e-02 -1.315042227506637573e-01 3.032557368278503418e-01 1.408028881996870041e-02 1.885124742984771729e-01 3.859516382217407227e-01 -1.829299144446849823e-02 -1.861635893583297729e-01 1.922548562288284302e-02 1.457871794700622559e-01 5.908213928341865540e-02 -3.742133677005767822e-01 1.184706911444664001e-01 5.851776152849197388e-02 -1.537257581949234009e-01 -3.045119941234588623e-01 -1.106961518526077271e-01 1.955989301204681396e-01 -1.518408507108688354e-01 -1.116658970713615417e-01 4.446150362491607666e-02 7.403618842363357544e-02 -2.219679653644561768e-01 5.495527014136314392e-02 9.128015488386154175e-02 5.363913998007774353e-02 -8.124338462948799133e-03 2.389886677265167236e-01 -8.120404183864593506e-02 5.755724385380744934e-02 1.084000691771507263e-01 9.935357421636581421e-02 -3.146322667598724365e-01 -2.041608542203903198e-01 -4.916834831237792969e-02 -2.666381932795047760e-02 -2.924179732799530029e-01 4.564492963254451752e-03 -8.004499226808547974e-02 8.932819217443466187e-02 6.516080349683761597e-02 9.257321804761886597e-02 -1.241281852126121521e-01 -1.951023191213607788e-01 -2.050501853227615356e-02 -5.139715597033500671e-02 1.606173366308212280e-01 5.619749054312705994e-02 -1.370293945074081421e-01 3.154625371098518372e-02 2.132320404052734375e-01 3.572287410497665405e-02 9.201479703187942505e-02 -1.478298604488372803e-01 -1.436220556497573853e-01 3.256776034832000732e-01 5.028720572590827942e-02 1.044303178787231445e-01 -2.285815030336380005e-01
-2.144996225833892822e-01 9.615584462881088257e-02 1.553164422512054443e-01 1.865464448928833008e-01 -1.245991140604019165e-01 -9.845887869596481323e-02 -2.203786224126815796e-01 -1.373549997806549072e-01 -3.416337817907333374e-02 -2.568109631538391113e-01 1.528277546167373657e-01 1.011569425463676453e-02 2.159923762083053589e-01 -1.181345209479331970e-01 2.674666345119476318e-01 -1.298008412122726440e-01 -3.604204356670379639e-01 2.168269604444503784e-01 2.942535877227783203e-01 7.585220038890838623e-02 2.274778187274932861e-01 -1.231733802706003189e-02 3.514351248741149902e-01 7.980407774448394775e-02 -1.187957748770713806e-01 -6.819088011980056763e-02 -9.536369703710079193e-03 -1.381802409887313843e-01 -1.748736500740051270e-01 -1.007011085748672485e-01 1.347017884254455566e-01 -6.344788521528244019e-02 1.556833982467651367e-01 -9.497908875346183777e-03 -1.629935204982757568e-01 6.143572926521301270e-02 4.842654615640640259e-02 -2.143572568893432617e-01 6.049384828656911850e-03 2.556336820125579834e-01 -2.648180723190307617e-01 -6.803991645574569702e-02 2.278782576322555542e-01 2.431718111038208008e-01 -2.047841101884841919e-01 -7.252698391675949097e-02 5.798058584332466125e-02 -3.136171028017997742e-02 2.327042818069458008e-01 -6.994610186666250229e-03 7.739473879337310791e-02 -2.830347716808319092e-01 -2.531515061855316162e-02 -1.793840783648192883e-03 -2.958682775497436523e-01 2.572056651115417480e-01 -1.299816668033599854e-01 -5.185756832361221313e-02 2.146834135055541992e-01 1.363943815231323242e-01 -1.780801117420196533e-01 -2.431921958923339844e-01 2.468100748956203461e-02 1.562929004430770874e-01 1.107257381081581116e-01 6.525500863790512085e-02 -1.505589187145233154e-01 7.565993815660476685e-02 2.931466698646545410e-01 -1.863219439983367920e-01 -4.709424078464508057e-02 1.619668602943420410e-01 1.367985308170318604e-01 -5.766468122601509094e-02 -1.608039885759353638e-01 1.346188038587570190e-01 -9.779051877558231354e-03 -1.607275605201721191e-01 1.551682353019714355e-01 8.595222234725952148e-02 -1.644552336074411869e-03 -2.232648879289627075e-01 -2.944514155387878418e-01 -2.049088105559349060e-02 1.320085525512695312e-01 1.821467578411102295e-01 4.456811770796775818e-02 5.839977785944938660e-02 -1.521712727844715118e-02 -2.252082675695419312e-01 8.633130043745040894e-02 3.768668472766876221e-01 3.261840045452117920e-01 1.778500825166702271e-01 1.259493827819824219e-01 7.685082405805587769e-02 -7.421445101499557495e-02 -2.819375097751617432e-01 -2.107580751180648804e-02 1.739285327494144440e-02 -7.936243712902069092e-02 -1.487883031368255615e-01 1.164225935935974121e-01 -1.918490380048751831e-01 1.429388672113418579e-01 3.627255186438560486e-02 -1.637246161699295044e-01 3.391503393650054932e-01 1.422915756702423096e-01 -8.195358514785766602e-02 -2.434404939413070679e-01 2.530625276267528534e-02 2.811799012124538422e-02 1.268429011106491089e-01 5.157500132918357849e-02 4.947043955326080322e-02 -4.662284161895513535e-03 -2.758499681949615479e-01 3.181299194693565369e-02 -2.281260304152965546e-02
-2.262144535779953003e-01 -2.390096932649612427e-01 9.638685733079910278e-02 -5.155901983380317688e-02 1.472949534654617310e-01 -4.378226399421691895e-02 -1.813312061131000519e-02 3.937461227178573608e-02 3.160181269049644470e-02 -1.010710820555686951e-01 2.485568821430206299e-01 1.308917403221130371e-01 1.868638694286346436e-01 1.218766719102859497e-01 2.467246502637863159e-01 -2.813315689563751221e-01 2.151939719915390015e-01 1.566543430089950562e-02 -5.310780555009841919e-02 -9.348437935113906860e-02 1.882835775613784790e-01 -2.069696187973022461e-01 9.948562085628509521e-02 -1.199715491384267807e-02 -1.444998085498809814e-01 -9.506651014089584351e-02 -8.278205245733261108e-02 1.564180552959442139e-01 -1.685689240694046021e-01 -1.179887056350708008e-01 -3.153026401996612549e-01 1.644144803285598755e-01 2.074962854385375977e-01 2.168703824281692505e-02 2.514815628528594971e-01 -2.301324456930160522e-01 -5.228365585207939148e-02 -3.185213506221771240e-01 2.269799560308456421e-01 -7.556094229221343994e-02 -2.531238831579685211e-02 1.132826507091522217e-02 1.156764179468154907e-01 6.608258932828903198e-03 -2.305565923452377319e-01 -2.117327004671096802e-01 -3.068937361240386963e-01 -6.690899282693862915e-02 -4.414785280823707581e-02 1.329334080219268799e-01 -3.984137475490570068e-01 1.059114858508110046e-01 5.104684829711914062e-02 2.855138182640075684e-01 -1.398864388465881348e-01 -3.514207005500793457e-01 -2.155894786119461060e-01 -8.035691082477569580e-02 2.138886302709579468e-01 -4.882590100169181824e-02 -1.066068280488252640e-02 5.681303143501281738e-02 -1.451554894447326660e-02 -3.093210160732269287e-01 -1.148354560136795044e-01 -2.308327257633209229e-01 1.752161830663681030e-01 2.727830708026885986e-01 -3.243166506290435791e-01 -3.694083392620086670e-01 1.299328356981277466e-01 -1.368712484836578369e-01 3.502088412642478943e-02 1.281852275133132935e-01 2.996266782283782959e-01 -4.700053483247756958e-02 -5.562596395611763000e-02 2.459395378828048706e-01 -6.563009321689605713e-02 2.346983700990676880e-01 2.909496426582336426e-01 2.003740817308425903e-01 3.676191344857215881e-02 -1.231375336647033691e-01 1.754685789346694946e-01 1.107932105660438538e-01 -2.688000798225402832e-01 -1.818516701459884644e-01 -2.628192305564880371e-02 -1.418157070875167847e-01 -1.645871698856353760e-01 2.913672290742397308e-02 -1.227723732590675354e-01 -4.192265495657920837e-02 -7.227248698472976685e-02 -1.141388565301895142e-01 1.320951581001281738e-01 -2.269672416150569916e-02 -8.641844242811203003e-02 -7.982613891363143921e-02 1.512377113103866577e-01 -4.622651636600494385e-02 -3.818296492099761963e-01 -1.404583454132080078e-01 -5.324702337384223938e-02 1.941643357276916504e-01 -1.449026465415954590e-01 4.137462750077247620e-02 -6.937236338853836060e-02 -9.826006740331649780e-02 2.430595904588699341e-01 5.767519399523735046e-02 -2.422206699848175049e-01 -1.939561218023300171e-01 1.952932476997375488e-01 -1.517679542303085327e-01 8.430700749158859253e-02 -2.102251350879669189e-01 7.144952565431594849e-02 1.093916818499565125e-01
1.492274850606918335e-01 5.899965390563011169e-02 1.525994092226028442e-01 -3.076232969760894775e-01 2.148073911666870117e-01 2.217515707015991211e-01 -3.878291323781013489e-02 -1.672396063804626465e-01 -5.420469865202903748e-02 -1.020054742693901062e-01 -1.710009276866912842e-01 2.596780657768249512e-01 -8.825837075710296631e-02 -1.905881613492965698e-01 1.484311223030090332e-01 -1.116161495447158813e-01 2.602288126945495605e-01 -5.079748108983039856e-02 -1.385546773672103882e-01 1.661965101957321167e-01 3.730634599924087524e-02 2.301959842443466187e-01 -3.643591105937957764e-01 -7.109721004962921143e-02 3.169186040759086609e-02 -3.102984428405761719e-01 -1.875042542815208435e-02 3.615365177392959595e-02 1.005568057298660278e-01 3.426392376422882080e-01 -1.956008560955524445e-02 -2.057183831930160522e-01 1.444425880908966064e-01 1.265448238700628281e-02 -2.055070847272872925e-01 7.024820894002914429e-02 -1.544210910797119141e-01 2.028147280216217041e-01 1.094183325767517090e-01 -1.872187703847885132e-01 1.544804722070693970e-01 -3.518333435058593750e-01 -1.003819853067398071e-01 2.922655045986175537e-01 1.967691183090209961e-01 3.713537752628326416e-01 8.099338412284851074e-02 3.199255168437957764e-01 1.798238456249237061e-01 -2.148718088865280151e-01 -2.801134288311004639e-01 -5.372957512736320496e-02 -2.912094295024871826e-01 -1.173432394862174988e-01 -8.996967226266860962e-02 2.761726081371307373e-01 -1.281532645225524902e-01 -1.588765233755111694e-01 -8.984475582838058472e-02 1.862990707159042358e-01 -2.939670160412788391e-02 -6.145558878779411316e-02 -5.517213419079780579e-02 -1.515342593193054199e-01 -1.504738479852676392e-01 2.167566120624542236e-01 -1.426665484905242920e-01 4.501732066273689270e-02 -2.148958742618560791e-01 -2.067703306674957275e-01 -2.395896166563034058e-01 1.776779145002365112e-01 1.717895120382308960e-01 -4.736236762255430222e-03 -1.599427126348018646e-02 1.987017989158630371e-01 -6.003632768988609314e-02 6.647494435310363770e-02 1.260699927806854248e-01 7.645542919635772705e-02 1.870451867580413818e-01 1.061058565974235535e-01 6.630178540945053101e-02 3.298993110656738281e-01 2.150258570909500122e-01 -1.454781442880630493e-01 -9.450253844261169434e-02 2.068054229021072388e-01 -1.233093142509460449e-01 6.272169202566146851e-02 3.434679806232452393e-01 2.648858726024627686e-01 4.465109668672084808e-03 6.272955983877182007e-02 -2.072166055440902710e-01 2.805406749248504639e-01 1.436020731925964355e-01 8.606123179197311401e-02 3.211126923561096191e-01 -1.498052477836608887e-01 -2.984488904476165771e-01 2.800327539443969727e-02 4.862650111317634583e-02 -2.557002566754817963e-02 -1.164905056357383728e-01 -3.084832988679409027e-02 3.043528273701667786e-02 1.547480225563049316e-01 -1.985651701688766479e-01 3.636608719825744629e-01 1.259648650884628296e-01 -1.865468770265579224e-01 1.165479645133018494e-01 2.594915591180324554e-02 -4.616844281554222107e-02 -3.885698318481445312e-01 -3.755493164062500000e-01 -1.346573829650878906e-01 -2.613747417926788330e-01 5.456071719527244568e-02
-3.811964690685272217e-01 2.848757505416870117e-01 -1.849957555532455444e-01 1.559031158685684204e-01 1.033846512436866760e-01 4.047250002622604370e-02 5.006064847111701965e-02 -1.786749511957168579e-01 -2.364688366651535034e-01 -1.063472628593444824e-01 -1.313735097646713257e-01 -2.832956016063690186e-01 -2.043896466493606567e-01 2.656031586229801178e-02 1.985602676868438721e-01 -1.142135486006736755e-01 -1.367136090993881226e-01 2.100888788700103760e-01 -7.572054862976074219e-02 1.266681700944900513e-01 1.618201136589050293e-01 4.351532086730003357e-02 7.889774441719055176e-02 -1.178794633597135544e-02 -1.746388822793960571e-01 -1.835341192781925201e-02 -2.152123302221298218e-01 6.913229078054428101e-02 -3.982038795948028564e-01 -1.261234134435653687e-01 2.490650415420532227e-01 1.452658921480178833e-01 -3.994794934988021851e-02 3.249489888548851013e-02 2.351666986942291260e-02 2.432064525783061981e-02 1.434095855802297592e-02 -1.036978736519813538e-01 7.384978234767913818e-02 3.720688819885253906e-01 -4.800092428922653198e-02 -2.354894950985908508e-02 1.131334826350212097e-01 3.418091237545013428e-01 1.173020689748227596e-03 -2.205109447240829468e-01 -3.543413579463958740e-01 -7.220199704170227051e-02 1.018127202987670898e-01 -1.763834208250045776e-01 -3.617970645427703857e-01 1.279361695051193237e-01 1.247200891375541687e-01 2.546264827251434326e-01 8.669246733188629150e-02 3.269336521625518799e-01 -1.435880511999130249e-01 1.738903224468231201e-01 -9.537865966558456421e-02 -1.260372102260589600e-01 8.036249317228794098e-03 4.060436412692070007e-02 3.674289882183074951e-01 1.552707701921463013e-01 1.876565963029861450e-01 -4.406142234802246094e-02 -1.431700736284255981e-01 -2.165489941835403442e-01 -6.422101706266403198e-02 -1.710108071565628052e-01 3.972867969423532486e-03 2.372459918260574341e-01 -1.055027619004249573e-01 4.256798699498176575e-02 -4.643076285719871521e-02 -1.522730290889739990e-01 2.544692456722259521e-01 4.571003839373588562e-02 1.004743725061416626e-01 -1.194659397006034851e-01 5.879802629351615906e-02 1.840532757341861725e-02 1.952304132282733917e-02 -7.350147515535354614e-02 -2.826345264911651611e-01 -1.090749725699424744e-01 1.147000566124916077e-01 1.353608369827270508e-01 6.068319082260131836e-02 -7.508374005556106567e-02 8.094364404678344727e-02 3.565647900104522705e-01 -1.185853257775306702e-01 1.666904427111148834e-02 6.684919446706771851e-02 3.294526040554046631e-01 8.182431012392044067e-02 4.399416968226432800e-02 -6.306030601263046265e-02 -2.087095081806182861e-01 -6.029576528817415237e-03 -4.263628646731376648e-02 1.207471173256635666e-02 -1.149055734276771545e-01 -2.572545111179351807e-01 -8.223123103380203247e-02 1.433909833431243896e-01 5.148110538721084595e-02 2.512849308550357819e-02 -1.061454764567315578e-03 2.678502500057220459e-01 2.315710633993148804e-01 2.367117851972579956e-01 -1.858459562063217163e-01 -1.677786372601985931e-02 9.283209592103958130e-02 1.505153626203536987e-01 -3.897773623466491699e-01 -6.244052574038505554e-02 -3.135476708412170410e-01
1.358300000429153442e-01 1.321188658475875854e-01 -1.594876646995544434e-01 1.750222891569137573e-01 -2.059356421232223511e-01 -8.721839636564254761e-02 -2.254689037799835205e-01 2.053964138031005859e-01 -1.658253818750381470e-01 1.769160926342010498e-01 -1.007912382483482361e-01 -4.307315871119499207e-02 4.728584550321102142e-03 3.849616646766662598e-02 -2.494465559720993042e-01 1.132485270500183105e-01 4.718812927603721619e-02 -3.174712061882019043e-01 9.638070315122604370e-02 1.956892944872379303e-02 -2.293161898851394653e-01 3.407729789614677429e-02 -2.217364758253097534e-01 -3.229604661464691162e-02 1.315381824970245361e-01 -2.262143939733505249e-01 -1.668023876845836639e-02 1.591285616159439087e-01 -7.878004759550094604e-02 -1.117592826485633850e-01 -1.039156243205070496e-01 9.438259899616241455e-02 7.182120531797409058e-02 1.664666980504989624e-01 1.237888261675834656e-01 3.459314703941345215e-01 3.664351999759674072e-02 1.195364519953727722e-01 -1.010205671191215515e-01 -1.243969574570655823e-01 2.722928225994110107e-01 2.065189331769943237e-01 -3.003301322460174561e-01 -1.173116341233253479e-01 -3.924225270748138428e-01 1.026598811149597168e-01 1.906179338693618774e-01 -1.511358767747879028e-01 9.716587513685226440e-02 -2.241466343402862549e-01 -1.298596560955047607e-01 3.101592659950256348e-01 -1.966911554336547852e-01 -3.585941791534423828e-01 1.061796545982360840e-01 -1.711374223232269287e-01 -7.397302240133285522e-02 3.568022549152374268e-01 -1.787952631711959839e-01 2.717947065830230713e-01 -7.669145613908767700e-02 -2.111891806125640869e-01 -3.829672634601593018e-01 -1.894985288381576538e-01 -1.531057059764862061e-01 1.698594391345977783e-01 9.358341991901397705e-02 -5.214625224471092224e-02 2.051331996917724609e-01 1.992333680391311646e-01 -8.158057183027267456e-02 1.242061480879783630e-01 -1.427721083164215088e-01 -3.403187692165374756e-01 3.850935697555541992e-01 -1.450241357088088989e-01 5.967566370964050293e-02 2.681746780872344971e-01 -1.705628819763660431e-02 6.269735097885131836e-02 2.685840241611003876e-02 1.887308210134506226e-01 -3.028859794139862061e-01 1.562739780638366938e-04 1.563248485326766968e-01 3.413947820663452148e-01 -5.389900878071784973e-02 8.262503892183303833e-02 2.536598443984985352e-01 -1.524918377399444580e-01 7.594525068998336792e-02 -7.667677849531173706e-02 -1.002659723162651062e-01 1.437646299600601196e-01 -1.002761349081993103e-01 5.128614977002143860e-02 -1.400814205408096313e-01 -6.731196492910385132e-02 -2.682400681078433990e-02 -2.922959029674530029e-01 2.460282593965530396e-01 -1.665076464414596558e-01 3.772937953472137451e-01 2.067267149686813354e-01 1.997247785329818726e-01 1.114009991288185120e-01 2.379679530858993530e-01 -1.211713775992393494e-01 3.231297433376312256e-02 2.366632074117660522e-01 6.175697967410087585e-02 -1.826407909393310547e-01 2.099269442260265350e-02 8.047150820493698120e-02 7.728531211614608765e-02 3.937710821628570557e-02 3.191964328289031982e-01 2.385489195585250854e-01 -1.368200331926345825e-01 -1.662510186433792114e-01
2.141208201646804810e-01 2.656707167625427246e-02 4.606701061129570007e-02 7.094892114400863647e-02 1.849442273378372192e-01 -2.288486510515213013e-01 -1.003087982535362244e-01 -2.430025190114974976e-01 -1.993763297796249390e-01 1.445631235837936401e-01 -1.335529685020446777e-01 -7.105420529842376709e-02 -6.997229158878326416e-02 1.306703984737396240e-01 2.408804893493652344e-01 -1.268758326768875122e-01 -6.078494340181350708e-02 1.075567156076431274e-01 -3.105056583881378174e-01 -3.689585924148559570e-01 -1.466802209615707397e-01 -3.976925835013389587e-02 2.636259198188781738e-01 9.226690046489238739e-03 2.702178657054901123e-01 -1.125736720860004425e-02 -5.821360275149345398e-02 -1.235249545425176620e-02 -1.409955602139234543e-02 -7.195272296667098999e-02 -2.688157856464385986e-01 7.170166820287704468e-02 -2.703819274902343750e-01 5.418333411216735840e-02 3.366288840770721436e-01 -1.995521634817123413e-01 -1.647249013185501099e-01 4.270325973629951477e-02 -7.554060965776443481e-02 1.888646036386489868e-01 -1.159152910113334656e-01 -3.168149888515472412e-01 1.157326716929674149e-02 2.190885543823242188e-01 -8.017669618129730225e-02 1.221484541893005371e-01 3.641751706600189209e-01 1.235095690935850143e-02 2.377754636108875275e-02 2.094487398862838745e-01 1.968721598386764526e-01 3.649897128343582153e-02 -1.805755347013473511e-01 2.883359193801879883e-01 1.433183252811431885e-01 3.837051093578338623e-01 -5.656531453132629395e-02 -3.526203334331512451e-01 -8.451115339994430542e-02 -2.302238903939723969e-02 -7.984876632690429688e-02 -1.757589429616928101e-01 4.847135767340660095e-02 -1.622658669948577881e-01 -1.111131459474563599e-01 -1.230191513895988464e-01 3.295435905456542969e-01 6.592475622892379761e-02 2.073477059602737427e-01 -1.444285642355680466e-02 -3.080194257199764252e-02 -5.155197530984878540e-02 5.681740120053291321e-02 1.732175797224044800e-01 -1.808348298072814941e-01 -1.372536271810531616e-01 -1.595560312271118164e-01 -6.997048854827880859e-02 -9.286911785602569580e-02 -5.478316172957420349e-02 -1.062918677926063538e-01 4.773282632231712341e-02 1.047005206346511841e-01 -3.512398898601531982e-01 1.460140943527221680e-01 -8.344679325819015503e-02 -3.412480652332305908e-01 2.601841092109680176e-02 -1.188646107912063599e-01 2.553883194923400879e-01 -3.034731149673461914e-01 -2.350791543722152710e-01 -5.102093145251274109e-02 -1.579914987087249756e-01 2.086366526782512665e-02 2.270902246236801147e-01 1.073854193091392517e-01 -3.431386351585388184e-01 2.794701457023620605e-01 -1.355229765176773071e-01 -8.158102631568908691e-02 -2.704871594905853271e-01 1.165815740823745728e-01 4.255480691790580750e-02 8.225065469741821289e-02 1.610839068889617920e-01 -2.922420203685760498e-01 2.085569649934768677e-01 8.055917918682098389e-02 -9.279736317694187164e-03 -9.822257608175277710e-02 -1.110700368881225586e-01 1.815239340066909790e-01 -1.276549398899078369e-01 3.241611644625663757e-02 -4.218007996678352356e-02 4.211882501840591431e-02 -1.068238168954849243e-01 -6.338692456483840942e-02 1.101336106657981873e-01
-1.694984734058380127e-01 6.351041048765182495e-02 -2.830936014652252197e-01 1.254508495330810547e-01 -1.505806297063827515e-01 2.269143909215927124e-01 1.464381068944931030e-01 -3.651709062978625298e-03 -3.591689467430114746e-01 1.414607316255569458e-01 2.189883440732955933e-01 -2.678990662097930908e-01 8.360256254673004150e-02 2.882254719734191895e-01 -2.179351150989532471e-01 1.229688748717308044e-01 -1.953549124300479889e-02 3.579975962638854980e-01 -3.569499552249908447e-01 3.652685845736414194e-04 8.123623579740524292e-02 -1.511702835559844971e-01 2.005553059279918671e-02 3.181604668498039246e-02 8.385739475488662720e-02 -6.504344940185546875e-02 -2.471397966146469116e-01 3.469408750534057617e-01 1.004657428711652756e-02 -2.010641843080520630e-01 -3.438802808523178101e-02 2.664913609623908997e-02 -9.380312263965606689e-02 -2.645781934261322021e-01 1.843036115169525146e-01 9.182029962539672852e-02 2.902775704860687256e-01 3.135006129741668701e-01 1.579719930887222290e-01 -3.279783427715301514e-01 -9.041669964790344238e-02 2.190044224262237549e-01 -1.203934773802757263e-01 -3.925950080156326294e-02 -3.059990406036376953e-01 2.702847123146057129e-02 -2.443586587905883789e-01 9.779919683933258057e-02 1.955323219299316406e-01 1.042593866586685181e-01 -5.571505520492792130e-03 1.404713243246078491e-01 -1.790982186794281006e-01 -2.568834125995635986e-01 1.811559647321701050e-01 -8.584081195294857025e-03 2.064593285322189331e-01 6.402696669101715088e-02 1.477610766887664795e-01 -3.771496936678886414e-02 1.710245907306671143e-01 -1.094213724136352539e-01 1.344494968652725220e-01 1.127910241484642029e-01 -9.316395223140716553e-02 -2.804276049137115479e-01 1.488568037748336792e-01 8.262713253498077393e-02 4.059490561485290527e-02 5.159754306077957153e-02 1.944643706083297729e-01 1.568945348262786865e-01 -6.162432581186294556e-02 -1.513678282499313354e-01 -1.180254220962524414e-01 -2.880268692970275879e-01 3.700273111462593079e-02 -8.443456143140792847e-02 -1.247343048453330994e-01 9.718733280897140503e-02 -2.764598466455936432e-02 3.293100297451019287e-01 2.666679620742797852e-01 -4.582554474472999573e-02 -4.338903352618217468e-03 -4.322791844606399536e-02 -1.021414622664451599e-01 1.255283802747726440e-01 -6.089323665946722031e-03 -2.264898568391799927e-01 4.444297775626182556e-02 5.313147231936454773e-02 1.365561932325363159e-01 2.309855222702026367e-01 1.060590371489524841e-01 -1.188528686761856079e-01 -1.133028492331504822e-01 -2.393041402101516724e-01 1.361034363508224487e-01 -3.246219456195831299e-01 1.750823669135570526e-02 -9.006655961275100708e-02 -1.766744554042816162e-01 1.797373294830322266e-01 -1.563073508441448212e-02 1.630373671650886536e-02 -7.984395325183868408e-02 2.803717255592346191e-01 9.367438405752182007e-02 -3.883902356028556824e-02 2.351280301809310913e-01 2.382564395666122437e-01 8.624252676963806152e-02 -9.284341707825660706e-03 6.175981089472770691e-02 1.699624061584472656e-01 -8.369274437427520752e-02 5.594816803932189941e-02 5.242360383272171021e-02 1.730694323778152466e-01
2.944502830505371094e-01 1.500722467899322510e-01 -2.484570592641830444e-01 -1.686726510524749756e-01 -2.400068491697311401e-01 -1.392858382314443588e-02 -2.586528062820434570e-01 -2.143719643354415894e-01 -2.691419720649719238e-01 -1.201829686760902405e-01 5.715214088559150696e-02 -8.797741681337356567e-02 -3.104679100215435028e-02 2.337434291839599609e-01 -1.672471612691879272e-01 -1.451621651649475098e-01 8.403213322162628174e-02 -2.375866025686264038e-01 -7.328122109174728394e-02 -2.322937548160552979e-01 1.186271086335182190e-01 8.508598059415817261e-02 -1.132419630885124207e-01 -9.600856155157089233e-02 -2.292535752058029175e-01 -1.024069562554359436e-01 -2.639009058475494385e-01 1.467543095350265503e-01 7.601517438888549805e-02 2.650020420551300049e-01 -6.529472023248672485e-02 1.058141738176345825e-01 3.684927523136138916e-01 -3.871862590312957764e-01 -2.123919501900672913e-02 1.226713061332702637e-01 2.218724973499774933e-02 -1.665710508823394775e-01 3.762888014316558838e-01 -2.118271887302398682e-01 1.113764643669128418e-01 -7.835569232702255249e-02 -7.323365658521652222e-02 1.232906728982925415e-01 -8.728044480085372925e-02 7.800049334764480591e-02 1.819806545972824097e-01 -2.050413191318511963e-01 5.784387234598398209e-03 2.104483311995863914e-03 -3.214843571186065674e-01 -3.562116250395774841e-02 -6.956618279218673706e-02 3.224659562110900879e-01 5.084438249468803406e-03 1.699682176113128662e-01 -1.324288845062255859e-01 7.457842677831649780e-02 1.555660814046859741e-01 -1.777206063270568848e-01 9.699027985334396362e-02 1.625278405845165253e-02 1.349719315767288208e-01 -1.307172477245330811e-01 -1.760395467281341553e-01 -2.414475753903388977e-02 2.383907139301300049e-01 2.751462459564208984e-01 -6.999622285366058350e-02 -2.228304743766784668e-02 3.620810210704803467e-01 -2.567609548568725586e-01 9.340476244688034058e-02 3.916479274630546570e-02 1.290765553712844849e-01 2.068396657705307007e-01 -5.750956945121288300e-03 1.909484118223190308e-01 2.045245096087455750e-02 -5.305269360542297363e-02 2.558831572532653809e-01 -1.026168689131736755e-01 1.822644323110580444e-01 -1.646144539117813110e-01 -1.166423782706260681e-01 -2.765695750713348389e-01 8.043205738067626953e-02 2.617600560188293457e-01 -7.665177434682846069e-02 1.439170986413955688e-01 -1.627095192670822144e-01 -8.184885233640670776e-02 3.196210563182830811e-01 -9.217793121933937073e-03 1.733962446451187134e-01 2.208123505115509033e-01 -2.114037722349166870e-01 -1.573982238769531250e-01 8.059791475534439087e-02 -1.890992373228073120e-01 -2.699665166437625885e-02 2.814788222312927246e-01 -2.019396573305130005e-01 2.415267974138259888e-01 -2.434688061475753784e-01 2.877572774887084961e-01 1.718599200248718262e-01 -1.781835258007049561e-01 1.746145039796829224e-01 -3.358098566532135010e-01 1.162449866533279419e-01 -2.750113904476165771e-01 -2.549632266163825989e-02 2.160738781094551086e-02 -1.659857295453548431e-02 2.590199112892150879e-01 -1.577347218990325928e-01 -1.984683983027935028e-02 1.867960840463638306e-01 -2.084116488695144653e-01
-1.256419438868761063e-02 2.774191461503505707e-02 4.845446720719337463e-02 9.060121141374111176e-03 1.093383356928825378e-01 7.887217402458190918e-02 3.346870839595794678e-01 -3.130081593990325928e-01 9.287866204977035522e-02 1.813021153211593628e-01 -9.080296009778976440e-02 4.365558177232742310e-02 -4.676228389143943787e-02 -9.289722889661788940e-02 2.414895147085189819e-01 3.084722161293029785e-02 3.135724961757659912e-01 1.689716242253780365e-02 -9.925659745931625366e-02 -2.040337771177291870e-01 1.827317029237747192e-01 -1.558441966772079468e-01 7.631092518568038940e-02 3.516887426376342773e-01 2.981415688991546631e-01 -2.343112528324127197e-01 -1.422509700059890747e-01 1.276814490556716919e-01 4.229123517870903015e-02 7.574787735939025879e-02 2.260042428970336914e-01 -4.421517625451087952e-02 1.605444997549057007e-01 -2.351313829421997070e-01 1.830296814441680908e-01 7.917301356792449951e-02 4.958143457770347595e-02 1.064995452761650085e-01 1.138708367943763733e-01 -3.174529373645782471e-01 -2.985570430755615234e-01 4.157428815960884094e-02 -1.200598627328872681e-01 1.762892454862594604e-01 -3.325262963771820068e-01 -3.729910030961036682e-02 2.105959653854370117e-01 -5.050559714436531067e-02 1.423593312501907349e-01 2.123946398496627808e-01 -2.677235305309295654e-01 -8.775478601455688477e-02 3.734777495265007019e-02 -1.919370442628860474e-01 -1.363384574651718140e-01 -3.850647062063217163e-02 7.111202925443649292e-02 3.008437529206275940e-02 2.709060609340667725e-01 -7.172562181949615479e-02 1.833029091358184814e-02 -2.616026811301708221e-02 -2.808077335357666016e-01 -6.415580958127975464e-02 -2.957272827625274658e-01 8.315826207399368286e-02 3.407095074653625488e-01 -9.429386258125305176e-02 3.055368959903717041e-01 -2.442730665206909180e-01 2.157470434904098511e-01 -3.871856629848480225e-02 -7.103370875120162964e-02 4.522533342242240906e-02 -9.667290374636650085e-03 -2.357653826475143433e-01 -4.615651071071624756e-02 -1.765331476926803589e-01 -3.226984143257141113e-01 -2.241515554487705231e-02 3.550718426704406738e-01 9.926733374595642090e-02 3.062960207462310791e-01 8.829019963741302490e-02 9.935357421636581421e-02 -2.978330664336681366e-02 2.415480613708496094e-01 -2.226138859987258911e-01 -1.454672664403915405e-01 3.336913287639617920e-01 -2.250060886144638062e-01 -1.610997132956981659e-02 -1.910156197845935822e-02 4.081824049353599548e-02 -5.593714118003845215e-02 6.940536946058273315e-02 4.429256543517112732e-02 -1.720759719610214233e-01 2.770187854766845703e-01 -1.449733227491378784e-01 -4.097030032426118851e-03 1.070281788706779480e-01 -3.414296507835388184e-01 -2.158706039190292358e-01 1.041545420885086060e-01 -6.759311258792877197e-02 8.434581011533737183e-02 -1.304757148027420044e-01 2.562616467475891113e-01 2.607585787773132324e-01 1.027526184916496277e-01 -8.249252103269100189e-03 -5.035910755395889282e-03 1.526790708303451538e-01 -4.550632089376449585e-02 2.328000515699386597e-01 9.796350449323654175e-02 4.720438271760940552e-02 1.480234116315841675e-01 1.027034670114517212e-01
2.509975731372833252e-01 -1.287253946065902710e-01 -1.599719934165477753e-02 1.330900341272354126e-01 1.214825063943862915e-01 2.357740327715873718e-02 2.201240360736846924e-01 -2.977848947048187256e-01 3.371839821338653564e-01 -2.270047664642333984e-01 -3.851913213729858398e-01 1.666913926601409912e-01 -1.543603837490081787e-01 3.218834102153778076e-02 2.718316949903964996e-02 2.304048538208007812e-01 9.065503627061843872e-02 3.462620079517364502e-01 1.532239019870758057e-01 -1.617417186498641968e-01 -1.567458957433700562e-01 7.569436728954315186e-02 -1.876842975616455078e-01 2.239207178354263306e-02 1.427395790815353394e-01 -8.874528110027313232e-02 2.708182632923126221e-01 2.903520874679088593e-02 2.641270756721496582e-01 3.076338469982147217e-01 -8.255460113286972046e-02 -2.315499037504196167e-01 -3.712257370352745056e-03 -6.132036074995994568e-02 -3.554601967334747314e-01 9.154354780912399292e-02 1.268153935670852661e-01 1.990918517112731934e-01 -1.212701424956321716e-01 -2.800602912902832031e-01 9.258552454411983490e-03 1.823796331882476807e-01 -2.611800134181976318e-01 1.135701220482587814e-02 -2.568654716014862061e-01 -1.252790242433547974e-01 2.810229659080505371e-01 -2.879356443881988525e-01 -3.559274077415466309e-01 -1.980183571577072144e-01 7.143598049879074097e-02 -1.877849102020263672e-01 -8.463454432785511017e-03 -3.645380437374114990e-01 -2.095125466585159302e-01 1.639672927558422089e-02 1.776870340108871460e-01 -2.212790958583354950e-02 -1.141649633646011353e-01 1.960290372371673584e-01 2.213732004165649414e-01 -6.680748611688613892e-02 -9.863486513495445251e-03 -1.007312089204788208e-01 -4.535619169473648071e-02 2.839539945125579834e-01 -2.373894453048706055e-01 1.732007116079330444e-01 5.152872204780578613e-02 -7.080399990081787109e-02 6.671928614377975464e-02 -2.518256902694702148e-01 1.078676581382751465e-01 -2.033266872167587280e-01 -1.200040951371192932e-01 2.225759029388427734e-01 1.392765194177627563e-01 5.503351241350173950e-02 3.452594578266143799e-01 2.113408893346786499e-01 -1.970340460538864136e-01 -1.608988791704177856e-01 -3.337483406066894531e-01 1.871593669056892395e-02 -1.554546505212783813e-01 1.274606585502624512e-01 -6.131591275334358215e-02 -1.087505146861076355e-01 2.950145676732063293e-02 1.005472093820571899e-01 -2.471563816070556641e-01 -2.271219156682491302e-02 1.450398117303848267e-01 -2.355648577213287354e-01 1.953018754720687866e-01 -8.212112635374069214e-02 -6.755585223436355591e-02 -7.841049879789352417e-02 2.612720429897308350e-01 -1.995991319417953491e-01 4.188421368598937988e-02 -2.823662757873535156e-01 2.306350916624069214e-01 2.835112512111663818e-01 7.319144159555435181e-02 3.144888952374458313e-02 6.479828804731369019e-02 -3.134247958660125732e-01 -2.795186638832092285e-01 3.427862422540783882e-03 -2.702521346509456635e-02 1.775057762861251831e-01 2.185171395540237427e-01 3.844103217124938965e-01 -3.697940334677696228e-02 -3.941220641136169434e-01 1.460875570774078369e-01 -1.491920184344053268e-02 -3.944390919059514999e-03 3.389223217964172363e-01
-1.031225100159645081e-01 3.348585218191146851e-02 -1.125252172350883484e-01 -3.593892455101013184e-01 -2.399857789278030396e-01 -1.759454235434532166e-02 -1.619567275047302246e-01 2.445711642503738403e-01 2.323615103960037231e-01 3.629910200834274292e-02 -3.249724954366683960e-02 2.493850439786911011e-01 -1.710812300443649292e-01 1.719746589660644531e-01 9.628447704017162323e-03 3.655665814876556396e-01 -9.711247682571411133e-02 2.300804108381271362e-01 -3.896807432174682617e-01 -4.762376472353935242e-02 2.265714481472969055e-02 1.326540708541870117e-01 1.602471917867660522e-01 -4.069031402468681335e-02 -1.223012134432792664e-01 -1.081809177994728088e-01 -1.134735941886901855e-01 -2.854966819286346436e-01 1.319156438112258911e-01 1.048088446259498596e-01 1.038132533431053162e-01 6.633285433053970337e-02 -8.643143624067306519e-02 -3.190001249313354492e-01 1.433935612440109253e-01 2.774632275104522705e-01 3.156735301017761230e-01 5.180162191390991211e-02 4.226776957511901855e-02 1.901593655347824097e-01 -1.997760497033596039e-02 -7.677152752876281738e-02 -2.462058514356613159e-01 1.799947172403335571e-01 2.669658362865447998e-01 7.609991822391748428e-03 2.484600543975830078e-01 2.022148221731185913e-01 2.128436928614974022e-03 -3.019439280033111572e-01 -1.289865076541900635e-01 3.737887442111968994e-01 -2.291598618030548096e-01 3.193915784358978271e-01 1.431354731321334839e-01 -7.159002870321273804e-02 -1.064773723483085632e-01 -3.979166597127914429e-02 2.790893316268920898e-01 1.451680064201354980e-02 -3.008095026016235352e-01 1.926211416721343994e-01 7.804959267377853394e-02 -4.574387520551681519e-02 -2.889771461486816406e-01 1.361397951841354370e-01 -2.351347059011459351e-01 -8.851642161607742310e-02 -1.579438298940658569e-01 1.228009611368179321e-01 -5.176070332527160645e-02 -2.077378779649734497e-01 4.491559788584709167e-02 9.268223494291305542e-02 1.119359731674194336e-01 1.143673434853553772e-01 -9.123252332210540771e-02 -1.286863833665847778e-01 -8.291111886501312256e-02 -1.094283238053321838e-01 1.527215093374252319e-01 2.378232032060623169e-01 -2.320926189422607422e-01 -3.385301530361175537e-01 9.613572806119918823e-02 2.007689028978347778e-01 -1.186267063021659851e-01 8.282977156341075897e-03 1.952414065599441528e-01 -2.651433646678924561e-01 -2.610802352428436279e-01 -4.530248418450355530e-02 -1.791883856058120728e-01 -1.865592300891876221e-01 -1.248088106513023376e-02 -2.746886909008026123e-01 6.131494790315628052e-02 -8.380893617868423462e-03 -2.315402776002883911e-01 2.447717189788818359e-01 1.339731812477111816e-01 -8.667870424687862396e-03 -3.928357064723968506e-01 -1.114201322197914124e-01 -8.139479905366897583e-02 -2.950212657451629639e-01 -5.318402126431465149e-02 -3.389751315116882324e-01 2.983748018741607666e-01 -9.199618548154830933e-02 -1.422394216060638428e-01 3.005022108554840088e-01 -5.115200206637382507e-02 3.594186902046203613e-02 1.609935462474822998e-01 3.591768443584442139e-01 -8.225283771753311157e-02 -3.784174621105194092e-01 -1.073966398835182190e-01 -6.359450519084930420e-02
-8.828753605484962463e-03 6.073702499270439148e-02 4.440144076943397522e-02 -1.323601789772510529e-02 3.165685012936592102e-02 -5.052965506911277771e-02 -3.858666121959686279e-01 2.833485901355743408e-01 -1.901436597108840942e-01 2.949401140213012695e-01 5.994772911071777344e-02 8.762522786855697632e-02 -1.594851762056350708e-01 1.793980449438095093e-01 5.602657794952392578e-02 -1.653710752725601196e-01 -7.383406162261962891e-02 -1.243593916296958923e-01 2.222037687897682190e-02 -2.578717172145843506e-01 2.967177331447601318e-01 -1.378306597471237183e-01 1.982280015945434570e-01 -3.932676836848258972e-02 -1.596653014421463013e-01 1.172659322619438171e-01 -2.303786277770996094e-01 -1.099347025156021118e-01 -3.781880736351013184e-01 -1.192873269319534302e-01 -2.151097804307937622e-01 2.227844744920730591e-01 -2.541283369064331055e-01 -2.495660446584224701e-02 -1.395746916532516479e-01 -1.119819805026054382e-01 2.192400693893432617e-01 -3.247797191143035889e-01 1.646247804164886475e-01 -1.600244492292404175e-01 1.319351345300674438e-01 2.154782861471176147e-01 -3.047476708889007568e-01 1.485791653394699097e-01 2.039638310670852661e-01 2.842823565006256104e-01 3.324026465415954590e-01 -1.505113691091537476e-01 2.252169400453567505e-01 2.298623323440551758e-01 1.953188627958297729e-01 4.906026646494865417e-02 -6.204081699252128601e-02 2.013992816209793091e-01 -1.211056262254714966e-01 -3.468336537480354309e-02 -1.524088382720947266e-01 -2.221903353929519653e-01 3.226266801357269287e-02 1.928615383803844452e-02 -3.059864342212677002e-01 2.022872865200042725e-02 -4.393931105732917786e-02 -7.562413811683654785e-02 7.574529387056827545e-03 1.105781942605972290e-01 -3.514821231365203857e-01 9.527738392353057861e-02 3.243104517459869385e-01 3.284005820751190186e-01 2.136323302984237671e-01 5.248087272047996521e-02 -8.713452517986297607e-02 -5.921646952629089355e-02 -2.055396512150764465e-02 3.099795281887054443e-01 -1.068749949336051941e-01 1.523167639970779419e-01 3.630577921867370605e-01 -1.535203605890274048e-01 -6.396596878767013550e-02 -7.849919050931930542e-02 1.486082971096038818e-01 -7.385563105344772339e-02 1.038377061486244202e-01 3.222378492355346680e-01 -1.470644325017929077e-01 3.405901789665222168e-01 -6.431032717227935791e-02 1.767240911722183228e-01 1.236487776041030884e-01 -1.002554222941398621e-01 7.552538067102432251e-03 -2.121677845716476440e-01 3.884820044040679932e-01 -1.383046358823776245e-01 -2.842117846012115479e-01 -2.669748067855834961e-01 3.936499953269958496e-01 1.984142065048217773e-01 1.919339746236801147e-01 4.287497326731681824e-02 -1.259544398635625839e-02 3.848207369446754456e-02 8.379571884870529175e-02 1.025080829858779907e-01 1.673236489295959473e-01 -7.542840391397476196e-02 -2.007509768009185791e-01 -3.109239041805267334e-01 -2.791563980281352997e-02 -1.605925410985946655e-01 1.858736127614974976e-01 1.007856056094169617e-01 8.665376901626586914e-02 -1.074581742286682129e-01 1.723103523254394531e-01 -3.263421654701232910e-01 2.412554323673248291e-01 3.632338717579841614e-02
-3.034737519919872284e-02 -3.312968909740447998e-01 9.427499026060104370e-02 -2.039637975394725800e-02 -2.076957672834396362e-01 3.312786519527435303e-01 5.100407078862190247e-02 -1.724567823112010956e-02 2.204367220401763916e-01 -1.372691243886947632e-01 -3.498041257262229919e-02 2.343125343322753906e-01 2.362734377384185791e-01 1.313919760286808014e-02 1.009322553873062134e-01 6.736665219068527222e-02 3.295518755912780762e-01 6.044499203562736511e-02 -3.169208467006683350e-01 2.389917373657226562e-01 -6.919044256210327148e-02 -1.785803586244583130e-01 -2.294465750455856323e-01 3.397085145115852356e-02 -8.115276694297790527e-02 3.813742399215698242e-01 -1.298304498195648193e-01 -3.490318059921264648e-01 2.983910217881202698e-02 -1.370813101530075073e-01 -9.786330908536911011e-02 -2.829318940639495850e-01 -2.389739751815795898e-01 -9.020689874887466431e-02 -2.399014532566070557e-01 -2.218163758516311646e-02 1.477554440498352051e-01 -6.783019751310348511e-02 -3.279271125793457031e-01 2.100525051355361938e-02 -1.753081232309341431e-01 2.713259123265743256e-02 -5.413535982370376587e-02 1.900736801326274872e-02 7.328785955905914307e-02 -9.411941468715667725e-02 -3.970716893672943115e-01 1.048724576830863953e-01 -1.146419420838356018e-01 1.645261496305465698e-01 -2.775385677814483643e-01 3.839433193206787109e-01 4.107021167874336243e-02 2.403957098722457886e-01 2.773725092411041260e-01 1.185374800115823746e-02 1.970398873090744019e-01 -3.685181587934494019e-02 -2.153697758913040161e-01 -8.475273102521896362e-02 -3.016383349895477295e-01 3.452874720096588135e-02 -1.178177967667579651e-01 1.007423177361488342e-01 1.196928024291992188e-01 -4.980120062828063965e-02 -9.452606900595128536e-04 -1.076860427856445312e-01 5.087602883577346802e-02 -8.776359260082244873e-02 2.119068950414657593e-01 -8.777599781751632690e-02 2.398886978626251221e-01 -1.235905513167381287e-01 1.017979755997657776e-01 9.392275661230087280e-02 9.916546940803527832e-02 -1.197980567812919617e-01 1.643781960010528564e-01 -5.958992056548595428e-03 -2.916961908340454102e-01 2.811157107353210449e-01 6.458457559347152710e-02 1.813217252492904663e-01 2.503042817115783691e-01 6.735279411077499390e-02 9.260035306215286255e-02 -1.333377212285995483e-01 -1.750719547271728516e-02 -4.524282366037368774e-02 2.100973874330520630e-01 -2.644037604331970215e-01 2.359469234943389893e-01 1.285571604967117310e-01 -2.581433393061161041e-02 3.783139213919639587e-02 -1.275654137134552002e-01 -2.036734484136104584e-02 -1.282479763031005859e-01 2.145774811506271362e-01 -3.459357097744941711e-02 3.027161061763763428e-01 -1.215180680155754089e-01 -1.654391139745712280e-01 3.396094441413879395e-01 -1.868915557861328125e-01 1.344798952341079712e-01 -1.310615390539169312e-01 -2.463771402835845947e-01 5.904744938015937805e-02 1.158882528543472290e-01 -1.873462349176406860e-01 3.518124222755432129e-01 -1.394050270318984985e-01 -4.378343001008033752e-03 1.625018119812011719e-01 -2.410601675510406494e-01 -7.205174118280410767e-02 -2.143407315015792847e-01 -9.713958948850631714e-02
1.009178906679153442e-01 7.970117777585983276e-02 3.875853419303894043e-01 -5.723758600652217865e-03 1.994006931781768799e-01 1.385733932256698608e-01 -1.290996652096509933e-02 1.820181459188461304e-01 -2.644546627998352051e-01 -1.437475085258483887e-01 2.904999069869518280e-02 -1.068990211933851242e-02 3.445255160331726074e-01 3.517143055796623230e-02 1.389055699110031128e-01 -5.629030987620353699e-02 2.168990373611450195e-01 8.268141001462936401e-02 -7.177928835153579712e-02 -6.459852308034896851e-02 7.847474515438079834e-02 -9.229827672243118286e-02 3.527536615729331970e-02 -4.662573710083961487e-02 -2.308018207550048828e-01 4.899547249078750610e-02 1.074004396796226501e-01 2.245258390903472900e-01 9.281887114048004150e-02 -1.893150955438613892e-01 -8.275261521339416504e-02 1.980818957090377808e-01 -2.149371653795242310e-01 1.340624243021011353e-01 1.690666973590850830e-01 -1.331263333559036255e-01 -1.620542407035827637e-01 1.439016014337539673e-01 -1.753333210945129395e-02 7.094484753906726837e-03 3.652961924672126770e-02 -3.311462104320526123e-01 1.285124868154525757e-01 2.138775438070297241e-01 5.189718678593635559e-02 -1.593974381685256958e-01 -8.715113252401351929e-02 -9.417156130075454712e-02 3.649227917194366455e-01 -8.492097258567810059e-02 -1.055343300104141235e-01 3.865868747234344482e-01 1.947775036096572876e-01 -1.378813832998275757e-01 2.231455780565738678e-02 3.411800861358642578e-01 -3.487524986267089844e-01 1.480031311511993408e-01 -1.033809930086135864e-01 -9.702458046376705170e-03 -3.731627762317657471e-01 5.068608000874519348e-02 1.874275356531143188e-01 -3.958287239074707031e-01 -2.533420687541365623e-03 -9.808451868593692780e-03 -1.653936803340911865e-01 -5.486217886209487915e-02 -1.245326027274131775e-01 -1.503049433231353760e-01 1.183735728263854980e-01 1.204072218388319016e-02 5.567053705453872681e-02 2.345374412834644318e-02 -2.652368247509002686e-01 5.295575782656669617e-02 2.489047348499298096e-01 -1.094141006469726562e-01 2.892053499817848206e-02 5.470836162567138672e-02 3.588072955608367920e-01 -7.243993133306503296e-02 7.122204639017581940e-03 -1.754681020975112915e-01 -2.391981333494186401e-01 6.874448060989379883e-02 -6.417738739401102066e-03 -1.391090601682662964e-01 1.425542235374450684e-01 3.577195107936859131e-01 2.041177004575729370e-01 5.475128814578056335e-02 -1.314669754356145859e-02 6.081813573837280273e-02 2.200458347797393799e-01 1.816509105265140533e-02 -2.071586698293685913e-01 -1.172088906168937683e-01 2.509549856185913086e-01 -1.871947795152664185e-01 -1.393463611602783203e-01 1.179695278406143188e-01 8.741969615221023560e-02 -2.189446687698364258e-01 3.569496273994445801e-01 -1.395497769117355347e-01 -6.474756449460983276e-02 1.054829880595207214e-01 -2.073169499635696411e-01 2.570929192006587982e-02 2.353467047214508057e-01 -2.805723845958709717e-01 2.757591940462589264e-02 2.390296906232833862e-01 -1.667467355728149414e-01 2.220782786607742310e-01 1.343664377927780151e-01 5.496918037533760071e-02 -1.018703952431678772e-01 -3.013732470571994781e-02
-6.256949901580810547e-02 -1.195405721664428711e-01 1.984394937753677368e-01 3.910080194473266602e-01 6.548939645290374756e-02 -2.553719282150268555e-01 1.051847543567419052e-02 -3.228777647018432617e-01 -9.013860672712326050e-02 -3.040902316570281982e-01 1.464127749204635620e-01 1.195384636521339417e-01 -2.508711814880371094e-02 -8.562470972537994385e-02 -2.234276980161666870e-01 1.049810275435447693e-01 -1.693261973559856415e-02 -3.087345659732818604e-01 -1.637896448373794556e-01 -2.323064357042312622e-01 -3.603059425950050354e-02 -4.858976975083351135e-02 8.862410485744476318e-02 -1.571479998528957367e-02 -8.366304636001586914e-02 -2.471800148487091064e-01 -2.592782378196716309e-01 2.586256861686706543e-01 -2.084093093872070312e-01 -2.180128917098045349e-02 5.891782790422439575e-02 -1.237827166914939880e-01 -1.242432817816734314e-01 2.946976386010646820e-02 -1.417313516139984131e-01 -4.589587822556495667e-02 2.037941217422485352e-01 2.541212551295757294e-02 1.074438821524381638e-02 -4.198606684803962708e-02 -2.608160376548767090e-01 -3.758004307746887207e-01 1.603174656629562378e-01 1.412083059549331665e-01 6.953125447034835815e-02 -1.280075907707214355e-01 4.752760753035545349e-02 -1.067322716116905212e-01 2.458133548498153687e-01 1.292664092034101486e-02 -2.187214195728302002e-01 3.599924966692924500e-02 2.326727956533432007e-01 8.770969510078430176e-02 1.319557726383209229e-01 8.978794515132904053e-02 -1.999777555465698242e-01 1.019813939929008484e-01 5.805425718426704407e-02 -3.014926016330718994e-01 -8.264432102441787720e-02 2.069309502840042114e-01 -4.742958769202232361e-02 -2.979853749275207520e-01 2.172526568174362183e-01 5.245200917124748230e-02 3.287895023822784424e-01 2.110525816679000854e-01 -1.053190603852272034e-01 -2.871138751506805420e-01 1.113184690475463867e-01 -1.930364780128002167e-02 -3.391021490097045898e-01 -2.008478492498397827e-01 4.700316488742828369e-02 2.275470495223999023e-01 3.589017093181610107e-01 -2.209474295377731323e-01 -3.119795024394989014e-01 7.166401296854019165e-02 2.001696825027465820e-01 2.477063387632369995e-01 -2.940188050270080566e-01 -1.917905062437057495e-01 -5.260215606540441513e-03 2.261454313993453979e-01 1.310343891382217407e-01 2.846251428127288818e-02 -8.411288261413574219e-02 -2.800451219081878662e-01 -2.634266912937164307e-01 3.279507458209991455e-01 -1.412385851144790649e-01 1.725203990936279297e-01 9.931283444166183472e-02 2.923964858055114746e-01 1.706301718950271606e-01 3.233022987842559814e-02 3.530455231666564941e-01 -1.130043193697929382e-01 1.611802130937576294e-01 -2.353460341691970825e-01 -1.616014353930950165e-02 3.494574502110481262e-02 1.541358083486557007e-01 -3.877502679824829102e-01 1.080674026161432266e-02 -1.442980617284774780e-01 1.107336431741714478e-01 2.060534060001373291e-01 -3.107399642467498779e-01 1.018235310912132263e-01 1.461953371763229370e-01 -1.466553062200546265e-01 1.991972625255584717e-01 9.963806718587875366e-02 1.426847130060195923e-01 1.561388373374938965e-01 4.247003048658370972e-02 -1.998264640569686890e-01
1.082115527242422104e-02 -3.933316171169281006e-01 2.409795522689819336e-01 -1.118901148438453674e-01 2.020834237337112427e-01 -1.205647587776184082e-01 2.566016912460327148e-01 3.657814562320709229e-01 1.437429040670394897e-01 2.175818234682083130e-01 5.884171649813652039e-02 2.258688509464263916e-01 -4.337000474333763123e-02 -1.687551885843276978e-01 -1.343753933906555176e-01 1.993589997291564941e-01 3.085615672171115875e-02 1.478084623813629150e-01 -2.442401647567749023e-02 1.377298980951309204e-01 2.869646847248077393e-01 1.483359485864639282e-01 -3.369342386722564697e-01 -2.186322957277297974e-01 -1.496017426252365112e-01 -1.899452060461044312e-01 -2.427394390106201172e-01 -7.240692526102066040e-02 -3.934023678302764893e-01 -1.753032952547073364e-01 5.376296862959861755e-02 -3.409305512905120850e-01 -9.712667763233184814e-02 1.125550419092178345e-01 1.357255429029464722e-01 1.353738307952880859e-01 8.172252029180526733e-02 8.142361044883728027e-02 -2.364001125097274780e-01 1.181046143174171448e-01 -5.324994400143623352e-02 1.399452835321426392e-01 4.151646792888641357e-02 3.209681510925292969e-01 4.888401925563812256e-02 -1.654240041971206665e-01 -1.174328103661537170e-01 1.005216035991907120e-03 1.360680609941482544e-01 -6.146652624011039734e-02 2.600807249546051025e-01 8.444972336292266846e-02 9.135501831769943237e-02 -1.509459912776947021e-01 -3.144630789756774902e-02 -3.756846999749541283e-03 -2.630063705146312714e-02 -9.623350948095321655e-02 4.890729114413261414e-02 7.668815553188323975e-02 1.030755192041397095e-01 2.136968821287155151e-02 3.954527154564857483e-02 -9.605588763952255249e-02 -6.016596034169197083e-02 -1.249692663550376892e-01 -8.344569802284240723e-02 -1.343835443258285522e-01 -3.894990682601928711e-02 1.718823164701461792e-01 -1.204320695251226425e-02 1.992355883121490479e-01 -1.163508445024490356e-01 1.052559837698936462e-01 -2.508231103420257568e-01 7.915884256362915039e-02 1.466333717107772827e-01 9.647107869386672974e-02 -5.478292703628540039e-02 -1.622093766927719116e-01 4.153126478195190430e-02 -2.302582710981369019e-01 2.072865068912506104e-01 1.339128464460372925e-01 -2.540176967158913612e-03 2.016859501600265503e-01 -2.898039221763610840e-01 2.483108490705490112e-01 9.349867701530456543e-02 9.549484588205814362e-03 -1.176045089960098267e-01 -3.584613502025604248e-01 3.996361047029495239e-02 2.392546236515045166e-01 2.067732661962509155e-01 -2.239588499069213867e-01 1.768958270549774170e-01 -5.890281405299901962e-03 -1.643528789281845093e-01 1.876880647614598274e-03 -1.705533117055892944e-01 -1.346001476049423218e-01 2.549980878829956055e-01 4.721551388502120972e-02 2.139029353857040405e-01 -5.528802424669265747e-02 -9.235418587923049927e-02 -3.060819208621978760e-01 3.088983297348022461e-01 -1.129497066140174866e-01 1.846959143877029419e-01 6.236636266112327576e-02 -4.845310375094413757e-02 -5.747223645448684692e-02 -2.095903605222702026e-01 4.433440417051315308e-02 -2.367211878299713135e-01 3.764601647853851318e-01 -3.799227997660636902e-02 -1.678423732519149780e-01
-1.813629120588302612e-01 -1.185489073395729065e-01 -2.169889062643051147e-01 2.472717314958572388e-01 9.858981519937515259e-02 2.576040662825107574e-02 3.953213691711425781e-01 1.216354779899120331e-02 2.342243939638137817e-01 -6.316066533327102661e-02 2.087647914886474609e-01 1.264002453535795212e-02 1.304619610309600830e-01 -8.332703262567520142e-02 2.541337311267852783e-01 -5.321782454848289490e-02 9.324934333562850952e-02 -1.336366981267929077e-01 -2.608309127390384674e-02 1.983501762151718140e-01 -1.777691841125488281e-01 -3.933440148830413818e-01 1.449989974498748779e-01 -1.472566723823547363e-01 3.833847939968109131e-01 1.809488385915756226e-01 -1.364247407764196396e-02 9.486510604619979858e-02 6.965713948011398315e-02 -1.106416359543800354e-01 2.981500327587127686e-01 5.287155136466026306e-02 -3.455549478530883789e-01 1.499805152416229248e-01 1.457278281450271606e-01 -1.284540742635726929e-01 -1.171397566795349121e-01 -2.937292456626892090e-01 -3.096105754375457764e-01 -3.882521986961364746e-01 3.538698256015777588e-01 -5.182515457272529602e-02 -3.130051791667938232e-01 -2.196056582033634186e-02 3.138531744480133057e-01 1.438022702932357788e-01 1.308722496032714844e-01 -2.507537305355072021e-01 2.826815545558929443e-01 -8.039513975381851196e-02 2.339643798768520355e-02 -7.626794278621673584e-02 3.135195076465606689e-01 1.636524647474288940e-01 -2.989389300346374512e-01 8.506829850375652313e-03 9.089760482311248779e-02 7.270567119121551514e-03 -1.670221053063869476e-02 -6.493397057056427002e-02 -4.557646438479423523e-02 9.603762626647949219e-02 -2.699274383485317230e-02 -2.167571038007736206e-01 -2.007847279310226440e-01 -7.327389717102050781e-02 -2.797093009576201439e-03 -1.886851042509078979e-01 2.058057636022567749e-01 2.067242711782455444e-01 1.963734924793243408e-01 8.484651148319244385e-02 -2.445189207792282104e-01 2.632289566099643707e-02 -7.075186818838119507e-02 1.033770442008972168e-01 -4.551802948117256165e-02 -3.134183585643768311e-02 -1.439103186130523682e-01 -3.587581813335418701e-01 -6.864621490240097046e-02 -4.897428676486015320e-02 2.184979766607284546e-01 1.452962607145309448e-01 -6.717978417873382568e-02 -2.419237345457077026e-01 2.511680424213409424e-01 -2.182755321264266968e-01 1.943157985806465149e-03 2.074446231126785278e-01 1.131429448723793030e-01 -8.704812079668045044e-02 1.890535205602645874e-01 -9.780869632959365845e-02 -1.544836312532424927e-01 2.351443618535995483e-01 2.777584493160247803e-01 9.581771492958068848e-02 5.479712039232254028e-02 -2.135527878999710083e-02 1.691672392189502716e-02 -3.183643519878387451e-01 -1.411642995662987232e-03 -3.395092189311981201e-01 6.818081717938184738e-03 -2.317859977483749390e-01 1.281352192163467407e-01 9.588910639286041260e-02 -1.888739317655563354e-02 -1.115178689360618591e-01 2.025180123746395111e-02 -4.238377511501312256e-02 -6.489893794059753418e-02 -1.418766230344772339e-01 -1.247355621308088303e-02 1.949111185967922211e-02 6.011135876178741455e-03 3.144119083881378174e-01 2.458435855805873871e-02 -1.072452217340469360e-01
-1.120572239160537720e-01 -4.368725046515464783e-02 -1.624727696180343628e-01 -7.755114883184432983e-02 2.108585685491561890e-01 -2.249795049428939819e-01 2.789884805679321289e-01 -1.116008162498474121e-01 3.273435533046722412e-01 7.672997657209634781e-03 -1.777736395597457886e-01 3.032915890216827393e-01 2.778803184628486633e-02 -8.697377890348434448e-02 -3.295409083366394043e-01 1.140533834695816040e-01 2.590408548712730408e-03 -2.955842912197113037e-01 2.039785832166671753e-01 6.308650225400924683e-02 2.646560966968536377e-02 -7.512024790048599243e-02 3.056996464729309082e-01 1.467843502759933472e-01 4.731202870607376099e-02 -2.909650504589080811e-01 -1.212401911616325378e-01 3.643821924924850464e-02 -7.536866515874862671e-02 1.097915992140769958e-01 1.581593751907348633e-01 -2.885590866208076477e-02 -2.549585700035095215e-02 -1.908557116985321045e-01 1.550655998289585114e-02 -2.672185562551021576e-02 7.725339382886886597e-02 8.961839973926544189e-02 4.948056861758232117e-02 -1.469868570566177368e-01 -6.438406556844711304e-02 2.856618463993072510e-01 -2.289166674017906189e-03 -1.339445710182189941e-01 1.781796962022781372e-01 -3.420318365097045898e-01 3.103490173816680908e-02 -2.407063245773315430e-01 -6.315649300813674927e-02 1.412651594728231430e-02 4.002040252089500427e-02 7.696606963872909546e-02 -1.459320485591888428e-01 -7.570000737905502319e-02 1.828851848840713501e-01 1.014704108238220215e-01 9.395920671522617340e-03 5.528308823704719543e-02 -6.267805397510528564e-02 -2.203454077243804932e-01 5.305894836783409119e-02 -3.018289506435394287e-01 -5.009318515658378601e-02 3.400316834449768066e-02 7.407736033201217651e-02 -6.417772173881530762e-02 1.753123663365840912e-02 -5.271231755614280701e-02 -3.790969550609588623e-01 1.272647548466920853e-02 -8.801692724227905273e-02 1.005447506904602051e-01 -1.074631419032812119e-02 -5.417868494987487793e-02 -8.221017569303512573e-02 -1.475068833678960800e-02 -1.711492389440536499e-01 -3.402150869369506836e-01 -1.594362407922744751e-02 5.400175694376230240e-03 3.176215663552284241e-02 -5.419560149312019348e-02 7.695554196834564209e-02 -1.102246269583702087e-01 2.948919534683227539e-01 4.027219861745834351e-02 -1.065910086035728455e-01 4.354738816618919373e-02 -7.099909335374832153e-02 -3.398368060588836670e-01 4.186641797423362732e-02 1.026198491454124451e-01 1.017477065324783325e-01 4.313845187425613403e-02 6.564328819513320923e-02 8.495663851499557495e-02 6.258024275302886963e-02 3.361122608184814453e-01 7.673956453800201416e-02 5.273595079779624939e-02 2.426371425390243530e-01 -2.401773035526275635e-01 1.428695023059844971e-01 3.002205193042755127e-01 -1.145938783884048462e-01 2.360550016164779663e-01 -3.386096656322479248e-01 -1.523812264204025269e-01 6.717927288264036179e-03 -3.537507951259613037e-01 -1.013998910784721375e-01 -7.357736676931381226e-02 2.758158147335052490e-01 -2.006499022245407104e-01 2.003462165594100952e-01 -7.864896953105926514e-02 8.154264837503433228e-02 2.432494163513183594e-01 -1.428961604833602905e-01 6.778813898563385010e-02
1.072713136672973633e-01 -5.418238043785095215e-02 1.457797884941101074e-01 1.011019870638847351e-01 -2.063983529806137085e-01 7.350797951221466064e-02 -1.697506010532379150e-01 -6.498917192220687866e-02 1.542878746986389160e-01 -3.873169124126434326e-01 1.629980504512786865e-01 9.275668859481811523e-02 -2.444069385528564453e-01 2.460852265357971191e-02 -5.199531838297843933e-02 -5.170597508549690247e-02 9.239449352025985718e-02 1.200641989707946777e-01 -3.911522030830383301e-01 5.109879001975059509e-02 -3.925526887178421021e-02 1.969192475080490112e-01 -1.652868986129760742e-01 2.353244870901107788e-01 -1.673403978347778320e-01 -9.943320602178573608e-02 -2.085175812244415283e-01 -7.775305211544036865e-02 -1.730724424123764038e-01 7.232167571783065796e-02 -1.353655308485031128e-01 2.594974935054779053e-01 -6.867226213216781616e-03 8.418623358011245728e-02 5.178710818290710449e-02 1.861556619405746460e-01 4.274598136544227600e-02 2.902185320854187012e-01 8.322509378194808960e-02 -1.057694554328918457e-01 2.041360586881637573e-01 5.989735946059226990e-02 8.470052480697631836e-02 -1.768204569816589355e-01 -3.091294467449188232e-01 1.252054125070571899e-01 -5.079957470297813416e-02 -3.770361840724945068e-01 -2.497107982635498047e-01 -5.812444724142551422e-03 -2.761036455631256104e-01 8.813820779323577881e-02 5.651256442070007324e-02 3.783009713515639305e-03 -3.591016530990600586e-01 -6.952417641878128052e-02 8.082305639982223511e-02 7.582411170005798340e-02 -2.841403484344482422e-01 -1.356348991394042969e-01 -1.873413920402526855e-01 2.377991750836372375e-02 -1.266933828592300415e-01 1.778544038534164429e-01 8.404225111007690430e-02 1.999959349632263184e-01 9.252936393022537231e-02 1.408648341894149780e-01 1.316523104906082153e-01 1.836986839771270752e-01 -1.710180342197418213e-01 1.034424230456352234e-01 -8.276682347059249878e-02 -4.311363771557807922e-02 6.354656815528869629e-02 1.577750891447067261e-01 -1.015697792172431946e-02 1.341941207647323608e-01 -2.150895148515701294e-01 -4.296163842082023621e-02 -1.296124905347824097e-01 2.885550819337368011e-02 4.380973987281322479e-03 2.965501546859741211e-01 -6.327530741691589355e-02 3.298512473702430725e-02 -3.561829924583435059e-01 1.630524843931198120e-01 7.312987744808197021e-02 -7.175960391759872437e-02 -2.218940556049346924e-01 2.686277925968170166e-01 3.152725994586944580e-01 -7.534524053335189819e-02 -1.202333122491836548e-01 -5.698617920279502869e-02 1.462216377258300781e-01 6.940592825412750244e-02 -3.402004763484001160e-02 1.785950511693954468e-01 2.632439732551574707e-01 1.693007200956344604e-01 -1.770767569541931152e-01 -1.374956220388412476e-01 -5.576767399907112122e-02 4.041778668761253357e-02 -1.979102939367294312e-01 3.202618062496185303e-01 1.954866498708724976e-01 -1.659035980701446533e-01 1.244917139410972595e-01 3.302107751369476318e-01 -1.845935173332691193e-02 -2.871625125408172607e-01 2.078679054975509644e-01 2.999423146247863770e-01 -1.683689095079898834e-02 9.063594043254852295e-02 7.131048291921615601e-02 -2.987261116504669189e-01
1.289041936397552490e-01 1.203063130378723145e-02 -1.652393788099288940e-01 -3.524619936943054199e-01 2.253304421901702881e-02 -4.285537078976631165e-02 -2.156924456357955933e-01 -3.125887736678123474e-02 1.489930041134357452e-02 1.663111299276351929e-01 -6.114603206515312195e-02 3.168322741985321045e-01 -2.027153074741363525e-01 -8.247276395559310913e-02 1.533499509096145630e-01 -5.128055810928344727e-03 -3.183858096599578857e-01 1.147354245185852051e-01 -3.564846217632293701e-01 1.517386920750141144e-02 -8.031197637319564819e-02 3.934654295444488525e-01 2.984680607914924622e-02 9.809144586324691772e-02 3.153282999992370605e-01 -3.017775416374206543e-01 6.164099648594856262e-02 -3.571631908416748047e-01 9.189134836196899414e-02 -2.555926442146301270e-01 -9.658496081829071045e-02 -1.941408514976501465e-01 3.016038239002227783e-02 -2.166485786437988281e-02 -3.982044160366058350e-01 -1.595818996429443359e-01 4.268098622560501099e-02 1.864594370126724243e-01 2.443066798150539398e-02 1.497948169708251953e-02 1.163531914353370667e-01 1.240258142352104187e-01 -3.017773292958736420e-02 2.692126035690307617e-01 3.840808197855949402e-02 3.223529085516929626e-02 -2.236879430711269379e-02 -1.159071847796440125e-01 -3.474901616573333740e-01 1.322037577629089355e-01 -1.930115669965744019e-01 1.262897402048110962e-01 -1.954559236764907837e-01 -5.749672278761863708e-02 -3.159765899181365967e-02 -3.626022487878799438e-02 1.024355217814445496e-01 1.838258057832717896e-01 -2.689126133918762207e-02 2.287168949842453003e-01 2.517591416835784912e-01 2.309477329254150391e-01 2.509780786931514740e-02 -2.050925344228744507e-01 5.601799488067626953e-02 -9.134823828935623169e-02 -2.165867201983928680e-02 1.414582282304763794e-01 -3.001558780670166016e-02 -2.529016733169555664e-01 2.697641551494598389e-01 5.746131017804145813e-02 -1.707593500614166260e-01 -2.838228940963745117e-01 -1.665939986705780029e-01 4.935193341225385666e-03 3.580581545829772949e-01 -3.193151671439409256e-03 -1.940249502658843994e-01 7.604946941137313843e-02 -1.252616345882415771e-01 -3.158751726150512695e-01 -1.563561856746673584e-01 -2.346464246511459351e-02 -2.549408189952373505e-02 -1.799974143505096436e-01 -1.422440856695175171e-01 1.092361565679311752e-02 -4.682379588484764099e-02 -4.413155373185873032e-03 -1.921199709177017212e-01 2.347402870655059814e-01 -1.511391103267669678e-01 -2.233944647014141083e-02 2.145624905824661255e-01 2.259574234485626221e-01 2.022887021303176880e-01 1.821805238723754883e-01 1.060049682855606079e-01 -6.219612434506416321e-02 2.481927722692489624e-01 -1.543216556310653687e-01 -1.869219094514846802e-01 2.971805334091186523e-01 -1.499127745628356934e-01 1.575488299131393433e-01 1.663015335798263550e-01 -1.485409438610076904e-01 -1.460342574864625931e-02 -7.906062155961990356e-02 3.724558744579553604e-03 -9.192261844873428345e-02 2.806997299194335938e-01 1.778180524706840515e-02 -2.265263050794601440e-01 -7.579114288091659546e-02 -7.163127511739730835e-02 -1.159695908427238464e-01 1.113393679261207581e-01 -7.156013697385787964e-02
1.021479889750480652e-01 2.253599464893341064e-01 -2.457476221024990082e-02 -6.854311376810073853e-02 -1.968266814947128296e-01 -2.383460551500320435e-01 1.500216778367757797e-02 1.259150356054306030e-01 9.303962439298629761e-02 -5.784528329968452454e-02 -2.574902176856994629e-01 7.116106338798999786e-03 -1.582795679569244385e-01 2.759038805961608887e-01 -1.994748115539550781e-01 -1.247244477272033691e-01 1.841917037963867188e-01 3.199738264083862305e-01 1.931257396936416626e-01 1.613640934228897095e-01 -2.082454413175582886e-01 -3.624717891216278076e-01 5.898926407098770142e-02 1.433303654193878174e-01 -3.546639978885650635e-01 -1.511669009923934937e-01 -4.300012066960334778e-02 -6.812386214733123779e-02 2.094798088073730469e-01 -2.494348138570785522e-01 1.769952103495597839e-02 -2.094403952360153198e-01 1.641599982976913452e-01 2.887482047080993652e-01 -2.981018722057342529e-01 2.750367820262908936e-01 1.706682443618774414e-01 1.658133268356323242e-01 -1.051134839653968811e-01 -3.271905481815338135e-01 -3.005179762840270996e-02 2.078069001436233521e-01 2.731413543224334717e-01 2.812800370156764984e-02 -4.918184876441955566e-02 4.599422216415405273e-02 -3.302432596683502197e-01 -1.122468616813421249e-02 -2.637460269033908844e-02 9.109580516815185547e-02 9.242139756679534912e-02 -2.972179949283599854e-01 2.490593194961547852e-01 -2.765021324157714844e-01 2.000226825475692749e-01 2.389138489961624146e-01 1.076753661036491394e-01 4.888142645359039307e-02 3.729949891567230225e-01 -2.325814776122570038e-02 -2.536196410655975342e-01 -5.698245763778686523e-02 -8.949842303991317749e-02 -2.073167823255062103e-02 -3.282520473003387451e-01 -1.833323687314987183e-01 1.961687058210372925e-01 -1.806987226009368896e-01 3.412912413477897644e-02 -2.053519524633884430e-02 -6.174794863909482956e-03 8.602343499660491943e-02 6.444115191698074341e-02 -1.529400199651718140e-01 -2.559936642646789551e-01 -1.809374988079071045e-01 -9.232875704765319824e-02 -6.235176324844360352e-02 8.851199597120285034e-02 -2.749974131584167480e-01 -3.284944966435432434e-02 3.194916546344757080e-01 9.045321494340896606e-03 -9.883662313222885132e-02 -2.411302626132965088e-01 2.103916369378566742e-02 5.741966515779495239e-02 -7.772388309240341187e-02 -5.130749940872192383e-02 3.609312474727630615e-01 -2.375324070453643799e-01 4.079842939972877502e-03 -9.709817916154861450e-02 -2.103797048330307007e-01 1.929060816764831543e-01 2.591463029384613037e-01 6.257716566324234009e-02 -3.693534433841705322e-02 -1.671344488859176636e-01 3.929083943367004395e-01 -5.499724298715591431e-02 2.307644337415695190e-01 3.122420012950897217e-01 1.164201647043228149e-01 -1.036411076784133911e-01 -6.983529031276702881e-02 2.415801733732223511e-01 -2.970992587506771088e-02 7.445981353521347046e-02 1.356619317084550858e-02 -2.540856301784515381e-01 1.085067540407180786e-01 2.484637312591075897e-02 -2.416014224290847778e-01 -1.617287993431091309e-01 -1.208870783448219299e-01 2.456806413829326630e-02 -3.617176115512847900e-01 -2.266641855239868164e-01 2.835799455642700195e-01
-3.028942048549652100e-01 -8.557941764593124390e-02 -2.266925573348999023e-02 1.804665029048919678e-01 -5.045746639370918274e-02 7.577050477266311646e-02 1.650606095790863037e-01 -4.219718277454376221e-02 -2.698320150375366211e-02 1.978377550840377808e-01 -1.111170426011085510e-01 -2.923606149852275848e-02 9.275475144386291504e-02 -5.719300359487533569e-03 2.717374265193939209e-01 -6.581669300794601440e-02 3.196697309613227844e-02 -5.819299817085266113e-02 -2.579550147056579590e-01 2.263728380203247070e-01 -8.193412423133850098e-02 1.028039976954460144e-01 2.268031686544418335e-01 8.572036772966384888e-02 4.568246752023696899e-02 -1.439483016729354858e-01 -1.269184052944183350e-01 -1.561286598443984985e-01 1.391621977090835571e-01 2.061636745929718018e-01 -2.189109288156032562e-02 5.494722165167331696e-03 -6.548277568072080612e-03 -1.656030490994453430e-02 1.348469853401184082e-01 1.291767060756683350e-01 -1.113554369658231735e-02 3.476884588599205017e-02 1.275726873427629471e-02 -8.408740395680069923e-04 -2.123133689165115356e-01 -4.540108516812324524e-02 3.644882515072822571e-02 1.805463433265686035e-01 3.787303864955902100e-01 6.957760453224182129e-02 -4.077364876866340637e-02 1.947755226865410805e-03 8.791627734899520874e-02 -3.339542075991630554e-02 5.215233191847801208e-02 -1.540370285511016846e-01 -8.500751107931137085e-02 -1.770233958959579468e-01 4.764952696859836578e-03 5.414853617548942566e-02 4.124768450856208801e-02 1.862165518105030060e-03 -7.578297704458236694e-02 6.001874431967735291e-02 1.100845336914062500e-01 9.052012115716934204e-03 -1.672404408454895020e-01 -2.056156247854232788e-01 -7.505512982606887817e-02 -1.649031192064285278e-01 -3.083340525627136230e-01 7.498507201671600342e-02 -1.944250613451004028e-01 -2.631580829620361328e-02 3.703480362892150879e-01 8.240044862031936646e-02 -8.348543941974639893e-02 -2.113657295703887939e-01 3.744420111179351807e-01 7.207378000020980835e-02 -2.349611371755599976e-01 2.452115118503570557e-01 1.093908920884132385e-01 3.457085192203521729e-01 -2.177003175020217896e-01 -2.982680220156908035e-03 1.881080865859985352e-01 3.595127956941723824e-03 -6.335258483886718750e-02 -1.386083513498306274e-01 3.926824405789375305e-02 -1.031123623251914978e-01 -2.524538934230804443e-01 3.923649489879608154e-01 -3.038600087165832520e-02 5.502133443951606750e-02 -1.753453537821769714e-02 6.372974812984466553e-02 2.031705342233181000e-02 2.559141218662261963e-01 -5.066395550966262817e-02 -2.323640137910842896e-01 -1.576101034879684448e-01 1.662391275167465210e-01 -7.764889299869537354e-02 -9.390475600957870483e-02 -1.572069376707077026e-01 -5.591077730059623718e-02 1.701188683509826660e-01 1.148411184549331665e-01 -3.093103170394897461e-01 3.430675864219665527e-01 1.473943889141082764e-02 -7.931735366582870483e-02 -1.273775845766067505e-01 3.382062613964080811e-01 2.367670536041259766e-01 -6.691775470972061157e-02 -2.683352865278720856e-02 -1.514592319726943970e-01 5.093367025256156921e-02 -8.575747162103652954e-02 1.736529469490051270e-01 -2.241113632917404175e-01
