-6.787075847387313843e-02 -3.022614419460296631e-01 -2.930540740489959717e-01 1.811371296644210815e-01 -2.186474055051803589e-01 -2.192955464124679565e-01 1.336798965930938721e-01 6.729269772768020630e-02 -1.100304871797561646e-01 -2.317232191562652588e-01 -4.506580159068107605e-02 -1.967107504606246948e-01 -5.821893736720085144e-02 2.654882706701755524e-02 1.307877749204635620e-01 2.507915496826171875e-01 -3.805877566337585449e-01 -2.247221209108829498e-02 1.646538674831390381e-01 1.405420750379562378e-01 1.632096916437149048e-01 -2.158377170562744141e-01 3.674149140715599060e-02 -1.797929257154464722e-01 2.926575206220149994e-02 -1.644289195537567139e-01 -4.856033623218536377e-02 -1.736977249383926392e-01 -7.878313213586807251e-02 4.002026689704507589e-04 -3.214322775602340698e-02 -6.588246673345565796e-02 -1.045544669032096863e-01 -1.359201073646545410e-01 -9.477963298559188843e-02 -2.625595629215240479e-01 8.703694678843021393e-03 2.174947708845138550e-01 3.405569121241569519e-02 -1.195135712623596191e-01
-6.124270707368850708e-02 1.972644627094268799e-01 8.615715429186820984e-03 4.437557980418205261e-02 2.251340448856353760e-01 -7.666563242673873901e-02 -9.981904923915863037e-02 -2.324898093938827515e-01 2.208694964647293091e-01 2.696388959884643555e-01 1.724931001663208008e-01 -1.220422387123107910e-01 3.600805699825286865e-01 5.292733386158943176e-02 -2.787680327892303467e-01 1.981613598763942719e-02 -2.877767197787761688e-02 -1.056028828024864197e-01 -5.978604033589363098e-02 -5.071857571601867676e-02 -5.090395361185073853e-02 8.514463156461715698e-02 -2.097256015986204147e-03 -5.196739360690116882e-02 -2.824872732162475586e-01 -1.997694373130798340e-02 2.029022425413131714e-01 2.557890415191650391e-01 -1.879814714193344116e-01 -1.941300034523010254e-01 -1.147499084472656250e-01 -2.752645611763000488e-01 1.190239116549491882e-01 9.895734488964080811e-02 2.016635239124298096e-01 -1.421778053045272827e-01 5.192962940782308578e-03 -6.177380308508872986e-02 1.860667392611503601e-02 5.125453695654869080e-02
-1.062298938632011414e-01 -3.836934268474578857e-02 4.619274660944938660e-02 -2.332086563110351562e-01 4.191851243376731873e-02 1.217141672968864441e-01 -7.230016589164733887e-02 -1.234650760889053345e-01 -1.603833884000778198e-01 -5.223665758967399597e-02 6.047675013542175293e-02 -1.984768956899642944e-01 4.315121099352836609e-02 2.532402276992797852e-01 2.575350701808929443e-01 1.151772290468215942e-01 2.522604167461395264e-01 -2.960824780166149139e-02 -1.070801168680191040e-01 8.684448897838592529e-02 -3.146022260189056396e-01 -4.843731876462697983e-03 4.708763211965560913e-02 -1.993122547864913940e-01 -2.997627258300781250e-01 -2.400964796543121338e-01 1.449723988771438599e-01 -1.947193294763565063e-01 1.823254674673080444e-01 1.762749999761581421e-01 -1.415187120437622070e-01 -3.869425356388092041e-01 4.840813577175140381e-02 -1.513507217168807983e-01 -3.540918987710028887e-04 2.678159177303314209e-01 -1.706923097372055054e-01 3.734469115734100342e-01 -2.117226831614971161e-02 -3.954114019870758057e-01
1.617276966571807861e-01 -2.237696498632431030e-01 2.243715971708297729e-01 1.897012628614902496e-02 9.492788463830947876e-02 7.090095430612564087e-02 3.029459621757268906e-03 4.752814397215843201e-02 3.798219561576843262e-02 1.408435553312301636e-01 -3.076550364494323730e-01 -1.534237861633300781e-01 2.987365424633026123e-01 -2.649885416030883789e-01 9.705385565757751465e-02 9.107932448387145996e-02 1.876532733440399170e-01 -8.058421313762664795e-02 -5.185288935899734497e-02 -1.634396985173225403e-02 -1.769036203622817993e-01 -1.262179464101791382e-01 5.646757408976554871e-02 1.267348676919937134e-01 2.424885034561157227e-01 6.769690662622451782e-02 -5.385992676019668579e-02 -6.807310134172439575e-02 -2.421149760484695435e-01 1.078226789832115173e-01 -1.146232709288597107e-01 -2.557606995105743408e-02 1.682478040456771851e-01 -2.169791758060455322e-01 2.012153863906860352e-01 -1.024982258677482605e-01 -1.279829442501068115e-01 2.614055275917053223e-01 -2.614662051200866699e-01 5.980524048209190369e-02
-1.802305132150650024e-01 1.647723168134689331e-01 -2.020685523748397827e-01 2.124682962894439697e-01 1.115217339247465134e-02 -2.030133455991744995e-01 -9.147559106349945068e-02 -1.220423169434070587e-02 -5.879454687237739563e-02 -2.284902334213256836e-01 3.996257856488227844e-02 1.452055722475051880e-01 -3.494774997234344482e-01 -1.132787577807903290e-02 -8.073567599058151245e-02 -1.891190707683563232e-01 -2.442678958177566528e-01 -1.163366660475730896e-01 -8.177717030048370361e-02 4.958354681730270386e-02 2.491755783557891846e-01 2.125255912542343140e-01 2.504054903984069824e-01 2.260607928037643433e-01 3.338398635387420654e-01 -2.632344700396060944e-02 3.012991882860660553e-02 1.449566334486007690e-02 1.427892744541168213e-01 -1.957630068063735962e-01 -7.904598116874694824e-02 -1.033453568816184998e-01 -1.469413787126541138e-01 2.750444114208221436e-01 8.504013717174530029e-02 2.835601568222045898e-01 6.884681433439254761e-02 -1.666708588600158691e-01 -2.145127393305301666e-02 5.005132779479026794e-02
1.159232407808303833e-01 3.018641285598278046e-02 3.376072347164154053e-01 -1.547642946243286133e-01 -1.600980013608932495e-01 3.328467160463333130e-02 3.741089627146720886e-02 -1.142372265458106995e-01 1.648006737232208252e-01 1.374100297689437866e-01 4.154717549681663513e-02 1.375537961721420288e-01 8.922495692968368530e-02 -1.567696779966354370e-01 -2.055614441633224487e-01 8.956675976514816284e-02 -1.800361275672912598e-01 -1.688683927059173584e-01 -1.637952774763107300e-01 2.223661392927169800e-01 -1.965627223253250122e-01 -3.715546131134033203e-01 -5.304183438420295715e-02 1.082962974905967712e-01 3.989331722259521484e-01 1.018200665712356567e-01 -2.331590950489044189e-01 2.146909572184085846e-02 -1.077746972441673279e-01 -1.027204766869544983e-01 1.206320673227310181e-01 6.514532119035720825e-02 7.773598283529281616e-02 2.568601965904235840e-01 -8.983303606510162354e-02 -9.298387169837951660e-02 -1.846581995487213135e-01 3.553070873022079468e-02 -1.915609985589981079e-01 2.733306884765625000e-01
-2.408742010593414307e-01 -1.776352226734161377e-01 5.867740511894226074e-02 4.001265764236450195e-02 5.567907169461250305e-02 -1.544623523950576782e-01 -4.588891193270683289e-02 5.925637669861316681e-03 1.699736714363098145e-01 -1.690248101949691772e-01 2.703644037246704102e-01 3.779813051223754883e-01 3.089163899421691895e-01 -7.549417018890380859e-02 -3.169103562831878662e-01 1.827335804700851440e-01 3.191762864589691162e-01 -7.208388298749923706e-02 -7.726952433586120605e-02 2.250759601593017578e-01 1.008243337273597717e-01 1.108417659997940063e-01 -5.672257021069526672e-02 -6.704930961132049561e-02 2.888288535177707672e-02 2.395817078649997711e-02 -4.143757000565528870e-02 1.529296636581420898e-01 1.199969928711652756e-02 -2.258220501244068146e-02 -2.194073498249053955e-01 -1.329711358994245529e-02 1.815198510885238647e-01 -2.169867604970932007e-01 2.717801928520202637e-02 -2.141638100147247314e-01 -9.284497052431106567e-02 3.665021061897277832e-01 -3.739789873361587524e-02 1.105223298072814941e-01
2.235839813947677612e-01 -2.047877609729766846e-01 -1.621654927730560303e-01 -8.238227665424346924e-02 1.801300677470862865e-03 -2.877298295497894287e-01 -3.506180942058563232e-01 8.427733182907104492e-02 2.066110372543334961e-01 1.237823739647865295e-01 -1.574291102588176727e-02 1.343182027339935303e-01 2.276655472815036774e-02 -1.021865010261535645e-01 -1.054804846644401550e-01 1.599286682903766632e-02 -2.239512056112289429e-01 -5.770688131451606750e-02 1.580661237239837646e-01 -2.751715853810310364e-02 1.968706101179122925e-01 -1.703483462333679199e-01 -4.584382846951484680e-02 1.186896488070487976e-02 1.843680441379547119e-01 3.976798355579376221e-01 1.069719716906547546e-01 -1.248179897665977478e-01 -1.116223558783531189e-01 1.856744736433029175e-01 -8.354922384023666382e-02 -9.204509854316711426e-02 -3.530738949775695801e-01 -3.835611343383789062e-01 3.157003223896026611e-02 -1.365749835968017578e-01 -3.164501190185546875e-01 1.949653178453445435e-01 -1.662515699863433838e-01 8.555065840482711792e-02
-2.702434360980987549e-01 -3.979099988937377930e-01 -1.275882571935653687e-01 -1.785763502120971680e-01 -1.530756801366806030e-01 1.323768943548202515e-01 1.883415691554546356e-02 1.477923244237899780e-01 1.974231563508510590e-03 2.510926425457000732e-01 -1.049413084983825684e-01 -1.065161824226379395e-01 -1.124236956238746643e-01 1.349639296531677246e-01 3.073480725288391113e-01 -2.307159006595611572e-01 -2.979137562215328217e-02 -1.134433075785636902e-01 1.966283172369003296e-01 3.600970208644866943e-01 9.928078204393386841e-02 -1.018598899245262146e-01 4.400170966982841492e-02 1.232154369354248047e-01 -3.356986939907073975e-01 8.172290772199630737e-02 -5.535693839192390442e-03 -1.307456493377685547e-01 -9.891244769096374512e-02 6.498876214027404785e-02 1.959028840065002441e-01 1.641097813844680786e-01 3.277441486716270447e-02 -3.686826303601264954e-02 1.704221814870834351e-01 3.121691644191741943e-01 1.432141512632369995e-01 -1.800238043069839478e-01 -2.599717080593109131e-01 -1.684566885232925415e-01
9.037741273641586304e-02 -3.383323848247528076e-01 -6.195225287228822708e-03 -2.864946722984313965e-01 -2.005454599857330322e-01 -1.693406999111175537e-01 -1.694770455360412598e-01 -7.553245872259140015e-02 1.511400192975997925e-01 -2.026421278715133667e-01 -1.270938962697982788e-01 -1.412978023290634155e-01 -1.141218915581703186e-01 -1.920674592256546021e-01 1.241771411150693893e-02 -1.272171884775161743e-01 8.989649824798107147e-03 1.012948155403137207e-01 -6.303968280553817749e-02 -3.681549057364463806e-02 -3.861081227660179138e-02 -1.032300740480422974e-01 -1.447908729314804077e-01 1.810303032398223877e-01 9.731841832399368286e-02 2.742682769894599915e-02 -1.618822067975997925e-01 -6.293184589594602585e-03 2.526811659336090088e-01 9.499846398830413818e-02 -3.886632993817329407e-02 -1.010817512869834900e-01 -7.783334702253341675e-02 2.394081652164459229e-01 3.081409633159637451e-01 1.167808696627616882e-01 -1.048396751284599304e-01 -1.993779540061950684e-01 1.287503838539123535e-01 -3.265135884284973145e-01
8.162196725606918335e-02 -2.039099112153053284e-02 2.007494866847991943e-02 3.379885554313659668e-01 -1.991316862404346466e-02 -1.211957931518554688e-01 -3.163883388042449951e-01 -1.335531771183013916e-01 -1.744353622198104858e-01 2.908784449100494385e-01 2.114114314317703247e-01 -2.222509384155273438e-01 -3.484098017215728760e-01 6.086043640971183777e-02 -7.222596555948257446e-02 1.629531532526016235e-01 -9.423445910215377808e-02 3.517236709594726562e-01 -9.817480295896530151e-02 -1.344147771596908569e-01 3.259093314409255981e-02 -7.224022597074508667e-02 -1.183055639266967773e-01 2.872367762029170990e-02 -1.007751449942588806e-01 -8.732455223798751831e-02 4.477707669138908386e-02 3.037032783031463623e-01 -2.331850863993167877e-02 -1.695153564214706421e-01 3.587349057197570801e-01 8.048155158758163452e-02 -4.525343701243400574e-02 -3.396557411178946495e-03 7.531680911779403687e-02 1.673939079046249390e-01 4.248932935297489166e-03 -5.450807511806488037e-03 -9.097458422183990479e-02 -2.296862900257110596e-01
-1.370550841093063354e-01 3.064537942409515381e-01 5.082016065716743469e-02 -1.187290176749229431e-01 -7.249369472265243530e-02 5.167648941278457642e-02 5.481864791363477707e-03 1.820629388093948364e-01 -5.295465514063835144e-02 2.402091026306152344e-01 3.328523337841033936e-01 -2.290817946195602417e-01 2.687583863735198975e-01 -9.295269101858139038e-02 -2.166479378938674927e-01 5.222767218947410583e-02 2.947740554809570312e-01 -8.229850977659225464e-02 1.769339591264724731e-01 2.029159516096115112e-01 -2.686636149883270264e-01 1.870730519294738770e-01 1.206272169947624207e-01 2.549232356250286102e-02 -3.532648980617523193e-01 1.480737924575805664e-01 -2.672383189201354980e-01 1.858020871877670288e-01 -8.682369440793991089e-02 -2.011217921972274780e-01 9.262811392545700073e-02 3.993593156337738037e-01 -1.037866845726966858e-01 -1.604587398469448090e-02 -1.024775281548500061e-01 1.655036658048629761e-01 4.938219487667083740e-02 1.641120761632919312e-02 2.461054772138595581e-01 -2.097800523042678833e-01
-3.334036767482757568e-01 9.678380936384201050e-02 7.002120465040206909e-02 -1.880091428756713867e-01 -7.161050289869308472e-02 1.353114098310470581e-01 1.841731071472167969e-01 1.673204451799392700e-01 -1.715742945671081543e-01 -6.936263293027877808e-02 1.375436037778854370e-01 3.510647639632225037e-02 -2.395577728748321533e-01 9.250172227621078491e-02 1.421732176095247269e-02 1.765435039997100830e-01 -2.453422360122203827e-02 -4.389930889010429382e-02 -1.255525201559066772e-01 1.160933747887611389e-01 -1.168238446116447449e-01 2.353231012821197510e-01 -1.552432179450988770e-01 -4.393788799643516541e-02 1.620305627584457397e-01 2.601231038570404053e-01 2.857016623020172119e-01 -1.051702257245779037e-02 -1.645513176918029785e-01 8.316259831190109253e-02 -4.074116423726081848e-02 -1.601476818323135376e-01 7.406161725521087646e-02 3.761004209518432617e-01 1.027731075882911682e-01 1.041887402534484863e-01 3.407085835933685303e-01 -1.147001758217811584e-01 -2.552113495767116547e-02 2.844080626964569092e-01
2.262872084975242615e-02 2.193656265735626221e-01 -1.917145997285842896e-01 -1.123998761177062988e-01 -5.868218466639518738e-02 -7.908289879560470581e-02 -1.361237019300460815e-01 -3.073380887508392334e-01 3.184572756290435791e-01 -1.329259872436523438e-01 1.540746539831161499e-01 -4.980449751019477844e-02 7.923165336251258850e-03 -2.716304063796997070e-01 -1.855849474668502808e-01 1.314415931701660156e-01 1.461599171161651611e-01 1.464805901050567627e-01 8.885848522186279297e-02 1.511388570070266724e-01 -2.177416831254959106e-01 -1.658943593502044678e-01 1.371910423040390015e-01 1.012177392840385437e-01 3.249138593673706055e-02 3.241156637668609619e-01 -1.071545854210853577e-01 -3.328598337247967720e-03 -1.855872571468353271e-01 3.806519880890846252e-02 -3.461175262928009033e-01 2.165873348712921143e-01 3.736124560236930847e-02 -7.051779329776763916e-02 -1.405720598995685577e-02 -5.051863938570022583e-02 -2.562604546546936035e-01 2.515865266323089600e-01 2.208055257797241211e-01 1.503905504941940308e-01
-2.518512904644012451e-01 -1.505365222692489624e-02 -1.906339973211288452e-01 2.622189521789550781e-01 1.654981076717376709e-01 -3.506990848109126091e-03 -5.883090570569038391e-02 -2.577151656150817871e-01 1.623025983572006226e-01 -8.069267123937606812e-02 3.286754190921783447e-01 -2.292754650115966797e-01 -4.251566156744956970e-02 -8.016628213226795197e-03 3.608107194304466248e-02 2.866438329219818115e-01 -1.850284188985824585e-01 -1.096163019537925720e-01 3.067664802074432373e-01 2.992672324180603027e-01 -9.758498519659042358e-02 -8.319833129644393921e-02 -1.118204817175865173e-01 -2.326865941286087036e-01 -4.520330578088760376e-02 1.127887796610593796e-02 -1.280498504638671875e-02 -1.306089311838150024e-01 1.904463209211826324e-02 6.058242917060852051e-02 9.081022441387176514e-02 -2.247293293476104736e-01 -1.043850183486938477e-01 -3.389789760112762451e-01 2.765462696552276611e-01 -3.834133744239807129e-01 -2.512969076633453369e-01 -2.461587637662887573e-02 -3.492422401905059814e-02 -3.949618712067604065e-02
-3.088655173778533936e-01 -1.686368733644485474e-01 -4.335336014628410339e-02 3.457226753234863281e-01 3.288721740245819092e-01 -9.765785187482833862e-02 1.247708201408386230e-01 2.242181636393070221e-02 3.313127458095550537e-01 2.746411366388201714e-03 4.326380416750907898e-02 1.260617971420288086e-01 -2.187859266996383667e-01 2.869808375835418701e-01 -2.721059024333953857e-01 1.816459298133850098e-01 2.698250412940979004e-01 1.388992369174957275e-01 1.286478936672210693e-01 1.657021045684814453e-01 2.590443789958953857e-01 1.444679945707321167e-01 -6.633379310369491577e-02 -7.654492557048797607e-02 3.895277678966522217e-01 -6.573566794395446777e-02 3.010366261005401611e-01 -3.330125659704208374e-02 2.362414896488189697e-01 6.479083001613616943e-02 -6.137354299426078796e-02 -1.873531341552734375e-01 -3.857558220624923706e-02 -7.693819701671600342e-02 -2.433733940124511719e-01 3.768588975071907043e-02 -1.590560525655746460e-01 1.867481507360935211e-02 9.091217815876007080e-02 -2.599523961544036865e-01
2.280648611485958099e-02 -1.669137179851531982e-02 4.048446717206388712e-04 1.829112023115158081e-01 4.548611119389533997e-02 8.721086382865905762e-02 -8.984895795583724976e-02 -1.046214848756790161e-01 -5.566971376538276672e-02 -2.067536860704421997e-01 -1.455702632665634155e-01 2.393463402986526489e-01 -1.367606129497289658e-02 -4.311997815966606140e-02 1.234278604388237000e-01 2.142168730497360229e-01 7.424734649248421192e-04 -2.618995010852813721e-01 1.554959863424301147e-01 1.288481205701828003e-01 -6.112470850348472595e-02 -1.302911639213562012e-01 1.589861512184143066e-01 2.932722270488739014e-01 -9.245618432760238647e-02 -1.875252574682235718e-01 -2.649217247962951660e-01 2.084904909133911133e-02 -3.255964219570159912e-01 1.783423274755477905e-01 8.060000836849212646e-02 -3.191221272572875023e-03 -3.187167644500732422e-02 -3.959301114082336426e-02 4.941402748227119446e-02 -2.636375129222869873e-01 3.586422535590827465e-04 -7.564092427492141724e-02 -1.444379240274429321e-01 2.778824865818023682e-01
3.951270133256912231e-02 4.598683118820190430e-02 1.614819020032882690e-01 1.536831557750701904e-01 -2.055020332336425781e-01 1.927134394645690918e-01 -5.173897743225097656e-02 4.469162225723266602e-02 -2.187227755784988403e-01 1.995803117752075195e-01 -1.890700757503509521e-01 -2.125825919210910797e-02 -2.012656033039093018e-01 1.330053955316543579e-01 -3.108195066452026367e-01 -1.489812582731246948e-01 -1.443865597248077393e-01 -2.968299090862274170e-01 -1.496445834636688232e-01 -1.167231723666191101e-01 6.448980420827865601e-02 1.575201451778411865e-01 1.757308393716812134e-01 -3.721722215414047241e-02 -4.761729761958122253e-02 -2.446191608905792236e-01 -4.246942326426506042e-02 -1.635487005114555359e-02 -1.830648332834243774e-01 -1.732799559831619263e-01 -6.712091714143753052e-02 -1.215129997581243515e-02 -5.341655761003494263e-02 -4.502649232745170593e-02 -1.155684813857078552e-01 1.683372110128402710e-01 -1.340877115726470947e-01 2.185842543840408325e-01 3.917333185672760010e-01 -7.097744941711425781e-02
1.683155298233032227e-01 3.518029153347015381e-01 -1.322349905967712402e-01 -2.440499812364578247e-01 2.813269793987274170e-01 1.109283491969108582e-01 -2.362276613712310791e-01 7.992017199285328388e-04 -2.959302067756652832e-02 -1.592553555965423584e-01 8.816968649625778198e-02 -9.467383474111557007e-02 1.829424500465393066e-01 -1.125684380531311035e-01 1.019678115844726562e-01 -1.097266897559165955e-01 9.657426737248897552e-03 -1.894901390187442303e-03 -1.670138686895370483e-01 -2.216993421316146851e-01 1.029924526810646057e-01 1.658654958009719849e-01 -6.076241284608840942e-02 7.341873645782470703e-02 1.162815093994140625e-01 -4.387005791068077087e-02 -2.047550976276397705e-01 -1.059240475296974182e-01 -3.563500940799713135e-02 -2.008642703294754028e-01 3.044117689132690430e-01 -1.340752691030502319e-01 1.758484095335006714e-01 -2.414083927869796753e-01 -3.227269351482391357e-01 1.849417760968208313e-02 -2.261410951614379883e-01 1.354945600032806396e-01 -2.214849442243576050e-01 2.122220098972320557e-01
1.432731449604034424e-01 -2.620059847831726074e-01 2.661614120006561279e-01 1.442191749811172485e-01 -2.096657007932662964e-01 1.142999529838562012e-01 2.411211282014846802e-01 2.136819362640380859e-01 6.502648442983627319e-02 8.944474905729293823e-02 -1.569289863109588623e-01 5.173835158348083496e-02 -2.143229544162750244e-01 1.240314170718193054e-01 -3.001999557018280029e-01 2.208643406629562378e-02 -6.011849641799926758e-02 -1.884564608335494995e-01 -7.693373411893844604e-02 -1.497895717620849609e-01 -3.094591572880744934e-02 -1.991032063961029053e-01 -3.670067712664604187e-02 1.825606673955917358e-01 5.544627830386161804e-02 1.037718169391155243e-02 8.806439489126205444e-02 -1.794541925191879272e-01 -4.089703317731618881e-03 -1.664493829011917114e-01 -1.335828602313995361e-01 3.949579223990440369e-02 -1.835337281227111816e-01 3.122732415795326233e-02 -1.774217039346694946e-01 -3.874587416648864746e-01 9.995581209659576416e-02 1.029228717088699341e-01 4.455366730690002441e-02 5.843263864517211914e-02
