-7.101734727621078491e-02 -3.693751394748687744e-01 1.498426347970962524e-01 -3.326093064970336854e-05 1.093683578073978424e-02 -2.274420857429504395e-02 1.138523839472327381e-05 -9.594947186997160316e-06 2.569223754107952118e-02 3.422992222112952732e-06 1.737374216318130493e-01 -1.884802281856536865e-01 -2.242436707019805908e-01 -4.060808350914157927e-06 -1.156755752163007855e-05 1.564620137214660645e-01 -1.080904155969619751e-02 2.778897942334879190e-05 -1.808745861053466797e-01 2.996033430099487305e-01 1.923116594552993774e-01 -1.144650013884529471e-05 2.257858961820602417e-02 -2.005394250154495239e-01 1.167866811156272888e-01 2.053008973598480225e-01 8.933549374341964722e-02 3.504468622850254178e-05 -3.569672629237174988e-02 3.688541054725646973e-02 3.897410351783037186e-05 4.337332211434841156e-05 1.552699320018291473e-02 -1.595862656831741333e-01 1.380482717650011182e-05 4.632717173080891371e-04 -2.004938572645187378e-01 1.467671543359756470e-01 -3.771999478340148926e-02 7.335930317640304565e-02 -2.694090083241462708e-02 -1.384283453226089478e-01 -2.320077037438750267e-03 -6.791131198406219482e-02 -2.825115434825420380e-02 -3.900189697742462158e-02 7.490238547325134277e-02 9.709540790936443955e-06 -8.767013996839523315e-02 6.596765615540789440e-06 3.597842901945114136e-02 4.575855564326047897e-05 -1.695003546774387360e-02 2.111134864389896393e-02 3.063285909593105316e-02 -9.497880190610885620e-02 -1.354465447366237640e-02 4.939952304994221777e-06 -8.089195936918258667e-03 1.099832653999328613e-01
-3.853499889373779297e-02 -4.484311863780021667e-02 7.757806684821844101e-03 1.650058766244910657e-05 -1.544559467583894730e-02 1.135726720094680786e-01 -3.906863555312156677e-02 4.990319255739450455e-03 -1.369060828437795863e-05 -2.044912055134773254e-02 -8.826459199190139771e-02 1.391061954200267792e-02 -1.657522097229957581e-02 9.333362868346739560e-06 -1.217365934280678630e-06 -1.981401443481445312e-02 -2.543741650879383087e-02 2.483110688626766205e-02 -1.686892844736576080e-02 -3.127205669879913330e-01 -1.481239348649978638e-01 -1.478229569329414517e-05 -1.062867045402526855e-02 6.956099718809127808e-02 1.967377662658691406e-01 -1.333246082067489624e-01 2.746031852439045906e-03 7.268483284860849380e-03 1.982000321731902659e-05 -1.526282539998646826e-05 2.223194343969225883e-03 -3.131618359475396574e-05 -8.725557563593611121e-06 1.127870655182050541e-05 -1.594682544237002730e-05 -3.711036592721939087e-02 -9.213232249021530151e-02 -1.532095302536617965e-05 6.999295949935913086e-02 1.142763532698154449e-03 -5.436377972364425659e-02 -9.914228940033353865e-07 2.762886651908047497e-05 2.623935975134372711e-02 1.509099274699110538e-05 -1.217396277934312820e-02 8.285852149128913879e-03 2.991254255175590515e-02 1.315063238143920898e-01 -9.449620847590267658e-06 1.072828657925128937e-02 7.088999450206756592e-02 -1.691837314865551889e-05 3.531492257025092840e-05 -2.780830072879325598e-05 7.251915335655212402e-02 2.130935937166213989e-01 -5.521426828636322170e-06 1.160869942395947874e-07 5.174010875634849072e-04
2.038226375589147210e-05 2.362847626209259033e-01 -4.811926931142807007e-02 1.175644683826249093e-05 -5.318947660271078348e-05 5.989443525322712958e-05 1.912961900234222412e-02 4.607416485669091344e-05 -2.599212348286528140e-05 -2.943731306004337966e-05 -1.964110881090164185e-01 4.374008858576416969e-05 2.228166749773663469e-06 -8.312357749673537910e-06 -4.575482307700440288e-06 -6.737939268350601196e-02 6.113081326475366950e-06 -4.989960871171206236e-05 1.267602874577278271e-05 -3.245809972286224365e-01 -2.197761386632919312e-01 1.641693152487277985e-02 -4.418654498294927180e-05 1.279207179322838783e-03 -6.879587471485137939e-02 -1.872524172067642212e-01 -4.651406779885292053e-02 -1.392038029734976590e-06 4.451792847248725593e-05 -3.825081512331962585e-05 -2.266850970045197755e-05 -7.682538853259757161e-05 -3.421352175791980699e-06 8.264637738466262817e-02 7.002884894609451294e-02 -3.659702997538261116e-05 4.350861534476280212e-02 -7.278823107481002808e-02 -1.491391685704002157e-05 -1.314117480069398880e-02 -1.230926955031463876e-06 2.073481492698192596e-02 3.378380142748937942e-06 1.028218194842338562e-01 3.959684545407071710e-05 -2.476404915796592832e-05 -2.025526191573590040e-05 -2.094934461638331413e-05 -1.509841058577876538e-05 5.809845402836799622e-02 -8.562697470188140869e-02 7.145041972398757935e-02 -3.600823674787534401e-07 2.569177013356238604e-07 -3.271281093475408852e-05 7.387218647636473179e-05 3.161538019776344299e-02 -2.012123513850383461e-05 4.392081973492167890e-05 -8.116118609905242920e-03
-9.720334674057085067e-06 2.963726818561553955e-01 2.841391960828332230e-06 1.279907883144915104e-05 -6.662763189524412155e-05 2.859613671898841858e-02 -4.606369417160749435e-03 3.594827285269275308e-05 -1.122718185797566548e-05 -5.598354618996381760e-05 -2.795143425464630127e-01 5.344245892047183588e-06 -4.587656803778372705e-05 7.641467163921333849e-06 6.964201020309701562e-06 -6.203801929950714111e-02 -1.967890784726478159e-05 -1.360032911179587245e-05 -4.630674084182828665e-07 -3.449884653091430664e-01 -1.333254128694534302e-01 5.990749970078468323e-02 -2.282768400618806481e-05 2.782390452921390533e-03 -8.155920542776584625e-03 -1.658291369676589966e-01 -4.093984443898079917e-06 8.332781362696550786e-06 1.862133467511739582e-05 -1.764148328220471740e-05 1.086062366084661335e-05 -3.604937592172063887e-05 -1.335008619207656011e-07 1.715440157568082213e-05 1.512066125869750977e-01 -1.091734785586595535e-02 -3.643870353698730469e-03 -1.674022496445104480e-05 -1.110921584768220782e-05 -5.337966285878792405e-06 3.696143627166748047e-03 4.611155873135430738e-06 7.518827260355465114e-06 7.730670273303985596e-02 2.050570765277370811e-05 -2.303365909028798342e-05 3.639811438915785402e-06 -1.848582724051084369e-05 -1.135860532522201538e-01 1.753920912742614746e-01 5.723782123823184520e-07 8.761507272720336914e-02 -1.536423587822355330e-05 3.398046146685373969e-06 1.594154350459575653e-02 1.115056336857378483e-03 6.364559382200241089e-02 -1.880906893347855657e-06 1.671469770371913910e-02 -7.709655910730361938e-03
4.903016815660521388e-05 -2.744538187980651855e-01 -5.737306922674179077e-02 4.195870133116841316e-05 -2.865219861268997192e-02 9.959971904754638672e-02 -1.780750788748264313e-02 4.760937020182609558e-02 -5.824404797749593854e-05 1.491741113568423316e-05 6.996290176175534725e-05 2.798761427402496338e-01 5.656640496454201639e-05 2.048310489044524729e-05 2.491618579369969666e-05 1.113617140799760818e-02 4.224230724503286183e-05 3.677872155094519258e-05 5.610549706034362316e-04 -6.792155653238296509e-02 3.676643129438161850e-03 -3.106837533414363861e-02 -4.822519421577453613e-02 2.561679482460021973e-01 -9.581100940704345703e-02 -6.898615043610334396e-03 -4.616184742189943790e-05 -4.336115671321749687e-05 8.375282585620880127e-02 -2.850402332842350006e-02 3.220849248464219272e-05 -8.732493966817855835e-02 -4.369166344986297190e-05 2.250581681728363037e-01 -1.557586789131164551e-01 -1.489859968423843384e-01 -6.098711863160133362e-02 -2.553222775459289551e-01 -1.280913036316633224e-02 -1.410256922245025635e-01 -7.688088715076446533e-02 1.795361377298831940e-02 5.816035903990268707e-03 -1.155251264572143555e-01 6.189129129052162170e-02 -9.538970887660980225e-03 -4.261074354872107506e-05 2.170017251046374440e-05 4.852979779243469238e-01 -2.801329791545867920e-01 -1.090544983744621277e-01 -9.441073238849639893e-02 3.746758011402562261e-05 1.845097355544567108e-02 -8.074098825454711914e-02 8.806635439395904541e-02 1.158513441623654217e-05 1.482601601310307160e-05 -1.766493915056344122e-05 1.688346674200147390e-04
1.071772351861000061e-01 -3.963262215256690979e-02 3.414549529552459717e-01 -2.808335375448223203e-05 7.760407030582427979e-02 -1.858045756816864014e-01 1.334681361913681030e-02 1.763877272605895996e-02 6.294212490320205688e-02 6.000889092683792114e-02 1.907454580068588257e-01 -2.202324122190475464e-01 -2.295822799205780029e-01 -5.830439931742148474e-06 -1.002957196760689840e-05 1.988082230091094971e-01 -8.062797860475257039e-07 -1.463273167610168457e-02 -1.506895720958709717e-01 3.932095170021057129e-01 1.098105683922767639e-01 -1.300725671171676368e-05 -1.158593874424695969e-02 -2.494020760059356689e-01 -1.438777893781661987e-03 1.055254861712455750e-01 3.021046146750450134e-02 6.045158952474594116e-02 -2.092773839831352234e-02 1.849702894687652588e-01 -5.685891490429639816e-03 -1.440820284187793732e-02 9.340874850749969482e-02 -8.421333134174346924e-02 2.019667226704768836e-05 -4.342112690210342407e-02 1.846911967732012272e-03 3.137757629156112671e-02 -7.536529749631881714e-02 -9.420019388198852539e-02 -7.534948177635669708e-03 -9.140823036432266235e-02 -3.374345760676078498e-05 -3.405060172080993652e-01 -1.467161327600479126e-01 2.426388440653681755e-03 2.974472343921661377e-01 5.751217031502164900e-05 -3.063518702983856201e-01 1.056478140526451170e-05 -8.436734974384307861e-02 -2.658300697803497314e-01 -4.312688484787940979e-02 2.451962977647781372e-01 5.932136997580528259e-02 -2.561223506927490234e-01 -5.342496186494827271e-02 -7.973753781698178500e-06 -7.634670287370681763e-02 1.226208135485649109e-01
6.109876267146319151e-05 -1.556678265333175659e-01 -4.169044404989108443e-05 1.497664470662130043e-05 2.531445261411136016e-06 -4.616570004145614803e-05 -6.792678497731685638e-03 -1.014431472867727280e-05 -5.069885082775726914e-05 3.298519004601985216e-05 2.515327557921409607e-02 1.621708571910858154e-01 1.074915518984198570e-03 4.053209977428195998e-06 5.826432243338786066e-07 -3.981174813816323876e-05 6.435385148506611586e-05 3.266140629420988262e-05 1.581697375513613224e-03 2.905267057940363884e-03 -4.785408964380621910e-05 -1.270479056984186172e-02 -2.994926580868195742e-05 1.761911064386367798e-01 -4.179310963081661612e-06 -3.869752254104241729e-05 -4.392858681967481971e-05 -5.780942228739149868e-05 4.827220254810526967e-05 -2.674737712368369102e-03 2.185546873079147190e-05 -4.292832314968109131e-02 -3.897614806191995740e-05 1.000638455152511597e-01 -1.903947442770004272e-01 3.667879718705080450e-05 4.976789205102249980e-05 -9.647504985332489014e-02 4.039361010654829443e-05 -2.291506156325340271e-02 1.037881593219935894e-04 9.807996684685349464e-05 1.004485384328290820e-04 5.628554936265572906e-05 1.636036904528737068e-05 4.509511927608400583e-05 -5.034945934312418103e-05 3.558964817784726620e-05 3.438410162925720215e-01 -3.003596961498260498e-01 -1.304715219885110855e-02 7.665426528546959162e-05 5.548063199967145920e-05 -3.006808219652157277e-05 -6.998813152313232422e-02 2.528056129813194275e-02 4.705159881268627942e-05 3.052686224691569805e-06 -2.277509338455274701e-05 -3.637848567450419068e-05
-1.133438217948423699e-06 -9.170658141374588013e-02 2.898239472415298223e-06 1.239064658875577152e-06 1.491989678470417857e-05 -1.784101550583727658e-05 1.316738234891090542e-05 -7.467459909094031900e-06 7.404637472063768655e-07 1.095244806492701173e-05 4.303223453462123871e-03 8.304052054882049561e-03 -8.180218173947650939e-07 -9.812115422391798347e-07 1.446945771022001281e-05 2.163554654543986544e-06 1.952800630533602089e-06 1.003541001409757882e-07 -1.067685388989048079e-06 8.668614178895950317e-02 2.458062681398587301e-06 5.161050466995220631e-07 4.973364866600604728e-06 -1.376929503749124706e-05 4.222979396581649780e-02 4.533436521887779236e-02 2.031016265391372144e-06 8.175384209607727826e-07 -3.864834980049636215e-06 4.065731900482205674e-06 -1.181859147436625790e-06 6.090847818995825946e-06 -5.040672931500012055e-06 -3.829217348538804799e-06 -2.369904145598411560e-02 2.157723611162509769e-05 1.319962848356226459e-06 -1.366047172268736176e-06 1.225375945068662986e-05 3.164688223478151485e-06 -3.924296834156848490e-07 -1.437934315617894754e-06 -5.245493866823380813e-06 1.037311994878109545e-05 -5.871780558663886040e-06 1.765414708643220365e-06 3.331077550683403388e-06 7.955653018143493682e-06 6.966476887464523315e-02 -5.518762767314910889e-02 3.335880137456115335e-06 2.004179870709776878e-03 -1.640605660213623196e-07 -1.599627694304217584e-06 5.069166491011856124e-06 -1.383629569318145514e-05 4.525911572272889316e-05 -4.400174475449603051e-06 -7.103277312126010656e-06 -4.509868631430435926e-06
-5.160864020581357181e-05 3.024347126483917236e-01 6.729496817570179701e-05 -2.770636092463973910e-05 1.265243627130985260e-04 6.300329550867900252e-05 2.391987293958663940e-02 -1.138948355219326913e-04 1.055511020240373909e-04 -5.430061719380319118e-05 -1.028192639350891113e-01 -1.228494197130203247e-01 -1.118719301302917302e-04 3.327154445287305862e-06 -4.139154953008983284e-06 8.177058043656870723e-05 -9.380999836139380932e-05 -1.861110649770125747e-04 -7.090974249877035618e-04 -3.499292954802513123e-02 -9.184260852634906769e-03 6.016060337424278259e-02 5.607721323031000793e-05 -8.497245609760284424e-02 -3.173806145787239075e-02 2.870256139431148767e-05 8.445121056865900755e-05 1.012915963656269014e-04 -7.821071631042286754e-05 3.315256908535957336e-03 -1.604934514034539461e-04 7.448535412549972534e-02 9.187618707073852420e-05 -5.866916477680206299e-02 2.528129816055297852e-01 1.031196117401123047e-02 -5.978097760817036033e-05 1.133713945746421814e-01 -6.863899034215137362e-05 3.297529648989439011e-03 -1.096638079616241157e-04 -1.363708288408815861e-04 -8.450509048998355865e-03 2.179400622844696045e-02 -2.995524482685141265e-05 -6.866401236038655043e-05 6.181780918268486857e-05 -7.712403021287173033e-05 -2.918826937675476074e-01 3.275051116943359375e-01 7.585345156257972121e-05 -9.737978689372539520e-05 -5.127094482304528356e-05 7.213591743493452668e-05 9.423059225082397461e-02 2.585821675893384963e-05 -9.516003046883270144e-05 -1.242106009158305824e-06 6.725926505168899894e-05 6.758731615263968706e-05
3.239760547876358032e-02 -1.637337356805801392e-02 7.735338062047958374e-02 -2.045253495452925563e-05 5.392405204474925995e-03 -4.985319823026657104e-02 -6.620746850967407227e-02 -2.586729824542999268e-02 2.781735174357891083e-02 8.669751696288585663e-03 1.304496824741363525e-01 -1.593466549820732325e-05 1.522247344255447388e-01 -9.555893484503030777e-06 -2.934822532552061602e-06 8.876989036798477173e-02 4.893729928880929947e-03 -1.541255116462707520e-01 -8.950892090797424316e-02 1.824433654546737671e-01 1.276124119758605957e-01 -2.892494201660156250e-02 2.164719998836517334e-02 -1.020648553967475891e-01 -6.367450207471847534e-02 3.661398291587829590e-01 1.514474861323833466e-02 -4.587879031896591187e-02 -2.462255906721111387e-05 -4.608074575662612915e-02 -1.202322800963884220e-05 -1.949537359178066254e-02 5.017408511776011437e-06 -7.993596227606758475e-06 -1.166836321353912354e-01 -8.249939233064651489e-02 2.980590611696243286e-02 6.613954901695251465e-02 -8.956495672464370728e-02 6.069020181894302368e-02 -8.093262463808059692e-02 1.102400165109429508e-05 -5.456831786432303488e-07 -1.481126397848129272e-01 -1.651012462389189750e-05 -1.091195568442344666e-01 -1.111970959755126387e-06 -4.736172966659069061e-03 -3.817268589045852423e-05 -1.442442834377288818e-01 -1.213963969348696992e-05 -1.887126117944717407e-01 -1.038156915456056595e-05 8.010102808475494385e-02 7.013001292943954468e-02 -6.820386648178100586e-02 -2.909444272518157959e-01 5.195769062993349507e-06 -5.493305623531341553e-03 1.026562526822090149e-01
2.140134529327042401e-05 -9.247462451457977295e-02 -5.521797761321067810e-02 2.246801523142494261e-05 -2.548658251762390137e-01 3.974617719650268555e-01 -3.468634188175201416e-01 1.344449352473020554e-03 -9.382022835779935122e-05 -1.944240778684616089e-01 1.878541521728038788e-02 1.207801625132560730e-01 1.743174642324447632e-01 3.404115886951331049e-06 5.630234227282926440e-06 -1.370512545108795166e-01 -2.877909839153289795e-01 -7.075107097625732422e-02 1.966316066682338715e-02 7.460568845272064209e-02 -3.223271369934082031e-01 -4.610934481024742126e-02 -1.050268933176994324e-01 6.608226299285888672e-01 -8.308548480272293091e-02 6.342808157205581665e-02 -1.319790780544281006e-01 -3.975807502865791321e-02 7.165375351905822754e-02 -3.298280015587806702e-02 5.097460001707077026e-02 -1.693573743104934692e-01 -1.522160528111271560e-05 7.147601246833801270e-02 -5.072676762938499451e-02 -2.154111117124557495e-01 -1.972425915300846100e-02 -1.126008387655019760e-02 -1.865896284580230713e-01 -5.723448470234870911e-02 1.634888758417218924e-05 -1.085872054100036621e-01 8.509659022092819214e-02 2.209441299783065915e-04 7.408265769481658936e-02 2.081806771457195282e-02 -2.744788825511932373e-01 -2.209729850292205811e-01 4.371961057186126709e-01 -1.296328306198120117e-01 -9.121253341436386108e-02 4.878805950284004211e-02 1.483643245592247695e-05 -1.047312021255493164e-01 -3.097959980368614197e-02 3.246862888336181641e-01 -2.148627117276191711e-02 4.687449290941003710e-06 2.738987095654010773e-02 4.928459879010915756e-03
5.304116383194923401e-02 -3.668498396873474121e-01 2.853718586266040802e-02 -1.691781653789803386e-05 1.561092678457498550e-02 -6.754246354103088379e-02 5.739501677453517914e-03 -2.898779930546879768e-03 9.809657058212906122e-06 7.603453006595373154e-03 4.747066795825958252e-01 1.084763631224632263e-01 2.566513605415821075e-02 -1.212809638673206791e-05 -7.118846951925661415e-06 1.240563020110130310e-01 8.645253255963325500e-03 -8.491092557960655540e-06 2.075504744425415993e-05 3.255451023578643799e-01 2.568271756172180176e-01 -9.999044984579086304e-02 2.261532063130289316e-05 2.666496299207210541e-02 -2.121228128671646118e-01 1.738422811031341553e-01 1.629056991077959538e-03 -1.314061810262501240e-03 -1.822548983909655362e-05 1.751180752762593329e-05 -2.511595375835895538e-02 -3.001959621906280518e-02 6.974173629714641720e-07 -1.211505968967685476e-05 -1.581066846847534180e-01 3.221261501312255859e-02 1.638443954288959503e-02 -4.448019340634346008e-02 -1.465747952461242676e-01 -3.477595600998029113e-05 1.104142703115940094e-02 2.009125091717578471e-05 -1.413968311680946499e-05 -1.486135125160217285e-01 -1.990155033126939088e-05 -8.759164810180664062e-02 -1.186711015179753304e-04 -2.071919292211532593e-02 2.185506969690322876e-01 -2.159220576286315918e-01 -1.862956909462809563e-03 -2.579534053802490234e-01 4.870241900789551437e-05 -5.246297405392397195e-07 -1.996906846761703491e-02 -5.124002564116381109e-05 -2.050140053033828735e-01 6.661444786004722118e-06 -7.383907586336135864e-02 1.475020647048950195e-01
-2.765507996082305908e-01 -4.236349463462829590e-01 7.770939171314239502e-02 1.568483821756672114e-05 -1.454137116670608521e-01 1.056658551096916199e-01 3.883220627903938293e-02 3.516954928636550903e-02 9.955305606126785278e-02 -8.198691904544830322e-02 -1.928511559963226318e-01 -8.308105170726776123e-03 -9.062293171882629395e-02 6.590416887775063515e-06 9.108378435485064983e-06 -1.003374084830284119e-01 -2.289327234029769897e-01 1.314635127782821655e-01 -3.158178925514221191e-02 -1.792437732219696045e-01 -9.147257357835769653e-02 -1.204515174031257629e-01 -3.024922683835029602e-02 1.407791376113891602e-01 2.535654008388519287e-01 -1.720048934221267700e-01 -2.380200289189815521e-02 3.230032324790954590e-02 -5.541611462831497192e-02 -1.033807166095357388e-05 2.463516891002655029e-01 -6.067833863198757172e-03 -1.207879465073347092e-02 -2.342469692230224609e-01 -6.837895512580871582e-02 -4.807459563016891479e-02 -1.160455718636512756e-01 8.209146559238433838e-02 2.328626513481140137e-01 9.425000101327896118e-02 -2.269873023033142090e-01 -1.811066642403602600e-02 1.389863640069961548e-01 8.649520576000213623e-02 1.182084452011622488e-05 -4.105482716113328934e-03 2.507526874542236328e-01 1.496142745018005371e-01 -8.892809040844440460e-03 -2.154571848222985864e-05 2.006900608539581299e-01 2.510757744312286377e-01 -9.288059920072555542e-02 -1.168373972177505493e-01 -1.539757195860147476e-02 1.276036538183689117e-02 2.754690647125244141e-01 -1.279098796658217907e-06 -6.942123174667358398e-02 -4.293509200215339661e-02
2.819566987454891205e-02 5.724629163742065430e-01 -4.896572604775428772e-02 -1.521483136457391083e-05 4.570957645773887634e-02 -8.953904762165620923e-05 3.472583368420600891e-02 -5.497987195849418640e-02 3.879281575791537762e-05 1.262945123016834259e-02 -4.685239400714635849e-03 -1.229338198900222778e-01 4.700961988419294357e-03 -7.833076779206749052e-06 -2.159808900614734739e-06 -1.653559133410453796e-02 8.446996659040451050e-02 -2.915983647108078003e-02 -7.622327393619343638e-05 -4.352673515677452087e-02 -3.971029445528984070e-02 1.235972344875335693e-01 1.732051896397024393e-05 -3.842335939407348633e-02 -2.390807867050170898e-01 -3.672520816326141357e-02 -2.855688333511352539e-02 -3.129775635898113251e-03 -2.402239442744757980e-05 5.933166015893220901e-03 -5.616578459739685059e-02 1.217673867940902710e-01 4.086707122041843832e-05 -2.785174176096916199e-02 3.017307519912719727e-01 6.640423089265823364e-02 7.736503332853317261e-02 1.138890162110328674e-02 -5.027863880968652666e-05 -2.239508787170052528e-03 9.977642446756362915e-02 -3.003418896696530282e-05 -1.597479172050952911e-02 -5.769608833361417055e-05 -1.254460494237719104e-05 1.242748741060495377e-02 -3.157711029052734375e-02 -7.589489221572875977e-02 -2.349106073379516602e-01 4.066953957080841064e-01 -2.030759491026401520e-02 -8.121659606695175171e-02 6.024722382426261902e-02 5.127046460984274745e-05 1.150840818881988525e-01 -4.219397902488708496e-02 -6.981316208839416504e-02 -5.892653462069574744e-06 3.883279627189040184e-03 4.053293014294467866e-05
6.204141303896903992e-02 -4.923801124095916748e-01 1.445733197033405304e-02 -9.896939445752650499e-08 8.810687065124511719e-02 -6.448160274885594845e-05 2.675517498573753983e-05 -8.305329084396362305e-02 -1.140907716035144404e-05 5.118953049532137811e-05 2.927095293998718262e-01 2.261363863945007324e-01 4.266610631020739675e-05 -9.023106031236238778e-06 -6.637528713326901197e-06 1.932288408279418945e-01 4.220355913275852799e-05 -3.000941500067710876e-02 -1.113057211041450500e-01 2.083849310874938965e-01 1.237930431962013245e-01 -3.158283606171607971e-02 -5.160808086657198146e-06 7.431036978960037231e-02 -1.805248757591471076e-05 2.521516084671020508e-01 7.381584495306015015e-02 -4.476556568988598883e-05 1.049513139150803909e-05 2.176474779844284058e-02 -1.020992640405893326e-02 4.203000292181968689e-02 1.128447055816650391e-02 -8.905322465579956770e-05 -1.244031414389610291e-01 2.113731391727924347e-02 -1.334979236125946045e-01 1.217755377292633057e-01 -1.164672002196311951e-01 -2.671249603736214340e-05 4.217423338559456170e-05 1.421426895831245929e-05 -8.509100973606109619e-02 -9.654434770345687866e-02 -7.085663128236774355e-06 5.614224210148677230e-05 -2.628182526677846909e-03 -4.948858171701431274e-02 4.216748476028442383e-01 -2.083789706230163574e-01 -6.902618042659014463e-05 -8.007150143384933472e-02 3.679251298308372498e-02 1.667813211679458618e-01 9.656108915805816650e-03 3.418999910354614258e-02 -1.920002549886703491e-01 4.925578650727402419e-06 5.427093128673732281e-05 1.618755012750625610e-01
-3.559937795216683298e-06 -3.253810107707977295e-01 2.436033450067043304e-02 -4.729192005470395088e-05 1.064726337790489197e-01 -7.082748413085937500e-02 4.954786039888858795e-03 -7.128433883190155029e-02 2.207244187593460083e-02 4.668073233915492892e-05 2.228523492813110352e-01 -7.661021663807332516e-04 -1.105274930596351624e-01 -1.108741344069130719e-06 -1.792171860870439559e-05 1.718952357769012451e-01 -2.915739969466812909e-05 -2.960805613838601857e-05 -2.554304711520671844e-02 3.040677011013031006e-01 3.136117756366729736e-01 4.278370761312544346e-05 7.645405828952789307e-02 -1.167994290590286255e-01 1.978098303079605103e-01 1.987135410308837891e-01 1.485497355461120605e-01 2.155701622541528195e-05 -5.360363423824310303e-02 1.210277676582336426e-01 -5.297949974192306399e-05 8.057851344347000122e-02 3.875857873936183751e-05 -9.725838899612426758e-02 1.817478425800800323e-02 7.064369320869445801e-02 -8.946928381919860840e-02 3.019894957542419434e-01 1.337926914857234806e-05 1.709623187780380249e-01 -3.604838624596595764e-03 -2.963661216199398041e-02 -6.035393476486206055e-02 -9.110759943723678589e-02 -1.682188548147678375e-02 8.510819498042110354e-06 3.235966712236404419e-02 -2.643332845764234662e-05 -1.982475623663049191e-07 9.650424122810363770e-03 1.571768149733543396e-02 2.208557538688182831e-02 1.797365257516503334e-05 5.887414515018463135e-02 5.417351797223091125e-02 -9.236765652894973755e-02 -6.863452494144439697e-02 1.352768867945997044e-05 1.424934816895984113e-05 1.668717898428440094e-02
1.967648565769195557e-01 1.701677292585372925e-01 -1.733413934707641602e-01 5.293057984090410173e-05 -1.081549301743507385e-01 1.704842448234558105e-01 -1.238606795668601990e-01 8.802314102649688721e-02 -3.728133440017700195e-02 -4.347345605492591858e-02 -5.093830637633800507e-03 3.758517801761627197e-01 4.305998235940933228e-02 1.555401286168489605e-05 1.696060280664823949e-05 -7.309094816446304321e-02 1.222308576107025146e-01 1.572893961565569043e-05 1.445329189300537109e-02 -3.193257376551628113e-03 -7.042945921421051025e-02 -1.612708531320095062e-02 -5.804127827286720276e-02 4.377416372299194336e-01 -1.367771327495574951e-01 -7.902134954929351807e-02 -1.193575263023376465e-01 -2.973232232034206390e-02 9.937237203121185303e-02 -2.370334416627883911e-01 2.885732101276516914e-06 -1.300195455551147461e-01 -9.428382851183414459e-03 2.343900650739669800e-01 -1.580853909254074097e-01 -2.136728167533874512e-01 1.554098874330520630e-01 -3.980161845684051514e-01 -5.975568294525146484e-02 -3.245966434478759766e-01 2.379419058561325073e-01 5.712622776627540588e-02 1.890982501208782196e-02 1.932302984641864896e-05 1.391107887029647827e-01 2.920448423537891358e-05 -1.317847818136215210e-01 4.750204086303710938e-02 3.277555108070373535e-01 -1.366672962903976440e-01 -3.741908669471740723e-01 -2.722175791859626770e-02 4.621750488877296448e-02 -8.203707635402679443e-03 -1.279420256614685059e-01 2.284692227840423584e-01 -5.579623579978942871e-02 -1.536251147626899183e-05 -9.888314707495737821e-06 -3.768231021240353584e-03
1.622573137283325195e-01 -7.885460555553436279e-02 6.757415831089019775e-02 -1.520066428929567337e-02 2.583215832710266113e-01 1.667846553027629852e-02 1.390293985605239868e-01 5.136553570628166199e-02 1.845752894878387451e-01 9.851881116628646851e-02 1.675436943769454956e-01 3.057738998904824257e-03 1.675336062908172607e-02 1.222309037984814495e-06 -8.069588147918693721e-06 2.648476697504520416e-02 3.583992645144462585e-02 -1.670065224170684814e-01 -4.902591183781623840e-02 1.410576850175857544e-01 1.341630816459655762e-01 -1.526593118906021118e-01 -1.490765362977981567e-01 -7.898443192243576050e-02 -2.162131667137145996e-01 3.223526477813720703e-01 7.954552769660949707e-02 -1.071333214640617371e-01 7.353901118040084839e-02 -1.593421027064323425e-02 -7.745295763015747070e-02 -1.286460310220718384e-01 1.485116630792617798e-01 -1.718955487012863159e-02 -1.879838854074478149e-01 2.518493533134460449e-01 -1.772346645593643188e-01 -4.563754796981811523e-02 -1.218881383538246155e-01 -1.013440117239952087e-01 -7.273504883050918579e-02 2.223856514319777489e-03 -1.573650687932968140e-01 -2.454432845115661621e-02 -1.314048313361126930e-05 1.476304512470960617e-02 -2.489780187606811523e-01 -1.431985944509506226e-01 -2.277904003858566284e-02 -2.070379555225372314e-01 -5.681291222572326660e-02 -3.862363053485751152e-03 8.394744992256164551e-02 1.831823289394378662e-01 -7.649380713701248169e-02 -7.066277414560317993e-02 -3.615299165248870850e-01 3.341236606502206996e-06 9.977906942367553711e-03 -1.384390145540237427e-01
-6.350105104502290487e-05 3.192270994186401367e-01 5.099721602164208889e-05 -4.929732676828280091e-05 2.348711155354976654e-02 -2.932923100888729095e-02 9.930323809385299683e-02 -7.365062832832336426e-02 6.248024106025695801e-02 -3.259169534430839121e-05 -2.027598929998930544e-05 -2.466198354959487915e-01 -9.417585097253322601e-03 -7.957873094710521400e-06 -4.606322818290209398e-06 2.473720582202076912e-03 -8.586493640905246139e-05 -8.401471190154552460e-03 -3.811613842844963074e-02 8.203970640897750854e-02 6.039237603545188904e-02 1.187232732772827148e-01 1.058144494891166687e-01 -1.662100851535797119e-01 -4.539668560028076172e-02 3.112546727061271667e-02 9.277169738197699189e-05 6.405577005352824926e-05 -3.822160884737968445e-02 5.055050551891326904e-02 -1.300601195544004440e-02 1.842130869626998901e-01 6.662717350991442800e-05 -1.579193323850631714e-01 3.021744489669799805e-01 -2.251903606520500034e-05 -3.797000681515783072e-05 2.249324768781661987e-01 -4.896681639365851879e-05 9.736858308315277100e-02 -8.515617251396179199e-02 -3.021127171814441681e-02 -1.789327897131443024e-02 -1.126390634453855455e-04 -4.025696963071823120e-02 -3.960823232773691416e-05 5.902003613300621510e-05 -6.356476660585030913e-05 -5.321265459060668945e-01 4.788290858268737793e-01 1.818433254957199097e-01 -2.458253316581249237e-02 -4.254740633768960834e-05 4.160435855737887323e-05 1.567112803459167480e-01 -1.921832561492919922e-01 -6.963269319385290146e-03 -3.415489118197001517e-07 1.089712232351303101e-02 -3.336366266012191772e-02
2.631919414852745831e-05 -2.826221287250518799e-01 6.667877733707427979e-02 -2.318093902431428432e-05 1.618838869035243988e-02 -2.884816564619541168e-02 1.594380475580692291e-02 -5.779728962806984782e-05 1.838203024817630649e-05 3.045292338356375694e-03 4.963293075561523438e-01 9.409480541944503784e-02 8.767573744989931583e-04 -7.283820195880252868e-07 9.614850569050759077e-07 2.732014954090118408e-01 6.250310980249196291e-05 -2.256513425891171210e-06 -1.079909428954124451e-01 4.795154631137847900e-01 4.256620407104492188e-01 -1.521499305963516235e-01 4.571240395307540894e-03 -1.367638073861598969e-02 -7.399126142263412476e-02 2.857199311256408691e-01 1.405889391899108887e-01 -1.778765908966306597e-05 -2.700571167224552482e-05 2.477131420164369047e-05 -7.137271761894226074e-02 -3.742508962750434875e-02 7.162027060985565186e-02 -2.256569132441654801e-05 -2.315353304147720337e-01 2.478978224098682404e-02 -1.011481881141662598e-01 3.861340228468179703e-03 -1.071799248456954956e-01 8.309931217809207737e-06 -7.832269370555877686e-02 -6.903132089064456522e-06 -6.855364423245191574e-03 -2.770654559135437012e-01 -2.547974145272746682e-05 -1.878198003396391869e-03 -1.745359972119331360e-02 -1.237032413482666016e-01 9.403420239686965942e-02 -3.578162193298339844e-01 1.160344034433364868e-01 -3.251086175441741943e-01 -1.690221950411796570e-02 1.567558795213699341e-01 -1.811396628618240356e-01 -6.301374523900449276e-04 -2.526388168334960938e-01 -5.166459686734015122e-07 -7.797109335660934448e-02 2.376972436904907227e-01
-2.948762103915214539e-02 4.673252254724502563e-02 -1.017198488116264343e-01 2.448318446113262326e-05 -2.593426592648029327e-02 3.974033519625663757e-03 -6.094544380903244019e-02 1.497250199317932129e-01 -4.711652174592018127e-02 -8.844275027513504028e-03 -1.754232645034790039e-01 2.384305662417318672e-05 -6.989049325056839734e-06 3.087754521402530372e-05 -7.071192158036865294e-06 -2.409890657872892916e-05 -7.828349225746933371e-06 2.959550329251214862e-05 4.187281228951178491e-05 -2.861863970756530762e-01 -1.875226497650146484e-01 -3.412798378121806309e-06 -4.261286929249763489e-03 1.542687416076660156e-03 -1.484108906879555434e-05 -1.405937820672988892e-01 -5.583011443377472460e-06 9.676107765699271113e-06 5.932442471385002136e-02 -2.014489145949482918e-03 8.902013360057026148e-05 -2.390690520405769348e-02 -2.171524829464033246e-05 5.110238119959831238e-02 -6.208685226738452911e-05 -1.647552853683009744e-04 -1.663350313901901245e-02 -1.413001567125320435e-01 1.364469062536954880e-02 -1.568649531691335142e-05 -7.899448974058032036e-06 2.122760997735895216e-05 1.993264816701412201e-02 1.876652091741561890e-01 2.753619992290623486e-05 -2.528337790863588452e-05 2.348426096432376653e-05 2.755197238002438098e-05 1.804194835131056607e-05 -5.047185346484184265e-02 -1.717801392078399658e-02 6.249449402093887329e-02 -3.610779822338372469e-05 -7.059519737958908081e-02 -1.889417879283428192e-03 6.625189632177352905e-02 1.114596575498580933e-01 -9.143441275227814913e-06 7.900767741375602782e-06 -2.431653626263141632e-02
7.511807978153228760e-02 2.208821028470993042e-01 1.644233427941799164e-02 1.029898703563958406e-05 -3.114913403987884521e-02 3.365336358547210693e-02 1.300300122238695621e-03 1.011756584048271179e-01 -1.287544369697570801e-01 -1.906560733914375305e-02 -3.249585628509521484e-01 5.973749794065952301e-03 1.108488504542037845e-05 -1.923759100463939831e-06 -7.235800694616045803e-06 -1.961393952369689941e-01 8.650919880892615765e-06 7.408220881188753992e-06 7.787207607179880142e-03 -2.496585100889205933e-01 -1.424951851367950439e-01 7.888285836088471115e-06 -2.533263899385929108e-02 4.745098340208642185e-05 -8.371919975616037846e-04 -1.054827347397804260e-01 -2.106378972530364990e-01 6.684786058031022549e-10 1.602313295006752014e-02 -2.008261345326900482e-02 6.443271040916442871e-02 -8.364452421665191650e-02 -3.086026012897491455e-02 2.558735609054565430e-01 -5.918337046750821173e-05 -6.875519175082445145e-03 1.060116216540336609e-01 -7.342351973056793213e-02 1.115285795094678178e-05 -1.091729570180177689e-02 5.795408040285110474e-02 7.294889539480209351e-02 3.260787576436996460e-02 5.027883499860763550e-02 1.393269598484039307e-01 -1.046435227181063965e-05 -3.823755681514739990e-02 1.031104400753974915e-01 9.372231364250183105e-02 -3.660033326013945043e-05 -9.931086003780364990e-02 1.053010672330856323e-01 -1.815526775317266583e-05 -5.966020375490188599e-02 -5.878911539912223816e-02 1.654291898012161255e-02 1.449824422597885132e-01 1.558595431561116129e-05 8.808847269392572343e-06 -3.827138617634773254e-02
-2.017781883478164673e-02 -3.044752180576324463e-01 2.455018311738967896e-01 -4.410913606989197433e-05 1.095385178923606873e-01 -6.983346492052078247e-02 4.476694448385387659e-05 -5.201845988631248474e-02 4.295408725738525391e-02 1.033709668263327330e-05 9.198418259620666504e-02 -1.657574027776718140e-01 -4.528685659170150757e-02 -4.816115051653468981e-06 -2.509838850528467447e-05 1.814391613006591797e-01 -1.327452361583709717e-01 -1.443103701603831723e-05 -1.340856552124023438e-01 2.446894794702529907e-01 1.952920854091644287e-01 3.688587094075046480e-05 3.926480188965797424e-02 -2.161433994770050049e-01 2.063486725091934204e-01 1.933909505605697632e-01 2.721284925937652588e-01 4.133669062866829336e-05 -6.785728782415390015e-02 8.483880013227462769e-02 -9.777669220056850463e-06 8.468201011419296265e-02 6.450179964303970337e-03 -2.366002053022384644e-01 4.254014417529106140e-02 8.482333272695541382e-02 -2.665212191641330719e-02 2.360837757587432861e-01 1.347376746707595885e-05 2.308217287063598633e-01 -4.250244423747062683e-02 -6.809160113334655762e-02 -1.948245912790298462e-01 -2.690934948623180389e-02 -1.140546500682830811e-01 -1.114689621317666024e-05 1.230896115303039551e-01 -1.537411844765301794e-05 -1.702237129211425781e-01 4.620921984314918518e-02 2.501183152198791504e-01 1.915399543941020966e-02 -1.912402512971311808e-05 3.882306814193725586e-02 1.745815426111221313e-01 -1.920716464519500732e-01 3.444227576255798340e-02 1.077269371307920665e-05 8.173795322363730520e-06 5.342671275138854980e-02
5.486929148901253939e-05 -3.022716641426086426e-01 -2.238463457615580410e-05 -4.774505669047357515e-06 1.097489002859219909e-04 -1.004192527034319937e-04 7.471697608707472682e-05 -1.020303607219830155e-04 -5.425695235317107290e-06 8.406001143157482147e-05 1.717492640018463135e-01 -1.966737181646749377e-05 2.847687937901355326e-05 2.530488927732221782e-06 -6.110970389272551984e-06 3.046693652868270874e-02 4.205472941976040602e-05 -8.045424692681990564e-06 -2.951529495476279408e-06 2.324686646461486816e-01 1.082683578133583069e-01 3.081690920225810260e-06 3.306005601189099252e-05 -9.260424121748656034e-05 3.059137240052223206e-02 1.349387019872665405e-01 -9.638753908802755177e-06 -4.061557046952657402e-05 -1.846185841714031994e-05 5.245506690698675811e-05 -4.243117291480302811e-05 2.979872806463390589e-04 -2.174211476813070476e-05 -5.209484879742376506e-05 7.013695721980184317e-06 9.833470539888367057e-05 6.222533556865528226e-05 6.610560696572065353e-03 6.462863530032336712e-05 -8.457693184027448297e-06 3.161790300509892404e-05 5.175023943593259901e-06 -1.886350946733728051e-05 5.616260023089125752e-05 -5.350888022803701460e-05 6.904479960212484002e-05 -3.870476211886852980e-05 -6.194157322170212865e-06 8.864791691303253174e-02 -6.593029480427503586e-03 -2.019950261455960572e-05 7.751479279249906540e-05 6.760343967471271753e-05 5.586032755672931671e-03 7.574415940325707197e-05 -8.533750224160030484e-05 1.136529754148796201e-04 1.382282061967998743e-05 -8.260433787654619664e-06 2.058809436857700348e-02
1.050845276040490717e-05 -2.116609066724777222e-01 2.171396277844905853e-02 -1.521226840850431472e-05 6.678343197563663125e-05 -4.583884030580520630e-02 -1.513084620237350464e-01 -2.858983498299494386e-05 1.106584477383876219e-05 1.592602697201073170e-03 3.466450572013854980e-01 4.915901459753513336e-03 -9.521342813968658447e-02 -3.889181243721395731e-06 -1.048973899742122740e-05 1.813687831163406372e-01 -1.096290126442909241e-01 2.357853554713074118e-05 -1.331563591957092285e-01 3.369414210319519043e-01 2.539090812206268311e-01 -1.503847986459732056e-01 5.349946208298206329e-03 -1.350203249603509903e-02 -6.697254627943038940e-02 2.741173207759857178e-01 1.170881465077400208e-02 -1.670207348070107400e-05 -2.081748607452027500e-05 1.228888504556380212e-05 -1.285114467464154586e-05 -4.279357381165027618e-03 1.911122308229096234e-05 -8.361688742297701538e-06 -2.880901992321014404e-01 -5.005681887269020081e-02 -9.007827937602996826e-02 -1.138003394007682800e-01 -2.178280204534530640e-01 -2.930260052380617708e-06 -4.154236614704132080e-02 -2.051752991974353790e-02 -1.912371953949332237e-03 -2.469935864210128784e-01 -1.884885205072350800e-05 -1.208577901124954224e-01 -6.773446784791303799e-06 -2.487889491021633148e-02 1.969981491565704346e-01 -2.388272136449813843e-01 2.992397919297218323e-02 -2.852636575698852539e-01 1.270992743229726329e-05 3.623634204268455505e-02 -8.454886078834533691e-02 -9.837409743340685964e-05 -3.007947504520416260e-01 -5.114031409902963787e-06 -5.492191761732101440e-02 1.760737150907516479e-01
-2.613006159663200378e-02 -2.800576984882354736e-01 3.459521383047103882e-02 4.113429531571455300e-05 -4.396056383848190308e-02 1.794851273298263550e-01 -1.037422642111778259e-01 3.678322583436965942e-02 -3.053734265267848969e-02 -3.035930357873439789e-02 -1.890558898448944092e-01 1.029562056064605713e-01 -1.130041107535362244e-01 9.496281563770025969e-06 -8.705379514140076935e-06 -3.693829476833343506e-02 -1.848130822181701660e-01 1.245494112372398376e-01 -1.018914952874183655e-01 -5.132456421852111816e-01 -3.570542335510253906e-01 -2.004648372530937195e-02 -4.021685104817152023e-03 2.249403446912765503e-01 1.769140213727951050e-01 -3.260546624660491943e-01 6.350602954626083374e-02 3.144120424985885620e-02 2.891464464482851326e-05 -2.375700387347023934e-05 2.472335658967494965e-02 -1.625827997922897339e-01 -1.541795245429966599e-05 2.191303297877311707e-03 -2.167991995811462402e-01 -1.459406167268753052e-01 -2.297201901674270630e-01 -1.851893216371536255e-02 6.982526928186416626e-02 -2.134132198989391327e-03 -7.989786565303802490e-02 1.659520342946052551e-02 3.328858315944671631e-02 2.129971086978912354e-01 1.590361716807819903e-05 -5.776720494031906128e-02 3.325634077191352844e-02 1.792177930474281311e-02 1.357673555612564087e-01 -1.309086084365844727e-01 1.043935790657997131e-01 3.882459104061126709e-01 -2.673389203846454620e-02 -1.422523558139801025e-01 -3.086979687213897705e-02 1.707750707864761353e-01 2.005326449871063232e-01 2.632151108628022484e-06 -3.189473599195480347e-02 -8.036077767610549927e-02
-4.089215872227214277e-05 3.795396387577056885e-01 2.891077383537776768e-05 1.680635250522755086e-05 -3.861631965264678001e-03 4.064799472689628601e-02 -2.653036033734679222e-03 7.460371125489473343e-05 -1.034198612615000457e-05 -9.910764638334512711e-04 -3.995822966098785400e-01 -7.915003597736358643e-02 -4.777703434228897095e-03 6.164777005324140191e-06 2.860207678168080747e-05 -1.701902896165847778e-01 -1.818944874685257673e-04 -1.502030590927461162e-05 -7.562256996607175097e-06 -4.570769667625427246e-01 -2.002703696489334106e-01 9.924788773059844971e-02 -2.663460327312350273e-05 2.587142633274197578e-03 -8.819124661386013031e-03 -3.255554437637329102e-01 4.288045147404773161e-06 3.045550147362519056e-05 2.157563721993938088e-05 -1.978548243641853333e-05 2.182299067499116063e-05 -7.141690730350092053e-05 6.511432957267970778e-07 1.853261710493825376e-05 1.774670183658599854e-01 -1.736973039805889130e-02 -1.363976113498210907e-02 -8.152193389832973480e-03 6.537573784589767456e-02 4.580613676807843149e-06 -4.957410041242837906e-03 -3.354749651407473721e-06 7.271547929121879861e-06 1.850901395082473755e-01 2.625620982144027948e-05 -6.916132988408207893e-04 2.604236397019121796e-05 2.714024391025304794e-03 -1.794215887784957886e-01 2.834231555461883545e-01 3.096229920629411936e-05 2.157779932022094727e-01 -3.924411430489271879e-05 -1.201000213623046875e-01 1.582901738584041595e-02 1.930851838551461697e-03 1.477067023515701294e-01 2.679319004528224468e-05 2.886910177767276764e-02 -1.488738358020782471e-01
-4.561969637870788574e-02 -1.928442269563674927e-01 1.653384119272232056e-01 -8.031961624510586262e-05 3.523885458707809448e-02 -1.591501859365962446e-05 1.493587387813022360e-05 -5.439155269414186478e-03 1.060070097446441650e-01 -7.788827360855066217e-07 1.598947495222091675e-02 -1.861298680305480957e-01 -1.134971827268600464e-01 -3.814459887507837266e-06 6.877898158563766629e-06 1.225921735167503357e-01 -6.655734777450561523e-02 -1.538894139230251312e-05 -1.522548794746398926e-01 1.631386727094650269e-01 2.319665700197219849e-01 6.375098018907010555e-05 3.449948132038116455e-02 -1.769091188907623291e-01 2.775537967681884766e-01 1.211632043123245239e-01 1.748815923929214478e-01 3.246352076530456543e-02 -7.864566147327423096e-02 1.348830908536911011e-01 2.484627430021646433e-06 7.480960339307785034e-02 8.310780685860663652e-05 -1.661608517169952393e-01 9.653766453266143799e-02 2.240891382098197937e-02 -6.619383394718170166e-02 2.625124752521514893e-01 1.184977190860081464e-05 1.988321542739868164e-01 -7.247412949800491333e-02 -1.010578498244285583e-01 -1.005397811532020569e-01 -2.880038437069742940e-06 -1.966507732868194580e-02 -3.642053707153536379e-05 5.591643601655960083e-02 -1.661350324866361916e-05 -2.158601880073547363e-01 1.835030913352966309e-01 2.314654588699340820e-01 7.694968581199645996e-02 -6.966852379264310002e-05 1.325868349522352219e-02 1.222625300288200378e-01 -4.167176410555839539e-02 1.501326560974121094e-01 1.483067535446025431e-07 1.018647708406206220e-05 3.047809191048145294e-02
-1.500403732061386108e-01 -3.497482240200042725e-01 9.514726698398590088e-02 -3.243567334720864892e-05 2.042337693274021149e-02 -3.963647410273551941e-02 6.281255991780199111e-06 -3.150421008467674255e-02 6.347116082906723022e-02 -4.544610419543460011e-06 -1.624832004308700562e-01 -2.979306876659393311e-01 -1.805442273616790771e-01 -4.246098797011654824e-07 -1.052231891662813723e-05 1.911192536354064941e-01 -1.709204167127609253e-01 -1.155169411504175514e-05 1.097921747714281082e-02 8.409657329320907593e-02 9.494653902947902679e-03 3.923297300934791565e-02 9.552873671054840088e-02 -4.899711608886718750e-01 4.017506539821624756e-01 1.455433964729309082e-01 2.012294977903366089e-01 1.516489405184984207e-02 -1.327157616615295410e-01 2.486595809459686279e-01 5.183063876756932586e-06 1.663384586572647095e-01 2.540536597371101379e-02 -2.239993065595626831e-01 1.272632330656051636e-01 2.711251676082611084e-01 -1.370171010494232178e-01 1.984454989433288574e-01 8.850893937051296234e-04 1.023758873343467712e-01 -3.529090881347656250e-01 -1.296196579933166504e-01 -5.425629392266273499e-02 1.375168114900588989e-01 -1.292073130607604980e-01 -2.330379356862977147e-05 1.810758113861083984e-01 -6.174494046717882156e-06 -3.018014729022979736e-01 3.851702809333801270e-02 2.775165438652038574e-01 2.480208724737167358e-01 -5.336702088243328035e-05 -1.149774789810180664e-01 8.014774322509765625e-02 -2.513876557350158691e-01 4.492140933871269226e-02 1.111535038944566622e-05 -4.601973295211791992e-02 -9.259237349033355713e-02
2.010718546807765961e-02 -3.354393541812896729e-01 1.540953386574983597e-02 1.975262057385407388e-05 3.288607786089414731e-06 2.443347126245498657e-02 -5.402598530054092407e-02 -1.217031572014093399e-02 -2.915905861300416291e-05 1.557674841023981571e-05 1.513143330812454224e-01 3.452524244785308838e-01 7.154875248670578003e-02 7.161907888075802475e-06 3.385144736967049539e-06 -2.406709427305031568e-05 -4.116123076528310776e-03 -9.579359740018844604e-02 -6.159063056111335754e-02 6.549841910600662231e-02 1.186582595109939575e-01 -8.365683257579803467e-02 -8.193694055080413818e-03 4.902828335762023926e-01 -2.012077122926712036e-01 1.094961911439895630e-01 3.114310558885335922e-03 -2.825933881103992462e-02 8.750956621952354908e-04 -6.506985519081354141e-03 -1.795099861919879913e-02 -1.048760563135147095e-01 -2.191769999626558274e-05 3.754635527729988098e-02 -1.558924466371536255e-01 -2.304757712408900261e-03 -1.712281107902526855e-01 -2.490648254752159119e-02 -1.989361643791198730e-01 4.637976642698049545e-03 3.257491625845432281e-04 3.104642019025050104e-05 2.207333818660117686e-05 -2.301321923732757568e-01 1.007772833108901978e-01 -7.329426705837249756e-02 -4.157268255949020386e-02 -1.236104294657707214e-01 5.715820193290710449e-01 -2.941767275333404541e-01 -1.410055207088589668e-03 -1.680279076099395752e-01 1.242003520019352436e-03 1.623741388320922852e-01 -7.923784106969833374e-02 3.467344045639038086e-01 -3.940542936325073242e-01 1.761050953064113855e-05 -2.477674745023250580e-02 1.557690054178237915e-01
2.537700765969930217e-06 2.976402342319488525e-01 -1.021128900902112946e-05 1.154887468146625906e-05 -4.078395292162895203e-02 1.015365705825388432e-05 -9.040338918566703796e-03 1.863188743591308594e-01 -8.409805595874786377e-03 -8.230435923906043172e-06 -2.313837558031082153e-01 1.513424962759017944e-01 1.297374516725540161e-01 1.155953668785514310e-05 -2.236998261651024222e-05 -1.384376585483551025e-01 2.615920267999172211e-02 3.198194463038817048e-06 2.714301049709320068e-01 -4.124906659126281738e-01 -1.425596624612808228e-01 4.067519512318540365e-07 -1.640091533772647381e-03 3.138022497296333313e-03 -1.105916872620582581e-02 -2.791451215744018555e-01 -2.492860704660415649e-02 -5.406510354077909142e-06 8.882261812686920166e-02 -7.198975980281829834e-02 2.713065259740687907e-05 -4.698669537901878357e-02 -3.998970612883567810e-02 2.655753791332244873e-01 -7.621194701641798019e-03 -6.065462457627290860e-06 1.284397095441818237e-01 -2.678792923688888550e-02 4.610044925357215106e-06 -1.347787976264953613e-01 1.611874550580978394e-01 7.630940526723861694e-02 1.017021462321281433e-01 3.612355887889862061e-02 9.767991490662097931e-03 -6.304978342086542398e-06 -8.850110134517308325e-06 5.373138561844825745e-02 1.967464089393615723e-01 -2.700934000313282013e-02 -2.514100074768066406e-01 1.724242046475410461e-02 -1.304946636082604527e-05 -1.135732010006904602e-01 -3.672527149319648743e-02 7.700801640748977661e-02 2.602318823337554932e-01 7.100681614247150719e-06 2.145365670003229752e-06 -9.390600025653839111e-02
-1.147625516750849783e-05 5.266054272651672363e-01 -1.069800928235054016e-02 -3.203105006832629442e-05 2.271843142807483673e-02 5.492365016834810376e-05 4.796300828456878662e-02 -4.726561903953552246e-02 1.754196564434096217e-04 -3.658257628558203578e-05 -1.737448126077651978e-01 -2.087053954601287842e-01 -1.397569430992007256e-04 6.234789907466620207e-06 -1.969030745385680348e-05 -8.289290964603424072e-02 1.872422918677330017e-02 -2.674326300621032715e-02 -1.095241606235504150e-01 -1.364804208278656006e-01 -3.422808274626731873e-02 2.137052863836288452e-01 4.203132630209438503e-05 -2.376496493816375732e-01 -9.812345355749130249e-02 -1.687548160552978516e-01 7.430672849295660853e-05 5.962404611636884511e-05 -2.891465276479721069e-02 2.898302115499973297e-02 -2.875216118991374969e-02 2.428458780050277710e-01 6.082401523599401116e-05 -1.991811394691467285e-01 4.322093427181243896e-01 1.246923693543067202e-05 8.945412188768386841e-02 2.918001711368560791e-01 -5.198204235057346523e-05 3.671060502529144287e-02 -1.288614585064351559e-04 -8.406888693571090698e-02 -4.229446873068809509e-02 5.663375556468963623e-02 -8.614917844533920288e-02 -4.676465323427692056e-05 2.509586920496076345e-05 -1.322347437962889671e-03 -2.911755740642547607e-01 5.999808311462402344e-01 5.842250958085060120e-02 1.437594592571258545e-01 2.110286056995391846e-02 6.609844422200694680e-05 2.100151181221008301e-01 -6.029084697365760803e-02 -8.895179053070023656e-05 2.706543818931095302e-05 6.930762529373168945e-02 -5.842810496687889099e-02
2.427755498501937836e-05 -8.596596121788024902e-02 -2.970810234546661377e-02 3.793686846620403230e-05 -5.145891755819320679e-02 6.739023327827453613e-02 -2.062632516026496887e-02 5.689608678221702576e-02 -6.650004070252180099e-05 -5.150804668664932251e-02 -3.816478652879595757e-03 1.849141269922256470e-01 5.144308670423924923e-05 2.391235102550126612e-05 1.595572393853217363e-05 -4.424386133905500174e-05 -4.128735512495040894e-03 6.422634760383516550e-05 1.069014659151434898e-03 -7.614690065383911133e-02 -2.161161974072456360e-02 -2.169561199843883514e-02 -6.948709487915039062e-03 1.954219341278076172e-01 9.992626728489995003e-04 -2.733912551775574684e-03 -3.609371924540027976e-05 -3.232356175431050360e-05 4.802116751670837402e-02 -2.099414728581905365e-02 1.445733068976551294e-04 -1.202595904469490051e-01 -4.826119038625620306e-05 7.129129767417907715e-02 -1.845140457153320312e-01 -1.466527581214904785e-01 -1.171884611248970032e-01 -4.652159661054611206e-02 4.800903424620628357e-02 -1.298687309026718140e-01 4.736112168757244945e-05 7.832826668163761497e-05 3.168159350752830505e-02 3.836738690733909607e-02 3.398602455854415894e-02 2.160499934689141810e-05 -1.831744702940341085e-05 4.881851782556623220e-05 3.309877812862396240e-01 -2.949750721454620361e-01 -6.509283930063247681e-02 2.269926480948925018e-02 9.619681804906576872e-06 -2.924422369687817991e-05 -8.257383108139038086e-02 1.734704375267028809e-01 6.581165641546249390e-02 1.468564732931554317e-06 -1.746919951983727515e-05 -3.891762389685027301e-05
-2.183174728997983038e-05 3.488648831844329834e-01 -1.491197012364864349e-02 7.294154784176498652e-06 -6.016886254656128585e-05 3.552873060107231140e-02 -4.567108044284395874e-05 3.477748396107926965e-05 -1.803276518330676481e-06 -7.661282143089920282e-05 -4.428505897521972656e-01 -1.050834655761718750e-01 -1.115480251610279083e-02 1.512319795438088477e-05 1.911040817503817379e-05 -1.029160022735595703e-01 -4.795593267772346735e-04 -4.211888517602346838e-05 -7.198534149210900068e-05 -4.645375907421112061e-01 -2.728856801986694336e-01 1.621274650096893311e-01 -1.901150608318857849e-05 5.294404691085219383e-04 -7.096629124134778976e-03 -1.818190068006515503e-01 2.082841456285677850e-05 2.678778400877490640e-05 1.384483402944169939e-05 -4.531915692496113479e-06 6.143491646071197465e-06 6.914120167493820190e-02 5.859470547875389457e-06 -1.540626253699883819e-04 2.480694204568862915e-01 -4.006936680525541306e-03 6.521363556385040283e-02 3.465132787823677063e-02 4.237568005919456482e-02 1.939785033755470067e-05 -9.212540462613105774e-03 -4.393713243189267814e-05 -4.250838901498354971e-05 2.385353744029998779e-01 1.714381505735218525e-05 -5.510012852028012276e-05 1.732671444187872112e-05 -3.479893712210468948e-05 -2.076214551925659180e-01 3.653529286384582520e-01 2.937188764917664230e-05 1.676757633686065674e-01 -2.201236020482610911e-05 -8.959477394819259644e-02 7.023879140615463257e-02 5.314453155733644962e-04 8.536808937788009644e-02 -1.359182533633429557e-05 4.820388555526733398e-02 -8.049333840608596802e-02
-6.610455363988876343e-02 -1.458628326654434204e-01 -5.551693961024284363e-02 2.230402969871647656e-05 -1.186066865921020508e-01 3.858467638492584229e-01 -2.958318591117858887e-01 1.535974144935607910e-01 -2.332655094505753368e-05 -3.730096668004989624e-02 -1.781285107135772705e-01 3.599979877471923828e-01 -9.447668492794036865e-02 3.113645107077900320e-06 1.148464252764824778e-05 1.487082093954086304e-01 -1.819909550249576569e-02 2.824373915791511536e-02 5.425367038697004318e-03 -3.866084814071655273e-01 -6.826537102460861206e-02 -1.790986359119415283e-01 -3.303439170122146606e-02 6.089514493942260742e-01 -2.682574391365051270e-01 -2.816103771328926086e-02 -4.351969437266234308e-06 -2.742078341543674469e-02 1.081719412468373775e-03 -3.166994825005531311e-02 1.342963427305221558e-01 -1.164142340421676636e-01 -1.162630542239639908e-05 5.207184702157974243e-02 -2.861309051513671875e-01 -3.330106437206268311e-01 -3.241519033908843994e-01 -9.966859221458435059e-02 1.679190248250961304e-02 -1.184705048799514771e-01 -1.508320569992065430e-01 1.504381634731544182e-05 1.068585142493247986e-01 2.043103566393256187e-03 5.515437573194503784e-02 -1.833756417036056519e-01 4.996582493185997009e-02 -7.922594249248504639e-02 1.573135405778884888e-01 -8.016616851091384888e-02 7.866342365741729736e-02 -7.308122440008446574e-05 -1.667032241821289062e-01 2.944024708995129913e-05 -9.657531231641769409e-02 4.211645424365997314e-01 9.407500177621841431e-02 7.605418431921862066e-06 -1.237462460994720459e-01 2.607741625979542732e-03
-7.573575526475906372e-02 1.675253361463546753e-01 2.476903051137924194e-02 3.741279942914843559e-05 -7.287655770778656006e-02 1.203400045633316040e-01 -1.268382743000984192e-02 7.756488770246505737e-02 -1.274510850635124370e-05 -4.148800298571586609e-02 -4.533334076404571533e-01 -1.202048733830451965e-03 -4.857043921947479248e-02 3.069309605052694678e-05 2.928220419562421739e-05 -1.605112701654434204e-01 -5.036029964685440063e-02 2.795706316828727722e-02 2.330163624719716609e-06 -2.574011385440826416e-01 -2.806245684623718262e-01 -8.442009857390075922e-06 -3.205046959919854999e-05 1.083814888261258602e-03 1.637488603591918945e-02 -1.525193750858306885e-01 1.006782287731766701e-03 2.690635435283184052e-02 2.795063846861012280e-05 -4.690708374255336821e-05 3.497521579265594482e-02 -4.083070158958435059e-02 -1.144765701610594988e-05 3.216488767066039145e-05 -1.540821358503308147e-05 -2.085512876510620117e-02 -8.335277438163757324e-02 -4.440458863973617554e-02 1.208529844880104065e-01 4.832030739635229111e-03 -4.048093408346176147e-02 -1.005246849672403187e-05 7.457387255271896720e-05 2.423755228519439697e-01 3.483468753984197974e-05 -1.951217837631702423e-02 4.567749425768852234e-02 4.200559487799182534e-05 -1.840539574623107910e-01 1.764135959092527628e-04 4.267235100269317627e-02 3.400281369686126709e-01 -1.494975946843624115e-02 -3.964421193813905120e-05 -8.054713718593120575e-03 6.425099854823201895e-05 1.403660327196121216e-01 -1.456739300920162350e-05 1.795993739506229758e-06 -9.555555135011672974e-02
1.857364922761917114e-01 -8.630198240280151367e-02 -2.946357131004333496e-01 2.330272036488167942e-05 4.269619967089965940e-05 4.801579564809799194e-02 1.020934632833814248e-05 -4.798898473381996155e-03 -9.625303559005260468e-03 3.304507481516338885e-05 1.527822613716125488e-01 3.629420399665832520e-01 1.031188890337944031e-01 4.647438800020609051e-06 -1.901784708024933934e-05 -1.078644953668117523e-02 3.001004643738269806e-02 -4.024946317076683044e-02 2.112304978072643280e-02 -3.801903128623962402e-02 -9.366605430841445923e-02 -9.211301803588867188e-04 -4.937001317739486694e-02 3.048389852046966553e-01 -1.587572693824768066e-01 -5.119090899825096130e-02 -2.373798750340938568e-02 -5.782930925488471985e-02 7.645869255065917969e-02 -1.020373962819576263e-02 -4.617018997669219971e-02 -3.400036692619323730e-02 -2.677950942597817630e-05 1.161138936877250671e-01 -1.743297278881072998e-01 2.394673720118589699e-05 -3.405454009771347046e-02 -3.181425034999847412e-01 -3.259825234636082314e-06 -2.052559554576873779e-01 6.401015818119049072e-02 3.460115939378738403e-02 -6.521157175302505493e-02 2.916161429311614484e-05 6.933818757534027100e-02 -2.325567603111267090e-02 -4.706183075904846191e-02 -9.261344559490680695e-03 5.297377109527587891e-01 -1.805211305618286133e-01 -1.762913763523101807e-01 -3.009225726127624512e-01 9.980548918247222900e-02 8.224549889564514160e-02 -5.551151931285858154e-02 2.409347444772720337e-01 -1.952288448810577393e-01 -1.018114198814146221e-05 2.830438097589649260e-05 1.154076829552650452e-01
1.484998756495770067e-05 -1.526009440422058105e-01 2.147578895092010498e-01 -2.220516944362316281e-05 4.966292157769203186e-02 -8.443572372198104858e-02 2.916784584522247314e-02 -9.536901861429214478e-02 1.775358578015584499e-05 6.869394332170486450e-03 2.715675532817840576e-01 8.415604382753372192e-02 -4.690533131361007690e-02 -3.668619683594442904e-06 -2.386813321209046990e-06 9.495177119970321655e-02 8.945517241954803467e-03 -2.060939371585845947e-02 -4.982873797416687012e-02 3.948327004909515381e-01 2.892261743545532227e-01 -9.376836568117141724e-02 2.246228046715259552e-03 -6.212897133082151413e-04 -2.516013681888580322e-01 2.557207345962524414e-01 1.100440695881843567e-01 -3.400579735171049833e-04 -4.481204226613044739e-02 6.252188235521316528e-02 -8.247657679021358490e-03 4.567062933347187936e-05 1.763135008513927460e-02 8.147396147251129150e-02 -1.573075950145721436e-01 3.571553854271769524e-03 -1.150568798184394836e-01 -1.250420510768890381e-01 -2.535526156425476074e-01 1.527901738882064819e-01 5.610263440757989883e-03 -6.796000897884368896e-02 -8.937290310859680176e-02 -3.398067057132720947e-01 -2.020934516622219235e-05 -1.136548668146133423e-01 -8.048187941312789917e-03 1.592003172845579684e-05 6.631480902433395386e-02 -1.574688255786895752e-01 2.027965337038040161e-01 -4.283023178577423096e-01 1.192020681628491729e-05 -4.156812065048143268e-05 2.505698466848116368e-05 -9.313042974099516869e-04 -2.764349877834320068e-01 -1.392759031659807079e-06 -5.875962227582931519e-02 3.778059408068656921e-02
-1.417042315006256104e-01 -3.501194417476654053e-01 7.566648721694946289e-02 -7.112489583960268646e-07 8.057294508034829050e-06 1.543127186596393585e-02 7.587040215730667114e-02 -5.898631643503904343e-04 1.373724788427352905e-01 -1.759475097060203552e-02 4.372105002403259277e-02 -1.263937912881374359e-02 -1.266575455665588379e-01 2.635712007759138942e-06 5.712481652153655887e-06 1.785964965820312500e-01 -6.455538421869277954e-02 -3.560324385762214661e-02 -2.742729187011718750e-01 5.187419056892395020e-02 2.088795974850654602e-02 -1.561295241117477417e-01 -2.218303052359260619e-06 7.835946232080459595e-02 9.265466034412384033e-02 3.039180636405944824e-01 2.144379615783691406e-01 2.222916670143604279e-02 1.696334948064759374e-06 7.369702309370040894e-02 2.762977601378224790e-06 4.300449509173631668e-03 2.120202407240867615e-02 -2.059277519583702087e-02 -7.165530323982238770e-02 -1.887752413749694824e-01 -6.196139380335807800e-02 2.395744323730468750e-01 -1.041110232472419739e-01 3.607865869998931885e-01 -1.573321670293807983e-01 -1.223507449030876160e-01 -5.220422893762588501e-02 -2.511327564716339111e-01 -1.400830131024122238e-02 -3.240487352013587952e-02 1.863495074212551117e-02 -7.644016477570403367e-06 1.532286591827869415e-02 -1.499839127063751221e-01 1.533520668745040894e-01 -3.232192099094390869e-01 1.469761446060147136e-05 2.173546468839049339e-03 -7.188584655523300171e-02 5.341270938515663147e-02 -1.269893050193786621e-01 -1.118991076509701088e-05 -1.092249304056167603e-01 6.590305268764495850e-02
-4.023858010768890381e-01 -2.178587317466735840e-01 2.844900488853454590e-01 1.646686359890736639e-05 -3.553020581603050232e-02 2.462607920169830322e-01 3.183574974536895752e-02 2.233493141829967499e-02 6.102297827601432800e-02 -4.166490212082862854e-02 -3.055877685546875000e-01 -3.773694485425949097e-02 -3.588803112506866455e-01 2.388427674304693937e-06 -1.670291385380551219e-05 1.418784260749816895e-01 -6.328093260526657104e-02 2.751410305500030518e-01 -4.538311436772346497e-02 -1.421694308519363403e-01 -6.962855905294418335e-02 -8.949212729930877686e-02 6.636852025985717773e-02 -7.387292385101318359e-02 5.674284100532531738e-01 -4.961408674716949463e-02 2.001356147229671478e-02 1.134535595774650574e-01 -1.081039160490036011e-01 8.871183544397354126e-02 1.970412433147430420e-01 -9.150879830121994019e-02 1.090223900973796844e-03 -9.473253041505813599e-02 -4.146090149879455566e-02 -1.584433168172836304e-01 -1.907411515712738037e-01 1.489114612340927124e-01 1.480988562107086182e-01 1.456544697284698486e-01 -1.463057994842529297e-01 -1.085182651877403259e-01 1.159645915031433105e-01 2.822610437870025635e-01 7.177488896559225395e-06 -1.614611595869064331e-01 3.059497475624084473e-01 1.603189855813980103e-01 2.059512212872505188e-02 -1.056635305285453796e-01 4.278766512870788574e-01 3.738218843936920166e-01 -1.485087573528289795e-01 -9.931966662406921387e-02 -2.489929087460041046e-02 6.334453076124191284e-02 4.318920373916625977e-01 -1.744139444781467319e-05 -1.238854601979255676e-01 -1.370328813791275024e-01
