2.442151904106140137e-01 -4.409807026386260986e-01 -3.006556071341037750e-02 2.833068072795867920e-01 6.556469798088073730e-01 -1.352774351835250854e-01 3.445968031883239746e-01 3.600056171417236328e-01 -3.083487749099731445e-01 -2.891820967197418213e-01 -2.654857933521270752e-01 -6.369442939758300781e-01 1.400890797376632690e-01 -6.032248735427856445e-01 -1.463707238435745239e-01 -8.136330544948577881e-02 -2.337707877159118652e-01 3.536827862262725830e-01 1.108081936836242676e-01 -5.204165577888488770e-01
4.447799623012542725e-01 2.032593190670013428e-01 5.146107673645019531e-01 3.129185438156127930e-01 5.079585593193769455e-03 1.968596503138542175e-02 -2.655099928379058838e-01 2.352835088968276978e-01 2.029075846076011658e-02 7.841854542493820190e-02 -1.214745715260505676e-01 1.822949647903442383e-01 5.379118919372558594e-01 1.761424243450164795e-01 6.053289771080017090e-01 3.748868405818939209e-01 -2.732296884059906006e-01 8.202866464853286743e-02 4.671121835708618164e-01 5.168939381837844849e-02
-2.959601581096649170e-01 -7.362307310104370117e-01 -6.884977817535400391e-01 1.375132054090499878e-01 -5.774930492043495178e-02 2.070875763893127441e-01 4.712325632572174072e-01 -1.334549784660339355e-01 -4.547207951545715332e-01 -6.103777885437011719e-01 -8.508518338203430176e-02 -3.969010114669799805e-01 -2.559033632278442383e-01 5.171795189380645752e-02 -5.548352599143981934e-01 4.575383961200714111e-01 2.081827074289321899e-01 -4.110789895057678223e-01 1.442805025726556778e-02 -1.469827741384506226e-01
-4.432348012924194336e-01 4.929408431053161621e-02 8.335027378052473068e-04 -6.213679909706115723e-01 -5.104866623878479004e-01 3.393468856811523438e-01 -1.068902388215065002e-01 -4.787566661834716797e-01 2.096919119358062744e-01 -4.807543009519577026e-04 5.413165092468261719e-01 7.844390273094177246e-01 -3.553679883480072021e-01 3.632217347621917725e-01 -3.295288681983947754e-01 7.067383825778961182e-02 4.786466658115386963e-01 -1.897357404232025146e-01 -2.799628078937530518e-01 2.834995687007904053e-01
1.109653189778327942e-01 1.081854291260242462e-02 3.237838745117187500e-01 -1.188382357358932495e-01 -6.064613461494445801e-01 2.416122853755950928e-01 -1.533673256635665894e-01 -4.552211761474609375e-01 3.528882190585136414e-02 5.082595944404602051e-01 -2.626833021640777588e-01 3.211263120174407959e-01 1.874917000532150269e-02 -2.847056388854980469e-01 -2.396411597728729248e-01 6.780343055725097656e-01 1.473099458962678909e-02 -5.190023779869079590e-01 6.429427266120910645e-01 -3.925998210906982422e-01
