2.224425319582223892e-03
-3.520405851304531097e-03
2.023339504376053810e-03
-1.125395647250115871e-03
-2.074095886200666428e-03
-3.991603385657072067e-03
-2.329117618501186371e-03
-1.987935742363333702e-03
1.670433324761688709e-03
1.399739831686019897e-02
-7.330090738832950592e-03
-2.889541676267981529e-03
-1.698306179605424404e-03
-1.198780816048383713e-02
1.375801675021648407e-02
-4.372444003820419312e-03
5.016736104153096676e-04
2.067842986434698105e-03
-5.968574900180101395e-03
9.157497435808181763e-03
-1.160179916769266129e-02
-1.756528858095407486e-03
-4.222474526613950729e-03
-1.306741405278444290e-02
9.280768223106861115e-03
1.101017929613590240e-03
6.189143285155296326e-03
-3.249139757826924324e-03
3.564756189007312059e-04
-1.856322051025927067e-04
5.358386784791946411e-03
2.266176976263523102e-03
1.530788838863372803e-03
1.310019381344318390e-02
-4.850665573030710220e-03
-7.053521112538874149e-04
-4.297908395528793335e-03
-3.409033641219139099e-03
1.898002810776233673e-02
4.478867165744304657e-03
