-2.004097029566764832e-02
-3.096419386565685272e-03
-5.857096053659915924e-03
2.753389999270439148e-03
1.384099596180021763e-04
2.161237644031643867e-04
6.847489858046174049e-04
-6.330962642095983028e-04
-7.468480034731328487e-04
-2.338743302971124649e-03
-4.042950458824634552e-03
3.295408096164464951e-03
-1.269441563636064529e-02
4.025914240628480911e-03
-1.986903725992306136e-06
-3.007685998454689980e-03
3.970115445554256439e-03
-3.371829865500330925e-03
3.302621422335505486e-03
9.902989258989691734e-04
6.489848019555211067e-04
-2.243401249870657921e-03
-3.739579813554883003e-03
2.946869935840368271e-03
4.781980533152818680e-03
4.068185575306415558e-03
1.753782853484153748e-04
-2.394851529970765114e-03
-7.009676657617092133e-03
-1.891041873022913933e-03
1.330406172201037407e-03
-3.012853267136961222e-04
9.543518535792827606e-04
-6.763391662389039993e-03
2.617738442495465279e-03
-4.458141513168811798e-03
1.488695619627833366e-03
8.902375120669603348e-04
-1.792174763977527618e-03
-3.973344806581735611e-03
