2.194247767329216003e-02 -1.156702078878879547e-02 -1.255221217870712280e-01 -9.943366050720214844e-02 -6.003720313310623169e-02 1.598930954933166504e-01 7.353624701499938965e-02 9.213913977146148682e-02 3.246895968914031982e-03 -1.498734802007675171e-01 1.215102989226579666e-02 1.003269180655479431e-01 -8.180033415555953979e-03 1.417428255081176758e-02 1.290221046656370163e-02 -7.402595877647399902e-02 -2.197766602039337158e-01 -2.247444540262222290e-02 -1.533112078905105591e-01 5.157390236854553223e-02
-1.486957222223281860e-01 3.886730596423149109e-02 1.853406727313995361e-01 1.807968765497207642e-01 2.963694930076599121e-02 4.241189360618591309e-02 9.106868505477905273e-02 1.691180318593978882e-01 7.828973978757858276e-02 -1.439401954412460327e-01 -1.599215418100357056e-01 1.066889762878417969e-01 -2.454133182764053345e-01 1.587823778390884399e-01 -4.987822845578193665e-02 6.769823282957077026e-02 -1.404614001512527466e-01 2.570958137512207031e-01 5.301443114876747131e-02 -3.264959529042243958e-02
-1.338484883308410645e-02 -8.778277784585952759e-02 -9.249828755855560303e-02 -9.769840538501739502e-02 -1.496689021587371826e-01 -1.891642995178699493e-02 3.439524909481406212e-03 -5.788583680987358093e-02 -1.022531688213348389e-01 -1.041852384805679321e-01 9.595738351345062256e-02 -8.279718458652496338e-02 1.091183200478553772e-01 -1.752393841743469238e-01 7.341479510068893433e-02 -3.850067406892776489e-02 7.711555063724517822e-02 -2.619004845619201660e-01 -8.892676234245300293e-02 1.272751539945602417e-01
