-3.356983363628387451e-01 6.282069534063339233e-02 9.281832724809646606e-02 -2.992858365178108215e-02 1.910503357648849487e-01 5.733029916882514954e-02 2.581073939800262451e-01 -1.909003704786300659e-01 -1.884738504886627197e-01 -9.621600806713104248e-02 3.100459873676300049e-01 1.781279221177101135e-02 -2.192659378051757812e-01 -1.780698075890541077e-03 3.906692564487457275e-01 -8.174946159124374390e-02 -3.824188411235809326e-01 1.513176411390304565e-02 3.329578042030334473e-01 1.833069697022438049e-02 2.702338099479675293e-01 -3.909652829170227051e-01 1.655545383691787720e-01 2.617483772337436676e-02 9.877286851406097412e-02 -2.636770009994506836e-01 -1.271181702613830566e-01 -3.073284588754177094e-02 -1.337117888033390045e-02 2.183453142642974854e-01 -1.550446897745132446e-01 -9.962577372789382935e-02 3.494020402431488037e-01 1.094809174537658691e-01 -3.157455027103424072e-01 2.286641448736190796e-01 -9.324803203344345093e-02 2.554138600826263428e-01 6.311924755573272705e-02 1.702709645032882690e-01
5.864720419049263000e-02 -1.695742607116699219e-01 1.246991157531738281e-01 1.295030862092971802e-02 -4.222414642572402954e-02 -3.388547003269195557e-01 2.374582737684249878e-02 1.696458011865615845e-01 1.877159625291824341e-01 -2.629326283931732178e-01 -5.889657139778137207e-02 3.590467199683189392e-02 -1.616556495428085327e-01 -7.288189977407455444e-02 -6.653522700071334839e-02 -1.260800957679748535e-01 1.840933859348297119e-01 1.725679636001586914e-01 1.293424814939498901e-01 -4.426316916942596436e-02 6.102461740374565125e-02 2.486876100301742554e-01 1.175618991255760193e-01 1.109249368309974670e-01 -6.666052341461181641e-02 -3.907240927219390869e-01 -2.418361455202102661e-01 1.318089067935943604e-01 -1.629209816455841064e-01 -1.037221476435661316e-01 1.638333350419998169e-01 -9.430871903896331787e-02 -1.772626489400863647e-01 3.551666811108589172e-02 2.595137655735015869e-01 1.437548100948333740e-01 -2.603560686111450195e-01 1.301680952310562134e-01 4.854346439242362976e-02 -1.217985972762107849e-01
1.379214376211166382e-01 5.594532564282417297e-02 -4.611888900399208069e-02 2.926427125930786133e-01 2.422563731670379639e-02 -2.259855270385742188e-01 -2.836801409721374512e-01 2.016948014497756958e-01 -1.214323006570339203e-02 -1.012809202075004578e-01 2.269452363252639771e-01 2.652494609355926514e-01 1.069356128573417664e-01 -8.589667268097400665e-03 2.389966882765293121e-02 2.207292318344116211e-01 9.070748835802078247e-02 1.000769883394241333e-01 -2.204688638448715210e-01 -3.711736202239990234e-01 -1.771469414234161377e-01 -1.612212955951690674e-01 -1.675352305173873901e-01 3.939084112644195557e-01 1.885870546102523804e-01 8.367045782506465912e-03 1.775753349065780640e-01 1.510820835828781128e-01 -1.530548930168151855e-01 3.101134598255157471e-01 -1.598764061927795410e-01 -1.508881896734237671e-01 8.523738384246826172e-02 1.757403314113616943e-01 -2.242820709943771362e-01 3.019642531871795654e-01 -1.702845692634582520e-01 2.075145989656448364e-01 -3.250748813152313232e-01 2.476136684417724609e-01
-1.546195000410079956e-01 -2.244886159896850586e-01 -1.004289984703063965e-01 -2.589174918830394745e-02 8.361311256885528564e-02 -1.274931151419878006e-02 -4.532806202769279480e-02 -2.830080091953277588e-01 2.322591543197631836e-01 -6.523336749523878098e-03 -7.421361654996871948e-02 -8.985921740531921387e-02 1.976452916860580444e-01 -1.119689494371414185e-01 -2.641725540161132812e-01 -3.657487034797668457e-02 -4.179218038916587830e-02 3.867526054382324219e-01 3.264163732528686523e-01 -6.738220900297164917e-02 4.256420210003852844e-02 2.247525751590728760e-01 1.159492358565330505e-01 1.687882393598556519e-01 -9.613271802663803101e-02 -1.294021010398864746e-01 2.169412374496459961e-01 1.548816729336977005e-02 -2.638871073722839355e-01 4.991781711578369141e-02 6.463584490120410919e-03 6.354182213544845581e-02 1.251823604106903076e-01 1.250948477536439896e-02 -1.576602607965469360e-01 2.047532424330711365e-02 -1.762896627187728882e-01 -1.819979399442672729e-01 3.249471187591552734e-01 -5.042139813303947449e-02
-1.138602383434772491e-02 3.193916380405426025e-02 1.828353106975555420e-01 -2.221760004758834839e-01 1.042046695947647095e-01 -3.079556524753570557e-01 1.567978113889694214e-01 -2.292335033416748047e-01 -1.478884071111679077e-01 -1.870107501745223999e-01 1.504165381193161011e-01 -3.203121945261955261e-02 -1.111854538321495056e-01 1.712319105863571167e-01 -1.157929226756095886e-01 -1.252553015947341919e-01 -2.562046349048614502e-01 -2.670337632298469543e-02 1.609695255756378174e-01 2.670671939849853516e-01 -7.460136711597442627e-02 -5.789470672607421875e-02 1.068087592720985413e-01 -8.059615641832351685e-02 6.718678772449493408e-02 -2.010505497455596924e-01 -2.161562442779541016e-02 -1.690189391374588013e-01 1.045621261000633240e-01 -2.028251439332962036e-02 3.262976929545402527e-02 -3.395639359951019287e-02 -5.890173837542533875e-02 -2.531417906284332275e-01 -1.775813400745391846e-01 -1.256995201110839844e-01 2.990641072392463684e-02 -4.490722343325614929e-02 -9.990935027599334717e-02 1.156849041581153870e-01
3.353809118270874023e-01 -1.782748401165008545e-01 5.104637891054153442e-02 -1.234800741076469421e-01 1.435552239418029785e-01 1.601325534284114838e-02 2.315016090869903564e-01 4.075887054204940796e-02 -8.709441870450973511e-02 2.193651944398880005e-01 -4.140682145953178406e-02 -2.211645096540451050e-01 -3.795311152935028076e-01 1.641970127820968628e-01 3.351745754480361938e-02 -2.666611373424530029e-01 4.766852781176567078e-02 4.988097772002220154e-02 2.075826972723007202e-01 9.259771555662155151e-02 -2.287472337484359741e-01 9.258314222097396851e-02 3.976325094699859619e-01 -2.534141242504119873e-01 -9.776230156421661377e-02 1.623651534318923950e-01 -1.077705770730972290e-01 -2.643438577651977539e-01 1.424200385808944702e-01 -2.264571487903594971e-01 2.437874302268028259e-02 1.487691849470138550e-01 -9.301122277975082397e-02 6.261130422353744507e-02 3.888426721096038818e-01 1.334896385669708252e-01 -1.377174556255340576e-01 -1.839801371097564697e-01 -2.914610877633094788e-02 2.640784978866577148e-01
-2.265602201223373413e-01 -2.524335384368896484e-01 4.715848341584205627e-02 -7.745105773210525513e-03 -7.553119957447052002e-02 3.301408588886260986e-01 -1.521250903606414795e-01 2.928112447261810303e-01 8.094268292188644409e-02 3.596312701702117920e-01 7.666506618261337280e-02 -3.260768055915832520e-01 2.269421368837356567e-01 1.698761731386184692e-01 9.829726070165634155e-02 -3.753336668014526367e-01 -6.304840743541717529e-02 -2.664184570312500000e-02 -1.076287031173706055e-01 1.450204104185104370e-01 -1.761210411787033081e-01 -1.185010075569152832e-01 2.729386650025844574e-02 2.974009513854980469e-01 -1.362404078245162964e-01 4.014509171247482300e-02 6.749148666858673096e-02 -2.216167896986007690e-01 2.868679165840148926e-01 9.660787135362625122e-02 1.038516685366630554e-01 2.068537920713424683e-01 1.660340726375579834e-01 -1.605882197618484497e-01 -2.626872956752777100e-01 -1.396593600511550903e-01 -2.175383418798446655e-01 -5.257700011134147644e-02 -1.868437230587005615e-01 -1.874963194131851196e-01
-9.558516740798950195e-02 1.063252836465835571e-01 2.883875370025634766e-02 -3.047706559300422668e-02 3.597388863563537598e-01 -2.058382332324981689e-01 -1.144868284463882446e-01 2.025610506534576416e-01 -1.142375636845827103e-02 2.169923037290573120e-01 2.999104931950569153e-02 -1.935154432430863380e-03 1.084156855940818787e-01 6.508190184831619263e-02 1.421536207199096680e-01 1.131373271346092224e-01 9.272944182157516479e-02 -3.361916542053222656e-01 1.370764374732971191e-01 -1.556750982999801636e-01 6.126505881547927856e-02 1.276452690362930298e-01 -1.069696918129920959e-01 -8.809831738471984863e-02 -2.334986180067062378e-01 -7.576741627417504787e-04 1.331388205289840698e-01 -8.580339141190052032e-03 -2.807962894439697266e-02 2.277592271566390991e-01 2.655005827546119690e-02 -1.272468864917755127e-01 -9.904204308986663818e-02 2.547179162502288818e-01 -2.324337065219879150e-01 3.172133862972259521e-02 -1.618243306875228882e-01 9.985437244176864624e-02 -1.040093898773193359e-01 -1.091834232211112976e-01
2.238717526197433472e-01 -3.426331281661987305e-01 2.327368259429931641e-01 2.260925024747848511e-01 2.251233607530593872e-01 -1.025246549397706985e-02 -6.808590143918991089e-02 -5.637263134121894836e-02 6.414838135242462158e-02 9.608864039182662964e-02 1.720197647809982300e-01 7.361734658479690552e-02 -2.203512042760848999e-01 -1.215638071298599243e-01 -1.595337241888046265e-01 2.674635052680969238e-01 -1.365893799811601639e-02 1.900265067815780640e-01 6.367115676403045654e-02 -5.078600719571113586e-02 -2.942329347133636475e-01 -2.410097420215606689e-01 1.383120268583297729e-01 2.969752848148345947e-01 1.093574911355972290e-01 -6.425791885703802109e-03 3.166624158620834351e-02 3.100277483463287354e-01 -2.659746445715427399e-02 3.770488500595092773e-02 -8.392196893692016602e-02 -1.029518991708755493e-01 -7.613778114318847656e-02 2.949345707893371582e-01 -1.444321125745773315e-01 2.024217396974563599e-01 -2.047890871763229370e-01 -5.920764990150928497e-03 1.760537363588809967e-02 6.510636210441589355e-02
-1.332051604986190796e-01 9.651438891887664795e-02 6.287390738725662231e-02 1.298475563526153564e-01 1.421335786581039429e-01 -1.994439214468002319e-01 -7.285025715827941895e-02 2.054731696844100952e-01 8.910597860813140869e-02 -1.669034063816070557e-01 -1.587512791156768799e-01 -2.553245127201080322e-01 1.071963682770729065e-01 1.592889130115509033e-01 7.147272676229476929e-02 -1.032212097197771072e-02 -4.756497964262962341e-02 1.309758275747299194e-01 -5.213108286261558533e-02 -3.935098946094512939e-01 -2.601607143878936768e-01 -1.655205041170120239e-01 -2.544371783733367920e-01 1.231404691934585571e-01 8.297936618328094482e-02 -8.154663443565368652e-02 1.154666915535926819e-01 -2.396649122238159180e-01 5.712556466460227966e-02 1.776249855756759644e-01 -1.547251492738723755e-01 -1.132311858236789703e-02 1.005194708704948425e-01 1.789895743131637573e-01 -5.344844888895750046e-03 -1.797283440828323364e-02 -9.496597200632095337e-02 -2.079558372497558594e-01 2.068078517913818359e-01 -4.114164039492607117e-02
1.145141851156949997e-02 -8.364586532115936279e-02 -1.525264382362365723e-01 1.028024107217788696e-01 1.114659830927848816e-01 -8.232235908508300781e-02 1.499897539615631104e-01 -1.030822321772575378e-01 5.206013843417167664e-02 2.164823114871978760e-01 3.876291960477828979e-02 3.381570577621459961e-01 -1.466384250670671463e-02 -1.929587572813034058e-01 7.294880598783493042e-02 -9.986955672502517700e-02 -1.457563936710357666e-01 -3.477889671921730042e-02 -1.740978956222534180e-01 1.155520305037498474e-01 -4.846033081412315369e-02 1.585141420364379883e-01 1.797386556863784790e-01 1.749612949788570404e-02 -8.680817484855651855e-02 3.041193122044205666e-04 -9.631736576557159424e-02 3.009198000654578209e-03 2.779036462306976318e-01 -4.692996293306350708e-02 -1.856278032064437866e-01 -1.679727286100387573e-01 2.468664497137069702e-01 1.640708446502685547e-01 -5.397135764360427856e-02 5.517661571502685547e-02 7.011395692825317383e-02 5.756099149584770203e-02 1.875185221433639526e-01 3.470412194728851318e-01
-4.016485065221786499e-02 3.090522885322570801e-01 -3.210327774286270142e-02 1.721414029598236084e-01 1.472484618425369263e-01 5.768528208136558533e-02 1.587135046720504761e-01 1.001170873641967773e-01 -1.407953649759292603e-01 3.168837726116180420e-01 -2.433179169893264771e-01 -1.170926094055175781e-01 1.062798500061035156e-01 2.948788739740848541e-02 -1.277592629194259644e-01 7.912699133157730103e-02 -2.841988503932952881e-01 2.499063126742839813e-02 -6.345114856958389282e-02 -4.015509411692619324e-02 -3.797963634133338928e-02 -1.729987114667892456e-01 -3.911351040005683899e-02 3.806932643055915833e-02 1.476012021303176880e-01 1.167063862085342407e-01 -3.258058428764343262e-01 1.529969554394483566e-02 9.865030646324157715e-02 1.570263653993606567e-01 1.261913925409317017e-01 1.543246656656265259e-01 2.954611182212829590e-01 9.127742610871791840e-03 -1.886873841285705566e-01 -5.736817046999931335e-02 3.016060292720794678e-01 -3.725937902927398682e-01 -3.363928794860839844e-01 -2.287140339612960815e-01
-1.759450137615203857e-01 2.365041971206665039e-01 -5.336053296923637390e-02 -3.945373371243476868e-02 8.058936148881912231e-02 -2.396774590015411377e-01 3.701151581481099129e-03 -2.636722028255462646e-01 4.303609952330589294e-02 -8.059023320674896240e-02 -1.151698604226112366e-01 2.966844141483306885e-01 1.540556997060775757e-01 -1.098097339272499084e-01 1.578388661146163940e-01 -4.861199762672185898e-03 3.784070909023284912e-01 -2.635030448436737061e-01 -4.939968511462211609e-02 -1.745837181806564331e-01 -2.086235284805297852e-01 -1.778114773333072662e-02 6.390877813100814819e-02 2.268727682530879974e-02 -8.764829486608505249e-02 2.184369117021560669e-01 6.886260956525802612e-02 -2.645744383335113525e-01 -1.904057711362838745e-01 2.718177437782287598e-02 -1.817685067653656006e-01 -8.473353832960128784e-02 1.716219782829284668e-01 1.447773277759552002e-01 1.970051825046539307e-01 1.770694702863693237e-01 3.095327317714691162e-01 1.590020358562469482e-01 1.026160940527915955e-01 2.902313172817230225e-01
3.408406972885131836e-01 -2.691426575183868408e-01 1.928714513778686523e-01 -9.406650066375732422e-02 -3.185484111309051514e-01 -9.838736057281494141e-02 -1.081780064851045609e-02 -2.327226400375366211e-01 6.386507302522659302e-03 -2.422509193420410156e-01 1.580351591110229492e-01 -1.693021804094314575e-01 1.007933989167213440e-01 1.518252398818731308e-02 1.776820123195648193e-01 -1.158116944134235382e-02 -2.166004627943038940e-01 -1.817408800125122070e-01 -2.435328625142574310e-02 3.051060140132904053e-01 -3.311355412006378174e-01 -3.575982451438903809e-01 1.437220573425292969e-01 -2.377481758594512939e-01 -2.606016397476196289e-01 3.148145079612731934e-01 1.705397963523864746e-01 2.033882541581988335e-03 1.915676742792129517e-01 -8.525282144546508789e-02 -2.800950706005096436e-01 -2.207674980163574219e-01 -1.045548468828201294e-01 -8.105902373790740967e-02 -2.164346724748611450e-01 -3.212956190109252930e-01 -1.513076126575469971e-01 -1.821295469999313354e-01 4.307229071855545044e-02 -6.176317855715751648e-02
-7.186143100261688232e-02 3.061027824878692627e-02 -4.137833043932914734e-02 -1.885198801755905151e-01 -1.432469636201858521e-01 2.623117864131927490e-01 -1.388481110334396362e-01 3.249340653419494629e-01 3.100683689117431641e-01 4.371376242488622665e-03 2.346776276826858521e-01 4.538461938500404358e-02 1.187119111418724060e-01 -2.081585377454757690e-01 5.925666168332099915e-02 7.016988820396363735e-04 -1.976730674505233765e-01 1.954373568296432495e-01 4.267820715904235840e-02 -3.173856530338525772e-03 -7.148205488920211792e-02 -2.806311547756195068e-01 -4.362243041396141052e-02 -2.469858899712562561e-02 2.101027071475982666e-01 7.315396517515182495e-02 2.036990970373153687e-01 -4.875352140516042709e-03 -2.120053321123123169e-01 -1.996527165174484253e-01 -8.860825747251510620e-02 1.636715829372406006e-01 1.656880527734756470e-01 8.012145012617111206e-02 1.558378338813781738e-01 -1.840226650238037109e-01 5.105720087885856628e-02 -1.097884774208068848e-01 1.087248697876930237e-01 -1.697723716497421265e-01
-1.496348716318607330e-02 -2.849819958209991455e-01 2.633877098560333252e-01 1.218224391341209412e-01 1.488678008317947388e-01 8.304256200790405273e-02 -1.095917373895645142e-01 -1.190714016556739807e-01 -1.564448922872543335e-01 1.772336661815643311e-02 2.744908332824707031e-01 -2.900609374046325684e-01 8.230539411306381226e-02 6.232175230979919434e-02 -1.111474260687828064e-01 -1.435599476099014282e-01 -9.722481667995452881e-02 1.392455548048019409e-01 6.864374130964279175e-02 -1.802487298846244812e-02 -2.316163852810859680e-02 -1.096914932131767273e-01 -1.281064935028553009e-03 4.301356151700019836e-02 -5.974149703979492188e-02 3.577052056789398193e-02 1.323067396879196167e-01 -2.727701365947723389e-01 -1.882721781730651855e-01 -8.941651321947574615e-04 1.818762347102165222e-02 2.344190329313278198e-01 -2.846309840679168701e-01 -5.206291680224239826e-04 3.116250336170196533e-01 1.405016630887985229e-01 1.641173809766769409e-01 6.329717487096786499e-02 9.435322135686874390e-02 7.998295873403549194e-02
-1.238955780863761902e-01 1.819480359554290771e-01 3.491741046309471130e-02 -1.154199391603469849e-01 -2.250688523054122925e-01 -1.879235031083226204e-03 3.791836202144622803e-01 -1.036770939826965332e-01 -1.381865143775939941e-01 -8.609140664339065552e-02 3.395934775471687317e-02 -4.390185698866844177e-02 2.937350422143936157e-03 -8.340612798929214478e-02 8.345539122819900513e-02 1.558568030595779419e-01 -5.899462848901748657e-02 1.454814672470092773e-01 -7.830268144607543945e-02 -5.449065193533897400e-02 -2.588248066604137421e-02 -4.209738969802856445e-02 -2.738990485668182373e-01 -3.662652522325515747e-02 1.533440351486206055e-01 1.734390705823898315e-01 -1.778553426265716553e-01 2.452385798096656799e-02 2.309840172529220581e-01 -2.353221178054809570e-01 1.254024542868137360e-02 2.675316035747528076e-01 -2.916415035724639893e-02 5.340243503451347351e-02 -2.323289960622787476e-01 -1.789895892143249512e-01 4.483823105692863464e-02 -1.048580929636955261e-01 3.994385004043579102e-01 -1.314313244074583054e-02
-1.046214327216148376e-01 -1.808405667543411255e-01 -3.426091000437736511e-02 5.548026040196418762e-02 1.063613444566726685e-01 1.267926841974258423e-01 -1.930130869150161743e-01 6.129666790366172791e-02 -1.235648766160011292e-01 -2.731905877590179443e-01 7.047783583402633667e-02 -1.838726848363876343e-01 -5.320007726550102234e-02 -9.410791844129562378e-02 -3.822671622037887573e-02 1.717791706323623657e-02 8.141583763062953949e-03 1.122380867600440979e-01 -1.999433189630508423e-01 -3.449463844299316406e-01 -9.503482282161712646e-02 3.252852857112884521e-01 1.701538115739822388e-01 -3.755253180861473083e-02 -2.246495932340621948e-01 -2.589443325996398926e-02 -2.575864493846893311e-01 -1.131703630089759827e-01 -1.371535211801528931e-01 2.984648644924163818e-01 1.493925154209136963e-01 1.811562031507492065e-01 -8.419456332921981812e-02 -1.134171634912490845e-01 5.638068914413452148e-02 9.558219462633132935e-02 -3.005136251449584961e-01 -1.151450872421264648e-01 3.868612945079803467e-01 3.912692666053771973e-01
-3.170061409473419189e-01 1.134378686547279358e-01 -1.130076423287391663e-01 1.464339643716812134e-01 -3.980401158332824707e-02 2.618223130702972412e-01 -7.895921915769577026e-02 1.201317310333251953e-01 5.519566684961318970e-02 -7.467714138329029083e-03 7.872505486011505127e-02 1.768862456083297729e-01 -2.040813267230987549e-01 3.041228353977203369e-01 6.164619326591491699e-02 8.071693032979965210e-02 1.261896081268787384e-02 4.777881875634193420e-02 -3.700324567034840584e-03 1.187660098075866699e-01 2.250427752733230591e-01 -1.950948983430862427e-01 2.119822427630424500e-02 -3.228091001510620117e-01 -2.101242840290069580e-01 -1.103505417704582214e-01 1.083328276872634888e-01 1.861719787120819092e-01 2.984297573566436768e-01 -2.366329878568649292e-01 -1.407308578491210938e-01 2.498925179243087769e-01 1.074292287230491638e-01 5.918314680457115173e-02 1.170023437589406967e-02 -7.575299590826034546e-02 -3.857513517141342163e-02 -7.065185159444808960e-02 3.159805014729499817e-02 -3.870180845260620117e-01
-1.621068120002746582e-01 -4.929046705365180969e-02 9.682773798704147339e-02 3.448796868324279785e-01 1.875427216291427612e-01 -7.601901143789291382e-02 1.262509077787399292e-01 3.662342131137847900e-01 2.775633335113525391e-01 3.892789781093597412e-01 -5.027644708752632141e-02 -4.051915556192398071e-02 2.554335296154022217e-01 -3.975876048207283020e-02 -1.530211418867111206e-01 -1.355663090944290161e-01 8.059046417474746704e-02 1.934497803449630737e-01 3.546921312808990479e-01 2.854184210300445557e-01 -1.643324270844459534e-02 -3.554295003414154053e-01 2.610854804515838623e-01 -1.961200386285781860e-01 1.408659517765045166e-01 1.188309714198112488e-01 -2.851247787475585938e-01 2.018902301788330078e-01 -2.315512895584106445e-01 -8.202903717756271362e-02 2.154424190521240234e-01 6.273210793733596802e-02 -1.601828187704086304e-01 -7.086979690939188004e-03 2.104417383670806885e-01 3.054624497890472412e-01 -4.296694323420524597e-02 -3.068237900733947754e-01 -2.811662852764129639e-01 1.597920060157775879e-01
