1.922360509634017944e-01 -2.955092787742614746e-01 -6.565567106008529663e-02 -4.672256484627723694e-02 2.819410897791385651e-02 -4.100382793694734573e-03 -2.337743535463232547e-05 -5.562917515635490417e-02 3.051267266273498535e-01 -6.848786724731326103e-04 1.854809075593948364e-01 2.469808235764503479e-02 1.882510781288146973e-01 -6.076160073280334473e-02 -2.332525551319122314e-01 -2.845493257045745850e-01 -1.421978920698165894e-01 1.794218271970748901e-02 -2.067593187093734741e-01 1.242008060216903687e-01 -1.041236966848373413e-01 -2.411131411790847778e-01 4.311179369688034058e-02 -1.364809870719909668e-01 -2.284455299377441406e-01 1.645259857177734375e-01 1.210845038294792175e-01 -1.374057307839393616e-02 1.226849481463432312e-01 7.976359874010086060e-02 -1.226457655429840088e-01 1.767705380916595459e-01 -2.659727819263935089e-02 -8.859784901142120361e-02 2.173816412687301636e-01 -7.923110574483871460e-02 -3.110446333885192871e-01 2.466547675430774689e-02 -2.231439016759395599e-02 4.120055958628654480e-02 -7.291284948587417603e-02 -1.939457654953002930e-01 1.743435859680175781e-01 -1.034798324108123779e-01 1.864187233150005341e-02 -4.358005523681640625e-02 2.505991458892822266e-01 -1.029287232086062431e-03 1.178985610604286194e-01 4.185062646865844727e-02 1.345584988594055176e-01 2.862187623977661133e-01 7.199703156948089600e-02 -1.399563103914260864e-01 -2.350504845380783081e-01 5.433716997504234314e-02 1.555534601211547852e-01 2.667109966278076172e-01 -3.792262822389602661e-02 1.645988970994949341e-01 9.267206490039825439e-02 -6.524419412016868591e-03 -1.452163308858871460e-01 3.026272654533386230e-01 -9.212448447942733765e-02 -1.319032526225782931e-05 1.216602772474288940e-01 -1.214947849512100220e-01 -1.953344792127609253e-01 1.845821738243103027e-01 2.455685883760452271e-01 7.064464688301086426e-02 -1.029486581683158875e-01 -8.497595787048339844e-02 1.635273694992065430e-01 -7.971045374870300293e-02 7.574347406625747681e-02 1.087429076433181763e-01 4.641201347112655640e-02 -9.254959225654602051e-02 -5.399456247687339783e-02 -1.061573997139930725e-01 2.108952552080154419e-01 -2.211401797831058502e-02 2.788641862571239471e-02 -1.422541737556457520e-01 -8.321526646614074707e-02 1.900141686201095581e-02 9.852646617218852043e-04 -1.437145471572875977e-02 -1.633341014385223389e-01 1.857601553201675415e-01 -1.709048151969909668e-01 6.859496235847473145e-02 2.905862331390380859e-01 -9.724180400371551514e-02 1.237160786986351013e-01 1.662007421255111694e-01 8.076205849647521973e-02 7.069492340087890625e-02 6.445669103413820267e-03 -1.158289089798927307e-01 -1.376979351043701172e-01 -1.423974335193634033e-01 5.600421130657196045e-02 1.764470152556896210e-02 -1.538611832074820995e-05 4.297649953514337540e-03 -7.457396015524864197e-03 2.870951592922210693e-01 -2.164377868175506592e-01 2.786937355995178223e-01 6.424324214458465576e-02 -1.850763708353042603e-01 -7.277697324752807617e-02 9.827820211648941040e-02 5.218659341335296631e-02 -3.248365819454193115e-01 8.245892822742462158e-02 1.299582272768020630e-01
9.261844307184219360e-02 -2.439276874065399170e-01 1.058571338653564453e-01 -3.231201171875000000e-01 -2.322906255722045898e-02 6.209191866219043732e-03 -1.685390248894691467e-02 -8.538655936717987061e-03 -1.351633220911026001e-01 8.266547322273254395e-02 -9.932977263815701008e-06 9.464950300753116608e-03 -2.455808036029338837e-02 -3.026417493820190430e-01 3.475361736491322517e-04 2.136879414319992065e-01 1.674318313598632812e-01 2.303402684628963470e-02 -1.485089659690856934e-01 -2.891874685883522034e-02 -1.071997210383415222e-01 -6.258480995893478394e-02 1.369925141334533691e-01 2.670333087444305420e-01 1.340867131948471069e-01 3.483780100941658020e-02 8.285012841224670410e-02 1.308654695749282837e-01 1.124833673238754272e-01 1.640294194221496582e-01 7.577760517597198486e-02 9.176260977983474731e-02 1.372479945421218872e-01 4.957827925682067871e-02 7.748840749263763428e-02 -1.647039800882339478e-01 2.670142650604248047e-01 1.663191169500350952e-01 -9.078428847715258598e-04 5.649401992559432983e-02 2.116998843848705292e-02 -7.911798357963562012e-02 2.207985706627368927e-02 -1.223632022738456726e-01 -8.258119225502014160e-02 -1.166836842894554138e-01 1.398583799600601196e-01 2.481428980827331543e-01 1.120210215449333191e-01 -1.218334808945655823e-01 -3.871366381645202637e-02 2.344832718372344971e-01 -2.674794010818004608e-02 2.997600659728050232e-02 2.318096160888671875e-01 2.640078663825988770e-01 5.154694736120291054e-05 -8.074587583541870117e-02 -1.085194572806358337e-01 -5.616924166679382324e-02 1.484354585409164429e-01 -2.154795229434967041e-01 -2.424546182155609131e-01 8.423726260662078857e-02 -2.135018259286880493e-01 -5.806346610188484192e-02 1.202109642326831818e-02 -3.625884279608726501e-02 1.631120592355728149e-01 2.839880064129829407e-02 -1.763987988233566284e-01 1.019231900572776794e-01 -6.034976243972778320e-02 4.596566781401634216e-02 -2.151571214199066162e-01 3.396522998809814453e-02 -1.406220197677612305e-01 7.429043203592300415e-02 -8.946060389280319214e-02 6.508979946374893188e-02 -3.542599081993103027e-02 -3.293362557888031006e-01 -4.562068358063697815e-02 -1.551203131675720215e-01 2.108415210386738181e-04 -9.924528002738952637e-02 5.450789630413055420e-02 9.796810895204544067e-02 -7.877043448388576508e-03 -8.155570924282073975e-02 -1.189531683921813965e-01 -2.946254909038543701e-01 -4.729568958282470703e-02 3.346638550283387303e-05 -1.350434273481369019e-01 9.384357929229736328e-02 -1.123271062970161438e-01 5.628284439444541931e-02 -5.204356461763381958e-02 1.054449230432510376e-01 -1.279335170984268188e-01 1.139029040932655334e-01 3.220997154712677002e-01 1.827505230903625488e-01 -1.152658313512802124e-01 -7.310799509286880493e-02 -1.589567363262176514e-01 -2.427141219377517700e-01 -1.858222670853137970e-02 3.258791565895080566e-01 -7.677554618567228317e-03 -2.716038562357425690e-02 -2.967905998229980469e-01 2.045511603355407715e-01 -1.156430914998054504e-01 1.658458411693572998e-01 -5.704769119620323181e-02 2.038296461105346680e-01 2.468895912170410156e-02 -6.648349016904830933e-02
-9.033031761646270752e-02 -1.329142302274703979e-01 -1.508394598204176873e-05 -1.553779095411300659e-01 -1.325374245643615723e-01 -1.845467239618301392e-01 1.323992908000946045e-01 2.120049903169274330e-04 -1.573530491441488266e-03 -8.280342817306518555e-02 7.842722116038203239e-04 1.743023693561553955e-01 1.003900170326232910e-02 -1.249166652560234070e-01 2.257913053035736084e-01 3.247499167919158936e-01 -1.638322323560714722e-02 -1.370336562395095825e-01 5.493218079209327698e-02 2.027669362723827362e-02 1.029816493391990662e-01 -1.898888945579528809e-01 -1.095684543251991272e-01 -1.176756918430328369e-01 1.581751555204391479e-01 -9.102514386177062988e-02 -2.997211515903472900e-01 -1.106323748826980591e-01 -1.459326446056365967e-01 -5.135645717382431030e-02 -2.435139715671539307e-01 9.332882612943649292e-02 -2.387655824422836304e-01 -2.322503328323364258e-01 -2.206426579505205154e-04 -1.048622280359268188e-02 -9.373018145561218262e-02 -1.089904904365539551e-01 -2.312801405787467957e-02 -1.634936779737472534e-01 2.299054563045501709e-01 2.312180548906326294e-01 3.359231352806091309e-01 -2.840796411037445068e-01 -8.398495614528656006e-03 8.529469370841979980e-02 -1.093290839344263077e-02 7.446826202794909477e-04 -2.215395420789718628e-01 2.375414818525314331e-01 -1.778707355260848999e-01 9.479032456874847412e-02 -1.022346876561641693e-02 -5.187629908323287964e-02 4.975512251257896423e-02 -1.766630075871944427e-02 9.476638585329055786e-02 6.706157326698303223e-02 5.642200633883476257e-02 -1.188880875706672668e-01 9.812272340059280396e-02 -3.802455961704254150e-02 -1.499546760896919295e-05 -2.035252004861831665e-01 -4.401168599724769592e-02 6.816633790731430054e-02 2.280261814594268799e-01 1.607191115617752075e-01 6.271532177925109863e-02 -2.034897543489933014e-02 -1.365415751934051514e-01 7.860509306192398071e-02 7.137628585951460991e-07 -1.022083163261413574e-01 1.618987694382667542e-02 -2.406129799783229828e-02 -3.798354789614677429e-02 2.097875326871871948e-01 8.853573352098464966e-02 -9.302345663309097290e-02 1.000698208808898926e-01 -4.942313535138964653e-04 1.588292270898818970e-01 -1.336797028779983521e-01 -2.428116947412490845e-01 -6.494878232479095459e-02 6.676538288593292236e-02 7.437334209680557251e-02 4.007735115010291338e-04 1.621447354555130005e-01 -1.838516368479758967e-06 -7.351388782262802124e-02 -1.932523250579833984e-01 -8.115189522504806519e-02 1.571146547794342041e-01 -1.886980049312114716e-02 -2.590939030051231384e-02 6.217603571712970734e-03 -1.140538081526756287e-01 -1.063751205801963806e-01 2.599372267723083496e-01 4.683743789792060852e-02 2.475299388170242310e-01 2.961234748363494873e-02 -1.641333401203155518e-01 -6.138879340142011642e-03 -1.150413304567337036e-01 -2.832385003566741943e-01 -2.669300734996795654e-01 -1.029241830110549927e-02 -1.561867296695709229e-01 1.563585847616195679e-01 2.715628445148468018e-01 1.022106595337390900e-02 2.932828478515148163e-02 -2.632763385772705078e-01 -2.425977885723114014e-01 2.338467538356781006e-01 -2.812206000089645386e-02 -2.450021728873252869e-02
1.021257322281599045e-02 5.573549866676330566e-02 -1.707901060581207275e-01 7.198110222816467285e-02 1.627178043127059937e-01 1.746779233217239380e-01 3.730983436107635498e-01 -3.416340947151184082e-01 3.240394219756126404e-02 -2.392902672290802002e-01 -3.178339004516601562e-01 -2.286144196987152100e-01 1.091893613338470459e-01 -1.322981417179107666e-01 3.138575255870819092e-01 -4.467926174402236938e-02 2.033270597457885742e-01 -2.397821098566055298e-01 -1.119664683938026428e-01 1.537254359573125839e-02 -9.334982186555862427e-02 -1.443106979131698608e-01 -1.477948278188705444e-01 -1.555174589157104492e-01 4.271682724356651306e-02 2.755843997001647949e-01 1.996069252490997314e-01 1.770821362733840942e-01 1.226512566208839417e-01 1.594780385494232178e-01 -1.877791285514831543e-01 8.959113061428070068e-02 -5.632029473781585693e-02 5.466051027178764343e-02 -1.466925162822008133e-02 1.455330550670623779e-01 6.404893100261688232e-02 -2.397892326116561890e-01 1.506941616535186768e-01 -3.387939631938934326e-01 -1.215042732656002045e-02 -4.465234279632568359e-02 2.320666164159774780e-01 -5.968853831291198730e-02 2.441598176956176758e-01 -6.182683166116476059e-03 1.322128176689147949e-01 -3.169318437576293945e-01 -6.209287676028907299e-05 7.351292669773101807e-02 2.308116704225540161e-01 1.230919063091278076e-01 5.019281616114312783e-06 -2.080816961824893951e-02 -2.346103340387344360e-01 5.872513726353645325e-02 -1.442253142595291138e-01 6.064787879586219788e-02 2.011774480342864990e-01 -1.635012030601501465e-01 -1.848161220550537109e-01 2.222868949174880981e-01 1.970136314630508423e-01 -4.872086283285170794e-04 -5.552823469042778015e-02 1.091490387916564941e-01 -2.954127192497253418e-01 2.951087057590484619e-01 -1.119373440742492676e-01 5.671251565217971802e-03 -1.432370743714272976e-03 6.289052218198776245e-02 4.098451510071754456e-02 1.363694965839385986e-01 -8.660344779491424561e-02 1.516433954238891602e-01 8.339300006628036499e-02 -9.351983666419982910e-02 -8.452129804936703295e-06 -8.635122328996658325e-02 2.144723981618881226e-01 -5.796243250370025635e-02 1.186375096440315247e-01 3.449993580579757690e-02 -2.151738852262496948e-01 -1.889823377132415771e-01 -8.025461435317993164e-02 4.690144211053848267e-02 -9.196434170007705688e-02 2.534763216972351074e-01 3.296327486168593168e-05 -5.772888287901878357e-02 2.134299576282501221e-01 -1.165551245212554932e-01 7.662687450647354126e-02 -3.265610337257385254e-02 1.942205727100372314e-01 -1.388195157051086426e-01 7.245647162199020386e-02 8.296409249305725098e-02 1.706285923719406128e-01 3.216148912906646729e-02 5.361254885792732239e-02 2.306836843490600586e-01 6.737103313207626343e-02 -1.333703547716140747e-01 3.623216412961483002e-03 -1.391738206148147583e-01 6.127290800213813782e-02 6.569933146238327026e-02 -5.579902231693267822e-02 6.845878064632415771e-02 2.175771892070770264e-01 1.895416527986526489e-01 3.088261485099792480e-01 -2.634037286043167114e-02 -1.628106832504272461e-02 1.234683543443679810e-01 7.354665547609329224e-02 -1.393079906702041626e-01
4.801227897405624390e-02 2.602742016315460205e-01 -1.519383937120437622e-01 -7.923835515975952148e-02 1.474096477031707764e-01 7.190324366092681885e-02 -2.206197082996368408e-01 -6.811886280775070190e-02 1.111170426011085510e-01 -2.095817029476165771e-01 -6.287893652915954590e-02 -1.831271350383758545e-01 1.512635052204132080e-01 4.925990651827305555e-06 2.375467121601104736e-01 -1.035631727427244186e-02 -1.787081733345985413e-02 1.270647346973419189e-01 -3.848022595047950745e-02 6.218625977635383606e-02 -2.602156996726989746e-01 -1.135772168636322021e-01 -3.978592157363891602e-02 -1.198547333478927612e-01 1.960140913724899292e-01 -1.560120144858956337e-03 4.935081116855144501e-03 -1.289183553308248520e-02 -7.484996318817138672e-02 8.968304842710494995e-02 -2.219281643629074097e-01 3.229264914989471436e-02 9.900028089759871364e-06 -7.311505824327468872e-02 1.959044635295867920e-01 -2.191243765992112458e-05 1.900772377848625183e-02 -1.212271153926849365e-01 1.133201867341995239e-01 -3.933876007795333862e-02 1.607788056135177612e-01 5.522025749087333679e-02 2.699477365240454674e-03 4.379013180732727051e-02 -8.462139964103698730e-02 -1.506677567958831787e-01 -2.425951063632965088e-01 -3.018377810803940520e-06 -1.327922642230987549e-01 -2.070952951908111572e-01 7.970234751701354980e-02 -3.280571475625038147e-02 1.215427815914154053e-01 -1.041384190320968628e-01 2.355089634656906128e-01 8.001055568456649780e-02 1.126735005527734756e-02 2.959380935863009654e-06 1.813576072454452515e-01 1.439070049673318863e-02 -3.704618290066719055e-02 -5.468429997563362122e-02 9.748861938714981079e-02 1.084745116531848907e-02 2.696589529514312744e-01 1.281959414482116699e-01 7.100524008274078369e-02 5.556012690067291260e-02 -2.754005193710327148e-01 -6.341246515512466431e-02 2.983972430229187012e-01 -3.673536702990531921e-02 2.013316601514816284e-01 -2.544786036014556885e-01 1.548634618520736694e-01 -1.886321604251861572e-01 1.014899462461471558e-01 -2.177516222000122070e-01 -1.679513752460479736e-01 2.835730910301208496e-01 2.873166203498840332e-01 -2.063711583614349365e-01 7.843913882970809937e-02 -2.166308164596557617e-01 1.537727415561676025e-01 4.235529899597167969e-02 4.926760122179985046e-02 -4.173976182937622070e-02 -1.155680567026138306e-01 -2.891356125473976135e-02 9.463081508874893188e-02 -2.615273892879486084e-01 2.425923347473144531e-01 -2.286566793918609619e-01 4.252542927861213684e-02 -2.819995582103729248e-01 -2.834872528910636902e-02 -1.918675564229488373e-02 -1.652443222701549530e-02 -2.767554819583892822e-01 -1.315994113683700562e-01 6.448071449995040894e-02 1.546967774629592896e-01 1.144898608326911926e-01 1.462575793266296387e-01 -1.114283874630928040e-01 1.450511515140533447e-01 1.236545518040657043e-01 2.715267539024353027e-01 -1.694256663322448730e-01 7.874833047389984131e-02 -8.436986804008483887e-02 -1.230047717690467834e-01 -2.579929679632186890e-02 2.162992395460605621e-02 -1.166625618934631348e-01 2.804630994796752930e-01 -2.192287147045135498e-02 8.282825350761413574e-02 2.504009902477264404e-01
-1.630740910768508911e-01 -2.319084405899047852e-01 -2.096366882324218750e-02 -1.039508264511823654e-02 2.479093074798583984e-01 -1.453249901533126831e-01 7.038422673940658569e-02 -1.697871834039688110e-01 -6.937058642506599426e-03 -4.440337419509887695e-02 2.345675975084304810e-01 1.277675181627273560e-01 -2.597548812627792358e-02 -4.910027608275413513e-02 4.873685538768768311e-02 -1.961889574886299670e-05 2.219460457563400269e-01 -1.328603178262710571e-02 1.559812873601913452e-01 1.044267974793910980e-02 -1.361987143754959106e-01 -9.817236103117465973e-03 -8.884819224476814270e-03 -1.091570779681205750e-01 -2.301844060420989990e-01 -1.405918449163436890e-01 -1.567987799644470215e-01 -2.229214310646057129e-01 -2.054903954267501831e-01 1.067675575613975525e-01 -1.558936089277267456e-01 2.658866643905639648e-01 -1.461450383067131042e-02 1.075532659888267517e-01 -2.494487352669239044e-02 1.050381064414978027e-01 -4.303815960884094238e-02 2.795634604990482330e-02 -1.484000533819198608e-01 1.529390551149845123e-02 4.497281461954116821e-02 -1.570594310760498047e-01 -5.818489193916320801e-02 5.849843844771385193e-02 2.318378090858459473e-01 -2.950675487518310547e-01 1.570493578910827637e-01 -3.989879041910171509e-02 -3.453747034072875977e-01 -2.290169522166252136e-02 -3.075272962450981140e-02 -2.747103273868560791e-01 6.200972199440002441e-02 2.991496957838535309e-02 5.559559166431427002e-02 1.166746392846107483e-01 1.064333766698837280e-01 1.063157916069030762e-01 -2.618395090103149414e-01 2.645310163497924805e-01 1.120079159736633301e-01 1.809681951999664307e-02 -6.659386307001113892e-02 7.837967574596405029e-02 -3.878433723002672195e-03 -1.970069855451583862e-01 -2.544073620811104774e-03 1.259315013885498047e-01 2.314028590917587280e-01 -6.536768523801583797e-06 -9.022416919469833374e-02 -1.176611706614494324e-01 2.601980268955230713e-01 -6.797131150960922241e-02 -4.638496413826942444e-02 -4.835094511508941650e-02 1.093978360295295715e-01 5.152245983481407166e-02 1.240347864950308576e-05 1.203146725893020630e-01 -2.334614992141723633e-01 -2.459227591753005981e-01 -2.473072856664657593e-01 2.286719977855682373e-01 1.778247579932212830e-02 7.034353911876678467e-02 -2.383740842342376709e-01 7.536718249320983887e-02 -4.929972067475318909e-02 -6.056132726371288300e-03 -2.874951660633087158e-01 -1.671597510576248169e-01 3.528492748737335205e-01 1.614422500133514404e-01 2.683695219457149506e-02 1.193253174424171448e-01 1.478159725666046143e-01 1.130623966455459595e-01 2.707706689834594727e-01 1.639112383127212524e-01 -2.024484127759933472e-01 1.310048082814319059e-05 9.749218076467514038e-02 7.946050573082175106e-08 2.173941768705844879e-02 -1.966541111469268799e-01 -2.474429756402969360e-01 -3.329741582274436951e-02 -5.646220222115516663e-02 -6.146209686994552612e-02 -1.252455711364746094e-01 -2.510367333889007568e-02 -2.674124538898468018e-01 -3.144489526748657227e-01 1.196269132196903229e-02 9.142243862152099609e-02 2.668172121047973633e-02 2.232573569926898926e-05 -2.845156788825988770e-01 -2.610853910446166992e-01
-3.010169789195060730e-02 -5.314211919903755188e-02 1.484140306711196899e-01 -7.235456258058547974e-02 1.733871698379516602e-01 -6.455457955598831177e-02 -9.939728677272796631e-02 -2.163435146212577820e-02 -2.913669310510158539e-02 2.835566401481628418e-01 -5.266868975013494492e-03 2.019543200731277466e-01 -1.726301270537078381e-03 -3.148513287305831909e-02 9.493114799261093140e-02 4.255228675901889801e-03 -2.858460545539855957e-01 1.545552015304565430e-01 5.270252004265785217e-02 1.118142623454332352e-02 -5.743069574236869812e-02 -1.473661512136459351e-01 -2.156443595886230469e-01 6.894244998693466187e-02 -5.061112344264984131e-03 1.994228214025497437e-01 6.171100214123725891e-02 6.266057491302490234e-02 -2.304778397083282471e-01 -2.121723294258117676e-01 1.607660502195358276e-01 1.432751864194869995e-01 2.123282849788665771e-01 5.727247148752212524e-02 3.377340435981750488e-01 3.505694493651390076e-02 -1.037406921386718750e-01 -4.916582629084587097e-02 -5.415732041001319885e-02 2.278249710798263550e-01 1.112677156925201416e-01 -1.647020876407623291e-02 -5.592999979853630066e-02 -2.151440456509590149e-02 -1.000179573893547058e-01 1.324779838323593140e-01 -1.904596090316772461e-01 4.823292791843414307e-02 7.134672999382019043e-02 -1.119040399789810181e-01 1.792600005865097046e-01 1.286465767771005630e-02 -2.694449424743652344e-01 1.995720528066158295e-02 4.839316010475158691e-03 -2.344111502170562744e-01 -3.030502796173095703e-01 1.503463089466094971e-01 1.536373794078826904e-01 7.744349539279937744e-02 -1.673256307840347290e-01 -2.633269689977169037e-02 -4.270602390170097351e-02 -1.162992268800735474e-01 1.868923008441925049e-01 7.662340998649597168e-02 1.618654578924179077e-01 3.116600215435028076e-02 1.907985508441925049e-01 9.263348579406738281e-02 -9.281375259160995483e-02 2.346410304307937622e-01 1.585875004529953003e-01 -5.997411161661148071e-02 3.215109184384346008e-02 7.113382220268249512e-02 1.589965224266052246e-01 -2.515079081058502197e-01 -6.460579484701156616e-02 -1.675513684749603271e-01 -1.178119257092475891e-01 1.994193345308303833e-02 2.464185506105422974e-01 5.392896756529808044e-02 2.609010338783264160e-01 -1.687926985323429108e-02 2.923625409603118896e-01 -7.862351089715957642e-02 2.000000560656189919e-03 -3.064626455307006836e-02 2.818080782890319824e-01 -1.587119698524475098e-02 2.503129243850708008e-01 8.114159754768479615e-06 -1.406227201223373413e-01 -1.037458106875419617e-01 -1.636660546064376831e-01 2.582999467849731445e-01 2.512607276439666748e-01 2.521757967770099640e-02 8.428739383816719055e-03 -2.913489341735839844e-01 -4.710172489285469055e-02 -9.485369175672531128e-02 -2.628457546234130859e-01 -1.174754872918128967e-01 -1.465412080287933350e-01 3.275841847062110901e-02 -1.939738839864730835e-01 -1.520763430744409561e-02 3.414174914360046387e-01 7.104655355215072632e-02 1.880402117967605591e-01 2.240392118692398071e-01 2.837971448898315430e-01 1.562060242576990277e-05 -5.352660082280635834e-05 -8.465566672384738922e-03 -2.047041356563568115e-01 -1.491804867982864380e-01
1.155717596411705017e-01 4.051763936877250671e-02 5.203204974532127380e-02 -8.072889409959316254e-03 8.784690499305725098e-02 3.669207543134689331e-02 8.127592504024505615e-02 -3.181316852569580078e-01 -7.257103454321622849e-03 1.231650933623313904e-01 -3.787798050325363874e-06 -1.873389333486557007e-01 2.039094120264053345e-01 4.695164039731025696e-02 -5.612824857234954834e-02 4.813763871788978577e-02 -1.706039905548095703e-01 2.157256007194519043e-01 5.940869450569152832e-02 -9.811510145664215088e-02 -4.003706574440002441e-02 -2.751747369766235352e-01 1.533102840767242014e-05 -8.608676493167877197e-02 -2.255656272172927856e-01 -3.160052374005317688e-02 -1.990053430199623108e-02 -7.112771272659301758e-02 -2.000436037778854370e-01 1.803684681653976440e-01 1.786673665046691895e-01 -3.431741595268249512e-01 1.827296167612075806e-01 4.279728978872299194e-02 -9.038888663053512573e-02 -9.142369776964187622e-02 -3.422052264213562012e-01 -1.195916831493377686e-01 -2.557633221149444580e-01 -2.196549624204635620e-01 5.882549565285444260e-03 -7.911257445812225342e-02 6.999447196722030640e-02 4.763993620872497559e-02 -4.188079014420509338e-02 -4.262387380003929138e-02 -1.618482619524002075e-01 -6.418508564820513129e-05 1.025623455643653870e-01 -4.710923880338668823e-02 -7.476825267076492310e-02 1.639876216650009155e-01 -1.294689923524856567e-01 1.177007034420967102e-01 1.682883687317371368e-02 -4.706529900431632996e-02 2.221499234437942505e-01 3.511122614145278931e-02 6.732922047376632690e-02 1.024106591939926147e-01 1.183781474828720093e-01 2.031857669353485107e-01 1.702529494650661945e-03 1.843383163213729858e-02 2.591965198516845703e-01 -1.707824761979281902e-03 3.778099268674850464e-02 -8.804880827665328979e-02 7.393928617238998413e-02 -1.065251380205154419e-01 -2.641233503818511963e-01 -3.662786260247230530e-02 1.183565035462379456e-01 1.062820851802825928e-02 -3.006307175382971764e-03 1.741176098585128784e-01 1.449854522943496704e-01 1.842471957206726074e-01 1.328091323375701904e-01 5.822054110467433929e-03 -2.258592844009399414e-01 1.005898341536521912e-01 7.204258441925048828e-02 2.737331204116344452e-02 -1.713148951530456543e-01 -2.082482725381851196e-01 6.969857029616832733e-03 4.237885400652885437e-02 -2.568081766366958618e-02 -2.384880334138870239e-01 5.024390667676925659e-02 -3.460942480160156265e-06 -1.876006424427032471e-01 5.445457249879837036e-02 2.862835228443145752e-01 5.860943719744682312e-02 2.289482392370700836e-02 -2.444312348961830139e-02 1.997729949653148651e-02 1.362714469432830811e-01 2.894176170229911804e-02 1.980886554520111531e-05 9.580251574516296387e-02 1.226409676746698096e-05 -1.049486622214317322e-01 2.786507308483123779e-01 2.729651890695095062e-02 1.036332547664642334e-01 -7.018227875232696533e-02 1.578438282012939453e-01 1.308438479900360107e-01 3.391793370246887207e-01 -3.498307615518569946e-02 -4.179342836141586304e-02 -1.072943285107612610e-01 -1.663317084312438965e-01 -9.380477666854858398e-02 -1.823929399251937866e-01 2.061311751604080200e-01 1.604788452386856079e-01
2.619466185569763184e-01 -4.132297544856555760e-05 -3.659359365701675415e-02 2.513599693775177002e-01 2.213623821735382080e-01 -1.719125956296920776e-01 2.441517710685729980e-01 -1.932283043861389160e-01 -6.948607414960861206e-02 -1.557584106922149658e-01 -1.304814964532852173e-02 1.495470255613327026e-01 6.274668127298355103e-02 -1.968045830726623535e-01 2.921451330184936523e-01 -2.576052248477935791e-01 -8.666957169771194458e-02 -4.745607823133468628e-02 -1.511538494378328323e-02 -9.655986726284027100e-02 -1.390610039234161377e-01 9.339585900306701660e-02 -1.609644442796707153e-01 -6.185383349657058716e-02 1.493270415812730789e-02 -2.697409689426422119e-01 2.096613347530364990e-01 2.410139143466949463e-01 4.860493913292884827e-02 -6.235566362738609314e-02 -6.638774275779724121e-02 -3.299827128648757935e-02 3.234573826193809509e-02 2.323906123638153076e-01 -9.152989089488983154e-02 -2.710573971271514893e-01 2.180591225624084473e-01 9.239046275615692139e-02 1.038743704557418823e-01 2.502548992633819580e-01 1.470312774181365967e-01 -2.131659835577011108e-01 1.415439397096633911e-01 -3.771174699068069458e-02 6.799788028001785278e-02 1.328093409538269043e-01 2.546764537692070007e-02 -5.915495567023754120e-03 -2.656553089618682861e-01 1.625188998878002167e-02 -1.679077297449111938e-01 7.570721954107284546e-02 5.782875046133995056e-02 9.183623827993869781e-03 -2.743236161768436432e-02 -1.196648180484771729e-02 1.244678050279617310e-01 -1.315084397792816162e-01 -2.752428054809570312e-01 -1.952595859766006470e-01 1.423834562301635742e-01 1.838612115534488112e-05 4.153339192271232605e-02 2.406236529350280762e-01 6.290380842983722687e-03 -2.054456062614917755e-02 -2.360593341290950775e-02 -2.980817258358001709e-01 1.421212702989578247e-01 -4.025841504335403442e-02 7.037028204649686813e-03 2.429546862840652466e-01 4.632077366113662720e-02 9.255374781787395477e-03 -1.329409331083297729e-01 -1.173427253961563110e-01 -5.187648907303810120e-02 2.442528605461120605e-01 1.951509118080139160e-01 5.221469327807426453e-02 -1.105053797364234924e-01 -6.041898578405380249e-02 2.785248681902885437e-02 -1.200071200728416443e-01 9.272668510675430298e-03 7.221156358718872070e-02 4.110541939735412598e-02 -1.446940898895263672e-01 -1.274131834506988525e-01 -2.022976428270339966e-02 1.202219203114509583e-01 -3.334261775016784668e-01 -8.059145882725715637e-03 1.648818701505661011e-01 -1.136163994669914246e-01 -3.997894749045372009e-02 -5.068829283118247986e-02 -1.842870265245437622e-01 -2.788882851600646973e-01 -2.255021333694458008e-01 -1.588701456785202026e-01 -1.082696765661239624e-01 1.072292700409889221e-01 -2.903281524777412415e-02 1.657495275139808655e-02 -2.137050777673721313e-02 6.356749683618545532e-02 -9.840635955333709717e-02 -3.721966966986656189e-02 1.407933384180068970e-01 3.179524210281670094e-04 2.344855368137359619e-01 3.722821921110153198e-02 1.829617321491241455e-01 2.335374802350997925e-01 -2.929345071315765381e-01 2.565307356417179108e-02 3.694484755396842957e-02 5.537237972021102905e-02 3.359020128846168518e-02
-9.919206798076629639e-02 6.887309253215789795e-02 4.699133336544036865e-02 6.196685880422592163e-02 9.866342693567276001e-02 5.196855962276458740e-02 -8.424204774200916290e-03 -1.025257557630538940e-01 -1.826181113719940186e-01 -1.678199917078018188e-01 2.035052478313446045e-01 -1.428514271974563599e-01 4.267509281635284424e-02 -1.602946370840072632e-01 -8.711276203393936157e-02 -1.054665744304656982e-01 -8.034107834100723267e-02 1.512642651796340942e-01 -9.666679054498672485e-02 2.371469438076019287e-01 1.796504855155944824e-01 -9.230711311101913452e-02 -6.817086040973663330e-02 1.431210152804851532e-02 4.245350137352943420e-02 9.163794666528701782e-02 4.174891859292984009e-02 5.818324163556098938e-02 -2.605130895972251892e-02 -7.626840472221374512e-02 1.750790178775787354e-01 1.413759291172027588e-01 5.084554851055145264e-02 2.920075654983520508e-01 2.613882422447204590e-01 -3.358745574951171875e-02 8.941570669412612915e-02 8.862101286649703979e-02 -6.750505417585372925e-03 -6.617507338523864746e-02 9.708567708730697632e-02 1.271277549676597118e-03 -3.326952457427978516e-02 -2.934257686138153076e-01 1.142432317137718201e-01 -2.673162221908569336e-01 5.202709510922431946e-02 2.416892349720001221e-01 -2.660202383995056152e-01 -1.144923493266105652e-01 9.226308017969131470e-02 -2.281039394438266754e-02 -1.691262871026992798e-01 2.593841552734375000e-01 6.933876127004623413e-02 1.922812759876251221e-01 3.547715395689010620e-02 -1.108890101313591003e-01 3.560181357897818089e-05 -3.069070279598236084e-01 -3.125942051410675049e-01 8.973663672804832458e-03 3.568745255470275879e-01 -1.947854757308959961e-01 1.337489932775497437e-01 9.725451469421386719e-02 8.717975765466690063e-02 7.146558165550231934e-02 4.649674147367477417e-02 1.455238014459609985e-01 1.296988129615783691e-01 -1.064593121409416199e-01 1.666025966405868530e-01 1.720871478319168091e-01 -9.747710824012756348e-02 -1.689146012067794800e-01 1.130275707691907883e-02 -2.370195686817169189e-01 -1.267523318529129028e-01 8.709165453910827637e-02 -9.912153705954551697e-03 9.228480607271194458e-02 -5.578767880797386169e-02 -2.938644587993621826e-01 1.035956013947725296e-02 -1.979726403951644897e-01 5.876997485756874084e-02 1.458791792392730713e-01 -3.367761895060539246e-02 8.124688267707824707e-02 1.300833970308303833e-01 5.957277491688728333e-02 -5.965664237737655640e-02 8.044651150703430176e-02 -1.416087299585342407e-01 -1.442807912826538086e-01 6.101976707577705383e-02 -7.513525336980819702e-02 -3.086855411529541016e-01 2.858445048332214355e-01 1.027128994464874268e-01 1.778228215698618442e-05 3.168102502822875977e-01 -1.225099276780383661e-05 1.968155242502689362e-02 -1.845307052135467529e-01 2.274264544248580933e-01 1.168454065918922424e-01 -6.682503968477249146e-02 -1.299161314964294434e-01 -1.989983916282653809e-01 2.075739800930023193e-01 9.292533832194749266e-06 9.630311280488967896e-02 -3.489184752106666565e-02 2.254036627709865570e-02 3.830616362392902374e-03 1.498848795890808105e-01 1.531673222780227661e-01 2.878690659999847412e-01
1.458369046449661255e-01 -1.206552702933549881e-02 -8.155118674039840698e-02 -4.424974395078606904e-05 -9.906055033206939697e-02 8.399304002523422241e-02 -1.055568084120750427e-01 2.157027721405029297e-01 1.586774736642837524e-01 -2.375465817749500275e-02 5.942163170402636752e-07 -4.417035356163978577e-02 1.782114952802658081e-01 -1.796671450138092041e-01 1.404787451028823853e-01 -1.741737276315689087e-01 2.734758853912353516e-01 3.829192428383976221e-05 2.439872361719608307e-02 9.689856320619583130e-02 -7.651636749505996704e-02 -1.675562262535095215e-01 -1.776981204748153687e-01 1.115085780620574951e-01 1.026280149817466736e-01 -1.340256333351135254e-01 -1.885755546391010284e-02 -9.171205759048461914e-02 -1.205727905035018921e-01 -1.474609673023223877e-01 3.716143965721130371e-02 -4.363981075584888458e-03 1.891468465328216553e-01 -1.372777856886386871e-02 1.105873808264732361e-01 -5.430505052208900452e-02 -1.558167636394500732e-01 1.551281064748764038e-01 1.883611530065536499e-01 5.474299192428588867e-02 -2.256853878498077393e-01 -2.593627274036407471e-01 -1.317119449377059937e-01 -8.865118771791458130e-02 7.673467695713043213e-02 -9.066365237231366336e-06 -6.062624379410408437e-05 1.503598690032958984e-01 -1.701218541711568832e-03 -1.369201987981796265e-01 -1.151086837053298950e-01 -1.368348952382802963e-02 -8.637424558401107788e-02 2.455797279253602028e-03 -3.896852210164070129e-02 1.032327190041542053e-01 -2.002114206552505493e-01 -3.766752779483795166e-02 4.918722063302993774e-02 -1.266057640314102173e-01 -4.885359480977058411e-02 -8.015088737010955811e-02 -8.605341613292694092e-02 3.423408865928649902e-01 1.979843229055404663e-01 -1.431213170289993286e-01 1.352394223213195801e-01 2.461579889059066772e-01 -1.884394288063049316e-01 1.217370554804801941e-01 -2.809311263263225555e-02 -1.560085266828536987e-01 3.146341303363442421e-03 -1.229835953563451767e-02 -4.793086647987365723e-02 -1.318881809711456299e-01 1.793678998947143555e-01 -1.247586235404014587e-01 -2.523659542202949524e-02 -7.206574827432632446e-02 -2.383677512407302856e-01 -3.924984112381935120e-02 2.617530226707458496e-01 -2.448182702064514160e-01 -5.331022475729696453e-05 1.344782263040542603e-01 -1.103860065340995789e-01 -6.707491725683212280e-02 -6.731952453264966607e-05 1.029235869646072388e-02 1.181916221976280212e-01 1.066709775477647781e-02 -7.519063353538513184e-02 1.424685567617416382e-01 -1.116619259119033813e-01 6.561069935560226440e-02 6.123917549848556519e-02 8.157282136380672455e-03 8.742325939238071442e-03 1.061689704656600952e-01 1.148351728916168213e-01 -1.157021642939071171e-06 -3.098483756184577942e-02 -7.660192251205444336e-02 -4.136239737272262573e-02 3.496057540178298950e-02 1.949794590473175049e-01 -3.767368569970130920e-02 8.052465505897998810e-03 -1.757487952709197998e-01 1.316443532705307007e-01 -3.441720083355903625e-02 5.680748447775840759e-02 5.486925510922446847e-05 -2.542981803417205811e-01 -2.996651455760002136e-02 -3.678808733820915222e-02 9.396138787269592285e-02 3.213253915309906006e-01 -1.452543139457702637e-01
1.247529834508895874e-01 3.319053351879119873e-01 -2.821256220340728760e-01 2.393657863140106201e-01 -1.039011254906654358e-01 -1.093192473053932190e-01 -1.777252554893493652e-01 2.478290945291519165e-01 -2.327921837568283081e-01 -2.491939230822026730e-04 -3.686379641294479370e-02 -1.246896982192993164e-01 3.622282296419143677e-02 -1.150946915149688721e-01 -9.078301489353179932e-03 4.188744723796844482e-02 -2.194361016154289246e-02 6.262128055095672607e-02 -6.417300552129745483e-02 -6.492593139410018921e-02 1.799491941928863525e-01 -2.831144928932189941e-01 1.004019379615783691e-01 5.588704720139503479e-02 1.370590180158615112e-01 -3.034120500087738037e-01 -2.040298841893672943e-02 -5.950969830155372620e-02 -3.044542372226715088e-01 1.451650708913803101e-01 -2.797667682170867920e-01 8.463321253657341003e-03 1.085080653429031372e-01 -2.697768807411193848e-01 -1.638987064361572266e-01 3.789175674319267273e-02 6.256999075412750244e-02 -2.835642099380493164e-01 1.122805699706077576e-01 -1.814262270927429199e-01 -7.839695364236831665e-02 -5.985657498240470886e-02 7.203832268714904785e-02 1.221851333975791931e-01 1.226977705955505371e-01 -2.058569639921188354e-01 1.276078671216964722e-01 -9.468547999858856201e-02 2.670660251169465482e-05 7.936901599168777466e-02 6.187080871313810349e-03 4.121817648410797119e-02 5.300685390830039978e-02 2.938869893550872803e-01 1.473277956247329712e-01 1.692399084568023682e-01 -2.195705622434616089e-01 4.038517829030752182e-03 8.333399146795272827e-02 6.230415031313896179e-02 -1.005368540063500404e-03 -1.660019457340240479e-01 2.965212464332580566e-01 -9.274719655513763428e-02 5.055106803774833679e-02 2.410330995917320251e-02 -1.570462435483932495e-01 4.701001671492122114e-06 6.979800760746002197e-02 3.995772451162338257e-02 5.824607983231544495e-02 -1.279856860637664795e-01 -3.404331207275390625e-01 -3.164245188236236572e-01 1.653688549995422363e-01 8.099888265132904053e-02 1.638491153717041016e-01 -1.413629353046417236e-01 -2.973540872335433960e-02 -2.249807417392730713e-01 -1.901568621397018433e-01 2.554404921829700470e-02 1.757849939167499542e-02 -2.238323092460632324e-01 5.539317429065704346e-02 -1.167225614190101624e-01 -1.732602156698703766e-02 2.048913985490798950e-01 1.179921091534197330e-03 2.175296992063522339e-01 2.610055208206176758e-01 1.316962540149688721e-01 -2.711088769137859344e-02 3.120140135288238525e-01 -7.346163690090179443e-02 7.325097918510437012e-02 1.603969037532806396e-01 -1.389253884553909302e-01 9.984719799831509590e-04 -9.937290847301483154e-02 -1.043829619884490967e-01 -1.645070463418960571e-01 1.920983493328094482e-01 2.112871967256069183e-02 1.137833818793296814e-01 -2.041743397712707520e-01 -1.984771937131881714e-01 5.930593982338905334e-02 -3.143241703510284424e-01 8.667532711115200073e-06 3.414433896541595459e-01 4.314344748854637146e-02 2.052109455689787865e-03 1.149933934211730957e-01 4.172109067440032959e-02 -2.170185446739196777e-01 1.471210867166519165e-01 -9.692029654979705811e-02 -2.898219525814056396e-01 2.228716611862182617e-01
-8.336505293846130371e-02 9.159479290246963501e-02 -4.830392822623252869e-02 9.322098456323146820e-03 6.596478074789047241e-02 -2.298824489116668701e-01 9.598238766193389893e-02 -2.005206793546676636e-01 5.436020344495773315e-02 1.330997347831726074e-01 1.230576783418655396e-01 1.500234659761190414e-02 1.929965615272521973e-01 2.542392350733280182e-03 -7.275291532278060913e-02 2.922563850879669189e-01 -9.289353340864181519e-02 -2.154909819364547729e-02 -9.174770861864089966e-02 1.008617505431175232e-01 2.747949957847595215e-01 -1.510628312826156616e-01 -2.973080575466156006e-01 3.945409879088401794e-02 -1.372386664152145386e-01 1.665947139263153076e-01 7.276904582977294922e-02 6.156399380415678024e-03 -1.234075869433581829e-03 1.283135952689917758e-05 -1.494275875302264467e-05 1.650706976652145386e-01 2.404776774346828461e-02 1.562885791063308716e-01 3.577792644500732422e-02 2.828245051205158234e-02 -1.195719316601753235e-01 6.142672523856163025e-02 -4.035126045346260071e-02 2.755444347858428955e-01 1.581207662820816040e-01 -1.211588159203529358e-01 -6.063370779156684875e-02 -1.736461669206619263e-01 9.851437062025070190e-02 1.060206890106201172e-01 2.839706939994357526e-05 4.477062821388244629e-02 -1.405724585056304932e-01 2.691519856452941895e-01 5.796070396900177002e-02 1.878832876682281494e-01 -1.223507225513458252e-01 -4.888689890503883362e-02 2.569325268268585205e-01 1.870595663785934448e-02 2.218558639287948608e-01 2.175262719392776489e-01 -8.137295953929424286e-03 1.893195360898971558e-01 2.481002546846866608e-02 1.304622460156679153e-02 -7.791965454816818237e-02 2.487680017948150635e-01 -1.849955022335052490e-01 -2.932595647871494293e-02 -2.326669096946716309e-01 -1.282913833856582642e-01 -1.066458295099437237e-03 -6.442908942699432373e-02 9.886009246110916138e-02 1.691274046897888184e-01 1.581995785236358643e-01 1.879674345254898071e-01 1.133578494191169739e-01 2.284706011414527893e-02 4.425845667719841003e-02 -1.507737920292129274e-06 -8.418809622526168823e-02 2.191336899995803833e-01 -1.367223113775253296e-01 1.936248540878295898e-01 -2.347645461559295654e-01 8.542517572641372681e-02 -2.033627480268478394e-01 8.860500156879425049e-02 5.367036908864974976e-02 -1.138326246291399002e-02 -8.135813474655151367e-02 1.037998311221599579e-02 2.504101991653442383e-01 -6.919784843921661377e-02 -1.723731309175491333e-01 -8.306030929088592529e-02 1.601991057395935059e-01 -1.820076815783977509e-02 1.038484051823616028e-01 -1.213869601488113403e-01 4.501882940530776978e-02 -6.472618877887725830e-02 1.452555805444717407e-01 2.422513663768768311e-01 1.705684065818786621e-01 -4.480849578976631165e-02 5.153248086571693420e-02 8.264420181512832642e-02 -1.444638073444366455e-01 -1.055885478854179382e-01 1.141128037124872208e-02 -7.708189636468887329e-02 8.964969962835311890e-02 2.816725522279739380e-02 -2.928906679153442383e-01 2.267905473709106445e-01 -8.034474402666091919e-02 1.446396857500076294e-01 5.144218355417251587e-02 2.415344864130020142e-01 6.884884089231491089e-03 2.459618300199508667e-01
3.230337202548980713e-01 1.378828380256891251e-02 1.209507435560226440e-01 -2.061394974589347839e-02 3.361494466662406921e-02 5.123966839164495468e-03 1.810544878244400024e-01 6.841399706900119781e-03 5.122190713882446289e-02 1.277790814638137817e-01 -3.840834647417068481e-02 -3.489814996719360352e-01 -1.629303097724914551e-01 -1.074004918336868286e-01 -1.681271493434906006e-01 1.097195036709308624e-02 -1.452525258064270020e-01 1.496769189834594727e-01 -1.292821466922760010e-01 1.314234584569931030e-01 7.842621207237243652e-02 1.497939527034759521e-01 7.495811581611633301e-02 2.393177598714828491e-01 3.135577775537967682e-03 -5.940562486648559570e-02 -2.545406222343444824e-01 -4.816229455173015594e-03 -6.319873034954071045e-02 8.788140118122100830e-02 3.434855639934539795e-01 -3.029665946960449219e-01 1.567595899105072021e-01 -1.894871592521667480e-01 2.398571819067001343e-01 2.536599151790142059e-02 1.773151308298110962e-01 8.052205294370651245e-02 -3.437643945217132568e-01 -7.329428568482398987e-03 9.278978407382965088e-02 -1.034121364355087280e-01 -1.378858238458633423e-01 -6.582844257354736328e-02 1.328856647014617920e-01 2.778792679309844971e-01 5.912373773753643036e-03 4.613493010401725769e-02 -4.693186655640602112e-02 1.700759679079055786e-01 1.815675646066665649e-01 -1.286582350730895996e-01 7.915738970041275024e-02 -1.254335790872573853e-02 -1.412510126829147339e-02 8.804813772439956665e-02 4.230650514364242554e-02 -6.188357248902320862e-02 -1.219511628150939941e-01 1.597846597433090210e-01 5.410870537161827087e-02 -1.035756245255470276e-02 9.604430198669433594e-02 2.309874445199966431e-02 -1.093774586915969849e-01 -9.216011315584182739e-02 2.668942790478467941e-03 5.106700118631124496e-03 -1.020791530609130859e-01 2.710266709327697754e-01 -3.199853897094726562e-01 -1.467099785804748535e-02 1.204140707850456238e-01 -3.455864191055297852e-01 -1.156047061085700989e-01 -6.851078569889068604e-02 1.144658401608467102e-01 2.798252403736114502e-01 8.104322850704193115e-02 1.312523335218429565e-01 -1.400174796581268311e-01 1.119615510106086731e-01 8.797406405210494995e-02 -8.218304067850112915e-02 1.715320795774459839e-01 8.111652918159961700e-03 5.963535979390144348e-02 -2.498371340334415436e-02 1.760816723108291626e-01 -3.268669126555323601e-03 -2.590780518949031830e-02 1.730373203754425049e-01 9.211420267820358276e-02 1.556513905525207520e-01 3.208909034729003906e-01 4.269942175596952438e-03 2.846308611333370209e-02 7.523918151855468750e-02 -1.319908499717712402e-01 1.582455188035964966e-01 3.698265179991722107e-02 -3.102854192256927490e-01 -1.050183400511741638e-01 -9.951479732990264893e-02 -2.907205820083618164e-01 2.174350172281265259e-01 1.038571447134017944e-01 4.859402775764465332e-02 -2.434684894979000092e-02 -2.266734242439270020e-01 1.668972373008728027e-01 -2.140461951494216919e-01 9.845532476902008057e-02 1.300691366195678711e-01 2.173491567373275757e-02 -9.008558839559555054e-02 8.758710324764251709e-02 6.136095523834228516e-02 -4.328386485576629639e-02 -9.206035733222961426e-02
-1.374202519655227661e-01 7.307513058185577393e-02 -6.465598940849304199e-02 5.565358878811821342e-05 1.336982753127813339e-02 3.443657653406262398e-03 2.247310709208250046e-03 -1.808249354362487793e-01 1.264086645096540451e-02 -2.621693350374698639e-02 -7.863482832908630371e-02 -1.562591046094894409e-01 -1.531179845333099365e-01 1.365983933210372925e-01 3.071798244491219521e-03 3.547819703817367554e-02 2.035401761531829834e-01 -7.202354818582534790e-02 4.657639947254210711e-04 6.462022662162780762e-02 3.849950060248374939e-02 3.339613378047943115e-01 4.840085655450820923e-02 -1.340127885341644287e-01 -3.408719226717948914e-02 2.684914469718933105e-01 1.042829006910324097e-01 -4.537460207939147949e-02 -2.362605743110179901e-02 1.406895071268081665e-01 -1.787162764230743051e-04 2.310219556093215942e-01 1.407676786184310913e-01 -1.007347460836172104e-02 4.244836047291755676e-02 -2.092461436986923218e-01 -2.110199779272079468e-01 -6.391454953700304031e-03 -1.830033957958221436e-01 -4.402880743145942688e-02 -1.057441830635070801e-01 1.143123880028724670e-01 -1.665704076003748924e-05 1.323202624917030334e-02 -1.097118831239640713e-03 3.638128936290740967e-02 -1.885613501071929932e-01 3.079988956451416016e-01 -6.217623129487037659e-03 2.167811095714569092e-01 -4.586333036422729492e-02 -2.665839157998561859e-03 1.614162884652614594e-02 1.421860456466674805e-01 1.076354756951332092e-01 1.972557418048381805e-02 4.294893005862832069e-04 6.303758174180984497e-02 5.859048292040824890e-02 -2.650317251682281494e-01 -1.060807853937149048e-01 3.387735784053802490e-02 -4.960047826170921326e-02 2.726568579673767090e-01 1.096574515104293823e-01 6.394920546881621704e-06 1.934427171945571899e-01 -1.543983072042465210e-01 -4.279655218124389648e-02 1.067159920930862427e-01 -3.054240019991993904e-03 8.025496453046798706e-02 -1.786000877618789673e-01 1.777210831642150879e-02 -1.606748998165130615e-01 4.195532947778701782e-02 -1.481569558382034302e-01 1.160211116075515747e-01 -2.501122280955314636e-02 6.086021289229393005e-02 -2.757290750741958618e-02 3.142699599266052246e-02 -1.405389010906219482e-01 -1.807985603809356689e-01 -1.860889047384262085e-01 -1.328711062669754028e-01 1.244513690471649170e-02 2.715702354907989502e-01 -3.737552091479301453e-02 -1.573160141706466675e-01 6.611255556344985962e-02 1.867805272340774536e-01 4.410225152969360352e-02 -1.253865957260131836e-01 6.980145722627639771e-02 1.523538827896118164e-01 -4.195440188050270081e-02 -1.833705753087997437e-01 1.912680715322494507e-01 2.979177981615066528e-02 7.395856827497482300e-02 -5.148223863216117024e-06 1.902274340391159058e-01 4.288494819775223732e-04 -1.666047871112823486e-01 1.261371001601219177e-02 -7.008326798677444458e-02 2.182969748973846436e-01 9.227623231709003448e-03 2.703221142292022705e-02 -1.128151565790176392e-01 1.246263310313224792e-01 2.160035222768783569e-01 -2.197649776935577393e-01 2.548525631427764893e-01 3.990060463547706604e-02 -6.870754063129425049e-02 1.626235842704772949e-01 1.230174899101257324e-01 1.809253841638565063e-01
2.217702418565750122e-01 1.673737615346908569e-01 -1.088231801986694336e-01 -6.701958179473876953e-02 1.597400754690170288e-01 -3.065104596316814423e-02 2.247977107763290405e-01 -9.504131972789764404e-02 -3.663017973303794861e-02 2.104434557259082794e-02 -3.938772901892662048e-02 -1.319730132818222046e-01 2.693140134215354919e-02 6.148342788219451904e-02 2.240222245454788208e-01 2.294236272573471069e-01 1.519750003353692591e-05 -4.737592488527297974e-02 -1.040535643696784973e-01 3.907119110226631165e-02 1.318221166729927063e-02 -1.250748336315155029e-01 -1.277140080928802490e-01 -5.521835386753082275e-02 3.484622866380959749e-04 2.541916072368621826e-02 -5.009329470340162516e-06 1.237295195460319519e-01 6.200238317251205444e-02 2.071304917335510254e-01 1.402973830699920654e-01 7.253587990999221802e-02 -8.822578936815261841e-02 -1.022956296801567078e-01 1.235635355114936829e-01 -8.299834281206130981e-02 -3.343642503023147583e-02 -1.418488025665283203e-01 1.876195222139358521e-01 4.573073610663414001e-02 -1.767693832516670227e-02 -1.915970146656036377e-01 1.000749990344047546e-01 2.090132981538772583e-01 -1.818747818470001221e-01 4.413702525198459625e-03 -1.716131865978240967e-01 7.505572587251663208e-02 -1.231350228190422058e-01 2.450670763209927827e-06 -2.183912396430969238e-01 1.906700432300567627e-02 6.122576445341110229e-02 7.543873786926269531e-02 -1.706909686326980591e-01 1.494030058383941650e-01 -2.530911564826965332e-02 -2.475115060806274414e-01 1.081851720809936523e-01 1.836806237697601318e-01 5.327376350760459900e-02 -4.707222804427146912e-02 2.789900898933410645e-01 1.782613694667816162e-01 -1.029176637530326843e-01 1.145288422703742981e-01 1.202216222882270813e-01 -6.990334391593933105e-02 -7.913397252559661865e-02 1.337524205446243286e-01 -1.443691700696945190e-01 4.629556834697723389e-02 1.133996024727821350e-01 -2.085418552160263062e-01 -5.217741429805755615e-02 5.049939081072807312e-02 -1.696453541517257690e-01 1.937553137540817261e-01 -8.185786195099353790e-03 -2.485960349440574646e-02 4.029344022274017334e-02 -1.651600723562296480e-05 -1.929671019315719604e-01 1.407168805599212646e-01 1.466079056262969971e-01 6.515840141219086945e-06 -1.457450240850448608e-01 2.426742911338806152e-01 -7.601335644721984863e-02 4.980715364217758179e-02 1.896077841520309448e-01 3.932372853159904480e-02 -2.075109183788299561e-01 -7.907080650329589844e-02 1.396748274564743042e-01 -1.106485575437545776e-01 1.597680896520614624e-02 -1.247333660721778870e-01 7.295992970466613770e-02 1.602859795093536377e-02 -5.243962630629539490e-02 3.490834496915340424e-03 5.207805335521697998e-02 5.041144788265228271e-02 -3.539665788412094116e-02 -7.392946630716323853e-02 2.366320404689759016e-05 1.775189340114593506e-01 3.348969621583819389e-03 -1.054998412728309631e-01 1.780680119991302490e-01 6.365516688674688339e-03 -2.001675238716416061e-05 1.983703076839447021e-01 -3.421330824494361877e-02 -1.791442930698394775e-01 1.291149109601974487e-01 -1.854722946882247925e-01 1.569704115390777588e-01 -9.967241436243057251e-02
-9.862574189901351929e-02 -2.613069675862789154e-02 -2.250316292047500610e-01 -6.203330308198928833e-02 1.972517967224121094e-01 -2.438183873891830444e-01 1.849878579378128052e-01 2.026812285184860229e-01 -2.458925545215606689e-01 1.112165153026580811e-01 1.025601774454116821e-01 -1.191096566617488861e-02 -4.395357519388198853e-02 3.431731462478637695e-02 1.731972396373748779e-01 -1.090730540454387665e-03 9.863629937171936035e-02 -4.625416174530982971e-02 1.161621809005737305e-01 8.864019764587283134e-04 -1.780607551336288452e-01 8.821890503168106079e-02 3.715856745839118958e-02 -5.289870750857517123e-05 1.351147443056106567e-01 -2.297166585922241211e-01 1.193783953785896301e-01 -1.813673675060272217e-01 1.977315843105316162e-01 -1.128982380032539368e-01 -6.816641241312026978e-02 7.162292301654815674e-02 1.040463298559188843e-01 -9.575209021568298340e-02 -4.949347674846649170e-02 -2.391663193702697754e-01 -1.856764853000640869e-01 -1.144171357154846191e-01 2.275158464908599854e-01 -4.655484110116958618e-02 -2.879933416843414307e-01 8.919831365346908569e-02 -4.879122599959373474e-03 7.072635740041732788e-02 2.658648788928985596e-01 -1.879124194383621216e-01 4.575952887535095215e-02 -1.949228718876838684e-02 1.631954610347747803e-01 -3.394121304154396057e-02 -1.055412739515304565e-02 -1.236627548933029175e-01 -1.569094508886337280e-01 -1.002242937684059143e-01 -1.479222476482391357e-01 6.665420532226562500e-02 3.695994615554809570e-02 -7.965137809514999390e-02 1.440493762493133545e-01 -1.320848912000656128e-01 2.749732695519924164e-02 -1.573467105627059937e-01 1.352309286594390869e-01 -2.789816819131374359e-03 -1.352332346141338348e-02 -1.080652475357055664e-01 -7.365567237138748169e-02 -8.000604808330535889e-02 1.928287595510482788e-01 1.297191232442855835e-01 -2.546189129352569580e-01 9.572146154823713005e-06 -4.487096518278121948e-02 -1.976777911186218262e-01 -5.300905928015708923e-02 9.704782813787460327e-02 -2.046640403568744659e-02 -2.596765261841937900e-05 5.476923286914825439e-02 1.762019395828247070e-01 5.569366272538900375e-03 -1.073664501309394836e-01 1.145850792527198792e-01 -2.980751395225524902e-01 -3.180752537446096539e-05 1.083498224616050720e-01 -2.340669780969619751e-01 1.989963203668594360e-01 -6.167138367891311646e-02 6.588299572467803955e-02 -7.995550334453582764e-02 1.898517757654190063e-01 3.753829002380371094e-02 -1.552367806434631348e-01 1.059237271547317505e-01 1.544948294758796692e-02 -7.561302930116653442e-02 1.148945093154907227e-01 5.174823105335235596e-02 1.361582279205322266e-01 8.957012742757797241e-02 1.623178273439407349e-01 4.242763854563236237e-03 -7.412040978670120239e-02 2.028986215591430664e-01 5.755196884274482727e-02 1.387307383993174881e-05 -9.937943890690803528e-03 -6.925714761018753052e-02 6.150205445010215044e-05 8.751508593559265137e-02 9.576474130153656006e-02 -4.747344925999641418e-02 -1.697549670934677124e-01 -1.319018453359603882e-01 -2.159686200320720673e-02 1.145013570785522461e-01 -7.583091408014297485e-02 -2.300706803798675537e-01 1.609975546598434448e-01
4.894307814538478851e-03 3.195562064647674561e-01 -1.373080462217330933e-01 -1.507988870143890381e-01 6.066006422042846680e-02 1.687569916248321533e-01 1.438151895999908447e-01 -5.628158152103424072e-02 9.842810779809951782e-02 1.371348090469837189e-02 3.076173067092895508e-01 1.833712011575698853e-01 1.025885194540023804e-01 -3.675458174257073551e-06 1.560672819614410400e-01 -3.577742353081703186e-02 2.419907972216606140e-02 4.162661731243133545e-03 -8.013595106604043394e-06 -8.334851264953613281e-02 -1.087914854288101196e-01 2.849238179624080658e-02 2.493771538138389587e-02 -1.119076162576675415e-01 -8.758186362683773041e-03 9.470581263303756714e-02 -2.527860701084136963e-01 -4.793424159288406372e-03 -1.905835717916488647e-01 -1.315492838621139526e-01 -2.144524268805980682e-02 1.196202635765075684e-01 -3.233801573514938354e-02 -1.880769282579421997e-01 2.101717283949255943e-03 -5.760807171463966370e-02 -1.069368794560432434e-01 1.582820266485214233e-01 -3.463398218154907227e-01 3.950610384345054626e-02 -1.498195615567965433e-06 -3.713340312242507935e-02 -1.848365813493728638e-01 -2.884783446788787842e-01 -5.528109520673751831e-02 -1.013621762394905090e-01 3.453132521826773882e-04 -6.802847236394882202e-02 3.340598046779632568e-01 2.244453132152557373e-01 -1.727135181427001953e-01 -4.591209068894386292e-02 -1.719550937414169312e-01 1.608479768037796021e-02 -1.175344455987215042e-03 -1.619648039340972900e-01 2.092745155096054077e-01 1.730213314294815063e-01 -1.342859957367181778e-02 6.096529960632324219e-02 -8.724468201398849487e-02 -2.214781343936920166e-01 -1.494922339916229248e-01 1.846201419830322266e-01 -6.587538868188858032e-02 2.437844499945640564e-02 -1.811832934617996216e-01 3.341252356767654419e-02 -9.842389822006225586e-02 2.335711270570755005e-01 -4.467027261853218079e-02 1.982721686363220215e-01 -2.328422516584396362e-01 1.331207454204559326e-01 8.350825309753417969e-02 5.585163831710815430e-02 2.089892774820327759e-01 -1.228580484166741371e-03 -1.816177740693092346e-02 5.573554709553718567e-02 -9.975192695856094360e-02 1.037924513220787048e-01 -2.799594216048717499e-02 1.194098740816116333e-01 -2.588804252445697784e-02 -1.948317140340805054e-01 -1.236782670021057129e-01 7.801031321287155151e-02 1.983268558979034424e-01 5.730742216110229492e-02 -1.240221560001373291e-01 -1.986233443021774292e-01 1.167181804776191711e-01 1.226672083139419556e-01 2.379359491169452667e-02 3.389392048120498657e-02 -8.769655600190162659e-03 -1.776858717203140259e-01 1.201509311795234680e-01 8.154927194118499756e-02 1.303709596395492554e-01 2.355640195310115814e-02 2.564440667629241943e-02 -1.322605460882186890e-01 3.424787521362304688e-01 -1.288236826658248901e-01 -4.996483400464057922e-02 8.198595792055130005e-02 1.160646788775920868e-02 -8.519555628299713135e-02 1.834930479526519775e-01 -1.095565706491470337e-01 -2.467729449272155762e-01 2.655678093433380127e-01 1.205030009150505066e-01 1.394565850496292114e-01 4.973100870847702026e-02 -2.349031120538711548e-01 -2.377494871616363525e-01 3.374831080436706543e-01
3.611709177494049072e-02 6.597270071506500244e-02 -1.292968839406967163e-01 -1.080750226974487305e-01 -1.827747523784637451e-01 9.370236843824386597e-02 -1.208276823163032532e-01 -1.672325432300567627e-01 2.937531843781471252e-02 1.338489949703216553e-01 5.481855943799018860e-02 -1.156950294971466064e-01 -6.821903586387634277e-02 -1.793040484189987183e-01 5.069887265563011169e-03 -1.606744676828384399e-01 1.781901419162750244e-01 -2.665999904274940491e-02 -1.765252798795700073e-01 -8.929388968681450933e-06 -2.502627968788146973e-01 -7.229159772396087646e-02 1.727981269359588623e-01 1.619173735380172729e-01 2.811413407325744629e-01 -1.336649209260940552e-01 -4.916013777256011963e-02 -4.515268653631210327e-02 -3.881745738908648491e-03 9.134278446435928345e-02 1.876575499773025513e-01 -7.055009064060868695e-06 2.529148332541808486e-06 -1.100840978324413300e-02 2.528589069843292236e-01 2.522929012775421143e-01 9.798876941204071045e-02 -1.097060926258563995e-02 7.194687426090240479e-02 3.243331983685493469e-02 1.175481826066970825e-01 2.241719216108322144e-01 -1.804299245122820139e-06 1.963995955884456635e-02 3.107338957488536835e-02 5.774740711785852909e-04 1.205358770675957203e-03 -1.906489878892898560e-01 2.226882874965667725e-01 -9.900803118944168091e-02 2.008283883333206177e-01 1.943207383155822754e-01 4.592534899711608887e-02 -9.282348401029594243e-06 1.487924065440893173e-02 1.065314630977809429e-03 -2.193313278257846832e-02 -4.589941352605819702e-02 -1.098852455615997314e-01 4.963444545865058899e-02 -1.161319017410278320e-01 -1.490134000778198242e-01 2.668793499469757080e-01 1.993698030710220337e-01 -3.023107768967747688e-03 -6.483170390129089355e-02 -2.300470441696234047e-05 -2.285725250840187073e-02 -1.803966909646987915e-01 -9.907397627830505371e-02 -1.642645299434661865e-01 -1.020373553037643433e-01 1.761895790696144104e-02 -1.379354149103164673e-01 -1.991215497255325317e-01 3.766475617885589600e-02 -7.881397008895874023e-02 -2.348586767911911011e-01 4.222422093152999878e-02 -6.872798502445220947e-02 -1.088814437389373779e-01 -1.380934566259384155e-02 -6.473302841186523438e-02 -3.148181363940238953e-02 -7.051153481006622314e-02 -5.146280676126480103e-02 2.205689698457717896e-01 1.137779802083969116e-01 -1.048465401254361495e-05 -1.428379416465759277e-01 -2.460780143737792969e-01 7.006869465112686157e-02 -1.722665280103683472e-01 2.806226909160614014e-02 -9.117085486650466919e-02 2.776883076876401901e-03 2.588939480483531952e-02 1.359273940324783325e-01 -1.965303421020507812e-01 -3.453723341226577759e-02 -8.926339447498321533e-02 -2.365743964910507202e-01 2.385652065277099609e-01 1.824315041303634644e-01 -1.858894973993301392e-01 5.596069246530532837e-02 -8.956204168498516083e-03 9.145443886518478394e-02 -8.477742783725261688e-03 2.228795588016510010e-01 -9.679746814072132111e-03 -2.108104526996612549e-01 2.080598096654284745e-05 8.113291859626770020e-02 6.257893145084381104e-02 -8.076786994934082031e-03 1.329003460705280304e-02 1.675239205360412598e-02 1.470999717712402344e-01 1.604750286787748337e-03
-5.885188654065132141e-02 3.298594430088996887e-02 -5.472654476761817932e-03 1.931335926055908203e-01 1.576971113681793213e-01 3.813672810792922974e-02 7.208949327468872070e-02 -9.413467523700091988e-06 -9.729921817779541016e-02 5.538231506943702698e-02 1.698091030120849609e-01 -2.797538042068481445e-01 5.947066470980644226e-02 -9.857552126049995422e-03 8.708951622247695923e-02 -1.217256113886833191e-01 -1.529032886028289795e-01 -1.694307866273447871e-05 2.111332833010237664e-07 4.996757954359054565e-02 -2.908358350396156311e-02 5.212392285466194153e-02 1.219826284795999527e-02 5.316421017050743103e-02 -5.940266326069831848e-02 2.128099650144577026e-01 -1.341357082128524780e-02 2.564554160926491022e-04 3.906198963522911072e-02 -3.008233942091464996e-02 1.056485772132873535e-01 -2.037861347198486328e-01 -1.563380283187143505e-05 1.734324246644973755e-01 -2.209452986717224121e-01 -2.125630080699920654e-01 -1.089776381850242615e-01 -1.561101675033569336e-01 1.283856332302093506e-01 -5.766360834240913391e-02 -2.434013411402702332e-02 1.987138763070106506e-02 1.525989081710577011e-02 -1.265712082386016846e-02 -3.087492223130539060e-05 -1.281944059883244336e-05 1.889554560184478760e-01 3.888724744319915771e-02 -1.129500269889831543e-01 1.120584681630134583e-01 7.182662934064865112e-02 5.055303518020082265e-07 -2.050644606351852417e-01 -5.388681529439054430e-05 -2.247448173875454813e-05 1.326036602258682251e-01 -2.408771403133869171e-02 1.611771583557128906e-01 5.704955547116696835e-04 -2.016486078500747681e-01 -1.244698614755179733e-05 -9.777098149061203003e-02 -9.459856152534484863e-02 1.090895310044288635e-01 -2.030046731233596802e-01 1.555276066064834595e-01 -1.161224544048309326e-01 1.279779989272356033e-02 -5.667999386787414551e-02 3.953710547648370266e-04 -1.974262744188308716e-01 1.302879005670547485e-01 -2.981104850769042969e-01 -1.656740158796310425e-02 1.701360344886779785e-01 -4.173450171947479248e-03 1.204248294234275818e-01 1.062979474663734436e-01 -4.667617380619049072e-02 1.300481706857681274e-01 2.016144208027981222e-06 1.047634780406951904e-01 7.515545189380645752e-02 5.331336706876754761e-02 3.968670219182968140e-02 -1.287070810794830322e-01 -3.257541358470916748e-02 1.967909634113311768e-01 -1.586479246616363525e-01 4.532792419195175171e-02 -1.988110393285751343e-01 -6.810741871595382690e-02 5.621743947267532349e-02 -1.904119551181793213e-01 -9.312205761671066284e-02 2.048421353101730347e-01 -5.897965282201766968e-02 1.831164807081222534e-01 -9.593787044286727905e-02 -7.776141166687011719e-02 1.153254359960556030e-01 -1.197161246091127396e-02 -5.241309292614459991e-03 -2.892002885346300900e-05 4.821259155869483948e-02 1.178024187684059143e-01 8.790905773639678955e-02 -6.676240265369415283e-02 6.552048772573471069e-02 1.932293623685836792e-01 -5.230373702943325043e-03 -3.101787269115447998e-01 6.578920874744653702e-08 8.442862331867218018e-02 1.869824975728988647e-01 -1.231601089239120483e-01 -9.762773662805557251e-02 7.573482114821672440e-03 2.193719744682312012e-01 8.658832311630249023e-02
-2.024113088846206665e-01 -2.558873593807220459e-01 3.352668881416320801e-01 1.652381867170333862e-01 -1.097452044486999512e-01 4.126448184251785278e-02 -3.384098410606384277e-01 1.573408544063568115e-01 -9.849347174167633057e-02 1.977605745196342468e-02 -2.337296754121780396e-01 -2.834391221404075623e-02 1.982421576976776123e-01 -1.861062645912170410e-01 9.992673248052597046e-02 8.678752928972244263e-03 -6.054052710533142090e-02 -8.833041042089462280e-02 5.986684560775756836e-02 -1.271861046552658081e-01 6.414878368377685547e-02 -8.123749494552612305e-02 1.503943931311368942e-03 1.025330200791358948e-01 -3.721888735890388489e-02 -1.413170546293258667e-01 8.317787200212478638e-02 9.830737113952636719e-02 -8.489549905061721802e-02 8.080648258328437805e-03 -2.559146881103515625e-01 2.825886309146881104e-01 3.355471044778823853e-02 -1.133030802011489868e-01 2.633554041385650635e-01 -1.318350583314895630e-01 -1.870748400688171387e-01 -1.278130561113357544e-01 2.829998731613159180e-01 5.161415413022041321e-02 -7.941827178001403809e-02 -2.541869282722473145e-01 1.628594100475311279e-01 1.263052690774202347e-02 3.553794622421264648e-01 7.594566792249679565e-02 -2.157713621854782104e-01 -5.783081054687500000e-02 -1.851240843534469604e-01 -1.168785020709037781e-01 6.792429834604263306e-02 -1.781531423330307007e-01 8.382712304592132568e-02 -2.147555723786354065e-02 5.997873959131538868e-04 2.731595039367675781e-01 -5.015611648559570312e-03 3.163839876651763916e-01 -2.754820585250854492e-01 -1.111106127500534058e-01 -1.050835289061069489e-02 -1.940141767263412476e-01 8.364388719201087952e-03 1.319766193628311157e-01 1.017796099185943604e-01 -5.867484584450721741e-02 2.687036991119384766e-01 -2.983185946941375732e-01 2.524161040782928467e-01 -1.412650919519364834e-03 1.274454444646835327e-01 1.888656318187713623e-01 -2.462235242128372192e-01 5.096620321273803711e-02 -1.616540104150772095e-01 1.716906875371932983e-01 1.809268295764923096e-01 1.199451908469200134e-01 1.999199539422988892e-01 -2.864954769611358643e-01 4.725253209471702576e-03 1.079255640506744385e-01 -2.175532132387161255e-01 -1.354115456342697144e-01 -3.280304968357086182e-01 -2.190474234521389008e-02 -9.726056456565856934e-02 1.353746205568313599e-01 -1.233163997530937195e-01 -2.035295665264129639e-01 -2.217829078435897827e-01 -1.610742807388305664e-01 1.452797055244445801e-01 1.385859847068786621e-01 -2.933392822742462158e-01 -1.425146013498306274e-01 -2.024911530315876007e-02 -1.021133549511432648e-02 1.277113854885101318e-01 -2.738850712776184082e-01 -1.862446665763854980e-01 -1.311731487512588501e-01 3.933339565992355347e-02 -7.516844570636749268e-02 -7.024639099836349487e-02 -5.701637268066406250e-02 -5.903074890375137329e-02 1.889393478631973267e-01 2.731992602348327637e-01 3.667503915494307876e-05 2.677300572395324707e-01 -1.401333510875701904e-01 -2.198711782693862915e-02 -7.372002303600311279e-02 -1.456286460161209106e-01 -2.863387763500213623e-01 3.254781961441040039e-01 -7.542598247528076172e-02 -1.049363985657691956e-01 -2.078382223844528198e-01
-3.339242637157440186e-01 -3.458080440759658813e-02 -5.085952579975128174e-02 -2.490689903497695923e-01 -5.092385436000768095e-06 -1.338821351528167725e-01 -2.222821488976478577e-02 6.396599858999252319e-02 -1.570157408714294434e-01 5.693785101175308228e-02 1.612732410430908203e-01 2.518767416477203369e-01 1.003181785345077515e-01 2.441239356994628906e-01 -2.995980679988861084e-01 1.518826782703399658e-01 3.405474126338958740e-03 -2.769241333007812500e-01 -1.066091209650039673e-01 1.122737526893615723e-01 -1.658526062965393066e-01 -2.490885555744171143e-01 -9.697537869215011597e-02 2.659825235605239868e-02 6.809382140636444092e-02 5.458891764283180237e-02 -1.310207098722457886e-01 -6.779012084007263184e-02 1.727081239223480225e-01 2.163546532392501831e-01 -1.179536804556846619e-01 1.000667139887809753e-01 6.463735550642013550e-02 -8.186018094420433044e-03 8.490011096000671387e-02 -1.449301093816757202e-01 5.048797931522130966e-03 -2.508268691599369049e-02 1.459633279591798782e-02 4.611215367913246155e-02 -1.004159729927778244e-02 -1.423132722266018391e-03 3.975203260779380798e-02 2.588246483355760574e-03 -3.391526872292160988e-03 3.257645526900887489e-03 2.626413106918334961e-01 2.978628315031528473e-02 5.314298719167709351e-02 -1.798143833875656128e-01 1.976368576288223267e-01 -4.582902044057846069e-02 4.034886509180068970e-02 6.287690252065658569e-02 1.441037505865097046e-01 1.776241064071655273e-01 -9.296713769435882568e-02 -3.776516392827033997e-02 2.996669113636016846e-01 2.337337136268615723e-01 -1.690344214439392090e-01 -1.658334434032440186e-01 1.113896742463111877e-01 1.353023499250411987e-01 1.182439327239990234e-01 -6.652498245239257812e-02 -3.120838300674222410e-06 -5.333878844976425171e-02 1.546310931444168091e-01 -2.175964713096618652e-01 -6.488444749265909195e-03 1.242023972736205906e-05 1.093794256448745728e-01 2.772446274757385254e-01 2.020522356033325195e-01 -1.029307767748832703e-01 -2.415026277303695679e-01 -1.350788325071334839e-01 4.847312346100807190e-03 -3.351552486419677734e-01 7.903569894551765174e-06 -3.829668089747428894e-02 -1.378044951707124710e-02 8.371015638113021851e-02 8.166643790900707245e-03 8.401600271463394165e-02 1.298210620880126953e-01 -2.572742104530334473e-02 -8.011702448129653931e-06 7.279863348230719566e-04 2.306451278855092824e-06 2.396170794963836670e-01 6.695627421140670776e-02 -1.337666660547256470e-01 -6.355773191899061203e-03 -1.412038225680589676e-03 3.356240391731262207e-01 -1.526638269424438477e-01 1.281410008668899536e-01 6.048579234629869461e-03 1.935590989887714386e-02 -6.045784056186676025e-02 6.209858879446983337e-02 6.640573590993881226e-02 1.572098396718502045e-02 4.421704262495040894e-02 -1.329230666160583496e-01 -4.244654625654220581e-02 -8.164516836404800415e-02 -1.358746886253356934e-01 1.602443158626556396e-01 5.033215880393981934e-02 1.531228721141815186e-01 6.553716212511062622e-02 -9.948097914457321167e-02 -1.414441317319869995e-01 -2.135403901338577271e-01 1.349429339170455933e-01 2.949977517127990723e-01 2.574941888451576233e-02
-5.105759575963020325e-02 -1.442721486091613770e-01 2.428902238607406616e-01 8.524543046951293945e-02 -9.090841561555862427e-02 -1.023377552628517151e-01 2.731697168201208115e-05 -6.869471818208694458e-02 -7.001920789480209351e-02 6.913061439990997314e-02 5.473090335726737976e-02 2.883318066596984863e-01 -1.417665556073188782e-02 -1.089986413717269897e-01 -4.410092532634735107e-02 4.989110305905342102e-02 3.118595853447914124e-02 2.061436325311660767e-02 -1.931783299369271845e-05 5.575256049633026123e-02 3.735835477709770203e-02 1.016899049282073975e-01 4.880276694893836975e-02 4.039101302623748779e-02 -1.166155487298965454e-01 1.387175321578979492e-01 -2.335758060216903687e-01 4.549897089600563049e-02 -4.130382090806961060e-02 -1.919157803058624268e-02 -1.293694600462913513e-02 -1.909317821264266968e-01 5.309303104877471924e-02 2.339852973818778992e-02 1.095215454697608948e-01 2.194464206695556641e-02 7.318104058504104614e-02 1.130641698837280273e-01 7.759838551282882690e-02 2.762052789330482483e-02 1.240270063281059265e-01 1.812455654144287109e-01 -2.029302120208740234e-01 1.060197576880455017e-01 -6.500802555819973350e-06 -1.207322254776954651e-01 -1.968633383512496948e-03 5.118267654324881732e-05 -1.084799841046333313e-01 4.451335594058036804e-02 -1.614991724491119385e-01 -7.756511867046356201e-02 4.200797528028488159e-03 1.414073854684829712e-01 2.504712045192718506e-01 -2.455301135778427124e-01 -2.276898622512817383e-01 8.916848897933959961e-02 5.888576060533523560e-02 4.884878173470497131e-03 3.282001853222027421e-05 9.721595793962478638e-02 -2.657607011497020721e-02 1.636792512726970017e-05 -2.552038244903087616e-02 1.661368459463119507e-02 1.015507355332374573e-01 1.848787069320678711e-02 -8.988206274807453156e-03 -1.413697004318237305e-01 6.583337485790252686e-02 -8.773068897426128387e-03 4.108295252081006765e-05 -1.342324321740306914e-05 -1.408492475748062134e-01 1.594307422637939453e-01 -4.730454832315444946e-02 -9.431678056716918945e-02 -1.017871722579002380e-01 2.159841358661651611e-02 -1.695274263620376587e-01 -5.230055749416351318e-02 -3.929864760721102357e-06 -9.361856427858583629e-07 -1.418411731719970703e-01 3.059265390038490295e-02 2.294101715087890625e-01 3.838549673673696816e-06 -2.631121969898231328e-05 -4.592066258192062378e-02 2.566382136137690395e-06 -3.803414106369018555e-02 5.943275615572929382e-02 1.858607307076454163e-02 -2.217896878719329834e-01 5.696338415145874023e-02 5.059374123811721802e-02 -4.623964056372642517e-02 1.583812385797500610e-02 -4.643162339925765991e-02 -1.361839324235916138e-01 1.557351946830749512e-01 -1.610285229980945587e-02 -1.079839967133011669e-05 -4.068200942128896713e-03 -2.221415787935256958e-01 -8.401776663959026337e-03 -1.517499387264251709e-01 -1.967683434486389160e-01 3.908193483948707581e-02 -2.663938403129577637e-01 4.158686473965644836e-02 -1.204142272472381592e-01 -1.872929781675338745e-01 2.719652950763702393e-01 9.615362435579299927e-02 -2.708435617387294769e-02 2.350317984819412231e-01 3.342325362609699368e-05 -1.836799979209899902e-01
-2.405536770820617676e-01 8.048808574676513672e-02 -1.065167263150215149e-01 4.743982851505279541e-02 -1.675964891910552979e-01 5.892556533217430115e-02 -1.443386375904083252e-01 -9.751651436090469360e-02 -1.716857105493545532e-01 2.579739093780517578e-01 -7.591214030981063843e-02 -2.646631002426147461e-01 -6.506121158599853516e-02 -1.479478031396865845e-01 -7.952559739351272583e-02 -1.556913740932941437e-02 7.546083629131317139e-02 5.739436298608779907e-02 -5.305942520499229431e-02 2.559568583965301514e-01 -1.744718104600906372e-01 -1.775939762592315674e-01 2.072877585887908936e-01 1.024204790592193604e-01 1.379980221827281639e-05 -1.085202209651470184e-02 -1.202339977025985718e-01 3.333281576633453369e-01 1.139509379863739014e-01 3.742766380310058594e-02 8.499629050493240356e-02 9.062238782644271851e-02 6.515508145093917847e-02 1.332657933235168457e-01 -1.130225975066423416e-02 8.599335700273513794e-02 2.462655752897262573e-01 4.437369108200073242e-02 5.020340904593467712e-03 3.338998556137084961e-02 -6.185658648610115051e-02 -1.652451604604721069e-01 -1.932811886072158813e-01 1.252720598131418228e-02 -1.804697662591934204e-01 4.198404401540756226e-02 6.586916744709014893e-02 6.078511849045753479e-02 1.271118819713592529e-01 -1.183236576616764069e-02 1.264926791191101074e-01 8.099289983510971069e-02 8.602687716484069824e-02 -6.650079041719436646e-02 1.557145878905430436e-05 -2.909040749073028564e-01 -2.167520113289356232e-02 -2.608276605606079102e-01 6.933510303497314453e-02 -1.207595989108085632e-01 -4.447310045361518860e-02 1.184298247098922729e-01 5.277812853455543518e-02 1.438919603824615479e-01 1.164101297035813332e-03 -7.679332047700881958e-02 1.880198717117309570e-01 -6.002388149499893188e-02 -2.144133858382701874e-02 -1.533315181732177734e-01 1.538753602653741837e-02 2.610790729522705078e-01 1.026017474941909313e-03 -2.120747044682502747e-02 -1.479177474975585938e-01 2.709845900535583496e-01 1.403831876814365387e-03 2.743677981197834015e-02 -3.550203517079353333e-02 -4.159270226955413818e-02 -2.993834614753723145e-01 -2.108547240495681763e-01 -2.284457534551620483e-01 6.127739697694778442e-02 1.582490056753158569e-01 -7.789928466081619263e-02 1.670001000165939331e-01 1.940051093697547913e-03 2.025270611047744751e-01 -5.662684887647628784e-02 4.311012104153633118e-02 -1.364426314830780029e-01 9.226823598146438599e-02 -1.363219600170850754e-02 4.908390343189239502e-02 2.406460344791412354e-01 1.150923818349838257e-01 1.726106703281402588e-01 -5.713697150349617004e-02 -1.443474926054477692e-02 2.811155021190643311e-01 5.394543707370758057e-02 -9.111715108156204224e-02 6.263905763626098633e-02 -2.939867079257965088e-01 5.061736702919006348e-02 -2.384135872125625610e-01 4.383484646677970886e-02 1.932269185781478882e-01 -9.679722040891647339e-02 -1.909155100584030151e-01 -2.092526257038116455e-01 -2.733019366860389709e-02 5.087455734610557556e-02 1.739134788513183594e-01 -7.758588343858718872e-02 -1.547306925058364868e-01 2.407573014497756958e-01 -1.057553738355636597e-01 4.902569577097892761e-03
-9.264932572841644287e-02 -3.248834982514381409e-02 4.110977053642272949e-02 2.018504291772842407e-01 -5.021054297685623169e-02 -2.542122453451156616e-02 -2.361726164817810059e-01 -3.292593657970428467e-01 -2.622099418658763170e-05 -1.500232070684432983e-01 -2.715812250971794128e-02 -2.273772656917572021e-02 7.415985316038131714e-02 6.323925405740737915e-02 7.818161696195602417e-02 1.733293384313583374e-01 4.974778369069099426e-02 4.875814542174339294e-02 -7.812094688415527344e-02 1.248520091176033020e-01 1.203841865062713623e-01 -2.190539091825485229e-01 1.490231603384017944e-01 1.524167787283658981e-02 -2.931253015995025635e-01 1.493095457553863525e-01 -3.033243715763092041e-01 -2.528547048568725586e-01 4.424514248967170715e-02 -2.243741750717163086e-01 -3.065967932343482971e-02 -1.670388132333755493e-02 1.296613067388534546e-01 -1.019218340516090393e-01 1.467014104127883911e-01 -2.253314554691314697e-01 -2.389137633144855499e-02 -3.345296680927276611e-01 -5.140308663249015808e-02 -3.081595525145530701e-02 1.403293758630752563e-01 -1.972515583038330078e-01 -3.094466328620910645e-01 1.618572771549224854e-01 2.689123451709747314e-01 -1.163564100861549377e-01 2.276696905028074980e-04 2.331290245056152344e-01 -4.098422825336456299e-03 -2.339981496334075928e-01 -7.784013450145721436e-02 -8.454154431819915771e-02 1.567085087299346924e-01 2.924109697341918945e-01 -1.501200199127197266e-01 3.294130265712738037e-01 -2.416385412216186523e-01 7.918149977922439575e-02 2.223365707322955132e-03 -1.363947093486785889e-01 -6.780334388167830184e-06 3.938117250800132751e-02 6.774445623159408569e-02 -3.350009024143218994e-02 -4.232110455632209778e-02 -5.045557767152786255e-02 4.499535635113716125e-02 2.104133218526840210e-01 2.568726837635040283e-01 -8.947088569402694702e-02 1.253149509429931641e-01 1.966692358255386353e-01 1.459673140197992325e-02 2.794866077601909637e-02 -2.975400686264038086e-01 5.509343370795249939e-02 -2.590554654598236084e-01 2.620965056121349335e-02 1.873251646757125854e-01 -6.445525586605072021e-02 -4.443413391709327698e-02 -1.249287370592355728e-02 -1.489440649747848511e-01 -8.362656086683273315e-02 5.409381166100502014e-02 -2.198120802640914917e-01 1.924275606870651245e-01 -1.309660456172423437e-05 1.191404461860656738e-01 -1.256276071071624756e-01 -2.516913115978240967e-01 2.731462121009826660e-01 2.102448344230651855e-01 -2.006576210260391235e-02 -7.772954553365707397e-02 9.502953290939331055e-02 2.368536032736301422e-02 -8.289196528494358063e-03 -6.494481861591339111e-02 -1.697775125503540039e-01 -1.929595768451690674e-01 2.382020205259323120e-01 -8.418326824903488159e-02 -2.584841549396514893e-01 7.372322678565979004e-02 -1.420571934431791306e-02 -1.032053958624601364e-02 1.058390811085700989e-01 -1.531332433223724365e-01 2.264100592583417892e-03 -7.106762379407882690e-02 -2.697345018386840820e-01 -2.019110023975372314e-01 1.806654334068298340e-01 -4.025394842028617859e-02 5.739079415798187256e-02 -3.388406634330749512e-01 8.189447969198226929e-02 2.016329439356923103e-03 -1.210960522294044495e-01
4.488722980022430420e-02 2.367619872093200684e-01 9.614733606576919556e-02 -1.510242968797683716e-01 -8.093942701816558838e-02 -2.259734421968460083e-01 -1.883580684661865234e-01 -5.868124961853027344e-02 -4.359857738018035889e-02 1.596643775701522827e-01 -1.778158708475530148e-03 -2.274665283039212227e-03 -6.161109730601310730e-02 -3.523230180144309998e-02 2.842623181641101837e-02 -9.940314292907714844e-02 -3.686952550197020173e-05 1.026744246482849121e-01 1.398185193538665771e-01 1.045571416616439819e-01 -2.134645879268646240e-01 -1.160896196961402893e-01 9.534151852130889893e-02 8.028972893953323364e-02 -1.408796310424804688e-01 -4.975484311580657959e-02 -1.086592003703117371e-01 9.455483406782150269e-02 9.661773592233657837e-02 1.515331566333770752e-01 5.756290256977081299e-02 -5.429500713944435120e-03 -1.276895552873611450e-01 6.726223975419998169e-02 1.070924773812294006e-01 -1.612713163012813311e-07 -2.287052571773529053e-02 -3.245149925351142883e-02 2.431604862213134766e-01 1.607200354337692261e-01 -2.029374539852142334e-01 -3.864697366952896118e-02 1.524711996316909790e-01 1.795355274225585163e-05 8.048633486032485962e-02 6.863751262426376343e-02 4.753842577338218689e-02 -1.933850720524787903e-02 -1.725455373525619507e-01 2.032278925180435181e-01 -1.379486322402954102e-01 8.288499884656630456e-06 1.053052470088005066e-01 3.108566105365753174e-01 -1.675729602575302124e-01 -6.524544954299926758e-02 -7.123933732509613037e-02 -5.215829238295555115e-02 -2.084161043167114258e-01 1.172450184822082520e-01 1.783970743417739868e-01 -2.476406544446945190e-01 1.502467971295118332e-02 -3.189575672149658203e-01 -2.690337002277374268e-01 5.732328444719314575e-02 -5.609386414289474487e-02 -4.893423989415168762e-03 -2.776076197624206543e-01 -2.286260277032852173e-01 3.076882064342498779e-01 9.874866902828216553e-02 1.253047883510589600e-01 -2.235889993607997894e-02 -2.120356112718582153e-01 1.943018659949302673e-02 -1.233519166707992554e-01 7.673505693674087524e-02 -2.057171165943145752e-01 -3.186958655714988708e-02 8.572208881378173828e-02 4.787655547261238098e-02 -2.699110805988311768e-01 -2.018220275640487671e-01 -2.807829082012176514e-01 -1.350185275077819824e-02 -1.715515367686748505e-02 5.907821655273437500e-02 1.978508681058883667e-01 -6.544671207666397095e-02 3.928928822278976440e-02 -5.257646739482879639e-02 -8.083730936050415039e-02 -2.368288338184356689e-01 -1.270586608370649628e-06 1.192818023264408112e-02 8.587745577096939087e-02 2.213656716048717499e-02 6.030337885022163391e-03 8.827284723520278931e-02 1.336173713207244873e-01 -3.167815133929252625e-02 2.868114709854125977e-01 6.618284434080123901e-02 -1.755335032939910889e-01 1.986151635646820068e-01 -1.575049608945846558e-01 -1.273451298475265503e-01 9.519730508327484131e-02 -1.271281111985445023e-02 1.273598670959472656e-01 2.122405767440795898e-01 1.406539529561996460e-01 -4.576383531093597412e-02 1.373519599437713623e-01 -6.745380908250808716e-02 1.420509666204452515e-01 4.581898078322410583e-02 5.596861243247985840e-02 -2.349688112735748291e-01
-7.580251991748809814e-02 2.074022404849529266e-02 -1.525278985500335693e-01 1.669945865869522095e-01 3.163898885250091553e-01 -2.870121598243713379e-01 -1.552824229001998901e-01 1.049720421433448792e-01 7.569187134504318237e-02 -7.452109456062316895e-02 1.934106796979904175e-01 -4.078366607427597046e-02 2.310711741447448730e-01 1.939220130443572998e-01 -5.988913774490356445e-02 -2.315991092473268509e-03 -8.612060919404029846e-03 -1.146161332726478577e-01 2.035577744245529175e-01 9.424252063035964966e-02 4.761717095971107483e-02 -9.211816638708114624e-02 1.649197656661272049e-05 1.832247823476791382e-01 1.350094825029373169e-01 -1.852057427167892456e-01 3.730198740959167480e-02 1.759429872035980225e-01 -2.677285969257354736e-01 -4.654112737625837326e-03 -3.920406848192214966e-02 -3.050288856029510498e-01 -7.154949754476547241e-02 -1.529354900121688843e-01 -1.145683005452156067e-01 -5.500553175806999207e-02 -1.161715313792228699e-01 1.323419995605945587e-02 -7.508964091539382935e-02 -1.762898564338684082e-01 -1.119192242622375488e-01 2.678393721580505371e-01 3.620686754584312439e-02 -3.166626021265983582e-02 2.118480205535888672e-01 2.581405639648437500e-01 -2.675305604934692383e-01 -2.025707513093948364e-01 1.508060677224420942e-06 2.893672138452529907e-02 -5.147509649395942688e-02 2.746521830558776855e-01 1.292449831962585449e-01 1.761084347963333130e-01 3.741773590445518494e-02 2.236582636833190918e-01 -6.940310868230881169e-06 -7.112701982259750366e-02 1.974035799503326416e-01 -5.848022922873497009e-02 1.727056801319122314e-01 -9.425847791135311127e-03 6.761536747217178345e-02 4.265044257044792175e-02 5.667993798851966858e-02 -5.315905436873435974e-02 2.192957792431116104e-03 -2.304134657606482506e-03 -3.300490602850914001e-02 9.066338092088699341e-02 5.212919041514396667e-02 -8.118597418069839478e-02 -2.627556025981903076e-01 -1.440121084451675415e-01 2.918602153658866882e-02 8.762967586517333984e-02 1.042350083589553833e-01 -2.446809411048889160e-01 -1.966742575168609619e-01 -1.734248250722885132e-01 -4.457162320613861084e-02 1.661786154727451503e-05 -4.404057562351226807e-02 1.468724310398101807e-01 2.065534517168998718e-02 -3.562579862773418427e-03 -8.719326555728912354e-02 -1.961747407913208008e-01 6.407111138105392456e-02 -3.318903446197509766e-01 -4.199254885315895081e-02 7.453123480081558228e-02 2.458959966897964478e-01 1.802793145179748535e-01 -1.731522232294082642e-01 8.187286555767059326e-03 5.011320486664772034e-02 -1.587815731763839722e-01 7.094641774892807007e-02 -8.702287077903747559e-02 -2.525459229946136475e-01 2.017585188150405884e-01 -1.266192086040973663e-02 1.203422173857688904e-01 -3.125149756669998169e-02 -6.712728738784790039e-02 9.955959022045135498e-02 -2.843233644962310791e-01 -4.661443829536437988e-02 -1.039611771702766418e-01 9.127024561166763306e-02 -5.763128027319908142e-02 4.466802626848220825e-02 1.946219056844711304e-01 -2.486160248517990112e-01 -1.076830998063087463e-01 7.819040119647979736e-02 -8.382450687349773943e-06 -1.844605207443237305e-01 1.102256923913955688e-01
-1.614845395088195801e-01 3.741359978448599577e-05 7.957573235034942627e-02 -2.882916305679827929e-05 7.020727265626192093e-03 -6.859550625085830688e-02 4.262715578079223633e-02 1.702162990113720298e-05 7.194045186042785645e-02 -4.779610782861709595e-02 4.623769596219062805e-02 -1.516134440898895264e-01 -8.953908036346547306e-06 1.148045621812343597e-02 -1.583984196186065674e-01 -1.131918057799339294e-01 4.835460335016250610e-02 5.469189025461673737e-03 -1.113908179104328156e-02 3.312206899863667786e-05 -2.173572406172752380e-02 -2.563068410381674767e-04 -1.045700237154960632e-01 -3.579751864890567958e-05 1.469051986932754517e-01 3.647559136152267456e-02 1.359716057777404785e-02 7.434561848640441895e-02 -3.148825635435059667e-05 -3.779715916607528925e-05 -2.355141259613446891e-05 5.294580943882465363e-03 1.565728234709240496e-05 3.937366604804992676e-02 1.616698136785998940e-05 8.160376548767089844e-02 1.611120700836181641e-01 1.410588026046752930e-01 2.644158527255058289e-02 1.076773628592491150e-01 -1.819799581426195800e-05 2.744409069418907166e-02 -4.273360536899417639e-05 9.744070848682895303e-05 -6.345871952362358570e-05 -1.127592040575109422e-04 -1.703964471817016602e-01 -9.987818430090555921e-07 -1.608002930879592896e-02 8.251341569120995700e-06 -1.026102378964424133e-01 -1.220043972134590149e-01 6.536160409450531006e-02 -2.143404344678856432e-05 3.253421932458877563e-02 -3.176002204418182373e-02 1.978135854005813599e-01 -1.956869512796401978e-01 7.872657151892781258e-04 3.316475776955485344e-03 8.276969939470291138e-02 -1.630290535103995353e-05 1.022579526761546731e-04 1.364759951829910278e-01 -3.015977563336491585e-05 1.958328539330977947e-05 8.440709114074707031e-02 -7.425002008676528931e-02 -4.243625735398381948e-04 -1.707774847745895386e-01 1.092102229595184326e-01 -4.842866584658622742e-02 6.225238740444183350e-02 -1.101033649320015684e-05 -2.338150079594925046e-05 -1.183329001069068909e-01 7.952112704515457153e-02 -2.047205716371536255e-02 4.709946736693382263e-02 1.540455669164657593e-01 -9.082018584012985229e-02 -1.465767994523048401e-02 4.061018303036689758e-02 7.902652025222778320e-02 -1.284863799810409546e-03 -9.649642015574499965e-05 -4.658774560084566474e-05 6.011114642024040222e-02 6.313966214656829834e-02 -1.363418344408273697e-02 3.258036822080612183e-02 8.975346386432647705e-02 4.087669367436319590e-05 2.624666318297386169e-02 2.344829775393009186e-02 4.223613440990447998e-02 -3.265313353040255606e-05 2.395016053924337029e-05 2.377605414949357510e-05 -3.136740997433662415e-04 -5.629821494221687317e-02 1.196962781250476837e-03 -3.175887092947959900e-02 -5.720270425081253052e-02 -6.839097291231155396e-02 -7.201836258172988892e-02 5.783560872077941895e-02 -2.528054080903530121e-02 7.153780461521819234e-05 -8.487715967930853367e-05 -2.074580788612365723e-01 1.204605475068092346e-01 -5.617725849151611328e-02 7.176502048969268799e-02 2.133042085915803909e-03 -7.935601388453505933e-06 1.052723928296472877e-05 3.302084282040596008e-02 2.211844548583030701e-05 -2.347040176391601562e-01
-1.139146089553833008e-01 5.432843416929244995e-02 -2.033820562064647675e-02 1.078810691833496094e-01 1.092672348022460938e-03 -1.917959004640579224e-02 1.422012746334075928e-01 -6.202807649970054626e-02 7.113222964107990265e-03 -8.153172209858894348e-03 8.953787073551211506e-06 -9.950400143861770630e-02 9.044603444635868073e-03 -1.065840423107147217e-01 8.659145236015319824e-02 -1.764912530779838562e-02 -1.005453020334243774e-01 1.238833889365196228e-01 -1.534920738777145743e-05 1.050077471882104874e-02 -2.605150453746318817e-02 1.289461106061935425e-01 2.062881439924240112e-01 2.778983616735786200e-05 1.698573678731918335e-01 -3.603878244757652283e-02 1.544200628995895386e-01 -1.189609691500663757e-01 -7.467614523193333298e-06 -1.125261038541793823e-01 1.298733949661254883e-01 4.822312388569116592e-03 -7.727086631348356605e-05 -2.084340304136276245e-01 1.433806419372558594e-01 -1.639423817396163940e-01 -8.094133436679840088e-02 1.807746291160583496e-01 4.094062896911054850e-04 3.869884088635444641e-02 -1.867641955614089966e-01 4.949162900447845459e-02 1.767408847808837891e-02 -1.996802893700078130e-05 4.638569802045822144e-02 -5.830587819218635559e-03 -3.083390416577458382e-03 5.549161508679389954e-02 8.782451972365379333e-03 -1.008795648813247681e-01 3.960223693866282701e-05 -1.335959732532501221e-01 8.742661029100418091e-02 7.802462577819824219e-02 -3.932162746787071228e-02 -1.524731665849685669e-01 6.822384311817586422e-04 -1.932026236318051815e-03 7.250799238681793213e-02 2.711672186851501465e-01 1.689099520444869995e-01 1.702453300822526217e-05 2.259278297424316406e-02 -1.490059588104486465e-02 2.349497377872467041e-01 3.853759169578552246e-02 2.175286039710044861e-02 -3.692869540827814490e-06 7.490761578083038330e-03 -7.102439552545547485e-02 2.336596325039863586e-02 -5.528957990463823080e-05 -2.443034388124942780e-02 -1.110036969184875488e-01 -1.242436170578002930e-01 -1.185248866677284241e-01 5.260623246431350708e-02 4.630838520824909210e-05 1.898676007986068726e-01 8.039827644824981689e-02 5.942226201295852661e-02 -1.234593521803617477e-02 -9.324172884225845337e-02 -9.853119991021230817e-07 -3.199157072231173515e-05 8.848762512207031250e-02 9.053449332714080811e-02 1.509065274149179459e-02 1.463555097579956055e-01 9.619618207216262817e-02 -1.761971786618232727e-02 1.375704854726791382e-01 1.603515120223164558e-03 -6.803471478633582592e-06 -2.153169225493911654e-05 9.843889623880386353e-02 -5.633235559798777103e-05 3.495820239186286926e-02 -7.840333133935928345e-02 -5.960898101329803467e-02 1.388159692287445068e-01 8.012426644563674927e-02 -2.031867006735410541e-05 -1.354274712502956390e-02 1.706139892339706421e-01 -9.095773845911026001e-02 -3.046247002203017473e-05 6.478732079267501831e-02 9.618385881185531616e-02 1.282739192247390747e-01 1.328195631504058838e-01 -1.062846779823303223e-01 -2.607595888548530638e-05 6.514256447553634644e-02 -4.811652377247810364e-02 2.445787750184535980e-02 -1.100820736610330641e-04 -7.874038070440292358e-02 -1.586827822029590607e-02 -1.598671823740005493e-01
2.506197802722454071e-02 1.050072610378265381e-01 -1.441116631031036377e-01 1.618545949459075928e-01 7.047516759485006332e-03 -5.683902278542518616e-02 -2.039658278226852417e-01 -5.891824513673782349e-02 -2.320902347564697266e-01 -3.047156333923339844e-02 -1.329004764556884766e-01 -5.232192575931549072e-03 6.629815697669982910e-02 -9.240750968456268311e-02 3.364348784089088440e-02 -5.516278371214866638e-02 -6.312070786952972412e-02 -3.291153609752655029e-01 1.116980612277984619e-01 -1.016120985150337219e-01 -2.023780792951583862e-01 8.668586611747741699e-02 1.076731383800506592e-01 2.180827707052230835e-01 2.708846032619476318e-01 6.186740210978314281e-05 -3.438667207956314087e-02 4.021781787741929293e-04 2.474937587976455688e-01 -1.995571106672286987e-01 1.441271901130676270e-01 -9.398991614580154419e-02 5.636502057313919067e-02 1.715986640192568302e-03 2.593769431114196777e-01 6.172789633274078369e-02 -8.906322717666625977e-02 -1.971261017024517059e-02 3.346407611388713121e-04 5.923939868807792664e-02 6.359925121068954468e-02 -1.432777196168899536e-01 1.476390985772013664e-03 -1.280235797166824341e-01 -1.356705129146575928e-01 -1.246672719717025757e-01 3.195401281118392944e-03 -1.148834303021430969e-01 -7.696852087974548340e-02 -1.811144500970840454e-01 -2.742367982864379883e-01 -5.099441623315215111e-04 -1.857822239398956299e-01 -1.883728057146072388e-02 1.635389924049377441e-01 2.422839403152465820e-01 -1.002404838800430298e-02 -2.296284437179565430e-01 -1.566290110349655151e-01 1.284743994474411011e-01 -4.334805533289909363e-02 3.237008675932884216e-02 9.864352643489837646e-02 5.414704605937004089e-02 -6.050115823745727539e-02 1.032911166548728943e-01 -1.359310150146484375e-01 1.350119411945343018e-01 2.255865745246410370e-02 -2.219808287918567657e-02 -1.236798688769340515e-01 -1.529466317151673138e-05 -1.149596646428108215e-01 -1.666949838399887085e-01 -1.279945224523544312e-01 -3.252020776271820068e-01 8.358280174434185028e-03 1.954156607389450073e-01 -3.788372036069631577e-03 6.699383258819580078e-02 1.244721561670303345e-01 2.690841071307659149e-02 -1.416743248701095581e-01 1.053236201405525208e-01 -1.892455816268920898e-01 9.986452758312225342e-03 2.809466719627380371e-01 -2.894117832183837891e-01 -1.435339003801345825e-01 2.285970747470855713e-01 -3.114400506019592285e-01 1.502230912446975708e-01 6.954231113195419312e-02 2.409047484397888184e-01 5.672721937298774719e-02 -1.063668355345726013e-01 4.926189035177230835e-02 1.062102988362312317e-01 6.206894665956497192e-02 -5.704564601182937622e-02 5.005033221095800400e-03 1.767748892307281494e-01 -2.298101596534252167e-02 2.557339668273925781e-01 1.338866502046585083e-01 -3.943404182791709900e-02 -2.557124197483062744e-01 -8.601933717727661133e-02 1.454946547746658325e-01 1.109047010540962219e-01 1.752639561891555786e-02 -1.030298247933387756e-01 2.584243416786193848e-01 2.567272484302520752e-01 8.993894606828689575e-02 4.169722160440869629e-05 1.568576321005821228e-02 1.581616252660751343e-01 1.532824337482452393e-01 1.574249118566513062e-01
5.380957946181297302e-02 -3.084324300289154053e-01 6.483940035104751587e-02 -1.190064195543527603e-02 1.086884066462516785e-01 3.603324294090270996e-02 -8.908081054687500000e-02 -2.071272023022174835e-02 -5.821587517857551575e-02 1.648848950862884521e-01 -2.384276740485802293e-05 2.477381378412246704e-01 1.150492653250694275e-01 1.848514750599861145e-02 3.542682155966758728e-02 4.108098149299621582e-02 -1.438716202974319458e-01 9.156797826290130615e-02 -3.371784623595885932e-05 -4.371944214653922245e-06 1.171215027570724487e-01 -1.333393603563308716e-01 1.445063482969999313e-02 -1.438186019659042358e-01 4.224961623549461365e-03 -4.872737824916839600e-02 5.130992940394207835e-05 -1.704264134168624878e-01 8.108104765415191650e-02 2.486259341239929199e-01 -2.067281639028806239e-05 -1.256260275840759277e-01 -1.435468904674053192e-02 -1.308869421482086182e-01 -2.300096601247787476e-01 2.232636809349060059e-01 -9.361050277948379517e-02 8.456544578075408936e-02 -2.328486591577529907e-01 7.940151542425155640e-02 1.624295413494110107e-01 -3.966373205184936523e-02 -1.038271220750175416e-04 -2.013004273176193237e-01 2.212510555982589722e-01 2.487196773290634155e-02 -1.616515070199966431e-01 8.652291446924209595e-02 8.398871868848800659e-02 7.527668029069900513e-02 -1.557466983795166016e-01 1.124579608440399170e-01 4.570903629064559937e-02 3.413973172428086400e-05 2.536936700344085693e-01 4.222551069688051939e-06 -1.066173017024993896e-01 -1.399808842688798904e-02 2.034331485629081726e-02 -1.442865654826164246e-02 9.780562669038772583e-02 -1.230840478092432022e-02 2.215877026319503784e-01 -2.050662040710449219e-01 3.479584120213985443e-03 -1.715032309293746948e-01 -5.886039137840270996e-02 5.221813917160034180e-03 -1.220688745379447937e-01 -2.005284875631332397e-01 -8.074045926332473755e-02 -8.584165573120117188e-02 -4.625024273991584778e-02 -1.116277873516082764e-01 -1.338800787925720215e-01 -1.490149861638201401e-05 -1.272855550050735474e-01 3.557070344686508179e-02 2.077547105727717280e-05 1.176603063941001892e-01 -5.390102043747901917e-02 -1.471576392650604248e-01 6.246461998671293259e-05 -1.139089278876781464e-02 -1.270474791526794434e-01 2.534910850226879120e-02 1.414824724197387695e-01 6.913073360919952393e-02 1.522339731454849243e-01 1.729567348957061768e-02 -4.520071524893864989e-05 1.126969158649444580e-01 1.706589162349700928e-01 1.070244386792182922e-01 -1.493177860975265503e-01 5.548350600292906165e-05 -1.424480676651000977e-01 1.028856635093688965e-01 7.897518575191497803e-02 4.828345496207475662e-03 -1.467786580324172974e-01 -1.625761687755584717e-01 7.599695026874542236e-02 -6.835359614342451096e-03 1.332968473434448242e-01 2.428984940052032471e-01 1.081264689564704895e-01 5.689429584890604019e-03 -2.750451858446467668e-05 1.321370601654052734e-01 2.907754480838775635e-01 -8.727001026272773743e-03 -3.147980198264122009e-02 1.568613648414611816e-01 -8.313342928886413574e-02 -3.224111424060538411e-05 2.256925217807292938e-02 2.267697345814667642e-05 1.059362813830375671e-01 -3.140009567141532898e-02
-1.084989234805107117e-01 2.901442116126418114e-03 -2.790574399114120752e-06 -1.182493008673191071e-02 3.615406967583112419e-05 1.383162438869476318e-01 1.476743817329406738e-01 -6.633070856332778931e-02 1.257558324141427875e-05 -1.340906692348653451e-06 -1.086373161524534225e-02 4.992682486772537231e-02 -1.289071887731552124e-01 -5.307981609803391621e-07 8.042662590742111206e-02 -2.841616272926330566e-01 -2.411288187431637198e-05 3.343802745803259313e-05 1.151415631175041199e-01 -5.097403749823570251e-02 5.596118979156017303e-03 -2.283203881233930588e-03 5.485002323985099792e-02 2.629258483648300171e-02 1.367044448852539062e-01 2.990801112900953740e-05 1.226977929472923279e-01 -2.268905751407146454e-02 -4.147489107708679512e-06 1.715433783829212189e-02 1.320301294326782227e-01 -2.581123029813170433e-03 5.058860033750534058e-02 9.188292920589447021e-02 -1.897139698266983032e-01 -7.828337699174880981e-02 -2.011636272072792053e-02 -1.927416473627090454e-01 -1.049226373434066772e-01 3.033048938959836960e-03 -2.470178878866136074e-05 5.658128857612609863e-02 -7.396211731247603893e-05 -1.319244652986526489e-01 -1.644733361899852753e-02 -1.033126488327980042e-01 -6.161183863878250122e-02 1.602431759238243103e-02 -1.324297115206718445e-02 2.761173527687788010e-05 -2.763449959456920624e-02 6.707170996378408745e-06 -1.160522550344467163e-01 -5.533216521143913269e-02 2.485478110611438751e-02 -2.322587519884109497e-01 1.526483902125619352e-05 2.818729579448699951e-01 -7.637710124254226685e-02 -1.140412678068969399e-05 8.590834331698715687e-04 -3.208753332728520036e-05 -4.027098417282104492e-02 1.629136531846597791e-04 3.469049185514450073e-02 -7.825642569514457136e-06 -1.234595477581024170e-01 3.900980111211538315e-03 6.257260590791702271e-02 8.277650177478790283e-02 -1.329252972936956212e-05 -1.525370225863298401e-05 1.548329591751098633e-01 -7.872480154037475586e-02 -1.131464796344516799e-05 1.863314956426620483e-01 -1.173333525657653809e-01 -1.841914653778076172e-01 2.883355319499969482e-02 1.608205457159783691e-05 -1.761333346366882324e-01 -6.849659606814384460e-03 1.547523587942123413e-01 6.146466359496116638e-02 -3.325566649436950684e-02 3.395398706197738647e-02 1.647373755986336619e-05 -2.194839268922805786e-01 -1.619695127010345459e-01 1.594255268573760986e-01 2.174114733934402466e-01 5.853195860981941223e-02 7.283449172973632812e-02 3.837893903255462646e-02 -1.078563369810581207e-02 -1.986300958378706127e-06 2.707240171730518341e-02 -1.291095713895629160e-06 -1.642088987864553928e-03 -1.693552136421203613e-01 1.063905283808708191e-01 -9.115440398454666138e-02 8.523021638393402100e-02 -1.449470408260822296e-03 8.111202987493015826e-06 4.753263667225837708e-03 -1.599127948284149170e-01 -3.909967094659805298e-02 1.592686921358108521e-01 -1.780333514034282416e-05 -9.946355968713760376e-02 2.134727537631988525e-01 -1.894204877316951752e-02 -4.039890691637992859e-02 5.899959057569503784e-02 -6.421215832233428955e-02 1.243361458182334900e-02 -7.004941999912261963e-02 5.989477969706058502e-03 -1.798337325453758240e-05
