-1.219755634665489197e-01 1.017563715577125549e-01 3.634588665590854362e-06 5.513567477464675903e-02 -2.264505922794342041e-01 1.562258148624096066e-06 -2.190607935190200806e-01 1.189324771985411644e-03 -1.291859447956085205e-01 1.782184839248657227e-01 2.115637809038162231e-01 4.368282134237233549e-06 -2.000183332711458206e-03 -1.076155900955200195e-01 -7.028055279079126194e-06 1.028599739074707031e-01 -3.767814859747886658e-02 -7.745887160126585513e-06 -1.090763881802558899e-01 -1.321783661842346191e-01 6.846328824758529663e-02 1.374884843826293945e-01 1.477933526039123535e-01 -1.125773042440414429e-01 1.371758282184600830e-01 1.440097730665002018e-05 2.036598511040210724e-02 -4.158328010817058384e-07 1.434040516614913940e-01 1.128176700149197131e-05 -1.725971847772598267e-01 -3.116372525691986084e-01 3.334064409136772156e-02 5.193221113586332649e-06 7.892955094575881958e-03 2.723196446895599365e-01 7.244578748941421509e-02 -1.266694720834493637e-02 1.245510727167129517e-01 1.274176128208637238e-02 -1.069134548306465149e-01 -8.062740415334701538e-02 1.718854717910289764e-02 -7.460108463419601321e-06 1.890979183372110128e-04 -1.950012892484664917e-02 6.961162388324737549e-02 7.761783308524172753e-06 7.904741323727648705e-06 5.421802774071693420e-02 9.090340696275234222e-03 8.651770651340484619e-03 -1.224652007222175598e-01 8.254891633987426758e-02 9.777417778968811035e-02 -4.488922058953903615e-06 -2.019292265176773071e-01 -9.619547426700592041e-02 -1.057856716215610504e-04 8.580389476264826953e-06 -1.422588247805833817e-02 1.686001633061096072e-05 -1.902247071266174316e-01 6.315744947642087936e-03 5.000487362849526107e-06 -2.867063134908676147e-02 7.895584404468536377e-02 2.358124032616615295e-02 -3.306629881262779236e-02 1.881244182586669922e-01 6.378342211246490479e-02 -3.478835225105285645e-01 1.160793080925941467e-01 1.683486551046371460e-01 2.154376953840255737e-01 -4.585307464003562927e-02 4.105835035443305969e-02 1.167444959282875061e-01 -6.877000629901885986e-02 -2.767911355476826429e-04 -3.765423223376274109e-02 -1.823478490114212036e-01 6.004911028867354617e-06 1.361824106425046921e-03 2.107065171003341675e-01 -8.271976560354232788e-02 8.550056918465998024e-06 -3.480819714241079055e-06 -5.979773029685020447e-02 -9.820580482482910156e-02 -6.723882164806127548e-03 4.030511528253555298e-02 -2.335627228021621704e-01 -8.336726576089859009e-03 -1.471648216247558594e-01 -1.265661604702472687e-02 -2.916873097419738770e-01 -2.891584244935074821e-06 -1.485878974199295044e-01 -4.115001112222671509e-02 -5.392711955209961161e-06 1.405245512723922729e-01 -1.026728972792625427e-01 8.737742973607964814e-06 -4.030461981892585754e-02 1.800108111638110131e-05 2.332491055130958557e-02 -1.177674010396003723e-01 5.313698202371597290e-02 -4.215352237224578857e-02 -4.805188509635627270e-04 -1.259938627481460571e-01 9.715189784765243530e-02 3.494317752483766526e-06 6.754928082227706909e-02 8.246092498302459717e-02 1.049064397811889648e-01 8.048947900533676147e-02 -1.148074120283126831e-01 2.993939444422721863e-03
1.100123021751642227e-02 9.170844350592233241e-06 9.466968549531884491e-06 -7.357397675514221191e-02 6.716276053339242935e-03 7.741800800431519747e-06 -1.914465101435780525e-03 -4.421548545360565186e-02 -2.912014164030551910e-02 -1.376194357872009277e-01 -1.403445276082493365e-05 -3.522786209941841662e-05 3.188028186559677124e-02 -6.187473423779010773e-03 -7.489756098948419094e-04 1.025742590427398682e-01 3.037435271835420281e-05 1.171052554127527401e-05 -6.196607500896789134e-06 9.137263987213373184e-06 -6.133928429335355759e-03 2.309573292732238770e-01 3.552985843271017075e-03 7.906240969896316528e-02 1.962482929229736328e-05 1.325846761465072632e-01 7.168336957693099976e-02 2.083668732666410506e-06 -2.936768159270286560e-02 5.611592158675193787e-02 1.577432267367839813e-02 5.611211236100643873e-06 2.588504552841186523e-01 -2.040219078480731696e-05 -1.453513205051422119e-01 6.615517288446426392e-02 6.367724388837814331e-02 4.632104264601366594e-07 -1.807019263505935669e-01 2.526453435420989990e-01 1.068063284037634730e-05 -4.069900569447781891e-06 -4.820630238100420684e-06 -3.484671651676762849e-06 -4.890022864856291562e-06 -9.160362184047698975e-02 9.175474755465984344e-03 -1.958684606506722048e-06 -4.539750079857185483e-06 -4.384553059935569763e-03 1.692089624702930450e-02 6.009679509588750079e-07 6.838405877351760864e-02 6.188619509339332581e-02 -1.602683369128499180e-06 -1.777733086782973260e-05 1.382955312728881836e-01 -4.654657095670700073e-02 4.660769263864494860e-07 -6.137777745607309043e-06 -1.004281148198060691e-05 6.846124051662627608e-06 9.635594324208796024e-06 2.808381430804729462e-02 8.732637017965316772e-02 1.770834387571085244e-06 -1.249124184250831604e-01 -5.385763870435766876e-06 -6.710512191057205200e-02 -5.142586771398782730e-03 1.466933730989694595e-02 2.499724179506301880e-02 1.876664012670516968e-01 9.908773005008697510e-03 6.014398299157619476e-03 -1.560035627335309982e-02 -6.607996672391891479e-02 -7.868726551532745361e-02 -8.948653936386108398e-02 -6.253699958324432373e-02 -7.919411291368305683e-05 6.650684099440695718e-06 -3.772267326712608337e-02 2.299093268811702728e-02 -6.977654265938326716e-06 1.565524935722351074e-01 -1.067669654730707407e-05 3.802471837843768299e-06 -2.516839187592267990e-03 7.912451773881912231e-02 1.111466214060783386e-01 -1.154311224818229675e-01 -6.144635006785392761e-02 -1.580756753683090210e-01 -1.144890338182449341e-01 -8.650252968072891235e-02 -1.421586796641349792e-02 -2.132721783709712327e-05 1.591046930116135627e-05 2.189469635486602783e-01 -1.198390236822888255e-05 -4.698767043009866029e-06 2.992110513150691986e-02 -7.270809874171391129e-07 9.574003517627716064e-02 2.514435436751227826e-06 1.599808931350708008e-01 -5.770074669271707535e-03 1.262046545743942261e-01 3.552709147334098816e-02 -1.508500281488522887e-05 6.445411592721939087e-02 1.694313138723373413e-01 2.033750265836715698e-01 3.312939032912254333e-02 4.007512870884966105e-06 -1.682541551417671144e-05 -3.095992724411189556e-04 -1.153492107987403870e-01 -2.469666860997676849e-02
-2.836999556166119874e-05 3.177160760969854891e-05 -2.758550181169994175e-06 4.386195242404937744e-01 1.025782694341614842e-07 1.569400592416059226e-05 -9.114631265401840210e-02 1.071390137076377869e-01 -7.437729436787776649e-06 3.539020326570607722e-06 1.100179031491279602e-01 -1.392089689034037292e-05 -1.241778772964607924e-05 7.491485774517059326e-02 2.776806650217622519e-05 5.639370647259056568e-04 4.123049601912498474e-02 5.764230991189833730e-06 -4.496314795687794685e-05 1.711397453618701547e-05 5.024867132306098938e-02 3.440448490437120199e-04 1.827488467097282410e-02 -1.686863303184509277e-01 8.189017535187304020e-07 4.992511458112858236e-05 -2.293532155454158783e-02 -4.340746454545296729e-05 -1.873789876699447632e-01 -9.422605857253074646e-03 -1.316877569479402155e-05 -1.260677890968509018e-06 -1.610340950719546527e-05 -1.067993071046657860e-05 3.984515368938446045e-02 5.811676755547523499e-02 9.941566531779244542e-06 9.317663352703675628e-05 5.962038358120480552e-06 4.748719278723001480e-03 -1.320201590715441853e-05 -1.041898303810739890e-05 -4.493595042731612921e-07 3.253636896261014044e-05 -1.383458311465801671e-05 4.796072244644165039e-01 7.671676939935423434e-06 -7.357023150689201429e-06 -3.486280911602079868e-05 -6.625718924624379724e-06 -1.497307312092743814e-05 -1.086401243810541928e-05 -1.979125430807471275e-03 1.286556744162226096e-05 5.350320861907675862e-07 1.704986789263784885e-05 -9.663222044764552265e-06 4.393951501697301865e-03 -2.529874742031097412e-01 -3.564502185327000916e-05 1.215637568384408951e-02 -2.429836786177475005e-05 7.496012585761491209e-06 4.150883108377456665e-02 -1.122058347391430289e-05 -4.340803623199462891e-02 2.050369381904602051e-01 5.053377208241727203e-06 2.120291590690612793e-01 6.228631734848022461e-02 -6.110380636528134346e-04 1.932636223500594497e-06 -4.409943358041346073e-05 6.109575554728507996e-02 -6.961952149868011475e-02 -1.247789710760116577e-01 2.476534396409988403e-01 4.798709228634834290e-02 1.789898669812828302e-05 -1.207671016454696655e-01 2.037465128523763269e-05 2.004495399887673557e-05 -2.963841520249843597e-02 -2.648039480845909566e-05 -1.613876074552536011e-01 -7.547191344201564789e-03 2.454585228406358510e-06 -1.855354639701545238e-05 -3.131959121674299240e-03 -8.927512168884277344e-02 5.535043776035308838e-03 1.794172021618578583e-05 1.214184430864406750e-05 2.414105460047721863e-02 -5.519812554121017456e-02 -4.644137248396873474e-02 -5.003667250275611877e-02 1.190956936625298113e-05 -9.538976883050054312e-06 -1.097178665077080950e-05 -1.190536931972019374e-05 -7.421075679303612560e-06 -5.843264516443014145e-03 -4.059145067003555596e-05 2.717344649136066437e-02 -2.148573184967972338e-05 1.821268647909164429e-01 -4.644080065190792084e-03 -1.017734302877215669e-05 1.297850030823610723e-05 -1.870330772362649441e-03 -1.054149106494151056e-05 -5.937825335422530770e-06 9.855816140770912170e-03 1.358268491458147764e-06 -9.658429771661758423e-03 -1.867801323533058167e-02 4.855079896515235305e-05 1.825338040362112224e-05 2.799432352185249329e-02
-2.605558256618678570e-05 4.600077954819425941e-05 4.387636636238312349e-07 2.997997105121612549e-01 -3.510622307658195496e-03 1.820746183511801064e-05 -4.286873340606689453e-02 3.557597665349021554e-05 -2.278948159073479474e-06 -6.172193934617098421e-06 1.853943467722274363e-05 3.726487193489447236e-06 -2.250089164590463042e-05 8.696047189005184919e-06 3.822752478299662471e-05 1.802758197300136089e-05 1.251377307198708877e-05 1.602001248102169484e-05 -5.951472849119454622e-05 2.429716187180019915e-05 3.538315650075674057e-05 4.490596707910299301e-03 8.880903944373130798e-03 -3.143194690346717834e-02 4.188819730188697577e-06 5.318253487348556519e-02 -4.535288098850287497e-05 -5.503645661519840360e-05 -5.190633237361907959e-05 -6.739258969901129603e-05 4.664819315075874329e-02 -2.947238832712173462e-02 -1.851165325206238776e-05 -1.122577850765082985e-05 9.413645416498184204e-02 8.553453534841537476e-02 -3.112583726760931313e-06 8.381790394196286798e-05 -1.212545612361282110e-06 4.712788359029218554e-05 -1.094615981855895370e-05 -3.064905286009889096e-06 -1.458189763070549816e-05 3.552701309672556818e-05 8.452662586933001876e-05 3.505817353725433350e-01 1.058096997439861298e-02 -1.549536318634636700e-05 -5.605444312095642090e-05 -1.001526288746390492e-05 -2.431408574921078980e-05 -2.247076736239250749e-05 -2.105532586574554443e-02 9.918430805555544794e-07 -8.436080861429218203e-06 2.285310256411321461e-05 -7.274123163369949907e-06 8.926716691348701715e-05 -2.467483431100845337e-01 -5.084708391223102808e-05 1.452271244488656521e-03 -2.951197348011191934e-05 1.279605385207105428e-05 1.915609755087643862e-05 -1.817932206904515624e-05 -3.600459604058414698e-05 1.145411655306816101e-01 5.480701474880333990e-06 1.005512326955795288e-01 1.240401797986123711e-05 1.397858341078972444e-05 -1.349515188485383987e-02 -3.699608350871130824e-05 4.057130590081214905e-02 -9.056585258804261684e-05 -1.066945344209671021e-01 1.479719132184982300e-01 6.344528496265411377e-02 2.160303483833558857e-05 -8.991725742816925049e-02 2.583546483947429806e-05 3.436667611822485924e-05 -6.777049566153436899e-05 8.436590433120727539e-03 -2.816172242164611816e-01 -4.313563555479049683e-02 -1.692220394033938646e-05 -3.167907561874017119e-05 9.362690434500109404e-06 -1.759300939738750458e-02 1.993215846596285701e-06 2.796035005303565413e-05 1.429060193913755938e-05 1.027393434196710587e-02 4.101500962860882282e-05 -1.285188365727663040e-02 -1.917877979576587677e-02 1.902945768961217254e-05 -1.152245749835856259e-05 -9.154577128356322646e-06 -1.361888189421733841e-05 -1.942430753842927516e-05 2.406741958111524582e-03 -5.090856939204968512e-05 7.263536006212234497e-02 -1.517910914117237553e-05 1.269692629575729370e-01 -2.262637644889764488e-05 9.400120688951574266e-06 2.424100239295512438e-05 -2.958185723400674760e-05 -1.621351475478149951e-05 8.219776675105094910e-03 6.319270323729142547e-05 2.155257789127063006e-06 -6.864350143587216735e-05 -2.396263880655169487e-05 5.653833432006649673e-05 2.653650153661146760e-05 -4.438140022102743387e-04
1.903172415040899068e-05 1.891915235319174826e-05 1.695356149866711348e-05 -7.546817511320114136e-02 -3.741448745131492615e-02 3.162059510941617191e-05 -1.324547361582517624e-02 1.466658795834518969e-05 -2.255390427308157086e-06 8.310630619234871119e-06 2.926614135503768921e-02 -5.614511792373377830e-06 1.790883106878027320e-05 -2.238680281152483076e-05 -7.979759175213985145e-06 3.788019239436835051e-05 3.619018389144912362e-05 8.652217729832045734e-06 -1.617983252799604088e-05 -1.045298948884010315e-02 -1.931484439410269260e-05 3.128029704093933105e-01 2.306445734575390816e-03 8.567449636757373810e-03 3.400700370548292994e-05 8.537157555110752583e-05 1.737489947117865086e-05 -5.429144039226230234e-06 1.282828450202941895e-01 3.118007043667603284e-06 4.233824089169502258e-03 -2.142368443310260773e-02 5.315671488642692566e-02 -1.589406747370958328e-05 3.645802289247512817e-02 1.039964985102415085e-02 6.164418533444404602e-03 -5.438684299588203430e-02 3.070148080587387085e-02 4.161833203397691250e-05 -3.735111022251658142e-06 -4.486599937081336975e-05 1.414969665347598493e-05 9.610705092200078070e-06 4.065869841724634171e-03 -1.865877807140350342e-01 -1.940965375979430974e-05 3.991344783571548760e-07 -6.398709047061856836e-06 -1.315360714215785265e-05 3.729466698132455349e-05 1.717602572171017528e-05 -1.358946710824966431e-01 5.293403955874964595e-05 1.821516081690788269e-02 -1.738627906888723373e-05 2.240084722870960832e-05 -7.274075178429484367e-04 1.981778591871261597e-01 -1.238821732840733603e-05 -6.493281107395887375e-04 -9.566929293214343488e-06 -9.765238246473018080e-06 8.356196485692635179e-05 2.311372918484266847e-05 1.289789006114006042e-02 -2.912977652158588171e-05 -2.236996988358441740e-05 -4.279633867554366589e-05 6.718110853398684412e-06 -1.747919991612434387e-02 -2.199364826083183289e-02 2.376656811975408345e-05 2.666281536221504211e-02 -1.335616889264201745e-05 -1.896749017760157585e-05 -2.635685540735721588e-02 4.209322109818458557e-02 -2.699789183679968119e-05 -1.884322045953013003e-05 -4.500197246670722961e-05 -1.822162792086601257e-02 -6.148899556137621403e-04 1.834187470376491547e-02 3.185455799102783203e-01 6.712232334393775091e-06 -8.959647857409436256e-06 4.763912875205278397e-05 1.976050407392904162e-05 -3.637664485722780228e-05 -2.992081681441050023e-05 -3.247307613492012024e-04 -4.651587732951156795e-05 -1.401515770703554153e-02 -2.806873619556427002e-01 -5.284531507641077042e-03 -1.398968398571014404e-01 -2.760456482064910233e-05 1.983764377655461431e-05 3.105759969912469387e-05 -5.115407111588865519e-05 2.301694621564820409e-05 3.767666930798441172e-05 1.231014721270184964e-06 3.207160625606775284e-05 -1.416057421010918915e-05 4.810815153177827597e-05 -7.592228939756751060e-05 7.399095193250104785e-05 -2.714755464694462717e-05 -8.045307185966521502e-05 5.621880665421485901e-02 9.731499449117109179e-05 4.002931018476374447e-05 -2.127077641489449888e-05 2.953761850221781060e-06 -5.402956594480201602e-05 -1.156080725195351988e-05 -1.119216904044151306e-05 1.560092531144618988e-02
2.142010453098919243e-05 -4.379040183266624808e-05 2.772216248558834195e-06 5.193135235458612442e-03 -6.980955367907881737e-05 -2.534684608690440655e-05 -3.179952502250671387e-02 -2.546877367421984673e-04 -5.872070044279098511e-02 4.671865826821886003e-05 4.303294554119929671e-05 1.054097083397209644e-06 9.658219823904801160e-06 3.423339148866944015e-05 -3.458478022366762161e-05 -1.924907416105270386e-02 -2.880682222894392908e-05 -4.206061566947028041e-05 5.108238474349491298e-05 -4.292761877877637744e-05 -9.968436643248423934e-06 1.789406985044479370e-01 3.733074481715448201e-05 4.262700895196758211e-05 -2.338338890695013106e-05 -1.034552260534837842e-04 1.502962095401016995e-05 1.984139998967293650e-05 6.840595602989196777e-02 3.354365617269650102e-05 3.587815081118606031e-05 -1.255612168461084366e-02 -7.334933616220951080e-04 1.667039396124891937e-05 1.465858612209558487e-02 3.331397846341133118e-02 2.747094549704343081e-05 -1.733984390739351511e-05 3.582170029403641820e-05 -1.598243601620197296e-02 -2.410037450317759067e-05 2.148216481145936996e-06 1.396293009747751057e-05 -5.890517059015110135e-05 5.098792098578996956e-05 4.647427424788475037e-02 1.097939535975456238e-02 5.150937795406207442e-06 3.798402394750155509e-05 1.972986865439452231e-05 1.628425889066420496e-05 2.209978447353933007e-05 -5.479951947927474976e-02 2.668978959263768047e-05 3.264815677539445460e-05 -8.156865078490227461e-06 -4.162166267633438110e-03 -7.149359134928090498e-06 -2.947914981632493436e-05 3.899486910086125135e-05 -8.591388905188068748e-06 2.563381895015481859e-05 -3.373488289071246982e-05 -2.496903834980912507e-05 8.169807188096456230e-06 4.456554961507208645e-05 6.633606972172856331e-05 -2.606106136227026582e-06 -1.421172873961040750e-05 6.271465099416673183e-05 -3.796818782575428486e-05 -1.708138920366764069e-02 8.089007678790949285e-06 -5.911886546527966857e-06 -2.483045915141701698e-03 -1.043349876999855042e-01 4.163089208304882050e-03 4.990624729543924332e-03 -4.083134172105928883e-06 -1.157619282603263855e-01 -8.498948773194570094e-06 -4.383227496873587370e-05 4.649090260500088334e-05 3.434150494285859168e-05 1.041048914194107056e-01 -6.844145804643630981e-02 2.166678677895106375e-05 -9.006215805129613727e-06 -3.174539655447006226e-02 6.827653199434280396e-02 -7.782323658466339111e-02 -2.897428385040257126e-05 3.749273673747666180e-06 1.703972520772367716e-05 -1.494588553905487061e-01 -9.939740266418084502e-07 -4.610521500580944121e-05 -1.861636974354041740e-06 -1.276730699828476645e-06 -1.462194541090866551e-05 2.559148560976609588e-05 2.809883335430640727e-05 -2.296533621847629547e-02 3.287676736363209784e-05 -6.084184721112251282e-02 2.109245997417019680e-06 -1.522967219352722168e-01 4.873135549132712185e-05 4.180275027465540916e-06 -3.605065649026073515e-05 3.690248558996245265e-05 -3.248856955906376243e-05 -1.180562190711498260e-03 -2.832722202583681792e-05 1.089179750124458224e-05 2.571263394202105701e-05 4.210742918075993657e-05 -3.050508530577644706e-05 -4.770150917465798557e-05 -5.299713666317984462e-05
6.747686711605638266e-05 -4.727339546661823988e-05 -3.077157089137472212e-06 -3.007905781269073486e-01 -3.121932968497276306e-05 -1.371656162518775091e-05 -1.554494228912517428e-04 -7.350519445026293397e-05 2.051700539595913142e-05 2.893802502512698993e-06 8.544034244550857693e-07 -1.666013304202351719e-05 6.791306805098429322e-05 -4.206244193483144045e-05 -7.740590081084519625e-05 1.827503365348093212e-05 1.535066621727310121e-05 -2.427883737254887819e-05 4.540941154118627310e-05 -1.086649062926881015e-04 -7.495236059185117483e-05 4.903113469481468201e-02 6.627426046179607511e-05 3.384499996900558472e-02 2.412992944300640374e-05 7.635383371962234378e-05 6.899231811985373497e-05 6.175391172291710973e-05 6.207850947976112366e-02 8.430029993178322911e-05 7.147518772399052978e-05 -7.941619696794077754e-05 1.832894608378410339e-02 -5.583980055234860629e-06 -4.078287258744239807e-02 4.393695053295232356e-05 4.672423165175132453e-05 -1.203026404255069792e-04 -8.717965101823210716e-06 3.455845580901950598e-05 1.681737740000244230e-05 -1.918876478157471865e-05 7.993756298674270511e-06 -6.783747812733054161e-05 4.833478305954486132e-05 -3.845458924770355225e-01 -1.370645350107224658e-05 2.786417826428078115e-05 6.906858470756560564e-05 8.558526133128907531e-06 5.803014937555417418e-05 3.423568341531790793e-05 -2.374001033604145050e-02 3.192589429090730846e-05 4.132374306209385395e-05 -7.242905121529474854e-05 4.331674790591932833e-05 -8.338491898030042648e-05 4.186190962791442871e-01 6.689435394946485758e-05 -1.310071529587730765e-04 -1.057517329172696918e-05 -2.650212445587385446e-05 5.420650268206372857e-05 6.665176624665036798e-05 7.516981713706627488e-05 -9.307145327329635620e-02 -3.432367884670384228e-05 -1.173197701573371887e-01 -1.615118526387959719e-05 -5.227437941357493401e-05 -6.030008444213308394e-05 7.539204671047627926e-05 8.503572462359443307e-05 5.842745667905546725e-05 -9.017611591843888164e-05 -1.304114460945129395e-01 8.416768105234950781e-05 -6.918582948856055737e-05 -1.178913880721665919e-04 -7.557518983958289027e-05 -4.885631278739310801e-05 -3.044234290427993983e-05 8.413429895881563425e-05 4.890438616275787354e-01 -1.130265009123831987e-04 1.463710577809251845e-05 5.403871182352304459e-05 4.462785000214353204e-06 -1.932218401634600013e-05 -1.583680132171139121e-04 -7.446030940627679229e-05 -5.679526657331734896e-05 -7.195759098976850510e-03 -8.572178333997726440e-02 -8.665134373586624861e-05 -1.491094660013914108e-02 -5.972214057692326605e-05 4.982002064934931695e-05 4.919878119835630059e-05 -2.222439434262923896e-05 2.066603883577045053e-05 2.678128475963603705e-05 9.214019519276916981e-05 8.100088962237350643e-06 6.391068836819613352e-06 -1.911102794110774994e-02 -4.266296309651806951e-05 7.951856969157233834e-05 -4.292096855351701379e-05 -4.214073487673886120e-05 5.038647726178169250e-02 8.232884283643215895e-05 3.986274532508105040e-05 -1.283954134123632684e-05 8.271665865322574973e-05 -3.626907528087031096e-06 -9.128909005085006356e-05 -5.399046494858339429e-05 -6.506014324259012938e-05
-1.027714552037650719e-05 5.106522439746186137e-05 -4.059669299749657512e-05 4.936178447678685188e-04 -5.980381369590759277e-02 4.356721910880878568e-05 4.498408362269401550e-02 3.183618560433387756e-02 8.154513125191442668e-06 -1.651597995078191161e-05 5.964880110695958138e-04 -1.056708515534410253e-05 -3.720225322467740625e-06 -9.037989002536050975e-06 1.561380122439004481e-05 1.916424557566642761e-02 1.638354919850826263e-02 2.244433926534838974e-05 -6.082016989239491522e-05 1.747872738633304834e-05 1.123241418099496514e-05 1.163558810949325562e-01 6.265063583850860596e-02 -4.729782085632905364e-05 1.299064420163631439e-02 5.510630458593368530e-02 -1.737121783662587404e-05 -3.564837970770895481e-05 -2.199930697679519653e-02 -4.222117422614246607e-05 9.284457564353942871e-02 -7.812699303030967712e-03 8.061799407005310059e-02 -9.968064659915398806e-06 4.326411581132560968e-04 3.806538134813308716e-02 1.026972196996212006e-02 -1.747703365981578827e-02 -7.747319614281877875e-06 4.226983711123466492e-02 6.582187324966071174e-06 -3.270404340582899749e-05 3.273360562161542475e-06 4.077169433003291488e-05 8.581960946321487427e-02 4.386809087009169161e-05 -5.379259528126567602e-05 -3.543795537552796304e-05 -4.953727329848334193e-05 -1.494628850196022540e-05 2.568972377048339695e-06 2.360347425565123558e-03 -1.442783474922180176e-01 1.971947401762008667e-02 1.431430596858263016e-02 3.220406142645515501e-06 1.217185763380257413e-05 -9.283920750021934509e-03 4.850262484978884459e-05 -5.715963197872042656e-05 1.623971911612898111e-05 -9.218233572028111666e-07 1.654650623095221817e-05 6.492129713296890259e-02 3.886657395923975855e-06 6.154826283454895020e-02 3.122298949165269732e-05 -1.371496091451263055e-05 2.405913983238860965e-05 -7.043715868348954245e-06 -6.867120973765850067e-04 -1.281803697347640991e-01 -9.264282198273576796e-06 4.925847426056861877e-02 -1.410089712589979172e-02 2.417351424810476601e-05 2.699848846532404423e-05 8.728332817554473877e-02 -2.524293449823744595e-07 2.865428905352018774e-05 -1.487885043025016785e-02 -4.039792343974113464e-02 -3.814384341239929199e-02 3.261688724160194397e-02 -2.117628719133790582e-05 -2.498039293641340919e-06 -1.415206679666880518e-05 1.686484392848797143e-05 -7.598153501749038696e-02 -4.333504693931899965e-05 1.541158781037665904e-05 3.143190269838669337e-06 -1.284939480683533475e-05 -3.811987880908418447e-06 -7.107192277908325195e-02 -5.598676204681396484e-02 -1.428596973419189453e-01 -3.153336365357972682e-06 4.807316145161166787e-06 1.157822316599776968e-05 -4.953714960720390081e-05 -1.263167632714612409e-06 1.301366984844207764e-01 -4.897913822787813842e-05 7.697927951812744141e-02 9.648551895224954933e-06 2.428591996431350708e-01 -5.714077875018119812e-02 1.287285983562469482e-01 -2.211484126746654510e-02 -3.150171041488647461e-02 3.212584555149078369e-02 8.190062642097473145e-02 2.651084214448928833e-02 -1.299651012232061476e-05 -3.704243499669246376e-05 -1.432075947523117065e-01 2.166348349419422448e-05 2.072922688967082649e-05 5.889495834708213806e-02
-1.008540764451026917e-01 -2.593916178739164025e-05 -1.436211732652736828e-06 -2.713007779675535858e-05 1.714709447696805000e-03 -2.063154897768981755e-05 -2.636358112795278430e-05 -1.981760412454605103e-01 -1.067812517285346985e-01 1.312737276748521253e-05 7.265588465088512748e-06 -4.183245437161531299e-06 -7.563103281427174807e-07 -8.639334142208099365e-02 -4.879268999502528459e-06 -5.902198329567909241e-02 -8.780609071254730225e-02 -1.858982432167977095e-05 2.917952951975166798e-05 -1.202858038595877588e-05 6.242666393518447876e-02 3.288916870951652527e-02 -8.059855550527572632e-02 1.443143337965011597e-01 -1.666932257649023086e-05 -5.007513985037803650e-02 -6.671702521998668090e-06 1.149833224189933389e-05 6.912595778703689575e-02 1.230835005117114633e-05 -1.494391239248216152e-03 -1.419673208147287369e-05 -4.389895871281623840e-02 -6.763134479115251452e-07 -1.482670288532972336e-02 6.149101409391732886e-06 -7.367173582315444946e-02 1.657704822719097137e-02 8.492165803909301758e-02 1.789663452655076981e-03 4.897326976060867310e-02 1.102336409530835226e-05 2.045778273895848542e-06 -5.988112092018127441e-02 -8.801425993442535400e-02 -2.170263323932886124e-03 2.636493146419525146e-01 1.392219928675331175e-06 2.683352431631647050e-05 5.482521828525932506e-06 -1.565664661029586568e-06 3.785847638937411830e-06 1.586165875196456909e-01 5.323818186298012733e-08 -1.579278730787336826e-03 1.820577381295152009e-06 -1.304747456742916256e-05 6.568639037141110748e-06 1.868362873792648315e-01 2.463170676492154598e-05 5.954614152869908139e-06 -7.334353085752809420e-06 -1.290018917643465102e-05 -2.352620504098013043e-05 -4.200549483357463032e-06 9.150074220087844878e-06 -7.741691661067306995e-06 4.268234533810755238e-06 -1.171117673948174343e-05 1.078609057003632188e-05 -6.244798896659631282e-06 -2.225483513029757887e-05 -1.331786043010652065e-03 -3.757357597351074219e-02 2.494054101407527924e-02 -2.193607948720455170e-02 3.750970790861174464e-06 -2.061934443190693855e-03 1.958758570253849030e-02 -2.504907920956611633e-02 5.288054049015045166e-02 1.711559365503489971e-03 2.577022496552672237e-05 2.660371137608308345e-06 5.786987021565437317e-02 -8.428730815649032593e-02 -7.550625014118850231e-06 -1.050703758664894849e-06 8.451816439628601074e-02 5.368524417281150818e-02 -2.149620652198791504e-01 -7.330248990911059082e-06 2.857097052037715912e-02 1.292708111577667296e-05 -1.483603773522190750e-05 1.310822517552878708e-05 1.365380734205245972e-02 4.908630671707214788e-06 6.398665253072977066e-03 -5.511010438203811646e-02 2.126911203959025443e-05 5.888075065740849823e-06 -2.501400411128997803e-01 2.439553463773336262e-05 -1.400706917047500610e-01 -6.774277608201373369e-06 -7.801143825054168701e-02 -1.930970326066017151e-02 -1.437835581600666046e-02 -7.086305231496226043e-06 2.900004255934618413e-05 7.671313732862472534e-02 -2.288283035159111023e-02 -1.946266638697125018e-05 8.664643246447667480e-06 1.067197081283666193e-05 2.495744593034032732e-05 3.195088356733322144e-04 1.463431026786565781e-02 -5.210532248020172119e-02
-3.945143520832061768e-02 -8.620550033811014146e-07 -6.392651812348049134e-06 1.107012256979942322e-01 1.825936287641525269e-01 -2.619456732645630836e-03 -1.556960344314575195e-01 -2.063172814814606681e-07 8.635532110929489136e-02 4.239016398787498474e-02 -2.174394018948078156e-02 9.972906809707637876e-06 -1.791415922343730927e-02 2.127590626478195190e-01 8.976437896490097046e-02 -7.050183136016130447e-03 3.887130333168897778e-06 6.215865258127450943e-03 3.131900939479237422e-06 -1.837368309497833252e-01 3.373643266968429089e-06 -8.085887134075164795e-02 1.945025287568569183e-02 -8.964817225933074951e-02 -9.752757250680588186e-07 -8.199606835842132568e-02 2.400116063654422760e-02 -3.439147803874220699e-06 -3.193156048655509949e-02 7.348139661189634353e-07 -3.249736502766609192e-02 -1.037496998906135559e-01 -2.043167054653167725e-01 -2.763664633675944060e-05 -3.429670259356498718e-02 2.448578774929046631e-01 -1.508578807115554810e-01 7.390142418444156647e-03 -9.424555301666259766e-02 9.917744249105453491e-02 1.364963203668594360e-01 -3.521653297866578214e-06 1.545391569379717112e-06 7.070800289511680603e-03 1.373309344053268433e-01 2.729134559631347656e-01 7.005985826253890991e-02 2.459762754369876347e-06 3.533804374455939978e-06 1.527553422420169227e-06 1.587739461683668196e-06 5.786480382084846497e-03 4.518722742795944214e-02 8.153543603839352727e-06 1.560974568128585815e-01 -3.989143762737512589e-03 -1.464022696018218994e-01 4.186532646417617798e-02 -3.161787092685699463e-01 2.455809863022295758e-06 -1.012656912207603455e-01 2.506407327018678188e-05 -6.113057211041450500e-02 1.374748349189758301e-01 5.254332791082561016e-07 8.162176609039306641e-02 3.429003953933715820e-01 3.067034413106739521e-07 2.808885648846626282e-02 7.144945859909057617e-02 -8.314075785165186971e-06 1.939178630709648132e-02 -2.872008979320526123e-01 8.636765927076339722e-02 -7.773762627039104700e-05 -5.208417773246765137e-02 1.473665889352560043e-02 -4.839178547263145447e-02 1.122783347964286804e-01 -6.079854443669319153e-02 -1.044031705532688648e-06 -1.359506313747260720e-05 9.669633072917349637e-06 -1.263919025659561157e-01 -1.150548458099365234e-01 1.372435092926025391e-01 -5.161204626347171143e-06 -1.538705191705957986e-06 1.340049356222152710e-01 -5.070276558399200439e-02 5.419782155513530597e-06 7.189968600869178772e-03 5.464661866426467896e-02 -9.228659421205520630e-02 -1.708902865648269653e-01 -2.530947141349315643e-02 -1.994092762470245361e-02 -1.129762455821037292e-01 -6.543723429786041379e-07 -3.293481096625328064e-02 -2.214081177953630686e-06 2.386053438385715708e-06 5.575369577854871750e-03 -8.374499884666875005e-07 -1.377663761377334595e-01 1.287397481064544991e-05 -5.403617769479751587e-02 5.210056528449058533e-02 4.705024821305414662e-06 -5.413043498992919922e-02 -2.774395397864282131e-07 -2.047394900728249922e-06 6.427941116271540523e-06 2.393244998529553413e-03 -4.477329552173614502e-02 -7.789666950702667236e-02 1.638473719358444214e-01 3.607982769608497620e-02 8.173009380698204041e-03 -3.969496861100196838e-02
-4.848424578085541725e-05 3.544030550983734429e-05 3.106124950136290863e-06 1.927689313888549805e-01 2.242605388164520264e-02 5.972340204607462510e-06 2.290959097445011139e-02 5.423818901181221008e-02 3.707209543790668249e-06 -1.896360299724619836e-05 -2.498465619282796979e-05 1.541054189146962017e-05 -1.934590363816823810e-05 1.478577905800193548e-05 3.732313052751123905e-05 5.909393075853586197e-04 7.442275091307237744e-06 4.627798683941364288e-03 -5.611361848423257470e-05 4.817875742446631193e-05 1.798599027097225189e-02 -1.674733310937881470e-01 -6.696654600091278553e-05 -7.830850780010223389e-03 -1.142821020039264113e-06 -4.433156922459602356e-03 -6.404372106771916151e-05 -4.582132532959803939e-05 -1.752989143133163452e-01 -1.074622850865125656e-02 -2.900157682597637177e-02 1.643784530460834503e-02 -4.286168405087664723e-05 1.158415398094803095e-05 -1.119466014642966911e-05 -1.355848326056730002e-05 -2.970163041027262807e-05 6.604517693631350994e-05 -2.735304406087379903e-06 6.523258239030838013e-02 -1.839439210016280413e-05 -8.357386832358315587e-06 -3.075888344028498977e-06 3.730681911110877991e-02 -8.034628629684448242e-02 2.545051872730255127e-01 -1.240543224412249401e-05 -3.336458394187502563e-05 -3.483627369860187173e-05 2.359292011533398181e-06 -2.750561361608561128e-05 -1.008760864351643249e-05 1.112201735377311707e-01 -1.854015863500535488e-05 -3.980702240369282663e-05 2.706765189941506833e-05 -1.677778163866605610e-05 8.533873595297336578e-03 -5.076085682958364487e-03 -4.139536758884787560e-05 9.426369331777095795e-03 1.515472104074433446e-05 1.497289031249238178e-05 1.162443732027895749e-05 -2.116816176567226648e-05 -4.844633489847183228e-02 2.968794852495193481e-02 -3.283145360910566524e-06 1.067145392298698425e-01 1.577240072947461158e-05 4.070768409292213619e-05 1.186072304844856262e-01 -1.129535865038633347e-02 -1.506944499851670116e-05 -3.897072374820709229e-02 3.474359982647001743e-05 7.251621037721633911e-02 -7.656686007976531982e-02 2.196988134528510273e-05 5.136478284839540720e-05 3.379052577656693757e-05 8.094886317849159241e-03 -7.770142110530287027e-05 -3.883646056056022644e-02 -7.576917111873626709e-02 2.712113223969936371e-02 -1.332309693680144846e-05 -3.802323408308438957e-05 3.108781311311759055e-05 -3.881701454520225525e-02 3.303125049569644034e-05 5.119238630868494511e-05 1.361833619739627466e-05 2.904227003455162048e-02 1.044619828462600708e-01 2.307802060386165977e-05 6.898853462189435959e-05 1.729692849039565772e-05 -1.395797335135284811e-05 -1.634468753763940185e-05 -9.936410606314893812e-06 -1.494240223109954968e-05 2.250685247418005019e-05 -3.820631900453008711e-05 6.617002934217453003e-02 5.080524715594947338e-06 4.019642621278762817e-02 -1.654334482736885548e-05 -4.651868584915064275e-05 3.413382364669814706e-05 -2.636348108353558928e-05 -1.083882943930802867e-05 -6.951457820832729340e-03 -6.504624707304174080e-06 1.776525095920078456e-06 -5.650938328471966088e-05 -1.881730349850840867e-05 5.507563764695078135e-05 5.941096969763748348e-05 3.902878612279891968e-02
-1.545684933662414551e-01 -4.233857616782188416e-02 -1.020063791656866670e-06 -8.363056927919387817e-02 5.048964545130729675e-02 -1.488258021709043533e-06 -4.845618735998868942e-03 -4.843919668928720057e-06 -2.100609242916107178e-02 -1.312903501093387604e-02 1.956572979688644409e-01 -2.014781784964725375e-05 2.240013600385282189e-06 1.014700010418891907e-01 6.690017879009246826e-02 -1.955654323101043701e-01 8.271163702011108398e-02 -3.067896159336669371e-06 5.484818757395260036e-06 -7.059867680072784424e-02 1.268011182546615601e-01 -8.055239170789718628e-02 1.986508071422576904e-02 1.771882362663745880e-02 -7.029258459806442261e-02 -4.062958061695098877e-02 -3.841136023402214050e-02 1.550741217215545475e-06 -5.212096869945526123e-02 1.016353871818864718e-05 -1.910636126995086670e-01 7.997734099626541138e-02 1.066251769661903381e-01 8.084298315225169063e-06 2.099012136459350586e-01 -7.137846201658248901e-02 5.499226517713395879e-06 -2.086682617664337158e-01 1.881290972232818604e-01 -9.682523459196090698e-02 -1.123961154371500015e-02 -3.470768206170760095e-07 2.327270976820727810e-06 2.691117697395384312e-04 -1.219724938273429871e-01 -1.554047316312789917e-01 -1.893691867589950562e-01 3.478571215964620933e-06 5.395469088398385793e-06 2.652853960171341896e-03 -1.123035103082656860e-01 2.784406888167723082e-06 -1.143419103755149990e-05 1.594196110963821411e-01 -1.741140708327293396e-02 -1.450230330228805542e-01 -1.905147582292556763e-01 -4.846567660570144653e-02 7.697737962007522583e-02 3.830973128060577437e-06 -2.210670523345470428e-02 -5.741138011217117310e-06 -8.424844963883515447e-06 -1.205622628331184387e-01 -5.467526614665985107e-02 -1.141965389251708984e-01 5.024142935872077942e-02 6.695560365915298462e-02 -1.778448969125747681e-01 -1.767799258232116699e-01 1.008615363389253616e-02 -1.098871454596519470e-01 -9.811594150960445404e-03 4.273719340562820435e-02 1.479014903306961060e-01 2.121748961508274078e-02 -6.446429342031478882e-02 1.687332242727279663e-01 7.582002581330016255e-08 1.647295653820037842e-01 1.491480320692062378e-01 6.280607730150222778e-02 5.500824045157060027e-06 -5.235209688544273376e-02 1.942940652370452881e-01 1.394972950220108032e-01 1.088709450414171442e-05 -9.101327123062219471e-07 -3.767177835106849670e-02 -4.134390503168106079e-02 -1.455971300601959229e-01 -8.355308636964764446e-06 -8.221539668738842010e-03 -2.771233953535556793e-02 -7.188712805509567261e-02 -2.296550974278943613e-06 6.270163506269454956e-02 7.909256964921951294e-07 -5.238855630159378052e-02 -7.367052882909774780e-02 -1.781093885711015901e-07 3.752773864107439294e-06 -3.399895429611206055e-01 6.721105819451622665e-06 -8.088142424821853638e-02 -8.569056262786034495e-06 -1.711530685424804688e-01 4.850260913372039795e-02 -2.075156942009925842e-02 -4.409197717905044556e-02 5.787046998739242554e-02 4.182061275059822947e-06 -1.566025912761688232e-01 -1.598335206508636475e-01 1.023632138967514038e-01 1.068454912456218153e-05 7.786142081022262573e-02 -2.598153054714202881e-02 -4.712236659543123096e-06 9.585211426019668579e-02
2.111677349603269249e-05 -5.329647683538496494e-05 -7.148581062210723758e-06 -1.237642988562583923e-01 1.541993170976638794e-01 -4.220185292069800198e-05 -9.262132644653320312e-02 -1.409644037485122681e-01 6.174081354402005672e-04 -1.016188971698284149e-02 -9.388046711683273315e-02 1.367952791042625904e-05 -3.658381046989234164e-06 -6.573711335659027100e-02 -1.675533894740510732e-05 -4.527758061885833740e-02 -3.326567821204662323e-05 -2.711378874664660543e-05 6.221544754225760698e-05 4.329674690961837769e-02 -2.415871495031751692e-05 1.307662874460220337e-01 -1.066717803478240967e-01 2.197085507214069366e-02 -3.412128717172890902e-05 -8.617429435253143311e-02 1.869097104645334184e-05 4.335828270995989442e-05 8.627292513847351074e-02 1.214022859930992126e-01 -1.344624324701726437e-03 -2.162776887416839600e-02 -1.650718413293361664e-02 1.814733514038380235e-05 -8.527591824531555176e-02 -5.866715800948441029e-04 -2.797916298732161522e-03 5.281331390142440796e-02 -5.170709919184446335e-03 -1.260615140199661255e-01 4.207879101159051061e-06 3.486956848064437509e-05 -4.773775799549184740e-06 -4.105838015675544739e-02 -3.783747786656022072e-03 6.001873314380645752e-02 2.388727664947509766e-02 3.458742503426037729e-05 4.860463741351850331e-05 9.090860658034216613e-06 -9.566474545863457024e-08 2.022732360273948871e-06 -9.434156864881515503e-02 -4.462121520191431046e-03 -2.651089057326316833e-02 2.938899956643581390e-02 -9.214269084623083472e-06 5.635985173285007477e-03 3.096865490078926086e-02 5.400691225077025592e-05 3.928387071937322617e-03 3.440847649471834302e-05 6.180285126902163029e-04 -1.280143298208713531e-02 -1.806903583201346919e-06 6.620492041110992432e-02 -4.568401351571083069e-02 2.184322511311620474e-05 -3.766370192170143127e-02 -7.158119231462478638e-02 5.001957062631845474e-03 7.476782798767089844e-02 6.591859273612499237e-03 -2.590668373159132898e-05 8.214248716831207275e-02 -1.045533418655395508e-01 7.872002897784113884e-04 -5.332771223038434982e-03 4.118722245038952678e-06 -9.186927229166030884e-02 2.157700806856155396e-02 2.376065962016582489e-02 6.941942870616912842e-02 4.647360742092132568e-02 1.877975165843963623e-01 -3.410365283489227295e-01 2.755550667643547058e-06 -6.570115601789439097e-06 1.983475405722856522e-03 7.511597592383623123e-03 3.104978613555431366e-02 5.430570617318153381e-02 1.304722354689147323e-05 2.185508608818054199e-03 -2.920145727694034576e-02 8.519680052995681763e-02 1.097331047058105469e-01 8.605818948126398027e-06 2.071740664541721344e-02 -9.405157470609992743e-06 4.916526449960656464e-05 -8.003110415302217007e-04 -7.550723850727081299e-03 4.760349838761612773e-05 -1.002335846424102783e-01 3.421784185775322840e-06 -8.875770121812820435e-02 6.477207690477371216e-02 -5.501951277256011963e-02 1.125988885760307312e-01 3.916571289300918579e-02 -4.193845597910694778e-05 -1.042146049439907074e-02 -3.372032733750529587e-05 1.784919004421681166e-05 3.420096982154063880e-05 -4.224558174610137939e-02 -2.643107472977135330e-05 -4.233245551586151123e-02 -1.717346608638763428e-01
-1.698815524578094482e-01 5.789601057767868042e-02 1.322270509263034910e-05 1.826918870210647583e-01 1.505995392799377441e-01 -1.935243062689551152e-06 4.164975509047508240e-02 -3.768606483936309814e-02 -8.895021677017211914e-02 -9.334627538919448853e-02 -1.304613053798675537e-01 1.203555075335316360e-05 -4.859440028667449951e-03 -1.286664701183326542e-05 2.388276904821395874e-02 4.158335272222757339e-03 -2.697826363146305084e-03 1.458395570516586304e-01 -3.480860868876334280e-06 1.130662038922309875e-01 7.567999511957168579e-02 -1.108368337154388428e-01 -6.527105579152703285e-04 -2.404776029288768768e-02 -1.767665334045886993e-02 -1.120741292834281921e-02 -1.098822057247161865e-01 1.159078237833455205e-06 -3.742496669292449951e-01 -4.225750267505645752e-02 4.737813025712966919e-02 1.357961297035217285e-01 -2.246836759150028229e-02 1.763723412295803428e-05 -4.371817340143024921e-04 -4.468825459480285645e-02 -1.679957495070993900e-05 3.614045679569244385e-02 -2.608316717669367790e-03 3.181995451450347900e-01 1.006365073408233002e-05 5.761485681432532147e-06 -3.670278147183125839e-06 1.331869810819625854e-01 -5.208140239119529724e-02 3.892344981431961060e-02 -3.115299344062805176e-01 -1.896405592560768127e-06 -1.861238160927314311e-06 -4.222153127193450928e-02 -8.410040289163589478e-02 -5.736912953580031171e-06 1.606585681438446045e-01 4.787968937307596207e-03 -3.003450183314271271e-05 1.317079216241836548e-01 -1.728540472686290741e-02 1.479665040969848633e-01 -5.119031811773311347e-07 -2.791830411297269166e-07 7.391994446516036987e-02 9.421138202014844865e-06 1.968690603971481323e-01 3.600961714982986450e-02 3.082803823053836823e-02 -5.724393203854560852e-02 -6.716941948980093002e-03 -2.525567822158336639e-02 1.775158196687698364e-02 -1.387486159801483154e-01 1.461746916174888611e-02 2.282185852527618408e-01 -2.849924564361572266e-02 -8.645758498460054398e-06 -6.565641961060464382e-04 -1.154691204428672791e-01 1.961545050144195557e-01 -2.836382947862148285e-02 2.332147443667054176e-03 -3.843726590275764465e-02 3.388572856783866882e-02 6.121249869465827942e-02 -2.284326910739764571e-06 -7.723005115985870361e-02 -2.310309857130050659e-01 -1.289792805910110474e-01 7.817978257662616670e-06 -2.977689291583374143e-06 7.299422472715377808e-02 -8.520289510488510132e-02 6.060528010129928589e-02 2.143530696630477905e-01 -5.944283679127693176e-02 8.097165077924728394e-02 1.319205015897750854e-01 9.628426283597946167e-02 7.224088907241821289e-02 2.594599209260195494e-06 -2.413798938505351543e-08 -5.344716459512710571e-02 5.102871909912209958e-06 -1.961641758680343628e-02 2.436349540948867798e-02 -3.745128196896985173e-06 -7.003770023584365845e-02 1.201604300149483606e-05 1.491761952638626099e-01 -1.156194508075714111e-02 -1.088930184778291732e-05 2.723656035959720612e-02 3.795898010139353573e-06 5.642442777752876282e-02 5.716062337160110474e-02 -5.842012818902730942e-03 -7.475399877876043320e-03 -1.370943391520995647e-05 1.550483610481023788e-02 -4.636385291814804077e-02 1.112436075345613062e-05 -1.771220862865447998e-01
1.485583465546369553e-02 7.207912951707839966e-02 1.303712565459136385e-06 3.755024373531341553e-01 -1.910181939601898193e-01 -3.625149838626384735e-03 -1.924950331449508667e-01 1.556023806333541870e-01 -1.227886006236076355e-01 1.185066252946853638e-01 -3.250289708375930786e-02 8.541463103028945625e-06 -1.363212413707515225e-05 5.375378578901290894e-02 -1.449994649738073349e-02 3.092925809323787689e-02 -1.594605782884173095e-05 -2.086120992898941040e-01 -3.128380740236025304e-06 2.446345519274473190e-03 -6.091123446822166443e-02 -2.205338329076766968e-02 -1.685408651828765869e-01 -2.313776127994060516e-02 2.815626561641693115e-02 -1.887690722942352295e-01 -5.666213482618331909e-02 -2.903494532802142203e-06 -9.120015054941177368e-02 -8.996164053678512573e-02 -1.090155243873596191e-01 6.332905590534210205e-02 -2.160133607685565948e-02 2.353512172703631222e-05 1.358578205108642578e-01 2.723528444766998291e-01 -1.011548738460987806e-05 1.352087259292602539e-01 -6.992736458778381348e-02 -1.207811534404754639e-01 1.217841282486915588e-01 4.099582135677337646e-02 -8.188550919294357300e-02 -4.394682124257087708e-02 -3.180993497371673584e-01 3.400714397430419922e-01 1.591979563236236572e-01 -1.558768417453393340e-06 -1.705537670204648748e-06 -9.290065616369247437e-02 -7.132221013307571411e-02 7.087142020463943481e-02 -1.739116311073303223e-01 -2.049383372068405151e-01 3.995357453823089600e-02 -5.644685029983520508e-02 -6.855929642915725708e-02 3.144410550594329834e-01 -1.685349494218826294e-01 2.264181603095494211e-06 4.296466335654258728e-02 -1.973007783817593008e-05 -2.415615469217300415e-01 -8.415783196687698364e-02 -1.030310615897178650e-01 7.478518784046173096e-02 1.514318734407424927e-01 8.964940207079052925e-06 3.011401891708374023e-01 1.746433079242706299e-01 -6.272082775831222534e-02 8.508772403001785278e-02 -1.609289795160293579e-01 -2.576636672019958496e-01 1.378080844879150391e-01 -1.774937808513641357e-01 2.470180094242095947e-01 1.367275416851043701e-01 5.777595564723014832e-03 -1.991169899702072144e-02 6.492984294891357422e-02 1.609573364257812500e-01 -1.762002110481262207e-01 -3.924645483493804932e-02 2.798398025333881378e-02 1.471810638904571533e-01 1.434342902939533815e-05 -1.327840891462983564e-06 1.799252182245254517e-01 -1.113718003034591675e-01 -2.383148530498147011e-03 -1.418187469244003296e-02 -1.748050563037395477e-02 2.105836421251296997e-01 -6.507395207881927490e-02 2.107608816004358232e-05 -9.203699976205825806e-02 1.388723831041716039e-05 -2.487670071423053741e-02 -2.171511054039001465e-01 5.174918100237846375e-02 -7.219649851322174072e-02 2.613185942173004150e-01 -6.525688149849884212e-06 1.578606218099594116e-01 3.403524533496238291e-05 1.798815280199050903e-01 -1.147842779755592346e-01 -1.582775823771953583e-02 1.693517267704010010e-01 1.191382216347847134e-05 -1.413022130727767944e-01 -3.580078110098838806e-02 3.714670240879058838e-02 7.074761204421520233e-03 -2.381194382905960083e-02 1.784793734550476074e-01 1.859850883483886719e-01 -6.772927939891815186e-02 -1.461576968431472778e-01
-4.272034857422113419e-05 2.538567605370189995e-05 -1.927666289702756330e-06 1.235373656527372077e-05 -2.210357459262013435e-03 1.098584652936551720e-05 5.713722109794616699e-02 2.643471634655725211e-05 -6.899221241474151611e-02 6.626833055634051561e-06 3.192446092725731432e-05 6.153939466457813978e-06 -8.585409887018613517e-06 3.330463171005249023e-02 2.683965431060642004e-05 -3.842590558633673936e-06 -7.454314072674605995e-07 3.696786961882025935e-06 -3.730504613486118615e-05 -1.035042532748775557e-05 6.231650331756100059e-05 -7.091203331947326660e-02 -1.352012259303592145e-05 -2.069859998300671577e-03 2.819490418914938346e-06 -3.067237776122055948e-05 -3.649745485745370388e-05 -3.417558764340355992e-05 -4.916445504932198673e-06 -3.248722714488394558e-05 -4.712925478816032410e-02 1.240155688719823956e-05 -6.494155526161193848e-02 -4.852807705901795998e-06 9.715150296688079834e-02 1.889857958303764462e-05 2.336319084861315787e-06 -1.702856854535639286e-03 3.306849248474463820e-05 -2.534233406186103821e-02 -1.741426240187138319e-05 -5.467981281981337816e-06 2.428540028631687164e-06 7.202974706888198853e-02 -2.821190946633578278e-06 3.128698881482705474e-05 8.502155542373657227e-02 4.335493940743617713e-06 -2.516769200155977160e-05 1.392236299579963088e-06 -1.752340176608413458e-05 -1.011590484267799184e-05 -1.283883582800626755e-02 8.407308087043929845e-06 4.805875505553558469e-06 7.442784495651721954e-03 -1.766888424754142761e-02 -1.280015567317605019e-05 4.194298526272177696e-05 -2.418634721834678203e-05 -2.363889325351919979e-05 2.714315814955625683e-05 -3.607182861742330715e-06 4.206936864648014307e-06 -2.129735366906970739e-05 -1.969304867088794708e-05 6.061227759346365929e-05 1.256166342500364408e-06 3.963282870245166123e-05 2.358225174248218536e-05 -1.273803081858204678e-05 1.530231565993744880e-05 -5.263970524538308382e-05 -3.071318566799163818e-02 -9.330854564905166626e-02 1.592143177986145020e-01 -8.757499927014578134e-06 -1.213820542034227401e-05 1.379106106469407678e-05 9.603048861026763916e-02 2.345790744584519416e-05 -4.825593805435346439e-06 -5.926975427428260446e-05 -3.184434399008750916e-02 5.160560249350965023e-06 2.193046361207962036e-01 7.113582796591799706e-06 8.452980182482860982e-07 -3.053213469684123993e-02 5.465927720069885254e-02 2.040713792666792870e-03 -7.563448889413848519e-07 9.638748451834544539e-06 -7.537544661317951977e-06 -1.397892174281878397e-05 2.907328962464816868e-06 -1.024978701025247574e-06 1.367470395052805543e-05 -1.310978768742643297e-05 -8.846603333950042725e-03 -1.336251261818688363e-05 3.911759449692908674e-07 -4.331674799323081970e-02 -3.588730760384351015e-05 -1.275733462534844875e-03 -5.203347427595872432e-06 -1.338897496461868286e-01 -2.001645043492317200e-05 -2.400434459559619427e-05 -8.754700502322521061e-07 -2.809983743645716459e-05 -8.373030461370944977e-03 -1.979863829910755157e-02 -1.460122223943471909e-02 3.967907559854211286e-06 -2.066107481368817389e-05 -2.305238376720808446e-05 3.427905176067724824e-05 2.515476444386877120e-05 1.405466049909591675e-01
-1.620186716318130493e-01 7.095842808485031128e-02 -1.683368100202642381e-05 3.901196122169494629e-01 -1.372559368610382080e-01 1.104225888848304749e-01 1.061468943953514099e-01 5.625887308269739151e-03 -2.841624319553375244e-01 7.704031467437744141e-02 1.827594190835952759e-01 9.471931662119459361e-06 -1.662047361605800688e-05 2.767395079135894775e-01 1.048920894390903413e-04 5.522393807768821716e-02 -1.529954897705465555e-05 2.717493474483489990e-01 -2.008722573518753052e-01 8.436645381152629852e-03 1.332143098115921021e-01 -1.835779249668121338e-01 -1.243858784437179565e-02 -5.637770984321832657e-03 -1.365033494948875159e-05 -8.985640853643417358e-02 -2.453209757804870605e-01 3.827247768640518188e-02 -4.006337374448776245e-02 -1.752444803714752197e-01 -7.279331237077713013e-02 1.314159575849771500e-02 -1.398079991340637207e-01 9.821988896874245256e-06 1.934449970722198486e-01 8.309844136238098145e-02 1.427920907735824585e-01 2.895449399948120117e-01 1.236571669578552246e-01 -2.907640337944030762e-01 -8.750474452972412109e-02 4.327306896448135376e-02 -5.613876510324189439e-06 4.304954927647486329e-06 -2.731900215148925781e-01 3.239637613296508789e-01 -2.076302915811538696e-01 3.066193130507599562e-07 -1.548999989609001204e-06 -3.162841949233552441e-06 -1.368200965225696564e-02 -1.536666604806669056e-05 -1.612673401832580566e-01 -1.499865502119064331e-01 9.800138324499130249e-02 1.062978710979223251e-02 1.238492578268051147e-01 1.554261147975921631e-01 -3.440811997279524803e-05 -6.457626353949308395e-03 2.164745926856994629e-01 3.268091859354171902e-06 7.203029096126556396e-02 5.029460042715072632e-02 -7.090748101472854614e-02 -2.555629909038543701e-01 2.227915823459625244e-01 8.756123861530795693e-06 2.139158844947814941e-01 7.365144789218902588e-02 8.969510346651077271e-02 1.382273733615875244e-01 -1.166679188609123230e-01 -1.099396869540214539e-01 -1.846932321786880493e-01 -2.969336211681365967e-01 2.811537981033325195e-01 -1.082384586334228516e-01 -1.335035264492034912e-02 -1.058074925094842911e-02 3.750155866146087646e-02 3.013185262680053711e-01 3.691093251109123230e-02 -8.894590288400650024e-02 -3.753697872161865234e-02 -1.228022798895835876e-01 2.153127570636570454e-05 -1.867849277914501727e-06 -8.966716937720775604e-03 -1.845738440752029419e-01 -2.962625585496425629e-02 3.198649361729621887e-02 1.220571622252464294e-01 3.031551241874694824e-01 8.145598322153091431e-02 -8.727216720581054688e-02 -8.322281390428543091e-02 -1.232125386595726013e-01 4.249482229351997375e-02 -2.422371208667755127e-01 1.577054172230418772e-05 -4.364778846502304077e-02 -1.742292791604995728e-01 -4.937308403896167874e-06 8.630345575511455536e-03 -1.722116940072737634e-05 -4.955570027232170105e-02 8.012676239013671875e-02 -1.208822987973690033e-02 6.201213691383600235e-03 1.333493459969758987e-02 9.266929328441619873e-02 -1.997664570808410645e-02 -1.350560705759562552e-05 3.942625880881678313e-06 -2.350544184446334839e-02 -1.172971054911613464e-01 1.130894422531127930e-01 3.096966631710529327e-02 7.662388682365417480e-02
9.606172534404322505e-05 -6.150870467536151409e-05 -5.616314410872291774e-06 -2.054457925260066986e-02 -3.413846343755722046e-02 -3.381056740181520581e-05 -5.675150081515312195e-02 -2.897473052144050598e-02 -2.013303674175404012e-05 5.387827332015149295e-05 5.786921246908605099e-05 -8.854995030560530722e-07 4.625349174602888525e-05 -1.267655170522630215e-05 -8.047445589909330010e-05 -1.887884354800917208e-05 -1.119565968110691756e-05 -5.168946518097072840e-05 9.858743578661233187e-05 -9.045121259987354279e-05 -9.043084719451144338e-05 2.085479348897933960e-01 1.037283291225321591e-04 3.409395692870020866e-03 -4.255924068274907768e-06 7.976421329658478498e-05 9.842694998951628804e-05 5.921065894654020667e-05 1.223947033286094666e-01 8.899157546693459153e-05 1.056241671903990209e-04 -9.318678639829158783e-03 4.837662709178403020e-05 -3.877025847032200545e-06 9.089557715924456716e-05 7.625035505043342710e-05 5.337122274795547128e-05 -6.866153853479772806e-05 2.414162372588180006e-05 -1.898726797662675381e-03 1.411240282322978601e-05 8.606630217400379479e-06 1.633424835745245218e-05 -1.126041170209646225e-04 3.356366651132702827e-03 -2.302121371030807495e-02 1.052011828869581223e-02 1.376145701215136796e-05 5.181360029382631183e-05 1.493720810685772449e-05 6.364785076584666967e-05 4.373368210508488119e-05 -1.764972954988479614e-01 4.008645191788673401e-05 6.138539902167394757e-05 -5.677312947227619588e-05 2.962353755719959736e-05 -7.181728142313659191e-05 1.287064794450998306e-02 5.391066952142864466e-05 -6.279887747950851917e-05 3.483473847154527903e-07 -3.002848097821697593e-05 -1.231722853844985366e-05 5.166401751921512187e-05 1.093309547286480665e-04 -6.739961099810898304e-05 1.742522363201715052e-05 -1.278874988202005625e-04 1.072037503035971895e-05 -7.769530930090695620e-05 -9.159300476312637329e-02 1.020657946355640888e-04 4.016783714178018272e-05 1.106429990613833070e-04 -1.622403651708737016e-04 -8.357127080671489239e-05 3.259276226162910461e-02 -4.970170630258508027e-05 -1.898466236889362335e-02 -6.913939432706683874e-05 -8.871508180163800716e-05 7.217320671770721674e-05 1.063281306414864957e-04 1.182786002755165100e-01 -3.393094241619110107e-02 -1.861581040429882705e-07 3.923830081475898623e-05 -4.274701495887711644e-05 2.076783857773989439e-05 -1.384392287582159042e-02 -6.493739056168124080e-05 -3.001363438670523465e-05 -5.879325908608734608e-05 -1.321576982736587524e-01 -5.048791354056447744e-05 -4.918039590120315552e-02 -4.077245466760359704e-05 2.793598468997515738e-05 2.705696169869042933e-05 2.231822145404294133e-05 3.689963705255649984e-05 -1.349007106909994036e-05 5.435269849840551615e-05 -2.399076521396636963e-02 6.879434749862411991e-06 -5.181653052568435669e-02 3.749450115719810128e-05 6.678790668956935406e-05 -5.276464435155503452e-05 4.244824958732351661e-05 8.268314559245482087e-06 7.867499516578391194e-05 6.597168066946323961e-06 -9.843533916864544153e-06 7.732424273854121566e-05 2.995189970533829182e-05 -1.063636373146437109e-04 -8.296987653011456132e-05 -9.530103125143796206e-05
-1.871012136689387262e-05 -4.733065725304186344e-05 2.117646181432064623e-05 -2.241351902484893799e-01 -1.494693942368030548e-02 -8.974147931439802051e-06 -2.124197635566815734e-05 -1.436652382835745811e-03 -4.734680801630020142e-02 5.620929368888027966e-05 1.033862281474284828e-04 -9.112374755204655230e-06 2.228768971690442413e-05 6.831581413280218840e-05 -3.518961966619826853e-05 -2.938634529709815979e-02 -7.018422475084662437e-04 -2.346527253394015133e-05 6.972051050979644060e-05 -1.886255573481321335e-03 -1.510397851234301925e-06 2.989606373012065887e-02 3.212614683434367180e-05 8.686202764511108398e-02 -8.850368431012611836e-06 -1.553386356681585312e-02 3.276574716437608004e-05 6.689174188068136573e-05 1.018795967102050781e-01 7.126034324755892158e-05 3.477419159025885165e-05 -4.243703006068244576e-05 -1.070317375706508756e-04 -2.353455784032121301e-06 7.649659528397023678e-05 4.796342545887455344e-05 1.380885169055545703e-05 -1.895682141184806824e-02 7.026043720543384552e-03 -1.239569410681724548e-01 -2.249014141852967441e-05 1.076367061614291742e-05 1.119065382226835936e-05 -3.787505920627154410e-05 5.030937245464883745e-05 -2.587843835353851318e-01 4.900315403938293457e-02 7.267986075021326542e-05 3.988296157331205904e-05 5.067194251751061529e-06 3.263640246586874127e-05 2.707964085857383907e-05 -3.284180536866188049e-02 1.291140142711810768e-05 2.159369068976957351e-05 -1.996270657400600612e-05 -2.874269336462020874e-02 -1.582094118930399418e-04 1.859086155891418457e-01 4.212084968457929790e-05 -1.597215980291366577e-02 2.710548506001941860e-05 -4.229274054523557425e-05 -1.802486258384305984e-05 7.091317456797696650e-06 4.944873217027634382e-05 -7.644340075785294175e-05 6.043634130037389696e-06 -9.704671538202092052e-05 1.106103227357380092e-04 -7.842505874577909708e-05 -8.912250632420182228e-05 -7.606767212564591318e-06 -2.233191765844821930e-02 7.699381967540830374e-05 2.222558856010437012e-02 -8.416415005922317505e-02 4.540908412309363484e-05 -1.549352236906997859e-05 -1.291173612116836011e-05 -1.278651143366005272e-05 -1.271497312700375915e-04 4.311356678954325616e-05 4.273839658708311617e-05 2.952414453029632568e-01 3.178405389189720154e-02 -1.268333562620682642e-05 2.988158303196541965e-05 -1.838308386504650116e-02 4.718304425477981567e-02 -1.030426938086748123e-04 -6.169870903249830008e-05 -9.344491445517633110e-06 -6.788904283894225955e-05 -5.844461172819137573e-02 -1.182603136840043589e-05 -6.546011718455702066e-05 -1.299297218793071806e-05 7.029103926470270380e-06 -5.334951129043474793e-05 1.910569153551477939e-05 2.312182550667785108e-05 -1.397381573915481567e-01 4.012570934719406068e-05 -8.546910434961318970e-02 2.912141098931897432e-05 -2.345631569623947144e-01 3.323144119349308312e-05 -1.424161837348947302e-07 -4.264977178536355495e-05 3.039962030015885830e-05 8.138871635310351849e-06 -3.828791901469230652e-02 -5.133890360593795776e-02 -3.001639925059862435e-06 7.375041604973375797e-05 3.811331407632678747e-05 -5.070116822025738657e-05 -3.556631781975738704e-05 1.461150473915040493e-03
1.854779720306396484e-01 -2.253127843141555786e-02 -2.039327773672994226e-05 -3.033152408897876740e-02 1.745027601718902588e-01 -1.264870888917357661e-06 2.033734172582626343e-01 -1.649997979402542114e-01 3.336822986602783203e-01 -1.974957436323165894e-01 -3.649200499057769775e-01 -2.717306779231876135e-05 -2.119048986060079187e-06 -2.664677798748016357e-02 1.367768163618166000e-06 1.881334334611892700e-01 4.708722606301307678e-02 2.655883133411407471e-01 1.654762215912342072e-02 -3.553058020770549774e-03 -1.687458008527755737e-01 -8.158391341567039490e-03 -1.227792873978614807e-01 -5.923152002651477233e-06 8.604104071855545044e-02 -4.566157258523162454e-06 2.023868709802627563e-01 2.409623004496097565e-02 1.327561885118484497e-01 1.352977007627487183e-01 -1.322466228157281876e-02 -1.017469316720962524e-01 -4.927288955514086410e-06 4.766362053487682715e-06 -3.457520306110382080e-01 -6.001977249979972839e-02 -6.551630212925374508e-04 1.622591465711593628e-01 -1.118448153138160706e-01 -1.410367041826248169e-01 5.781335756182670593e-02 3.551197797060012817e-02 -9.232919663190841675e-02 -4.205689765512943268e-03 -2.284125089645385742e-01 -2.142647504806518555e-01 1.565272361040115356e-01 -4.026854639960220084e-06 -2.308431640267372131e-02 -5.735921859741210938e-02 -3.980439942097291350e-06 -4.821763932704925537e-02 8.801104128360748291e-02 -3.020975291728973389e-01 -1.750439405441284180e-01 -4.514351894613355398e-04 1.707535833120346069e-01 1.186182453238870949e-05 4.794999212026596069e-02 -5.109309768158709630e-06 1.337182819843292236e-01 -3.254945113440044224e-07 2.679521963000297546e-02 -5.108824744820594788e-02 2.285305527038872242e-07 1.428328603506088257e-01 -2.398513108491897583e-01 7.912872206361498684e-07 -2.894468232989311218e-02 -1.258135139942169189e-01 1.290079802274703979e-01 -1.326005905866622925e-01 1.179773956537246704e-01 -1.636924147605895996e-01 3.650785190984606743e-03 1.299878209829330444e-01 -4.217269364744424820e-03 -1.047872565686702728e-02 1.413516998291015625e-01 1.368157267570495605e-01 -1.164422854781150818e-01 -1.780977286398410797e-02 -8.014081418514251709e-02 -6.220940576895372942e-06 -8.983471244573593140e-02 -6.571357604116201401e-03 2.561883411544840783e-05 4.454464942682534456e-06 6.283500045537948608e-02 2.157720550894737244e-02 -1.091843023896217346e-01 4.822025820612907410e-02 2.541367709636688232e-02 -1.320163607597351074e-01 2.215186506509780884e-01 1.620836883375886828e-05 1.150823850184679031e-02 -5.327972769737243652e-02 1.983547508716583252e-01 -7.290559262037277222e-02 3.602028755267383531e-06 -1.641626209020614624e-01 2.375999987125396729e-01 -1.774576958268880844e-06 1.056545302271842957e-01 9.642259101383388042e-06 1.066966652870178223e-01 -1.994353532791137695e-01 -1.395978182554244995e-01 2.650370262563228607e-02 2.255211711599258706e-06 9.175468236207962036e-02 1.563763171434402466e-01 3.082014322280883789e-01 -1.940930262207984924e-02 -1.024456247687339783e-01 7.895517349243164062e-02 -2.567111887037754059e-02 1.630079559981822968e-02 1.478679627180099487e-01
-5.394753813743591309e-02 -9.138704626820981503e-06 -2.357079938519746065e-05 -3.129322826862335205e-01 -2.332923710346221924e-01 -2.497584318916779011e-06 -1.346095949411392212e-01 1.393414288759231567e-01 1.431148499250411987e-01 7.849007488403003663e-06 1.036231697071343660e-05 -1.719080864859279245e-05 7.454497790604364127e-06 8.104132860898971558e-02 -1.233977218362269923e-05 1.912685632705688477e-01 -3.229536116123199463e-03 8.800671994686126709e-02 -8.944460004568099976e-02 -3.763516992330551147e-02 -9.709868209029082209e-06 2.166029214859008789e-01 8.383568376302719116e-02 5.863036029040813446e-03 1.717879058560356498e-06 1.543049438623711467e-05 -4.786651208996772766e-02 -3.953192383050918579e-03 1.203589886426925659e-01 3.552459180355072021e-03 5.718034878373146057e-02 -1.548803556943312287e-04 1.435122976545244455e-05 2.016958023887127638e-05 7.441948354244232178e-02 1.853246241807937622e-01 1.817633360624313354e-01 -8.818202331895008683e-06 2.740442380309104919e-02 1.350386589765548706e-01 -2.355073775106575340e-06 -7.088395250320900232e-06 4.049402377859223634e-06 1.684339717030525208e-02 1.765513569116592407e-01 -1.499757021665573120e-01 1.899741739034652710e-01 8.486882506986148655e-06 1.326179335592314601e-05 -2.976032905280590057e-02 1.175099714600946754e-05 1.008570343255996704e-01 -2.444156408309936523e-01 1.536390632390975952e-01 4.642561823129653931e-02 -2.187079191207885742e-02 -3.445963934063911438e-02 -7.385584060102701187e-03 5.043327808380126953e-01 1.052107199939200655e-05 -1.387678533792495728e-01 1.924761818372644484e-06 -8.502087439410388470e-06 7.851520422264002264e-06 -6.088085100054740906e-02 6.505880504846572876e-02 -1.498715877532958984e-01 -4.151934717810945585e-06 -1.525821387767791748e-01 5.459101125597953796e-02 -1.997271552681922913e-02 -1.670010238885879517e-01 1.022433843900216743e-05 4.290261119604110718e-02 -2.809371289913542569e-05 -5.898725241422653198e-03 -1.187170818448066711e-01 3.302625918877311051e-05 -4.177006892859935760e-03 -1.338685452938079834e-01 5.192803218960762024e-03 8.770961314439773560e-02 -1.336310803890228271e-01 -1.167398318648338318e-01 3.749378919601440430e-01 -8.384806104004383087e-03 4.538946996035519987e-06 1.178503498522331938e-05 1.232659816741943359e-01 -1.483019739389419556e-01 -2.120037078857421875e-01 -1.611184887588024139e-02 -7.793207466602325439e-02 -1.197550743818283081e-01 -9.178406000137329102e-02 -1.410178691148757935e-01 -3.157340362668037415e-02 -7.116776032489724457e-06 -8.742685616016387939e-02 1.125181019306182861e-01 -5.055028850620146841e-06 8.920986147131770849e-06 -2.610205113887786865e-01 1.603666169103235006e-05 -8.936692029237747192e-03 -1.326999790762783960e-05 -9.966517609427683055e-06 -1.697997450828552246e-01 1.442350000143051147e-01 -3.331382200121879578e-02 -3.021532483398914337e-02 2.516267299652099609e-01 1.268509186047594994e-05 5.292428191751241684e-03 3.142869099974632263e-02 1.063140779733657837e-01 -4.092098772525787354e-02 -8.589042723178863525e-02 -1.993759907782077789e-02 -2.966753207147121429e-02
-7.487000402761623263e-06 9.193802725349087268e-06 3.040531373699195683e-05 -5.266251042485237122e-02 -2.981766127049922943e-03 7.017504685791209340e-06 -2.933368384838104248e-01 1.954478025436401367e-01 -1.836485266685485840e-01 2.130634933710098267e-01 5.128581449389457703e-02 -1.835869443311821669e-05 -2.704215049743652344e-02 1.314219236373901367e-01 2.461264557496178895e-06 -9.628245979547500610e-02 -2.106765098869800568e-02 -7.477612793445587158e-02 -1.008521030598785728e-05 -1.834036707878112793e-01 1.948281526565551758e-01 -3.820915147662162781e-02 1.142794564366340637e-01 2.157816197723150253e-06 -6.885483115911483765e-02 4.349701106548309326e-02 -1.241416558623313904e-01 -1.017999420582782477e-05 -2.529584169387817383e-01 -1.297659426927566528e-02 -1.179331764578819275e-01 1.356681585311889648e-01 -1.461858004331588745e-01 -5.799985046905931085e-06 -7.855360209941864014e-02 -2.892701141536235809e-02 1.298687458038330078e-01 -2.453346699476242065e-01 1.317921280860900879e-01 -1.350508779287338257e-01 4.691642895340919495e-02 1.520346966572105885e-03 -6.765092164278030396e-02 9.882995486259460449e-02 1.572845131158828735e-01 9.061358869075775146e-02 2.838493585586547852e-01 -5.119129582453751937e-06 7.026202045381069183e-03 6.855385005474090576e-02 4.803647100925445557e-02 1.481848012190312147e-04 -3.667019680142402649e-02 1.293330788612365723e-01 -1.630405150353908539e-02 1.330318809777963907e-06 -1.185474544763565063e-01 -1.645673662424087524e-01 4.272551450412720442e-06 -9.548088200972415507e-06 -2.148614376783370972e-01 -7.034760528767947108e-06 -1.313535030931234360e-02 1.466783396608661860e-05 -1.261974830413237214e-06 6.926134228706359863e-02 -1.883293390274047852e-01 1.015286659821867943e-03 1.440750658512115479e-01 2.528429329395294189e-01 9.111581742763519287e-02 1.832415908575057983e-02 -5.386082828044891357e-02 1.347275156149407849e-05 -7.303456186491530389e-06 2.565318346023559570e-01 -1.182221993803977966e-01 1.276551783084869385e-01 2.198700010776519775e-01 -1.543192472308874130e-02 -1.858773827552795410e-02 -6.558189541101455688e-02 1.566310040652751923e-02 -5.870109889656305313e-03 6.966228783130645752e-02 3.353615403175354004e-01 -6.769285391783341765e-06 -7.789994924678467214e-07 -4.987302049994468689e-02 1.409449428319931030e-01 8.392713963985443115e-02 -5.517436563968658447e-02 -2.056907760561443865e-06 -1.917760223150253296e-01 3.144743442535400391e-01 -5.671598762273788452e-02 -1.917750537395477295e-01 -1.147439852356910706e-01 2.299042195081710815e-01 9.872373938560485840e-02 -8.792039807303808630e-06 1.704945112578570843e-03 -1.336537208408117294e-02 -8.390137736569158733e-06 1.312104891985654831e-02 4.007458755950210616e-07 8.851992338895797729e-02 -7.088544862199341878e-06 -8.248224854469299316e-02 -2.022453099489212036e-01 -1.368626908515579998e-05 -5.709173157811164856e-02 9.947692602872848511e-02 1.520537957549095154e-02 3.989890962839126587e-02 2.422277930236305110e-06 1.305979937314987183e-01 -1.156129315495491028e-01 1.153514683246612549e-01 7.666102796792984009e-02
3.047984465956687927e-02 -5.499541014432907104e-02 4.907478796667419374e-07 -1.610201783478260040e-02 -6.563558429479598999e-02 1.211924850940704346e-01 1.190960928797721863e-01 3.487963974475860596e-02 2.143128663301467896e-01 -1.380377262830734253e-01 -6.262413412332534790e-02 -9.985753422370180488e-06 8.077580481767654419e-02 -3.235401213169097900e-02 -4.188950242678401992e-06 1.005302742123603821e-01 2.201635539531707764e-01 7.144507020711898804e-02 -5.645561218261718750e-02 1.868310421705245972e-01 -8.014937490224838257e-02 -2.021178901195526123e-01 -8.374486118555068970e-02 -4.630957543849945068e-02 2.014234269154258072e-05 2.043961435556411743e-01 2.597813028842210770e-03 -3.393128281459212303e-06 -4.967537149786949158e-02 -5.770192295312881470e-02 -2.301023714244365692e-02 -1.151154339313507080e-01 -8.652296662330627441e-02 -6.159998974908376113e-06 -2.409430891275405884e-01 -9.109006077051162720e-02 -7.960108632687479258e-06 1.448286639060825109e-06 -2.734177708625793457e-01 9.476534277200698853e-02 1.728002825984731317e-05 -5.518130365089746192e-06 -7.760923836030997336e-06 3.572843596339225769e-02 -1.689840973995160311e-05 -1.100019440054893494e-01 -3.859238922595977783e-01 -7.386682227661367506e-06 -1.794092167983762920e-05 -6.886315986776025966e-06 -1.247822400182485580e-02 1.146775335073471069e-01 1.278374195098876953e-01 1.311272569000720978e-02 8.978043496608734131e-02 -9.555389173328876495e-03 1.800550669431686401e-01 -7.731756777502596378e-04 -1.889601945877075195e-01 -2.003765257541090250e-05 -1.006318852305412292e-01 1.978974978555925190e-05 1.622004492674022913e-05 1.930340752005577087e-02 5.377500504255294800e-02 -6.138437241315841675e-02 -2.452362328767776489e-02 -6.235668479348532856e-06 -9.856661781668663025e-03 -9.599719196557998657e-02 1.437820196151733398e-01 1.388359535485506058e-02 2.295394241809844971e-01 -3.056358359754085541e-02 4.211062192916870117e-02 1.592639833688735962e-01 -9.588447399437427521e-03 -9.195906668901443481e-02 2.532440121285617352e-04 1.107378453016281128e-01 -1.710774749517440796e-01 1.903476864099502563e-01 -5.824005711474455893e-06 8.739014714956283569e-02 -2.975000441074371338e-02 2.273720651865005493e-01 3.695272243930958211e-05 3.461412234173621982e-06 1.954255066812038422e-02 -7.649219036102294922e-02 2.608678042888641357e-01 -3.526411950588226318e-02 5.937030911445617676e-02 -9.015499381348490715e-04 3.614752739667892456e-02 -4.033044660900486633e-06 -1.306081376969814301e-02 -2.444319054484367371e-02 1.626480298000387847e-05 1.624222546815872192e-01 -1.355232416244689375e-05 2.562980540096759796e-02 1.237562764436006546e-02 -1.303134376939851791e-05 2.924009859561920166e-01 1.902006624732166529e-05 1.698357313871383667e-01 -5.678022652864456177e-02 -4.563612863421440125e-02 3.701075538992881775e-02 -1.887612233986146748e-05 -9.722563624382019043e-02 2.588212490081787109e-01 3.608005499700084329e-05 -9.950874300557188690e-06 -1.739987965265754610e-06 -1.448054462671279907e-01 -3.225183114409446716e-02 -3.511763364076614380e-02 5.014418438076972961e-02
5.729436874389648438e-02 3.405458483030088246e-05 1.072759187081828713e-05 6.533510517328977585e-03 2.280615568161010742e-01 2.351637557148933411e-02 7.324601709842681885e-02 1.718349903821945190e-01 -1.318857073783874512e-01 -9.394374489784240723e-02 -1.653738763707224280e-05 1.207473815156845376e-05 6.970163434743881226e-02 -1.387535121466498822e-05 1.489262194809271023e-05 1.373120956122875214e-02 1.259740889072418213e-01 6.707134097814559937e-02 -3.964459028793498874e-05 1.905520912259817123e-05 8.267601020634174347e-03 -1.475181132555007935e-01 -2.098712684528436512e-05 -8.284454047679901123e-02 -4.833854362368583679e-02 -2.904490884247934446e-06 4.666366055607795715e-02 -1.746012821968179196e-05 -3.463056636974215508e-04 -3.341703861951828003e-02 -3.386449813842773438e-02 1.448820233345031738e-01 -9.417935460805892944e-02 2.065035732812248170e-05 7.298883795738220215e-02 -1.105703562498092651e-01 -8.985748142004013062e-02 2.619588747620582581e-02 -1.863866858184337616e-02 4.235879331827163696e-02 1.757050980813801289e-03 -3.891708329319953918e-02 -1.241828977072145790e-05 1.641493886709213257e-01 -2.892472002713475376e-05 -6.157630123198032379e-04 -1.220958083868026733e-01 -1.786835127859376371e-05 -3.827645559795200825e-05 -1.176593923446489498e-05 -1.011675340123474598e-05 7.668124884366989136e-02 2.366667389869689941e-01 -5.412566289305686951e-02 -1.571908433106727898e-05 1.304723322391510010e-01 -1.571758538484573364e-01 -3.450310759944841266e-05 -2.165213972330093384e-01 -3.702981121023185551e-05 -1.256472766399383545e-01 -1.432098179066088051e-05 8.881280571222305298e-02 -6.793876737356185913e-02 -2.496270553820068017e-06 -1.482983306050300598e-02 -1.451137289404869080e-02 -5.090703780297189951e-06 2.060931001324206591e-05 -1.014759689569473267e-01 5.130342766642570496e-02 7.609561085700988770e-02 5.315353721380233765e-02 6.195841357111930847e-03 -6.756124645471572876e-02 1.028102785348892212e-01 6.742144376039505005e-02 -6.884760409593582153e-02 -2.026455604209331796e-06 1.394320130348205566e-01 1.373702585697174072e-01 1.966314994206186384e-05 -3.961817128583788872e-05 -7.677164673805236816e-02 -3.729170262813568115e-01 2.202321141958236694e-01 -4.535248081083409488e-06 2.496179604349890724e-06 1.056667864322662354e-01 1.711453795433044434e-01 2.218815237283706665e-01 7.753348909318447113e-03 -4.950536094838753343e-06 -1.009008119581267238e-04 2.334354519844055176e-01 -1.250120931217679754e-06 -7.116524875164031982e-02 -3.917679935693740845e-02 1.377852559089660645e-01 -4.293747246265411377e-02 -1.846971281338483095e-05 -1.760085433488711715e-05 9.207103401422500610e-02 -3.730798198375850916e-05 2.803669869899749756e-01 7.555644515377935022e-06 2.713449113070964813e-02 -3.458890932961367071e-05 -3.634617105126380920e-02 3.712287871167063713e-03 -2.957669858005829155e-05 -1.520330011844635010e-01 1.074965298175811768e-02 1.543350815773010254e-01 -5.552858114242553711e-02 9.370749816298484802e-03 3.338756784796714783e-02 1.512492508481955156e-05 3.083847695961594582e-05 8.927059918642044067e-02
-2.066481829388067126e-05 3.282173565821722150e-05 2.495793705747928470e-05 9.097555279731750488e-02 -4.961895570158958435e-02 2.204219708801247180e-05 2.942332321254070848e-05 -4.142118617892265320e-02 -5.390949547290802002e-02 5.307505034579662606e-06 9.696929901838302612e-02 1.191467163152992725e-05 -6.813922027504304424e-06 2.979172495543025434e-05 2.012222830671817064e-05 8.451086614513769746e-06 1.013427663565380499e-05 -4.881498217582702637e-02 -4.346110654296353459e-05 -5.839281901717185974e-02 2.292785211466252804e-05 2.016861457377672195e-03 1.391293015331029892e-02 -2.315477468073368073e-05 7.050094154692487791e-06 -4.759172043122816831e-07 -1.971143865375779569e-05 -3.228927016607485712e-05 -2.673609554767608643e-02 -3.153994111926294863e-05 -1.139046798925846815e-05 -5.556637048721313477e-02 9.537469850329216570e-06 1.802921815396985039e-06 1.718454435467720032e-02 1.010223012417554855e-02 8.209482984966598451e-06 -3.213775809854269028e-03 3.638861235231161118e-03 3.604720859584631398e-06 -1.502068899571895599e-02 -1.478403919463744387e-05 4.419606739247683436e-06 4.853181540966033936e-03 5.787945538759231567e-02 3.493044525384902954e-02 1.355428248643875122e-02 -3.847528205369599164e-06 -3.489710070425644517e-05 1.763605723681394011e-07 -8.294522558571770787e-06 -2.983181275340029970e-06 -4.040639847517013550e-03 1.799903996288776398e-02 3.075992316007614136e-02 1.138711559178773314e-05 -1.647713966667652130e-02 1.785006816135137342e-06 -8.452502638101577759e-02 -3.800375270657241344e-05 -1.630450469747302122e-06 8.722054190002381802e-09 1.388242253597127274e-06 2.144306199625134468e-05 -8.752407666179351509e-06 -1.462225282011786476e-05 9.021196514368057251e-02 -1.615574319657753222e-06 4.158063529757782817e-05 2.089474946842528880e-05 -6.582721602171659470e-03 -3.281882777810096741e-02 -4.667035862803459167e-02 7.880423254391644150e-06 -5.074114233138971031e-05 3.837924450635910034e-02 1.731139309413265437e-05 1.688394695520401001e-02 8.071428965195082128e-06 4.854552447795867920e-03 9.439334462513215840e-06 -2.569815551396459341e-04 -5.574843089561909437e-05 -1.621918272576294839e-05 -9.298682957887649536e-02 1.926304697990417480e-01 -2.694932391023030505e-06 -5.430213150248164311e-06 -4.541808366775512695e-02 -3.810308873653411865e-02 -6.283302605152130127e-02 1.352943399979267269e-06 1.295681613555643708e-06 2.279176896990975365e-06 -3.056919388473033905e-02 -1.174042517959605902e-05 -2.659177035093307495e-02 5.467342816700693220e-06 -5.285324277792824432e-06 -3.480818577372701839e-06 -2.395360570517368615e-05 -7.094804459484294057e-07 -2.150305363102233969e-06 -3.635577377281151712e-05 8.932951022870838642e-04 -1.071246697392780334e-05 1.456344762118533254e-05 -2.646275970619171858e-05 -2.274964572279714048e-06 -1.208627509186044335e-06 -3.499522790662012994e-05 1.409999731549760327e-05 3.575062237359816208e-07 3.973403181589674205e-06 -2.056094217550707981e-06 -2.568635318311862648e-05 -2.782250885502435267e-05 2.586896152934059501e-05 1.685913048277143389e-05 3.266322240233421326e-02
-5.210401286603882909e-05 5.084039730718359351e-05 2.571204458945430815e-05 -1.226021051406860352e-01 -5.609763320535421371e-03 4.156548675382509828e-05 1.266495138406753540e-01 2.266635447740554810e-01 1.488620787858963013e-02 5.287330225110054016e-02 3.630264103412628174e-02 2.986085928569082171e-05 -3.239424586354289204e-06 -1.061350572854280472e-02 1.886527388705871999e-05 1.241710484027862549e-01 1.034170854836702347e-02 2.918686717748641968e-03 -5.228591151535511017e-03 -6.887766649015247822e-04 6.519421190023422241e-02 1.960556954145431519e-01 -1.299393079534638673e-05 -4.836060479283332825e-02 3.060048402403481305e-05 8.399106562137603760e-03 -6.602241843938827515e-02 -4.134292248636484146e-05 -1.702950596809387207e-01 -2.429124526679515839e-02 1.060013100504875183e-02 -1.653875410556793213e-01 6.322862207889556885e-02 -6.744717666151700541e-06 3.808365389704704285e-02 5.638667196035385132e-02 3.609031811356544495e-02 -1.307903672568500042e-03 -2.217447012662887573e-02 1.240977346897125244e-01 5.003189471608493477e-07 -3.903104923665523529e-03 -1.030910652843886055e-06 1.596984565258026123e-01 2.731997892260551453e-02 -2.072837352752685547e-01 -3.669522330164909363e-02 -3.536694566719233990e-05 -4.991943933418951929e-05 -1.571542816236615181e-05 1.089566946029663086e-02 5.120010580867528915e-03 -2.252281643450260162e-02 2.476035384461283684e-03 1.209712866693735123e-02 6.735354872944299132e-06 1.286643964704126120e-06 -3.169540688395500183e-02 2.316042631864547729e-01 -5.412220343714579940e-05 1.087894906959263608e-05 -2.170844709326047450e-06 1.153004541265545413e-05 2.278888039290904999e-02 -2.873111043300013989e-06 -8.847031742334365845e-03 8.282000635517761111e-06 -1.578062619955744594e-05 -3.653156757354736328e-02 7.088070362806320190e-02 -2.336868271231651306e-02 7.960772514343261719e-02 -1.630306430160999298e-02 7.712561637163162231e-02 -1.596379131078720093e-01 2.402756130322813988e-03 -1.225640997290611267e-02 8.268641680479049683e-02 1.076447915693279356e-06 4.683611041400581598e-05 3.865271537506487221e-06 -9.296962618827819824e-02 -9.850395470857620239e-02 5.647920444607734680e-02 1.715205162763595581e-01 1.588091105222702026e-01 1.306702324654906988e-05 1.952636375790461898e-05 3.921458963304758072e-03 -2.943768231489229947e-05 -2.804271876811981201e-02 -1.289980113506317139e-01 -6.580396075150929391e-06 -6.156476956675760448e-06 -1.134979724884033203e-02 -1.171522289514541626e-01 -7.120849192142486572e-02 -1.411737684975378215e-06 3.279105840192642063e-06 6.589285476366057992e-06 -1.094650849699974060e-02 -6.680557817162480205e-06 1.723506301641464233e-01 -5.141997098689898849e-05 1.720724701881408691e-01 1.174094904854428023e-05 1.153589859604835510e-01 -1.427872180938720703e-01 1.258700788021087646e-01 -3.462750464677810669e-02 -5.101234465837478638e-02 6.751575320959091187e-02 7.196547929197549820e-03 1.547571178525686264e-02 -1.574891939526423812e-05 -3.231450682505965233e-05 -1.111980676651000977e-01 9.921338409185409546e-03 3.205789835192263126e-05 4.173632338643074036e-02
-4.345979541540145874e-03 -1.862065255409106612e-05 7.221303803817136213e-06 4.891244322061538696e-02 1.061139479279518127e-01 -2.543855589465238154e-05 1.574121564626693726e-01 2.352589763177093118e-05 6.094662100076675415e-02 -2.956183394417166710e-03 -2.384518506005406380e-03 1.536134186608251184e-05 -1.390134275425225496e-05 1.578407682245597243e-05 2.050730108749121428e-05 -3.040862793568521738e-05 -3.230226138839498162e-05 2.086471795337274671e-05 1.446621990908170119e-05 5.421189591288566589e-02 2.671437323442660272e-05 -3.286781907081604004e-01 -1.742797903716564178e-02 -1.396415103226900101e-02 -3.096192085649818182e-05 -3.266874700784683228e-02 -2.215281710959970951e-05 -6.862060217827092856e-07 -5.492121726274490356e-02 4.588072897604433820e-06 -2.545036189258098602e-02 7.514184713363647461e-02 -1.598731279373168945e-01 -8.214291483454871923e-06 -8.932752825785428286e-05 -3.332660719752311707e-02 -2.289832383394241333e-02 3.957749140681698918e-05 -9.746030718088150024e-02 -9.421960264444351196e-02 2.321020019735442474e-06 5.165253605809994042e-05 -2.466225305397529155e-05 2.390948793618008494e-05 -1.872189342975616455e-02 8.478743582963943481e-02 1.427350161975482479e-05 -1.023448112391633913e-05 4.836487278225831687e-06 8.346091817656997591e-06 -4.745362093672156334e-05 -2.873973789974115789e-05 3.086189329624176025e-01 -1.039181224768981338e-04 -6.335759907960891724e-02 2.082721584883984178e-05 -1.983272159122861922e-05 2.918647805927321315e-05 -6.591316312551498413e-02 9.823561413213610649e-06 3.325613215565681458e-05 1.409434844390489161e-05 1.864196747192181647e-05 -7.553635077783837914e-05 -3.179787745466455817e-05 -4.556955024600028992e-02 -9.144114301307126880e-07 1.787448309187311679e-05 6.140835955739021301e-02 -8.345665264641866088e-06 4.928671941161155701e-02 9.483826905488967896e-02 -4.871509969234466553e-02 -5.398505367338657379e-03 1.871301537903491408e-05 4.067886038683354855e-05 1.214651274494826794e-05 -8.170761168003082275e-02 2.432650762784760445e-05 4.574132253765128553e-05 4.828338569495826960e-05 9.949189843609929085e-04 6.735742499586194754e-05 -2.638082578778266907e-02 -1.160812005400657654e-01 5.193303877604193985e-05 1.353107109025586396e-05 -5.179748040973208845e-05 -5.912028882448794320e-06 2.505525480955839157e-05 2.051049657166004181e-02 5.598838470177724957e-05 3.701017703860998154e-05 4.468699262361042202e-05 7.951097190380096436e-02 4.559100419282913208e-02 2.050912082195281982e-01 2.149614374502561986e-05 -1.892263753688894212e-05 -2.424102785880677402e-05 5.354342647478915751e-05 -4.855446517467498779e-03 -3.536643998813815415e-05 -7.912727824077592231e-07 -2.268920616188552231e-05 -4.523781171883456409e-08 -6.927664071554318070e-05 6.164720252854749560e-05 -2.880426682531833649e-02 4.101573358639143407e-05 6.766874139430001378e-05 -1.265976484864950180e-02 -5.561790615320205688e-02 -3.933092375518754125e-05 1.476355282648000866e-05 2.271531229780521244e-07 4.931129296892322600e-05 1.591568252479191869e-05 4.547106073005124927e-05 2.699976903386414051e-05
-7.545560598373413086e-03 -4.495386019698344171e-05 -1.022668766381684691e-05 -1.034048764267936349e-04 5.367036536335945129e-02 -1.474479540775064379e-05 1.852480880916118622e-02 -5.598698044195771217e-05 5.332105606794357300e-02 3.368191755726002157e-05 -1.075753942131996155e-02 1.893885200843214989e-05 2.651280374266207218e-05 5.717312888009473681e-06 -5.445460919872857630e-05 -2.347390181967057288e-05 -1.748102113197091967e-05 -4.294279642635956407e-05 4.819629975827410817e-05 -5.432130637927912176e-05 -2.224257514171767980e-05 7.995467633008956909e-03 4.243671719450503588e-05 2.635867521166801453e-02 -9.190268428937997669e-06 -5.000033602118492126e-02 2.232208498753607273e-05 2.210832462878897786e-05 8.302836795337498188e-05 6.208576087374240160e-05 -1.063879020512104034e-02 -5.763370791100896895e-05 3.890552761731669307e-06 -1.409818560205167159e-05 2.724336627579759806e-05 5.073037755209952593e-05 2.763528209470678121e-05 -4.932718002237379551e-05 2.579869033070281148e-05 -1.553248707205057144e-02 -1.491155671828892082e-05 2.105928615492302924e-06 1.110281846194993705e-05 -5.171155498828738928e-05 -7.184722926467657089e-03 -2.234647609293460846e-02 5.930357656325213611e-05 -7.320686563616618514e-07 5.603465979220345616e-05 1.816517033148556948e-05 3.130791083094663918e-05 2.532853432057891041e-05 -3.021568246185779572e-02 2.811352533171884716e-05 3.218542406102642417e-05 -2.988766209455206990e-05 -4.850063305639196187e-06 -4.047476977575570345e-05 2.701584100723266602e-01 4.989330773241817951e-05 -4.630534021998755634e-05 -2.559954191383440048e-05 -4.328708746470510960e-05 1.163909473689273000e-06 2.116345785907469690e-05 4.811849794350564480e-05 -3.424608439672738314e-05 8.592909580329433084e-06 -6.621991633437573910e-05 2.579750616860110313e-05 -4.657375029637478292e-05 1.500979904085397720e-02 -1.659274846315383911e-02 2.601421329018194228e-05 -3.730017459020018578e-03 -1.435508951544761658e-02 -5.422346293926239014e-05 -6.081731617450714111e-02 -2.045594374067150056e-05 -8.179118856787681580e-03 -2.774998210952617228e-05 -5.185296686249785125e-05 1.615695691725704819e-05 -1.133857108652591705e-02 3.625521957874298096e-01 -1.433301903307437897e-02 -8.627604074717964977e-06 6.327197752398205921e-06 3.308930026832967997e-04 -3.276215493679046631e-02 -1.569122832734137774e-04 -4.751162487082183361e-05 -1.163618708233116195e-05 -2.701574157981667668e-05 -1.942713977769017220e-03 -2.187276913900859654e-05 -1.267633342649787664e-04 -1.801623147912323475e-05 9.688465979706961662e-06 1.197563506138976663e-06 1.589689600223209709e-05 3.153263969579711556e-05 -3.206078690709546208e-05 6.497320282505825162e-05 -2.634302472870331258e-05 3.633559026638977230e-05 -1.493881046772003174e-01 2.754343768174294382e-05 1.871854328783228993e-05 -4.284062742954120040e-05 1.652742867008782923e-05 1.104140374809503555e-02 -1.634348928928375244e-02 -8.234021152020432055e-06 4.889224328508134931e-06 6.129592657089233398e-05 2.838796172000002116e-05 -5.966162279946729541e-05 -4.988722503185272217e-05 1.900358241982758045e-03
9.624704034649766982e-06 -4.851224730373360217e-05 1.667998731136322021e-06 -3.499120794003829360e-05 -1.718102023005485535e-02 -4.537246422842144966e-05 -6.641738861799240112e-02 -6.710980832576751709e-02 1.415443420410156250e-02 -1.061086356639862061e-01 4.443026613444089890e-03 8.289089237223379314e-07 -1.680654349911492318e-06 8.993423762149177492e-06 -8.803865057416260242e-06 -6.436285376548767090e-02 -3.515976277412846684e-05 -2.032155316555872560e-05 6.237540219444781542e-05 1.651589991524815559e-04 -9.832606338022742420e-06 -3.151434287428855896e-02 -7.409839332103729248e-02 9.244799613952636719e-02 -5.834435671567916870e-02 -5.551743134856224060e-02 -1.358774211257696152e-02 3.642435694928281009e-05 -7.591816782951354980e-02 3.434158861637115479e-05 -5.293375998735427856e-02 1.276105344295501709e-01 -1.093050390481948853e-01 -2.905155270127579570e-06 2.855780534446239471e-03 -1.790747395716607571e-03 -1.398360449820756912e-02 8.972951024770736694e-02 -1.977049978449940681e-04 -1.360778212547302246e-01 1.444727554917335510e-02 1.650531776249408722e-02 -3.772119271161500365e-06 -4.083823785185813904e-02 -1.275453120470046997e-01 6.448342651128768921e-02 2.016022044699639082e-04 2.819598194037098438e-05 4.167372389929369092e-05 9.549569767841603607e-06 -1.923121698200702667e-02 1.330232407781295478e-06 8.011268079280853271e-02 -6.138872355222702026e-03 -1.006185188889503479e-01 -1.071281985787209123e-06 -1.003344277705764398e-05 -6.151681191113311797e-06 -1.911592781543731689e-01 4.681946302298456430e-05 -6.273691269598202780e-06 -8.529546903446316719e-06 -8.006178177311085165e-06 -3.776156902313232422e-02 -5.924251126998569816e-06 1.908989809453487396e-02 -2.015344944084063172e-05 2.007198418141342700e-05 3.327690064907073975e-02 1.358961965888738632e-02 1.826345804147422314e-03 2.089961804449558258e-02 -4.373726900666952133e-03 -7.154814898967742920e-02 4.865609109401702881e-02 2.855402044951915741e-02 -1.668426193646155298e-05 -1.756487973034381866e-02 2.948467226815409958e-06 -2.661341932252980769e-05 8.115574019029736519e-06 -1.481918752688216045e-05 8.052115887403488159e-02 -9.092178661376237869e-04 -1.358108371496200562e-01 -1.553946822241414338e-05 1.100302415579790249e-05 -1.564245940244290978e-05 -1.861720920715015382e-05 4.910795250907540321e-04 -8.387184888124465942e-02 7.712615281343460083e-02 1.045453771948814392e-01 9.741873327584471554e-06 4.752851650118827820e-02 5.853197723627090454e-02 1.974720209836959839e-01 6.396840035449713469e-06 -6.725110324623528868e-06 -1.100465124181937426e-05 1.988187804818153381e-02 -3.236987140553537756e-07 -1.637946665287017822e-01 4.183778582955710590e-05 -1.080441176891326904e-01 -8.366861948161385953e-06 -2.711456120014190674e-01 1.555216610431671143e-01 -2.262028679251670837e-02 -4.289432581572327763e-06 6.891488283872604370e-02 -3.098297864198684692e-02 -2.676265127956867218e-02 -1.558366268873214722e-01 1.437211449228925630e-05 2.038585953414440155e-03 2.921884693205356598e-02 -1.492772753408644348e-05 -2.040075924014672637e-05 -1.382000297307968140e-01
-1.747314818203449249e-03 -5.570445864577777684e-06 -1.316977613896597177e-05 1.062929779291152954e-01 -1.165329199284315109e-02 -8.920937034417875111e-06 -1.597263216972351074e-01 8.307506504934281111e-07 -3.991951416537631303e-06 6.394303590059280396e-02 -1.097939349710941315e-02 1.392058220517355949e-05 -6.232437118887901306e-02 -4.394114017486572266e-03 7.064878195524215698e-02 -1.094961589842569083e-05 -1.735381186008453369e-01 5.004173144698143005e-02 -1.202726811170578003e-01 2.505302196368575096e-03 2.328820712864398956e-02 2.541578114032745361e-01 -5.002284888178110123e-04 2.689730934798717499e-02 1.284671723842620850e-01 -2.141778916120529175e-01 -2.899683639407157898e-02 -7.356088608503341675e-02 -4.999058437533676624e-04 -1.776779592037200928e-01 -1.066946014761924744e-01 -1.256935894489288330e-01 -2.491408400237560272e-02 -4.825716132472734898e-06 -2.527132332324981689e-01 -4.846153035759925842e-02 -7.886877028795424849e-06 1.266616880893707275e-01 1.896412868518382311e-06 -1.137140407081460580e-05 -5.174610123503953218e-06 8.233862899942323565e-06 -1.007127593766199425e-06 1.297003179788589478e-01 -5.001244600862264633e-03 2.754290103912353516e-01 -8.883815462468191981e-05 1.271911969524808228e-06 -6.562158465385437012e-02 1.267545485461596400e-06 -6.105749309062957764e-02 -4.792990694113541394e-06 -1.864261329174041748e-01 -5.849244189448654652e-06 -2.767651109024882317e-03 1.159126622951589525e-05 2.090081758797168732e-02 1.844147890806198120e-01 -2.217508517787791789e-05 6.141076482890639454e-06 2.062918394804000854e-01 8.746388630243018270e-06 3.148831638100091368e-06 -4.370339214801788330e-02 -9.825143024499993771e-06 -8.454725891351699829e-02 7.006680965423583984e-02 6.828747245890554041e-06 1.027423292398452759e-01 -1.155727356672286987e-01 7.653665542602539062e-02 3.181520849466323853e-02 -1.653962880373001099e-01 -1.773247420787811279e-01 -2.234570384025573730e-01 -5.598950758576393127e-02 3.598434329032897949e-01 -4.552100971341133118e-02 -1.767616346478462219e-02 -3.887204825878143311e-02 1.744953216984868050e-03 -1.377969384193420410e-01 -9.761104732751846313e-02 -6.183945760130882263e-02 -1.088822260499000549e-03 -2.007402926683425903e-01 2.280287844769190997e-06 -2.272244273626711220e-06 -2.079688943922519684e-02 1.286272345168981701e-05 -1.836578547954559326e-01 1.263599395751953125e-01 -4.023919999599456787e-02 9.841987490653991699e-02 1.131915226578712463e-01 7.900150865316390991e-02 8.245934545993804932e-02 8.534047752618789673e-02 1.446924917399883270e-02 -2.767735719680786133e-02 2.175436093239113688e-04 -4.406075552105903625e-02 -1.529680639505386353e-01 3.523909981595352292e-07 -6.651312112808227539e-02 -5.049271749157924205e-06 1.090988889336585999e-01 -1.002486944198608398e-01 -3.717533871531486511e-02 4.973583272658288479e-04 1.150021853391081095e-05 -3.244449570775032043e-02 3.770732507109642029e-02 -1.047029945766553283e-05 -1.043656095862388611e-01 -9.220521152019500732e-02 -7.506692409515380859e-02 1.208758354187011719e-02 4.471563547849655151e-02 -3.860619291663169861e-02
-3.710755845531821251e-05 -3.165589987474959344e-06 -5.506068191607482731e-06 -2.970247987832408398e-05 -2.428614061500411481e-05 -2.150096588593441993e-05 -5.824501840834273025e-07 -3.127748186670942232e-06 -3.680884037748910487e-05 9.847210094449110329e-06 2.493416286597494036e-05 9.275579031964298338e-06 -1.211939616041490808e-05 1.358545159746427089e-05 9.658475391915999353e-06 -1.169654387922491878e-05 -1.340960261586587876e-05 1.823237198550486937e-06 3.265277882746886462e-06 -1.686843097559176385e-05 4.332451499067246914e-05 -4.292181134223937988e-02 -1.977948159037623554e-06 1.232547674590023234e-05 -1.564196099934633821e-05 -3.048528014915063977e-05 -1.338927631877595559e-05 1.449195497116306797e-05 1.097520180337596685e-05 7.413873390760272741e-06 -4.772504780703457072e-06 -2.622623469505924731e-06 -2.019808744080364704e-05 -4.033877758047310635e-06 2.909478826040867716e-05 1.180918570753419772e-05 -4.766782694787252694e-06 -1.992094439628999680e-05 2.514659354346804321e-05 -3.402629954507574439e-05 -7.617827577632851899e-06 2.025158028118312359e-05 -1.883603181340731680e-05 -4.450841061043320224e-06 1.148840874520828947e-05 -3.226945409551262856e-05 2.672583286766894162e-05 2.001541542995255440e-05 5.266679181659128517e-06 -3.383660441613756120e-05 -2.332996700715739280e-06 -2.569527714513242245e-05 7.900541648268699646e-03 -8.153053386195097119e-06 -4.959100806445349008e-06 2.837647662090603262e-05 -3.427148112677969038e-05 1.314381734118796885e-06 6.300793029367923737e-05 1.441059612261597067e-05 -4.614578756445553154e-06 1.953403989318758249e-05 -6.321623004623688757e-06 -2.168518949474673718e-05 -2.142461744369938970e-05 1.853999310696963221e-05 -6.022766683599911630e-06 1.248396074515767395e-05 1.155394966190215200e-05 3.531920447130687535e-05 -1.236763455381151289e-05 -1.006135971692856401e-05 -4.348621587269008160e-05 -2.191506609960924834e-05 -8.607395102444570512e-06 4.043212975375354290e-04 -1.477639671065844595e-05 1.610645995242521167e-06 2.564847818575799465e-05 3.839240889647044241e-06 4.740227268484886736e-06 -3.633048436313401908e-06 -6.936958016012795269e-06 -5.839793175255181268e-06 7.288836059160530567e-05 2.460958063602447510e-02 -7.238951184262987226e-06 -1.258741122001083568e-06 -1.774091469997074455e-05 1.362536204396747053e-05 -2.123627564287744462e-05 -1.035128661897033453e-06 1.832926500355824828e-05 -4.131185050937347114e-06 -1.338871697953436524e-06 1.179471473733428866e-05 8.085505214694421738e-06 6.171704626467544585e-06 -6.997803211561404169e-06 -3.000899596372619271e-05 3.204811218893155456e-05 -1.233086823049234226e-05 -6.702897371724247932e-05 1.212046572618419304e-05 -2.330871211597695947e-05 1.213073301187250763e-05 -4.231819510459899902e-02 1.442217580915894359e-05 -1.529940709588117898e-05 -3.487530193524435163e-06 2.018821396632120013e-05 -1.673738370300270617e-05 -8.832813909975811839e-05 -1.313284064963227138e-05 1.106640775105915964e-05 9.485597729508299381e-06 1.166174479294568300e-05 1.015042835206259042e-05 -1.224795960297342390e-05 7.162240308389300480e-06
-1.125302091240882874e-01 1.457679718441795558e-05 -6.712073172820964828e-07 -7.462077587842941284e-02 -1.131288781762123108e-01 7.382836884062271565e-06 1.316836476325988770e-01 1.004725891107227653e-05 -4.640501365065574646e-02 5.278284847736358643e-02 9.296032367274165154e-04 9.135583241004496813e-06 2.336491888854652643e-08 6.728463340550661087e-03 6.564790965057909489e-06 -1.471507246606051922e-03 -7.646263577044010162e-03 2.736880560405552387e-06 -1.853590765676926821e-05 -4.559427907224744558e-04 1.496280856372322887e-05 3.977779299020767212e-02 1.310419570654630661e-02 -7.448019914590986446e-06 4.275885657989419997e-06 -2.611633576452732086e-02 -5.506159737706184387e-02 -1.141381471825297922e-05 3.838191181421279907e-02 -7.596306204504799098e-06 -4.507849458605051041e-03 5.746308488596696407e-06 8.362063454114831984e-06 -6.772902452212292701e-06 6.069308519363403320e-02 1.346203964203596115e-02 5.072568455943837762e-06 -6.215142551809549332e-03 1.354984287172555923e-02 -1.407068409025669098e-02 -3.611482679843902588e-02 -8.287138371088076383e-06 1.302188138652127236e-06 1.315280199050903320e-01 1.914931684732437134e-01 -1.072294712066650391e-01 1.017686372506432235e-06 -5.319741831044666469e-06 -1.613878703210502863e-05 -3.865493908961070701e-06 -3.353633928782073781e-06 -2.080327703879447654e-06 -8.569063991308212280e-02 8.326731403940357268e-06 7.825800821592565626e-06 2.196121495217084885e-03 -3.146368835587054491e-04 -4.398566205054521561e-03 7.313940674066543579e-02 -1.378635806759120896e-05 -4.580422304570674896e-03 -6.491653948614839464e-06 -2.009420655667781830e-02 -4.459396749734878540e-02 -8.623627945780754089e-03 -6.804659217596054077e-02 -3.922598809003829956e-02 -3.927950274373870343e-06 -9.244184941053390503e-02 1.221228285430697724e-05 9.228488430380821228e-03 6.985135842114686966e-03 -2.758442237973213196e-02 -1.316013187170028687e-01 -2.695835428312420845e-03 2.070371806621551514e-01 -1.340455561876296997e-01 6.504885107278823853e-02 3.696092590689659119e-02 2.359355837106704712e-01 5.249248715699650347e-06 -5.338744958862662315e-04 -3.438106432440690696e-05 -8.186989362002350390e-06 3.731320425868034363e-02 1.634014248847961426e-01 -6.461349585151765496e-06 4.805091521120630205e-06 -1.572398692369461060e-01 2.460426539182662964e-01 2.086476888507604599e-03 -7.895876478869467974e-06 -2.366959961364045739e-07 -1.270515145733952522e-03 -6.837640423327684402e-03 8.900145441293716431e-02 2.801460141199640930e-06 1.618578153284033760e-06 -3.077023662626743317e-02 -2.011616015806794167e-05 -1.421480646968120709e-05 2.494516593287698925e-06 -1.021734997630119324e-01 -1.635800435906276107e-05 9.906727820634841919e-03 -1.622240961296483874e-05 -1.938723176717758179e-01 8.159374445676803589e-02 -2.837022748281015083e-06 -2.505560172721743584e-03 -1.634873115108348429e-05 1.224998850375413895e-03 -3.971484147768933326e-06 -2.280296199023723602e-02 -1.608665570529410616e-06 -2.754688076674938202e-02 -1.539049117127433419e-05 6.755989488738123327e-06 2.114308625459671021e-02 7.063134014606475830e-02
