-2.734428346157073975e-01 -2.202586084604263306e-02 2.486537247896194458e-01 5.132164340466260910e-03 1.434860527515411377e-01 3.533196076750755310e-02 5.146790295839309692e-02 3.351778909564018250e-02 2.433435991406440735e-02 1.372750997543334961e-01 -1.048828139901161194e-01 -4.211207106709480286e-02 8.436694741249084473e-02 -1.845800280570983887e-01 9.591381996870040894e-02 6.814836710691452026e-02 -8.366280049085617065e-02 1.171769127249717712e-01 2.845073342323303223e-01 -1.582626551389694214e-01
1.606463640928268433e-01 5.918121337890625000e-02 -1.727260202169418335e-01 -1.382481902837753296e-01 3.445116803050041199e-02 4.786312952637672424e-02 -1.798060387372970581e-01 2.961125969886779785e-01 -9.178078174591064453e-02 -2.624662220478057861e-02 -1.945569366216659546e-01 1.570045351982116699e-01 1.660384386777877808e-01 -1.536020040512084961e-01 9.229000657796859741e-02 1.410519331693649292e-01 -3.116477131843566895e-01 1.853803396224975586e-01 -3.130129873752593994e-01 3.827644884586334229e-02
8.786308020353317261e-02 -3.298014104366302490e-01 2.115962803363800049e-01 -5.194509774446487427e-02 1.216307207942008972e-01 -3.182871639728546143e-02 -1.084402799606323242e-01 -1.052682548761367798e-01 6.583600491285324097e-02 -1.249706968665122986e-01 -7.964851707220077515e-02 1.311722677201032639e-02 1.362757086753845215e-01 2.400711625814437866e-01 1.053633261471986771e-02 2.014958709478378296e-01 -2.402936518192291260e-01 -1.578907519578933716e-01 -3.555600643157958984e-01 3.451547920703887939e-01
