-3.660263717174530029e-01 -2.019747942686080933e-01 -2.778531014919281006e-01 -3.210941702127456665e-02 1.721716970205307007e-01 -7.470382843166589737e-03 7.916736602783203125e-02 -1.308096647262573242e-01 -2.677992284297943115e-01 -3.416663706302642822e-01 -2.741918340325355530e-02 1.147550120949745178e-01 7.395610213279724121e-02 7.716026157140731812e-02 2.921219542622566223e-02 1.449054628610610962e-01 -2.566332183778285980e-02 5.444229766726493835e-02 -4.656478390097618103e-02 8.610328286886215210e-02
-3.911351785063743591e-02 -1.334962546825408936e-01 -6.138892844319343567e-02 -1.622082293033599854e-02 -1.488002575933933258e-02 -1.281687766313552856e-01 -2.251904755830764771e-01 3.148008286952972412e-01 -7.433458417654037476e-02 2.435901612043380737e-01 2.934057712554931641e-01 -2.361150979995727539e-01 3.545882105827331543e-01 4.027537629008293152e-02 -6.303369253873825073e-02 1.462676376104354858e-01 7.517821341753005981e-02 2.388830482959747314e-01 -6.014615064486861229e-04 3.797274082899093628e-02
-2.580585479736328125e-01 2.699910104274749756e-01 -1.324987411499023438e-01 1.157536059617996216e-01 3.020737133920192719e-02 2.009376734495162964e-01 8.504851907491683960e-02 -1.482130773365497589e-02 2.850343286991119385e-01 -1.538083255290985107e-01 -5.148195102810859680e-02 -2.166093438863754272e-01 -1.018106564879417419e-01 4.693055897951126099e-02 3.324623033404350281e-02 3.768770098686218262e-01 2.364855259656906128e-01 3.168979883193969727e-01 5.935642123222351074e-02 1.752043813467025757e-01
-2.489092648029327393e-01 2.302751392126083374e-01 2.296393215656280518e-01 4.948873445391654968e-02 1.154723092913627625e-01 1.346416920423507690e-01 -7.446130365133285522e-02 2.344482690095901489e-01 -1.975669413805007935e-01 -1.135327145457267761e-01 -2.371537238359451294e-01 2.511122226715087891e-01 9.391097724437713623e-02 -3.576398789882659912e-01 -1.171481236815452576e-01 1.445385068655014038e-01 1.651291362941265106e-02 -6.271130591630935669e-02 -1.272907555103302002e-01 7.488662004470825195e-02
-1.369886845350265503e-01 1.813622564077377319e-01 3.469682633876800537e-01 -2.082687802612781525e-02 -5.120808631181716919e-02 -6.414946168661117554e-02 1.755737811326980591e-01 -8.188676834106445312e-02 3.792508542537689209e-01 -8.545701205730438232e-02 3.635426983237266541e-02 -1.472249478101730347e-01 -5.659095570445060730e-02 -3.318394348025321960e-02 3.379514440894126892e-02 -1.339281648397445679e-01 2.072342634201049805e-01 -2.100094556808471680e-01 -2.842432856559753418e-01 -2.328207343816757202e-01
-1.106108427047729492e-01 -1.007054671645164490e-01 -8.423352986574172974e-02 -1.713750213384628296e-01 3.073773682117462158e-01 -3.361505642533302307e-02 3.911543637514114380e-02 -1.024145632982254028e-01 1.308336257934570312e-01 -2.472086437046527863e-02 -2.869356870651245117e-01 1.094720698893070221e-02 2.681922018527984619e-01 1.296382583677768707e-02 -1.942682266235351562e-01 -1.031093373894691467e-01 1.139085069298744202e-01 3.370700404047966003e-02 -1.150347590446472168e-01 2.819926142692565918e-01
-3.610811755061149597e-02 -1.767561286687850952e-01 -1.435693819075822830e-02 8.008451759815216064e-02 -2.254714518785476685e-01 -7.441272586584091187e-02 -3.755905330181121826e-01 2.849605679512023926e-01 -1.806261092424392700e-01 -2.798676192760467529e-01 7.163268327713012695e-02 -8.244875818490982056e-02 3.385322988033294678e-01 -1.052641198039054871e-01 2.685300111770629883e-01 1.869785934686660767e-01 1.166975647211074829e-01 4.102224111557006836e-02 2.636881768703460693e-01 -2.031375020742416382e-01
1.357690691947937012e-01 -9.407293796539306641e-02 -3.265757486224174500e-02 2.574917972087860107e-01 4.171205684542655945e-02 -1.031978502869606018e-01 -2.036081403493881226e-01 1.180911436676979065e-01 -2.792591452598571777e-01 -3.120771944522857666e-01 1.767875850200653076e-01 4.163110256195068359e-02 3.089228868484497070e-01 -1.605380624532699585e-01 1.992953568696975708e-01 -3.535644412040710449e-01 -1.034996435046195984e-01 -2.653483748435974121e-01 2.987720370292663574e-01 1.129420921206474304e-01
2.231141328811645508e-01 -9.915792942047119141e-02 2.725964225828647614e-02 1.710780709981918335e-01 -1.180394738912582397e-02 -1.028177365660667419e-01 -1.259995251893997192e-02 -4.713552817702293396e-02 1.108400430530309677e-02 -1.104355975985527039e-01 -6.607400625944137573e-02 -6.252761185169219971e-02 -3.695543110370635986e-02 2.518185079097747803e-01 2.148650884628295898e-01 9.647949039936065674e-02 -5.655605718493461609e-02 1.744217984378337860e-02 2.612571716308593750e-01 7.398504763841629028e-02
-1.851143240928649902e-01 -1.021695062518119812e-01 2.517939209938049316e-01 7.567867636680603027e-02 3.360102772712707520e-01 1.613290660316124558e-04 -2.717241346836090088e-01 -8.890966325998306274e-02 -5.181054398417472839e-02 8.254396170377731323e-02 3.853544220328330994e-02 -2.145740836858749390e-01 -1.106956973671913147e-01 -6.094324588775634766e-02 -1.921447962522506714e-01 -2.012933939695358276e-01 -2.767400145530700684e-01 -1.345313340425491333e-01 -5.518221855163574219e-02 2.002242393791675568e-02
