5.475425627082586288e-03 -8.399417251348495483e-02 -1.159063577651977539e-01 -2.135531455278396606e-01 -1.532651782035827637e-01 6.694023311138153076e-02 -6.066167261451482773e-03 8.763474971055984497e-02 -1.941209584474563599e-01 -4.985908046364784241e-02 -6.155916675925254822e-02 2.681812942028045654e-01 -7.682773750275373459e-03 -5.519112106412649155e-03 5.495335534214973450e-02 1.309405732899904251e-02 -1.073515564203262329e-01 -4.322276636958122253e-02 -1.430883854627609253e-01 4.115450009703636169e-02 -2.250826656818389893e-01 -3.013257384300231934e-01 -1.004896983504295349e-01 1.627749800682067871e-01 1.731451004743576050e-01 -1.975298225879669189e-01 2.976600825786590576e-02 -3.623261749744415283e-01 -9.596791118383407593e-02 -1.765875667333602905e-01 -2.983059585094451904e-01 -2.427110970020294189e-01 -1.278316825628280640e-01 1.514516919851303101e-01 -7.242221385240554810e-02 3.775299489498138428e-01 1.831324547529220581e-01 -9.293249994516372681e-02 1.324265450239181519e-01 2.801118195056915283e-01 9.471761435270309448e-02 -1.451013684272766113e-01 -1.247852966189384460e-01 6.900955922901630402e-03 -3.756169974803924561e-01 -1.674149185419082642e-01 -1.536152064800262451e-01 -1.679999083280563354e-01 5.215526907704770565e-04 1.426876932382583618e-01 -1.243076696991920471e-01 1.069032326340675354e-01 -1.568830609321594238e-01 7.044208794832229614e-02 3.869545832276344299e-02 -1.841436140239238739e-02 1.856282949447631836e-01 3.576231002807617188e-02 1.786582916975021362e-01 -3.968290984630584717e-01 4.287264868617057800e-02 -2.954486012458801270e-02 -2.190102590247988701e-03 3.387023136019706726e-02 3.850545883178710938e-01 -1.174008399248123169e-01 -1.060782223939895630e-01 -2.025405615568161011e-01 -2.826726734638214111e-01 -3.148211538791656494e-01 -1.078141257166862488e-01 1.398696191608905792e-02 4.018703103065490723e-02 2.580768242478370667e-02 -3.613126277923583984e-02 6.479581445455551147e-02 1.856616511940956116e-02 1.599936336278915405e-01 -2.162594646215438843e-01 -2.427394241094589233e-01
1.746217161417007446e-02 -1.746886074542999268e-01 -3.007427752017974854e-01 1.119207125157117844e-02 1.248185560107231140e-01 -2.228753566741943359e-01 -1.513567864894866943e-01 -1.941211074590682983e-01 4.181302711367607117e-02 1.410935372114181519e-01 -2.319805622100830078e-01 3.832422196865081787e-01 2.405671924352645874e-01 9.221996366977691650e-02 3.684652149677276611e-01 -8.089923858642578125e-02 -2.199295759201049805e-01 -3.502521812915802002e-01 -7.302241772413253784e-02 -1.303368210792541504e-01 -9.228264540433883667e-02 -2.566044032573699951e-01 9.217098355293273926e-02 -5.449793301522731781e-03 9.516894072294235229e-02 -9.362905472517013550e-02 2.536486387252807617e-01 1.908496469259262085e-01 3.148586750030517578e-01 -1.557656377553939819e-01 -1.763421744108200073e-01 -1.732374727725982666e-02 1.044623181223869324e-01 1.105582118034362793e-01 1.374412514269351959e-02 2.121128588914871216e-01 1.331274211406707764e-02 2.320176362991333008e-01 6.547661032527685165e-03 -1.998069733381271362e-01 -3.064464032649993896e-01 -9.165506809949874878e-02 -1.587540358304977417e-01 3.434332907199859619e-01 2.321827262639999390e-01 -8.923384547233581543e-02 -3.103336086496710777e-03 -2.856892645359039307e-01 8.339039981365203857e-02 2.564991712570190430e-01 -1.664378643035888672e-01 -1.356332935392856598e-02 -2.659569680690765381e-01 -3.355009555816650391e-01 1.033251732587814331e-02 1.958260983228683472e-01 1.119930893182754517e-01 3.648255467414855957e-01 2.295991964638233185e-02 -1.319574713706970215e-01 1.900754272937774658e-01 -1.612025350332260132e-01 -2.348593473434448242e-01 2.865302562713623047e-02 -3.317304700613021851e-02 -3.290781006217002869e-02 -3.928410820662975311e-03 9.040311910212039948e-03 -4.141154512763023376e-02 2.072719633579254150e-01 -1.367270946502685547e-01 -3.617024123668670654e-01 -2.858327887952327728e-02 6.566246598958969116e-02 1.889771670103073120e-01 -1.488031148910522461e-01 1.168945804238319397e-01 1.505092829465866089e-01 -1.300158351659774780e-01 -1.756493002176284790e-01
-5.151421576738357544e-02 -5.876618251204490662e-02 1.845103353261947632e-01 -7.701943069696426392e-02 7.143222540616989136e-02 -3.374302387237548828e-02 -3.841044306755065918e-01 -7.264848798513412476e-02 1.246689110994338989e-01 2.030174247920513153e-02 -1.382843554019927979e-01 1.736261099576950073e-01 1.525854468345642090e-01 -3.472748026251792908e-02 -2.131881266832351685e-01 2.178700827062129974e-02 1.852485686540603638e-01 1.016496792435646057e-01 -3.702289164066314697e-01 -2.415874749422073364e-01 -1.799431443214416504e-01 -1.272457689046859741e-01 -5.182001739740371704e-02 -7.179835438728332520e-02 -3.040544688701629639e-01 -1.372004151344299316e-01 5.741187557578086853e-02 -1.925235055387020111e-02 7.504928112030029297e-02 2.372761964797973633e-01 1.021441221237182617e-01 -2.999453246593475342e-01 2.222249954938888550e-01 4.298345372080802917e-02 -1.757046133279800415e-01 3.878336846828460693e-01 1.430574059486389160e-01 -2.611357904970645905e-02 1.867453567683696747e-02 -2.806922197341918945e-01 9.937849640846252441e-02 3.602411746978759766e-01 1.116726920008659363e-01 2.364271879196166992e-01 -2.385052442550659180e-01 2.592852711677551270e-02 -1.798513233661651611e-01 2.249424755573272705e-01 7.545693963766098022e-02 -1.802115887403488159e-01 1.470178365707397461e-01 7.944359630346298218e-02 -1.522188484668731689e-01 1.847945526242256165e-02 -1.060818322002887726e-02 -4.801558330655097961e-02 -1.163729652762413025e-01 -8.354895561933517456e-02 -9.647588431835174561e-02 -9.439170360565185547e-02 -1.100555807352066040e-01 -3.158659860491752625e-02 -1.458121836185455322e-01 -1.601968854665756226e-01 2.144784294068813324e-02 1.321448534727096558e-01 -6.633678078651428223e-02 -1.709837764501571655e-01 1.185282841324806213e-01 2.187488079071044922e-01 -3.548480570316314697e-02 -5.751399323344230652e-02 -1.542114764451980591e-01 1.537098735570907593e-01 -5.540407449007034302e-02 1.511132866144180298e-01 9.802226908504962921e-03 -2.541498839855194092e-01 -1.064613088965415955e-02 -9.658290073275566101e-03
-1.442665457725524902e-01 5.886518582701683044e-02 -3.747517764568328857e-01 2.638266980648040771e-01 2.275880575180053711e-01 -2.265564054250717163e-01 -7.893296331167221069e-02 7.802946865558624268e-02 -5.299679562449455261e-02 -1.886042356491088867e-01 -7.724056392908096313e-02 1.892138621769845486e-03 -1.592739224433898926e-01 -2.381061762571334839e-01 2.929722703993320465e-02 -1.392398178577423096e-01 -2.672906219959259033e-01 1.565733999013900757e-01 3.012212514877319336e-01 4.691163077950477600e-02 -1.763829737901687622e-01 1.058452501893043518e-01 -2.000105828046798706e-01 -1.988362371921539307e-01 2.649892270565032959e-01 -1.561660766601562500e-01 1.581245511770248413e-01 1.534731835126876831e-01 9.187179058790206909e-02 -2.412838861346244812e-02 1.907585859298706055e-01 -3.340980783104896545e-02 -1.390143781900405884e-01 -2.872765297070145607e-03 -2.106880247592926025e-01 -1.432598978281021118e-01 1.190129891037940979e-01 -1.474112123250961304e-01 2.938258647918701172e-01 2.547487914562225342e-01 -2.571355402469635010e-01 3.273739516735076904e-01 2.167254984378814697e-01 9.520414471626281738e-02 1.626090705394744873e-01 1.096803508698940277e-02 -2.332295924425125122e-01 -2.271447479724884033e-01 1.480668038129806519e-01 7.500281184911727905e-02 -6.889066100120544434e-02 2.773198783397674561e-01 8.810229599475860596e-02 3.792082965373992920e-01 3.555448949337005615e-01 1.582507342100143433e-01 -1.483110040426254272e-01 1.953754574060440063e-02 1.478046178817749023e-01 5.648927763104438782e-02 2.133381813764572144e-01 1.419374253600835800e-02 -3.271897733211517334e-01 1.563610741868615150e-03 -7.910101860761642456e-02 3.850073739886283875e-02 -3.101187646389007568e-01 1.917465925216674805e-01 1.840876191854476929e-01 -1.274743378162384033e-01 -1.694008409976959229e-01 -3.030135631561279297e-01 -5.554829165339469910e-02 -1.343293040990829468e-01 2.678387761116027832e-01 -4.051942750811576843e-02 2.321707755327224731e-01 8.466935157775878906e-02 -1.415131390094757080e-01 -6.831250339746475220e-02
1.476206630468368530e-01 -5.332977697253227234e-02 -5.396911501884460449e-02 1.748353838920593262e-01 -1.162140592932701111e-01 1.313487142324447632e-01 1.105736494064331055e-01 -2.639037370681762695e-01 -2.930233180522918701e-01 -1.147419214248657227e-03 -1.673940122127532959e-01 -7.001060247421264648e-02 -2.159902155399322510e-01 1.944708824157714844e-01 -1.291029602289199829e-01 1.877679973840713501e-01 -1.398302167654037476e-01 -2.171573489904403687e-01 -9.109483659267425537e-02 1.619447469711303711e-01 3.255067169666290283e-01 3.668368756771087646e-01 1.392644047737121582e-01 5.389176681637763977e-02 -1.383191198110580444e-01 3.952153623104095459e-01 6.970839947462081909e-02 3.354373201727867126e-02 4.615287296473979950e-03 1.499920338392257690e-01 9.738540276885032654e-03 -1.150698289275169373e-01 2.683457434177398682e-01 -3.334342241287231445e-01 9.293953329324722290e-02 -2.989897690713405609e-02 -1.202680054120719433e-03 -6.602641195058822632e-02 -2.181528657674789429e-01 2.861301042139530182e-02 2.939696609973907471e-01 1.906108111143112183e-01 -3.829739093780517578e-01 -2.846999168395996094e-01 4.540340229868888855e-02 1.137352734804153442e-01 -1.357036083936691284e-01 -1.067893505096435547e-01 -3.494040071964263916e-01 3.991925418376922607e-01 -1.047481223940849304e-01 2.747021913528442383e-01 3.371762931346893311e-01 2.320885211229324341e-01 2.060945779085159302e-01 8.460174500942230225e-02 7.221560180187225342e-02 -1.533298343420028687e-01 -6.351955235004425049e-02 2.379835769534111023e-02 1.540939658880233765e-01 1.599335074424743652e-01 -1.048084720969200134e-01 7.107426971197128296e-02 -2.518425583839416504e-01 2.072127610445022583e-01 -8.770464360713958740e-02 -3.461844623088836670e-01 -1.686241477727890015e-01 -2.870124876499176025e-01 3.382258117198944092e-01 -2.256912440061569214e-01 -1.653568744659423828e-01 1.644090376794338226e-02 -1.281175762414932251e-01 1.823583431541919708e-02 -2.723684608936309814e-01 -2.637368254363536835e-02 5.242892727255821228e-02 -2.077197581529617310e-01
1.281816810369491577e-01 -2.606366574764251709e-01 1.240068078041076660e-01 3.276985585689544678e-01 1.386712398380041122e-02 -1.786475442349910736e-02 2.109567448496818542e-02 -1.023675594478845596e-02 7.375831156969070435e-02 -1.621607095003128052e-01 7.413389533758163452e-02 1.312283277511596680e-01 -5.182139202952384949e-02 3.436742350459098816e-02 -2.075972557067871094e-01 -1.214842125773429871e-01 2.294337600469589233e-01 -1.666369438171386719e-01 -6.038117036223411560e-02 -7.787470519542694092e-02 -1.778595894575119019e-01 -2.287657111883163452e-01 -1.397923827171325684e-01 1.839975416660308838e-01 1.185846924781799316e-01 -1.374664367176592350e-03 -1.928227096796035767e-01 3.577498719096183777e-02 1.526755243539810181e-01 1.075262427330017090e-01 -2.685740031301975250e-02 1.155543923377990723e-01 -2.959423065185546875e-01 9.473605453968048096e-02 -5.622856691479682922e-02 1.629520021378993988e-02 -1.896509379148483276e-01 7.292788475751876831e-03 -2.219264805316925049e-01 -3.957391679286956787e-01 -7.044787704944610596e-02 3.382699191570281982e-02 -1.166199445724487305e-01 2.072880268096923828e-01 1.087786555290222168e-01 -2.753728330135345459e-01 7.209663838148117065e-02 3.097911737859249115e-02 -9.467654861509799957e-03 -1.782522052526473999e-01 3.421162068843841553e-01 -1.352769136428833008e-01 -2.659109607338905334e-02 -3.287361860275268555e-01 2.151889912784099579e-02 -4.155531525611877441e-02 -2.257480919361114502e-01 -2.544911578297615051e-02 -4.177898541092872620e-02 2.540313005447387695e-01 -2.932982742786407471e-01 1.918185055255889893e-01 2.192701846361160278e-01 -8.006295561790466309e-02 1.849102228879928589e-01 4.669694975018501282e-02 -1.438794136047363281e-01 -1.484498977661132812e-01 7.233526557683944702e-03 -1.242929100990295410e-01 1.619409769773483276e-01 -2.387539893388748169e-01 -4.318652208894491196e-03 -2.487034052610397339e-01 1.878228187561035156e-01 8.272364735603332520e-03 -2.131460905075073242e-01 -1.113421097397804260e-01 1.347569674253463745e-01 -4.610469937324523926e-02
1.419651508331298828e-01 1.774193495512008667e-01 -1.725385487079620361e-01 4.848688468337059021e-02 -1.664838492870330811e-01 4.985360428690910339e-02 -2.564572095870971680e-01 2.998894080519676208e-03 -2.499856948852539062e-01 -1.513366550207138062e-01 1.807918548583984375e-01 -5.693859606981277466e-02 -1.554299294948577881e-01 1.327715516090393066e-01 -8.457012474536895752e-02 1.880903989076614380e-01 5.629293993115425110e-02 -1.876051574945449829e-01 2.089325487613677979e-01 -4.439306631684303284e-02 7.059682905673980713e-02 9.625806659460067749e-02 5.846697092056274414e-02 1.794439107179641724e-01 3.528549894690513611e-02 -3.087426722049713135e-01 -7.225846499204635620e-02 -1.105095539242029190e-02 1.620051860809326172e-01 3.293032571673393250e-02 -6.641605496406555176e-02 -3.590086102485656738e-01 1.247333437204360962e-01 -6.314866989850997925e-02 7.092358916997909546e-02 -1.228714361786842346e-01 -1.013463139533996582e-01 -1.145660877227783203e-01 -2.307742089033126831e-01 -2.802309691905975342e-01 1.943976730108261108e-01 -1.198664531111717224e-01 -1.272175312042236328e-01 3.322469070553779602e-03 -3.342249095439910889e-01 3.129109144210815430e-01 -9.810989350080490112e-02 -4.177837073802947998e-02 -1.060848757624626160e-01 -8.074242621660232544e-02 4.405521973967552185e-02 1.084241420030593872e-01 1.833568513393402100e-01 -3.667258471250534058e-02 5.374014005064964294e-02 6.852099299430847168e-02 -6.492404639720916748e-02 2.985300421714782715e-01 2.733654975891113281e-01 -1.061182189732789993e-02 -9.831232577562332153e-02 9.839691221714019775e-02 1.080047264695167542e-01 1.777927875518798828e-01 -1.677039824426174164e-02 -1.732656806707382202e-01 -2.740557864308357239e-02 -1.553514301776885986e-01 -9.361835569143295288e-02 1.309196352958679199e-01 5.035716574639081955e-03 1.579332798719406128e-01 -1.095650792121887207e-01 1.696259528398513794e-01 -6.484302133321762085e-02 1.489087343215942383e-01 2.989292144775390625e-01 6.604386121034622192e-02 1.392700802534818649e-02 7.938234508037567139e-02
3.159279525279998779e-01 1.171232461929321289e-01 -9.573985636234283447e-02 -5.841752886772155762e-02 2.579502761363983154e-01 -6.352619081735610962e-02 2.940926514565944672e-02 -3.374582529067993164e-01 1.841084957122802734e-01 -2.228519022464752197e-01 -1.866065524518489838e-02 2.024974077939987183e-01 2.541656494140625000e-01 1.756788939237594604e-01 1.399743258953094482e-01 1.401606500148773193e-01 1.092420052736997604e-02 3.197896182537078857e-01 8.057372272014617920e-02 2.700420916080474854e-01 6.860224157571792603e-02 -2.950457297265529633e-02 -4.151396825909614563e-02 -9.571734815835952759e-02 9.639849513769149780e-02 6.599163264036178589e-02 2.647155821323394775e-01 8.241271227598190308e-02 -1.653726547956466675e-01 -3.756293281912803650e-02 3.280801773071289062e-01 2.659431993961334229e-01 2.014521807432174683e-01 1.543294638395309448e-01 -2.594467401504516602e-01 -9.296748787164688110e-02 8.011122047901153564e-02 1.002853512763977051e-01 2.015784702962264419e-04 -1.263489276170730591e-01 -1.378725022077560425e-01 -1.543537713587284088e-02 2.790565192699432373e-01 1.166105503216385841e-03 1.743150800466537476e-01 -1.400584727525711060e-01 1.672839373350143433e-01 -3.399100005626678467e-01 -8.430569432675838470e-03 -3.411106765270233154e-01 7.781195640563964844e-02 3.522906899452209473e-01 -7.419703155755996704e-02 3.488497808575630188e-02 -6.920786108821630478e-03 5.725567415356636047e-02 -2.809884548187255859e-01 -3.371394574642181396e-01 -2.260189503431320190e-01 2.900567054748535156e-01 1.229831799864768982e-01 3.295621275901794434e-01 -2.264418452978134155e-01 1.041217073798179626e-01 8.434397727251052856e-02 7.456020917743444443e-03 -2.084595412015914917e-01 -2.026239931583404541e-01 -1.313617080450057983e-01 -1.969810426235198975e-01 -1.406983137130737305e-01 -2.010546252131462097e-02 -1.099783107638359070e-01 -8.513984829187393188e-02 8.276339620351791382e-02 -1.186591908335685730e-01 4.718098044395446777e-02 -1.071444153785705566e-01 1.725707352161407471e-01 -2.085423469543457031e-01
9.401819109916687012e-02 9.242545813322067261e-02 -2.782964706420898438e-01 -3.486187160015106201e-01 -1.544439494609832764e-01 1.397163718938827515e-01 -1.610939502716064453e-01 1.938074082136154175e-01 4.694635421037673950e-02 1.887707263231277466e-01 1.989961862564086914e-01 9.555947780609130859e-02 1.950320415198802948e-02 9.956684708595275879e-02 2.845479249954223633e-01 6.777347531169652939e-03 1.195461079478263855e-01 -1.500288248062133789e-01 -5.787227675318717957e-02 -5.298012122511863708e-02 3.142673894762992859e-02 -5.491854622960090637e-02 2.530247569084167480e-01 -7.978534698486328125e-02 -8.190853521227836609e-03 -1.792403608560562134e-01 1.839346736669540405e-01 -2.296885550022125244e-01 2.660183012485504150e-01 5.140820145606994629e-02 -8.890204131603240967e-02 -1.736735105514526367e-01 -4.869306460022926331e-02 -3.106004595756530762e-01 -1.621446311473846436e-01 -4.203987866640090942e-02 -2.509880997240543365e-02 -2.068338245153427124e-01 -2.834976613521575928e-01 -2.116111367940902710e-01 -4.246782884001731873e-02 1.027357131242752075e-01 -6.546300649642944336e-02 1.018231064081192017e-01 -9.761096537113189697e-02 -1.347504407167434692e-01 2.094605714082717896e-01 1.394631415605545044e-01 -1.369967311620712280e-01 1.995936781167984009e-01 -3.190853297710418701e-01 2.687325887382030487e-02 -1.315698772668838501e-01 3.627176955342292786e-02 -2.836430966854095459e-01 8.743917942047119141e-02 7.408995926380157471e-02 1.557848304510116577e-01 -3.158996105194091797e-01 2.090014666318893433e-01 -2.240380346775054932e-01 -1.904188841581344604e-01 -2.554619312286376953e-02 1.943825371563434601e-02 5.923475697636604309e-02 1.175483390688896179e-01 -2.633913233876228333e-02 1.777669489383697510e-01 1.040460690855979919e-01 -7.743880152702331543e-02 6.570520251989364624e-02 -1.712958216667175293e-01 -7.647734135389328003e-02 -3.210339322686195374e-02 1.749006360769271851e-01 4.731741920113563538e-02 -3.532750904560089111e-01 -6.021973490715026855e-02 -2.442860277369618416e-03 -1.398597359657287598e-01
-9.629736654460430145e-03 1.110886335372924805e-01 6.237591151148080826e-04 3.152053356170654297e-01 2.570419907569885254e-01 8.137947320938110352e-02 -1.896770000457763672e-01 -1.562575548887252808e-01 -1.688612550497055054e-01 -3.998045027256011963e-01 4.382089525461196899e-02 -2.444247305393218994e-01 3.418245539069175720e-02 -8.143367618322372437e-02 -1.971059292554855347e-01 2.612432837486267090e-01 -1.878675222396850586e-01 -2.094773352146148682e-01 2.164323814213275909e-02 3.879230096936225891e-02 4.137435555458068848e-02 -7.788070291280746460e-02 -1.188582107424736023e-01 -1.343249529600143433e-01 3.112556338310241699e-01 -1.061737537384033203e-01 -5.056478455662727356e-02 -2.654015086591243744e-02 1.365713030099868774e-02 -4.721471294760704041e-02 -3.264231607317924500e-02 -9.671053290367126465e-02 -3.260923027992248535e-01 2.063833475112915039e-01 1.783816069364547729e-01 -2.728783786296844482e-01 -1.150859519839286804e-01 3.765324950218200684e-01 -1.558292508125305176e-01 1.373606622219085693e-01 2.564468085765838623e-01 3.522629439830780029e-01 -1.487366110086441040e-01 -7.907275855541229248e-02 6.213027983903884888e-02 -1.036705970764160156e-01 1.008352190256118774e-01 -3.951669335365295410e-01 -8.816996961832046509e-02 3.346142470836639404e-01 -5.063476040959358215e-02 2.744407765567302704e-02 1.605709940195083618e-01 1.866339743137359619e-01 1.506242007017135620e-01 -3.520562872290611267e-02 -1.304837167263031006e-01 -1.013245731592178345e-01 9.378406405448913574e-02 1.096971612423658371e-02 1.428408324718475342e-01 5.090298876166343689e-02 5.105549842119216919e-02 -1.436924040317535400e-01 1.168407350778579712e-01 -1.417304426431655884e-01 -8.448677510023117065e-02 3.073478350415825844e-03 -3.484247624874114990e-02 1.937464773654937744e-01 -2.468736022710800171e-01 1.277706772089004517e-01 -2.821740806102752686e-01 2.967959642410278320e-01 1.777117103338241577e-01 2.119806408882141113e-02 -1.145738586783409119e-01 -2.506798207759857178e-01 -2.571070194244384766e-01 -2.453745156526565552e-02
-5.301551893353462219e-02 -2.079524844884872437e-01 -2.986895740032196045e-01 1.604735851287841797e-03 -2.505169808864593506e-02 -1.995447650551795959e-02 6.141975522041320801e-02 -9.484910219907760620e-02 -1.504691839218139648e-01 2.257150411605834961e-01 -1.866542398929595947e-01 2.263141423463821411e-01 3.014170564711093903e-02 -2.563825547695159912e-01 1.671032905578613281e-01 -4.444770142436027527e-02 -2.510110847651958466e-02 -5.648063495755195618e-02 1.164540797472000122e-01 -1.209007427096366882e-01 1.756021380424499512e-01 3.035957813262939453e-01 1.178063675761222839e-01 1.208154764026403427e-02 -1.183858737349510193e-01 -1.382586210966110229e-01 -4.248115047812461853e-02 9.782867878675460815e-02 -2.048367075622081757e-02 2.513234913349151611e-01 3.190618380904197693e-02 -3.631709888577461243e-02 -1.148591190576553345e-01 -2.023300677537918091e-01 6.190073490142822266e-02 5.252274498343467712e-02 3.581282794475555420e-01 -1.735694259405136108e-01 2.709394693374633789e-02 9.653341025114059448e-02 2.018292695283889771e-01 1.253410894423723221e-02 2.418102025985717773e-01 -4.879023879766464233e-02 -1.657719165086746216e-01 -6.082639098167419434e-02 -5.815257783979177475e-03 -2.901668250560760498e-01 -6.629840284585952759e-02 -1.233161240816116333e-01 3.381214337423443794e-03 -6.657437235116958618e-02 2.128457129001617432e-01 2.003752291202545166e-01 9.432253241539001465e-02 1.226772069931030273e-01 -2.133012264966964722e-01 1.561899483203887939e-01 -1.929368376731872559e-01 -3.961157053709030151e-02 5.437693092972040176e-03 -2.146586179733276367e-01 -1.690435558557510376e-01 1.649661958217620850e-01 1.396516114473342896e-01 5.919370800256729126e-02 4.297630116343498230e-02 -9.722330421209335327e-02 8.835235238075256348e-02 2.361880838871002197e-01 -8.231471292674541473e-03 2.254090309143066406e-01 -6.602709181606769562e-04 -2.415211647748947144e-01 -1.891922503709793091e-01 -7.696115225553512573e-02 1.450897008180618286e-01 -1.744192242622375488e-01 5.783218890428543091e-02 -5.017273500561714172e-02
1.498314887285232544e-01 1.791393011808395386e-01 -2.708663344383239746e-01 1.333724707365036011e-01 -5.540779978036880493e-02 -2.035277187824249268e-01 2.273048907518386841e-01 -2.898504436016082764e-01 -7.380812615156173706e-02 -8.177553862333297729e-02 9.856408834457397461e-02 2.680653929710388184e-01 -2.361215800046920776e-01 2.488565817475318909e-02 -2.861146628856658936e-02 -6.887783855199813843e-02 3.436790406703948975e-01 -1.727970689535140991e-01 -4.087496176362037659e-02 -6.125987693667411804e-02 1.805341690778732300e-01 1.002890989184379578e-01 -1.559501886367797852e-01 7.850787602365016937e-03 2.423754781484603882e-01 2.507188823074102402e-03 -2.348891347646713257e-01 -2.565573751926422119e-01 1.915422379970550537e-01 -2.469893693923950195e-01 3.715702891349792480e-02 -4.022231325507164001e-02 1.946704387664794922e-01 7.054466754198074341e-02 -1.489309221506118774e-01 -3.636118024587631226e-02 1.998254507780075073e-01 2.025825083255767822e-01 -9.784829616546630859e-02 -3.017167747020721436e-01 -4.609678313136100769e-02 1.248190030455589294e-01 2.439229488372802734e-01 -2.648975551128387451e-01 1.990440301597118378e-02 -1.437646001577377319e-01 4.281157255172729492e-02 1.814300864934921265e-01 -3.593164384365081787e-01 1.962541043758392334e-01 -1.114361211657524109e-01 1.502724923193454742e-02 8.768648654222488403e-02 -2.773017250001430511e-02 2.259985953569412231e-01 2.436468154191970825e-01 3.750180900096893311e-01 1.033340841531753540e-01 -1.451724022626876831e-01 9.501492977142333984e-02 -2.905948460102081299e-01 6.196662783622741699e-03 2.654235064983367920e-01 -3.175761923193931580e-02 4.522439464926719666e-02 -2.356761544942855835e-01 3.254664242267608643e-01 -1.011896878480911255e-01 -6.987897306680679321e-02 2.647583484649658203e-01 -1.889354884624481201e-01 6.867813412100076675e-03 1.724434792995452881e-01 1.135190948843955994e-01 -1.839347928762435913e-01 4.398867860436439514e-02 6.934889405965805054e-02 2.460673153400421143e-01 -1.314903236925601959e-02 1.210829149931669235e-02
-1.415345519781112671e-01 3.597947061061859131e-01 -3.992112725973129272e-02 1.241537556052207947e-01 1.071426048874855042e-01 1.025273799896240234e-01 2.321795225143432617e-01 -2.216902561485767365e-02 1.538453549146652222e-01 -7.054485380649566650e-02 3.168603479862213135e-01 5.180655792355537415e-02 1.135726943612098694e-01 -9.085411578416824341e-02 -2.641159109771251678e-02 -1.838462799787521362e-01 -2.158448472619056702e-02 -1.546704322099685669e-01 -9.096183627843856812e-02 2.418119758367538452e-01 -8.799815922975540161e-02 -7.803091406822204590e-02 2.447353899478912354e-01 3.153951140120625496e-03 -3.176508247852325439e-01 2.017462551593780518e-01 9.720220416784286499e-02 -2.059868425130844116e-01 2.035904675722122192e-01 3.919357433915138245e-02 -1.438025534152984619e-01 2.241361588239669800e-01 2.400358170270919800e-01 1.116064786911010742e-01 -2.290219813585281372e-01 2.185182645916938782e-02 -4.575246199965476990e-02 2.375418394804000854e-01 1.391120553016662598e-01 4.385572299361228943e-02 -2.127200216054916382e-01 1.341252680867910385e-02 -1.776074469089508057e-01 2.765838205814361572e-01 -1.461711227893829346e-01 -1.593832671642303467e-01 3.542451262474060059e-01 3.280426561832427979e-02 1.607111543416976929e-01 -5.740766599774360657e-02 2.895003259181976318e-01 -3.898307085037231445e-01 -1.039915606379508972e-01 -1.822697371244430542e-01 -2.861490845680236816e-01 -2.958165407180786133e-01 8.163323998451232910e-02 9.845923632383346558e-02 -7.778673619031906128e-02 3.970674872398376465e-01 -2.106398344039916992e-01 -2.354130595922470093e-01 8.843537420034408569e-02 -1.027982458472251892e-01 -1.206274405121803284e-01 2.213905900716781616e-01 6.952506490051746368e-03 1.129866242408752441e-01 -1.864988058805465698e-01 -3.912004530429840088e-01 2.827780321240425110e-02 1.723776012659072876e-01 -3.807040452957153320e-01 1.030042394995689392e-01 2.389722913503646851e-01 2.517625987529754639e-01 2.068926393985748291e-01 2.699794173240661621e-01 1.720105260610580444e-01 -2.336167842149734497e-01
-1.162082105875015259e-01 -9.313613921403884888e-02 -7.638984173536300659e-02 -3.786059468984603882e-02 -3.943378105759620667e-02 -8.665531128644943237e-02 -2.422640100121498108e-02 -2.418640106916427612e-01 -2.843975126743316650e-01 -2.690434157848358154e-01 6.048673298209905624e-03 3.701634109020233154e-01 -2.387114614248275757e-01 2.765715820714831352e-03 -1.488498151302337646e-01 2.588974870741367340e-02 1.038740053772926331e-01 -1.769800633192062378e-01 1.575445681810379028e-01 -8.314409852027893066e-02 1.825994700193405151e-01 5.609051510691642761e-02 2.220806106925010681e-02 7.797770947217941284e-02 1.285123676061630249e-01 3.455654659774154425e-04 2.086156457662582397e-01 2.711485326290130615e-01 2.135427445173263550e-01 -6.944978237152099609e-02 -2.687890231609344482e-01 2.520577013492584229e-01 7.214929163455963135e-02 -3.220420777797698975e-01 -4.526590555906295776e-02 -5.970947816967964172e-02 8.688022941350936890e-02 9.529591351747512817e-02 3.217289224267005920e-02 5.985329672694206238e-02 -3.588339984416961670e-01 -1.936153322458267212e-02 3.355877697467803955e-01 1.500677913427352905e-01 -3.958292901515960693e-01 -2.099292725324630737e-01 1.485501080751419067e-01 2.353937178850173950e-01 1.045748218894004822e-01 -9.966309182345867157e-03 -5.000824481248855591e-02 1.481237858533859253e-01 1.601672619581222534e-01 2.293778955936431885e-01 1.736944168806076050e-01 -1.021774411201477051e-01 -3.249119818210601807e-01 -1.214509606361389160e-01 -1.180819422006607056e-01 -1.859681606292724609e-01 -3.684926331043243408e-01 -4.001185297966003418e-02 3.919835388660430908e-01 -5.126398801803588867e-02 -2.099049836397171021e-01 5.446147546172142029e-02 -1.341280294582247734e-03 -3.976708278059959412e-02 1.673165410757064819e-01 -1.565483659505844116e-01 1.760557144880294800e-01 -1.145999580621719360e-01 -1.976553164422512054e-02 1.454365253448486328e-01 1.336209625005722046e-01 2.449246495962142944e-01 1.969544142484664917e-01 -2.972354926168918610e-02 1.827443242073059082e-01 -6.124598905444145203e-02
-9.724570810794830322e-02 8.011422120034694672e-03 -2.404456436634063721e-01 5.131990462541580200e-02 -6.713389605283737183e-02 8.331363648176193237e-02 3.465592488646507263e-02 3.122232854366302490e-01 -2.731593511998653412e-02 -2.041737288236618042e-01 -2.077588140964508057e-01 -1.806127876043319702e-01 -1.653693467378616333e-01 -3.058255612850189209e-01 -1.384967416524887085e-01 -6.432931870222091675e-02 -4.765491932630538940e-02 6.783369462937116623e-03 1.938786208629608154e-01 -3.880503177642822266e-01 -2.437393665313720703e-01 1.675150096416473389e-01 -1.723778694868087769e-01 -1.957190036773681641e-01 -1.687969826161861420e-02 1.499086469411849976e-01 -8.075573295354843140e-02 -2.544022500514984131e-01 -2.374229431152343750e-01 -7.096212357282638550e-02 -9.452470391988754272e-02 2.807440459728240967e-01 1.055835410952568054e-01 -1.476850211620330811e-01 1.959954500198364258e-01 -1.530090421438217163e-01 7.179131358861923218e-02 -1.632083356380462646e-01 -3.243382573127746582e-01 -2.850681915879249573e-02 3.743912577629089355e-01 -6.949063390493392944e-02 5.978683754801750183e-02 -9.357227012515068054e-03 -7.948707789182662964e-03 -4.658178985118865967e-02 -4.948125570081174374e-04 8.715192228555679321e-02 1.205326095223426819e-01 -8.037301152944564819e-02 -1.173203228972852230e-03 -1.587246954441070557e-01 -2.118732929229736328e-01 -7.114434987306594849e-02 -3.198466598987579346e-01 -1.198013201355934143e-01 -1.061185225844383240e-01 4.483399912714958191e-02 -2.449348419904708862e-01 3.913134336471557617e-02 1.081204623915255070e-03 -1.593735367059707642e-01 2.213622629642486572e-01 6.887301802635192871e-02 -1.834159940481185913e-01 -1.363807767629623413e-01 -2.173597812652587891e-01 9.653187543153762817e-02 1.401864588260650635e-01 -4.885359853506088257e-02 -8.412088267505168915e-03 9.232103079557418823e-02 -8.980569243431091309e-02 4.248570650815963745e-02 -2.449035197496414185e-01 6.758709996938705444e-02 2.197894304990768433e-01 8.078188449144363403e-02 -1.784836202859878540e-01 1.292907297611236572e-01
1.291518658399581909e-01 -2.850457131862640381e-01 -1.719161868095397949e-02 -5.877556279301643372e-02 -2.583712041378021240e-01 1.301814466714859009e-01 -1.204561814665794373e-01 1.690983325242996216e-01 2.766159176826477051e-01 -1.346098035573959351e-01 -1.700141280889511108e-01 -2.160159796476364136e-01 -4.766786843538284302e-02 -2.151539325714111328e-01 1.537404209375381470e-01 -3.405257463455200195e-01 7.317711412906646729e-02 3.592293336987495422e-02 -1.914825290441513062e-01 -2.015846073627471924e-01 6.752733886241912842e-02 6.894786655902862549e-02 2.226954251527786255e-01 3.235767185688018799e-01 3.911819681525230408e-02 -4.637102782726287842e-02 -1.625111326575279236e-02 2.642066180706024170e-01 7.476966083049774170e-02 1.603456735610961914e-01 2.950344085693359375e-01 -2.416510134935379028e-01 8.007556200027465820e-02 -1.967301219701766968e-01 2.445625811815261841e-01 -1.044116434059105814e-04 1.288819909095764160e-01 1.409551203250885010e-01 2.180434763431549072e-01 1.127270236611366272e-01 -5.597124248743057251e-02 1.610386669635772705e-01 2.759178578853607178e-01 3.585485219955444336e-01 1.137215420603752136e-01 -8.961611241102218628e-02 -4.467898234724998474e-02 2.034942209720611572e-01 1.013097688555717468e-01 7.990658283233642578e-02 6.375313550233840942e-02 2.083289995789527893e-02 1.432402431964874268e-01 -5.766922235488891602e-02 -2.363336384296417236e-01 -1.735091768205165863e-02 7.681899517774581909e-02 1.485326141119003296e-01 2.762567996978759766e-02 -3.922114148736000061e-02 1.929757446050643921e-01 1.788330525159835815e-01 1.426475048065185547e-01 -2.690954506397247314e-01 2.002073638141155243e-02 1.402870863676071167e-01 -8.750584721565246582e-02 -1.669229380786418915e-02 -1.382755953818559647e-02 -2.324734181165695190e-01 2.514434158802032471e-01 -1.231273636221885681e-01 -2.337240427732467651e-01 4.686867818236351013e-02 2.520853281021118164e-01 -8.442042768001556396e-02 3.694990575313568115e-01 3.151795268058776855e-01 -3.205827176570892334e-01 -1.345830112695693970e-01
7.445748150348663330e-02 1.031097546219825745e-01 -2.957177460193634033e-01 7.242260873317718506e-02 2.990531623363494873e-01 2.142026424407958984e-01 4.632241278886795044e-02 -2.827145159244537354e-01 -2.269907668232917786e-02 -1.048268675804138184e-01 -1.893497258424758911e-02 -2.289593964815139771e-01 2.539270222187042236e-01 -7.192587107419967651e-02 2.608089148998260498e-01 2.120055407285690308e-01 1.053104400634765625e-01 -1.484348326921463013e-01 -2.446825802326202393e-01 -8.617921918630599976e-02 -1.795654371380805969e-02 1.193097457289695740e-01 -1.839234083890914917e-01 -6.357949227094650269e-02 -1.889642179012298584e-01 9.895120561122894287e-02 -1.160419806838035583e-01 4.301780462265014648e-02 -7.307239621877670288e-02 -2.349762022495269775e-01 2.609427645802497864e-02 1.480035204440355301e-02 -1.257442831993103027e-01 7.893657684326171875e-02 -2.080048173666000366e-01 -7.028170675039291382e-02 1.335854977369308472e-01 3.196566402912139893e-01 1.638114899396896362e-01 1.014251932501792908e-01 -2.016596347093582153e-01 3.188585340976715088e-01 2.455773204565048218e-02 -2.052681297063827515e-01 3.175378441810607910e-01 -3.832238912582397461e-02 -2.350228466093540192e-02 -6.182430312037467957e-02 6.303768604993820190e-02 2.766820192337036133e-01 -2.123384922742843628e-01 -1.745701730251312256e-01 -1.444163452833890915e-02 -2.331042140722274780e-01 -8.544447273015975952e-02 1.278403252363204956e-01 7.072838395833969116e-02 2.537537515163421631e-01 9.318618476390838623e-02 -2.343854755163192749e-01 -1.184981018304824829e-01 -3.326742053031921387e-01 -1.145704649388790131e-02 -8.074446767568588257e-02 1.415218561887741089e-01 2.438065856695175171e-01 -6.690376251935958862e-02 2.122144214808940887e-02 3.793804347515106201e-01 -1.406248658895492554e-01 9.399429708719253540e-02 3.783128559589385986e-01 -1.073327437043190002e-01 1.952950805425643921e-01 3.262613434344530106e-03 -3.577079474925994873e-01 -2.810847759246826172e-01 2.332821115851402283e-02 1.605762839317321777e-01 -2.106270641088485718e-01
1.089037433266639709e-01 -2.122051566839218140e-01 -3.325303494930267334e-01 1.721299588680267334e-01 -2.158710807561874390e-01 -5.016891285777091980e-02 -1.004688292741775513e-01 1.492863595485687256e-01 -2.503716647624969482e-01 3.154184222221374512e-01 7.311090826988220215e-02 2.300524711608886719e-01 -5.605184659361839294e-02 1.574265211820602417e-01 -2.050727158784866333e-01 2.171644009649753571e-02 -1.243527904152870178e-01 4.403943940997123718e-02 8.475583046674728394e-02 -7.721031457185745239e-02 -3.707573562860488892e-02 1.379867047071456909e-01 4.485246539115905762e-02 2.338345348834991455e-01 4.940014798194169998e-03 -5.181789025664329529e-02 3.719968199729919434e-01 -2.222072333097457886e-02 1.648519188165664673e-01 5.222186073660850525e-02 2.299102991819381714e-01 2.347548753023147583e-01 2.965449988842010498e-01 3.666863143444061279e-01 -8.096461743116378784e-02 4.192873090505599976e-02 -5.077077075839042664e-02 1.546977162361145020e-01 -2.562344968318939209e-01 3.201139569282531738e-01 -1.870926618576049805e-01 -2.017866373062133789e-01 2.635934017598628998e-02 -1.127445623278617859e-01 -1.400183588266372681e-01 1.892335712909698486e-01 1.973791420459747314e-01 5.025104037486016750e-04 2.101144343614578247e-01 3.896604105830192566e-02 1.099943835288286209e-02 1.778081408701837063e-03 1.625927537679672241e-01 -3.016268908977508545e-01 -2.608595532365143299e-04 -2.852741256356239319e-02 1.281987875699996948e-01 5.274115875363349915e-02 1.195014715194702148e-01 2.166114598512649536e-01 3.114794753491878510e-02 -1.063439399003982544e-01 1.616385728120803833e-01 -5.139261484146118164e-02 1.119130402803421021e-01 -9.866788238286972046e-02 -2.734452486038208008e-02 2.650443017482757568e-01 -6.671259552240371704e-02 -1.785536706447601318e-01 -1.171195432543754578e-01 3.179335892200469971e-01 2.428337186574935913e-01 -1.177018806338310242e-01 4.471177980303764343e-02 2.730510234832763672e-01 -1.822296828031539917e-01 8.051640540361404419e-02 6.609886139631271362e-02 -7.020001113414764404e-02
2.901230752468109131e-01 2.040841244161128998e-02 -3.648218810558319092e-01 1.443388313055038452e-01 -1.663356833159923553e-02 1.168840155005455017e-01 -3.335350425913929939e-03 -3.120833933353424072e-01 8.388700336217880249e-02 4.183794930577278137e-02 1.698441952466964722e-01 2.615305781364440918e-01 -9.798420965671539307e-02 9.243442863225936890e-02 1.601968258619308472e-01 1.165820881724357605e-01 -2.815110385417938232e-01 -9.480274468660354614e-02 6.093313451856374741e-03 -6.350597739219665527e-02 1.364190727472305298e-01 -3.738226294517517090e-01 -2.835667133331298828e-01 -4.412409290671348572e-02 3.258659839630126953e-01 -7.158414274454116821e-02 -1.835495531558990479e-01 -1.523400098085403442e-01 -2.496891468763351440e-01 -3.286730051040649414e-01 -2.459776401519775391e-01 7.350149005651473999e-02 -1.484735496342182159e-02 3.155539557337760925e-02 -5.712068825960159302e-02 -6.016459688544273376e-02 -9.290269017219543457e-02 -3.297376334667205811e-01 -7.575956638902425766e-03 -2.649489343166351318e-01 7.638026773929595947e-02 2.641282416880130768e-02 -6.988269090652465820e-02 -2.751353085041046143e-01 1.468514651060104370e-01 -6.663305312395095825e-02 1.486334651708602905e-01 5.384025722742080688e-02 -1.198819801211357117e-01 4.955754615366458893e-03 3.243317827582359314e-02 1.736611574888229370e-01 -2.032040357589721680e-01 2.730303704738616943e-01 -8.969517797231674194e-02 7.928442955017089844e-02 5.265505984425544739e-02 -7.475966960191726685e-02 -3.512604236602783203e-01 7.516292482614517212e-02 2.542396485805511475e-01 5.982543155550956726e-02 3.795469701290130615e-01 -2.564772665500640869e-01 1.748967468738555908e-01 2.970826923847198486e-01 2.103640884160995483e-01 -1.360188871622085571e-01 -1.373042017221450806e-01 8.754474110901355743e-03 3.605044782161712646e-01 -5.288091301918029785e-02 3.320682644844055176e-01 8.092120289802551270e-02 1.010850295424461365e-01 -4.103405401110649109e-02 -7.531938701868057251e-02 1.104149315506219864e-02 3.417671322822570801e-01 -3.108861744403839111e-01
-7.467447966337203979e-02 1.376721560955047607e-01 -2.848703563213348389e-01 8.000681549310684204e-02 9.699481725692749023e-02 2.749319076538085938e-01 -2.428191006183624268e-01 1.145985275506973267e-01 -2.639568150043487549e-01 6.732738763093948364e-02 -3.288670256733894348e-02 -3.666942417621612549e-01 -1.422859877347946167e-01 4.449785873293876648e-02 5.967522412538528442e-02 3.439372181892395020e-01 2.096588909626007080e-02 -1.246282234787940979e-01 2.466048486530780792e-02 -8.619644492864608765e-02 1.209613215178251266e-02 2.940589487552642822e-01 2.375340461730957031e-02 -3.146174550056457520e-02 -3.221513330936431885e-02 -5.859980732202529907e-02 1.609451770782470703e-01 6.641133222728967667e-03 2.855314612388610840e-01 -4.734987393021583557e-02 -5.846964940428733826e-02 1.085523292422294617e-01 1.017070338129997253e-01 3.355790078639984131e-01 2.000603824853897095e-02 1.712099760770797729e-01 -2.233699411153793335e-01 -9.212383627891540527e-02 9.476026147603988647e-02 -5.999026820063591003e-02 7.052689790725708008e-02 -3.627158105373382568e-01 6.185163185000419617e-02 -6.391969323158264160e-02 1.476740241050720215e-01 2.752141654491424561e-01 -6.756781786680221558e-02 -2.098679393529891968e-01 1.899829655885696411e-01 2.339010238647460938e-01 -2.539756000041961670e-01 3.805843591690063477e-01 2.734990119934082031e-01 -3.189671039581298828e-02 -5.850793048739433289e-02 1.128534041345119476e-02 6.272649019956588745e-02 2.455786466598510742e-01 -8.925772458314895630e-02 2.525822632014751434e-02 -3.311493098735809326e-01 2.663137018680572510e-02 3.066555559635162354e-01 3.803255558013916016e-01 1.140247955918312073e-01 -1.706590056419372559e-01 -3.336171805858612061e-01 -2.423497736454010010e-01 -1.017285212874412537e-01 2.668199539184570312e-01 -3.260014951229095459e-01 1.306617446243762970e-02 -5.347830802202224731e-02 -3.597529977560043335e-02 -1.674974896013736725e-02 2.723343111574649811e-02 -3.462568223476409912e-01 3.810302019119262695e-01 -3.497084602713584900e-02 -7.269851863384246826e-02
1.568482220172882080e-01 1.715441942214965820e-01 -1.142576113343238831e-01 -3.165879845619201660e-02 1.569977849721908569e-01 1.826254576444625854e-01 9.480136632919311523e-02 2.219694107770919800e-02 2.885739505290985107e-01 -1.255561411380767822e-02 2.755581736564636230e-01 2.446371167898178101e-01 -1.461359113454818726e-01 1.854839175939559937e-01 2.055882215499877930e-01 3.775354325771331787e-01 1.048563122749328613e-01 -6.696583330631256104e-02 1.921303421258926392e-01 -3.421341776847839355e-01 2.866228520870208740e-01 8.923394978046417236e-02 1.551851183176040649e-01 -6.527232378721237183e-02 1.168436650186777115e-02 2.611053362488746643e-02 3.414335846900939941e-01 2.958001792430877686e-01 2.892457246780395508e-01 -1.492389887571334839e-01 2.612683475017547607e-01 -2.236332148313522339e-01 -1.951826661825180054e-01 2.750291526317596436e-01 -9.765855967998504639e-03 1.269416213035583496e-01 9.356316179037094116e-02 1.094680801033973694e-01 -3.137604100629687309e-03 8.495976775884628296e-02 -1.306702196598052979e-01 3.459805846214294434e-01 4.250769317150115967e-02 -1.069390550255775452e-01 -1.816780865192413330e-01 -1.165097579360008240e-01 2.961629536002874374e-03 8.116739243268966675e-02 1.145393401384353638e-01 2.660357160493731499e-03 1.001943498849868774e-01 3.675184249877929688e-01 -4.955497756600379944e-02 2.430275529623031616e-01 2.039251327514648438e-01 -5.804123356938362122e-03 -1.559118479490280151e-01 -9.062677621841430664e-02 -2.718026936054229736e-01 2.301231585443019867e-02 -1.902941763401031494e-01 2.330828160047531128e-01 -1.906851083040237427e-01 8.871241658926010132e-02 -5.512706190347671509e-02 -2.259887903928756714e-01 2.824521064758300781e-01 1.646163016557693481e-01 -3.433896005153656006e-01 1.635874360799789429e-01 4.012004658579826355e-02 4.613086581230163574e-02 5.664722993969917297e-03 2.994971871376037598e-01 -6.488645821809768677e-02 3.285219073295593262e-01 -1.736355125904083252e-01 -2.324219793081283569e-01 8.690362423658370972e-02 2.642349898815155029e-02
-2.217225283384323120e-01 4.806297831237316132e-03 1.425687074661254883e-01 1.179116498678922653e-02 1.081754453480243683e-02 -1.166978403925895691e-01 2.449900284409523010e-02 -1.735785007476806641e-01 1.024187803268432617e-01 -8.834824711084365845e-02 1.365907043218612671e-01 2.036528587341308594e-01 2.683155611157417297e-02 -8.644261211156845093e-02 -1.213544886559247971e-02 -1.848440468311309814e-01 2.421723119914531708e-02 -3.949289321899414062e-01 6.431214511394500732e-03 2.530166804790496826e-01 -3.625435829162597656e-01 2.000417262315750122e-01 -1.275487393140792847e-01 -1.492256671190261841e-02 -3.854211866855621338e-01 -2.846485376358032227e-01 -1.589768975973129272e-01 -1.768915653228759766e-01 -8.492215722799301147e-02 -1.993681639432907104e-01 1.525884717702865601e-01 -8.627005666494369507e-02 7.231714576482772827e-02 -1.338764131069183350e-01 2.415503561496734619e-01 6.044108420610427856e-02 1.655218601226806641e-01 2.333375662565231323e-01 1.966922283172607422e-01 -1.790455132722854614e-01 1.401272267103195190e-01 -2.545082271099090576e-01 -7.366291712969541550e-03 1.513299196958541870e-01 -1.770056188106536865e-01 -1.259401291608810425e-01 2.033719867467880249e-01 7.777236402034759521e-02 3.078707158565521240e-01 3.332485258579254150e-01 -1.500121206045150757e-01 1.085924878716468811e-01 -2.960354387760162354e-01 3.364572301506996155e-03 5.494098737835884094e-02 -7.546868175268173218e-02 -6.722871959209442139e-02 -1.715165935456752777e-02 9.203431755304336548e-02 -9.881373494863510132e-02 2.918547689914703369e-01 -8.561048656702041626e-02 3.901989161968231201e-01 -1.935265958309173584e-02 7.644934207201004028e-02 -3.086828887462615967e-01 2.035661041736602783e-01 -2.992469370365142822e-01 7.215861231088638306e-02 -1.365780830383300781e-01 -3.263771235942840576e-01 -8.057978004217147827e-02 -2.418225072324275970e-02 -7.150081545114517212e-02 2.174726724624633789e-01 -2.577350139617919922e-01 -9.244074672460556030e-02 -1.323097348213195801e-01 -1.288608014583587646e-01 1.520583219826221466e-02
8.443170040845870972e-02 -3.468674048781394958e-02 -1.122686490416526794e-01 -2.933360636234283447e-01 -4.811378940939903259e-02 -1.873927414417266846e-01 -2.634184062480926514e-01 -5.548665672540664673e-02 2.412832230329513550e-01 1.257147490978240967e-01 -3.241042792797088623e-01 -2.088533639907836914e-01 3.761820495128631592e-01 1.745316237211227417e-01 -3.734081611037254333e-02 2.448581308126449585e-01 -3.737234473228454590e-01 7.049681991338729858e-02 1.303653866052627563e-01 6.017827615141868591e-02 -4.209392890334129333e-02 -1.433878391981124878e-01 -2.327784299850463867e-01 1.222026124596595764e-01 1.366610731929540634e-02 6.144800782203674316e-02 -2.074928581714630127e-01 -2.268221378326416016e-01 1.434489637613296509e-01 -1.656052768230438232e-01 7.031039148569107056e-02 -7.251649349927902222e-02 -9.602642804384231567e-02 -1.032744199037551880e-01 2.054364681243896484e-01 1.643121242523193359e-01 -1.160821318626403809e-01 1.531530022621154785e-01 1.603758037090301514e-01 2.134930342435836792e-01 -6.132129579782485962e-02 1.180900856852531433e-01 1.285099834203720093e-01 9.276005625724792480e-02 -9.080692380666732788e-02 -7.673677802085876465e-02 -6.290747970342636108e-02 -2.150936871767044067e-01 -2.167324721813201904e-02 2.714181877672672272e-02 -1.164992600679397583e-01 -2.020350992679595947e-01 -2.434784471988677979e-01 -1.342914849519729614e-01 2.088741771876811981e-02 -1.313216686248779297e-01 3.260242519900202751e-03 -8.379109203815460205e-02 1.630075424909591675e-01 -1.994970589876174927e-01 -2.586948573589324951e-01 2.303804904222488403e-01 2.848827242851257324e-01 1.451064497232437134e-01 2.213875949382781982e-02 1.990769430994987488e-02 7.293801754713058472e-02 1.389504224061965942e-01 2.647875575348734856e-03 1.303004920482635498e-01 1.581711918115615845e-01 1.786583960056304932e-01 4.177614673972129822e-02 -6.024017557501792908e-02 4.337922483682632446e-02 3.519068658351898193e-01 1.878906600177288055e-02 -1.237750798463821411e-01 6.830336153507232666e-02 1.129243522882461548e-01
3.414065241813659668e-01 1.508871167898178101e-01 2.599036991596221924e-01 4.058994725346565247e-02 -1.157818362116813660e-01 -1.499282568693161011e-01 -1.533094700425863266e-02 8.186043053865432739e-02 3.058596514165401459e-02 -2.858925759792327881e-01 -1.683698445558547974e-01 3.528031706809997559e-02 9.234183281660079956e-02 5.206715688109397888e-02 -2.894043624401092529e-01 -8.325972408056259155e-02 -2.000766992568969727e-01 -1.954024881124496460e-01 -1.818104237318038940e-01 -7.623248547315597534e-02 -1.596362590789794922e-01 2.480725497007369995e-01 9.316994249820709229e-02 3.579765260219573975e-01 1.414282768964767456e-01 -7.143761217594146729e-02 5.445628985762596130e-02 -2.257689274847507477e-02 1.919575184583663940e-01 -1.789792329072952271e-01 -1.232152506709098816e-01 1.928202956914901733e-01 -1.299244612455368042e-01 -9.005247801542282104e-02 2.189999669790267944e-01 6.888263672590255737e-02 1.013935580849647522e-01 -1.053960323333740234e-01 2.143206447362899780e-01 2.369165793061256409e-02 6.407099217176437378e-02 -2.957031689584255219e-02 -1.657217592000961304e-01 1.501924395561218262e-01 1.873418688774108887e-01 -1.568166464567184448e-01 9.278176724910736084e-02 -3.899579346179962158e-01 7.350520044565200806e-02 2.367230206727981567e-01 6.775212287902832031e-02 7.445272058248519897e-02 1.813677996397018433e-01 -2.086963653564453125e-01 -7.320992648601531982e-03 -1.103371605277061462e-01 7.135894894599914551e-02 -3.017298579216003418e-01 6.197844073176383972e-02 1.050222739577293396e-01 1.502779573202133179e-01 1.332418899983167648e-02 -9.521301835775375366e-02 5.281566455960273743e-02 -6.495054811239242554e-02 3.246801793575286865e-01 5.205391719937324524e-02 1.647743731737136841e-01 -1.853547990322113037e-01 -1.394141465425491333e-01 -7.420966774225234985e-02 2.273797243833541870e-01 -2.400849163532257080e-01 -2.678536474704742432e-01 -1.767365448176860809e-02 2.739125490188598633e-02 1.042509824037551880e-01 -2.981707155704498291e-01 2.386139184236526489e-01 1.049192175269126892e-01
-6.013558059930801392e-02 2.603875696659088135e-01 -1.924254233017563820e-03 -2.977326326072216034e-02 -2.251840084791183472e-01 -3.170687556266784668e-01 -3.458999693393707275e-01 -1.150998380035161972e-02 -7.734563201665878296e-02 3.224652111530303955e-01 1.787009835243225098e-01 -2.984171807765960693e-01 -4.470697417855262756e-02 1.181573197245597839e-01 -1.637474894523620605e-01 1.617024987936019897e-01 3.900272548198699951e-01 -1.959433257579803467e-01 8.649970591068267822e-02 1.500098556280136108e-01 -3.690668046474456787e-01 -3.512474894523620605e-01 1.379514187574386597e-01 7.108403742313385010e-02 -1.306995749473571777e-01 1.366878300905227661e-01 2.830979526042938232e-01 -2.002336084842681885e-01 1.649232357740402222e-01 7.952845096588134766e-02 -2.589077353477478027e-01 1.818958073854446411e-01 -2.223074883222579956e-01 -8.691801130771636963e-02 -3.482498526573181152e-01 -7.500582188367843628e-02 -4.019039869308471680e-02 -7.705552875995635986e-02 -9.993369877338409424e-02 -2.303366959095001221e-01 -2.036671191453933716e-01 1.962736696004867554e-01 -2.522353231906890869e-01 7.957588136196136475e-02 1.292623877525329590e-01 3.325290232896804810e-02 3.140665292739868164e-01 -4.457189142704010010e-02 -4.632082581520080566e-02 -2.932815253734588623e-01 -2.785544097423553467e-01 -7.045112550258636475e-02 -1.579121351242065430e-01 8.985810726881027222e-02 1.906269192695617676e-01 1.536391675472259521e-01 -3.935331106185913086e-02 1.069223508238792419e-01 3.381998976692557335e-04 -2.976545989513397217e-01 -8.939151465892791748e-02 2.767311632633209229e-01 1.758229881525039673e-01 3.083251714706420898e-01 7.879484444856643677e-02 5.388114973902702332e-02 5.257615074515342712e-02 -9.877588599920272827e-02 -7.193838804960250854e-02 2.449441701173782349e-01 -6.863168627023696899e-02 -2.029691189527511597e-01 2.955281138420104980e-01 9.673987329006195068e-02 -1.793377846479415894e-01 2.021195888519287109e-01 -1.624547094106674194e-01 5.264519527554512024e-02 -1.369142439216375351e-02 1.323013287037611008e-02
-8.235130459070205688e-02 1.823698431253433228e-01 -7.731778174638748169e-02 3.133864998817443848e-01 3.122294507920742035e-02 1.269989162683486938e-01 2.192974388599395752e-01 2.072678357362747192e-01 -7.305110245943069458e-02 1.069093346595764160e-01 1.078102812170982361e-01 -1.362629979848861694e-01 1.590012013912200928e-01 1.157159805297851562e-01 -5.634779483079910278e-02 8.910909295082092285e-02 2.393669933080673218e-01 1.351141780614852905e-01 2.971604764461517334e-01 -5.444093141704797745e-03 -2.688686847686767578e-01 -1.159625872969627380e-01 6.006420776247978210e-02 -1.034958884119987488e-01 1.691857725381851196e-01 2.871243059635162354e-01 -1.931061148643493652e-01 -1.075644493103027344e-01 -1.350829601287841797e-01 -2.626144886016845703e-01 -3.308179229497909546e-02 2.821858823299407959e-01 2.010519802570343018e-01 6.422943621873855591e-02 -3.079173862934112549e-01 -2.251132205128669739e-02 -7.111798226833343506e-02 4.222461953759193420e-02 1.045707017183303833e-01 -1.253049522638320923e-01 -1.914105266332626343e-01 1.608554832637310028e-02 1.913192719221115112e-01 -1.252302061766386032e-02 7.122319191694259644e-03 2.460545599460601807e-01 -3.322754427790641785e-02 -2.075459063053131104e-01 1.088260561227798462e-01 -4.910564050078392029e-02 -2.134783118963241577e-01 -2.322714030742645264e-02 6.138755753636360168e-02 9.073249995708465576e-02 -2.101285755634307861e-01 -3.714606761932373047e-01 8.972969651222229004e-02 -1.808468699455261230e-01 7.403901312500238419e-03 3.056418895721435547e-01 -1.614223569631576538e-01 6.365083158016204834e-02 2.352102100849151611e-01 -1.987529695034027100e-01 1.573059111833572388e-01 6.148756667971611023e-02 -1.919889301061630249e-01 2.647530734539031982e-01 8.306901901960372925e-02 1.198367401957511902e-01 3.184982836246490479e-01 -2.951537370681762695e-01 1.844863593578338623e-01 2.390116751194000244e-01 2.121517509222030640e-01 7.768971379846334457e-03 1.032069697976112366e-01 -2.633815817534923553e-02 -4.022417962551116943e-02 1.778541654348373413e-01
6.968770921230316162e-02 -2.293200939893722534e-01 3.629364073276519775e-01 1.630039662122726440e-01 1.309175342321395874e-01 1.919627189636230469e-01 4.629314318299293518e-02 -2.644402980804443359e-01 1.539546400308609009e-01 -1.056749597191810608e-01 2.010107971727848053e-02 -1.652424484491348267e-01 -1.200618073344230652e-01 3.810484111309051514e-01 -9.680243581533432007e-02 -3.520827889442443848e-01 -7.040237635374069214e-02 -2.536002993583679199e-01 -9.065406396985054016e-03 5.819781497120857239e-02 2.693623900413513184e-01 -1.448870897293090820e-01 1.211184263229370117e-01 2.640968263149261475e-01 -2.429395169019699097e-01 -1.537241190671920776e-01 1.860334426164627075e-01 2.342416904866695404e-02 5.006961151957511902e-02 -1.413454562425613403e-01 1.098650973290205002e-02 -1.242252364754676819e-01 -1.551192998886108398e-01 2.839447259902954102e-01 -5.723747611045837402e-02 -2.469779998064041138e-01 -3.255975618958473206e-02 1.706193387508392334e-01 -2.595585584640502930e-02 9.300449490547180176e-02 -3.715479373931884766e-01 8.344995230436325073e-02 -3.137528523802757263e-02 -2.431176416575908661e-02 2.027792930603027344e-01 8.655029535293579102e-02 2.383231557905673981e-02 1.869250386953353882e-01 1.272644251585006714e-01 1.805573552846908569e-01 1.518902033567428589e-01 2.952669560909271240e-01 -3.546034395694732666e-01 1.215645670890808105e-01 -2.186851762235164642e-02 -1.422837972640991211e-01 -1.133178398013114929e-01 -6.360701471567153931e-02 2.820885181427001953e-01 5.921767279505729675e-02 3.749540746212005615e-01 6.456955522298812866e-02 3.298970684409141541e-02 9.588652849197387695e-02 -2.683131694793701172e-01 1.292326897382736206e-01 2.082608789205551147e-01 2.627516165375709534e-02 -3.707064092159271240e-01 7.491049915552139282e-02 -1.916528195142745972e-01 1.048683673143386841e-01 -7.872051000595092773e-02 -2.739895284175872803e-01 -1.440472453832626343e-01 2.280073612928390503e-01 4.219275340437889099e-02 2.769142948091030121e-02 2.251199334859848022e-01 2.705684900283813477e-01
-1.590927690267562866e-01 -3.106029033660888672e-01 -1.422265022993087769e-01 -6.379755586385726929e-02 -2.984228134155273438e-01 -2.654405534267425537e-01 -1.973838210105895996e-01 -1.651019901037216187e-01 -1.205237656831741333e-01 1.670329719781875610e-01 1.345035135746002197e-01 2.644290626049041748e-01 -1.352400332689285278e-02 -3.431402444839477539e-01 -1.532149910926818848e-01 -1.579969823360443115e-01 -2.971301674842834473e-01 1.960591524839401245e-01 -3.500494360923767090e-02 2.621440589427947998e-01 -9.477954357862472534e-02 -3.545437753200531006e-02 1.038365624845027924e-02 -4.422489088028669357e-03 -2.902683913707733154e-01 3.819163739681243896e-01 2.173857986927032471e-01 2.905867062509059906e-02 -7.073242217302322388e-02 2.335847169160842896e-01 -9.828862547874450684e-02 -2.244213670492172241e-01 -1.048189625144004822e-01 3.210618793964385986e-01 -7.525507360696792603e-02 -3.326746225357055664e-01 -2.024418562650680542e-01 8.992272615432739258e-02 -1.449779719114303589e-01 1.083832010626792908e-01 -5.063707381486892700e-02 3.464168310165405273e-02 -2.564438283443450928e-01 4.296791180968284607e-02 -2.031555622816085815e-01 -1.030921116471290588e-01 -1.013218164443969727e-01 -1.047694310545921326e-01 1.448217779397964478e-01 -3.713218867778778076e-02 -6.345772743225097656e-02 3.255705162882804871e-02 -6.277558207511901855e-02 -3.666388690471649170e-01 3.926042616367340088e-01 2.512195110321044922e-01 2.512088716030120850e-01 6.916854530572891235e-02 -1.162492781877517700e-01 -1.476109772920608521e-01 3.101852349936962128e-02 3.059638142585754395e-01 5.648670252412557602e-03 -3.099548164755105972e-03 2.104477137327194214e-01 -2.465814799070358276e-01 -1.890748888254165649e-01 -9.820102155208587646e-02 -1.604075878858566284e-01 1.905537396669387817e-01 1.101225242018699646e-01 -8.101410418748855591e-02 7.847829908132553101e-02 4.802615940570831299e-02 -1.888441592454910278e-01 -1.184548288583755493e-01 1.742471158504486084e-01 -3.951281011104583740e-01 -2.702822387218475342e-01 1.252515017986297607e-01
-3.176153823733329773e-02 2.562670707702636719e-01 2.475424259901046753e-01 1.812550723552703857e-01 -3.071661591529846191e-01 4.045192524790763855e-02 -3.111666142940521240e-01 -3.289849460124969482e-01 -1.517107933759689331e-01 -3.110224008560180664e-01 -3.089684247970581055e-01 3.612641710788011551e-03 2.574026286602020264e-01 -3.891769349575042725e-01 2.119470387697219849e-01 1.173142716288566589e-01 1.847718358039855957e-01 3.686448186635971069e-02 -7.290868461132049561e-02 2.141888886690139771e-01 -2.676058709621429443e-01 -4.774431511759757996e-02 2.982899844646453857e-01 3.256007134914398193e-01 -1.806428283452987671e-01 1.155823618173599243e-01 -1.466498374938964844e-01 -6.163280829787254333e-02 2.448195591568946838e-02 -2.225472778081893921e-01 -2.678204476833343506e-01 -2.558792233467102051e-01 1.261747330427169800e-01 -1.784109137952327728e-02 2.581079900264739990e-01 1.187207028269767761e-01 9.862399101257324219e-02 -1.940534710884094238e-01 -1.080207452178001404e-01 -3.761602938175201416e-02 -1.430169343948364258e-01 -1.253002136945724487e-01 2.269321978092193604e-01 7.988988608121871948e-02 -2.101030647754669189e-01 9.658181667327880859e-02 3.757708072662353516e-01 -3.313470482826232910e-01 9.089042246341705322e-02 -1.453329622745513916e-01 -1.715829670429229736e-01 1.459013223648071289e-01 -5.708378553390502930e-02 -1.298238933086395264e-01 4.724052548408508301e-02 4.786861687898635864e-02 -4.098646342754364014e-02 8.250846713781356812e-02 -3.536447286605834961e-01 8.318521827459335327e-02 -3.444483876228332520e-01 1.308628469705581665e-01 -3.021871149539947510e-01 -2.726562023162841797e-01 -1.878763437271118164e-01 -6.900712102651596069e-02 2.584973536431789398e-02 -2.720287740230560303e-01 -1.759743094444274902e-01 1.254727244377136230e-01 1.759148389101028442e-01 1.241117268800735474e-01 1.576738804578781128e-01 1.438475102186203003e-01 6.758221983909606934e-02 1.779098957777023315e-01 -9.304589778184890747e-02 -2.352131456136703491e-01 1.698848307132720947e-01 -2.304187566041946411e-01
1.903418153524398804e-01 -6.899303942918777466e-02 -1.267168074846267700e-01 2.581990323960781097e-02 5.607321858406066895e-03 3.907211124897003174e-02 2.387184947729110718e-01 7.941243797540664673e-02 -2.984175086021423340e-01 2.345218211412429810e-01 -8.685352653264999390e-02 3.982089983765035868e-04 -2.307049036026000977e-01 7.189866900444030762e-02 3.402144908905029297e-01 -1.978935301303863525e-02 1.549128592014312744e-01 2.954222857952117920e-01 -4.365249350666999817e-02 2.153504639863967896e-01 5.835239961743354797e-02 -2.578818500041961670e-01 2.383189089596271515e-02 1.235625669360160828e-01 -1.426647752523422241e-01 -3.374115526676177979e-01 -2.171477824449539185e-01 -7.089586555957794189e-02 5.856075882911682129e-02 8.692135661840438843e-02 2.478251010179519653e-01 -1.260495930910110474e-01 -1.287888502702116966e-03 5.210046842694282532e-02 5.142498295754194260e-03 -1.595928966999053955e-01 1.968323141336441040e-01 -2.727542221546173096e-01 -8.466266840696334839e-02 -1.622007936239242554e-01 6.717807799577713013e-02 6.019485741853713989e-02 5.820504575967788696e-02 -7.238277047872543335e-02 -4.412887990474700928e-02 -7.832761108875274658e-02 -1.705774106085300446e-02 3.106067143380641937e-02 -4.371850192546844482e-02 -2.696940600872039795e-01 -1.231915354728698730e-01 3.080434910953044891e-02 -1.809934973716735840e-01 1.222834140062332153e-01 -3.377191722393035889e-01 -1.657086461782455444e-01 9.172915481030941010e-03 5.589690431952476501e-02 1.911926865577697754e-01 -1.607749313116073608e-01 -3.076054751873016357e-01 1.797157227993011475e-01 2.773338854312896729e-01 1.969472318887710571e-01 -1.697150766849517822e-01 -2.241845242679119110e-02 -9.035130031406879425e-03 8.946135640144348145e-02 9.009356051683425903e-02 3.987066820263862610e-02 -3.247510492801666260e-01 -1.056627091020345688e-02 -5.593314766883850098e-02 1.074953824281692505e-01 -1.080650240182876587e-01 1.595974713563919067e-01 -3.060155808925628662e-01 -2.449921332299709320e-02 3.097579777240753174e-01 6.051585078239440918e-02
-1.105638369917869568e-01 1.275826543569564819e-01 3.378238156437873840e-02 2.215327322483062744e-01 -1.523747481405735016e-02 1.204762607812881470e-01 -2.907721698284149170e-01 2.676090896129608154e-01 1.185661926865577698e-01 1.328775733709335327e-01 -2.244529277086257935e-01 1.748066842555999756e-01 -2.433574199676513672e-01 -2.344247847795486450e-01 9.743294678628444672e-03 -2.434691488742828369e-01 -7.824019342660903931e-02 9.648903459310531616e-02 2.685056626796722412e-01 -2.370898574590682983e-01 1.725175976753234863e-01 2.823987416923046112e-02 2.372042685747146606e-01 1.467384165152907372e-03 -2.323295734822750092e-02 1.394556611776351929e-01 -7.503184676170349121e-02 -6.125989556312561035e-02 -3.473722934722900391e-01 -3.919230774044990540e-02 -1.142108365893363953e-01 6.239196658134460449e-02 2.894979417324066162e-01 2.511661052703857422e-01 2.280648201704025269e-01 7.632099837064743042e-02 6.609386950731277466e-02 -9.918481111526489258e-02 4.262886475771665573e-03 8.526781201362609863e-02 6.582283228635787964e-02 1.178148984909057617e-01 -5.603502318263053894e-02 -3.382505849003791809e-02 -1.776280254125595093e-01 -4.631745442748069763e-02 -1.251979321241378784e-01 -1.188313141465187073e-01 -6.335780024528503418e-02 -1.110825315117835999e-01 1.113227382302284241e-01 -2.500422298908233643e-01 3.454853221774101257e-02 8.128201216459274292e-02 -1.046446561813354492e-01 -2.941315472126007080e-01 1.349334325641393661e-02 -1.036071330308914185e-01 -3.365661799907684326e-01 -1.631749272346496582e-01 3.466054424643516541e-02 -2.318494766950607300e-01 1.248898431658744812e-01 -2.249959558248519897e-01 3.362555205821990967e-01 4.482227191329002380e-02 -2.748926877975463867e-01 -1.319144070148468018e-01 -1.067773327231407166e-01 3.572103381156921387e-02 -1.045605689287185669e-01 -1.504962593317031860e-01 -7.701634615659713745e-02 -1.171645428985357285e-02 1.106534376740455627e-01 -1.257220506668090820e-01 -2.039261907339096069e-01 1.059242757037281990e-03 9.729228913784027100e-02 -1.194812473841011524e-03
-5.010129883885383606e-02 -1.602284759283065796e-01 -8.130897581577301025e-02 2.646563947200775146e-01 2.845855616033077240e-02 3.541217371821403503e-02 -2.270694971084594727e-01 3.028146922588348389e-01 -8.710371702909469604e-02 -3.283783793449401855e-01 -1.743436306715011597e-01 5.512560158967971802e-02 2.819654643535614014e-01 -8.783306181430816650e-02 -3.067523539066314697e-01 1.651520580053329468e-01 -1.903857104480266571e-02 -2.358442395925521851e-01 -2.204694226384162903e-02 -3.564972877502441406e-01 3.568262234330177307e-02 1.703160852193832397e-01 -7.524185813963413239e-03 -2.394063472747802734e-01 1.544172316789627075e-01 -3.809138387441635132e-02 -5.827313661575317383e-02 -1.716467440128326416e-01 2.703017890453338623e-01 -5.717618018388748169e-02 -1.267063170671463013e-01 5.620892159640789032e-03 2.101966142654418945e-01 1.515207141637802124e-01 -2.223034203052520752e-01 -1.857092231512069702e-01 9.793341159820556641e-02 -1.074705272912979126e-01 8.616356179118156433e-03 -1.170834712684154510e-02 -2.217472046613693237e-01 -1.766285598278045654e-01 -6.804507970809936523e-02 -1.385197490453720093e-01 -3.546156585216522217e-01 -9.919907897710800171e-02 1.062737926840782166e-01 3.645415604114532471e-02 -3.260245621204376221e-01 -7.188858091831207275e-02 3.095890581607818604e-01 -1.050981432199478149e-01 1.251208316534757614e-02 2.115036547183990479e-01 5.696343258023262024e-02 -8.617289364337921143e-02 1.530680358409881592e-01 -2.773425579071044922e-01 -4.909637942910194397e-02 -1.192581579089164734e-01 -7.669950276613235474e-02 5.077771097421646118e-02 1.404923349618911743e-01 3.764448687434196472e-03 -3.357300162315368652e-01 9.508936107158660889e-02 -1.575859934091567993e-01 -1.350287497043609619e-01 1.826788783073425293e-01 2.315534651279449463e-01 2.665644586086273193e-01 9.099694341421127319e-02 -1.273303385823965073e-02 -1.869041472673416138e-01 -1.914982348680496216e-01 1.018551811575889587e-01 1.593584567308425903e-01 3.916413784027099609e-01 1.312652379274368286e-01 9.203425794839859009e-02
1.672829985618591309e-01 3.022947721183300018e-02 -2.962899021804332733e-02 -1.282616704702377319e-01 -1.941649466753005981e-01 3.751524090766906738e-01 2.452664636075496674e-02 3.139057755470275879e-01 -1.482843011617660522e-01 -1.695635318756103516e-01 3.862615525722503662e-01 1.716474145650863647e-01 -5.535324569791555405e-03 -1.894669793546199799e-02 -3.276271000504493713e-02 -1.257545799016952515e-01 -6.215593963861465454e-02 -1.715218424797058105e-01 5.080505087971687317e-02 4.603991284966468811e-02 1.315982043743133545e-01 -3.346439301967620850e-01 -8.827817626297473907e-03 2.243620604276657104e-01 -1.366320252418518066e-01 -5.513339117169380188e-02 1.832570284605026245e-01 8.838161826133728027e-02 -4.735081270337104797e-02 6.008836627006530762e-02 3.053544461727142334e-01 -2.665435709059238434e-02 2.213509082794189453e-01 -1.165570225566625595e-02 -5.281618982553482056e-02 2.148515731096267700e-01 3.770231455564498901e-02 8.935088664293289185e-02 3.531422615051269531e-01 2.177728712558746338e-01 3.780203685164451599e-02 -5.564918741583824158e-02 -1.529256254434585571e-01 -2.043842524290084839e-01 9.757449477910995483e-02 9.402675926685333252e-02 1.347254663705825806e-01 2.531123720109462738e-02 2.086775302886962891e-01 3.381697833538055420e-01 -2.058233022689819336e-01 -3.905578255653381348e-01 -2.587443888187408447e-01 -2.401411384344100952e-01 6.031148508191108704e-02 -6.066478416323661804e-02 -6.273158639669418335e-02 1.914178282022476196e-01 -2.001165449619293213e-01 1.088481172919273376e-01 -3.778389692306518555e-01 -1.611025258898735046e-02 1.860563084483146667e-02 -8.494051545858383179e-02 4.810710623860359192e-02 1.833850145339965820e-01 9.667741507291793823e-02 6.429425626993179321e-02 -2.316196411848068237e-01 -7.384356111288070679e-02 -8.396599441766738892e-02 2.942528128623962402e-01 7.679822295904159546e-02 -1.908758729696273804e-01 -5.496785789728164673e-02 3.191208839416503906e-02 2.332341521978378296e-01 1.862952113151550293e-02 1.399555206298828125e-01 -1.113420873880386353e-01
-1.226295605301856995e-01 2.949351370334625244e-01 1.188699156045913696e-01 -6.912743300199508667e-02 -1.254185885190963745e-01 -1.433384865522384644e-01 -3.731680810451507568e-01 3.750274181365966797e-01 -1.075430139899253845e-01 3.666074275970458984e-01 1.188835874199867249e-01 9.269989281892776489e-02 2.014852762222290039e-01 7.097574323415756226e-02 1.420813798904418945e-01 2.485473453998565674e-01 -1.042896062135696411e-01 -1.098773106932640076e-01 1.837607622146606445e-01 -1.217328310012817383e-01 -2.747820317745208740e-01 -2.373324483633041382e-01 1.065860763192176819e-01 8.260660618543624878e-02 1.261054128408432007e-01 8.661349862813949585e-02 -2.894818224012851715e-02 1.346680819988250732e-01 1.128220185637474060e-01 1.577997207641601562e-01 1.228720098733901978e-01 -7.708860188722610474e-02 -2.677654325962066650e-01 2.938697636127471924e-01 1.742041558027267456e-01 -1.363803148269653320e-01 1.837168782949447632e-01 -1.835133135318756104e-01 -1.181364580988883972e-01 -3.578173220157623291e-01 5.270530004054307938e-03 1.204442381858825684e-01 6.855180114507675171e-02 7.094720005989074707e-02 2.752862870693206787e-01 -4.644513130187988281e-02 3.103750385344028473e-02 -1.225571963004767895e-03 -1.839494146406650543e-02 1.035413146018981934e-01 -6.987255066633224487e-02 -1.287317872047424316e-01 -7.664475589990615845e-02 -8.072946220636367798e-02 -1.147511298768222332e-03 2.242549881339073181e-02 -3.186303079128265381e-01 -2.576830089092254639e-01 -2.327398806810379028e-01 7.737484574317932129e-02 7.176280766725540161e-02 2.450053244829177856e-01 -2.660718858242034912e-01 -9.430223144590854645e-03 -1.350317448377609253e-01 1.623068191111087799e-02 -7.332839816808700562e-02 -3.415712118148803711e-01 -1.552281826734542847e-01 -1.447793990373611450e-01 -1.414473056793212891e-01 6.994420289993286133e-02 -2.685057818889617920e-01 -1.602836102247238159e-01 -6.594613194465637207e-03 1.402567774057388306e-01 2.212545424699783325e-01 -5.601123720407485962e-02 -1.026602163910865784e-01 2.660030126571655273e-02
-1.421538591384887695e-01 2.837797701358795166e-01 -2.494158297777175903e-01 1.604430526494979858e-01 1.357917040586471558e-01 -8.415545523166656494e-02 -5.954433605074882507e-02 -3.897498548030853271e-01 -1.272070109844207764e-01 -2.964510023593902588e-02 1.088427528738975525e-01 -9.599912166595458984e-02 -1.517716199159622192e-01 -1.879888474941253662e-01 -2.351349890232086182e-01 -4.678864404559135437e-02 2.254014015197753906e-01 1.952100843191146851e-01 -1.558894515037536621e-01 -3.031558990478515625e-01 -2.184002399444580078e-01 1.631643921136856079e-01 -1.503771990537643433e-01 -3.010839223861694336e-01 2.559957504272460938e-01 2.194825410842895508e-01 -1.658886224031448364e-01 7.515259087085723877e-02 5.566201359033584595e-02 6.799748371122404933e-05 -1.652029156684875488e-01 3.316359817981719971e-01 -1.662706285715103149e-01 2.366937845945358276e-01 3.797105550765991211e-01 7.839621603488922119e-02 2.015144079923629761e-01 -3.635941818356513977e-02 -1.969137415289878845e-02 -1.222561374306678772e-01 -9.255068749189376831e-02 7.576721161603927612e-02 4.517320916056632996e-02 -1.062257438898086548e-01 -8.914265781641006470e-02 -8.362815529108047485e-02 -6.313174962997436523e-03 -3.409512341022491455e-01 7.276197522878646851e-02 2.456152290105819702e-01 -2.982686460018157959e-02 1.999774426221847534e-01 -8.705147355794906616e-02 -1.042944416403770447e-01 1.286608278751373291e-01 -3.816037997603416443e-02 4.080657381564378738e-03 1.012984290719032288e-01 2.167410701513290405e-01 -3.061161609366536140e-03 -7.278016954660415649e-02 1.764820963144302368e-01 -1.557608693838119507e-01 -1.801345646381378174e-01 -1.313105523586273193e-01 -2.239902764558792114e-01 -2.894564345479011536e-02 -1.587273031473159790e-01 3.139060363173484802e-02 -3.420650064945220947e-01 1.506933104246854782e-02 6.688248366117477417e-02 -1.875880062580108643e-01 -7.260948419570922852e-02 1.214416250586509705e-01 2.089033871889114380e-01 -9.726409614086151123e-02 -1.764990538358688354e-01 1.207076907157897949e-01 -1.593655496835708618e-01
7.420595735311508179e-02 1.938739120960235596e-01 2.695980109274387360e-02 1.344405710697174072e-01 -4.450620338320732117e-02 2.808289043605327606e-02 -2.700670659542083740e-01 -5.856070667505264282e-02 1.245787832885980606e-02 -1.040298491716384888e-01 7.676651328802108765e-02 1.934697329998016357e-01 -1.959871351718902588e-01 1.352853178977966309e-01 9.875387884676456451e-03 1.125687733292579651e-01 -2.624210715293884277e-01 -1.919219940900802612e-01 3.990917801856994629e-01 -1.206592284142971039e-02 -5.160210281610488892e-02 2.903072237968444824e-01 1.094767227768898010e-01 1.588211059570312500e-01 -2.444757074117660522e-01 -2.250213176012039185e-01 -9.230439364910125732e-02 8.300390094518661499e-02 -2.466279082000255585e-02 -9.002076834440231323e-02 -2.244414389133453369e-01 -7.476009428501129150e-02 -5.426269769668579102e-02 2.314374968409538269e-02 -2.932771574705839157e-03 -1.361516118049621582e-01 -1.045640632510185242e-01 -2.674755267798900604e-02 6.393802165985107422e-02 -1.601861715316772461e-01 9.707926958799362183e-02 -1.551758646965026855e-01 -3.866277262568473816e-02 1.875610500574111938e-01 -3.265304956585168839e-03 -1.037851348519325256e-01 3.127844035625457764e-01 2.154435664415359497e-01 6.807521730661392212e-02 -1.100679263472557068e-01 6.357233226299285889e-02 -6.622138619422912598e-02 3.678623139858245850e-01 2.173435688018798828e-01 1.387973576784133911e-01 -1.489337533712387085e-01 -3.261596262454986572e-01 -9.263833612203598022e-02 -3.081106580793857574e-03 1.315981596708297729e-01 1.395040750503540039e-01 -4.203595593571662903e-02 -1.062326952815055847e-01 -2.483419887721538544e-02 2.743534445762634277e-01 3.778696358203887939e-01 -6.821390986442565918e-02 -7.102425396442413330e-02 2.971791625022888184e-01 -3.376402556896209717e-01 1.375951687805354595e-03 1.452603191137313843e-01 1.602431386709213257e-01 -7.509475946426391602e-02 3.052446246147155762e-01 -1.582102924585342407e-01 -1.880935728549957275e-01 -3.358941897749900818e-02 3.116845786571502686e-01 -1.390268355607986450e-01
9.485176950693130493e-02 -1.756449937820434570e-01 2.954067587852478027e-01 -1.155983954668045044e-01 -7.028487510979175568e-03 2.296253740787506104e-01 -3.434663414955139160e-01 -2.135841846466064453e-01 8.952532894909381866e-03 -1.379050761461257935e-01 -1.561557501554489136e-01 3.216324746608734131e-02 -1.049351096153259277e-01 2.147058546543121338e-01 -1.720510572195053101e-01 2.643783390522003174e-02 1.948830187320709229e-01 1.208573207259178162e-01 2.012263387441635132e-01 -1.336782425642013550e-01 1.608447879552841187e-01 3.346176147460937500e-01 1.187639757990837097e-01 2.214682400226593018e-01 -1.572117954492568970e-01 -1.526048965752124786e-02 -1.171293482184410095e-01 -1.329358518123626709e-01 2.230326645076274872e-02 -2.169660292565822601e-02 -1.543259471654891968e-01 -1.840706318616867065e-01 -1.008985787630081177e-01 1.396548748016357422e-01 1.645391881465911865e-01 -1.928413361310958862e-01 5.298293381929397583e-02 2.924976646900177002e-01 -4.182938113808631897e-02 3.074351325631141663e-02 8.918415009975433350e-02 -6.303710490465164185e-02 -3.216577768325805664e-01 2.237346023321151733e-01 4.517903551459312439e-02 2.497176229953765869e-01 6.875970214605331421e-02 -1.158736720681190491e-01 2.806732058525085449e-01 9.222434461116790771e-02 -3.461546963080763817e-03 -1.492261439561843872e-01 -2.644086480140686035e-01 -3.573776409029960632e-02 1.749983876943588257e-01 -3.623129054903984070e-02 1.031125411391258240e-01 1.800212860107421875e-01 -4.697363823652267456e-02 -1.997255533933639526e-01 2.892224490642547607e-01 -2.464981377124786377e-01 -6.944062560796737671e-02 -5.337044596672058105e-02 2.299694269895553589e-01 3.309307619929313660e-02 -7.539454847574234009e-02 -8.487580716609954834e-02 2.329374663531780243e-02 -7.766310125589370728e-02 9.992975741624832153e-02 2.007969617843627930e-01 -1.528868526220321655e-01 1.296686101704835892e-02 -2.025328725576400757e-01 -2.991144359111785889e-02 1.320440601557493210e-02 6.087539368309080601e-04 1.421363055706024170e-01 -3.085985779762268066e-01
-1.996714854612946510e-03 5.750135332345962524e-02 6.399052590131759644e-02 8.857945352792739868e-02 2.639682497829198837e-03 2.394717931747436523e-01 -2.259345501661300659e-01 -5.038632825016975403e-02 -3.207386657595634460e-02 -1.826895922422409058e-01 5.168078094720840454e-02 -2.406641244888305664e-01 -3.055273592472076416e-01 -4.175123199820518494e-02 -1.632196754217147827e-01 -3.051293790340423584e-01 -1.248810812830924988e-01 -1.953697651624679565e-01 1.336860507726669312e-01 1.225808858871459961e-01 5.654032900929450989e-02 3.202435970306396484e-01 1.217641830444335938e-01 -9.685280174016952515e-02 -7.351916283369064331e-02 -3.049952089786529541e-01 -2.219601422548294067e-01 -1.954391449689865112e-01 -1.778724640607833862e-01 -2.028298750519752502e-02 -5.459023639559745789e-02 -3.468872308731079102e-01 -5.753534659743309021e-02 -1.812451928853988647e-01 -2.544045448303222656e-02 -4.675698280334472656e-02 3.275834023952484131e-01 8.483286201953887939e-02 -1.144485026597976685e-01 -1.544377356767654419e-01 7.253506034612655640e-02 -2.414816468954086304e-01 1.863839775323867798e-01 -2.758816480636596680e-01 3.360614478588104248e-01 2.396050989627838135e-01 3.531679138541221619e-02 1.668783277273178101e-01 1.572617590427398682e-01 -2.595309354364871979e-02 3.714494034647941589e-02 -1.375802308320999146e-01 5.407686904072761536e-02 8.766355365514755249e-02 2.560739032924175262e-02 1.797458827495574951e-01 -2.643776312470436096e-02 4.330831393599510193e-02 -5.087599903345108032e-02 -2.715369872748851776e-02 -5.862657912075519562e-03 9.547009132802486420e-03 -2.282769680023193359e-01 7.503324002027511597e-02 -3.017195500433444977e-03 -1.197580527514219284e-02 -1.545681208372116089e-01 -2.697685956954956055e-01 -3.684208914637565613e-02 9.091888368129730225e-02 2.455555461347103119e-02 1.577973812818527222e-01 -2.815241515636444092e-01 9.981878846883773804e-02 5.655831098556518555e-02 -3.522628843784332275e-01 8.519590646028518677e-02 3.501819372177124023e-01 -1.021538898348808289e-01 1.198688372969627380e-01
-3.812835812568664551e-01 2.259927541017532349e-01 -7.165004312992095947e-02 2.237643748521804810e-01 -3.005883693695068359e-01 2.062032967805862427e-01 -3.750039264559745789e-02 -3.642088174819946289e-01 4.518313333392143250e-02 1.447806805372238159e-01 -3.376875445246696472e-02 -1.191766187548637390e-01 1.703231483697891235e-01 1.351627558469772339e-01 -4.060402140021324158e-02 -1.909954696893692017e-01 -2.044213861227035522e-01 -3.898667991161346436e-01 2.210516482591629028e-02 2.493574917316436768e-01 3.720624148845672607e-01 3.696999549865722656e-01 -4.182209726423025131e-03 -9.562092833220958710e-03 2.103833705186843872e-01 3.999062478542327881e-01 1.857566237449645996e-01 -2.931189239025115967e-01 2.005770057439804077e-01 9.484894573688507080e-02 -4.544618725776672363e-02 -6.451168656349182129e-02 -1.582633107900619507e-01 -1.685363501310348511e-01 1.622381061315536499e-01 -6.384384818375110626e-03 2.547272481024265289e-02 -4.321733489632606506e-02 3.317165002226829529e-02 1.629716902971267700e-02 -6.072420999407768250e-02 -4.653721302747726440e-02 -3.205225467681884766e-01 -3.518922626972198486e-01 -4.625957517419010401e-04 1.045324355363845825e-01 -1.011104583740234375e-01 -1.275466289371252060e-02 5.429803207516670227e-02 -2.015097625553607941e-02 -1.090144738554954529e-01 5.327296257019042969e-02 2.845985889434814453e-01 3.996631130576133728e-02 4.774347320199012756e-02 2.709516584873199463e-01 -3.803657367825508118e-02 -2.660055160522460938e-01 1.165859699249267578e-01 2.507895529270172119e-01 1.862389445304870605e-01 1.351203173398971558e-01 -1.083091497421264648e-01 1.209541931748390198e-01 2.848300039768218994e-01 -1.883703917264938354e-01 -5.536384508013725281e-02 2.336132377386093140e-01 -3.431766927242279053e-01 2.062495797872543335e-01 -1.792501956224441528e-01 -3.318988084793090820e-01 3.789180815219879150e-01 7.956422120332717896e-02 8.008607476949691772e-02 2.816225960850715637e-02 -1.724454462528228760e-01 1.167422086000442505e-01 4.699814599007368088e-04 -1.457840502262115479e-01
2.133822441101074219e-01 -1.594583839178085327e-01 2.512843012809753418e-01 -2.237195819616317749e-01 -1.120885238051414490e-01 1.981932967901229858e-01 1.267767399549484253e-01 2.996870875358581543e-02 -3.045875728130340576e-01 1.051374301314353943e-01 1.774166971445083618e-01 -5.560377240180969238e-02 -1.547057330608367920e-01 2.878716588020324707e-02 7.929959148168563843e-02 1.208724305033683777e-01 -2.426362484693527222e-01 1.893793791532516479e-01 1.688903868198394775e-01 -8.016033470630645752e-02 4.457139596343040466e-02 -3.559868782758712769e-02 -3.172947764396667480e-01 2.421252578496932983e-01 -2.684371173381805420e-02 2.227779626846313477e-01 -7.381503283977508545e-02 1.487385332584381104e-01 2.866007983684539795e-01 1.156219244003295898e-01 -3.385677039623260498e-01 -1.518376171588897705e-01 -1.696434617042541504e-01 4.793359711766242981e-02 -1.534513384103775024e-01 7.206097990274429321e-02 1.096918359398841858e-01 -2.358152866363525391e-01 -8.922576904296875000e-02 -7.450225297361612320e-03 5.909637082368135452e-03 -1.832809150218963623e-01 2.143490314483642578e-01 -1.058353111147880554e-01 2.437220662832260132e-01 -1.270139664411544800e-01 2.266236394643783569e-01 -3.693683147430419922e-01 1.182216554880142212e-01 -2.672941684722900391e-01 -1.340784579515457153e-01 2.199942916631698608e-01 8.198374509811401367e-02 1.393849402666091919e-01 1.963018774986267090e-01 -1.774647831916809082e-01 3.399229049682617188e-02 7.360149919986724854e-02 2.755738496780395508e-01 -3.008387982845306396e-01 4.144012555480003357e-02 -1.174612268805503845e-01 2.423988580703735352e-01 -1.344224065542221069e-01 1.358502954244613647e-01 -4.752124845981597900e-02 -1.644733734428882599e-02 -4.109589383006095886e-02 -2.066160738468170166e-01 -7.959538698196411133e-02 -3.011769428849220276e-02 3.500644862651824951e-01 4.219933878630399704e-03 -1.654364466667175293e-01 -1.135586649179458618e-01 -1.729175895452499390e-01 3.562375605106353760e-01 -1.399506069719791412e-02 -3.966718912124633789e-02 2.093919068574905396e-01
