1.061932444572448730e-01 -3.722110390663146973e-01 2.336026541888713837e-02 -1.004270911216735840e-01 -1.708350330591201782e-01 -3.695688843727111816e-01 -2.158362120389938354e-01 3.033701479434967041e-01 7.736517000012099743e-04 2.190180569887161255e-01 -2.342698425054550171e-01 1.550022978335618973e-02 3.468791842460632324e-01 9.613594412803649902e-02 -2.479596138000488281e-01 2.991054952144622803e-01 2.803902328014373779e-02 -4.898520931601524353e-02 -1.308479811996221542e-02 1.676204949617385864e-01
3.880444169044494629e-01 2.631856873631477356e-02 -2.525421977043151855e-01 1.087433695793151855e-01 -6.491265445947647095e-02 1.462777107954025269e-01 -4.259773716330528259e-02 -1.849241852760314941e-01 -4.995373263955116272e-02 -2.151719331741333008e-01 -1.930782049894332886e-01 1.416840553283691406e-01 3.570055589079856873e-02 5.473862215876579285e-02 -7.617075741291046143e-02 -1.518224328756332397e-01 5.843993648886680603e-02 2.245458215475082397e-01 -7.679117470979690552e-02 -6.953129917383193970e-02
1.151397973299026489e-01 -1.071665287017822266e-01 -9.971571713685989380e-02 1.542901396751403809e-01 4.764807969331741333e-02 -1.893776282668113708e-02 -2.498819828033447266e-01 -1.022893413901329041e-01 -4.015216231346130371e-02 -1.306398957967758179e-01 3.155690729618072510e-01 -2.844290249049663544e-02 2.567405439913272858e-02 3.735177516937255859e-01 2.486537545919418335e-01 1.131210252642631531e-01 6.977012008428573608e-02 1.332353502511978149e-01 -3.290868997573852539e-01 -8.122885972261428833e-02
