-3.851571381092071533e-01 4.127885997295379639e-01 -2.103205472230911255e-01 2.206446230411529541e-01 7.620608806610107422e-02 1.478610634803771973e-01 -1.691350899636745453e-02 -5.571119785308837891e-01 -5.576909184455871582e-01 -1.708490103483200073e-01 4.633682966232299805e-02 2.673570513725280762e-01 8.319265395402908325e-02 -5.245854705572128296e-02 3.832850456237792969e-01 -2.210458666086196899e-01 6.830813884735107422e-01 -1.813666671514511108e-01 7.476475238800048828e-01 -6.792939901351928711e-01
4.089271128177642822e-01 -2.095809280872344971e-01 3.957524299621582031e-01 -4.788695573806762695e-01 -9.638685733079910278e-02 4.091858863830566406e-01 -1.225843504071235657e-01 2.657257914543151855e-01 -3.049659132957458496e-01 -3.635911047458648682e-01 2.066612690687179565e-01 -6.392748653888702393e-02 -1.688251793384552002e-01 -3.138565719127655029e-01 -2.544257938861846924e-01 3.291329145431518555e-01 2.634912431240081787e-01 -4.569569826126098633e-01 5.751678347587585449e-02 -2.368103861808776855e-01
-2.982316315174102783e-01 -3.879312276840209961e-01 3.300843238830566406e-01 1.391738206148147583e-01 -2.825721204280853271e-01 -1.470889896154403687e-01 6.229260563850402832e-01 -5.402211546897888184e-01 4.946515560150146484e-01 -1.599313765764236450e-01 3.180677890777587891e-01 5.805521830916404724e-02 -2.698740363121032715e-01 -5.360810160636901855e-01 1.545415371656417847e-01 5.203238129615783691e-01 7.257223874330520630e-02 6.210231184959411621e-01 -2.606693506240844727e-01 5.948175787925720215e-01
2.145592272281646729e-01 -6.957167387008666992e-02 2.801041901111602783e-01 -2.221414148807525635e-01 -4.505288898944854736e-01 8.208290338516235352e-01 -1.070727314800024033e-02 1.640790700912475586e-01 -4.307493865489959717e-01 -5.600159764289855957e-01 1.882414966821670532e-01 -1.361632347106933594e-01 -7.223787307739257812e-01 -6.363674402236938477e-01 -6.969126462936401367e-01 2.465251684188842773e-01 5.461610555648803711e-01 -2.929538786411285400e-01 3.666504025459289551e-01 7.056590169668197632e-02
1.667793840169906616e-02 2.933567576110363007e-02 3.036927282810211182e-01 -1.206874623894691467e-01 -2.407494932413101196e-01 1.477361917495727539e-01 -1.053512170910835266e-01 -1.396509855985641479e-01 -3.125971853733062744e-01 -1.314301341772079468e-01 -6.138948351144790649e-02 7.778001576662063599e-02 2.139620333909988403e-01 -3.887257874011993408e-01 -8.780054748058319092e-02 -2.762269973754882812e-01 2.967713773250579834e-01 -3.109120428562164307e-01 1.688793599605560303e-01 -1.730440109968185425e-01
-3.542040288448333740e-02 -3.487563431262969971e-01 6.287697702646255493e-02 -4.169526696205139160e-02 -3.454732298851013184e-01 1.034854650497436523e-01 5.458178371191024780e-02 1.531278789043426514e-01 3.837305848719552159e-05 1.531979907304048538e-02 1.509783118963241577e-01 -1.722614020109176636e-01 -3.724631965160369873e-01 -1.462793201208114624e-01 -1.709389239549636841e-01 2.326812893152236938e-01 1.647845096886157990e-02 8.946650661528110504e-03 -1.830127388238906860e-01 2.624396048486232758e-02
-1.849072277545928955e-01 3.265040814876556396e-01 -4.821577295660972595e-02 3.457287549972534180e-01 1.281326413154602051e-01 6.460609287023544312e-02 2.240883558988571167e-01 -3.458867073059082031e-01 -7.177369594573974609e-01 6.131226941943168640e-02 1.924076974391937256e-01 4.149397015571594238e-01 3.283670246601104736e-01 -4.775942768901586533e-03 3.346759974956512451e-01 -4.422068297863006592e-01 5.573623776435852051e-01 -2.426007688045501709e-01 8.446670770645141602e-01 -5.153620839118957520e-01
6.830377578735351562e-01 -2.769591808319091797e-01 2.909433841705322266e-01 -5.266757011413574219e-01 7.496646791696548462e-02 3.088441789150238037e-01 -4.253356754779815674e-01 5.023025870323181152e-01 -3.953120112419128418e-01 -2.362898886203765869e-01 2.894239732995629311e-03 -4.352657198905944824e-01 -1.701926141977310181e-01 1.241488903760910034e-01 -4.827715456485748291e-01 1.276783645153045654e-01 6.421541422605514526e-02 -4.093843996524810791e-01 -5.571937188506126404e-02 -5.663543194532394409e-02
