6.177000328898429871e-02 -3.314363658428192139e-01 -7.822870276868343353e-03 1.700277775526046753e-01 1.493827998638153076e-01 9.816952794790267944e-02 2.677855491638183594e-01 2.448251694440841675e-01 -1.636231243610382080e-01 3.404198586940765381e-01 2.681219279766082764e-01 -3.058871924877166748e-01 -7.843139767646789551e-02 -9.182545542716979980e-02 2.484396696090698242e-01 -5.652389675378799438e-02 1.054798886179924011e-01 -2.927398085594177246e-01 -3.646693527698516846e-01 -4.563587903976440430e-02
-4.122832044959068298e-02 -1.492495536804199219e-01 -9.723254293203353882e-02 -1.938307881355285645e-01 -3.588663041591644287e-01 -2.388810664415359497e-01 -8.602726459503173828e-02 -1.377403587102890015e-01 -1.055939346551895142e-01 2.692603468894958496e-01 2.546897828578948975e-01 -1.953666061162948608e-01 2.610899880528450012e-02 5.232166871428489685e-02 -1.579892337322235107e-01 -3.774586021900177002e-01 -2.005109786987304688e-01 4.590630158782005310e-02 -1.778952591121196747e-02 1.823733299970626831e-01
2.507597804069519043e-01 -2.327287942171096802e-01 -6.050049327313899994e-03 4.582482203841209412e-02 2.954097092151641846e-01 -2.134444266557693481e-01 3.016090951859951019e-02 3.305068910121917725e-01 -2.187304496765136719e-01 -8.539207279682159424e-03 -2.327870875597000122e-01 -2.732158601284027100e-01 1.132978349924087524e-01 2.157490700483322144e-01 -4.471708089113235474e-02 -8.688529580831527710e-02 -2.765190899372100830e-01 -1.518161445856094360e-01 2.147675603628158569e-01 -1.010278612375259399e-01
