8.479987084865570068e-02 2.579597532749176025e-01 -1.538261324167251587e-01 -1.093342974781990051e-01 -9.447169303894042969e-02 -2.658441662788391113e-02 3.298510983586311340e-02 -1.623804271221160889e-01 -1.008239196380600333e-04 6.448050588369369507e-02 3.852389156818389893e-01 -2.572915330529212952e-02 5.594355985522270203e-02 -8.586238324642181396e-02 -2.911824733018875122e-02 -1.592920422554016113e-01 -1.588235944509506226e-01 6.146776676177978516e-02 -2.373055964708328247e-01 -1.387848705053329468e-01
-1.462610363960266113e-01 -4.895095899701118469e-02 5.699168145656585693e-02 -2.626253068447113037e-01 -1.452441513538360596e-01 2.937496080994606018e-02 -2.482068538665771484e-01 4.022348523139953613e-01 1.549350023269653320e-01 -1.078937873244285583e-01 -3.613257110118865967e-01 3.343575447797775269e-02 2.907511591911315918e-01 -9.303086251020431519e-02 -7.699421048164367676e-02 1.403938382863998413e-01 -3.212869912385940552e-02 -8.719187229871749878e-02 1.298809945583343506e-01 -2.474097348749637604e-02
-4.908781647682189941e-01 -4.140188395977020264e-01 1.690389961004257202e-01 -4.712621271610260010e-01 -1.822987198829650879e-01 -3.723258972167968750e-01 2.240055799484252930e-02 7.714631501585245132e-03 -2.326229214668273926e-01 -3.209510147571563721e-01 1.249639987945556641e-01 -4.903564751148223877e-01 5.769334733486175537e-02 2.022145688533782959e-01 3.710992336273193359e-01 2.725302614271640778e-02 -2.373914271593093872e-01 5.749046206474304199e-01 2.955341041088104248e-01 -6.106996908783912659e-02
