-1.847760677337646484e-01 9.113263338804244995e-03 -3.531747758388519287e-01 -5.462033674120903015e-03 -2.923615574836730957e-01 9.179123491048812866e-02 7.787610590457916260e-02 1.323695480823516846e-01 -2.212753742933273315e-01 -7.751943171024322510e-02 -1.321973353624343872e-01 -6.416719406843185425e-02 -6.120031699538230896e-02 -4.015928134322166443e-02 3.892966732382774353e-02 2.905999496579170227e-02 2.883176803588867188e-01 -2.875096164643764496e-02 9.972193092107772827e-02 2.379542402923107147e-02
1.336825937032699585e-01 -2.808537483215332031e-01 1.356790959835052490e-01 3.904772698879241943e-01 1.854968369007110596e-01 4.250640794634819031e-02 9.409833699464797974e-02 -6.953396648168563843e-02 2.563964724540710449e-01 1.414325386285781860e-01 9.809529781341552734e-02 2.388110151514410973e-03 1.210187897086143494e-01 -2.738896608352661133e-01 -1.529446542263031006e-01 2.283270210027694702e-01 -3.247782588005065918e-01 2.081683725118637085e-01 -1.627482026815414429e-01 -6.745136529207229614e-02
5.189034342765808105e-02 4.343421012163162231e-02 8.490788191556930542e-02 3.489502370357513428e-01 -3.709729388356208801e-02 2.367905378341674805e-01 2.289374172687530518e-02 -5.370507389307022095e-02 8.660467714071273804e-02 3.875824213027954102e-01 1.653563529253005981e-01 -1.915839314460754395e-01 -2.998725473880767822e-01 -3.136286512017250061e-02 -2.675608098506927490e-01 1.092328652739524841e-01 1.384412795305252075e-01 9.619932621717453003e-03 -5.894304439425468445e-02 5.127041414380073547e-02
