-1.835972368717193604e-01 1.770693510770797729e-01 -3.040224872529506683e-02 4.486576654016971588e-03 -1.626860946416854858e-01 3.434724733233451843e-02 5.807587131857872009e-02 -1.568283326923847198e-02 5.345606803894042969e-02 -1.135108843445777893e-01 1.871483027935028076e-01 1.230767145752906799e-01 -1.422158479690551758e-01 -4.466611519455909729e-02 3.299842774868011475e-01 1.470524817705154419e-01 1.145457625389099121e-01 -3.730404675006866455e-01 2.924717664718627930e-01 -2.479561567306518555e-01 -1.603483557701110840e-01 1.989459805190563202e-02 2.758658826351165771e-01 -2.150535881519317627e-01 -1.574617177248001099e-01 2.373704463243484497e-01 6.754003465175628662e-02 2.477850019931793213e-01 3.351694345474243164e-02 -2.187609970569610596e-01 -6.305529177188873291e-02 2.570152841508388519e-02 -5.013476684689521790e-02 -1.539701521396636963e-01 1.702893823385238647e-01 -1.312580257654190063e-01 -3.275650441646575928e-01 -9.229042567312717438e-03 5.396586284041404724e-02 -1.206583753228187561e-01
1.767108775675296783e-02 1.476968675851821899e-01 -1.024739965796470642e-01 -4.645022377371788025e-02 2.215322703123092651e-01 1.259676963090896606e-01 2.156608365476131439e-02 4.018964990973472595e-02 1.684195250272750854e-01 1.073209792375564575e-01 2.417974025011062622e-01 1.613839268684387207e-01 -1.435554474592208862e-01 3.280137479305267334e-01 -4.172436520457267761e-02 2.353923581540584564e-02 2.410207092761993408e-01 3.159732520580291748e-01 3.650596365332603455e-02 2.772496640682220459e-01 3.904897868633270264e-01 -1.091514378786087036e-01 2.320827990770339966e-01 4.011119529604911804e-02 1.659118831157684326e-01 -1.832507699728012085e-01 -1.798817329108715057e-02 7.783523201942443848e-02 2.539239227771759033e-01 -7.856256514787673950e-02 -2.467694692313671112e-02 7.962688058614730835e-02 -2.257478684186935425e-01 -4.668683931231498718e-02 -8.130087703466415405e-02 -9.388104826211929321e-02 3.968108594417572021e-01 2.390775531530380249e-01 -6.675247848033905029e-02 -1.753784567117691040e-01
-4.909859597682952881e-02 -1.400779783725738525e-01 -1.970177739858627319e-01 2.329984158277511597e-01 -2.592531740665435791e-01 2.478065043687820435e-01 -5.098509788513183594e-02 3.766142427921295166e-01 1.372597515583038330e-01 2.751249121502041817e-03 2.023338824510574341e-01 -6.411342322826385498e-02 1.005074307322502136e-01 -1.296924985945224762e-02 5.771402642130851746e-02 7.837089896202087402e-02 1.897188127040863037e-01 -7.566447556018829346e-02 -2.488347738981246948e-01 -1.145030409097671509e-01 1.122894436120986938e-01 -1.771910637617111206e-01 -1.483033131808042526e-02 3.989277407526969910e-02 5.764945410192012787e-03 -1.438840925693511963e-01 -5.833322554826736450e-02 -1.862355917692184448e-01 -1.671789139509201050e-01 -2.102628946304321289e-01 -3.164900094270706177e-02 2.089036703109741211e-01 5.104000121355056763e-02 -2.398348785936832428e-02 -4.443913698196411133e-02 1.843080073595046997e-01 1.041895151138305664e-01 3.036371171474456787e-01 -2.890304625034332275e-01 2.416929751634597778e-01
1.271829605102539062e-01 -2.315950244665145874e-01 1.409348100423812866e-01 -2.361752539873123169e-01 2.452981024980545044e-01 -2.490362673997879028e-01 1.941585391759872437e-01 6.748853623867034912e-02 -1.713039637252222747e-05 -2.218028344213962555e-02 9.866181761026382446e-02 7.897396385669708252e-02 -2.022061645984649658e-01 1.986709982156753540e-01 -2.596588246524333954e-02 -3.032588660717010498e-01 -5.794466286897659302e-02 -5.391190573573112488e-02 1.137854009866714478e-01 4.758091270923614502e-02 2.388239465653896332e-02 -2.140026539564132690e-01 -1.572023481130599976e-01 -2.163792103528976440e-01 -1.176140531897544861e-01 -5.134070664644241333e-02 -1.443149596452713013e-01 2.079216241836547852e-01 -2.747747115790843964e-02 3.147870898246765137e-01 1.155555844306945801e-01 3.025893867015838623e-02 2.548330724239349365e-01 1.858412027359008789e-01 1.372268348932266235e-01 9.173782914876937866e-02 5.212274193763732910e-02 8.949369937181472778e-02 -1.826976053416728973e-02 3.115851581096649170e-01
-1.272889077663421631e-01 -3.141632974147796631e-01 -1.280972361564636230e-01 -2.970690429210662842e-01 -1.190034896135330200e-01 1.726347506046295166e-01 2.277866601943969727e-01 -2.343594133853912354e-01 3.570195287466049194e-02 5.718898493796586990e-03 3.254663050174713135e-01 1.128974333405494690e-01 -1.606348007917404175e-01 -2.032603323459625244e-01 8.926882594823837280e-02 -1.000140681862831116e-01 -1.860302388668060303e-01 7.400065660476684570e-02 1.019162088632583618e-01 1.260386258363723755e-01 -1.798651516437530518e-01 1.974011510610580444e-01 -2.661257684230804443e-01 -1.112622115761041641e-02 -8.352967351675033569e-02 1.992196738719940186e-01 9.600712358951568604e-02 -1.733940839767456055e-01 -2.543523674830794334e-03 -8.110658824443817139e-02 1.827661246061325073e-01 1.985915154218673706e-01 -5.415635928511619568e-02 -2.917512357234954834e-01 1.547485440969467163e-01 1.074171587824821472e-01 -2.582861296832561493e-02 2.723693847656250000e-01 -2.780507551506161690e-03 1.349154561758041382e-01
-3.651172220706939697e-01 2.977224886417388916e-01 2.120490819215774536e-01 6.929063796997070312e-02 -1.383214145898818970e-01 -1.681523174047470093e-01 -1.374328434467315674e-01 -8.554773777723312378e-02 8.015011996030807495e-02 -1.421582698822021484e-01 -5.776075180619955063e-03 9.121279418468475342e-02 7.677970826625823975e-02 -7.420986145734786987e-02 -1.135611813515424728e-02 1.215856820344924927e-01 -4.946829006075859070e-02 -1.382614225149154663e-01 2.481847554445266724e-01 -4.707599058747291565e-02 1.391349919140338898e-02 5.649987608194351196e-02 -1.602995246648788452e-01 1.921708434820175171e-01 1.086044311523437500e-01 1.299886871129274368e-02 6.037620455026626587e-02 -1.218718886375427246e-01 2.530277669429779053e-01 -1.038945466279983521e-01 -3.757054731249809265e-02 -2.922577857971191406e-01 -2.942079305648803711e-01 1.546960324048995972e-01 2.212718725204467773e-01 2.787763774394989014e-01 1.218187585473060608e-01 1.444461792707443237e-01 -3.151116073131561279e-01 7.352727651596069336e-02
-2.881409227848052979e-01 -7.963870465755462646e-02 -4.122271388769149780e-02 8.141415566205978394e-02 1.395472586154937744e-01 -6.978126615285873413e-02 2.441594600677490234e-01 1.780245304107666016e-01 -2.406570911407470703e-01 -9.497324377298355103e-02 2.677069902420043945e-01 3.508893772959709167e-02 -1.193571239709854126e-01 -9.044690430164337158e-02 -1.923161298036575317e-01 -1.972707360982894897e-01 1.065366994589567184e-02 2.411705553531646729e-01 1.758195906877517700e-01 -3.545586764812469482e-01 -4.757281765341758728e-02 2.755841016769409180e-01 -2.257839888334274292e-01 -7.781886495649814606e-03 2.971338927745819092e-01 -6.453093886375427246e-02 -1.736640781164169312e-01 -1.134613379836082458e-01 -1.960796117782592773e-01 1.645419560372829437e-02 -8.008681237697601318e-02 2.250554412603378296e-01 -3.364700376987457275e-01 -1.669486612081527710e-01 -2.634195983409881592e-02 8.473803848028182983e-02 -2.374857962131500244e-01 1.520670056343078613e-01 -2.838468849658966064e-01 -1.042308211326599121e-01
2.730655074119567871e-01 2.868805825710296631e-01 -1.553844213485717773e-01 -3.080527782440185547e-01 -2.795622944831848145e-01 1.523173451423645020e-01 -6.099103763699531555e-02 -1.374146807938814163e-02 1.172570213675498962e-01 3.680389523506164551e-01 1.442910581827163696e-01 3.648698702454566956e-02 -4.781434312462806702e-02 -3.646495938301086426e-01 2.021285593509674072e-01 3.233592808246612549e-01 -2.041668146848678589e-01 -3.229983747005462646e-01 -3.019472360610961914e-01 -4.876910150051116943e-02 2.393095344305038452e-01 -7.355316728353500366e-02 -1.538733989000320435e-01 -9.930328279733657837e-02 -2.536884248256683350e-01 4.583404585719108582e-02 -4.500293359160423279e-02 9.790331870317459106e-02 2.127242647111415863e-02 -7.944004982709884644e-02 2.309337705373764038e-01 -2.792735099792480469e-01 7.782002538442611694e-02 4.529953747987747192e-02 -1.811231300234794617e-02 -4.499697312712669373e-02 -1.014120206236839294e-01 -1.302229762077331543e-01 1.130373701453208923e-01 -1.455535925924777985e-02
2.379883080720901489e-01 -2.008225917816162109e-01 2.999824704602360725e-03 1.693138778209686279e-01 -1.992880403995513916e-01 -6.426193565130233765e-02 -2.497068978846073151e-02 -3.800472021102905273e-01 -5.397730693221092224e-02 1.210889741778373718e-01 3.784187883138656616e-02 -2.190688401460647583e-01 1.149256452918052673e-01 3.633845448493957520e-01 -1.282694190740585327e-01 -1.473904699087142944e-01 5.899380519986152649e-02 4.486467689275741577e-02 -2.499122172594070435e-01 -1.165630817413330078e-01 1.554884482175111771e-02 6.942504644393920898e-02 -7.133787125349044800e-02 7.428744435310363770e-02 -1.484218090772628784e-01 -1.145195141434669495e-01 3.301630914211273193e-02 2.298267632722854614e-01 3.516533598303794861e-02 3.443205058574676514e-01 -3.271369636058807373e-01 3.708665072917938232e-01 4.332711175084114075e-02 2.265351861715316772e-01 -2.793148458003997803e-01 6.181467324495315552e-02 -1.443699747323989868e-01 5.922538042068481445e-02 7.518332451581954956e-02 -2.425847351551055908e-01
-1.722442954778671265e-01 8.037561923265457153e-02 -1.399749964475631714e-01 -1.516974568367004395e-01 5.068252608180046082e-02 1.800590008497238159e-01 -3.951288759708404541e-01 1.025003846734762192e-02 1.017663106322288513e-01 -7.267333567142486572e-02 4.910394176840782166e-02 7.845818996429443359e-02 -1.058879643678665161e-01 6.538654863834381104e-02 1.870482973754405975e-02 2.271766662597656250e-01 -1.295776516199111938e-01 3.233564794063568115e-01 1.782685965299606323e-01 8.765141479671001434e-03 -4.720718786120414734e-02 1.382883489131927490e-01 2.700769007205963135e-01 1.425606459379196167e-01 -1.422019749879837036e-01 1.463059633970260620e-01 2.015586197376251221e-01 -1.264147311449050903e-01 -2.543996647000312805e-02 -1.389050185680389404e-01 2.822107970714569092e-01 2.641650140285491943e-01 -1.727754920721054077e-01 1.910497844219207764e-01 2.536547482013702393e-01 7.117953896522521973e-02 9.363494813442230225e-03 -2.821082770824432373e-01 -1.846384257078170776e-01 -9.201505035161972046e-02
1.101555824279785156e-01 -1.204896941781044006e-01 1.859640926122665405e-01 -2.841962873935699463e-02 -2.594697475433349609e-01 -2.420264482498168945e-01 1.854480504989624023e-01 1.531113982200622559e-01 9.082359820604324341e-02 1.661323942244052887e-02 1.570266485214233398e-01 2.142496109008789062e-01 6.920948624610900879e-02 3.865907490253448486e-01 -2.215101569890975952e-01 -2.156913280487060547e-01 8.965923637151718140e-02 -7.260308414697647095e-02 2.251965850591659546e-01 3.111526370048522949e-01 -5.779616162180900574e-02 -1.312490850687026978e-01 7.270945608615875244e-02 -2.675049304962158203e-01 8.869916945695877075e-02 -1.893825531005859375e-01 1.859086155891418457e-01 1.109328866004943848e-01 6.672143191099166870e-02 2.099183052778244019e-01 -5.202864482998847961e-02 2.586695849895477295e-01 3.452858924865722656e-01 1.124652028083801270e-01 -9.166111797094345093e-02 -5.540233477950096130e-02 2.583719193935394287e-01 -3.874129056930541992e-01 1.225583180785179138e-01 -4.237658530473709106e-02
-2.393948584794998169e-01 1.720315068960189819e-01 2.143673412501811981e-02 3.619607910513877869e-02 1.293783634901046753e-02 -1.142026782035827637e-01 -1.820069551467895508e-01 -1.879750490188598633e-01 6.134202703833580017e-02 1.985019296407699585e-01 2.294167503714561462e-02 2.643094956874847412e-01 -1.046030744910240173e-01 2.547094225883483887e-01 7.030459493398666382e-02 -7.501481473445892334e-02 3.748067319393157959e-01 4.827659949660301208e-02 1.439267396926879883e-01 2.206353694200515747e-01 1.518665254116058350e-01 2.035747841000556946e-02 2.223809808492660522e-01 -2.589223384857177734e-01 1.871472038328647614e-02 1.914706379175186157e-01 -6.752289086580276489e-02 1.282887160778045654e-02 1.850861161947250366e-01 -1.509980261325836182e-01 1.758085787296295166e-01 2.257896661758422852e-01 -1.220925375819206238e-01 2.111400663852691650e-01 5.552399158477783203e-02 -7.018515467643737793e-02 2.638421654701232910e-01 -3.466054797172546387e-02 3.701999187469482422e-01 2.010960690677165985e-02
2.435025274753570557e-01 -9.052807092666625977e-02 -1.970646232366561890e-01 1.387807130813598633e-01 -1.487456709146499634e-01 3.701147735118865967e-01 7.999939471483230591e-02 -1.971851885318756104e-01 8.831010013818740845e-02 8.843865245580673218e-02 8.318582922220230103e-02 1.766385883092880249e-01 -1.758619993925094604e-01 2.184209078550338745e-01 6.766679137945175171e-02 -2.879983186721801758e-01 -1.123159751296043396e-01 -1.244057640433311462e-01 1.443977351300418377e-03 -1.901190727949142456e-01 -1.497947424650192261e-01 -1.885893195867538452e-01 -2.117737084627151489e-01 2.627896666526794434e-01 2.232028990983963013e-01 -3.468787297606468201e-02 6.573174148797988892e-02 1.944198645651340485e-02 1.835768073797225952e-01 2.041959017515182495e-01 3.719355165958404541e-01 1.004850673780310899e-05 -6.790109723806381226e-02 -6.708957254886627197e-02 1.406278759241104126e-01 -1.669684350490570068e-01 -1.096865087747573853e-01 -2.912231385707855225e-01 6.165416911244392395e-02 -1.442167814821004868e-02
1.681600809097290039e-01 7.965020835399627686e-02 -4.493701830506324768e-02 -1.314520388841629028e-01 5.386545136570930481e-02 1.324795931577682495e-01 1.280625760555267334e-01 -1.329233963042497635e-02 1.819852441549301147e-01 -1.241837069392204285e-01 -1.253006756305694580e-01 -2.348935157060623169e-01 3.281083106994628906e-01 2.753685116767883301e-01 -3.460298776626586914e-01 2.475891858339309692e-01 3.534445762634277344e-01 1.398695558309555054e-01 3.365665301680564880e-02 -2.442461550235748291e-01 3.723118826746940613e-02 2.796512544155120850e-01 3.625307381153106689e-01 -2.207005321979522705e-01 4.631420131772756577e-03 2.682783007621765137e-01 -7.236572355031967163e-02 1.957189142704010010e-01 -1.433478295803070068e-02 1.686062365770339966e-01 3.499849140644073486e-01 1.492948085069656372e-01 -1.997404247522354126e-01 1.470846384763717651e-01 1.162053570151329041e-01 -2.251425534486770630e-01 -6.962735950946807861e-02 8.776513487100601196e-02 -1.398249715566635132e-01 -2.308463603258132935e-01
-1.861616224050521851e-02 -2.963681332767009735e-02 -3.389747142791748047e-01 -2.663883566856384277e-01 -8.731020241975784302e-02 2.863824665546417236e-01 -1.059543266892433167e-01 -7.466422021389007568e-02 -2.273751795291900635e-01 -3.544583320617675781e-01 3.364934623241424561e-01 -2.183209508657455444e-01 -1.775736920535564423e-02 1.601484417915344238e-01 -5.977854132652282715e-02 -2.041300833225250244e-01 -1.085177995264530182e-02 -1.753238290548324585e-01 -4.702650383114814758e-02 8.697046898305416107e-03 2.632203400135040283e-01 -2.882654666900634766e-01 8.975686877965927124e-02 3.483743369579315186e-01 -3.130933940410614014e-01 2.404882758855819702e-01 -3.243471980094909668e-01 1.130595356225967407e-01 -6.814482808113098145e-02 -3.218137323856353760e-01 2.331903278827667236e-01 -3.931614160537719727e-01 3.059552907943725586e-01 4.592227563261985779e-02 9.703814238309860229e-02 -1.514690071344375610e-01 3.025481104850769043e-01 8.249094337224960327e-02 -2.270389646291732788e-01 3.650577855296432972e-04
-6.661506742238998413e-02 9.970976412296295166e-02 -1.011897698044776917e-01 8.888950198888778687e-02 -1.702379137277603149e-01 -4.942658171057701111e-02 6.771085411310195923e-02 -5.261874943971633911e-02 1.004689335823059082e-01 -1.838890090584754944e-02 1.281871944665908813e-01 -6.492634862661361694e-02 1.238025352358818054e-01 3.864137083292007446e-02 -1.136270388960838318e-01 -3.163228631019592285e-01 1.065682172775268555e-01 5.558266770094633102e-03 1.397754102945327759e-01 1.092270761728286743e-01 1.383001357316970825e-01 -2.630399763584136963e-01 1.716053485870361328e-01 2.377991676330566406e-01 3.471704572439193726e-02 8.339709043502807617e-02 1.915209144353866577e-01 8.930642157793045044e-02 -1.024578213691711426e-01 9.656745195388793945e-02 -1.824451982975006104e-01 1.078809276223182678e-01 1.407994329929351807e-01 -6.970849819481372833e-03 1.762348264455795288e-01 -8.841872960329055786e-02 5.803952366113662720e-02 2.847170829772949219e-01 1.126015409827232361e-01 -3.070830404758453369e-01
1.646317690610885620e-01 -5.689157918095588684e-02 -3.589297533035278320e-01 1.748515814542770386e-01 -4.288917407393455505e-02 3.221179246902465820e-01 2.707409858703613281e-02 -1.026773173362016678e-02 -3.329618484713137150e-04 8.295889943838119507e-03 -5.436304211616516113e-02 7.833337783813476562e-02 -3.960721492767333984e-01 -9.612365812063217163e-02 -8.179684728384017944e-02 1.052340790629386902e-01 2.603561580181121826e-01 -8.805057406425476074e-02 8.007663302123546600e-03 8.666364103555679321e-02 3.406552076339721680e-01 -1.021149307489395142e-01 -3.042240142822265625e-01 -7.253455370664596558e-02 -1.648966521024703979e-01 2.649273276329040527e-01 -2.157050669193267822e-01 1.809317320585250854e-01 -3.264298141002655029e-01 4.166252538561820984e-02 -1.130669638514518738e-01 5.663221236318349838e-03 -4.384491220116615295e-02 3.391847014427185059e-01 1.281597912311553955e-01 7.478817552328109741e-02 1.833788901567459106e-01 -4.434773698449134827e-02 1.096429452300071716e-01 3.052445352077484131e-01
-6.285376101732254028e-02 -1.868885904550552368e-01 2.467841096222400665e-02 3.016257286071777344e-02 3.522319495677947998e-01 -1.888693422079086304e-01 -9.046868234872817993e-02 1.397818922996520996e-01 -1.725962162017822266e-01 -2.271329909563064575e-01 -2.364449799060821533e-01 -1.551791876554489136e-01 -5.616415664553642273e-02 -3.413763046264648438e-01 -1.474278867244720459e-01 -2.650654017925262451e-01 7.757236808538436890e-02 -1.081640869379043579e-01 -2.095399200916290283e-01 -1.757228523492813110e-01 -1.451603621244430542e-01 1.160310581326484680e-02 2.077306956052780151e-01 -1.180066093802452087e-01 5.205144360661506653e-02 1.267259567975997925e-01 -4.215113446116447449e-02 7.327026873826980591e-02 -1.477704644203186035e-01 8.643027395009994507e-02 1.091421619057655334e-01 -1.546941250562667847e-01 -1.024922877550125122e-01 -3.168241083621978760e-01 -1.716222055256366730e-02 -1.599742025136947632e-01 1.856591999530792236e-01 -1.578870117664337158e-01 1.112189609557390213e-02 -4.076337907463312149e-03
1.087823435664176941e-01 1.137280613183975220e-01 -1.818188875913619995e-01 -3.323544859886169434e-01 -3.244234621524810791e-01 -5.081402882933616638e-02 3.979515731334686279e-01 -7.192347198724746704e-03 2.054489105939865112e-01 -1.022135615348815918e-01 -9.441490471363067627e-02 -1.956949532032012939e-01 1.177443489432334900e-01 -3.622481524944305420e-01 -2.102764844894409180e-01 -2.072867155075073242e-01 -1.631414443254470825e-01 2.048330605030059814e-01 -5.133702978491783142e-02 1.960487812757492065e-01 -1.728997379541397095e-01 7.979398965835571289e-02 -1.566393226385116577e-01 -1.225168928503990173e-01 3.580675125122070312e-01 3.357071578502655029e-01 2.446741797029972076e-02 1.459753233939409256e-02 -8.894260227680206299e-02 -1.678295433521270752e-01 1.295711845159530640e-01 7.149627059698104858e-02 1.552764624357223511e-01 6.324972957372665405e-03 1.781443059444427490e-01 1.791006140410900116e-02 -6.831786036491394043e-02 -1.429378241300582886e-01 -1.018891483545303345e-01 2.391175329685211182e-01
-2.052951604127883911e-01 -1.338110771030187607e-02 7.400920242071151733e-02 -3.688745945692062378e-02 -2.294876053929328918e-02 -1.377842016518115997e-02 -3.967986106872558594e-01 -3.430511653423309326e-01 3.550533652305603027e-01 -7.139589637517929077e-02 -2.126148790121078491e-01 8.604205399751663208e-02 2.716605365276336670e-01 5.135373398661613464e-02 -3.520065248012542725e-01 -2.311177998781204224e-01 7.322550565004348755e-02 -1.346207559108734131e-01 1.320631951093673706e-01 1.630122512578964233e-01 -3.208950757980346680e-01 1.814524978399276733e-01 1.696875542402267456e-01 -4.629233852028846741e-02 3.618166744709014893e-01 -4.468552395701408386e-02 -8.182943612337112427e-02 1.754539906978607178e-01 2.369163185358047485e-02 1.775289028882980347e-01 6.232607364654541016e-02 2.957094013690948486e-01 -1.317395418882369995e-01 -1.488090008497238159e-01 -3.938214108347892761e-02 4.441265389323234558e-02 -3.019209802150726318e-01 -1.337795704603195190e-01 -7.933440059423446655e-02 3.384098410606384277e-01
