-3.799105584621429443e-01 1.616476923227310181e-01 -2.086552828550338745e-01 -1.545997452922165394e-03 2.050935477018356323e-01 -2.999295294284820557e-01 -1.774501055479049683e-01 -3.238815069198608398e-02 2.018916755914688110e-01 2.919465601444244385e-01 2.540982961654663086e-01 -1.192118600010871887e-01 -3.527612425386905670e-03 -3.541947901248931885e-01 9.649583697319030762e-02 -2.352911382913589478e-01 -8.045089989900588989e-02 -1.100753694772720337e-01 1.751632392406463623e-01 2.524342834949493408e-01 5.716455727815628052e-02 -2.409984767436981201e-01 2.970722317695617676e-01 -7.615280896425247192e-02 9.846185892820358276e-02 -2.019603997468948364e-01 1.301921438425779343e-02 7.801736146211624146e-02 -3.078071400523185730e-02 -1.351133882999420166e-01 1.623895019292831421e-01 -1.579445451498031616e-01 -1.473428457975387573e-01 -6.020434945821762085e-02 2.499839067459106445e-01 1.893072426319122314e-01 7.256735116243362427e-02 -2.208451628684997559e-01 2.156163156032562256e-01 -1.129972282797098160e-02 1.892867237329483032e-01 2.604474127292633057e-01 3.011871576309204102e-01 2.411186546087265015e-01 -4.874400794506072998e-02 5.550492182374000549e-02 -2.928678989410400391e-01 5.743522569537162781e-02 -1.698276698589324951e-01 -2.996056079864501953e-01 2.632813453674316406e-01 2.580086588859558105e-01 -3.945728391408920288e-02 1.737793162465095520e-02 1.105709001421928406e-01 -1.358022838830947876e-01 1.219936385750770569e-01 -1.955180056393146515e-02 1.046713963150978088e-01 -3.159667849540710449e-01
2.279675006866455078e-02 1.919179107062518597e-03 -8.313467353582382202e-02 -1.593439280986785889e-01 3.045879602432250977e-01 -1.148435622453689575e-01 2.493944615125656128e-01 1.146325170993804932e-01 1.510254889726638794e-01 1.584232002496719360e-01 -2.289274483919143677e-01 3.120546638965606689e-01 1.210821047425270081e-01 -3.504154086112976074e-01 -1.271578222513198853e-01 4.383414238691329956e-02 -3.136539831757545471e-02 -1.088216751813888550e-01 1.341089755296707153e-01 3.262091577053070068e-01 -3.892112374305725098e-01 -2.238515019416809082e-01 1.773667633533477783e-01 1.600113064050674438e-01 -1.292194277048110962e-01 -7.400138676166534424e-02 3.715300858020782471e-01 -2.222507596015930176e-01 -8.058308809995651245e-02 -2.709103524684906006e-01 2.024480253458023071e-01 7.309519499540328979e-02 1.871538609266281128e-01 1.392371058464050293e-01 3.255122303962707520e-01 2.494148761034011841e-01 2.631246447563171387e-01 -3.359633684158325195e-01 -4.722142964601516724e-02 7.569348067045211792e-02 -3.255243003368377686e-01 -6.840901076793670654e-02 -9.920150786638259888e-02 -1.774803251028060913e-01 2.037676274776458740e-01 4.272545129060745239e-02 6.906384974718093872e-02 -2.112203091382980347e-02 1.930973082780838013e-01 1.219872683286666870e-01 -1.699497550725936890e-01 -1.343917399644851685e-01 -1.700823754072189331e-01 3.084732592105865479e-01 2.436673790216445923e-01 1.850152015686035156e-01 8.503375202417373657e-02 -1.029772162437438965e-01 8.062005043029785156e-02 -3.429588079452514648e-01
-2.094918787479400635e-01 -1.694566905498504639e-01 -6.080143153667449951e-02 -4.845281317830085754e-02 2.270030379295349121e-01 1.766776740550994873e-01 1.687624752521514893e-01 1.416416466236114502e-01 -2.912928722798824310e-02 1.040847003459930420e-01 -7.448751479387283325e-02 5.569499731063842773e-02 2.624965310096740723e-01 8.596128225326538086e-02 1.626754999160766602e-01 -3.199167251586914062e-01 -1.986601501703262329e-01 1.330538392066955566e-01 2.223513424396514893e-01 -4.498444497585296631e-02 -1.745602339506149292e-01 -9.732110425829887390e-03 3.697791993618011475e-01 6.256314367055892944e-02 -3.726476058363914490e-02 7.667481433600187302e-03 -1.907517313957214355e-01 3.286629021167755127e-01 -2.702138423919677734e-01 1.988368667662143707e-02 2.329874038696289062e-01 -1.987898200750350952e-01 -1.968391239643096924e-01 3.514176234602928162e-02 7.397115975618362427e-02 2.016438394784927368e-01 -5.803884193301200867e-02 1.781291663646697998e-01 8.239477127790451050e-02 -2.963629066944122314e-01 -1.019778326153755188e-01 -1.734346449375152588e-01 -1.879494488239288330e-01 -2.205565124750137329e-01 -3.230785131454467773e-01 8.955414593219757080e-02 -2.115222066640853882e-01 3.735570013523101807e-01 1.107260584831237793e-03 -5.317961797118186951e-02 -1.397042348980903625e-02 8.226565271615982056e-02 3.402608036994934082e-01 -6.640968471765518188e-02 -2.966872155666351318e-01 2.995638847351074219e-01 -3.201654925942420959e-02 -9.710799902677536011e-02 -3.592815995216369629e-02 -2.281558215618133545e-01
-2.743283286690711975e-02 -1.271211653947830200e-01 -1.930667161941528320e-01 -1.643004715442657471e-01 -3.515323102474212646e-01 4.384784400463104248e-02 -1.059307903051376343e-01 1.384535338729619980e-02 1.796847209334373474e-02 1.846375167369842529e-01 -1.421188265085220337e-01 -2.924966514110565186e-01 9.451833367347717285e-02 -2.151262909173965454e-01 -3.163616061210632324e-01 -1.100970730185508728e-01 -6.070940196514129639e-02 -4.419116303324699402e-02 -5.178270116448402405e-02 -1.133188754320144653e-01 1.737668067216873169e-01 -5.977375805377960205e-02 -9.733599424362182617e-02 8.974502980709075928e-02 3.319214582443237305e-01 8.907211571931838989e-02 3.843377530574798584e-01 -4.593661800026893616e-02 3.763192892074584961e-01 1.630267053842544556e-01 -7.667029649019241333e-02 9.366837888956069946e-02 3.185481727123260498e-01 1.673175096511840820e-01 4.447911977767944336e-01 -8.867330104112625122e-02 1.911598891019821167e-01 -2.806707052513957024e-04 1.392377018928527832e-01 1.665631979703903198e-01 5.758823826909065247e-02 2.683433592319488525e-01 7.188921421766281128e-02 3.815142670646309853e-03 -2.929321229457855225e-01 7.273507863283157349e-02 2.437920719385147095e-01 -4.455702751874923706e-02 7.431246340274810791e-02 1.306432336568832397e-01 1.221967637538909912e-01 9.804780595004558563e-03 -1.392185539007186890e-01 3.612827509641647339e-02 -3.471045196056365967e-01 5.444950982928276062e-02 9.570171125233173370e-03 -2.926275432109832764e-01 2.244900725781917572e-02 -1.416189875453710556e-02
-1.108436584472656250e-01 1.901309937238693237e-01 5.564122274518013000e-02 -1.882778555154800415e-01 1.101395413279533386e-01 -1.221347525715827942e-01 2.350656986236572266e-01 9.589887410402297974e-02 6.752874702215194702e-02 -4.846182093024253845e-02 -2.819667756557464600e-01 3.176757991313934326e-01 1.724109798669815063e-01 7.233648747205734253e-02 -1.138684526085853577e-01 2.037013918161392212e-01 5.468851327896118164e-02 3.641118109226226807e-02 -6.039065867662429810e-02 -1.003339886665344238e-01 -6.118226423859596252e-02 1.564072370529174805e-01 6.396886426955461502e-03 2.931264936923980713e-01 -2.983916401863098145e-01 -1.857547163963317871e-01 -8.385974913835525513e-02 9.651636332273483276e-02 -2.587412893772125244e-01 -3.112418344244360924e-03 1.639789491891860962e-01 -3.167425096035003662e-02 -1.683937460184097290e-01 1.416069716215133667e-01 1.382600665092468262e-01 3.508146107196807861e-01 1.915191672742366791e-02 2.803412973880767822e-01 -1.713232696056365967e-01 -3.241836428642272949e-01 2.782741189002990723e-01 -1.194503381848335266e-01 -8.718496561050415039e-02 2.215778268873691559e-02 1.405344251543283463e-02 -3.709086403250694275e-02 -1.308733522891998291e-01 -2.520895600318908691e-01 -5.703119188547134399e-02 3.037714660167694092e-01 2.089245766401290894e-01 1.634674370288848877e-01 -1.908757835626602173e-01 1.019739136099815369e-01 -2.871831953525543213e-01 7.875688606873154640e-04 1.803056299686431885e-01 -7.769589312374591827e-03 1.198183670639991760e-01 3.919602632522583008e-01
1.170237138867378235e-01 -1.810199022293090820e-01 1.390186697244644165e-01 -1.213719993829727173e-01 1.694776713848114014e-01 -7.393643260002136230e-02 -6.547255814075469971e-02 -2.497090026736259460e-02 8.737200498580932617e-02 3.909956812858581543e-01 -1.239777356386184692e-01 -3.394977152347564697e-01 2.828654944896697998e-01 5.961270257830619812e-02 -3.634068071842193604e-01 3.441916406154632568e-01 1.696559339761734009e-01 1.017301976680755615e-01 2.683584392070770264e-01 1.925314217805862427e-01 -9.731397777795791626e-02 -7.402773201465606689e-02 1.029768437147140503e-01 -2.422573789954185486e-02 -3.359368145465850830e-01 1.771892458200454712e-01 -1.684710979461669922e-01 2.731434814631938934e-02 1.216651350259780884e-01 -5.330015718936920166e-02 3.809362649917602539e-01 -1.838096790015697479e-02 -1.184749975800514221e-01 2.375052310526371002e-02 1.672548353672027588e-01 3.081620633602142334e-01 7.330038398504257202e-02 1.479276120662689209e-01 7.500551640987396240e-02 -2.865711599588394165e-02 -2.531985342502593994e-01 -1.039500460028648376e-01 1.677502244710922241e-01 -2.304157912731170654e-01 1.828994974493980408e-02 -2.734994143247604370e-02 2.021144479513168335e-01 -1.311352849006652832e-01 -2.994804643094539642e-02 2.455446310341358185e-02 -1.342591345310211182e-01 1.492858231067657471e-01 2.028572000563144684e-02 1.184372454881668091e-01 7.263868302106857300e-02 2.244750559329986572e-01 -1.742247492074966431e-01 -2.439728975296020508e-01 2.011480182409286499e-02 -1.914128810167312622e-01
-1.068159714341163635e-01 -9.126876294612884521e-02 -1.771968044340610504e-02 1.377308964729309082e-01 7.941876351833343506e-02 -1.497482135891914368e-02 -4.089238643646240234e-01 -1.141935735940933228e-01 -1.538857668638229370e-01 8.401373773813247681e-02 -2.839289605617523193e-01 4.264608398079872131e-02 1.492258757352828979e-01 1.818678081035614014e-01 1.600548923015594482e-01 1.159263700246810913e-01 -2.119734436273574829e-01 2.920103371143341064e-01 1.863192580640316010e-02 1.359848082065582275e-01 -4.218265414237976074e-02 3.016597032546997070e-01 7.731684297323226929e-02 5.324887111783027649e-03 2.023946642875671387e-01 -2.569763958454132080e-01 7.334279268980026245e-02 -7.303126156330108643e-02 2.961276769638061523e-01 -3.269391655921936035e-01 -2.898293137550354004e-01 2.112988978624343872e-01 8.265370875597000122e-02 2.420219331979751587e-01 2.387507557868957520e-01 1.625155210494995117e-01 -4.675392527133226395e-03 -7.801282685250043869e-03 1.008431911468505859e-01 1.426532864570617676e-01 -3.087344765663146973e-01 -2.995128333568572998e-01 3.487076461315155029e-01 1.102388836443424225e-02 -9.844380617141723633e-02 4.519926849752664566e-03 -4.594904929399490356e-02 1.352808028459548950e-01 1.283586621284484863e-01 6.825967878103256226e-02 -2.609829604625701904e-01 -3.513260185718536377e-01 -2.271407693624496460e-01 -3.323356211185455322e-01 -1.312830895185470581e-01 2.941249012947082520e-01 -3.989518806338310242e-02 -6.423049420118331909e-02 1.296458095312118530e-01 2.888487093150615692e-02
5.232610180974006653e-02 -2.301000654697418213e-01 -2.051860243082046509e-01 -1.265106946229934692e-01 -1.875447332859039307e-01 -7.104028761386871338e-02 5.412092804908752441e-02 2.159563601016998291e-01 -1.653921157121658325e-01 1.848259270191192627e-01 -2.277730703353881836e-01 3.023812174797058105e-01 2.902719974517822266e-01 3.297570049762725830e-01 3.442395627498626709e-01 1.305018812417984009e-01 -3.549724519252777100e-01 1.878649443387985229e-01 -6.494725495576858521e-02 1.159650553017854691e-02 -2.347438484430313110e-01 1.614539474248886108e-01 3.815636038780212402e-02 -1.340706646442413330e-01 1.889043599367141724e-01 2.776505649089813232e-01 2.153165787458419800e-01 1.081403940916061401e-01 -3.429284319281578064e-02 3.557209372520446777e-01 2.592849312350153923e-03 -6.017952784895896912e-02 3.378542363643646240e-01 -2.022248692810535431e-02 3.464013338088989258e-01 3.506037639454007149e-03 -1.515168398618698120e-01 1.866075694561004639e-01 1.930690407752990723e-01 -1.437210142612457275e-01 -1.039556711912155151e-01 2.108089178800582886e-01 -1.031519994139671326e-01 -2.030077278614044189e-01 -3.512849286198616028e-02 2.563011050224304199e-01 -3.264174610376358032e-02 1.100063025951385498e-01 -1.247438192367553711e-01 2.798676304519176483e-02 1.184232532978057861e-01 -2.011920809745788574e-01 2.876218557357788086e-01 -2.960383892059326172e-01 6.779455393552780151e-02 6.692288815975189209e-02 -8.731168508529663086e-02 -1.430262476205825806e-01 5.719201266765594482e-02 3.594129979610443115e-01
5.726126953959465027e-02 3.732814267277717590e-02 -4.577213525772094727e-01 4.658187925815582275e-02 -7.201749831438064575e-02 -2.554995715618133545e-01 -1.673773229122161865e-01 3.582880496978759766e-01 -2.702282667160034180e-01 1.183048039674758911e-01 2.127830684185028076e-01 -3.983145207166671753e-02 3.671529293060302734e-01 2.081522345542907715e-01 1.081694141030311584e-01 2.758385539054870605e-01 -5.972037836909294128e-02 -2.094019949436187744e-01 -1.487440895289182663e-02 6.625706795603036880e-03 3.004337660968303680e-02 1.835224181413650513e-01 1.404416561126708984e-01 -1.168939024209976196e-01 6.881857663393020630e-02 7.232291251420974731e-02 -2.269624322652816772e-01 -5.866321269422769547e-03 -4.377045631408691406e-01 1.456242948770523071e-01 3.641997277736663818e-02 3.352950885891914368e-02 1.553505361080169678e-01 3.849415481090545654e-02 3.590294122695922852e-01 2.081713378429412842e-01 -3.415331710129976273e-03 -3.654976785182952881e-01 -1.277000308036804199e-01 -3.168309107422828674e-02 -3.347181901335716248e-02 9.036713093519210815e-02 3.452633321285247803e-01 -7.279635220766067505e-02 8.989844471216201782e-02 1.126866340637207031e-01 -4.009110480546951294e-02 -1.008570343255996704e-01 2.405253052711486816e-01 1.410253196954727173e-01 -2.236366271972656250e-01 -5.071160942316055298e-02 -1.677027940750122070e-01 4.383957982063293457e-01 -1.091210078448057175e-02 3.003106415271759033e-01 2.633831202983856201e-01 2.915237657725811005e-02 1.300441175699234009e-01 6.351740658283233643e-02
1.704564094543457031e-01 5.793244391679763794e-02 3.373719379305839539e-02 -1.899201720952987671e-01 -2.207620590925216675e-01 1.205847337841987610e-01 2.420320361852645874e-01 6.739723612554371357e-04 1.197914704680442810e-01 -1.553221512585878372e-02 1.142052486538887024e-01 -6.071535497903823853e-02 -1.910139173269271851e-01 -1.243434548377990723e-01 2.068572938442230225e-01 2.476680427789688110e-01 7.363247126340866089e-02 -1.827910691499710083e-01 2.604217827320098877e-01 -1.152023002505302429e-01 -2.968811094760894775e-01 -2.009396702051162720e-01 7.308507710695266724e-02 1.276680640876293182e-02 2.036705911159515381e-01 6.699323654174804688e-02 2.376248501241207123e-02 -2.414651215076446533e-02 1.775870025157928467e-01 1.392209380865097046e-01 -2.374751120805740356e-02 -6.199929863214492798e-02 -7.120668143033981323e-02 5.530250072479248047e-02 1.499276608228683472e-02 -6.395369023084640503e-02 -4.101122543215751648e-02 1.064624935388565063e-01 2.932089567184448242e-01 -2.057186067104339600e-01 -1.627326570451259613e-02 1.727046966552734375e-01 1.079038232564926147e-01 7.616304606199264526e-02 -2.247655093669891357e-01 -2.758252434432506561e-02 1.090568155050277710e-01 3.041446805000305176e-01 1.620548963546752930e-01 1.956843286752700806e-01 -2.875365316867828369e-01 1.703977882862091064e-01 1.034297123551368713e-01 2.012284696102142334e-01 2.647287547588348389e-01 -4.196020066738128662e-01 1.876110136508941650e-01 1.364102065563201904e-01 2.179597169160842896e-01 3.449922204017639160e-01
-7.019400596618652344e-02 1.205656230449676514e-01 -8.840654790401458740e-02 -1.302398741245269775e-01 -2.442583069205284119e-02 -3.013717234134674072e-01 1.832741200923919678e-01 6.884098798036575317e-02 5.478334426879882812e-02 8.595459163188934326e-02 -2.240512706339359283e-02 2.486629635095596313e-01 -2.260451614856719971e-01 3.042641561478376389e-03 1.568556576967239380e-01 -7.092029601335525513e-02 -2.412808686494827271e-01 -4.087980985641479492e-01 -1.021670028567314148e-01 -1.127190664410591125e-01 -4.040340706706047058e-02 2.256040871143341064e-01 -6.381138414144515991e-02 1.731435069814324379e-03 3.966150432825088501e-02 -2.647064439952373505e-02 2.166274376213550568e-02 -1.593897044658660889e-01 -1.114856824278831482e-01 -1.088261678814888000e-01 -1.866636127233505249e-01 1.612263619899749756e-01 -1.176078990101814270e-01 3.900257870554924011e-02 1.831780076026916504e-01 -2.217791527509689331e-01 8.920663595199584961e-02 -1.662333458662033081e-01 -3.129116892814636230e-01 1.265391986817121506e-02 -2.260692790150642395e-02 -6.527838110923767090e-02 -2.113693207502365112e-01 -1.781986840069293976e-02 -2.397754341363906860e-01 1.942864209413528442e-01 -2.149832434952259064e-02 8.412126451730728149e-02 1.433530747890472412e-01 5.052274465560913086e-02 -3.159130513668060303e-01 -3.398078083992004395e-01 -2.018873579800128937e-02 1.273419708013534546e-01 -2.837124168872833252e-01 7.546222954988479614e-02 -1.240864098072052002e-01 -6.523045897483825684e-02 -2.966761775314807892e-02 -2.687532603740692139e-01
-7.645512372255325317e-02 -8.828728646039962769e-02 4.782265750691294670e-04 1.932929903268814087e-01 1.417621225118637085e-01 -1.480796188116073608e-01 4.323793649673461914e-01 -7.206737995147705078e-02 -1.650825440883636475e-01 1.949952840805053711e-01 1.563998758792877197e-01 1.050750836730003357e-01 2.480242103338241577e-01 2.393949329853057861e-01 1.097570285201072693e-01 1.291443407535552979e-01 -3.380809724330902100e-02 1.398791223764419556e-01 -1.739182919263839722e-01 -2.750587165355682373e-01 -2.436374872922897339e-01 1.494711935520172119e-01 -2.000103332102298737e-02 4.847054183483123779e-02 1.469423621892929077e-01 -5.507840961217880249e-02 2.382984012365341187e-01 4.918234795331954956e-02 -1.101400554180145264e-01 1.474745869636535645e-01 -1.062134057283401489e-01 1.327244043350219727e-01 -9.537242352962493896e-02 -1.549231708049774170e-01 -1.523948907852172852e-01 9.048278629779815674e-02 -1.777886301279067993e-01 1.682945489883422852e-01 -1.362337172031402588e-01 -3.708077669143676758e-01 -1.178733631968498230e-01 4.526921082288026810e-03 4.596250876784324646e-02 1.380346417427062988e-01 2.591274082660675049e-01 3.433034941554069519e-02 -6.439702212810516357e-02 -1.848988421261310577e-02 -6.106612831354141235e-02 -1.951894611120223999e-01 1.142194867134094238e-01 -6.301986426115036011e-02 2.058645337820053101e-01 2.734636664390563965e-01 -3.087083101272583008e-01 -2.016153931617736816e-01 6.091035902500152588e-03 -4.231823980808258057e-01 4.477060586214065552e-02 1.403916478157043457e-01
-1.140886079519987106e-02 -6.771930307149887085e-02 -4.106927216053009033e-01 -2.516224235296249390e-02 2.204187810420989990e-01 -2.045680582523345947e-01 1.043720319867134094e-01 8.976071327924728394e-02 1.586726903915405273e-01 -1.840253919363021851e-02 -5.799322575330734253e-02 1.628938168287277222e-01 -9.607773274183273315e-03 1.868156641721725464e-01 1.017262935638427734e-01 9.810853004455566406e-02 5.413407925516366959e-03 -3.671889305114746094e-01 -3.630295693874359131e-01 -1.367682870477437973e-02 -1.474998742341995239e-01 -1.880583763122558594e-01 3.887149393558502197e-01 -4.695671051740646362e-02 -2.482375949621200562e-01 1.301488280296325684e-01 5.555818602442741394e-02 -1.223817020654678345e-01 2.804496884346008301e-01 -8.974505588412284851e-03 -1.760435104370117188e-01 2.912011444568634033e-01 1.952908039093017578e-01 2.850518822669982910e-01 2.622319161891937256e-01 -2.007626555860042572e-02 -1.551245152950286865e-01 2.802079617977142334e-01 6.290759891271591187e-02 1.349918544292449951e-01 -1.487147659063339233e-01 1.880022324621677399e-02 2.897605858743190765e-02 -1.030484307557344437e-02 -2.304701805114746094e-01 -1.536473333835601807e-01 -7.253283262252807617e-02 1.260459721088409424e-01 -1.261703521013259888e-01 1.090793833136558533e-01 4.304562509059906006e-02 2.248575687408447266e-01 -3.306832537055015564e-02 3.519809246063232422e-01 5.917277932167053223e-02 3.454082086682319641e-02 3.113605976104736328e-01 -7.791818119585514069e-03 -1.550117582082748413e-01 -2.964169085025787354e-01
2.803076989948749542e-02 4.478872567415237427e-02 1.809723675251007080e-01 -1.981618553400039673e-01 3.151995688676834106e-02 -3.408257663249969482e-02 -1.602168977260589600e-01 4.205140843987464905e-02 1.503236144781112671e-01 -1.767360568046569824e-01 -9.846135973930358887e-02 1.154247894883155823e-01 2.614566311240196228e-02 1.250796169042587280e-01 6.179034337401390076e-02 9.980630129575729370e-02 -9.985193610191345215e-02 2.110900133848190308e-01 1.665752977132797241e-01 3.994381055235862732e-02 8.772754110395908356e-03 2.501393854618072510e-01 -1.608289480209350586e-01 -6.682679057121276855e-02 -2.347326725721359253e-01 3.022684156894683838e-01 -1.083957701921463013e-01 -1.977379173040390015e-01 -2.280344069004058838e-01 -3.088834055233746767e-04 -3.016800582408905029e-01 -2.841344475746154785e-01 -6.220589950680732727e-02 2.763638794422149658e-01 -4.119345247745513916e-01 -6.774653494358062744e-02 -3.255754113197326660e-01 1.430898828402860090e-05 1.748287230730056763e-01 2.968877553939819336e-03 1.862375885248184204e-01 -6.613229960203170776e-02 1.238252222537994385e-01 -3.519310429692268372e-02 1.373823285102844238e-01 -1.070015281438827515e-01 -7.277234643697738647e-02 -1.797439604997634888e-01 3.645150735974311829e-02 2.287281304597854614e-01 -2.103515863418579102e-01 -7.546975463628768921e-02 -2.575285434722900391e-01 -6.745939701795578003e-02 -1.003008522093296051e-02 -1.478762477636337280e-01 -2.145591676235198975e-01 1.462422776967287064e-02 -1.889326423406600952e-02 5.018890649080276489e-02
1.329156607389450073e-01 -1.521766930818557739e-01 9.352370165288448334e-03 -4.599700216203927994e-03 -1.885498315095901489e-01 6.538512557744979858e-02 1.989081315696239471e-02 8.972744643688201904e-02 1.425581518560647964e-02 -6.597010046243667603e-02 -6.562542170286178589e-02 -3.924963995814323425e-02 2.640138864517211914e-01 1.861752420663833618e-01 4.939738661050796509e-02 2.870223522186279297e-01 1.958076655864715576e-01 -1.032426878809928894e-01 1.092470362782478333e-01 -9.498608112335205078e-02 -1.203994825482368469e-01 -1.123190075159072876e-01 -1.108445525169372559e-01 7.618775963783264160e-02 -1.580955386161804199e-01 -1.251606196165084839e-01 2.697782963514328003e-02 1.470973938703536987e-01 5.749144032597541809e-02 -1.769450306892395020e-01 -2.077626064419746399e-02 1.306003183126449585e-01 4.895225167274475098e-02 -4.633980989456176758e-02 -1.710279285907745361e-02 -1.205111816525459290e-01 -3.425837457180023193e-01 1.137087345123291016e-01 1.436374932527542114e-01 2.774667441844940186e-01 4.339933022856712341e-02 2.682524919509887695e-01 3.875897824764251709e-02 -3.866069763898849487e-02 1.105082854628562927e-01 -4.210344329476356506e-02 -8.115544915199279785e-02 -3.390627503395080566e-01 -7.043879479169845581e-02 9.565740823745727539e-02 -1.081160828471183777e-01 -3.017584383487701416e-01 2.857605367898941040e-02 -8.424418047070503235e-03 -2.443008273839950562e-01 3.119221031665802002e-01 1.574433147907257080e-01 -2.462642639875411987e-01 1.256607025861740112e-01 2.065808922052383423e-01
2.505432814359664917e-02 -1.712832450866699219e-01 3.318012058734893799e-01 2.867129445075988770e-01 5.633309017866849899e-03 -4.004628863185644150e-03 9.280835837125778198e-02 3.222296712920069695e-03 2.157416939735412598e-01 2.234150022268295288e-01 -2.189489006996154785e-01 -1.066732406616210938e-01 4.723152518272399902e-01 6.657125055789947510e-02 2.487530373036861420e-02 1.170302629470825195e-01 -7.695632986724376678e-03 1.750912219285964966e-01 1.611340194940567017e-01 -1.378675699234008789e-01 3.676875233650207520e-01 -3.683265298604965210e-02 1.253239661455154419e-01 7.216225564479827881e-02 -1.978100277483463287e-02 2.368346005678176880e-01 5.914644803851842880e-03 -2.441806048154830933e-01 -9.772462397813796997e-02 -4.030160233378410339e-02 9.958817809820175171e-02 -3.117942214012145996e-01 8.559421449899673462e-02 -8.957041800022125244e-02 -2.334283441305160522e-01 1.494225114583969116e-01 -1.754592657089233398e-01 4.945985227823257446e-02 -2.283798903226852417e-02 -1.630431860685348511e-01 -2.118947505950927734e-01 2.245896607637405396e-01 -1.742838323116302490e-02 -4.734078347682952881e-01 -6.502486765384674072e-02 2.038011103868484497e-01 3.679524958133697510e-01 -1.978638768196105957e-01 -1.028873324394226074e-01 4.120552167296409607e-02 -1.803710013628005981e-01 -9.540369501337409019e-04 2.278210222721099854e-01 1.527533493936061859e-02 -1.449471265077590942e-01 -1.705274730920791626e-01 -7.003781851381063461e-03 -3.879113867878913879e-02 -1.491468399763107300e-01 -7.892330177128314972e-03
-1.082016676664352417e-01 -4.477746412158012390e-02 -2.359852790832519531e-01 4.430489614605903625e-02 2.301909178495407104e-01 -2.291897982358932495e-01 -1.989928781986236572e-01 -1.424753069877624512e-01 -1.865143626928329468e-01 -2.345411805436015129e-03 -4.019708558917045593e-02 9.489937871694564819e-02 2.955482602119445801e-01 1.819859445095062256e-01 -2.329855598509311676e-02 -6.324497610330581665e-02 -6.747288256883621216e-02 -3.100813031196594238e-01 1.467133760452270508e-01 -1.731275022029876709e-01 4.106020182371139526e-02 -1.083094067871570587e-02 1.651312112808227539e-01 -8.384118229150772095e-02 1.382223069667816162e-01 4.648866876959800720e-02 -3.668874502182006836e-02 -1.942125707864761353e-01 -2.124992161989212036e-01 4.640101641416549683e-02 1.173715852200984955e-02 -9.384410828351974487e-02 2.979324199259281158e-02 -6.874524988234043121e-04 2.558185756206512451e-01 -1.889561489224433899e-02 -1.417709439992904663e-01 -1.695967465639114380e-01 1.537964940071105957e-01 1.352094262838363647e-01 -1.986822485923767090e-01 -3.864941298961639404e-01 3.359788656234741211e-02 1.181636452674865723e-01 -1.827954649925231934e-01 1.265163421630859375e-01 -1.009741649031639099e-01 -5.321897938847541809e-02 8.036844432353973389e-03 -1.277772188186645508e-01 2.041859477758407593e-01 1.018266454339027405e-01 -3.504000604152679443e-02 2.978159859776496887e-02 -3.162913918495178223e-01 2.341902703046798706e-01 1.062315478920936584e-01 -2.501052021980285645e-01 -2.757250964641571045e-01 -6.031096726655960083e-02
1.829314231872558594e-01 2.917934767901897430e-02 2.596069872379302979e-01 2.464153617620468140e-01 -2.793116569519042969e-01 -2.350559681653976440e-01 1.091454103589057922e-01 -1.810335516929626465e-01 -2.922111563384532928e-02 1.536254435777664185e-01 4.726969823241233826e-02 1.283273249864578247e-01 -2.513627707958221436e-01 3.920293599367141724e-02 3.403354883193969727e-01 3.894377946853637695e-01 3.470747917890548706e-02 1.391971707344055176e-01 -2.095320671796798706e-01 1.285633146762847900e-01 1.093776077032089233e-01 1.964010149240493774e-01 5.699580162763595581e-02 1.192458942532539368e-01 1.702045202255249023e-01 -1.257279664278030396e-01 9.222140908241271973e-02 -3.500168919563293457e-01 2.568521201610565186e-01 3.419260680675506592e-01 1.897849701344966888e-02 -1.150292009115219116e-01 -1.061433628201484680e-01 1.670830994844436646e-01 3.195667266845703125e-02 -3.282535076141357422e-02 7.262217253446578979e-02 -3.284620353952050209e-03 1.905146986246109009e-01 -4.113869275897741318e-03 -2.209039172157645226e-03 1.998906582593917847e-01 -9.700369089841842651e-03 -1.209635958075523376e-01 -3.055218756198883057e-01 4.305687546730041504e-02 -1.621372103691101074e-01 -6.920805573463439941e-02 3.879891037940979004e-01 3.610940277576446533e-01 7.470028847455978394e-02 3.766783699393272400e-02 3.053205311298370361e-01 -1.751728653907775879e-01 -3.687364459037780762e-01 -3.848811089992523193e-01 -1.810448169708251953e-01 -5.735800415277481079e-02 1.683806031942367554e-01 1.309277862310409546e-01
-1.187844127416610718e-01 -3.109162449836730957e-01 -2.276227474212646484e-01 1.813694387674331665e-01 -5.591759085655212402e-02 -3.383816033601760864e-02 1.302536576986312866e-01 -6.310550868511199951e-02 -5.139713361859321594e-02 3.721709549427032471e-02 -2.255364358425140381e-01 -7.198993861675262451e-02 6.726131588220596313e-02 -1.264886409044265747e-01 -7.807788997888565063e-02 -1.273999363183975220e-01 4.836082756519317627e-01 9.423350915312767029e-03 -1.804146021604537964e-01 1.158638000488281250e-01 -3.046024590730667114e-02 -1.450598239898681641e-02 1.437231600284576416e-01 6.511127948760986328e-02 1.563835740089416504e-01 2.254728693515062332e-03 6.090604513883590698e-02 -9.148281812667846680e-02 1.829051412642002106e-02 -7.136157155036926270e-02 1.508658528327941895e-01 -2.654075026512145996e-01 1.310720387846231461e-02 2.110198587179183960e-01 4.505443274974822998e-01 3.127750456333160400e-01 -5.304868333041667938e-03 2.621403932571411133e-01 2.426714748144149780e-01 -6.544362753629684448e-02 -3.191027939319610596e-01 -1.482214182615280151e-01 5.354474298655986786e-03 9.165978431701660156e-02 2.416677325963973999e-01 7.910972461104393005e-03 5.156001076102256775e-02 -1.694192886352539062e-01 -7.095835357904434204e-02 4.091857932507991791e-03 4.061504602432250977e-01 7.628176361322402954e-03 1.816683448851108551e-02 5.397210642695426941e-02 -5.901965778321027756e-04 3.516646921634674072e-01 -3.138671070337295532e-02 1.163363754749298096e-01 8.124772459268569946e-02 -1.398147549480199814e-02
-1.253096610307693481e-01 -2.034115046262741089e-01 7.656074315309524536e-02 3.612874150276184082e-01 -5.140972789376974106e-03 -8.304209262132644653e-02 -3.806871175765991211e-01 2.726083621382713318e-02 -2.300130762159824371e-02 1.114424169063568115e-01 -8.104014396667480469e-02 2.131214365363121033e-02 -2.377977371215820312e-01 -6.639979034662246704e-02 2.284189611673355103e-01 9.441658109426498413e-02 -1.173778101801872253e-01 4.635019972920417786e-02 -3.566271066665649414e-01 -5.277946218848228455e-02 2.551145851612091064e-01 -1.718475222587585449e-01 9.272945672273635864e-02 -1.751623898744583130e-01 2.081984579563140869e-01 3.562407493591308594e-01 -2.342548221349716187e-01 -2.753075957298278809e-01 -2.752861082553863525e-01 -1.315412968397140503e-01 1.389106214046478271e-01 9.616389870643615723e-02 -6.028741132467985153e-03 -2.735018432140350342e-01 3.002672223374247551e-03 -6.446610391139984131e-02 6.480360031127929688e-02 1.883404701948165894e-01 -9.885368496179580688e-02 6.389888375997543335e-02 9.121922403573989868e-02 -5.727469548583030701e-02 -5.628039687871932983e-02 1.698087304830551147e-01 2.532069683074951172e-01 6.953976303339004517e-02 -2.851623594760894775e-01 -1.814281642436981201e-01 -2.548368871212005615e-01 -1.942164078354835510e-02 4.751192778348922729e-02 -2.443802542984485626e-02 -9.526724368333816528e-02 -4.495669901371002197e-02 9.956943988800048828e-02 -3.296803683042526245e-02 -4.569797590374946594e-02 9.559948742389678955e-02 -1.401599347591400146e-01 -6.757707893848419189e-02
-1.342464089393615723e-01 -1.707419194281101227e-02 -3.247145414352416992e-01 -6.905863434076309204e-02 -1.613134741783142090e-01 2.726905345916748047e-01 -1.016753911972045898e-01 -3.064737617969512939e-01 1.891405284404754639e-01 3.956095781177282333e-03 3.419290855526924133e-02 -1.058408394455909729e-01 -2.502186894416809082e-01 1.149815097451210022e-01 2.319086790084838867e-01 -1.195417344570159912e-01 -4.045431017875671387e-01 1.994591653347015381e-01 -1.963695883750915527e-01 -6.122703105211257935e-02 6.937853246927261353e-02 -1.920049637556076050e-01 1.790330111980438232e-01 -1.255819648504257202e-01 1.681649982929229736e-01 5.507717281579971313e-02 -1.937853991985321045e-01 -1.607892662286758423e-01 1.606089323759078979e-01 -6.635545194149017334e-02 -2.591394484043121338e-01 -1.377358585596084595e-01 -6.345230340957641602e-02 -2.103000432252883911e-01 5.378125235438346863e-02 1.339657157659530640e-01 -6.745953112840652466e-02 -2.363213002681732178e-01 -1.285802274942398071e-01 -9.552738629281520844e-03 2.958570718765258789e-01 -1.047433540225028992e-02 2.439281046390533447e-01 1.669176369905471802e-01 -1.357763558626174927e-01 -1.731875538825988770e-01 -1.551419198513031006e-01 2.272447347640991211e-01 1.205301731824874878e-01 -2.644008398056030273e-01 -4.987313225865364075e-02 -3.010803163051605225e-01 -3.880594968795776367e-01 1.678653433918952942e-02 7.716330140829086304e-02 6.028127670288085938e-02 3.536818921566009521e-01 5.881805345416069031e-02 1.692906320095062256e-01 -1.560286432504653931e-01
-1.956585347652435303e-01 1.994392573833465576e-01 2.439353242516517639e-02 -2.677578851580619812e-02 1.350638568401336670e-01 -1.389548778533935547e-01 6.236044317483901978e-02 9.229318238794803619e-03 2.749465405941009521e-01 -2.132746577262878418e-01 -7.829213887453079224e-02 1.870113462209701538e-01 -1.188172772526741028e-01 -3.908115997910499573e-02 1.087106168270111084e-01 3.088484406471252441e-01 2.714521586894989014e-01 2.404840588569641113e-01 -2.189265489578247070e-01 -1.494847424328327179e-02 6.299405544996261597e-02 1.364228278398513794e-01 1.958210915327072144e-01 1.465830355882644653e-01 -1.048643961548805237e-01 -2.720206789672374725e-02 -2.037193775177001953e-01 1.321834474802017212e-01 -9.791702777147293091e-02 2.064764797687530518e-01 1.021896600723266602e-01 -1.971705555915832520e-01 -9.661160409450531006e-02 -1.243025660514831543e-01 -9.700775891542434692e-02 -2.162675112485885620e-01 -2.887163683772087097e-02 2.115838695317506790e-03 8.724154531955718994e-02 3.523389101028442383e-01 1.760815531015396118e-01 1.847830042243003845e-02 3.061174787580966949e-02 -1.724778562784194946e-01 -1.625160276889801025e-01 -8.900587260723114014e-02 8.979906141757965088e-02 4.833526164293289185e-02 1.524965763092041016e-01 -1.422982513904571533e-01 3.690607380121946335e-03 5.246021598577499390e-02 1.253183484077453613e-01 4.852737113833427429e-02 3.622667491436004639e-01 5.917390435934066772e-02 -3.158661129418760538e-04 8.736416697502136230e-02 -2.559211850166320801e-01 6.754221022129058838e-02
2.213378399610519409e-01 2.330782823264598846e-02 1.088610589504241943e-01 -1.607272475957870483e-01 1.300699859857559204e-01 -5.363303702324628830e-03 1.973261386156082153e-01 1.122158169746398926e-01 6.477752234786748886e-03 -9.556209295988082886e-02 2.826011478900909424e-01 -1.740197092294692993e-02 5.485758930444717407e-02 2.923265472054481506e-02 1.116312667727470398e-01 -1.023432463407516479e-01 3.658444806933403015e-02 5.334857106208801270e-02 4.102459549903869629e-02 4.674640297889709473e-02 1.714398860931396484e-01 -1.458813995122909546e-01 5.638309568166732788e-02 9.226368367671966553e-02 -1.289678514003753662e-01 -2.369560301303863525e-02 2.514370679855346680e-01 2.783859334886074066e-02 -2.560879588127136230e-01 -2.847983837127685547e-01 1.290025413036346436e-01 -3.285564780235290527e-01 -2.345229834318161011e-01 6.953178346157073975e-02 -3.096586167812347412e-01 8.971547335386276245e-02 -2.188131809234619141e-01 -6.824105978012084961e-02 -1.518998644314706326e-03 2.999382913112640381e-01 -1.736774742603302002e-01 1.358370035886764526e-01 1.696472615003585815e-01 -1.291228681802749634e-01 3.402959704399108887e-01 -4.005013033747673035e-02 2.910707294940948486e-01 1.755878925323486328e-01 1.537674963474273682e-01 8.670741319656372070e-02 -2.811819016933441162e-01 -3.197006285190582275e-01 1.055018678307533264e-01 3.877204656600952148e-01 1.525167375802993774e-01 -9.746801108121871948e-02 -6.378803402185440063e-02 1.560320854187011719e-01 1.895329207181930542e-01 1.470997035503387451e-01
1.496478915214538574e-01 -1.143534108996391296e-01 1.741849929094314575e-01 2.678694725036621094e-01 2.830149531364440918e-01 -4.916435852646827698e-02 9.050539694726467133e-03 -2.409740984439849854e-01 2.109423279762268066e-01 3.060189485549926758e-01 -2.268882095813751221e-01 2.651448845863342285e-01 4.127315580844879150e-01 8.133713155984878540e-02 -3.875836133956909180e-01 4.569269716739654541e-03 -1.204591318964958191e-01 -5.472361668944358826e-02 2.086766064167022705e-01 6.070515606552362442e-03 1.631196886301040649e-01 3.942119181156158447e-01 2.484026253223419189e-01 5.978967621922492981e-02 2.143944799900054932e-01 1.647146791219711304e-01 5.957197397947311401e-02 -7.299998402595520020e-02 -4.490115493535995483e-02 -1.237287968397140503e-01 4.218935966491699219e-01 -1.195172965526580811e-01 -1.266339123249053955e-01 2.941465377807617188e-01 -1.193517260253429413e-02 1.364498138427734375e-01 -3.719631731510162354e-01 1.961717307567596436e-01 1.120665762573480606e-02 -1.458197236061096191e-01 1.639706431888043880e-03 -4.342018812894821167e-02 8.225946128368377686e-02 3.138145431876182556e-02 -1.589254736900329590e-01 2.185231074690818787e-02 1.044329628348350525e-01 -1.907731890678405762e-01 -7.045232504606246948e-02 -8.957716822624206543e-02 -1.843369901180267334e-01 1.757264137268066406e-02 9.994110465049743652e-02 -2.905979566276073456e-02 -2.011467367410659790e-01 -5.551416054368019104e-02 7.334457337856292725e-02 -1.004867404699325562e-01 -8.137516677379608154e-02 1.807111650705337524e-01
4.569892585277557373e-02 5.430210876511409879e-05 6.083208136260509491e-03 -1.111874505877494812e-01 9.482877701520919800e-02 5.149617418646812439e-02 9.419496357440948486e-02 1.898844838142395020e-01 1.625159056857228279e-03 -9.238194907084107399e-04 3.625444695353507996e-02 -3.168479204177856445e-01 1.242986917495727539e-01 -8.494733273983001709e-02 -5.748146027326583862e-02 -6.014382839202880859e-02 1.329391747713088989e-01 7.174307852983474731e-02 -1.324075460433959961e-02 -1.342168003320693970e-01 -1.523024290800094604e-01 -3.313221335411071777e-01 -2.359594553709030151e-01 1.065284609794616699e-01 1.142908185720443726e-01 1.948680579662322998e-01 2.273000478744506836e-01 -2.261153757572174072e-01 4.485958069562911987e-02 -3.917242586612701416e-02 -2.237123399972915649e-01 1.170784384012222290e-01 9.615647606551647186e-03 -3.047312051057815552e-02 1.246992200613021851e-01 7.387602329254150391e-02 -2.957304418087005615e-01 -1.148268813267350197e-03 4.506072774529457092e-02 1.582643240690231323e-01 5.869437754154205322e-02 1.008901894092559814e-01 7.744800299406051636e-02 3.786345124244689941e-01 -9.300966560840606689e-02 3.308540582656860352e-02 -3.544993400573730469e-01 -6.868012249469757080e-02 -2.752603888511657715e-01 -3.308322727680206299e-01 -1.968744844198226929e-01 -1.357567608356475830e-01 2.216534167528152466e-01 -9.314532577991485596e-02 1.310823708772659302e-01 -2.969157993793487549e-01 -1.582685299217700958e-02 6.124511361122131348e-02 1.161846052855253220e-02 -6.708056479692459106e-02
1.322948746383190155e-02 2.110438644886016846e-01 -3.134915232658386230e-01 2.617648839950561523e-01 -2.681166827678680420e-01 2.857911288738250732e-01 -3.567567765712738037e-01 2.413279414176940918e-01 -6.105894222855567932e-02 8.136783540248870850e-02 8.930186182260513306e-02 1.868611872196197510e-01 -1.339223533868789673e-01 -1.603603065013885498e-01 2.205185294151306152e-01 9.599527716636657715e-02 3.383629918098449707e-01 3.079660236835479736e-01 5.651191342622041702e-03 3.215182945132255554e-02 -2.809384167194366455e-01 2.522267997264862061e-01 9.536278247833251953e-02 1.190193593502044678e-01 2.037909626960754395e-01 1.259137690067291260e-01 1.937657892704010010e-01 -1.316053271293640137e-01 3.457749783992767334e-01 -3.411423563957214355e-01 2.800257131457328796e-02 8.690742403268814087e-02 9.116961061954498291e-02 8.500915020704269409e-03 1.797813773155212402e-01 -1.927881389856338501e-01 1.182331666350364685e-01 -2.472927123308181763e-01 9.771932661533355713e-02 2.247583121061325073e-01 6.189708784222602844e-02 8.141830563545227051e-03 -1.172714680433273315e-01 4.951930418610572815e-02 -1.635845452547073364e-01 -1.338488161563873291e-01 -5.963666737079620361e-02 1.722121238708496094e-01 -3.565365672111511230e-01 -2.707889080047607422e-01 2.209066748619079590e-01 5.168572813272476196e-02 3.090573549270629883e-01 -2.727607488632202148e-01 -1.490436494350433350e-01 -6.680367887020111084e-02 1.004372462630271912e-01 3.031822443008422852e-01 5.716114118695259094e-02 1.509665995836257935e-01
-1.763213723897933960e-01 1.095786765217781067e-01 2.646283432841300964e-02 -1.193227991461753845e-01 -9.605517983436584473e-02 2.152964770793914795e-01 5.699797719717025757e-02 3.147495165467262268e-02 1.387815922498703003e-01 7.738918811082839966e-02 -4.469676315784454346e-02 -1.362243443727493286e-01 -3.983820974826812744e-01 1.441124230623245239e-01 1.807595491409301758e-01 -1.690841168165206909e-01 2.761476337909698486e-01 9.929320076480507851e-04 -3.082265257835388184e-01 1.617393195629119873e-01 1.587490290403366089e-01 3.140875995159149170e-01 -9.173320233821868896e-02 -2.015488296747207642e-01 2.828671634197235107e-01 -2.900649979710578918e-02 -2.264763712882995605e-01 -6.410108506679534912e-02 2.131572365760803223e-01 3.669341504573822021e-01 -1.871634274721145630e-02 2.954138517379760742e-01 -5.848551634699106216e-03 1.979881823062896729e-01 -1.348138451576232910e-01 -3.662860095500946045e-01 3.095917105674743652e-01 7.527665048837661743e-02 -7.332952320575714111e-02 5.901555716991424561e-02 1.951926052570343018e-01 8.776207454502582550e-03 2.253074198961257935e-02 2.660937607288360596e-01 6.074642762541770935e-02 -9.541146457195281982e-03 4.746236279606819153e-02 3.137846887111663818e-01 2.813750207424163818e-01 2.274545580148696899e-01 -2.128354609012603760e-01 1.607487201690673828e-01 1.020472869277000427e-01 5.820884555578231812e-02 -1.787725389003753662e-01 2.372952550649642944e-01 -2.407890558242797852e-01 1.654553115367889404e-01 -1.768797487020492554e-01 1.549772322177886963e-01
-3.036864101886749268e-01 -2.336399815976619720e-02 -2.087269276380538940e-01 -7.106158137321472168e-02 1.250767111778259277e-01 -1.083453446626663208e-01 -2.196335047483444214e-01 -1.962143480777740479e-01 -4.542707279324531555e-02 1.382864918559789658e-02 9.048290550708770752e-02 -2.127719856798648834e-02 1.703212559223175049e-01 -1.704948842525482178e-01 -7.173151522874832153e-02 -4.404459521174430847e-02 2.661870419979095459e-01 -2.697571516036987305e-01 1.661451011896133423e-01 -3.041606247425079346e-01 -1.013132371008396149e-02 -1.259858533740043640e-02 -8.741225302219390869e-02 1.144109889864921570e-01 -1.925150156021118164e-01 -5.048541724681854248e-02 1.243001446127891541e-01 -1.081782504916191101e-01 8.354722708463668823e-02 2.452417165040969849e-01 3.237009048461914062e-01 1.567997932434082031e-01 1.111031044274568558e-02 -1.610390692949295044e-01 3.299949467182159424e-01 6.926035135984420776e-02 3.317668735980987549e-01 -2.595407366752624512e-01 -1.744311004877090454e-01 2.809260040521621704e-02 3.294849535450339317e-03 -3.682994246482849121e-01 -2.514525949954986572e-01 -3.828766196966171265e-02 -1.308252215385437012e-01 1.752907037734985352e-01 -5.402303859591484070e-02 4.058627784252166748e-02 3.275765106081962585e-02 -1.997416317462921143e-01 -9.226534515619277954e-02 -1.241875588893890381e-01 -4.365370869636535645e-01 -1.532564908266067505e-01 1.498488336801528931e-01 -3.180476725101470947e-01 1.502722594887018204e-02 -9.647132456302642822e-02 1.755831539630889893e-01 -8.612583577632904053e-02
1.233050674200057983e-01 2.338039316236972809e-02 1.212437674403190613e-01 3.035960495471954346e-01 -1.593770682811737061e-01 6.243637949228286743e-02 -2.336622476577758789e-01 2.005054615437984467e-03 -1.335299611091613770e-01 -5.166879296302795410e-02 8.618297427892684937e-02 -5.411041155457496643e-02 -2.745867371559143066e-01 1.974522173404693604e-01 -2.519906461238861084e-01 8.657405525445938110e-02 2.001062035560607910e-01 -2.926464974880218506e-01 4.135261178016662598e-01 -1.497796624898910522e-01 1.641708016395568848e-01 2.916378080844879150e-01 -1.838657855987548828e-01 1.538569033145904541e-01 -2.871895432472229004e-01 1.156683936715126038e-01 4.197359085083007812e-02 4.077602922916412354e-01 2.558111548423767090e-01 1.634601736441254616e-03 2.085974812507629395e-01 -1.709026545286178589e-01 -1.082515791058540344e-01 3.339365720748901367e-01 -3.107994794845581055e-02 -6.489410251379013062e-02 3.437854349613189697e-01 3.670395119115710258e-03 -1.443642377853393555e-01 -7.689952105283737183e-02 -1.800462454557418823e-01 -7.240623235702514648e-02 -7.510122656822204590e-02 2.036999762058258057e-01 2.007936537265777588e-01 -1.326768100261688232e-01 5.417679622769355774e-02 1.413397639989852905e-01 -3.511080741882324219e-01 -6.614108383655548096e-02 8.358114957809448242e-02 -6.789951026439666748e-02 9.097673743963241577e-02 3.661018908023834229e-01 -4.276698827743530273e-02 -1.225220337510108948e-01 -1.435431987047195435e-01 6.821800023317337036e-02 -1.503612287342548370e-02 -8.414648473262786865e-02
-2.186924964189529419e-01 1.434907615184783936e-01 -9.296421706676483154e-02 -6.863470189273357391e-03 -2.561860978603363037e-01 1.662888377904891968e-01 8.705602586269378662e-02 -1.182105839252471924e-01 7.374935597181320190e-02 6.906986236572265625e-03 7.744794711470603943e-03 5.589731736108660698e-04 -3.984189406037330627e-02 -1.965301930904388428e-01 7.627266645431518555e-02 5.230720341205596924e-02 -4.594027996063232422e-02 2.018017768859863281e-01 1.498168148100376129e-02 2.563253603875637054e-02 1.243743002414703369e-01 3.928568959236145020e-02 -1.707659214735031128e-01 6.331544369459152222e-02 2.347299903631210327e-01 5.974847823381423950e-02 1.573581993579864502e-01 2.077010869979858398e-01 -8.999390900135040283e-02 3.337979614734649658e-01 -2.701117284595966339e-02 -3.966907784342765808e-02 4.632236808538436890e-02 2.447490543127059937e-01 1.608021259307861328e-01 -1.547930389642715454e-01 -3.682197928428649902e-01 -1.641268283128738403e-01 7.882256805896759033e-02 -1.380170285701751709e-01 1.494128853082656860e-01 -4.887742549180984497e-02 1.144059076905250549e-01 -8.027154207229614258e-02 -2.287474460899829865e-02 2.838816493749618530e-03 -1.818162053823471069e-01 9.999163448810577393e-02 -3.428112715482711792e-02 -8.875084668397903442e-02 -1.059922054409980774e-01 7.642769068479537964e-02 -6.418131291866302490e-02 1.607149690389633179e-01 -2.288707531988620758e-03 2.892244160175323486e-01 -2.360109426081180573e-02 2.172521948814392090e-01 -1.005998402833938599e-01 4.478021711111068726e-02
-1.984807699918746948e-01 2.192738279700279236e-02 1.284666825085878372e-02 -1.471465677022933960e-01 1.378401964902877808e-01 -3.586867749691009521e-01 8.339324593544006348e-02 1.829984784126281738e-02 -4.344667866826057434e-02 5.202108062803745270e-03 6.934382021427154541e-02 1.580862142145633698e-02 -6.299585849046707153e-02 4.908308386802673340e-02 -1.779081076383590698e-01 5.799628794193267822e-03 2.509813010692596436e-01 3.247257471084594727e-01 -3.773452714085578918e-02 -3.254614174365997314e-01 5.101467669010162354e-02 7.843517512083053589e-02 8.867921307682991028e-03 9.964897483587265015e-02 -1.463698446750640869e-01 2.337470948696136475e-01 -2.582211494445800781e-01 -6.636396050453186035e-02 -7.986737042665481567e-02 1.855705827474594116e-01 -5.670601129531860352e-02 -7.722041103988885880e-03 2.177851647138595581e-02 -7.636887580156326294e-02 -6.975198537111282349e-02 -8.401792496442794800e-02 1.771631240844726562e-01 -1.519090086221694946e-01 1.336095016449689865e-02 2.415970712900161743e-01 1.821534037590026855e-01 2.471052668988704681e-02 6.690206378698348999e-02 1.454026699066162109e-01 -1.576777696609497070e-01 1.800283789634704590e-03 -1.777871251106262207e-01 2.916134595870971680e-01 -3.050870001316070557e-01 -2.838906133547425270e-03 -1.679772436618804932e-01 3.053734898567199707e-01 1.384514719247817993e-01 1.149949058890342712e-01 -1.041318401694297791e-01 6.772387772798538208e-02 1.857809573411941528e-01 -2.721894979476928711e-01 -1.811558147892355919e-03 -6.054466217756271362e-02
-2.623846530914306641e-01 -3.022761046886444092e-01 2.585646323859691620e-02 -1.598273664712905884e-01 8.038073033094406128e-02 3.727549314498901367e-02 -5.927725508809089661e-02 -2.322372794151306152e-01 7.241077721118927002e-03 3.070039749145507812e-01 5.524230189621448517e-03 1.147979497909545898e-01 -2.831558585166931152e-01 8.003133535385131836e-02 1.445822268724441528e-01 -1.408124566078186035e-01 -2.655679583549499512e-01 2.920934855937957764e-01 1.483099907636642456e-01 -2.381139993667602539e-01 1.292831543833017349e-02 2.508386075496673584e-01 -3.510620072484016418e-02 -1.361080855131149292e-01 1.007669195532798767e-01 1.224979013204574585e-01 1.108376011252403259e-01 -5.652578547596931458e-03 -1.036513075232505798e-01 1.890334933996200562e-01 -2.069158703088760376e-01 2.798058390617370605e-01 2.683801949024200439e-01 1.497806310653686523e-01 5.753103494644165039e-01 -2.793816924095153809e-01 3.010629676282405853e-02 -9.764716774225234985e-02 -1.913398653268814087e-01 -5.942820012569427490e-02 3.839941695332527161e-02 1.404978930950164795e-01 9.614027105271816254e-03 -1.256839632987976074e-01 -2.548451721668243408e-01 1.118187680840492249e-01 2.564108669757843018e-01 -1.820549368858337402e-01 -2.282887250185012817e-01 1.965767741203308105e-01 -8.051361143589019775e-02 -1.215394511818885803e-01 -1.252650097012519836e-02 2.662933766841888428e-01 -8.471042662858963013e-02 3.301118612289428711e-01 -2.287692129611968994e-01 1.238412186503410339e-01 -3.240823745727539062e-01 1.562822759151458740e-01
5.606820061802864075e-02 2.450415119528770447e-02 9.051226824522018433e-02 -2.324211299419403076e-01 1.862284094095230103e-01 8.427245169878005981e-02 -3.111987411975860596e-01 -1.139018777757883072e-02 2.448118478059768677e-01 -3.588705137372016907e-02 3.313356637954711914e-02 2.812510728836059570e-01 6.877610087394714355e-02 8.328074216842651367e-02 -1.507893204689025879e-01 2.383771836757659912e-01 4.027247428894042969e-03 -3.708789870142936707e-02 1.139802932739257812e-01 -2.365835607051849365e-01 -1.914586126804351807e-01 2.537428736686706543e-01 -1.432679444551467896e-01 4.329277575016021729e-02 9.431659430265426636e-02 -2.720052003860473633e-01 3.928762301802635193e-02 2.352728545665740967e-01 3.078111410140991211e-01 -7.824973436072468758e-04 -2.580970823764801025e-01 -1.104595661163330078e-01 -8.172238618135452271e-02 2.048279941082000732e-01 -1.294602602720260620e-01 -1.225673779845237732e-01 -6.067574396729469299e-02 -2.487914264202117920e-01 8.775198459625244141e-02 2.378247678279876709e-01 -4.143606498837471008e-02 2.571931481361389160e-01 4.702484011650085449e-01 3.177255690097808838e-01 3.260146975517272949e-01 -7.414659857749938965e-02 -3.863257542252540588e-02 -1.300547569990158081e-01 2.491603232920169830e-02 2.479087859392166138e-01 2.715098559856414795e-01 -4.297555238008499146e-02 -1.448250375688076019e-02 -1.907956600189208984e-01 5.367562547326087952e-02 6.112186238169670105e-02 -3.675314784049987793e-02 2.026769816875457764e-01 2.098300009965896606e-01 8.999997377395629883e-02
1.383341103792190552e-01 -5.787352845072746277e-02 8.813985437154769897e-02 1.211840435862541199e-01 2.988603711128234863e-01 -2.353255636990070343e-02 -8.927803486585617065e-02 2.150011947378516197e-03 1.371047049760818481e-01 1.629704385995864868e-01 -5.684635043144226074e-02 -1.960640102624893188e-01 -1.398897916078567505e-01 -2.911200523376464844e-01 -3.882072865962982178e-02 2.060678750276565552e-01 1.894262284040451050e-01 -1.016161963343620300e-01 -1.473529450595378876e-02 -1.609308868646621704e-01 -1.456704363226890564e-02 1.402415931224822998e-01 -1.639508157968521118e-01 -2.505503594875335693e-01 -6.549651920795440674e-02 3.020691573619842529e-01 -2.670257585123181343e-03 -2.482536733150482178e-01 -1.687868386507034302e-01 6.589153315871953964e-03 5.004651546478271484e-01 -3.918750882148742676e-01 3.763761818408966064e-01 -2.210538834333419800e-01 -3.433585762977600098e-01 3.630724549293518066e-01 5.751441791653633118e-02 -1.645993292331695557e-01 -1.137915924191474915e-01 -2.210734039545059204e-02 -1.742833852767944336e-01 2.289666980504989624e-01 -8.219492435455322266e-02 -2.095026224851608276e-01 -3.662915527820587158e-02 1.229040846228599548e-01 -2.473494969308376312e-02 -2.128982990980148315e-01 -8.325387537479400635e-02 -9.543247520923614502e-02 2.488811910152435303e-01 -1.524495631456375122e-01 1.740010380744934082e-01 4.061248302459716797e-01 3.447806835174560547e-02 -8.767370134592056274e-02 -5.608314182609319687e-03 -2.822032272815704346e-01 -2.599459588527679443e-01 1.777087301015853882e-01
-3.050768971443176270e-01 -6.711538136005401611e-02 -1.113955955952405930e-02 -1.463402211666107178e-01 1.935278810560703278e-02 3.069337606430053711e-01 1.826344728469848633e-01 9.250769764184951782e-02 -2.729386687278747559e-01 -1.167994290590286255e-01 3.374154865741729736e-02 -1.481881141662597656e-01 1.641028076410293579e-01 -1.945214346051216125e-02 -3.122184872627258301e-01 3.160559237003326416e-01 3.622127175331115723e-01 2.613500691950321198e-03 -1.296304017305374146e-01 1.827440261840820312e-01 1.431065052747726440e-01 -9.487886726856231689e-02 -1.897091567516326904e-01 2.655337564647197723e-02 -6.720141321420669556e-02 -1.458497941493988037e-01 1.843716651201248169e-01 5.368427559733390808e-02 -1.215231139212846756e-02 3.232730627059936523e-01 -4.223991185426712036e-02 -1.568564958870410919e-02 -1.802597939968109131e-01 -7.616727054119110107e-02 -1.684096604585647583e-01 1.006456315517425537e-01 2.148949652910232544e-01 1.249426417052745819e-02 -1.030159294605255127e-01 -2.387124747037887573e-01 1.706650108098983765e-01 1.445742845535278320e-01 2.964014559984207153e-02 -7.068781554698944092e-02 1.801554113626480103e-01 -9.747794270515441895e-02 -4.442361742258071899e-02 9.002281725406646729e-02 -8.104307204484939575e-02 -2.184554934501647949e-01 1.281252801418304443e-01 -4.076631739735603333e-02 -1.697858572006225586e-01 -6.110047921538352966e-02 3.029209971427917480e-01 -6.593989208340644836e-03 -2.411340624094009399e-01 -1.178147494792938232e-01 -9.095131605863571167e-02 -3.369461745023727417e-02
1.657856106758117676e-01 -1.389382928609848022e-01 9.823142550885677338e-03 1.838643662631511688e-02 -1.448372751474380493e-01 -3.018264472484588623e-02 3.446654379367828369e-01 1.931800395250320435e-01 -2.197240889072418213e-01 9.237224608659744263e-02 2.328281700611114502e-01 -3.103681206703186035e-01 1.995195634663105011e-02 -1.559936851263046265e-01 -2.095730602741241455e-01 -2.049510031938552856e-01 1.479191631078720093e-01 6.496361456811428070e-03 -3.242581849917769432e-03 2.684209123253822327e-02 2.141888067126274109e-02 2.320715934038162231e-01 -1.104233339428901672e-01 -7.978986203670501709e-02 5.004494916647672653e-03 -1.104792878031730652e-01 -1.478435546159744263e-01 2.202198505401611328e-01 -6.680602580308914185e-02 1.295323371887207031e-01 -4.867709800601005554e-02 3.336632624268531799e-02 1.762185059487819672e-02 -4.777055233716964722e-02 -4.777919501066207886e-02 1.607724428176879883e-01 -6.949765980243682861e-02 3.620942533016204834e-01 -2.080566436052322388e-02 -1.535014063119888306e-01 2.183571904897689819e-01 1.986859887838363647e-01 -1.125836372375488281e-01 -1.953919082880020142e-01 2.038359344005584717e-01 1.297431439161300659e-02 -3.743852674961090088e-02 1.322657018899917603e-01 2.985383756458759308e-02 1.337566077709197998e-01 6.117409560829401016e-03 -7.220600545406341553e-02 9.004519134759902954e-02 1.990746706724166870e-01 -2.075255103409290314e-02 -3.381829708814620972e-02 -5.530019849538803101e-02 1.113499253988265991e-01 6.832133233547210693e-02 1.785116344690322876e-01
-1.006352975964546204e-01 1.347652524709701538e-01 2.938364744186401367e-01 -2.773380577564239502e-01 -2.632279321551322937e-02 6.903302669525146484e-02 -4.805576056241989136e-02 -2.082313746213912964e-01 -1.254393011331558228e-01 -7.620688527822494507e-02 3.898897469043731689e-01 2.365277409553527832e-01 -9.940446354448795319e-03 -2.481759041547775269e-01 -2.140128165483474731e-01 1.123181208968162537e-01 2.457343786954879761e-01 1.896497756242752075e-01 1.823237538337707520e-01 -1.812364608049392700e-01 3.232193589210510254e-01 2.461317628622055054e-01 1.099051907658576965e-01 -1.745504289865493774e-01 -2.905316054821014404e-01 2.656934559345245361e-01 1.505938619375228882e-01 -2.695489674806594849e-02 2.409927695989608765e-01 -9.475185722112655640e-02 2.052761912345886230e-01 -3.971857950091362000e-03 -3.168261051177978516e-02 -2.530174851417541504e-01 -1.505183279514312744e-01 3.956998586654663086e-01 -3.660051524639129639e-01 -4.113294556736946106e-02 3.819838464260101318e-01 3.293867409229278564e-02 -2.747661769390106201e-01 -5.259312689304351807e-02 1.470684260129928589e-01 1.559458822011947632e-01 9.217269718647003174e-02 -3.269212320446968079e-02 -5.207969620823860168e-02 2.090646773576736450e-01 6.553985923528671265e-02 -4.015024751424789429e-02 3.336816281080245972e-02 -1.907626241445541382e-01 1.532539259642362595e-02 1.129702404141426086e-01 -4.154204726219177246e-01 -1.569007188081741333e-01 -1.312737166881561279e-01 -1.930202096700668335e-01 8.144281804561614990e-02 6.071641296148300171e-02
2.470646426081657410e-02 2.981469593942165375e-02 -5.593739077448844910e-02 7.676290720701217651e-02 1.545654684305191040e-01 -1.199531629681587219e-01 2.581199705600738525e-01 -2.108431905508041382e-01 -8.673705905675888062e-02 -2.116212062537670135e-02 -2.605425193905830383e-02 -2.255663871765136719e-01 1.225295886397361755e-01 -3.119472563266754150e-01 -6.963361054658889771e-02 8.587952703237533569e-02 2.857254445552825928e-01 -1.224664784967899323e-02 -1.688147336244583130e-01 -9.634315967559814453e-02 2.931482791900634766e-01 1.991564035415649414e-01 4.825790598988533020e-02 4.194981232285499573e-02 8.459781110286712646e-02 2.836926579475402832e-01 3.003341257572174072e-01 2.782119214534759521e-01 1.177709549665451050e-02 -2.476216405630111694e-01 1.210675835609436035e-01 -3.575058281421661377e-01 1.144261136651039124e-01 3.815086930990219116e-02 -3.512330353260040283e-02 1.899344176054000854e-01 1.144766137003898621e-01 -3.170726820826530457e-02 -3.670661896467208862e-02 -7.983011193573474884e-03 2.083254903554916382e-01 4.163759946823120117e-02 -1.290245205163955688e-01 -2.250033020973205566e-01 2.461138665676116943e-01 1.390092521905899048e-01 -6.124996393918991089e-02 4.612696915864944458e-02 4.018221050500869751e-02 6.207959260791540146e-03 1.672288626432418823e-01 -2.978100180625915527e-01 -2.591044604778289795e-01 5.426721647381782532e-02 -9.092381596565246582e-02 2.827198803424835205e-01 -3.258917331695556641e-01 4.952217638492584229e-02 -2.912496589124202728e-02 -1.678599566221237183e-01
-2.501629590988159180e-01 -6.527443230152130127e-02 -8.544097840785980225e-02 -2.770439088344573975e-01 2.007429748773574829e-01 7.065302133560180664e-02 -1.640899777412414551e-01 8.065219223499298096e-02 9.238384664058685303e-02 2.414793148636817932e-02 -8.263643085956573486e-02 -2.486895024776458740e-02 -2.002671360969543457e-03 3.679286837577819824e-01 -1.933276057243347168e-01 -1.704329848289489746e-01 -3.640586137771606445e-02 -1.207013726234436035e-01 -1.319621801376342773e-01 -2.556051611900329590e-01 1.315821856260299683e-01 -2.036447674036026001e-01 -1.111493632197380066e-01 3.198548778891563416e-02 3.063459396362304688e-01 -1.879215389490127563e-01 -3.107737898826599121e-01 -2.892436087131500244e-01 -1.431294083595275879e-01 -2.653371989727020264e-01 1.300618797540664673e-02 2.086944431066513062e-01 1.418699324131011963e-01 7.423965632915496826e-02 9.259320050477981567e-02 -2.253833115100860596e-01 -5.852326005697250366e-02 1.725212186574935913e-01 4.343217611312866211e-02 -1.258885562419891357e-01 1.393308788537979126e-01 -1.734079420566558838e-01 1.557229459285736084e-01 -1.357157677412033081e-01 2.712208628654479980e-01 4.913497716188430786e-02 1.084136515855789185e-01 -8.157913386821746826e-02 4.282598197460174561e-02 2.101631611585617065e-01 1.557772010564804077e-01 1.018218100070953369e-01 -8.042296022176742554e-02 -4.127227067947387695e-01 -3.327499926090240479e-01 1.296066343784332275e-01 -2.382071167230606079e-01 -9.622548520565032959e-02 -4.336495324969291687e-02 -6.925401836633682251e-02
3.141185268759727478e-02 -2.907356806099414825e-02 2.575363963842391968e-03 -7.525733113288879395e-02 -1.419341266155242920e-01 -1.702855899930000305e-02 3.452184423804283142e-02 9.040466696023941040e-02 -7.733531296253204346e-02 9.162663668394088745e-02 -1.008753031492233276e-01 -1.878235787153244019e-01 -2.034919708967208862e-01 1.157808080315589905e-01 -1.828210055828094482e-01 1.402960866689682007e-01 -7.454085350036621094e-02 4.074360057711601257e-02 1.795146167278289795e-01 2.387565374374389648e-01 -3.864961564540863037e-01 3.306088447570800781e-01 2.312965132296085358e-02 -1.447031050920486450e-01 -1.523906365036964417e-02 -1.288388818502426147e-01 -2.108497917652130127e-01 -1.299793720245361328e-01 -2.302712760865688324e-02 -8.323752880096435547e-02 2.254563150927424431e-03 9.685979783535003662e-02 1.422788053750991821e-01 2.325172424316406250e-01 -1.863128133118152618e-02 -2.073250710964202881e-01 -1.519312523305416107e-02 -3.307723402976989746e-01 8.886938542127609253e-02 3.575131297111511230e-01 -5.122622009366750717e-03 -1.884462088346481323e-01 -1.696655303239822388e-01 2.780840396881103516e-01 1.118302643299102783e-01 2.148487605154514313e-02 2.109595984220504761e-01 -1.457344442605972290e-01 -1.958954334259033203e-02 1.663614250719547272e-02 1.631362885236740112e-01 -2.237678468227386475e-01 1.303579658269882202e-01 -1.150641366839408875e-01 -1.239229179918766022e-02 -2.524348199367523193e-01 -8.593823015689849854e-02 4.551117122173309326e-02 -2.963823080062866211e-01 8.092749118804931641e-02
