7.327697705477476120e-03 -4.664399847388267517e-02 1.144137531518936157e-01 1.035246625542640686e-01 -5.808848142623901367e-02 -7.619012147188186646e-02 1.101484987884759903e-03 2.751818895339965820e-01 1.320126093924045563e-02 -1.843738555908203125e-01 -2.283793538808822632e-01 3.097160458564758301e-01 -2.022283524274826050e-01 -3.068660795688629150e-01 7.622978836297988892e-02 1.938625574111938477e-01 -2.230624258518218994e-01 2.696834802627563477e-01 2.392559796571731567e-01 1.300190836191177368e-01 -3.359831273555755615e-01 -3.414593338966369629e-01 2.385168522596359253e-01 3.193369805812835693e-01 1.417400687932968140e-01 2.368039824068546295e-02 3.001987934112548828e-01 -9.892219305038452148e-02 1.356619447469711304e-01 -1.190498471260070801e-01 2.717268168926239014e-01 -1.403867751359939575e-01 -8.222115039825439453e-02 -1.357952803373336792e-01 -1.001497656106948853e-01 3.905957937240600586e-02 6.837742775678634644e-02 1.862735599279403687e-01 -3.196409717202186584e-02 1.427006572484970093e-01 3.406802657991647720e-03 -1.369255930185317993e-01 -6.813739426434040070e-03 5.971044301986694336e-02 -3.367935121059417725e-01 3.263909518718719482e-01 -5.684150382876396179e-02 2.113310396671295166e-01 2.327525913715362549e-01 4.604135826230049133e-02 3.254703432321548462e-02 3.680855035781860352e-02 -3.206923976540565491e-02 1.025737896561622620e-01 6.725308299064636230e-02 2.027959078550338745e-01 2.602530419826507568e-01 7.887841016054153442e-02 -2.070517838001251221e-02 -6.349863857030868530e-02 -7.203377038240432739e-02 -5.607524514198303223e-02 -3.117941319942474365e-01 -1.806814521551132202e-01 4.529969021677970886e-02 1.071548834443092346e-01 2.080778963863849640e-02 1.917670220136642456e-01 -5.976869538426399231e-02 -4.573620855808258057e-02 -4.186451062560081482e-02 -5.569531396031379700e-02 -7.915040850639343262e-02 -3.171680569648742676e-01 5.609964206814765930e-02 -1.415092051029205322e-01 -1.955539882183074951e-01 -1.678700298070907593e-01 -8.017685264348983765e-02 1.639683991670608521e-01 -3.101003170013427734e-02 -6.375297158956527710e-02 -1.155166998505592346e-01 -1.423089802265167236e-01 3.771052137017250061e-02 4.493820294737815857e-02 -2.780169947072863579e-03 -2.356415539979934692e-01 -3.866713494062423706e-02 2.561953067779541016e-01 5.345029756426811218e-02 -3.101136386394500732e-01 -1.741799563169479370e-01 -1.375294327735900879e-01 -1.967712491750717163e-01 -1.964610442519187927e-02 -1.801032871007919312e-01 3.687265887856483459e-02 -2.672939002513885498e-02 2.932043969631195068e-01
-3.216834962368011475e-01 3.773024976253509521e-01 -2.127278596162796021e-01 1.911425590515136719e-01 2.444239109754562378e-01 6.529911607503890991e-02 1.410167515277862549e-01 -2.821099162101745605e-01 -1.258664019405841827e-02 -4.428642615675926208e-02 -2.003747671842575073e-01 3.970945999026298523e-02 -1.271146982908248901e-01 4.625950381159782410e-02 -2.711718976497650146e-01 3.463089168071746826e-01 7.119099050760269165e-02 2.408943139016628265e-02 -1.595374196767807007e-01 -1.514126639813184738e-02 -5.033689737319946289e-02 2.685102820396423340e-01 1.320063769817352295e-01 2.870346009731292725e-01 2.561642788350582123e-02 7.098823040723800659e-02 -1.197572499513626099e-01 -7.817541062831878662e-02 1.573602408170700073e-01 -9.344900399446487427e-02 -3.659934550523757935e-02 -9.851170331239700317e-02 -1.121391281485557556e-01 -3.685648143291473389e-01 2.573505938053131104e-01 -1.221421733498573303e-01 1.354961246252059937e-01 1.406410038471221924e-01 -2.464862912893295288e-01 -2.736572027206420898e-01 4.920805618166923523e-02 -2.750781476497650146e-01 5.494527891278266907e-02 1.303798407316207886e-01 -1.819834560155868530e-01 1.402087509632110596e-01 -2.195827662944793701e-02 6.838000845164060593e-03 -7.317176461219787598e-02 -1.797244399785995483e-01 1.611147224903106689e-01 -2.745230197906494141e-01 -6.534998863935470581e-02 5.500990897417068481e-02 -1.176759600639343262e-01 8.563689142465591431e-02 -1.552183367311954498e-02 -1.071279570460319519e-01 -2.186115235090255737e-01 1.091550961136817932e-01 2.312197983264923096e-01 -1.282376348972320557e-01 -1.476942300796508789e-01 7.079435139894485474e-02 3.937482833862304688e-02 2.051440328359603882e-01 -2.079968303442001343e-01 4.021274670958518982e-02 1.462333351373672485e-01 1.310316771268844604e-01 -1.910695284605026245e-01 -9.667699038982391357e-02 3.669282495975494385e-01 1.727591454982757568e-01 2.476098388433456421e-01 -2.055853456258773804e-01 1.194939240813255310e-01 -1.015188470482826233e-01 -6.929522007703781128e-02 1.739303618669509888e-01 2.435372620820999146e-01 6.508862227201461792e-02 -1.383014321327209473e-01 2.888658642768859863e-01 -3.048849403858184814e-01 -3.707257807254791260e-01 -1.797009557485580444e-01 1.463821530342102051e-02 8.802521228790283203e-02 -4.215197637677192688e-02 2.039383500814437866e-01 -2.819971553981304169e-02 2.454786747694015503e-01 -1.434177458286285400e-01 -1.253026425838470459e-01 -1.411911696195602417e-01 -8.036687970161437988e-02 -1.002525817602872849e-02 -1.999650746583938599e-01 1.757695674896240234e-01
1.804254949092864990e-03 -1.610760949552059174e-02 -2.596068084239959717e-01 -1.395702213048934937e-01 -4.265001043677330017e-02 4.761640354990959167e-02 1.434269249439239502e-01 2.162400484085083008e-01 -4.474265873432159424e-02 1.107267383486032486e-02 -2.756752371788024902e-01 7.264254987239837646e-02 -1.153041943907737732e-01 1.168375164270401001e-01 1.276361793279647827e-01 -3.142513334751129150e-01 2.555595338344573975e-01 9.568561613559722900e-02 -6.112534552812576294e-02 1.470786631107330322e-01 2.327416650950908661e-02 6.967242807149887085e-02 1.638009399175643921e-01 -2.893041372299194336e-01 -2.092093229293823242e-01 -4.803792387247085571e-02 -1.004088297486305237e-01 3.352423310279846191e-01 -7.857029885053634644e-02 2.100357860326766968e-01 -1.419504284858703613e-01 -1.204113587737083435e-01 -2.196029722690582275e-01 2.598064839839935303e-01 2.166186422109603882e-01 -9.563862532377243042e-02 -5.143383890390396118e-02 -1.065321341156959534e-01 -4.104597494006156921e-02 -1.813759952783584595e-01 -6.485914438962936401e-02 2.014344781637191772e-01 1.318255513906478882e-01 -2.945521175861358643e-01 -1.202009916305541992e-01 1.484929621219635010e-01 1.020105704665184021e-01 -1.213301643729209900e-01 1.798045337200164795e-01 1.755346804857254028e-01 -2.432884722948074341e-01 -1.643387526273727417e-01 3.335348963737487793e-01 1.595106348395347595e-02 1.042959243059158325e-01 5.995967611670494080e-02 -1.659425348043441772e-01 -1.849546842277050018e-02 1.994320154190063477e-01 3.547601029276847839e-02 -1.909461021423339844e-01 5.983144044876098633e-02 1.661385037004947662e-02 -2.080691605806350708e-01 -2.005070894956588745e-01 -1.021004095673561096e-01 1.094866618514060974e-01 1.482532173395156860e-01 -2.716382443904876709e-01 2.737169861793518066e-01 1.525970548391342163e-01 3.453994393348693848e-01 2.785631455481052399e-02 1.067812442779541016e-01 -2.269640266895294189e-01 8.403211832046508789e-02 -1.842813640832901001e-01 -1.144425496459007263e-01 -2.756610810756683350e-01 -1.148132085800170898e-01 8.465897291898727417e-02 -2.137761861085891724e-01 -1.309367269277572632e-01 2.862198054790496826e-01 -4.423886537551879883e-02 -2.797393798828125000e-01 3.998713493347167969e-01 -1.287134140729904175e-01 2.337515801191329956e-01 -1.710472069680690765e-02 2.489827424287796021e-01 2.970713675022125244e-01 -1.758895963430404663e-01 -2.769648842513561249e-02 -2.570340037345886230e-01 2.187177389860153198e-01 9.752599895000457764e-02 -3.734695166349411011e-02 -1.860820651054382324e-01 6.930543482303619385e-02
5.194645375013351440e-03 6.615094095468521118e-02 -4.178241267800331116e-02 4.315858706831932068e-02 -1.295721381902694702e-01 5.505467578768730164e-02 3.641863167285919189e-02 -1.984659209847450256e-02 1.655750423669815063e-01 3.062421381473541260e-01 2.737557590007781982e-01 9.763383120298385620e-02 4.642448574304580688e-02 -2.923276461660861969e-02 1.955352574586868286e-01 3.820005655288696289e-01 1.542438715696334839e-01 -1.671120673418045044e-01 1.855342835187911987e-01 -3.316927850246429443e-01 -2.463282346725463867e-01 -3.295367658138275146e-01 1.806787699460983276e-01 -3.470990573987364769e-03 -2.261786013841629028e-01 6.235548295080661774e-03 9.494695067405700684e-02 2.225915901362895966e-02 -5.113283917307853699e-02 -1.927524060010910034e-01 -1.158558670431375504e-02 -2.393298596143722534e-01 -2.194899618625640869e-01 1.593079119920730591e-01 1.625889539718627930e-01 8.583317510783672333e-03 -1.473446041345596313e-01 -3.069953918457031250e-01 -5.226050689816474915e-02 -2.095744460821151733e-01 -2.639779746532440186e-01 -2.307135984301567078e-02 -1.874807924032211304e-01 -1.153841391205787659e-01 2.382372915744781494e-01 2.655338263139128685e-03 1.076379045844078064e-01 -5.513259768486022949e-02 3.036842942237854004e-01 -2.641756236553192139e-01 2.778586745262145996e-01 3.507623821496963501e-02 3.373493626713752747e-02 2.261641472578048706e-01 1.874981522560119629e-01 3.915143609046936035e-01 -1.763039529323577881e-01 2.054781168699264526e-01 3.989927843213081360e-02 -3.849097490310668945e-01 2.010115608572959900e-02 -1.416359394788742065e-01 3.661267757415771484e-01 1.735113710165023804e-01 6.514638662338256836e-02 -2.340538501739501953e-01 -1.292081326246261597e-01 -1.981662362813949585e-01 1.228410750627517700e-01 1.437619775533676147e-01 -2.594581246376037598e-01 3.086573444306850433e-02 -2.110070735216140747e-01 -8.678709715604782104e-02 4.372839257121086121e-02 3.190493583679199219e-01 3.867308050394058228e-02 -9.099789708852767944e-02 1.047646626830101013e-01 2.260667383670806885e-01 1.897336542606353760e-01 7.738222181797027588e-02 1.091295704245567322e-01 5.853606387972831726e-02 -3.769645392894744873e-01 2.471615374088287354e-01 1.570692509412765503e-01 2.117518931627273560e-01 2.227831929922103882e-01 2.849194109439849854e-01 1.264068186283111572e-01 1.152381449937820435e-01 -9.630092233419418335e-02 -8.522390574216842651e-02 -1.527862846851348877e-01 -2.766266763210296631e-01 -4.311987385153770447e-02 -4.686529561877250671e-02 2.190620005130767822e-01 1.684714406728744507e-01
-9.607904404401779175e-02 9.892827831208705902e-03 -6.100703030824661255e-02 -2.203105688095092773e-01 -6.740473955869674683e-02 2.134112454950809479e-02 -1.697787344455718994e-01 -1.355606615543365479e-01 -2.419051378965377808e-01 -1.904234737157821655e-01 -6.462908536195755005e-02 1.242828145623207092e-01 2.726519405841827393e-01 -1.178291067481040955e-01 5.573591217398643494e-02 9.851131588220596313e-02 -5.871589854359626770e-02 -1.048551425337791443e-01 -3.702479302883148193e-01 7.447095122188329697e-03 1.230978779494762421e-02 -3.200783953070640564e-02 8.947118371725082397e-02 -1.327585279941558838e-01 -1.156003251671791077e-01 -2.305465191602706909e-01 1.892626285552978516e-02 -1.229436919093132019e-01 -1.747783087193965912e-02 1.020282506942749023e-02 -1.414960771799087524e-01 -2.174042463302612305e-01 3.495193645358085632e-02 3.302737176418304443e-01 8.042921125888824463e-02 2.743729948997497559e-02 2.050348743796348572e-02 6.352072209119796753e-02 -5.849037691950798035e-02 1.634862124919891357e-01 -1.794688999652862549e-01 1.704451255500316620e-02 -3.270042538642883301e-01 -1.596778184175491333e-01 3.821893036365509033e-02 6.535681337118148804e-02 1.293727606534957886e-01 -2.084050141274929047e-02 1.841064989566802979e-01 -1.528680976480245590e-02 1.533143371343612671e-01 1.190548464655876160e-01 2.913407422602176666e-02 -3.013104759156703949e-02 5.807143449783325195e-02 -2.263263016939163208e-01 -1.164982840418815613e-01 -5.784892663359642029e-02 -8.853252232074737549e-02 -2.400644272565841675e-01 4.086868092417716980e-02 2.115762680768966675e-01 -2.084737271070480347e-01 -1.962069720029830933e-01 1.394438743591308594e-01 -2.094446271657943726e-01 3.042872846126556396e-01 1.556439558044075966e-03 2.421860545873641968e-01 -1.089835390448570251e-01 -2.777491509914398193e-01 1.871362477540969849e-01 -1.821038722991943359e-01 6.032892689108848572e-02 1.125828772783279419e-01 -1.528327316045761108e-01 6.409148126840591431e-02 -6.638846546411514282e-02 4.863162524998188019e-03 2.222943603992462158e-01 -3.638466298580169678e-01 -1.572320610284805298e-01 -3.780575096607208252e-01 -1.970530301332473755e-02 1.914740912616252899e-02 -3.513887524604797363e-01 -2.296926528215408325e-01 -1.898793429136276245e-01 2.917860746383666992e-01 -6.676005572080612183e-02 1.413084715604782104e-01 -1.104723364114761353e-01 -8.212891407310962677e-03 6.350453943014144897e-02 2.303913421928882599e-02 -1.540543287992477417e-01 -1.056640893220901489e-01 1.030902639031410217e-01 3.245926275849342346e-02 1.867708414793014526e-01
6.060621701180934906e-03 -2.154162386432290077e-03 -2.919634580612182617e-01 3.054330348968505859e-01 -3.682552576065063477e-01 -4.861792922019958496e-02 -1.567309796810150146e-01 -3.482614457607269287e-01 -1.563353538513183594e-01 -1.269707530736923218e-01 1.675997525453567505e-01 -1.265172809362411499e-01 1.220864206552505493e-01 -7.965778559446334839e-02 -5.960016325116157532e-02 -2.354071140289306641e-01 -3.374541103839874268e-01 2.469909489154815674e-01 4.976692050695419312e-02 -1.344549059867858887e-01 3.772209584712982178e-01 -1.509042233228683472e-01 2.590220868587493896e-01 -1.364027410745620728e-01 8.397052437067031860e-02 -1.114539131522178650e-01 -1.603780239820480347e-01 -1.071738228201866150e-01 1.253580600023269653e-01 -1.332413405179977417e-01 -3.030157648026943207e-02 1.014618799090385437e-01 -3.852669522166252136e-02 8.447731286287307739e-02 -2.199919223785400391e-01 -1.929593533277511597e-01 1.072054430842399597e-01 1.910212486982345581e-01 2.239916324615478516e-01 -1.256522834300994873e-01 -1.712000966072082520e-01 -1.739957183599472046e-01 -2.131786644458770752e-01 -1.331856846809387207e-01 8.233947306871414185e-02 2.171992510557174683e-01 8.245084434747695923e-02 -3.883618116378784180e-02 -1.458220779895782471e-01 -4.882510751485824585e-02 -2.115488052368164062e-01 -2.238964885473251343e-01 -3.426098227500915527e-01 -4.524146765470504761e-02 -1.584905385971069336e-01 1.404403895139694214e-01 -1.458478420972824097e-01 1.102315783500671387e-01 2.645731270313262939e-01 -1.776921451091766357e-01 7.490546256303787231e-02 -9.526486508548259735e-03 -1.865488141775131226e-01 -1.142271533608436584e-01 -1.101158410310745239e-01 2.821627259254455566e-01 -1.167031899094581604e-01 -1.025727912783622742e-01 2.922902107238769531e-01 -1.047653183341026306e-01 -4.651672765612602234e-02 -1.184590384364128113e-01 3.063239753246307373e-01 -3.554240465164184570e-01 1.551356762647628784e-01 -2.530874907970428467e-01 5.596092343330383301e-02 1.755668409168720245e-02 1.726416200399398804e-01 3.123784363269805908e-01 1.680865585803985596e-01 4.555203393101692200e-02 3.472610414028167725e-01 4.243084788322448730e-02 -8.181386440992355347e-02 3.081219196319580078e-01 5.615770816802978516e-02 6.154362112283706665e-02 -1.031996160745620728e-01 1.050156503915786743e-01 -2.544328868389129639e-01 5.353718623518943787e-02 1.727302372455596924e-01 -1.650438606739044189e-01 1.023590192198753357e-01 2.172838300466537476e-01 6.812969222664833069e-04 -2.336394637823104858e-01 1.185305640101432800e-01 8.869903534650802612e-02
1.082660332322120667e-01 1.093245893716812134e-01 -1.323191542178392410e-02 -1.418272405862808228e-01 -1.982158273458480835e-01 -5.355723574757575989e-02 -1.586015671491622925e-01 -6.953173130750656128e-02 -8.629789948463439941e-02 -2.389709502458572388e-01 -5.459995195269584656e-02 -2.873152494430541992e-01 1.208352074027061462e-01 -2.384879142045974731e-01 8.049087971448898315e-02 1.340469568967819214e-01 -3.940733149647712708e-02 -2.675680816173553467e-01 -2.578031830489635468e-02 -5.591179803013801575e-02 -2.674064338207244873e-01 -3.021818958222866058e-02 -1.380295306444168091e-02 -3.036947846412658691e-01 -2.038340121507644653e-01 -5.628476291894912720e-02 1.377742737531661987e-02 1.014239788055419922e-01 1.612305343151092529e-01 2.133130133152008057e-01 6.613045185804367065e-02 2.750280871987342834e-02 3.737350925803184509e-02 1.771432608366012573e-01 1.340321302413940430e-01 -1.956378072500228882e-01 -1.129784584045410156e-01 8.607892692089080811e-02 1.398743987083435059e-01 8.553966879844665527e-02 2.197794914245605469e-01 -1.753630191087722778e-01 3.663280904293060303e-01 -1.874260604381561279e-01 8.598374575376510620e-02 6.279993336647748947e-03 3.537639379501342773e-01 -9.988827258348464966e-02 5.350360274314880371e-02 1.815605461597442627e-01 -4.289326071739196777e-02 -2.101951651275157928e-02 -1.352742463350296021e-01 -2.353533357381820679e-01 1.114656925201416016e-01 1.156105026602745056e-01 -2.973444163799285889e-01 3.484784662723541260e-01 1.993198096752166748e-01 -3.810431659221649170e-01 -6.008125469088554382e-02 -7.522913068532943726e-02 3.036808669567108154e-01 -2.051539868116378784e-01 1.709198057651519775e-01 7.424777746200561523e-02 -1.790780276060104370e-01 1.114018931984901428e-01 1.718228608369827271e-01 3.107553422451019287e-01 -2.948380410671234131e-01 1.419490296393632889e-02 2.876634299755096436e-01 1.577988862991333008e-01 1.887065023183822632e-01 -2.217232808470726013e-02 -2.374424226582050323e-02 1.906754225492477417e-01 -1.873729676008224487e-01 2.645513713359832764e-01 -6.382528692483901978e-03 1.229955479502677917e-01 1.808691024780273438e-01 -1.924964636564254761e-01 -1.760397553443908691e-01 7.230988889932632446e-02 -7.670739199966192245e-03 -9.519889205694198608e-02 -1.710966229438781738e-01 2.158431857824325562e-01 1.368101593106985092e-02 -2.313653677701950073e-01 1.874625533819198608e-01 -2.926133871078491211e-01 1.094795241951942444e-01 2.105655223131179810e-01 -6.436925381422042847e-02 2.224903404712677002e-01 -2.546134889125823975e-01 -5.836812779307365417e-02
3.396542966365814209e-01 -2.120739966630935669e-01 -1.514010280370712280e-01 3.748819530010223389e-01 1.002013087272644043e-01 5.616470705717802048e-03 -2.578225135803222656e-01 -2.928864657878875732e-01 3.998296856880187988e-01 -1.185073032975196838e-01 -3.700775206089019775e-01 5.308239534497261047e-02 4.066038876771926880e-02 -2.589512169361114502e-01 -9.944765828549861908e-03 2.506594955921173096e-01 3.348984941840171814e-02 6.692812591791152954e-02 -4.070136696100234985e-02 -3.583793342113494873e-01 9.799430699786171317e-05 1.481665223836898804e-01 1.930485665798187256e-01 1.995721161365509033e-01 -1.738845854997634888e-01 -2.532303929328918457e-01 -1.281707286834716797e-01 3.670768812298774719e-03 -3.591556102037429810e-02 5.866266041994094849e-02 3.103906847536563873e-02 1.721861362457275391e-01 -5.126952752470970154e-02 2.514429986476898193e-01 -9.266655147075653076e-02 -2.048553340137004852e-02 -3.227939307689666748e-01 -5.774772725999355316e-03 1.202323585748672485e-01 -4.996632412075996399e-02 -1.183542013168334961e-01 1.159616038203239441e-01 -4.956721886992454529e-02 -1.887923628091812134e-01 3.336297273635864258e-01 -2.305814474821090698e-01 3.726480603218078613e-01 -6.559253484010696411e-02 -2.041055709123611450e-01 1.279073506593704224e-01 -7.712251693010330200e-02 -3.398573398590087891e-01 -9.855249524116516113e-02 -1.313814520835876465e-02 3.048717677593231201e-01 1.928109973669052124e-01 -1.175573244690895081e-01 -2.067947387695312500e-01 -3.400425910949707031e-01 -2.904105484485626221e-01 -3.783020675182342529e-01 -1.009494625031948090e-02 -1.327885966747999191e-02 -2.032311707735061646e-01 1.664035022258758545e-01 1.350393444299697876e-01 -1.813666671514511108e-01 -1.461113151162862778e-02 -8.185470849275588989e-02 1.612109988927841187e-01 3.007442355155944824e-01 -2.367566674947738647e-01 1.790399998426437378e-01 3.788456022739410400e-01 3.157171607017517090e-01 1.395422369241714478e-01 -3.359606117010116577e-02 -5.641055107116699219e-02 7.610962539911270142e-02 4.333187639713287354e-02 -1.514263004064559937e-01 -6.844970583915710449e-02 -1.979481726884841919e-01 -7.952802628278732300e-02 -2.838869346305727959e-03 -1.306823343038558960e-01 9.780656546354293823e-02 -9.402529150247573853e-02 5.378186330199241638e-02 -1.425872296094894409e-01 -5.134854465723037720e-02 -3.945372402667999268e-01 4.652753472328186035e-02 -5.777286365628242493e-02 -1.554627865552902222e-01 8.941943198442459106e-02 1.968872398138046265e-01 -3.744584918022155762e-01 6.071002036333084106e-02 -1.256864219903945923e-01
6.038808822631835938e-02 5.116081982851028442e-02 -2.190077602863311768e-01 1.019564419984817505e-01 -1.863588690757751465e-01 1.299010068178176880e-01 1.809693127870559692e-01 1.433440744876861572e-01 8.499258011579513550e-02 1.173594594001770020e-01 -1.325812488794326782e-01 2.363975048065185547e-01 -8.443135023117065430e-02 1.047394052147865295e-01 2.899836599826812744e-01 3.536668717861175537e-01 9.358002245426177979e-02 -5.285350140184164047e-03 4.400698840618133545e-02 -8.619113266468048096e-02 -7.204185705631971359e-03 -1.791042387485504150e-01 -3.099041581153869629e-01 2.338604182004928589e-01 -2.380898296833038330e-01 -3.264029622077941895e-01 2.388551682233810425e-01 1.691883057355880737e-01 9.699181467294692993e-02 -7.548465579748153687e-02 7.105153053998947144e-02 -9.729500859975814819e-02 1.334995683282613754e-02 -1.673762500286102295e-01 -3.012717701494693756e-03 -1.596075743436813354e-01 -1.788857132196426392e-01 2.164263576269149780e-01 2.117043733596801758e-01 2.542283199727535248e-02 -2.862261831760406494e-01 -2.120302990078926086e-03 -8.137372136116027832e-02 -8.155592530965805054e-02 -3.583391308784484863e-01 2.268717736005783081e-01 2.581782042980194092e-01 -1.368585228919982910e-01 -4.355969652533531189e-02 -1.885965317487716675e-01 -8.033862709999084473e-02 2.472352534532546997e-01 6.858473271131515503e-02 3.127811551094055176e-01 1.485538333654403687e-01 -4.167539253830909729e-02 1.707981675863265991e-01 1.164847537875175476e-01 -3.874383866786956787e-02 -3.441800177097320557e-01 -2.177319377660751343e-01 -3.619412705302238464e-02 -2.229533940553665161e-01 3.100600540637969971e-01 -2.321011871099472046e-01 -7.758185267448425293e-02 -1.678639054298400879e-01 1.131982579827308655e-01 1.737380474805831909e-01 6.327397376298904419e-02 -1.471323370933532715e-01 2.366666682064533234e-02 8.820728212594985962e-02 2.522811591625213623e-01 -1.780385822057723999e-01 1.077932640910148621e-01 8.300535380840301514e-02 -2.982751931995153427e-03 1.768361181020736694e-01 6.538712233304977417e-02 1.197505965828895569e-01 2.548269927501678467e-01 1.209094002842903137e-02 2.488397210836410522e-01 -1.236544027924537659e-01 -4.790895059704780579e-02 -2.905251644551753998e-02 -6.947328150272369385e-02 -1.120360419154167175e-01 -6.726726144552230835e-02 9.398807771503925323e-03 3.001316450536251068e-02 1.183735113590955734e-02 1.991382986307144165e-02 -2.311941049993038177e-02 -7.880289107561111450e-03 1.391141302883625031e-02 1.615066528320312500e-01 2.435132712125778198e-01 3.991302847862243652e-02
-2.109509706497192383e-01 1.612801253795623779e-01 -2.096668332815170288e-01 -2.396166175603866577e-01 5.449959635734558105e-02 1.020266413688659668e-01 1.545025110244750977e-01 -1.594400852918624878e-01 -1.610096842050552368e-01 -3.382651209831237793e-01 -1.623896062374114990e-01 2.254430502653121948e-01 9.134367108345031738e-02 7.801044732332229614e-02 2.974378168582916260e-01 1.934785097837448120e-01 -2.778352200984954834e-01 1.197264716029167175e-01 1.725908019579946995e-03 -2.425190061330795288e-01 -1.099493280053138733e-01 -1.663197427988052368e-01 1.288443710654973984e-02 -1.715027377940714359e-03 2.883237004280090332e-01 1.230517625808715820e-01 1.547336727380752563e-01 -2.586463093757629395e-01 5.537080392241477966e-02 2.782948315143585205e-01 -3.819772228598594666e-02 6.968535482883453369e-02 9.952756017446517944e-02 3.136453926563262939e-01 -3.453934565186500549e-02 3.535551726818084717e-01 2.592836916446685791e-01 2.767651379108428955e-01 2.751205563545227051e-01 -9.354454278945922852e-02 -6.780829280614852905e-02 8.903601020574569702e-02 1.907439678907394409e-01 -2.554295957088470459e-01 -3.588980808854103088e-02 -1.589449346065521240e-01 -1.099933385848999023e-01 -2.688598930835723877e-01 6.454690545797348022e-02 -1.868193619884550571e-03 2.277698367834091187e-01 4.468013718724250793e-02 2.987705543637275696e-02 -3.012856543064117432e-01 1.502652317285537720e-01 -1.654954552650451660e-01 -1.065184026956558228e-01 -3.355632126331329346e-01 -1.722472161054611206e-01 -2.501690387725830078e-01 2.695410847663879395e-01 -3.689446747303009033e-01 -2.000436037778854370e-01 3.367688134312629700e-02 -9.881865233182907104e-02 -7.650768011808395386e-02 -1.745339483022689819e-01 1.487121451646089554e-02 -1.323837786912918091e-01 -1.877198368310928345e-01 3.532179817557334900e-02 6.661190185695886612e-03 -5.777667835354804993e-02 6.158455740660429001e-03 2.439571917057037354e-01 -3.006439805030822754e-01 -1.617145687341690063e-01 -1.964701861143112183e-01 -3.306962847709655762e-01 -3.132046461105346680e-01 -5.140339210629463196e-02 3.164902031421661377e-01 -5.280004814267158508e-02 -2.151624709367752075e-01 -7.888999581336975098e-02 -1.969180554151535034e-01 -8.046191185712814331e-02 -2.245868444442749023e-01 1.866540871560573578e-02 2.371928691864013672e-01 -6.468301266431808472e-02 -6.097156554460525513e-02 -3.027462661266326904e-01 -1.197070032358169556e-01 3.359254598617553711e-01 -1.003982964903116226e-02 -2.291305810213088989e-01 -1.926123350858688354e-01 1.556286364793777466e-01 -1.829083263874053955e-01
-4.261577501893043518e-03 3.102599978446960449e-01 1.095526814460754395e-01 -3.579495549201965332e-01 7.685098052024841309e-02 5.213202163577079773e-02 -1.566036641597747803e-01 4.815706051886081696e-03 -5.331112071871757507e-02 1.271265745162963867e-01 3.362882509827613831e-02 -2.446637600660324097e-01 -2.088497765362262726e-02 1.653537154197692871e-01 9.778880327939987183e-02 -1.712255328893661499e-01 1.307365149259567261e-01 1.948944181203842163e-01 -2.366121858358383179e-01 -8.880708366632461548e-03 -1.466043293476104736e-01 -3.050453960895538330e-02 -3.676919341087341309e-01 -9.264918416738510132e-02 4.277301579713821411e-02 -4.836908727884292603e-02 -1.002531871199607849e-01 -6.787884980440139771e-02 -1.247471719980239868e-01 2.644646465778350830e-01 -1.110165864229202271e-01 -1.061306595802307129e-01 -2.912577800452709198e-02 -2.600168883800506592e-01 1.781399995088577271e-01 1.710607856512069702e-01 1.972624510526657104e-01 1.035180464386940002e-01 -4.093137755990028381e-02 6.828375905752182007e-02 -5.671487655490636826e-03 -2.273724377155303955e-01 -9.220598638057708740e-02 1.284191310405731201e-01 -9.723024070262908936e-02 -2.815446555614471436e-01 -1.087489947676658630e-01 -1.144235953688621521e-01 -6.263246294111013412e-03 1.428172886371612549e-01 6.038765236735343933e-02 -1.494431942701339722e-01 2.077194005250930786e-01 1.742617338895797729e-01 1.149022206664085388e-02 -1.445460617542266846e-01 -2.115060389041900635e-01 -2.092669717967510223e-02 1.974388808012008667e-01 3.145331144332885742e-02 -1.435888856649398804e-01 -8.853633701801300049e-02 -1.347170919179916382e-01 2.843483090400695801e-01 1.537315845489501953e-01 -2.095772325992584229e-01 -8.145616948604583740e-02 1.391009837388992310e-01 -1.621702909469604492e-01 3.608479201793670654e-01 5.122472718358039856e-02 2.176637500524520874e-01 -1.399057209491729736e-01 -2.377014607191085815e-01 2.789831161499023438e-01 1.417855471372604370e-01 9.540218859910964966e-02 -1.899320185184478760e-01 -1.078967191278934479e-02 1.129403486847877502e-01 -1.026658564805984497e-01 -1.345757097005844116e-01 -1.256042569875717163e-01 2.166903316974639893e-01 -1.616326421499252319e-01 -3.942050039768218994e-01 -8.223561197519302368e-02 -2.705941498279571533e-01 2.444732189178466797e-01 2.105033248662948608e-01 -2.350883036851882935e-01 7.194670289754867554e-02 -3.935289382934570312e-01 1.153263002634048462e-01 -2.940222918987274170e-01 -1.608272343873977661e-01 1.952612847089767456e-01 1.618749499320983887e-01 -2.034256756305694580e-01 -8.032704889774322510e-02
-2.792718410491943359e-01 1.348013132810592651e-01 3.215214610099792480e-01 -5.713528394699096680e-02 -3.009171187877655029e-01 1.075913906097412109e-01 2.807904183864593506e-01 3.237116336822509766e-01 9.338890761137008667e-02 -8.020991086959838867e-02 6.474182754755020142e-02 -1.590636931359767914e-02 2.670502364635467529e-01 3.039903705939650536e-03 -9.292618930339813232e-02 9.243720024824142456e-02 3.516983613371849060e-02 -1.971243619918823242e-01 -1.395694166421890259e-01 3.223470970988273621e-02 -3.140911757946014404e-01 8.324405550956726074e-02 -1.940783485770225525e-02 -4.027881473302841187e-02 -2.224800437688827515e-01 2.598977982997894287e-01 7.602702081203460693e-02 1.254743784666061401e-01 -5.634870007634162903e-02 2.849374711513519287e-01 2.654442191123962402e-01 -4.689396545290946960e-02 -1.135499998927116394e-01 -4.524450004100799561e-02 -9.564565122127532959e-02 1.025424748659133911e-01 -3.148862123489379883e-01 9.317941218614578247e-02 -4.612622782588005066e-03 -2.625531852245330811e-01 1.183253452181816101e-01 -3.114592730998992920e-01 9.433635324239730835e-02 2.599068284034729004e-01 1.583544351160526276e-02 7.863086462020874023e-02 2.001084387302398682e-01 -1.487558335065841675e-01 1.126231327652931213e-01 1.184139177203178406e-01 1.716525256633758545e-01 3.013511002063751221e-01 -5.282561853528022766e-02 -2.468718290328979492e-01 1.458512842655181885e-01 1.882934123277664185e-01 3.258815705776214600e-01 1.198744550347328186e-01 7.453774660825729370e-02 -2.168790400028228760e-01 -2.819771468639373779e-01 -2.210488915443420410e-02 2.179298698902130127e-01 -5.007126927375793457e-02 2.625024132430553436e-02 -1.166111826896667480e-01 -4.501175135374069214e-02 1.064237728714942932e-01 -1.076811552047729492e-01 9.997480362653732300e-02 1.949485242366790771e-01 1.749234795570373535e-01 -2.785026133060455322e-01 -8.445365726947784424e-02 -2.904957234859466553e-01 -8.902499452233314514e-03 1.936219632625579834e-01 -1.768711023032665253e-02 1.448605358600616455e-01 3.294837176799774170e-01 -5.610878020524978638e-02 -9.209565818309783936e-02 3.634051084518432617e-01 1.233389005064964294e-01 -1.528025567531585693e-01 -2.907912433147430420e-01 9.533187001943588257e-02 2.018565684556961060e-02 1.376594752073287964e-01 -2.578334808349609375e-01 -1.817511022090911865e-01 1.143805906176567078e-01 -1.078685522079467773e-01 1.192743778228759766e-01 3.102573156356811523e-01 4.393882676959037781e-02 -1.135746389627456665e-02 1.454294007271528244e-02 -2.560789585113525391e-01 7.656020671129226685e-02
-2.770685032010078430e-02 -1.521767377853393555e-01 7.799424976110458374e-02 2.087305337190628052e-01 -6.247966364026069641e-02 2.924751117825508118e-02 9.780933707952499390e-02 1.591225415468215942e-01 -3.212920948863029480e-02 -1.725558564066886902e-02 1.152537241578102112e-01 1.180556565523147583e-01 2.862928807735443115e-01 -2.040324956178665161e-01 -3.175614401698112488e-02 -2.154241651296615601e-01 2.045664787292480469e-01 1.549865305423736572e-02 2.340268343687057495e-01 -2.955738604068756104e-01 1.347852032631635666e-02 -5.166336894035339355e-02 3.736385703086853027e-02 -3.828896582126617432e-01 1.322208046913146973e-01 -6.851270794868469238e-02 2.910372316837310791e-01 -1.922515779733657837e-01 -1.838141679763793945e-01 -7.196278125047683716e-02 -9.192892163991928101e-02 -3.452096879482269287e-01 -1.847331970930099487e-01 3.734333813190460205e-01 -5.562401562929153442e-02 -1.913454234600067139e-01 2.005532085895538330e-01 2.878410927951335907e-02 -2.043519169092178345e-02 7.475368678569793701e-02 -2.163636535406112671e-01 -1.871201843023300171e-01 -8.082154393196105957e-02 -4.076965153217315674e-02 -1.635297685861587524e-01 -5.678116157650947571e-02 -3.007505238056182861e-01 8.430252224206924438e-02 1.907154172658920288e-01 -5.198933556675910950e-02 2.022930234670639038e-01 1.037447080016136169e-01 3.274106383323669434e-01 1.237219944596290588e-01 3.025934994220733643e-01 -1.873259395360946655e-01 -1.980336755514144897e-01 -4.123871680349111557e-03 1.649494022130966187e-01 6.320045888423919678e-02 -1.631137281656265259e-01 -2.882855199277400970e-02 -3.992130223195999861e-04 -1.002019792795181274e-01 1.108058691024780273e-01 -1.055315658450126648e-01 -2.392279654741287231e-01 -3.106720149517059326e-01 -9.782375395298004150e-02 -1.726430058479309082e-01 -1.137871146202087402e-01 8.978468924760818481e-02 -1.102599408477544785e-02 -1.412174552679061890e-01 1.059972271323204041e-01 -3.035304546356201172e-01 -1.269178092479705811e-01 2.958150506019592285e-01 -2.171191275119781494e-01 -4.841684550046920776e-02 -5.852301046252250671e-02 1.344578564167022705e-01 -1.196872144937515259e-01 -1.174811646342277527e-01 -5.368714407086372375e-02 5.210304260253906250e-02 1.619535833597183228e-01 1.285213232040405273e-01 2.992463707923889160e-01 9.032668918371200562e-02 1.298335194587707520e-01 -1.150189191102981567e-01 8.034663647413253784e-02 2.152612954378128052e-01 -1.264464557170867920e-01 2.014478892087936401e-01 -1.566543132066726685e-01 2.078937143087387085e-01 -9.802152961492538452e-02 -1.857430785894393921e-01
-9.673303365707397461e-02 2.399046868085861206e-01 1.520385444164276123e-01 -3.118736855685710907e-02 -1.421093493700027466e-01 2.370705604553222656e-01 1.053365021944046021e-01 -2.055743038654327393e-01 -1.763096302747726440e-01 -9.380300343036651611e-02 -3.616089820861816406e-01 -1.559803336858749390e-01 1.048547849059104919e-01 -3.718239665031433105e-01 2.927986718714237213e-02 3.664406239986419678e-01 1.699897795915603638e-01 -1.817666143178939819e-01 2.056736499071121216e-01 8.580546826124191284e-02 4.382979869842529297e-02 4.034181684255599976e-02 -1.812435500323772430e-02 8.064624667167663574e-02 -1.278261095285415649e-01 1.842772811651229858e-01 -5.038487538695335388e-02 1.775651983916759491e-02 2.808245122432708740e-01 1.344828456640243530e-01 1.029591783881187439e-01 2.474120706319808960e-01 -3.028508126735687256e-01 -1.091342121362686157e-01 1.868968904018402100e-01 -7.166180759668350220e-02 -3.343837559223175049e-01 -6.795669347047805786e-02 1.170261651277542114e-01 -8.399283140897750854e-02 -2.229807674884796143e-01 -3.798377513885498047e-02 2.214795798063278198e-01 2.928597629070281982e-01 -1.878542304039001465e-01 -1.239416226744651794e-01 -1.677232235670089722e-01 1.997542530298233032e-01 6.669571250677108765e-02 2.266687899827957153e-01 1.430024392902851105e-02 5.791395530104637146e-02 -3.264399990439414978e-02 -3.322102427482604980e-01 1.771555840969085693e-01 2.874098718166351318e-01 1.724396646022796631e-01 -8.802115172147750854e-02 -1.833472102880477905e-01 1.383654326200485229e-01 1.564648598432540894e-01 -2.326316684484481812e-01 -7.200072053819894791e-03 1.103627905249595642e-01 1.371877789497375488e-01 -2.765228450298309326e-01 -2.238846123218536377e-01 4.365302249789237976e-02 -1.324364729225635529e-02 6.329220533370971680e-02 -8.537857979536056519e-02 -4.864844027906656265e-03 -1.933937519788742065e-01 1.168969273567199707e-01 -1.930258236825466156e-02 -2.623087465763092041e-01 -3.402238339185714722e-02 -2.637946419417858124e-02 -9.663552790880203247e-02 -6.806177645921707153e-02 8.537384122610092163e-02 -1.940887123346328735e-01 4.294497892260551453e-02 -2.449961155652999878e-01 4.824380949139595032e-02 1.069237962365150452e-01 1.645872741937637329e-01 5.219894275069236755e-02 -2.699579298496246338e-01 -2.256382703781127930e-01 2.091708630323410034e-01 1.848842352628707886e-01 5.106378719210624695e-02 -1.727988719940185547e-01 -1.239886507391929626e-01 -9.827917069196701050e-02 2.848489396274089813e-02 3.149821162223815918e-01 -7.603625953197479248e-02 -2.300007641315460205e-01
-9.836880862712860107e-02 2.782518975436687469e-02 -1.690503582358360291e-02 7.079920172691345215e-02 -2.702493369579315186e-01 1.944898813962936401e-01 -3.158596456050872803e-01 1.415214985609054565e-01 -2.471710741519927979e-02 -1.099161729216575623e-01 1.569487750530242920e-01 -6.683679670095443726e-02 -2.663987576961517334e-01 -5.692861229181289673e-02 -1.107435673475265503e-02 -6.900358479470014572e-03 -1.452767103910446167e-02 -2.917883098125457764e-01 1.811534166336059570e-01 -9.808665513992309570e-02 -2.311599552631378174e-01 -1.118775233626365662e-01 -3.068272471427917480e-01 -1.891181915998458862e-01 3.216644525527954102e-01 -1.261041760444641113e-01 1.175778219476342201e-03 8.405170589685440063e-02 -2.790963053703308105e-01 1.092151403427124023e-01 8.593028038740158081e-02 -6.660582870244979858e-02 1.233647689223289490e-01 1.695984303951263428e-01 7.606624066829681396e-02 1.107428446412086487e-01 -3.104931116104125977e-02 8.418485522270202637e-02 -1.237566675990819931e-02 1.460696905851364136e-01 1.247118487954139709e-01 2.600643336772918701e-01 1.147295013070106506e-01 -1.258377283811569214e-01 3.799734637141227722e-02 -2.182126045227050781e-01 1.597799360752105713e-01 1.864047497510910034e-01 2.647975087165832520e-01 3.152360394597053528e-02 -3.232982009649276733e-02 1.016418710350990295e-01 1.420940607786178589e-01 1.505040377378463745e-01 -4.161053150892257690e-02 2.074029110372066498e-02 2.315858602523803711e-01 -1.465381085872650146e-01 1.721292734146118164e-01 -3.774952609091997147e-03 -1.609841734170913696e-02 3.632347285747528076e-02 5.359719321131706238e-02 -7.726096361875534058e-02 1.863996237516403198e-01 3.802316486835479736e-01 1.673963516950607300e-01 -3.710612952709197998e-01 1.632847040891647339e-01 3.062838613986968994e-01 -1.930909790098667145e-02 -7.306364364922046661e-03 3.117827177047729492e-01 -4.255972430109977722e-02 -1.174855232238769531e-01 1.989161968231201172e-01 1.104950830340385437e-01 5.566047504544258118e-02 2.692220211029052734e-01 -3.648732230067253113e-02 8.345764130353927612e-02 -1.549595445394515991e-01 1.382311135530471802e-01 7.979497313499450684e-02 5.437205359339714050e-02 4.347641393542289734e-02 -6.702921539545059204e-02 1.041791662573814392e-01 1.893571950495243073e-02 1.559747662395238876e-02 -1.028250455856323242e-01 -2.590521275997161865e-01 9.441186673939228058e-03 2.921772301197052002e-01 -6.633992493152618408e-02 2.983988821506500244e-01 3.603327870368957520e-01 -3.056743443012237549e-01 2.462263107299804688e-01 -5.109648779034614563e-02
1.429870873689651489e-01 1.025489196181297302e-01 -3.198589384555816650e-01 9.106951206922531128e-02 -2.009546011686325073e-01 6.620218604803085327e-02 -6.786219030618667603e-02 2.832411825656890869e-01 -4.018621146678924561e-02 -8.801797777414321899e-02 1.146063134074211121e-01 1.495282948017120361e-01 -2.901084721088409424e-01 -2.332444190979003906e-01 4.725606366991996765e-02 -3.254864513874053955e-01 -1.415496468544006348e-01 9.753350913524627686e-02 -1.329915672540664673e-01 -4.516361653804779053e-02 -9.578395634889602661e-03 -1.078801304101943970e-01 -1.361823361366987228e-02 -1.223646402359008789e-01 3.078462183475494385e-01 1.697363518178462982e-02 -8.924852311611175537e-02 2.220083028078079224e-01 -2.833704650402069092e-01 1.467371284961700439e-01 -2.369712591171264648e-01 -1.407689303159713745e-01 1.398932375013828278e-02 -2.532753050327301025e-01 1.923255771398544312e-01 3.004271686077117920e-01 3.290171623229980469e-01 3.050532341003417969e-01 -8.525168150663375854e-02 4.749118164181709290e-02 -2.073489278554916382e-01 -1.012724265456199646e-01 1.722150892019271851e-01 1.518878787755966187e-01 1.987277120351791382e-01 1.668151319026947021e-01 3.434431254863739014e-01 1.077459603548049927e-01 -1.410986930131912231e-01 -1.666426509618759155e-01 5.693009495735168457e-02 -5.475017707794904709e-03 6.306973285973072052e-03 -1.744903177022933960e-01 -1.572133153676986694e-01 1.668695956468582153e-01 -9.023278206586837769e-02 -1.024272218346595764e-01 8.198168128728866577e-02 2.549939155578613281e-01 -2.045365571975708008e-01 2.123329192399978638e-01 4.380458220839500427e-02 -8.033328503370285034e-02 -6.962546147406101227e-03 1.122527290135622025e-02 -1.434655040502548218e-01 -1.688353531062602997e-02 -1.651756167411804199e-01 -3.662764653563499451e-02 1.845831125974655151e-01 -2.093652933835983276e-01 1.996626704931259155e-01 -1.556607484817504883e-01 -5.171846970915794373e-02 2.343915998935699463e-01 -2.162165939807891846e-02 -3.270761296153068542e-02 -3.332251012325286865e-01 2.403278350830078125e-01 1.580233424901962280e-01 -2.055608332157135010e-01 7.770641893148422241e-02 1.567621678113937378e-01 -9.179972857236862183e-02 1.905188262462615967e-01 -3.157995641231536865e-02 2.197420597076416016e-01 -9.207924455404281616e-02 -3.381872549653053284e-02 2.780567482113838196e-02 -2.400580197572708130e-01 2.008578330278396606e-01 -1.613326556980609894e-02 -2.835890054702758789e-01 -1.009426489472389221e-01 3.108365833759307861e-01 2.027934342622756958e-01 2.546059191226959229e-01 -7.601394504308700562e-02
-8.165913075208663940e-02 -1.201618090271949768e-01 1.126179322600364685e-01 7.362475246191024780e-02 -1.135180518031120300e-01 3.843932598829269409e-02 2.036961764097213745e-01 -7.515768706798553467e-02 -4.820209369063377380e-02 -1.740287989377975464e-01 2.228001654148101807e-01 4.722082521766424179e-03 -7.844191789627075195e-02 -2.568559348583221436e-01 -2.962465882301330566e-01 -6.863354891538619995e-02 -1.596059501171112061e-01 2.962081730365753174e-01 1.102956086397171021e-01 -1.675790399312973022e-01 7.251621782779693604e-02 1.333928853273391724e-01 2.194150239229202271e-01 -1.742483824491500854e-01 -3.776925802230834961e-01 -1.880570948123931885e-01 1.993717402219772339e-01 -1.319862753152847290e-01 1.548192203044891357e-01 1.636743098497390747e-01 -2.016709297895431519e-01 -1.138839349150657654e-01 -1.234788075089454651e-01 2.679141461849212646e-01 2.358299493789672852e-01 -1.075190529227256775e-01 2.371321469545364380e-01 -1.104178056120872498e-01 -8.204644918441772461e-02 1.177074909210205078e-01 -1.865342408418655396e-01 8.435510843992233276e-02 2.931662499904632568e-01 -2.697459459304809570e-01 9.774738550186157227e-02 -3.797067329287528992e-02 2.605747282505035400e-01 -3.925700858235359192e-02 9.451364725828170776e-02 -1.383333206176757812e-01 -1.213578358292579651e-01 2.019504085183143616e-02 -1.146754249930381775e-01 -1.208507567644119263e-01 -1.411589831113815308e-01 -4.514615982770919800e-02 3.060111701488494873e-01 -3.790826797485351562e-01 -9.407897479832172394e-03 1.840554177761077881e-01 2.763954177498817444e-02 2.075659781694412231e-01 -1.878289431333541870e-01 -1.375542134046554565e-01 -4.141979664564132690e-02 -4.359465837478637695e-02 1.026633530855178833e-01 1.522842347621917725e-01 1.704017966985702515e-01 2.483767457306385040e-02 -3.499818732962012291e-03 -1.360376775264739990e-01 -1.672920435667037964e-01 -1.837996998801827431e-03 -2.119387388229370117e-01 -3.002369403839111328e-02 9.889065474271774292e-02 2.258406132459640503e-01 6.836857646703720093e-02 -3.039066493511199951e-02 -1.782047599554061890e-01 8.635847270488739014e-02 2.889772057533264160e-01 1.497903764247894287e-01 -2.427818775177001953e-01 1.534422188997268677e-01 2.108282595872879028e-01 1.606043428182601929e-01 1.366165727376937866e-01 -3.944138288497924805e-01 -1.250964254140853882e-01 -3.089303672313690186e-01 8.515343070030212402e-02 -1.919625103473663330e-01 -5.297061428427696228e-02 2.347664386034011841e-01 -9.700994938611984253e-02 3.130330741405487061e-01 1.109503060579299927e-01 -1.739439219236373901e-01
7.786978781223297119e-02 3.981438465416431427e-03 -1.293531954288482666e-01 1.898202113807201385e-02 2.235146313905715942e-01 1.384633481502532959e-01 2.574383318424224854e-01 1.031655818223953247e-01 3.297454118728637695e-01 -1.155313253402709961e-01 -1.873611807823181152e-01 -1.365900486707687378e-01 2.636701464653015137e-01 -2.840623026713728905e-03 -3.378812670707702637e-01 1.653984189033508301e-01 -3.913047537207603455e-02 -1.007558777928352356e-02 1.128637343645095825e-01 -3.099474124610424042e-02 -2.180327624082565308e-01 -2.813475131988525391e-01 -1.149609312415122986e-01 -1.705786585807800293e-01 3.440879881381988525e-01 1.088611111044883728e-01 -6.126205995678901672e-02 5.974968150258064270e-02 3.427308797836303711e-02 1.528729647397994995e-01 5.253781005740165710e-02 2.112018913030624390e-01 1.074731349945068359e-01 2.532635331153869629e-01 -3.807631134986877441e-02 1.769072748720645905e-02 4.401075467467308044e-02 1.191504597663879395e-01 -3.979725018143653870e-02 1.906028538942337036e-01 -1.097774878144264221e-01 -1.003363132476806641e-01 -4.920015856623649597e-02 -1.062804013490676880e-01 -3.093174099922180176e-01 -8.248703926801681519e-02 -4.332172125577926636e-02 -4.545393213629722595e-02 1.485520005226135254e-01 -1.512828189879655838e-02 1.896488219499588013e-01 1.087073609232902527e-01 1.829506009817123413e-01 1.120575666427612305e-01 2.394287139177322388e-01 1.202372312545776367e-01 8.622675389051437378e-02 -2.409762889146804810e-01 2.204288095235824585e-01 -2.515480220317840576e-01 -1.311440020799636841e-01 -2.346307337284088135e-01 1.195641905069351196e-01 3.963024914264678955e-01 1.730375140905380249e-01 1.209491025656461716e-02 -1.459858268499374390e-01 -2.510333061218261719e-01 3.222689405083656311e-02 1.690839529037475586e-01 3.300819993019104004e-01 6.450491398572921753e-02 2.113519906997680664e-01 -3.852235972881317139e-01 -3.232333660125732422e-01 -2.642751336097717285e-01 -6.307840347290039062e-02 -3.088067770004272461e-01 1.227966696023941040e-02 -6.886775791645050049e-02 -2.128207683563232422e-02 -1.122503890655934811e-03 2.037281915545463562e-02 -3.115278184413909912e-01 2.025807462632656097e-02 -3.839301317930221558e-02 -1.851352304220199585e-01 3.524989485740661621e-01 -1.330374926328659058e-01 3.119603097438812256e-01 -1.243974789977073669e-01 -1.658415645360946655e-01 -1.712347418069839478e-01 -1.448371261358261108e-01 1.350217610597610474e-01 2.034066477790474892e-03 -1.192077621817588806e-01 2.205857783555984497e-01 -1.353075820952653885e-02 6.534502655267715454e-02
3.061921298503875732e-01 -2.637390494346618652e-01 3.852006793022155762e-01 5.029982328414916992e-02 -3.047340810298919678e-01 3.192447721958160400e-01 3.233957290649414062e-02 -4.687336273491382599e-03 2.072230167686939240e-02 3.594255447387695312e-01 -1.119705662131309509e-02 -3.854152262210845947e-01 -4.527661576867103577e-02 -5.418092757463455200e-02 2.178783155977725983e-02 -5.494516715407371521e-02 2.571410238742828369e-01 -1.411481648683547974e-01 2.793787419795989990e-01 -9.907534345984458923e-03 1.067534610629081726e-01 1.695203632116317749e-01 -3.439028859138488770e-01 3.460949361324310303e-01 2.087594121694564819e-01 1.246244907379150391e-01 -1.138509288430213928e-01 6.954980641603469849e-02 1.295438855886459351e-01 1.907617598772048950e-01 -1.804686635732650757e-01 1.665146052837371826e-01 4.213876649737358093e-02 3.444970399141311646e-02 -1.865013688802719116e-01 -1.235180422663688660e-01 1.431150287389755249e-01 -1.860179752111434937e-01 5.413681268692016602e-02 8.321587927639484406e-03 1.161324009299278259e-01 -2.019437551498413086e-01 2.412223070859909058e-01 -8.102795481681823730e-02 4.245697520673274994e-03 1.293154805898666382e-01 -3.333524167537689209e-01 9.223403036594390869e-02 -6.325410306453704834e-02 2.961411513388156891e-02 -2.348618358373641968e-01 -1.015213727951049805e-01 1.475958228111267090e-01 1.822748333215713501e-01 3.349153697490692139e-01 -4.428064450621604919e-02 1.621413230895996094e-02 -1.262142807245254517e-01 -2.771762013435363770e-01 -2.753726243972778320e-01 7.929867133498191833e-03 -1.177904978394508362e-01 7.544117420911788940e-02 1.051927432417869568e-01 6.811336427927017212e-02 1.721245497465133667e-01 9.616764634847640991e-02 -3.778208494186401367e-01 2.456527501344680786e-01 5.067697912454605103e-02 -1.312960982322692871e-01 4.129141196608543396e-02 2.716691233217716217e-02 2.606735527515411377e-01 3.841629251837730408e-02 -4.185160156339406967e-03 -1.091647148132324219e-01 1.798297017812728882e-01 -1.231483966112136841e-01 2.511627674102783203e-01 9.649109095335006714e-03 3.758530691266059875e-02 1.923897564411163330e-01 -1.108333989977836609e-01 -1.338910460472106934e-01 -2.379612252116203308e-02 1.156339272856712341e-01 -1.807087957859039307e-01 -1.019748076796531677e-01 6.182156875729560852e-02 -1.781879663467407227e-01 -9.164836257696151733e-02 1.776833385229110718e-01 -2.209547013044357300e-01 -1.428203880786895752e-01 9.709247387945652008e-03 -1.192948147654533386e-01 -8.368311077356338501e-02 -1.488545686006546021e-01 -1.006036177277565002e-01
-2.195173352956771851e-01 -2.959825098514556885e-01 9.483715146780014038e-02 -5.665990710258483887e-02 1.944988965988159180e-01 -7.131909579038619995e-02 -1.439289301633834839e-01 3.234740197658538818e-01 2.705996930599212646e-01 -1.734552234411239624e-01 1.766368299722671509e-01 9.105733036994934082e-02 -1.133511587977409363e-01 5.344126373529434204e-02 1.084970608353614807e-01 4.662044346332550049e-02 1.247088238596916199e-01 -6.580045074224472046e-02 5.493500828742980957e-02 -1.682742834091186523e-01 1.322038620710372925e-01 -1.166667342185974121e-01 8.377267420291900635e-02 6.859391182661056519e-02 6.119887903332710266e-02 3.233807533979415894e-02 5.880495533347129822e-02 -1.683901399374008179e-01 -2.057550698518753052e-01 2.772018127143383026e-02 2.659751474857330322e-01 -1.160022541880607605e-01 -1.800885982811450958e-02 2.944194376468658447e-01 1.284897793084383011e-02 1.034312397241592407e-01 -8.485550433397293091e-02 2.208294123411178589e-01 1.500914543867111206e-01 -4.522533714771270752e-02 -2.166750431060791016e-01 -1.626336872577667236e-01 -9.082094579935073853e-02 2.791264466941356659e-02 2.048277854919433594e-01 -4.643895849585533142e-02 1.021005734801292419e-01 -1.006442308425903320e-01 -1.132250204682350159e-01 2.343992441892623901e-01 -7.148847728967666626e-02 -9.745990484952926636e-02 -7.944421842694282532e-03 -1.937560439109802246e-01 6.087929010391235352e-02 -1.014578938484191895e-01 -5.337693728506565094e-03 -7.488770037889480591e-02 9.430369734764099121e-02 -1.781355589628219604e-01 9.574792534112930298e-02 -2.325094193220138550e-01 -3.869151771068572998e-01 -5.724182352423667908e-02 -2.009138315916061401e-01 -2.608155086636543274e-02 -3.018909990787506104e-01 -1.544563919305801392e-01 -6.647730618715286255e-02 -2.344236373901367188e-01 1.632615774869918823e-01 5.612403620034456253e-03 -7.867317646741867065e-02 1.199726834893226624e-01 1.987864673137664795e-01 -1.900936067104339600e-01 -8.161997050046920776e-02 1.931884437799453735e-01 3.000473082065582275e-01 5.068967491388320923e-02 1.583628589287400246e-03 -1.771323233842849731e-01 9.284215420484542847e-02 -1.517259925603866577e-01 -1.355123817920684814e-01 6.456246972084045410e-02 -1.841763108968734741e-01 -2.856571376323699951e-01 -1.171837933361530304e-02 7.040203362703323364e-02 -1.540784090757369995e-01 2.123381011188030243e-02 1.962019875645637512e-02 -2.809776067733764648e-01 -3.006819821894168854e-02 5.333978682756423950e-03 2.678909301757812500e-01 8.348778635263442993e-02 2.432304620742797852e-01 -2.697099149227142334e-01
-1.209583058953285217e-01 8.431353420019149780e-02 1.518222391605377197e-01 -2.321073263883590698e-01 1.111110597848892212e-01 -2.186207100749015808e-02 1.024244055151939392e-01 6.455882638692855835e-02 2.976399064064025879e-01 -1.699617877602577209e-02 -3.499303385615348816e-02 1.248567923903465271e-01 2.275629341602325439e-01 5.696541164070367813e-03 -5.610827356576919556e-02 4.189611226320266724e-02 -1.375871002674102783e-01 -1.556868404150009155e-01 1.723576784133911133e-01 1.875528544187545776e-01 2.309782952070236206e-01 2.592189423739910126e-02 -5.819118767976760864e-02 -1.147422716021537781e-01 -1.059922128915786743e-01 -1.018178239464759827e-01 1.916210502386093140e-01 2.852726578712463379e-01 -3.346397578716278076e-01 1.697524935007095337e-01 1.823289394378662109e-01 1.939072310924530029e-01 2.865714728832244873e-01 7.506250590085983276e-02 -1.347356587648391724e-01 1.008902564644813538e-01 3.322005569934844971e-01 -2.162466049194335938e-01 -1.762267649173736572e-01 6.185295805335044861e-02 1.751485913991928101e-01 -2.292294986546039581e-02 -3.415335118770599365e-01 -5.628908798098564148e-02 8.250404149293899536e-03 -1.967779844999313354e-01 -1.208365615457296371e-02 3.242570459842681885e-01 1.912522017955780029e-01 -1.692010611295700073e-01 -3.964731693267822266e-01 1.474040001630783081e-01 2.737909555435180664e-01 8.644557744264602661e-02 6.676836311817169189e-02 -2.925921678543090820e-01 2.377261668443679810e-01 -1.685434728860855103e-01 -7.315403223037719727e-02 5.165812373161315918e-02 -2.275633625686168671e-02 -4.327013343572616577e-02 4.836458340287208557e-02 2.052668668329715729e-02 -2.713182866573333740e-01 -1.689932495355606079e-01 -1.496909707784652710e-01 -1.066773533821105957e-01 -1.760899275541305542e-01 3.976228833198547363e-02 2.473935335874557495e-01 -1.167578920722007751e-01 2.313357144594192505e-01 3.027367293834686279e-01 8.096788078546524048e-02 2.425103038549423218e-01 -6.671265512704849243e-02 3.023024201393127441e-01 1.288343816995620728e-01 -1.657853573560714722e-01 -1.948932856321334839e-01 1.547871828079223633e-01 -1.543503105640411377e-01 -1.427886635065078735e-01 -2.493980340659618378e-02 -1.288689393550157547e-02 9.057700634002685547e-02 -9.394189715385437012e-02 -2.606098353862762451e-01 -7.156109064817428589e-02 3.007138371467590332e-01 8.998990058898925781e-02 6.453943997621536255e-02 1.756038367748260498e-01 3.258890509605407715e-01 -3.348969817161560059e-01 1.648270040750503540e-01 2.231780737638473511e-01 -8.082810789346694946e-02 -3.311584517359733582e-02
-1.112349405884742737e-01 9.864090941846370697e-03 -1.844863891601562500e-01 3.853181600570678711e-01 -2.922388492152094841e-03 -2.674184739589691162e-01 -1.796069145202636719e-01 -5.186641588807106018e-03 2.869865596294403076e-01 -3.142212927341461182e-01 8.769074082374572754e-02 -1.514285523444414139e-02 1.289585083723068237e-01 2.944957911968231201e-01 1.588107459247112274e-02 3.015555739402770996e-01 1.747694462537765503e-01 -1.749890148639678955e-01 1.427591294050216675e-01 -5.237923935055732727e-02 -4.227463528513908386e-02 6.523703783750534058e-02 2.262253761291503906e-01 1.419536024332046509e-01 1.369479745626449585e-01 -7.146703451871871948e-02 -3.070166148245334625e-02 2.086850851774215698e-01 -2.556497454643249512e-01 7.038199901580810547e-02 -2.844316959381103516e-01 -3.495206236839294434e-01 -2.060955315828323364e-01 -9.626930207014083862e-02 6.440360844135284424e-02 -1.501648873090744019e-01 -3.027469851076602936e-02 2.058967947959899902e-03 2.575079798698425293e-01 -3.821029663085937500e-01 -1.614154577255249023e-01 2.301434576511383057e-01 -3.418706059455871582e-01 -2.607476413249969482e-01 -2.654372155666351318e-01 9.257491677999496460e-02 1.905724219977855682e-02 -2.598706781864166260e-01 -3.789137303829193115e-02 1.299969404935836792e-01 -8.928682655096054077e-02 -2.331817597150802612e-01 -3.164295852184295654e-01 1.407924294471740723e-01 -1.233278736472129822e-01 2.614767253398895264e-01 1.985236704349517822e-01 2.410909235477447510e-01 -1.427585035562515259e-01 -1.107665225863456726e-01 1.733573079109191895e-01 1.135574560612440109e-02 1.179280057549476624e-01 6.477319449186325073e-02 -1.030724272131919861e-01 -2.184450626373291016e-01 7.089664787054061890e-02 2.166783669963479042e-03 -1.540526002645492554e-01 -1.498981714248657227e-01 2.835514247417449951e-01 -2.423028051853179932e-01 -2.495269626379013062e-01 -1.749821156263351440e-01 3.955295309424400330e-03 -1.867058314383029938e-02 4.852499812841415405e-02 1.027521118521690369e-02 9.280613064765930176e-02 9.264430403709411621e-02 -1.262789666652679443e-01 -1.476733833551406860e-01 -3.360021114349365234e-02 6.772088259458541870e-02 -9.337063878774642944e-02 -3.132743239402770996e-01 1.552281826734542847e-01 -1.622356474399566650e-01 -1.125073339790105820e-02 2.894959151744842529e-01 -3.240570053458213806e-02 -3.054943978786468506e-01 1.246875673532485962e-01 -5.647340044379234314e-02 8.059581369161605835e-02 3.776852190494537354e-01 6.968580931425094604e-02 1.437812447547912598e-01 -5.618447065353393555e-02 -3.640078306198120117e-01
-1.269864439964294434e-01 -1.349214762449264526e-01 -3.924806714057922363e-01 1.180761829018592834e-01 7.081436365842819214e-02 1.537582427263259888e-01 -2.784534394741058350e-01 1.887316554784774780e-01 2.400945276021957397e-01 -3.406655788421630859e-02 1.321199238300323486e-01 -4.244874045252799988e-02 -5.802914500236511230e-02 3.844254910945892334e-01 8.341113477945327759e-02 -1.861826032400131226e-01 -1.738943308591842651e-01 -1.513298451900482178e-01 -1.274877507239580154e-02 -2.234794199466705322e-01 1.647569686174392700e-01 -6.687696278095245361e-02 -8.516405709087848663e-03 -2.521483898162841797e-01 1.534196268767118454e-02 2.378612197935581207e-02 2.419133484363555908e-01 2.148791551589965820e-01 -1.044671311974525452e-01 -2.416762411594390869e-01 1.732489094138145447e-02 -7.508822530508041382e-02 2.165689468383789062e-01 1.238888725638389587e-01 -2.537229470908641815e-02 3.892075642943382263e-02 2.290341109037399292e-01 1.351421326398849487e-02 1.739219874143600464e-01 8.391884714365005493e-02 7.422128319740295410e-02 -2.404906749725341797e-01 1.127945724874734879e-02 3.420265913009643555e-01 1.074860617518424988e-01 -1.916941851377487183e-01 -3.324929475784301758e-01 7.263385504484176636e-02 -3.283077776432037354e-01 -3.137739598751068115e-01 1.567915678024291992e-01 -8.442827314138412476e-02 4.824587330222129822e-02 -2.567493729293346405e-02 9.460528194904327393e-02 -1.368380934000015259e-01 1.167062446475028992e-01 -3.470076620578765869e-01 -2.750249207019805908e-01 -6.820032000541687012e-02 1.266850996762514114e-02 2.263447046279907227e-01 1.413113623857498169e-01 1.045657917857170105e-01 -3.067071177065372467e-02 -1.219813749194145203e-01 -8.666514605283737183e-02 -2.803326547145843506e-01 -3.298955559730529785e-01 1.508303731679916382e-01 -3.572860658168792725e-01 7.760284352116286755e-04 -1.017466932535171509e-01 1.994614601135253906e-01 -1.165138259530067444e-01 2.984162569046020508e-01 -3.323971033096313477e-01 2.864216268062591553e-01 -5.961671471595764160e-02 3.335160911083221436e-01 -2.505741119384765625e-01 9.618448093533515930e-03 -5.796352773904800415e-02 -2.441713064908981323e-01 2.412585020065307617e-01 -5.384128168225288391e-02 -5.700468551367521286e-03 -1.884090453386306763e-01 2.515704631805419922e-01 -2.014458924531936646e-02 -4.098422452807426453e-02 2.202643603086471558e-01 -1.775123924016952515e-02 1.177861019968986511e-01 9.794951230287551880e-02 5.582846328616142273e-02 -1.580263972282409668e-01 -1.003913208842277527e-01 4.161703214049339294e-02 -2.640961408615112305e-01
9.927093237638473511e-02 -1.442892383784055710e-02 -1.696636378765106201e-01 -9.960853308439254761e-02 -2.523846365511417389e-02 -8.253395557403564453e-02 -3.699482679367065430e-01 1.592639535665512085e-01 -7.446879148483276367e-02 -1.583685874938964844e-01 5.034348368644714355e-02 -6.017031148076057434e-02 9.927167743444442749e-02 1.215948686003684998e-01 -2.765155136585235596e-01 -5.181051045656204224e-02 -9.309164434671401978e-02 9.767977893352508545e-02 1.950756758451461792e-01 1.807452552020549774e-02 1.482629776000976562e-02 7.296405732631683350e-02 5.720828101038932800e-02 -2.515874207019805908e-01 2.563016675412654877e-02 -3.661174699664115906e-02 5.279152467846870422e-02 1.714697927236557007e-01 1.936083287000656128e-01 -1.497374922037124634e-01 -1.801191419363021851e-01 -1.439862698316574097e-01 2.045338004827499390e-01 1.477403193712234497e-01 -1.363279577344655991e-02 -3.858925029635429382e-02 4.035719484090805054e-02 -1.882188022136688232e-01 2.235069572925567627e-01 -1.105466112494468689e-01 -2.178700417280197144e-01 -2.515884339809417725e-01 -2.581290602684020996e-01 -1.333133876323699951e-01 2.444571107625961304e-01 3.063014745712280273e-01 -1.782397478818893433e-01 -1.446321457624435425e-01 1.789350360631942749e-01 1.021030321717262268e-01 7.514501456171274185e-03 -2.261861413717269897e-01 2.773226797580718994e-02 -1.756516546010971069e-01 -5.207616090774536133e-02 1.792639642953872681e-01 2.016235888004302979e-01 1.349657960236072540e-02 2.815229631960391998e-02 -1.721047908067703247e-01 7.545650750398635864e-02 3.171575367450714111e-01 1.866841763257980347e-01 -1.465991046279668808e-02 2.873781695961952209e-02 2.589357793331146240e-01 1.795704811811447144e-01 -3.364205360412597656e-02 2.085000276565551758e-01 1.936700493097305298e-01 2.434883862733840942e-01 -3.511855900287628174e-01 -9.809159487485885620e-02 -7.789332419633865356e-02 -3.452349454164505005e-03 -2.986069321632385254e-01 1.359390318393707275e-01 1.927298903465270996e-01 3.855043351650238037e-01 3.106178343296051025e-01 -2.322575598955154419e-01 1.616868227720260620e-01 2.631607949733734131e-01 1.598043143749237061e-01 -3.294589817523956299e-01 -5.270517989993095398e-02 -2.810833752155303955e-01 2.716696634888648987e-02 -2.372352629899978638e-01 2.668997943401336670e-01 -9.344419091939926147e-02 1.024018675088882446e-01 2.778511941432952881e-01 -3.129056692123413086e-01 -1.916862428188323975e-01 -1.690661460161209106e-01 8.631459623575210571e-02 -1.246312782168388367e-01 2.246606647968292236e-01 1.269072741270065308e-01
1.017977222800254822e-01 5.477035045623779297e-02 -6.021090224385261536e-02 2.057898789644241333e-01 5.959595367312431335e-02 1.707303524017333984e-01 -3.388218879699707031e-01 2.317751571536064148e-02 4.446635022759437561e-02 2.146184891462326050e-01 1.298868507146835327e-01 -1.631936803460121155e-02 -1.547795385122299194e-01 2.172644585371017456e-01 -1.631049364805221558e-01 -3.815322518348693848e-01 -1.962314099073410034e-01 1.180412918329238892e-01 -6.430889014154672623e-03 1.379707753658294678e-01 -1.522617340087890625e-01 -4.121734574437141418e-02 1.129359379410743713e-01 1.843508481979370117e-01 -2.770983576774597168e-01 1.618661582469940186e-01 2.443384230136871338e-01 -1.437793225049972534e-01 7.108796853572130203e-04 1.410382520407438278e-02 1.161069329828023911e-02 1.506560891866683960e-01 7.955908775329589844e-02 4.351130127906799316e-02 2.305532693862915039e-01 -1.266340464353561401e-01 -2.420863658189773560e-01 2.283487841486930847e-02 -2.901048026978969574e-02 -9.587358683347702026e-02 9.838875383138656616e-02 2.104162275791168213e-01 -2.247462123632431030e-01 2.136805281043052673e-02 -7.677797973155975342e-02 1.357818692922592163e-01 1.316728591918945312e-01 1.406166888773441315e-02 -1.250455230474472046e-01 1.974314004182815552e-01 -1.860805749893188477e-01 1.041061058640480042e-01 7.244267314672470093e-02 -3.571407496929168701e-01 -2.268946468830108643e-01 -4.129908978939056396e-02 3.403978645801544189e-01 -9.659150987863540649e-02 -6.792538613080978394e-02 2.286753654479980469e-01 6.858945824205875397e-03 -1.508317305706441402e-03 7.664921879768371582e-02 9.531011432409286499e-02 3.275612592697143555e-01 1.345212012529373169e-02 3.656721413135528564e-01 7.838632911443710327e-02 -2.359117716550827026e-01 2.012727260589599609e-01 -2.516990713775157928e-02 1.160767450928688049e-01 1.841275244951248169e-01 -7.449021190404891968e-02 1.623265296220779419e-01 2.445661127567291260e-01 7.404339313507080078e-02 1.317847222089767456e-01 2.763390243053436279e-01 -2.514142692089080811e-01 -7.326520234346389771e-02 3.195109963417053223e-01 8.984010666608810425e-02 -2.296219114214181900e-03 1.093256473541259766e-02 1.571833938360214233e-01 8.293034881353378296e-02 -2.489828877151012421e-02 -3.513058423995971680e-01 -8.375771343708038330e-02 1.308775693178176880e-01 -2.900459170341491699e-01 1.218653321266174316e-01 -1.119185090065002441e-01 -3.611161410808563232e-01 -1.926848441362380981e-01 -1.171426922082901001e-01 -3.663552701473236084e-01 -2.205189317464828491e-01 1.904070079326629639e-01
6.626341491937637329e-02 1.391679346561431885e-01 -1.204069033265113831e-01 -9.945032745599746704e-02 -4.692424833774566650e-02 -2.324497252702713013e-01 -2.617668509483337402e-01 -2.210035771131515503e-01 1.456519812345504761e-01 1.826478913426399231e-02 5.625825747847557068e-02 1.539940983057022095e-01 -2.214366197586059570e-01 4.985885322093963623e-02 3.231127560138702393e-01 -2.236187309026718140e-01 -6.099442392587661743e-02 -1.224425807595252991e-01 -4.543356969952583313e-02 -3.286903798580169678e-01 -1.676174551248550415e-01 -1.076224669814109802e-01 -4.548296704888343811e-02 8.787182718515396118e-02 -1.511697322130203247e-01 -3.091864287853240967e-01 1.081293374300003052e-01 2.863064110279083252e-01 3.722872957587242126e-02 -6.114483624696731567e-02 -1.736690402030944824e-01 3.505918979644775391e-01 -2.633902728557586670e-01 1.046110913157463074e-01 6.752180401235818863e-03 -9.888701885938644409e-02 -2.265227586030960083e-02 2.785955965518951416e-01 -2.211782038211822510e-01 7.612674683332443237e-02 2.251471281051635742e-01 -1.121089980006217957e-01 -1.782502532005310059e-01 1.495375204831361771e-02 3.446999788284301758e-01 -3.178578019142150879e-01 -1.788635104894638062e-01 6.404525041580200195e-02 1.259397566318511963e-01 2.806023061275482178e-01 -1.746261715888977051e-01 7.853373140096664429e-02 2.467165440320968628e-01 2.246603136882185936e-03 -2.740899026393890381e-01 -7.091149687767028809e-02 7.237052917480468750e-02 -2.988266646862030029e-01 1.993433088064193726e-01 1.807457953691482544e-01 1.237825900316238403e-01 2.516790032386779785e-01 1.551158279180526733e-01 -1.024275794625282288e-01 -2.467714995145797729e-01 2.779962122440338135e-01 -3.387451171875000000e-01 -2.439908236265182495e-01 1.157568693161010742e-01 1.942835301160812378e-01 1.111016422510147095e-01 3.337687999010086060e-02 3.079629037529230118e-03 -1.652502864599227905e-01 1.314275413751602173e-01 2.710278332233428955e-01 -1.687048226594924927e-01 1.362404525279998779e-01 5.680386349558830261e-02 2.968683280050754547e-02 5.106542259454727173e-02 2.706140093505382538e-02 3.854775056242942810e-02 3.067140281200408936e-01 1.289707869291305542e-01 -3.161602616310119629e-01 -2.541575729846954346e-01 6.949553638696670532e-02 -1.265974342823028564e-01 2.050943300127983093e-02 -7.060345262289047241e-02 -2.219518274068832397e-01 7.899232208728790283e-02 8.571466058492660522e-02 -2.342573404312133789e-01 9.071441600099205971e-04 3.036451041698455811e-01 -9.639503806829452515e-02 1.463541090488433838e-01 -2.317867577075958252e-01
-3.131068870425224304e-02 1.073453649878501892e-01 -1.200089231133460999e-02 -1.342989057302474976e-01 1.931732445955276489e-01 -2.707309424877166748e-01 1.533897221088409424e-01 2.023687809705734253e-01 -8.298545330762863159e-02 6.368654966354370117e-02 -3.394016250967979431e-02 9.878155775368213654e-03 -2.197002023458480835e-01 -3.449804484844207764e-01 6.810425966978073120e-02 -2.389892190694808960e-01 5.129664018750190735e-02 -1.510632187128067017e-01 9.495072811841964722e-02 1.468642204999923706e-01 1.961171478033065796e-01 1.226064115762710571e-01 -1.039921417832374573e-01 2.049590349197387695e-01 -2.082585096359252930e-01 1.117028817534446716e-01 -1.825149208307266235e-01 -3.217320740222930908e-01 -7.303343154489994049e-03 2.561723254621028900e-02 1.941770762205123901e-01 1.470336765050888062e-01 -2.255196422338485718e-01 8.469504863023757935e-02 1.573520302772521973e-01 1.891460120677947998e-01 1.532453149557113647e-01 1.249451786279678345e-01 -1.303822845220565796e-01 2.616484761238098145e-01 -8.057836443185806274e-02 2.997841499745845795e-02 1.184861212968826294e-01 -2.478901445865631104e-01 1.271296143531799316e-01 2.687169611454010010e-01 -4.596767947077751160e-02 -7.530321180820465088e-02 -1.217226386070251465e-01 3.110866248607635498e-01 4.443232342600822449e-02 2.671799995005130768e-02 2.279552221298217773e-01 3.799271881580352783e-01 -3.528521656990051270e-01 1.422620415687561035e-01 6.410348415374755859e-02 -1.005758866667747498e-01 -1.623197644948959351e-01 -1.665759235620498657e-01 1.094810850918292999e-02 -7.520471513271331787e-02 -2.178954146802425385e-02 1.798746734857559204e-01 -2.073317319154739380e-01 -9.069310873746871948e-02 -3.169594705104827881e-01 1.114694401621818542e-01 -1.232322230935096741e-01 -1.019807681441307068e-01 -1.649218201637268066e-01 1.131219640374183655e-01 -1.208354458212852478e-01 1.345282346010208130e-01 -1.184517368674278259e-01 8.974539488554000854e-02 -1.070876866579055786e-01 -6.731026619672775269e-02 -1.621781438589096069e-01 1.715788990259170532e-01 7.060512900352478027e-02 -8.308487385511398315e-02 -3.905559778213500977e-01 -2.968947887420654297e-01 -8.185380697250366211e-02 -1.698017120361328125e-01 1.085637253709137440e-03 2.444614917039871216e-01 2.822433412075042725e-02 -5.658596754074096680e-03 8.585416525602340698e-02 2.250965386629104614e-01 6.863721460103988647e-02 -2.598721385002136230e-01 -1.231145635247230530e-01 -9.960087388753890991e-02 1.884164065122604370e-01 2.866171896457672119e-01 -1.541123688220977783e-01 3.632896766066551208e-02
3.793239891529083252e-01 -9.517759084701538086e-02 8.860223740339279175e-02 -4.388533905148506165e-02 -6.858016829937696457e-03 8.494186215102672577e-03 1.455417722463607788e-01 -4.804276977665722370e-04 3.011927567422389984e-02 2.473418787121772766e-02 -4.967815708369016647e-03 -1.351523101329803467e-01 1.164562851190567017e-01 1.690543889999389648e-01 -2.973455190658569336e-01 -1.259831935167312622e-01 -2.490082010626792908e-02 -2.502145469188690186e-01 2.014897316694259644e-01 -2.108225077390670776e-01 -9.180544316768646240e-02 -1.332602500915527344e-01 -1.097856163978576660e-01 -1.402174234390258789e-01 6.636842340230941772e-02 1.014949232339859009e-01 1.562221199274063110e-01 2.195087634027004242e-02 9.051951020956039429e-02 -1.198530420660972595e-01 1.451343744993209839e-01 2.984592020511627197e-01 3.842553496360778809e-01 -4.558513686060905457e-02 -2.095233183354139328e-03 -2.814360558986663818e-01 -3.402812778949737549e-01 5.172099545598030090e-02 -3.185044229030609131e-01 3.542394638061523438e-01 -2.110383510589599609e-01 -2.681610584259033203e-01 -6.435589492321014404e-02 1.335348933935165405e-01 1.163059026002883911e-01 6.414467841386795044e-02 2.062872499227523804e-01 -2.410049177706241608e-02 -2.929350733757019043e-01 -6.239324435591697693e-02 1.092857941985130310e-01 -3.599342405796051025e-01 -8.713871240615844727e-02 -3.491341173648834229e-01 -2.566625773906707764e-01 1.503238677978515625e-01 -2.744583226740360260e-02 1.017941758036613464e-01 -2.101713232696056366e-02 1.366574168205261230e-01 3.909661471843719482e-01 -5.591354519128799438e-02 -2.245907634496688843e-01 -2.362699955701828003e-01 -3.035646080970764160e-01 -1.576470583677291870e-01 3.073677793145179749e-02 2.246808856725692749e-01 1.941251605749130249e-01 -2.725512683391571045e-01 7.287828624248504639e-02 -2.132944017648696899e-02 1.860898882150650024e-01 -8.798991143703460693e-02 1.099205762147903442e-01 -4.280713386833667755e-03 -7.153559476137161255e-02 -1.492785066366195679e-01 -7.556299865245819092e-02 1.655758768320083618e-01 -9.088880568742752075e-02 2.006443589925765991e-02 -1.971333920955657959e-01 2.447009831666946411e-01 7.682114094495773315e-02 2.361984252929687500e-01 6.015944480895996094e-02 2.490956336259841919e-03 -2.450045011937618256e-02 -1.372067481279373169e-01 -2.734963968396186829e-02 -8.302398771047592163e-02 2.219182103872299194e-01 -4.396984353661537170e-02 -7.662691175937652588e-02 -1.500021070241928101e-01 -1.567984372377395630e-01 3.284219652414321899e-02 2.585622668266296387e-01 -3.081347346305847168e-01
2.244152873754501343e-01 7.123558223247528076e-02 2.274053394794464111e-01 -1.379794906824827194e-02 8.324559777975082397e-02 2.072983831167221069e-01 -1.036937460303306580e-01 2.307307720184326172e-01 -1.289196964353322983e-02 -2.073028385639190674e-01 1.581251323223114014e-01 2.210651636123657227e-01 -2.184866517782211304e-01 -2.100394964218139648e-01 5.866554379463195801e-02 -1.613555699586868286e-01 6.703955586999654770e-03 8.553945273160934448e-02 1.502552181482315063e-01 4.247552156448364258e-02 -2.976142466068267822e-01 8.697658777236938477e-02 -2.908867970108985901e-02 1.720582246780395508e-01 2.792925834655761719e-01 3.095791041851043701e-01 -1.607974022626876831e-01 2.452901601791381836e-01 -9.413432329893112183e-02 -6.473129242658615112e-02 1.956630349159240723e-01 2.306885272264480591e-01 1.452180147171020508e-01 -3.250024840235710144e-02 1.627944558858871460e-01 1.565267443656921387e-01 2.262219190597534180e-01 -7.704042643308639526e-02 -1.743702590465545654e-01 -2.659672200679779053e-01 -1.975903101265430450e-02 2.394236624240875244e-01 1.396882683038711548e-01 5.980071425437927246e-02 -1.125889942049980164e-01 -1.564059257507324219e-01 2.481367252767086029e-02 -1.213407441973686218e-01 1.201040968298912048e-01 1.089306641370058060e-02 -3.385421037673950195e-01 -2.209065705537796021e-01 1.377459615468978882e-01 3.153516948223114014e-01 3.087623119354248047e-01 -1.325812637805938721e-01 -3.770026266574859619e-01 -7.925423979759216309e-02 -1.778088361024856567e-01 -1.906581968069076538e-01 -2.334990501403808594e-01 -7.412078231573104858e-02 3.280424699187278748e-02 -1.812597066164016724e-01 3.194579482078552246e-01 1.408145278692245483e-01 3.949161246418952942e-02 -1.868206709623336792e-01 -1.263218075037002563e-01 -1.312145292758941650e-01 -2.455371916294097900e-01 -4.638956487178802490e-02 -4.437251389026641846e-02 -5.947934929281473160e-03 -1.524708420038223267e-01 -1.636104732751846313e-01 -3.153943717479705811e-01 -1.971171498298645020e-01 -2.747966349124908447e-01 -1.421902980655431747e-02 1.269722729921340942e-01 1.992084644734859467e-02 -2.473579645156860352e-01 2.110418528318405151e-01 -3.455260023474693298e-02 5.188443139195442200e-02 3.689316511154174805e-01 -2.804907262325286865e-01 4.505382850766181946e-02 -1.021364256739616394e-01 1.898581385612487793e-01 3.466168344020843506e-01 2.359964102506637573e-01 1.820983141660690308e-01 3.348725736141204834e-01 -8.721900731325149536e-02 -8.046671003103256226e-02 3.013416565954685211e-02 3.653744161128997803e-01 -6.754613667726516724e-02
-2.714390158653259277e-01 1.236853003501892090e-01 -8.949869871139526367e-02 -3.881389498710632324e-01 2.899984121322631836e-01 1.098146960139274597e-01 -1.392654478549957275e-01 3.041283488273620605e-01 -2.841987013816833496e-01 -5.029592663049697876e-02 1.419168561697006226e-01 7.959286868572235107e-02 -3.644658997654914856e-02 2.399419546127319336e-01 -5.617421865463256836e-02 -1.476451158523559570e-01 4.280710965394973755e-02 1.097809448838233948e-01 3.529852926731109619e-01 -1.225225478410720825e-01 -3.150022625923156738e-01 -2.132637500762939453e-01 -1.590792089700698853e-01 1.108376607298851013e-01 4.762900248169898987e-02 -1.820508241653442383e-01 1.978868395090103149e-01 -7.298590987920761108e-02 1.088305264711380005e-01 -1.546511799097061157e-02 1.239767819643020630e-01 1.163857802748680115e-01 1.111471876502037048e-01 5.619723722338676453e-02 2.530888915061950684e-01 -4.679556190967559814e-02 2.042550295591354370e-01 2.797234058380126953e-02 -2.034158911556005478e-03 -6.487856805324554443e-02 5.554135888814926147e-03 -3.454113900661468506e-01 2.443969547748565674e-01 3.416787385940551758e-01 2.675800025463104248e-02 2.168545722961425781e-01 1.053938865661621094e-01 -1.566414088010787964e-01 -3.390810787677764893e-01 3.698214516043663025e-02 5.687178298830986023e-02 2.265063822269439697e-01 -2.236570119857788086e-01 3.162299990653991699e-01 -2.102882713079452515e-01 -2.210679054260253906e-01 -5.772665888071060181e-02 2.739116847515106201e-01 2.143369764089584351e-01 -8.652806282043457031e-02 -3.442757576704025269e-02 1.463483870029449463e-01 9.960754960775375366e-02 2.635135650634765625e-01 -1.860534548759460449e-01 -6.224572658538818359e-02 -1.733279228210449219e-01 2.012534439563751221e-01 5.203197151422500610e-02 2.180716097354888916e-01 -3.724263608455657959e-01 -1.783247850835323334e-02 7.638487964868545532e-02 6.004705652594566345e-02 6.542717665433883667e-02 -2.605473995208740234e-01 2.188201695680618286e-01 1.501356065273284912e-02 3.358861058950424194e-02 -1.801642477512359619e-01 -3.517242372035980225e-01 -7.655390538275241852e-03 1.244448050856590271e-01 3.275183588266372681e-02 -1.504903882741928101e-01 1.920920312404632568e-01 1.162463203072547913e-01 -1.204994246363639832e-01 -1.090962216258049011e-01 -2.555601112544536591e-02 2.546339929103851318e-01 -6.271860003471374512e-02 -1.719124317169189453e-01 2.235469818115234375e-01 4.787185415625572205e-02 9.200394898653030396e-02 -1.403688192367553711e-01 -2.764600813388824463e-01 1.241403222084045410e-01 1.131964325904846191e-01
-4.475069046020507812e-02 -2.704298868775367737e-02 -3.924205899238586426e-02 -1.210671663284301758e-01 3.782430589199066162e-01 -1.649623364210128784e-01 7.792983204126358032e-02 8.682226389646530151e-02 3.048512339591979980e-01 2.437866926193237305e-01 -3.470329642295837402e-01 1.760152578353881836e-01 -6.848856806755065918e-03 6.332406401634216309e-02 1.306546628475189209e-01 -1.184864267706871033e-01 -3.901598453521728516e-01 -2.908925712108612061e-01 4.299226682633161545e-03 2.088593542575836182e-01 8.561322093009948730e-02 1.460811942815780640e-01 1.835950650274753571e-02 -1.437388360500335693e-01 -4.992937296628952026e-02 2.655811011791229248e-01 -5.182791873812675476e-02 -9.045379608869552612e-02 -4.413328599184751511e-03 -9.500665962696075439e-02 1.424876898527145386e-01 -1.057235375046730042e-01 -7.367350161075592041e-03 9.102431684732437134e-02 1.085660383105278015e-01 2.171737700700759888e-01 -2.348634414374828339e-02 2.375673502683639526e-02 -3.452957794070243835e-02 -1.748967021703720093e-01 -2.492250502109527588e-01 -3.440219163894653320e-02 2.469576895236968994e-01 -1.496008783578872681e-01 -2.400014400482177734e-01 1.106058880686759949e-01 -1.255047619342803955e-01 -3.934587836265563965e-01 -1.363163143396377563e-01 -8.154626935720443726e-02 1.952338069677352905e-01 1.279101222753524780e-01 -3.102710843086242676e-01 -1.538105309009552002e-02 4.759526625275611877e-02 -4.649189487099647522e-02 1.038197893649339676e-02 -2.587002217769622803e-01 -2.542105615139007568e-01 8.907885290682315826e-03 -1.048976276069879532e-02 -1.257301867008209229e-01 -1.698941737413406372e-01 3.048192858695983887e-01 -6.736578792333602905e-02 2.366159707307815552e-01 2.557048015296459198e-02 -1.143202185630798340e-01 -1.438546776771545410e-01 1.603034138679504395e-01 2.216550111770629883e-01 9.368756413459777832e-02 3.396073281764984131e-01 6.806393712759017944e-02 -2.818248048424720764e-02 -3.996843993663787842e-01 2.813649177551269531e-01 9.624730795621871948e-02 6.273236125707626343e-02 9.720157831907272339e-02 -3.231197595596313477e-01 1.240422949194908142e-01 -2.905104756355285645e-01 9.395419061183929443e-02 -1.609434932470321655e-01 -1.106628701090812683e-01 1.313131600618362427e-01 2.156481742858886719e-01 -4.677212983369827271e-02 -1.373718827962875366e-01 2.818368375301361084e-01 1.469189226627349854e-01 -1.852135062217712402e-01 -8.134201914072036743e-02 4.766355082392692566e-02 6.586886942386627197e-02 6.002975162118673325e-03 1.411894559860229492e-01 2.303850501775741577e-01 4.886178299784660339e-02
3.207322061061859131e-01 -1.548907458782196045e-01 9.823382645845413208e-02 -6.492410600185394287e-02 -1.091993600130081177e-01 -6.268098205327987671e-02 2.663077116012573242e-01 -2.026689052581787109e-01 1.381341367959976196e-01 -1.078252419829368591e-01 4.843499045819044113e-03 1.191325187683105469e-01 -2.843095920979976654e-02 3.142008930444717407e-02 4.395194351673126221e-02 9.623543359339237213e-03 -1.629964411258697510e-01 2.323864251375198364e-01 -1.491390019655227661e-01 8.043820969760417938e-03 -3.086091876029968262e-01 -2.448274344205856323e-01 -3.062890172004699707e-01 -2.569641172885894775e-01 -4.490717872977256775e-02 9.449802339076995850e-03 -5.414293333888053894e-02 3.267938494682312012e-01 3.171397149562835693e-01 -1.026835665106773376e-01 -1.412680894136428833e-01 1.308928579092025757e-01 -1.702999323606491089e-01 -3.748991712927818298e-02 1.865721642971038818e-01 2.785505950450897217e-01 2.846325337886810303e-01 -4.854071512818336487e-02 -7.011491805315017700e-02 6.480517238378524780e-02 -3.556651994585990906e-02 1.821371167898178101e-01 1.274697631597518921e-01 -1.330793369561433792e-02 -1.058059483766555786e-01 1.823539733886718750e-01 -6.794398277997970581e-02 -2.235668450593948364e-01 1.149071455001831055e-01 -9.968987852334976196e-02 1.434326022863388062e-01 2.463031560182571411e-02 1.400471180677413940e-01 -3.166124522686004639e-01 1.693975627422332764e-01 2.950593642890453339e-02 9.327377378940582275e-02 2.604573406279087067e-02 4.749160259962081909e-02 1.938635259866714478e-01 3.035947494208812714e-02 2.107359021902084351e-01 2.614569105207920074e-02 2.249716073274612427e-01 -2.185957431793212891e-01 -2.144995480775833130e-01 1.798144727945327759e-01 3.408630788326263428e-01 -1.959823518991470337e-01 -1.584624499082565308e-01 4.622293263673782349e-02 -4.826859757304191589e-02 -2.157130688428878784e-01 3.675726354122161865e-01 4.029801860451698303e-02 -2.179147750139236450e-01 2.733228504657745361e-01 -6.465760618448257446e-02 -3.074764087796211243e-02 1.543807685375213623e-01 -4.240591661073267460e-04 6.480089575052261353e-02 6.078721210360527039e-02 1.733290404081344604e-01 1.082367897033691406e-01 -1.400016546249389648e-01 8.279218524694442749e-02 2.412341348826885223e-02 -1.066014319658279419e-01 1.258281469345092773e-01 1.198990568518638611e-01 -1.021940857172012329e-01 -1.479180902242660522e-01 -1.524513959884643555e-01 1.278336048126220703e-01 1.668003499507904053e-01 -5.769724398851394653e-02 2.800260297954082489e-02 1.343832816928625107e-02 -6.095859408378601074e-02
7.309596240520477295e-02 -1.949374973773956299e-01 -3.564765211194753647e-05 -1.183481216430664062e-01 -2.228637598454952240e-02 -3.902367055416107178e-01 3.812764212489128113e-02 -3.178900107741355896e-02 -4.920901730656623840e-02 2.741111256182193756e-02 -2.200179398059844971e-01 -1.858299225568771362e-01 -9.064164757728576660e-02 -1.889944635331630707e-02 -3.507596999406814575e-02 -3.591365516185760498e-01 -2.917747199535369873e-01 -1.798858046531677246e-01 2.420481890439987183e-01 -2.408047765493392944e-01 1.661940664052963257e-01 4.607011005282402039e-02 -8.184843510389328003e-02 -1.301508396863937378e-01 -3.485336154699325562e-02 1.666559427976608276e-01 -3.463324606418609619e-01 -1.416152715682983398e-01 3.635308938100934029e-03 2.124216556549072266e-01 4.050556942820549011e-02 8.669524639844894409e-02 -9.517483413219451904e-02 2.650659680366516113e-01 3.161033987998962402e-02 2.427589744329452515e-01 1.435673683881759644e-01 1.578983813524246216e-01 8.281769603490829468e-02 1.323774307966232300e-01 -1.438862979412078857e-01 2.725599519908428192e-02 -3.206239640712738037e-01 -1.312535256147384644e-01 -1.165190562605857849e-01 1.997917890548706055e-01 3.006391227245330811e-01 7.802747422829270363e-04 5.480870231986045837e-02 2.750036418437957764e-01 -1.658123582601547241e-01 3.036201298236846924e-01 -5.182601884007453918e-02 -1.397500783205032349e-01 -2.304183989763259888e-01 7.575647532939910889e-02 -3.752754926681518555e-01 -1.418044418096542358e-01 -1.012405902147293091e-01 -2.705470025539398193e-01 -6.234120205044746399e-02 2.063714265823364258e-01 -5.422025546431541443e-02 5.549294291995465755e-04 9.157175570726394653e-02 1.297116726636886597e-01 -6.430826336145401001e-02 -1.575821340084075928e-01 -1.244035288691520691e-01 3.520756959915161133e-01 -5.664020776748657227e-02 -1.144154816865921021e-01 2.514409720897674561e-01 -1.144448891282081604e-01 -8.773796260356903076e-02 5.065942555665969849e-02 2.978590428829193115e-01 5.347832664847373962e-02 3.190967440605163574e-01 2.013540565967559814e-01 1.652639061212539673e-01 1.027413755655288696e-01 1.003127638250589371e-02 1.601298302412033081e-01 -2.709980905055999756e-01 -1.020601764321327209e-01 -2.919460535049438477e-01 1.388302892446517944e-01 -5.210439488291740417e-02 -2.230296581983566284e-01 1.405999530106782913e-02 -2.150576561689376831e-01 -5.639049038290977478e-02 5.834151431918144226e-02 3.145846426486968994e-01 -3.342265263199806213e-03 -3.066525757312774658e-01 8.050750195980072021e-02 -1.716830581426620483e-01 1.330193430185317993e-01
-6.558042950928211212e-03 1.491883099079132080e-01 -3.735261037945747375e-02 -3.617959097027778625e-02 1.162831299006938934e-02 2.503983676433563232e-01 1.371046304702758789e-01 -3.461295068264007568e-01 1.710479557514190674e-01 2.736664712429046631e-01 7.913699746131896973e-02 9.855296462774276733e-02 -3.340142965316772461e-01 -7.834831252694129944e-03 1.058626323938369751e-01 3.987218439579010010e-02 -3.490256965160369873e-01 1.822137087583541870e-01 -3.027917742729187012e-01 -2.964928559958934784e-02 -1.750750392675399780e-01 -8.461553603410720825e-02 -1.797266304492950439e-01 -1.587374657392501831e-01 -6.024605780839920044e-02 -3.643670305609703064e-02 3.116926550865173340e-02 -1.126102730631828308e-01 -5.130938440561294556e-02 2.411847189068794250e-02 1.140773817896842957e-01 -2.368520051240921021e-01 -4.743314906954765320e-02 4.281236976385116577e-02 2.083639651536941528e-01 -4.281690344214439392e-02 3.215739428997039795e-01 -1.889813393354415894e-01 2.634395956993103027e-01 1.454509794712066650e-01 1.326987296342849731e-01 -3.461610153317451477e-02 2.463460713624954224e-01 1.712057292461395264e-01 4.247423633933067322e-02 2.650488913059234619e-01 2.629139460623264313e-02 2.310273498296737671e-01 3.067093789577484131e-01 1.956405118107795715e-02 1.143066808581352234e-01 -8.589924871921539307e-02 -7.245721668004989624e-02 3.432683646678924561e-01 8.499418385326862335e-03 1.014541983604431152e-01 1.007817760109901428e-01 -4.129705578088760376e-02 -1.251623928546905518e-01 -4.022546112537384033e-02 5.293568968772888184e-02 -1.664929986000061035e-01 -2.714311778545379639e-01 -1.084943041205406189e-01 -8.149592578411102295e-02 1.195770129561424255e-01 -3.070122934877872467e-02 3.008640110492706299e-01 -8.684774488210678101e-02 1.000787988305091858e-01 -1.135117933154106140e-01 -3.910372033715248108e-03 -2.722330987453460693e-01 -2.601275146007537842e-01 -1.731994152069091797e-01 7.042735069990158081e-02 -8.058416843414306641e-02 -1.699213236570358276e-01 2.264265120029449463e-01 -1.885758191347122192e-01 1.539408564567565918e-01 1.087601408362388611e-01 2.334889918565750122e-01 1.529453098773956299e-01 -9.727913141250610352e-02 -2.563990466296672821e-02 -1.175927072763442993e-01 -3.256031572818756104e-01 -1.277998238801956177e-01 -5.590564012527465820e-02 -1.625175625085830688e-01 -2.015411108732223511e-01 -1.520750224590301514e-01 1.178991571068763733e-01 -1.538092344999313354e-01 -1.067757159471511841e-01 1.224862709641456604e-01 1.591040343046188354e-01 -2.180786579847335815e-01 -7.353480160236358643e-02
1.770867407321929932e-01 -7.706357631832361221e-03 2.829351089894771576e-02 3.740889728069305420e-01 1.223768144845962524e-01 4.724144190549850464e-02 -3.579176664352416992e-01 1.975351274013519287e-01 -3.927761316299438477e-01 1.618485152721405029e-02 -2.842384278774261475e-01 -9.286024421453475952e-02 1.818093284964561462e-02 -4.265834018588066101e-02 3.672014549374580383e-02 5.902538821101188660e-02 2.346567362546920776e-01 -1.941664069890975952e-01 -5.055877193808555603e-02 -2.472050935029983521e-01 2.884608320891857147e-02 -2.022973150014877319e-01 2.895456552505493164e-01 2.269006818532943726e-01 2.814324200153350830e-01 2.399574518203735352e-01 -1.475416272878646851e-01 3.351858556270599365e-01 2.211725711822509766e-01 2.545467019081115723e-01 1.255492120981216431e-01 1.496916860342025757e-01 1.506297141313552856e-01 -5.044564232230186462e-02 -3.679743036627769470e-02 -1.684032529592514038e-01 1.456795930862426758e-01 2.139415293931961060e-01 -1.784602850675582886e-01 6.026719883084297180e-02 -1.140862107276916504e-01 1.426269561052322388e-01 1.683559864759445190e-01 -5.159147083759307861e-03 4.594753310084342957e-02 -2.777092158794403076e-01 -1.669437997043132782e-02 4.565573483705520630e-02 -1.389619857072830200e-01 4.284273460507392883e-02 1.548250764608383179e-01 -7.033284753561019897e-02 1.673530638217926025e-01 1.764817982912063599e-01 9.478818625211715698e-02 -1.632249653339385986e-01 -2.224566042423248291e-01 -4.259234294295310974e-02 2.224918901920318604e-01 1.658082008361816406e-01 2.613939940929412842e-01 2.989210188388824463e-01 1.205817982554435730e-01 -6.515398621559143066e-02 -3.847116529941558838e-01 1.762782782316207886e-01 -3.450168296694755554e-02 -1.003415361046791077e-01 1.504779756069183350e-01 -1.652441471815109253e-01 -3.360987305641174316e-01 -2.443616241216659546e-01 3.163442611694335938e-01 3.684334084391593933e-02 -1.469492763280868530e-01 -1.691760867834091187e-01 1.336599290370941162e-01 -1.648150384426116943e-01 -6.313265115022659302e-02 -2.234456539154052734e-01 -7.709884643554687500e-02 3.463290035724639893e-01 -1.533045470714569092e-01 1.839101687073707581e-02 3.446759283542633057e-01 -1.745615303516387939e-01 2.117437422275543213e-01 1.884413696825504303e-02 -8.017485588788986206e-02 1.671708524227142334e-01 2.395555824041366577e-01 2.259125187993049622e-02 -2.568526566028594971e-02 2.782680690288543701e-01 -1.322094351053237915e-01 -2.890254855155944824e-01 1.450376510620117188e-01 2.989269793033599854e-02 3.020733296871185303e-01 3.094962053000926971e-02
-2.789329551160335541e-02 -3.076052665710449219e-01 7.827859371900558472e-02 6.909016519784927368e-02 -7.523655891418457031e-03 -1.465397775173187256e-01 -2.379019260406494141e-01 -2.781545519828796387e-01 1.451590061187744141e-01 -5.360458977520465851e-03 3.427168354392051697e-02 -1.620724499225616455e-01 -2.030240297317504883e-01 2.113622277975082397e-01 2.507921457290649414e-01 7.172407954931259155e-02 -2.383483946323394775e-01 -9.257010370492935181e-02 -1.431387364864349365e-01 1.049429550766944885e-01 2.815125286579132080e-01 2.283896058797836304e-01 8.755721896886825562e-02 -1.575866639614105225e-01 2.240521758794784546e-01 -2.063581943511962891e-01 1.349496841430664062e-01 -4.045333340764045715e-02 -1.200574636459350586e-01 1.241639535874128342e-02 6.652032490819692612e-03 1.188627630472183228e-01 2.240019887685775757e-01 -2.617792487144470215e-01 5.110542103648185730e-02 2.635802626609802246e-01 2.698461711406707764e-01 2.089156657457351685e-01 3.155557438731193542e-02 -2.420346625149250031e-02 -4.590789601206779480e-02 1.814206689596176147e-01 2.541855871677398682e-01 -6.980364024639129639e-02 1.161174178123474121e-01 -4.709930345416069031e-02 -2.965440452098846436e-01 4.394504055380821228e-02 2.955992519855499268e-01 -1.391753703355789185e-01 -1.330150873400270939e-03 1.902573108673095703e-01 1.723419688642024994e-02 -1.560577005147933960e-01 1.181598678231239319e-01 -1.018519401550292969e-01 -5.195833370089530945e-02 1.467114388942718506e-01 6.264295428991317749e-02 2.151320427656173706e-01 6.492057349532842636e-03 3.413995206356048584e-01 1.363968700170516968e-01 -3.455883637070655823e-02 -3.406466543674468994e-02 -2.300778590142726898e-02 -1.127906665205955505e-01 -1.543980091810226440e-01 3.275889754295349121e-01 -3.075767159461975098e-01 -1.502079814672470093e-01 1.284033209085464478e-01 -1.761947572231292725e-01 1.134963557124137878e-01 -3.504571914672851562e-01 -1.742176413536071777e-01 3.069312274456024170e-01 -6.907079368829727173e-02 -2.151973545551300049e-01 1.074404343962669373e-01 1.105797663331031799e-01 -1.809913069009780884e-01 -3.668129742145538330e-01 1.183851286768913269e-01 3.096370100975036621e-01 1.359454691410064697e-01 -2.385780811309814453e-01 -2.469501942396163940e-01 -1.850597113370895386e-01 -1.482301391661167145e-02 2.644481062889099121e-01 -3.389044702053070068e-01 1.982642263174057007e-01 2.645049095153808594e-01 3.750230967998504639e-01 -8.042784035205841064e-02 -1.434414088726043701e-01 -7.896186783909797668e-03 4.716246202588081360e-02 -3.614950478076934814e-01
1.073795184493064880e-01 -1.424189805984497070e-01 -3.713355585932731628e-02 2.482746094465255737e-01 -1.872550547122955322e-01 1.097306013107299805e-01 -6.707637012004852295e-02 1.210234593600034714e-02 2.686301767826080322e-01 1.556592620909214020e-02 -1.985470205545425415e-02 1.280338019132614136e-01 2.526501119136810303e-01 -3.101540170609951019e-02 1.492848396301269531e-01 -7.789479941129684448e-02 -2.066870778799057007e-01 2.410893738269805908e-01 2.061504572629928589e-01 2.104275673627853394e-01 1.225700154900550842e-01 -2.848900854587554932e-01 -1.910280883312225342e-01 1.763130426406860352e-01 2.323578596115112305e-01 -2.931152097880840302e-02 2.497200071811676025e-01 3.258503973484039307e-02 8.851996622979640961e-03 -1.232611536979675293e-01 -8.188694715499877930e-02 1.830009967088699341e-01 -5.615944415330886841e-02 -6.454127281904220581e-02 -2.060153782367706299e-01 2.943902909755706787e-01 5.342226102948188782e-02 2.492658346891403198e-01 -2.295700311660766602e-01 2.615304589271545410e-01 6.809997558593750000e-02 -1.853353828191757202e-01 1.689827740192413330e-01 -1.131458207964897156e-01 8.722534775733947754e-02 -1.192729994654655457e-01 -1.098327636718750000e-01 -2.258298220112919807e-03 2.568089067935943604e-01 2.339223772287368774e-02 2.004352062940597534e-01 -1.952562630176544189e-01 1.378084272146224976e-01 -1.285201162099838257e-01 4.699228703975677490e-02 -4.693312197923660278e-02 -2.199137955904006958e-02 5.069979000836610794e-03 3.540569245815277100e-01 8.890595287084579468e-02 -1.399559378623962402e-01 7.021124009042978287e-03 1.972637921571731567e-01 -3.039254515897482634e-04 1.448710411787033081e-01 1.713642477989196777e-01 -4.432264715433120728e-02 1.194385290145874023e-01 6.813814491033554077e-02 -8.021435141563415527e-02 1.207899674773216248e-01 -1.493238806724548340e-01 1.219736710190773010e-01 -1.466690301895141602e-01 -2.047882378101348877e-01 -4.026948288083076477e-02 3.171202242374420166e-01 9.220011532306671143e-02 2.850787937641143799e-01 1.130832955241203308e-01 -8.491023629903793335e-02 5.740513280034065247e-02 2.492972463369369507e-01 1.541697233915328979e-01 -1.491951495409011841e-01 1.939075291156768799e-01 -2.957704961299896240e-01 2.096682041883468628e-01 1.336261928081512451e-01 -7.444667816162109375e-02 -2.017354071140289307e-01 -1.545569449663162231e-01 4.896970838308334351e-02 1.741724759340286255e-01 -4.648090898990631104e-02 -1.654240787029266357e-01 -1.311381757259368896e-01 1.721222996711730957e-01 -4.406858608126640320e-02 1.793405264616012573e-01
1.618976145982742310e-01 -2.660968601703643799e-01 2.261155657470226288e-02 -1.218383833765983582e-01 -3.412517607212066650e-01 1.086018830537796021e-01 2.225750535726547241e-01 1.787685006856918335e-01 -2.162478268146514893e-01 2.367195300757884979e-02 -2.526386082172393799e-01 2.830219268798828125e-01 1.424572616815567017e-02 3.216544687747955322e-01 3.550472259521484375e-01 2.319396287202835083e-01 2.097017616033554077e-01 1.288926005363464355e-01 -2.862175107002258301e-01 1.134957447648048401e-01 1.480531990528106689e-01 1.032409667968750000e-01 -1.948830187320709229e-01 2.557784616947174072e-01 2.008536309003829956e-01 2.629191279411315918e-01 1.214924082159996033e-01 2.121111452579498291e-01 5.605959333479404449e-03 -2.975438237190246582e-01 -2.949629127979278564e-01 2.630693912506103516e-01 5.450669676065444946e-02 2.885029911994934082e-01 -3.290414214134216309e-01 6.500037759542465210e-02 -6.101634725928306580e-02 -2.019170485436916351e-02 1.214710026979446411e-01 2.122408896684646606e-01 2.984641492366790771e-01 -1.073462739586830139e-01 1.689621955156326294e-01 4.068328067660331726e-02 -7.487636059522628784e-02 1.716520935297012329e-01 7.523861527442932129e-02 2.849885262548923492e-02 2.012954503297805786e-01 -3.777222335338592529e-01 -7.553170621395111084e-02 -1.590564548969268799e-01 -2.880652546882629395e-01 9.269975870847702026e-02 2.337727323174476624e-02 7.257797569036483765e-02 1.486315131187438965e-01 -2.702544629573822021e-01 -1.598874777555465698e-01 -3.308280929923057556e-02 1.784800142049789429e-01 -1.177038624882698059e-02 -1.280605643987655640e-01 -2.138300612568855286e-02 -8.190777897834777832e-02 4.756346344947814941e-03 -1.109152361750602722e-01 -1.086093932390213013e-01 -2.506068944931030273e-01 3.254418820142745972e-02 2.222652733325958252e-01 2.542364299297332764e-01 -5.255853757262229919e-02 1.927057206630706787e-01 -9.651761502027511597e-02 3.953427076339721680e-02 6.392427533864974976e-02 -6.046086549758911133e-02 5.475601553916931152e-02 -5.541552975773811340e-02 -3.629512488842010498e-01 3.673003613948822021e-01 -1.216300483793020248e-02 3.156749606132507324e-01 1.174929887056350708e-01 6.845066696405410767e-02 -9.218522161245346069e-02 -3.437497317790985107e-01 1.955739706754684448e-01 -2.505278289318084717e-01 1.007474809885025024e-01 2.844851315021514893e-01 -2.321372032165527344e-01 1.531614661216735840e-01 -7.799958437681198120e-02 -1.796135753393173218e-01 4.318735003471374512e-02 1.263378113508224487e-01 -3.036254346370697021e-01 3.138906955718994141e-01
-2.018198519945144653e-01 -4.382229968905448914e-02 2.530178725719451904e-01 2.334056198596954346e-01 -1.536998003721237183e-01 1.933090984821319580e-01 5.975069478154182434e-02 2.502696216106414795e-01 -8.333281427621841431e-02 -2.386438101530075073e-01 -3.389406204223632812e-02 6.861288100481033325e-03 -1.007080450654029846e-01 1.055515632033348083e-01 -3.036232292652130127e-02 -2.654329836368560791e-01 4.648099467158317566e-02 3.798171505331993103e-02 -9.454935789108276367e-03 2.109190076589584351e-02 -8.810283988714218140e-02 6.954645365476608276e-02 -7.188834995031356812e-02 -5.766970664262771606e-02 -3.449321538209915161e-02 -2.505700290203094482e-01 -1.645997166633605957e-01 -3.455553948879241943e-01 -3.401876091957092285e-01 -5.341395363211631775e-02 -7.253091782331466675e-02 -4.927449300885200500e-02 1.425296720117330551e-02 9.504465013742446899e-02 -2.044121772050857544e-01 -3.322055563330650330e-02 3.902241587638854980e-01 3.572887480258941650e-01 -1.730562001466751099e-01 -5.747285112738609314e-02 1.711280196905136108e-01 1.303133815526962280e-01 1.096678003668785095e-01 1.162042617797851562e-01 -2.978835403919219971e-01 -2.078425437211990356e-01 -5.606808885931968689e-02 2.552355229854583740e-01 1.216968670487403870e-01 7.597988098859786987e-02 2.063415795564651489e-01 -6.396519392728805542e-02 -2.622524201869964600e-01 1.618704050779342651e-01 1.277656257152557373e-01 1.228664442896842957e-01 9.532662481069564819e-02 -8.306680619716644287e-02 1.689879447221755981e-01 -2.838141284883022308e-02 1.101196184754371643e-01 2.321195229887962341e-02 1.099077463150024414e-01 1.540312767028808594e-01 2.931849360466003418e-01 1.650468558073043823e-01 2.485323697328567505e-01 2.953466475009918213e-01 4.067738354206085205e-02 -1.062550917267799377e-01 -9.793717414140701294e-02 3.968689590692520142e-03 1.821606308221817017e-01 -2.346849888563156128e-01 -2.544528059661388397e-02 3.392548561096191406e-01 6.953022629022598267e-02 -1.920605748891830444e-01 -1.819483339786529541e-01 2.566797435283660889e-01 4.506105184555053711e-02 3.961241990327835083e-02 -5.850324034690856934e-02 4.499359428882598877e-02 -1.536517590284347534e-01 -8.240176737308502197e-02 1.458031386137008667e-01 1.131215468049049377e-01 6.995987892150878906e-02 2.424913644790649414e-01 -3.531319797039031982e-01 -2.192728072404861450e-01 -2.431571334600448608e-01 2.470902949571609497e-01 -2.661106288433074951e-01 -1.216885447502136230e-02 -2.185219079256057739e-01 -2.509721554815769196e-02 2.971750497817993164e-01 -2.814924158155918121e-02
