-1.430563777685165405e-01 2.816804349422454834e-01 -1.998458951711654663e-01 -1.287482585757970810e-02 2.978964708745479584e-02 -1.504575312137603760e-01 2.848233580589294434e-01 -1.330082714557647705e-01 -4.622122272849082947e-02 -2.145170271396636963e-01 5.466985702514648438e-02 -1.332243084907531738e-01 -2.921440899372100830e-01 3.658071160316467285e-01 1.515062898397445679e-01 -7.006470113992691040e-02 -1.627254337072372437e-01 -3.266393244266510010e-01 2.859446704387664795e-01 2.894203364849090576e-01 -2.697674930095672607e-01 1.559822857379913330e-01 -6.536629050970077515e-02 3.861087858676910400e-01 -1.100218817591667175e-01 2.196283340454101562e-01 3.168030381202697754e-01 1.547234952449798584e-01 8.766870945692062378e-02 2.890462875366210938e-01 8.749143779277801514e-02 2.033055573701858521e-01 6.679251044988632202e-02 -1.249478608369827271e-01 2.283379137516021729e-01 -2.669387757778167725e-01 1.149819642305374146e-01 3.828488662838935852e-02 -1.328844428062438965e-01 1.172824651002883911e-01
-1.194044500589370728e-01 5.747731309384107590e-03 1.655325740575790405e-01 -2.264544516801834106e-01 -3.237237036228179932e-01 -8.090557903051376343e-02 2.670187652111053467e-01 8.679474145174026489e-02 -9.925388544797897339e-02 5.493203550577163696e-02 1.999557316303253174e-01 8.673091232776641846e-02 1.094289571046829224e-01 1.194645389914512634e-01 -3.522025346755981445e-01 3.760459125041961670e-01 -1.424673795700073242e-01 1.119819879531860352e-01 -7.625221461057662964e-02 -1.564431488513946533e-01 2.816927134990692139e-01 -3.538054525852203369e-01 3.272354900836944580e-01 -1.240187510848045349e-01 5.310013890266418457e-02 -1.038587689399719238e-01 -3.344945609569549561e-02 1.085367128252983093e-01 2.993269078433513641e-02 1.311423927545547485e-01 -5.893644317984580994e-02 -2.622622065246105194e-03 3.642201796174049377e-02 1.463392376899719238e-01 -8.194458484649658203e-02 -1.098204851150512695e-01 -1.907545775175094604e-01 2.945025265216827393e-01 -3.089195303618907928e-02 -2.069864720106124878e-01
-1.518387813121080399e-02 1.586424410343170166e-01 -6.506048142910003662e-02 -2.855397164821624756e-01 -3.964830562472343445e-02 5.898987408727407455e-03 2.430416643619537354e-01 -5.195219442248344421e-02 -1.417831629514694214e-01 -7.803207729011774063e-03 2.954330742359161377e-01 3.186230361461639404e-01 -1.160361766815185547e-01 2.080383300781250000e-01 -9.051508456468582153e-02 -1.137918159365653992e-01 2.770223096013069153e-02 3.007614016532897949e-01 2.559123337268829346e-01 -7.791262865066528320e-02 -4.623720422387123108e-02 2.231765985488891602e-01 -1.430356353521347046e-01 1.566000431776046753e-01 -1.124258637428283691e-01 1.948459148406982422e-01 -1.849028170108795166e-01 1.999384164810180664e-02 9.393297135829925537e-02 -1.373502463102340698e-01 1.520109176635742188e-01 -1.787313073873519897e-01 -2.199452221393585205e-01 1.405922919511795044e-01 -9.259283542633056641e-04 1.919031292200088501e-01 -2.626106142997741699e-01 9.887858480215072632e-02 2.502501606941223145e-01 1.951208859682083130e-01
-1.168339177966117859e-01 -3.484017550945281982e-01 -9.279092401266098022e-02 3.918177485466003418e-01 -3.024884164333343506e-01 6.474702805280685425e-02 -8.272845298051834106e-02 -2.200533598661422729e-01 -1.070291325449943542e-01 1.341476440429687500e-01 2.603857219219207764e-02 -3.698116540908813477e-02 -1.467569470405578613e-01 5.814407020807266235e-02 -3.771581053733825684e-01 -2.543615400791168213e-01 -2.060786783695220947e-01 3.894667625427246094e-01 2.948156893253326416e-01 -1.982735693454742432e-01 -9.848079830408096313e-02 -3.869454667437821627e-04 6.096892431378364563e-02 -9.022974967956542969e-02 2.461229562759399414e-01 -2.808177769184112549e-01 1.880816072225570679e-01 -1.193363685160875320e-02 -2.523374259471893311e-01 3.862043917179107666e-01 -2.315895110368728638e-01 -1.785384267568588257e-01 3.655354678630828857e-01 -1.770228147506713867e-01 -1.097267642617225647e-01 2.721733748912811279e-01 -3.349665701389312744e-01 -1.941531747579574585e-01 1.368071418255567551e-02 -2.121787071228027344e-01
-2.781407535076141357e-02 1.007148250937461853e-01 1.783667802810668945e-01 -1.194721460342407227e-01 3.099859692156314850e-02 3.341867029666900635e-02 -2.931365668773651123e-01 2.862170040607452393e-01 -1.596808880567550659e-01 2.555279433727264404e-01 -9.461883455514907837e-02 -9.489551186561584473e-02 -5.427475646138191223e-02 -3.581324592232704163e-02 1.271650344133377075e-01 -1.148785278201103210e-01 2.741586267948150635e-01 2.677379548549652100e-02 -1.614098995923995972e-01 -4.626403003931045532e-02 -8.466248959302902222e-02 1.242946535348892212e-01 -7.334142178297042847e-02 7.310219854116439819e-02 -3.323796689510345459e-01 9.716502577066421509e-02 -1.811543554067611694e-01 -2.357295006513595581e-01 -2.759507596492767334e-01 5.426819249987602234e-02 1.768052726984024048e-01 4.121435806155204773e-02 -1.953810453414916992e-01 -3.973260894417762756e-02 5.755938962101936340e-02 -1.812264770269393921e-01 3.927019536495208740e-01 3.047414422035217285e-01 2.416913062334060669e-01 -4.975651204586029053e-02
2.747907936573028564e-01 1.409348845481872559e-01 -3.774187266826629639e-01 1.218430027365684509e-01 -1.462774425745010376e-01 -3.232111930847167969e-01 2.441669702529907227e-01 1.505241990089416504e-01 6.014784052968025208e-02 -1.121701002120971680e-01 -1.492538750171661377e-01 -1.838624328374862671e-01 1.597331613302230835e-01 2.667038142681121826e-02 -2.895872294902801514e-01 2.591500245034694672e-02 2.868373095989227295e-01 -4.203990101814270020e-03 -3.691697120666503906e-01 3.911122381687164307e-01 -1.091175805777311325e-02 3.977941721677780151e-02 -5.332929547876119614e-03 1.666499227285385132e-01 1.517913624411448836e-04 4.041762277483940125e-02 -2.465242519974708557e-02 3.510777652263641357e-02 5.249765515327453613e-02 1.565992385149002075e-01 1.104659587144851685e-01 -1.001398116350173950e-01 2.604743838310241699e-01 2.427625097334384918e-02 -1.638807505369186401e-01 -1.594352573156356812e-01 -9.129951894283294678e-02 9.353365004062652588e-02 1.907635778188705444e-01 -1.916142553091049194e-01
3.794778287410736084e-01 8.109081536531448364e-04 3.413921892642974854e-01 -2.040981352329254150e-01 1.974763125181198120e-01 2.556330859661102295e-01 -2.373771667480468750e-01 -2.539775669574737549e-01 -1.182053908705711365e-01 3.899284303188323975e-01 3.334465026855468750e-01 1.488643139600753784e-01 -1.414274573326110840e-01 3.640501201152801514e-02 6.711009424179792404e-03 1.696985564194619656e-03 -3.925532400608062744e-01 -2.795732617378234863e-01 -1.923043578863143921e-01 2.195517867803573608e-01 -4.759130999445915222e-02 1.832718551158905029e-01 -1.411907374858856201e-01 1.193430796265602112e-01 2.590237855911254883e-01 -2.723109722137451172e-01 1.522802412509918213e-01 1.595972478389739990e-01 -2.266537956893444061e-02 -2.630425989627838135e-02 -1.423190087080001831e-01 2.608321905136108398e-01 5.750180035829544067e-02 3.136685118079185486e-02 -1.882252395153045654e-01 1.636270731687545776e-01 1.393587440252304077e-01 -8.562741801142692566e-03 1.643573492765426636e-01 -1.727617830038070679e-01
2.956492593511939049e-03 -2.364311516284942627e-01 -5.681143328547477722e-02 -3.748734667897224426e-02 -1.901321671903133392e-02 6.436114013195037842e-02 -1.962373852729797363e-01 -2.171169780194759369e-02 -6.206279620528221130e-02 5.935372784733772278e-02 -1.810901463031768799e-01 3.527705371379852295e-01 -5.350840091705322266e-02 -1.319587677717208862e-01 -1.309311836957931519e-01 1.998540461063385010e-01 4.311798140406608582e-02 1.148448362946510315e-01 -2.396482676267623901e-01 -3.005553781986236572e-01 3.912095353007316589e-02 2.351874858140945435e-01 -1.174232885241508484e-01 -1.999421268701553345e-01 -2.209251970052719116e-01 -8.299110084772109985e-02 -1.002555638551712036e-01 6.967908143997192383e-02 -1.367772370576858521e-01 -1.299279481172561646e-01 1.500371098518371582e-01 -2.526385784149169922e-01 3.016080260276794434e-01 2.490328103303909302e-01 -2.716169059276580811e-01 3.933340311050415039e-01 1.616692245006561279e-01 3.505756258964538574e-01 -1.592121422290802002e-01 3.151816129684448242e-02
-6.183555722236633301e-02 -1.797532103955745697e-02 3.101483583450317383e-01 -4.905236884951591492e-02 1.561439484357833862e-01 -3.005786240100860596e-01 -2.892572060227394104e-02 2.041997760534286499e-01 -1.390758603811264038e-01 -4.955307766795158386e-02 4.979722946882247925e-02 7.019700855016708374e-02 7.404661923646926880e-02 -1.647971719503402710e-01 3.901459649205207825e-02 2.421621531248092651e-01 -3.540214151144027710e-02 1.077721491456031799e-01 1.183173879981040955e-01 -6.923925131559371948e-02 -8.485811203718185425e-02 -3.400025516748428345e-02 -9.891427122056484222e-03 -5.873555690050125122e-02 1.247792411595582962e-02 1.836685463786125183e-02 -2.715703547000885010e-01 3.361290320754051208e-02 3.472221316769719124e-03 -1.014472357928752899e-02 -2.692040503025054932e-01 8.707803487777709961e-02 -1.806188672780990601e-01 1.200778633356094360e-01 -1.770091503858566284e-01 1.733804345130920410e-01 -4.408846423029899597e-02 -3.241865932941436768e-01 -1.965214461088180542e-01 -3.188235461711883545e-01
-5.945342406630516052e-02 2.001320943236351013e-02 5.124385003000497818e-03 1.100028082728385925e-01 -4.289691895246505737e-02 3.058022819459438324e-02 -1.597290486097335815e-01 -6.750302761793136597e-02 -1.603934019804000854e-01 2.803006768226623535e-01 -1.331021338701248169e-01 7.220875471830368042e-02 4.475495591759681702e-02 -7.338402420282363892e-02 -3.936642780900001526e-02 -9.652056545019149780e-02 -2.910076379776000977e-01 1.560499370098114014e-01 1.623045653104782104e-01 -3.538808822631835938e-01 -3.549799025058746338e-01 -7.920100539922714233e-02 -5.800171568989753723e-02 5.924049299210309982e-03 3.857391476631164551e-01 -1.807615906000137329e-01 1.445654630661010742e-01 -7.427466660737991333e-02 -4.505034908652305603e-02 -1.524042040109634399e-01 -1.074153650552034378e-02 -1.502669751644134521e-01 -2.610431984066963196e-02 1.441925764083862305e-01 -1.952259540557861328e-01 2.143800109624862671e-01 -2.876173853874206543e-01 4.813220351934432983e-02 -6.637758761644363403e-02 2.705790698528289795e-01
-1.876184903085231781e-02 7.222121115773916245e-03 1.688740104436874390e-01 -2.188525162637233734e-02 -3.906249627470970154e-02 -3.076050244271755219e-02 -1.788310408592224121e-01 -1.091553792357444763e-01 1.620293222367763519e-02 7.356166839599609375e-02 -1.230869665741920471e-01 -1.142418757081031799e-01 -5.917506292462348938e-02 -2.525820732116699219e-01 -3.719449043273925781e-02 -8.227258920669555664e-03 -2.444455958902835846e-02 -1.771159097552299500e-02 -2.450200319290161133e-01 6.379484385251998901e-02 -1.134820953011512756e-01 -3.254989087581634521e-01 -2.985174953937530518e-02 1.117565780878067017e-01 1.170053258538246155e-01 -4.333853255957365036e-03 -8.267690427601337433e-03 1.949374526739120483e-01 1.969795674085617065e-01 -2.856248319149017334e-01 -1.288187354803085327e-01 -9.872056543827056885e-02 -6.663364917039871216e-02 1.351538449525833130e-01 -2.241903394460678101e-01 1.195349618792533875e-01 -1.567329168319702148e-01 -1.503085624426603317e-02 5.812216550111770630e-02 8.849312365055084229e-02
3.003065288066864014e-01 -2.625106871128082275e-01 2.467189282178878784e-01 1.600678265094757080e-01 3.833377063274383545e-01 5.891877412796020508e-02 3.477122634649276733e-02 2.301431149244308472e-01 -1.897960007190704346e-01 1.183329336345195770e-02 2.179306596517562866e-01 -4.483332112431526184e-02 2.731641530990600586e-01 3.188257217407226562e-01 5.021004006266593933e-02 -1.604171842336654663e-01 -2.003953754901885986e-01 -3.190217912197113037e-01 -1.135928556323051453e-01 -7.060883194208145142e-02 -3.254902362823486328e-01 -1.413022875785827637e-01 1.791689097881317139e-01 2.361919963732361794e-03 -2.390961945056915283e-01 -9.346671402454376221e-02 -1.602407842874526978e-01 -1.883132010698318481e-01 5.905212834477424622e-02 6.721343845129013062e-02 1.130452975630760193e-01 -1.139378454536199570e-02 -2.664903178811073303e-02 -1.037657782435417175e-01 2.422251254320144653e-01 -1.421193480491638184e-01 6.598797626793384552e-03 -2.315342277288436890e-01 2.605658471584320068e-01 2.108328193426132202e-01
8.621666580438613892e-02 -7.551058381795883179e-02 -1.453131586313247681e-01 8.428557217121124268e-02 2.072311639785766602e-01 2.609121799468994141e-02 -2.050867527723312378e-01 1.526318937540054321e-01 1.046052500605583191e-01 -1.109984293580055237e-01 2.431232482194900513e-01 3.793062865734100342e-01 -2.520153224468231201e-01 1.873628944158554077e-01 -3.169492483139038086e-01 1.185935661196708679e-01 -2.348732054233551025e-01 -5.412251874804496765e-02 -1.617929488420486450e-01 5.745707079768180847e-02 -1.987795680761337280e-01 -3.278049826622009277e-02 1.227614376693964005e-02 -1.181075721979141235e-01 -7.743042707443237305e-02 2.594679407775402069e-02 -3.951693475246429443e-01 -1.092959269881248474e-01 9.900280088186264038e-02 1.336678117513656616e-01 -2.207683026790618896e-02 1.419778913259506226e-01 -2.327504158020019531e-01 2.282600402832031250e-01 1.956596225500106812e-01 -2.836476266384124756e-01 5.107443407177925110e-02 -1.222214028239250183e-01 -2.059016674757003784e-01 -1.113234367221593857e-02
-3.699601590633392334e-01 1.682197600603103638e-01 -2.058605998754501343e-01 2.626487910747528076e-01 -9.255485981702804565e-02 -1.951320469379425049e-02 -2.221795618534088135e-01 -1.299803853034973145e-01 1.203506141901016235e-01 -2.672724127769470215e-01 1.802465319633483887e-01 1.333736330270767212e-01 1.577324122190475464e-01 -5.743627622723579407e-02 -1.384836137294769287e-01 7.870297878980636597e-02 -2.583596110343933105e-01 -2.753873467445373535e-01 -5.359251052141189575e-02 -2.307625720277428627e-03 3.121668659150600433e-02 -1.731129139661788940e-01 2.004809677600860596e-01 2.987565398216247559e-01 6.001041620038449764e-04 -1.485867947340011597e-01 1.923965960741043091e-01 -5.494774505496025085e-02 -1.249712258577346802e-01 -7.759734243154525757e-02 -2.067323774099349976e-01 1.637202650308609009e-01 5.695967748761177063e-02 -1.572980880737304688e-01 -8.830326050519943237e-02 -2.552088201045989990e-01 3.942259587347507477e-03 -5.239317566156387329e-02 -1.973992139101028442e-01 3.994421288371086121e-02
3.120002448558807373e-01 7.087129354476928711e-02 -2.262847870588302612e-01 1.976744681596755981e-01 1.192802712321281433e-01 -1.590142697095870972e-01 -6.315727531909942627e-02 1.870377808809280396e-01 -2.381784766912460327e-01 9.122058749198913574e-02 -1.792019903659820557e-01 5.696738883852958679e-02 5.025217682123184204e-02 1.202892586588859558e-01 2.228052616119384766e-01 4.710166156291961670e-02 1.628301590681076050e-01 8.975887298583984375e-02 5.778290797024965286e-04 -1.564444303512573242e-01 1.978439539670944214e-01 -8.499833196401596069e-02 2.582879364490509033e-01 2.452084571123123169e-01 -2.746393978595733643e-01 1.544350832700729370e-01 -2.393731325864791870e-01 -1.855546683073043823e-01 -1.675478368997573853e-01 1.084645986557006836e-01 1.713861525058746338e-01 4.985278472304344177e-02 2.926569245755672455e-02 9.853687137365341187e-02 -1.727460324764251709e-01 1.369566917419433594e-01 -1.186285987496376038e-01 -2.152658067643642426e-02 1.613905280828475952e-01 -4.191019758582115173e-02
5.339186266064643860e-02 -1.211071293801069260e-02 -1.009340807795524597e-01 1.314505469053983688e-02 -1.186038483865559101e-03 2.363744825124740601e-01 2.464022189378738403e-01 2.567587606608867645e-02 -6.055632233619689941e-02 -1.946951597929000854e-01 1.369199603796005249e-01 1.988134831190109253e-01 1.987844258546829224e-01 -2.266676276922225952e-01 1.872058957815170288e-01 2.222302407026290894e-01 -7.446508854627609253e-02 -1.688124835491180420e-01 -2.454885095357894897e-01 -1.048208400607109070e-01 7.815466076135635376e-02 9.421934932470321655e-02 -1.283221542835235596e-01 1.439396739006042480e-01 -4.839193075895309448e-02 -1.680200099945068359e-01 3.778579831123352051e-02 1.434190548025071621e-03 2.366919368505477905e-01 -9.709188342094421387e-02 1.329524964094161987e-01 -2.812807261943817139e-01 -5.773791670799255371e-02 1.643365770578384399e-01 -1.910028904676437378e-01 -2.486313879489898682e-01 -1.275851875543594360e-01 -2.143936604261398315e-01 -2.643374726176261902e-03 -1.908049136400222778e-01
-1.063486859202384949e-01 1.563857644796371460e-01 1.512560844421386719e-01 4.144494421780109406e-03 -1.213099360466003418e-01 1.481179594993591309e-01 -2.051085531711578369e-01 2.436314821243286133e-01 1.294880509376525879e-01 -2.156857959926128387e-02 -6.240594387054443359e-02 3.227021992206573486e-01 1.244200021028518677e-01 9.115327894687652588e-02 -3.304453790187835693e-01 -6.101022288203239441e-02 2.835592441260814667e-02 -7.895775884389877319e-02 -1.791252642869949341e-01 -6.077660247683525085e-02 -1.441874802112579346e-01 -3.734587132930755615e-01 -1.474735587835311890e-01 -1.053931862115859985e-01 -8.495445363223552704e-03 -6.944903731346130371e-02 2.613681852817535400e-01 4.588830471038818359e-02 -3.786541521549224854e-01 -1.890295557677745819e-02 1.910248398780822754e-01 1.903883181512355804e-02 -3.695989027619361877e-02 -7.178770750761032104e-02 4.837023466825485229e-02 -7.254882366396486759e-04 1.101150512695312500e-01 -2.836706936359405518e-01 -2.573061883449554443e-01 6.352983415126800537e-03
-1.717820465564727783e-01 -1.034104377031326294e-01 -2.259792834520339966e-01 2.256484329700469971e-01 1.782070845365524292e-01 1.518002748489379883e-01 -2.013539522886276245e-01 -3.636832162737846375e-02 1.241397783160209656e-01 1.288749128580093384e-01 4.961920902132987976e-02 3.198595345020294189e-01 1.382188289426267147e-03 -2.386764995753765106e-02 3.096378445625305176e-01 1.205229163169860840e-01 -2.019933462142944336e-01 3.615244328975677490e-01 -8.604016155004501343e-02 -1.834550313651561737e-02 2.332227975130081177e-01 8.778397738933563232e-02 3.775864839553833008e-02 -6.353923678398132324e-02 2.368063479661941528e-01 -2.929470241069793701e-01 1.153767853975296021e-01 -1.085610315203666687e-01 2.630778849124908447e-01 9.028133749961853027e-02 7.921084761619567871e-02 -4.886259138584136963e-02 -7.026899140328168869e-03 1.466455459594726562e-01 -3.758249282836914062e-01 -2.589791417121887207e-01 -1.652261465787887573e-01 1.999730058014392853e-02 1.246615797281265259e-01 3.248698413372039795e-01
-2.208561897277832031e-01 -1.413684040307998657e-01 2.536271512508392334e-02 3.758783265948295593e-02 -2.017747908830642700e-01 -1.168191991746425629e-02 -1.896291822195053101e-01 -6.119275931268930435e-03 -3.371754586696624756e-01 2.896957099437713623e-01 -2.356558591127395630e-01 -6.394971907138824463e-02 1.915862970054149628e-02 1.082182899117469788e-01 -3.471899330615997314e-01 1.794994175434112549e-01 8.117585629224777222e-02 -6.407786905765533447e-02 -4.600125923752784729e-02 -2.912476472556591034e-02 3.599894046783447266e-01 -1.198177710175514221e-01 -2.950485423207283020e-02 2.631381712853908539e-02 -1.526572108268737793e-01 -1.095755323767662048e-01 2.263688296079635620e-01 -1.826496869325637817e-01 7.758670300245285034e-02 3.893128037452697754e-02 2.683218121528625488e-01 -2.174361944198608398e-01 4.496341571211814880e-02 -2.874557673931121826e-02 2.569045424461364746e-01 4.593580588698387146e-02 -1.339137405157089233e-01 2.400402128696441650e-01 3.105095028877258301e-01 -2.781843841075897217e-01
1.849980652332305908e-01 1.377418935298919678e-01 3.857277333736419678e-01 -3.343866765499114990e-01 -2.394043058156967163e-01 6.664573401212692261e-02 -1.409493088722229004e-01 1.428045928478240967e-01 2.786780893802642822e-01 -1.396970599889755249e-01 1.428979933261871338e-01 -2.029253244400024414e-01 4.300158470869064331e-02 3.764948248863220215e-01 8.785305172204971313e-02 8.985948562622070312e-02 2.410851716995239258e-01 6.447427719831466675e-02 -5.629493389278650284e-03 1.454313099384307861e-02 -3.789888322353363037e-01 1.138622909784317017e-01 -1.499317884445190430e-01 2.142394781112670898e-01 1.346718966960906982e-01 -4.489787667989730835e-02 2.663493752479553223e-01 -1.442432869225740433e-02 2.860269509255886078e-02 3.093503415584564209e-01 1.912623196840286255e-01 1.541278809309005737e-01 -1.963111758232116699e-02 7.723932713270187378e-02 -2.422466278076171875e-01 5.892338976263999939e-02 3.746106624603271484e-01 -1.898774653673171997e-01 2.208080589771270752e-01 -7.650216668844223022e-02
