1.403005793690681458e-02
1.029449980705976486e-02
3.305305540561676025e-02
-3.634361317381262779e-03
3.429670259356498718e-02
1.095190178602933884e-02
1.212456915527582169e-02
2.029517106711864471e-02
-1.204325351864099503e-02
-1.663714647293090820e-02
3.558220341801643372e-03
5.799544160254299641e-04
-9.348395280539989471e-03
5.735334940254688263e-03
5.137615880812518299e-05
-2.510707126930356026e-03
-2.933967113494873047e-02
1.274309027940034866e-02
1.477394532412290573e-02
-6.596083752810955048e-03
5.364998243749141693e-03
-1.226888154633343220e-03
1.163866277784109116e-02
2.117302455008029938e-02
-4.053868819028139114e-03
-2.063384652137756348e-02
9.924571029841899872e-03
3.832620754837989807e-02
1.407106872648000717e-02
5.259547382593154907e-02
-1.520431227982044220e-02
2.635696530342102051e-02
-2.663037274032831192e-03
-8.210401982069015503e-03
3.455394133925437927e-02
8.803178556263446808e-03
9.825944900512695312e-03
9.391530416905879974e-03
3.289857134222984314e-02
1.393888145685195923e-03
