-2.817418426275253296e-02
-4.964596778154373169e-02
4.376916214823722839e-03
1.710104569792747498e-02
-9.410373168066143990e-04
1.725007168715819716e-04
-2.130341529846191406e-02
3.780672699213027954e-02
2.550763078033924103e-02
-1.068785041570663452e-02
-1.223511761054396629e-03
1.000759039015974849e-05
-3.791040927171707153e-02
-1.646083001105580479e-05
-2.749081701040267944e-03
-4.299637339499895461e-07
-3.088113153353333473e-03
-2.300955384271219373e-05
-1.377808861434459686e-02
-1.289198920130729675e-02
9.714153595268726349e-03
-6.567531265318393707e-03
-2.304823882877826691e-02
5.049488507211208344e-03
8.243336342275142670e-03
-3.468402847647666931e-02
-6.461629271507263184e-02
-1.255272421985864639e-03
5.399063974618911743e-02
-3.551973775029182434e-02
-6.268428172916173935e-03
-8.013722486793994904e-03
-2.367018256336450577e-03
2.453696168959140778e-02
6.073172669857740402e-03
-1.433354336768388748e-02
5.833395334775559604e-06
-3.806190565228462219e-02
-5.732479691505432129e-02
-4.905747249722480774e-03
-2.500833012163639069e-02
6.221450865268707275e-03
1.024922821670770645e-02
-1.764789968729019165e-02
4.120456367218139349e-07
-3.699467051774263382e-03
-8.276339620351791382e-03
-1.224696636199951172e-03
-1.323543954640626907e-02
-1.367486175149679184e-02
-3.882285952568054199e-02
2.139615081250667572e-02
3.505204990506172180e-02
1.647677645087242126e-02
5.794031918048858643e-02
-2.223757654428482056e-02
-2.990034602134983288e-07
1.131168380379676819e-02
8.797622285783290863e-03
2.125615999102592468e-02
