-9.200691431760787964e-02
9.133147075772285461e-03
-3.144394233822822571e-02
5.953245237469673157e-02
-6.183090060949325562e-02
7.036216557025909424e-02
3.720966354012489319e-02
2.274319902062416077e-02
-3.207121416926383972e-02
-4.448365047574043274e-02
-3.262970596551895142e-02
-1.045240014791488647e-01
-4.720932047348469496e-04
6.907260417938232422e-02
8.726156502962112427e-02
2.901298180222511292e-02
1.065891161561012268e-01
-8.215916156768798828e-02
-1.069420296698808670e-02
-9.563072025775909424e-02
1.967637240886688232e-02
-1.778044854290783405e-03
-7.972122728824615479e-02
-3.524626418948173523e-02
-4.634095728397369385e-02
-8.043423295021057129e-02
4.569279402494430542e-02
-7.956630736589431763e-02
1.229687333106994629e-01
4.028672724962234497e-02
7.267134636640548706e-02
3.591847792267799377e-02
8.771078288555145264e-02
6.426271051168441772e-02
1.238261684775352478e-01
-1.305887196213006973e-02
-5.008439347147941589e-02
4.991313442587852478e-02
2.890882547944784164e-03
4.732237197458744049e-03
