3.557105362415313721e-02
3.118283115327358246e-02
1.770197227597236633e-02
6.064139306545257568e-02
-5.075186863541603088e-02
-3.273975104093551636e-02
-4.120913892984390259e-02
2.078139409422874451e-02
1.909127831459045410e-02
-9.236412495374679565e-02
3.346366435289382935e-02
9.313991293311119080e-03
-7.169268094003200531e-03
2.354471571743488312e-02
1.037787087261676788e-02
3.932347521185874939e-02
-7.224586606025695801e-02
5.659552291035652161e-02
-9.121455252170562744e-03
5.209022201597690582e-03
-2.398979663848876953e-02
-5.095990374684333801e-02
-5.094332620501518250e-02
2.759135700762271881e-02
-7.908502593636512756e-03
4.463241435587406158e-03
-5.006590858101844788e-02
2.427568845450878143e-02
1.246857643127441406e-02
-8.911816403269767761e-03
-2.877184934914112091e-02
-2.541456930339336395e-02
-1.198165789246559143e-01
-1.901394128799438477e-02
1.401026640087366104e-02
-6.032954528927803040e-02
1.216056197881698608e-01
-1.451659109443426132e-02
-3.581434860825538635e-02
1.980849727988243103e-02
3.799672797322273254e-02
1.803469099104404449e-02
-4.264649748802185059e-02
3.533182293176651001e-02
-8.848709613084793091e-02
3.716586530208587646e-02
-1.529745012521743774e-02
-7.086825370788574219e-02
-3.460347279906272888e-02
-5.784722976386547089e-03
-5.671740323305130005e-02
4.762185737490653992e-02
1.417161338031291962e-02
2.558953594416379929e-03
-9.388728998601436615e-03
-1.456335093826055527e-02
5.517976242117583752e-04
-9.810366481542587280e-02
3.347361087799072266e-02
4.238490946590900421e-03
