5.718782171607017517e-02 2.372059784829616547e-02 -7.786811143159866333e-02 -3.363578021526336670e-02 8.601029217243194580e-02 2.911367416381835938e-01 -6.202910095453262329e-02 -5.616163089871406555e-02 -3.399218916893005371e-01 -1.967898458242416382e-01 -2.908787429332733154e-01 -1.862056367099285126e-02 -2.066012620925903320e-01 1.898280233144760132e-01 4.345009848475456238e-02 9.557528048753738403e-02 5.473276600241661072e-03 -2.026495933532714844e-01 2.293504960834980011e-02 2.143659889698028564e-01 3.776862025260925293e-01 1.309150755405426025e-01 -1.922832056879997253e-02 9.699531644582748413e-02 9.546268731355667114e-02 -2.291646748781204224e-01 -6.364297121763229370e-02 1.281534135341644287e-01 3.478014171123504639e-01 4.399676620960235596e-02 -3.288880288600921631e-01 3.598691225051879883e-01 -9.976230561733245850e-03 3.232635557651519775e-01 2.026433199644088745e-01 1.498618423938751221e-01 1.028033047914505005e-01 -8.789900690317153931e-02 -3.689516335725784302e-02 -2.890749089419841766e-02 -3.171055018901824951e-01 3.395725414156913757e-02 -1.141829490661621094e-01 -1.014375463128089905e-01 1.930762268602848053e-02 9.468957036733627319e-02 7.401925325393676758e-02 -7.506050914525985718e-02 1.257131695747375488e-01 -1.595453172922134399e-02 -3.335906863212585449e-01 -2.171949148178100586e-01 9.481717646121978760e-02 4.521710053086280823e-02 -2.803146606311202049e-03 1.704901158809661865e-01 6.925136595964431763e-02 -2.882764637470245361e-01 4.581823945045471191e-02 -1.223713681101799011e-01
-1.552303731441497803e-01 6.906753033399581909e-02 2.179547958076000214e-02 -3.250806629657745361e-01 -4.346665926277637482e-03 -2.384902238845825195e-01 -2.950052917003631592e-01 -2.872192561626434326e-01 -3.284828662872314453e-01 -2.106834203004837036e-01 -2.950013615190982819e-02 -2.666621841490268707e-02 -2.049469202756881714e-01 2.371308058500289917e-01 3.521810844540596008e-02 -3.492207825183868408e-01 1.032642126083374023e-01 -3.338123261928558350e-01 -2.473387271165847778e-01 -1.882478478364646435e-03 1.330703794956207275e-01 1.570513844490051270e-01 3.038868606090545654e-01 -7.258789241313934326e-02 -4.168123379349708557e-02 -1.360650658607482910e-01 6.756795942783355713e-02 -2.008236199617385864e-01 1.409462988376617432e-01 -3.281368911266326904e-01 -3.451482951641082764e-01 -2.024105638265609741e-01 -1.038136705756187439e-01 2.033084630966186523e-01 -5.592865869402885437e-02 1.092088967561721802e-02 5.683180317282676697e-02 6.864149868488311768e-02 1.304807513952255249e-01 -1.089134141802787781e-01 6.156228110194206238e-02 -2.914956510066986084e-01 -1.296623796224594116e-01 2.470908463001251221e-01 6.311872601509094238e-02 -1.672403141856193542e-02 1.897084154188632965e-02 -1.002112217247486115e-02 1.395536512136459351e-01 -7.722692936658859253e-02 1.623357385396957397e-01 -1.270645409822463989e-01 2.676999568939208984e-02 3.353013396263122559e-01 3.724664822220802307e-02 7.901386916637420654e-02 2.670096158981323242e-01 -1.496698856353759766e-01 -1.058714184910058975e-02 -5.951906368136405945e-02
5.274825915694236755e-02 -1.641615480184555054e-01 2.411816418170928955e-01 3.459664061665534973e-02 -4.912121221423149109e-02 6.536012142896652222e-02 1.364387478679418564e-02 -6.821103394031524658e-02 2.001190185546875000e-01 -5.461785197257995605e-02 3.445652425289154053e-01 5.065579339861869812e-02 -1.759027689695358276e-01 3.210529983043670654e-01 -7.234240323305130005e-02 -1.997388452291488647e-01 -8.815515786409378052e-02 -2.953291237354278564e-01 5.845136567950248718e-02 2.436184436082839966e-01 3.277111053466796875e-02 3.510772883892059326e-01 -3.906545341014862061e-01 1.818577349185943604e-01 2.745172083377838135e-01 1.122370287775993347e-01 3.375082910060882568e-01 5.409990623593330383e-02 -1.259805448353290558e-02 1.683093025349080563e-03 -3.028233721852302551e-02 2.866020239889621735e-02 -2.716701328754425049e-01 -1.213568076491355896e-01 4.488789290189743042e-02 2.084030956029891968e-02 -4.014858230948448181e-02 -8.689542859792709351e-02 -1.022310480475425720e-01 -4.454213380813598633e-02 9.266053140163421631e-02 8.735829591751098633e-02 3.452884033322334290e-02 4.532861337065696716e-02 -3.504270613193511963e-01 2.106480151414871216e-01 -3.529671132564544678e-01 -2.400892227888107300e-01 -2.249980270862579346e-01 -1.843347996473312378e-01 -2.219045460224151611e-01 -4.974045976996421814e-02 -8.270475268363952637e-02 1.424679905176162720e-01 -9.887125343084335327e-02 2.331750653684139252e-02 -2.782488465309143066e-01 -2.747016958892345428e-02 -1.955449134111404419e-01 -2.818379700183868408e-01
-1.481670141220092773e-01 -1.137340068817138672e-01 2.873970009386539459e-02 1.312276571989059448e-01 -2.406775206327438354e-02 -2.453759908676147461e-01 5.350628495216369629e-02 -2.249671220779418945e-01 1.322086304426193237e-01 2.628406584262847900e-01 2.610148489475250244e-01 2.916738986968994141e-01 9.146402031183242798e-02 2.662941813468933105e-02 2.431924343109130859e-01 -1.413724869489669800e-01 1.897726021707057953e-02 -2.301027774810791016e-01 -1.710789650678634644e-02 2.238763123750686646e-01 5.249107629060745239e-02 -2.064390629529953003e-01 1.771299540996551514e-02 8.681895583868026733e-02 -1.627573817968368530e-01 9.098448604345321655e-02 2.204906940460205078e-01 2.522479891777038574e-01 3.370543122291564941e-01 1.329984217882156372e-01 4.280344769358634949e-02 1.911393851041793823e-01 1.728528439998626709e-01 -2.017442882061004639e-02 -1.022475361824035645e-01 3.151651024818420410e-01 -2.414692640304565430e-01 -9.101413935422897339e-02 1.025007944554090500e-02 -1.025537960231304169e-02 -6.709921360015869141e-02 -1.806223839521408081e-01 -7.992184907197952271e-02 -8.294026553630828857e-02 3.209950923919677734e-01 2.273783981800079346e-01 2.184890806674957275e-01 -3.732815682888031006e-01 7.070117443799972534e-02 -1.429355293512344360e-01 -1.827809959650039673e-01 2.317521575605496764e-04 3.621055781841278076e-01 -2.303030043840408325e-01 6.048829108476638794e-02 3.174435719847679138e-02 2.122939079999923706e-01 1.242094039916992188e-01 8.245166391134262085e-02 -2.037363052368164062e-01
-1.547819077968597412e-01 -3.025411963462829590e-01 -1.759510487318038940e-01 -1.215076595544815063e-01 2.426279336214065552e-01 -9.011079370975494385e-02 -2.144543975591659546e-01 -4.967113211750984192e-02 3.384194895625114441e-02 8.834864944219589233e-02 -1.158728227019309998e-01 -9.165953844785690308e-02 8.769162744283676147e-02 -6.458106637001037598e-02 3.574133217334747314e-01 1.281675994396209717e-01 1.798053830862045288e-01 1.088438853621482849e-01 9.110109508037567139e-02 2.303453236818313599e-01 1.042764112353324890e-01 2.199171036481857300e-01 2.621309161186218262e-01 1.312860101461410522e-01 -3.974334523081779480e-02 7.324279844760894775e-02 2.707151174545288086e-01 6.279840320348739624e-02 1.296961493790149689e-02 -5.896815285086631775e-02 -2.293455451726913452e-01 6.264089792966842651e-02 -8.480956405401229858e-02 -2.853513062000274658e-01 -2.648568153381347656e-01 -2.071400433778762817e-01 -1.984819769859313965e-01 2.148235887289047241e-01 -2.506081163883209229e-01 -1.932761222124099731e-01 1.793772429227828979e-01 -8.770559728145599365e-02 -7.035493105649948120e-02 1.233818158507347107e-01 2.474108189344406128e-01 2.100328654050827026e-01 -1.724601238965988159e-01 -7.901196181774139404e-02 5.888178944587707520e-02 1.180608868598937988e-01 -3.685422614216804504e-02 1.667582690715789795e-01 2.203550785779953003e-01 -1.845003478229045868e-02 1.304071694612503052e-01 1.028035059571266174e-01 1.025757193565368652e-02 2.182567417621612549e-01 -9.283822029829025269e-02 2.055318206548690796e-01
-1.363589335232973099e-02 -2.955156862735748291e-01 -1.431620419025421143e-01 -3.619272634387016296e-02 1.595973372459411621e-01 -2.817976474761962891e-01 1.822782121598720551e-02 1.128389015793800354e-01 1.823261827230453491e-01 -1.262764036655426025e-01 -9.163937531411647797e-03 -6.951271742582321167e-02 -1.144770011305809021e-01 -1.859640032052993774e-01 8.016236871480941772e-02 -2.717219293117523193e-01 2.039615213871002197e-01 -9.731951355934143066e-02 1.747134774923324585e-01 -6.025063991546630859e-02 -1.127521395683288574e-01 1.899061650037765503e-01 1.924069412052631378e-02 2.743545733392238617e-02 5.658733472228050232e-02 -2.179571390151977539e-01 -6.492111831903457642e-02 -1.665428876876831055e-01 1.477097570896148682e-01 -4.083891212940216064e-02 7.418745756149291992e-02 -6.946565955877304077e-02 -5.017518997192382812e-02 -2.143173515796661377e-01 7.469077594578266144e-03 2.552955150604248047e-01 -9.286855906248092651e-02 -2.431314252316951752e-02 2.383722066879272461e-01 -6.494039297103881836e-02 -2.084684371948242188e-01 3.001001179218292236e-01 -1.264306604862213135e-01 -2.818176448345184326e-01 4.391590878367424011e-02 -3.862773999571800232e-02 2.450389117002487183e-01 2.512403130531311035e-01 1.094908863306045532e-01 1.807538717985153198e-01 4.940263554453849792e-02 3.224691748619079590e-01 -1.552875041961669922e-01 3.823559880256652832e-01 9.674827754497528076e-02 9.971871227025985718e-02 1.944755017757415771e-01 1.950233876705169678e-01 -7.123791426420211792e-02 -2.211157791316509247e-02
3.575580194592475891e-02 -1.061321496963500977e-01 7.655515801161527634e-03 -3.113098144531250000e-01 -1.270568817853927612e-01 1.256382316350936890e-01 6.746405363082885742e-02 3.774359226226806641e-01 -2.701598107814788818e-01 -1.285889595746994019e-01 1.011473163962364197e-01 7.577802985906600952e-02 -1.344547420740127563e-01 -1.950840651988983154e-01 -9.915432892739772797e-03 -7.065512984991073608e-02 1.041863486170768738e-01 -1.593760102987289429e-01 -9.040493518114089966e-02 -3.963218256831169128e-02 9.459865093231201172e-02 -3.190385103225708008e-01 9.987840056419372559e-02 3.780119121074676514e-02 -2.923901379108428955e-02 -1.254349797964096069e-01 -3.216544538736343384e-02 -3.754943236708641052e-02 5.191530659794807434e-02 5.418322607874870300e-02 8.875513821840286255e-02 1.324001401662826538e-01 7.946802303194999695e-03 -2.360959798097610474e-01 1.911221891641616821e-01 5.632177740335464478e-02 -7.405973970890045166e-02 -3.204500302672386169e-02 1.757211685180664062e-01 3.288726508617401123e-01 -1.020658016204833984e-01 2.716751769185066223e-02 2.737850844860076904e-01 2.473450005054473877e-01 1.878093481063842773e-01 1.216298155486583710e-02 7.067250460386276245e-02 7.007592171430587769e-02 2.212205231189727783e-01 -1.531030088663101196e-01 -3.150949478149414062e-01 2.157935313880443573e-02 2.272359877824783325e-01 2.226176559925079346e-01 1.846978813409805298e-01 1.141331791877746582e-01 -2.062524110078811646e-01 1.789530515670776367e-01 -1.274804919958114624e-01 2.733485996723175049e-01
-5.813707038760185242e-02 1.089226156473159790e-01 5.955433472990989685e-02 -1.117605790495872498e-01 1.511841565370559692e-01 2.809214591979980469e-01 -5.934605002403259277e-02 5.173256620764732361e-02 -2.334557026624679565e-01 1.222087740898132324e-01 2.791768684983253479e-02 1.524507701396942139e-01 -8.968979865312576294e-02 9.472101926803588867e-02 9.563674777746200562e-02 -1.405465900897979736e-01 1.685592830181121826e-01 2.321543246507644653e-01 6.763097643852233887e-02 2.927901456132531166e-03 4.346581920981407166e-02 3.790057301521301270e-01 1.121087446808815002e-01 2.854107320308685303e-01 -1.432647705078125000e-01 6.704138219356536865e-02 -4.953726381063461304e-02 2.354665249586105347e-01 -2.386483699083328247e-01 1.026765927672386169e-01 1.362052112817764282e-01 6.307153403759002686e-02 3.362692594528198242e-01 -1.197971105575561523e-01 -5.102533847093582153e-02 -2.795330882072448730e-01 1.782258301973342896e-01 1.167892441153526306e-01 1.413235515356063843e-01 -7.376605272293090820e-02 7.600681390613317490e-03 2.795327603816986084e-01 -2.269880771636962891e-01 6.353344768285751343e-02 1.182483658194541931e-01 -1.693744212388992310e-01 -3.046926259994506836e-01 4.381017759442329407e-02 1.525474637746810913e-01 -1.487549692392349243e-01 -1.639447510242462158e-01 1.694589257240295410e-01 9.080926328897476196e-02 1.232090368866920471e-01 -1.001160144805908203e-01 -1.083560585975646973e-01 2.307250946760177612e-01 -2.045902460813522339e-01 -2.172677032649517059e-02 2.383980304002761841e-01
2.574731782078742981e-02 -2.217046320438385010e-01 2.227395772933959961e-01 2.299905270338058472e-01 -2.512676417827606201e-01 -1.057819277048110962e-01 1.252619624137878418e-01 -1.586090922355651855e-01 3.853962123394012451e-01 -6.978421658277511597e-02 1.609952300786972046e-01 3.297091424465179443e-01 -1.529966592788696289e-01 1.587199866771697998e-01 1.544707715511322021e-01 -1.619838327169418335e-01 2.053420990705490112e-01 -1.451501697301864624e-01 -2.511631846427917480e-01 -1.595421433448791504e-01 -3.604372143745422363e-01 5.880142375826835632e-02 1.759532094001770020e-01 3.818644583225250244e-01 2.698947787284851074e-01 -2.001704275608062744e-01 -1.284902691841125488e-01 -1.374132633209228516e-01 1.668866276741027832e-01 -1.358798593282699585e-01 -1.049476861953735352e-02 1.310417503118515015e-01 2.583245933055877686e-01 -2.765597403049468994e-01 2.450247257947921753e-01 -9.523761272430419922e-02 -1.574569195508956909e-01 -4.949359223246574402e-02 1.870933622121810913e-01 -1.190707013010978699e-01 -4.151455312967300415e-02 7.067700475454330444e-02 -1.872677206993103027e-01 -2.055339068174362183e-01 3.209284245967864990e-01 -1.096655055880546570e-02 -1.355823129415512085e-01 3.467801511287689209e-01 -7.582365721464157104e-02 1.950053423643112183e-01 -1.450060158967971802e-01 -1.537215560674667358e-01 1.125496178865432739e-01 -2.262064963579177856e-01 -1.417627185583114624e-01 -1.987030655145645142e-01 7.149478048086166382e-02 1.510936319828033447e-01 -4.214156791567802429e-02 1.299053728580474854e-01
8.922287076711654663e-02 2.019250299781560898e-03 2.662763297557830811e-01 -1.425738930702209473e-01 2.631423175334930420e-01 3.401664793491363525e-01 -2.090130150318145752e-01 2.198760630562901497e-03 -1.468231249600648880e-02 2.899610996246337891e-01 -7.389026135206222534e-02 -9.857154637575149536e-02 -5.636638961732387543e-03 -2.583538368344306946e-02 -1.239816173911094666e-01 -1.237836703658103943e-01 7.259458303451538086e-02 1.108230873942375183e-01 -1.682468503713607788e-01 -2.598705291748046875e-01 -1.424265652894973755e-01 1.123617291450500488e-01 -5.027943849563598633e-02 1.783375442028045654e-01 -1.080064550042152405e-01 -8.997080475091934204e-02 -1.659201085567474365e-01 2.058461159467697144e-01 -1.447366029024124146e-01 -1.599539965391159058e-01 -1.887591332197189331e-01 -2.375005930662155151e-01 3.265340030193328857e-01 -2.790085077285766602e-01 5.430769920349121094e-02 -1.137448772788047791e-01 2.970502153038978577e-02 -8.100596815347671509e-02 -1.073327586054801941e-01 -5.497100949287414551e-02 2.035462707281112671e-01 2.737802267074584961e-02 1.155946999788284302e-01 1.447151042520999908e-02 3.510234057903289795e-01 -4.856533929705619812e-02 2.765364646911621094e-01 -1.168612465262413025e-01 -7.457058876752853394e-02 3.904990851879119873e-03 -2.243247032165527344e-01 1.989283412694931030e-01 1.114724278450012207e-01 2.947915196418762207e-01 -1.863327175378799438e-01 2.942232489585876465e-01 1.747543513774871826e-01 2.150483429431915283e-01 1.064178720116615295e-01 1.425712276250123978e-02
-4.101891070604324341e-02 1.883892863988876343e-01 3.649831563234329224e-02 2.883826196193695068e-01 1.654620617628097534e-01 -9.340238571166992188e-02 -9.349948912858963013e-02 1.757679283618927002e-01 2.269587963819503784e-01 1.705742627382278442e-01 -1.340217739343643188e-01 -1.767944544553756714e-01 1.492536999285221100e-02 -8.267148584127426147e-02 2.749154269695281982e-01 -1.579090356826782227e-01 -3.956641852855682373e-01 -2.702828645706176758e-01 2.739134244620800018e-02 1.754868328571319580e-01 -8.191506564617156982e-02 -2.540511488914489746e-01 -3.448819816112518311e-01 -1.215939037501811981e-02 2.648820579051971436e-01 5.718573462218046188e-03 1.114953309297561646e-01 -2.498927116394042969e-01 -2.497051283717155457e-02 1.257257908582687378e-01 -4.509588703513145447e-02 1.797836720943450928e-01 -1.443433612585067749e-01 2.578058838844299316e-01 5.045453831553459167e-02 -8.344184607267379761e-02 1.263175457715988159e-01 7.571009336970746517e-04 2.246477901935577393e-01 8.655010908842086792e-02 -3.184454143047332764e-01 -3.283800482749938965e-01 -1.976573839783668518e-02 -8.448689430952072144e-02 4.626186192035675049e-02 3.159702196717262268e-02 1.643450371921062469e-02 -3.324098512530326843e-02 5.605946853756904602e-02 3.772727772593498230e-02 -4.741310700774192810e-02 -2.736596167087554932e-01 1.226889491081237793e-01 2.985559999942779541e-01 -5.034145340323448181e-02 7.159482687711715698e-03 -9.757707826793193817e-03 1.174763813614845276e-01 7.784708868712186813e-03 2.005378007888793945e-01
-1.607238203287124634e-01 1.576201468706130981e-01 6.990732252597808838e-02 -2.819964587688446045e-01 1.628562510013580322e-01 2.718902528285980225e-01 1.607912629842758179e-01 -1.221110597252845764e-01 1.425800472497940063e-01 -4.841445013880729675e-02 1.571658551692962646e-01 4.842465370893478394e-02 1.061589643359184265e-01 -4.860743880271911621e-02 -1.505228108726441860e-03 -7.472186535596847534e-02 2.562945783138275146e-01 -2.574139237403869629e-01 1.900393962860107422e-01 1.405982673168182373e-01 1.807058602571487427e-02 -3.785976469516754150e-01 3.919726982712745667e-02 -1.908355951309204102e-01 -1.203123480081558228e-01 8.764650672674179077e-02 3.990049064159393311e-01 -3.907163441181182861e-01 -9.876113384962081909e-02 -1.387405246496200562e-01 -1.290965359658002853e-02 -1.602711975574493408e-01 1.545172333717346191e-01 -1.463963538408279419e-01 -1.370958238840103149e-01 5.924319103360176086e-02 1.008397783152759075e-03 3.407482802867889404e-01 2.219103872776031494e-01 3.039051592350006104e-01 -8.211066573858261108e-02 2.476397305727005005e-01 1.045275107026100159e-01 -1.202486380934715271e-01 -1.722635775804519653e-01 1.101393699645996094e-01 2.332924455404281616e-01 1.698704361915588379e-01 2.810615003108978271e-01 -2.779341936111450195e-01 -2.433223575353622437e-01 1.724682897329330444e-01 2.246154993772506714e-01 -3.032234907150268555e-01 -7.951628416776657104e-02 2.048702351748943329e-02 1.710765212774276733e-01 -1.404323279857635498e-01 1.690700799226760864e-01 1.546481698751449585e-01
-2.511822879314422607e-01 -7.664059847593307495e-02 2.792603075504302979e-01 1.073164716362953186e-01 -1.787398159503936768e-01 -1.066074967384338379e-01 5.318939220160245895e-03 2.660886049270629883e-01 1.161752641201019287e-02 2.892397344112396240e-01 -8.272438496351242065e-02 1.505187898874282837e-01 1.302318572998046875e-01 -3.032546043395996094e-01 7.770887017250061035e-02 9.223803132772445679e-02 -7.350557297468185425e-02 -8.463698439300060272e-03 7.230334728956222534e-02 -1.618327796459197998e-01 -1.652735024690628052e-01 -2.490186691284179688e-01 2.942538857460021973e-01 -1.413058396428823471e-02 2.936347126960754395e-01 9.216720610857009888e-02 -3.713359534740447998e-01 -8.433554321527481079e-02 3.002674281597137451e-01 -8.675297349691390991e-02 -2.999912500381469727e-01 -5.900324136018753052e-02 7.336478680372238159e-02 3.397032022476196289e-01 2.887876927852630615e-01 -2.346253395080566406e-01 -1.824489980936050415e-01 -2.886248938739299774e-02 7.784285396337509155e-02 4.387749731540679932e-02 5.445092543959617615e-02 -2.801735103130340576e-01 9.802298992872238159e-02 1.836775839328765869e-01 -2.368802875280380249e-01 -2.268713563680648804e-01 -2.232012748718261719e-01 7.737987488508224487e-02 3.556944057345390320e-02 1.860747784376144409e-01 1.038379296660423279e-01 3.264212980866432190e-02 9.913941472768783569e-02 -2.931093573570251465e-01 -3.399712145328521729e-01 -9.137499332427978516e-02 -2.205828949809074402e-02 -9.890703111886978149e-02 3.178616762161254883e-01 5.864718183875083923e-02
-3.140623867511749268e-01 -1.977561712265014648e-01 8.046909421682357788e-02 2.385011017322540283e-01 -2.656027972698211670e-01 7.559362053871154785e-02 1.588707119226455688e-01 3.719536662101745605e-01 3.744455799460411072e-02 2.038212120532989502e-01 -1.504758447408676147e-01 2.069864124059677124e-01 -1.167741343379020691e-01 8.326894789934158325e-02 1.556110233068466187e-01 -1.574367168359458447e-03 -1.084742769598960876e-01 3.874189257621765137e-01 -3.825632482767105103e-02 1.139310225844383240e-01 -1.783074885606765747e-01 -3.533105552196502686e-01 -1.735253036022186279e-01 -1.954084075987339020e-02 -1.266533881425857544e-01 -1.491972655057907104e-01 1.305393427610397339e-01 2.267371714115142822e-01 3.862332105636596680e-01 -2.681664191186428070e-02 2.338543906807899475e-02 2.626062333583831787e-01 9.950254112482070923e-03 -3.233225271105766296e-02 -2.310771048069000244e-01 2.971068322658538818e-01 3.952431306242942810e-02 1.733984947204589844e-01 3.085245192050933838e-02 -2.498337030410766602e-01 1.785054951906204224e-01 -5.549997091293334961e-02 2.022997010499238968e-03 -1.756132394075393677e-01 3.873128592967987061e-01 1.862794607877731323e-01 2.333403080701828003e-01 -1.865290552377700806e-01 -4.630116373300552368e-02 1.329173445701599121e-01 8.360076695680618286e-02 1.606732755899429321e-01 7.656323164701461792e-02 -9.415592253208160400e-02 1.536361575126647949e-01 -1.274161487817764282e-01 -2.709445655345916748e-01 1.172612830996513367e-01 -2.359799891710281372e-01 2.284549325704574585e-01
-8.833842724561691284e-02 2.513248622417449951e-01 1.631294488906860352e-01 -1.500945985317230225e-01 -1.103334054350852966e-01 -2.323790043592453003e-01 -2.682552933692932129e-01 -1.095602661371231079e-01 -1.250768452882766724e-02 -5.345618352293968201e-02 -1.518568247556686401e-01 -1.107394099235534668e-01 -1.371752619743347168e-01 4.505997151136398315e-02 -7.190200965851545334e-03 -1.516154408454895020e-02 -1.417664438486099243e-02 8.771812170743942261e-02 -1.069607734680175781e-01 2.659753262996673584e-01 2.639679610729217529e-01 -1.448614001274108887e-01 1.102950945496559143e-01 1.776733547449111938e-01 -3.261914253234863281e-01 2.640585601329803467e-01 -5.426021292805671692e-02 -3.076154887676239014e-01 1.507789343595504761e-01 -3.721914887428283691e-01 -2.532910108566284180e-01 -1.017196103930473328e-01 -1.270913928747177124e-01 -1.022305414080619812e-01 1.456263959407806396e-01 -1.743697375059127808e-01 2.076322585344314575e-02 -9.768334031105041504e-02 -1.489122807979583740e-01 3.585544824600219727e-01 -2.310552150011062622e-01 6.355289369821548462e-02 9.865842759609222412e-02 -3.000429645180702209e-02 -3.798439353704452515e-02 1.617854088544845581e-01 -2.803503572940826416e-01 1.433772146701812744e-01 2.169229835271835327e-01 6.420499831438064575e-02 -1.697858422994613647e-01 -1.665198951959609985e-01 5.422648414969444275e-02 -3.309713602066040039e-01 -3.401697427034378052e-02 3.444116413593292236e-01 -1.383161991834640503e-01 -6.957762688398361206e-02 -2.026641368865966797e-01 4.786682501435279846e-02
4.013129696249961853e-02 -6.516742054373025894e-03 3.522020205855369568e-02 1.229233667254447937e-01 2.232160866260528564e-01 -2.075571864843368530e-01 1.114157214760780334e-01 -3.356438279151916504e-01 -2.249416410923004150e-01 5.272817239165306091e-02 2.588569819927215576e-01 -5.995578318834304810e-02 9.396179765462875366e-02 9.959665685892105103e-02 8.860944211483001709e-02 -3.611679375171661377e-01 2.549394369125366211e-01 -5.123726278543472290e-02 -1.061584148555994034e-02 1.349136084318161011e-01 -2.059945613145828247e-01 5.280846357345581055e-02 7.984139770269393921e-02 1.015807390213012695e-01 4.755575209856033325e-02 -8.714235574007034302e-02 -1.568212360143661499e-01 1.477575004100799561e-01 2.151472419500350952e-01 -1.175127997994422913e-01 -1.459171772003173828e-01 -4.930919408798217773e-02 -1.553137600421905518e-02 2.011186629533767700e-01 8.750022202730178833e-02 -2.266164571046829224e-01 1.077121049165725708e-01 1.790030896663665771e-01 3.021259605884552002e-02 1.289446800947189331e-01 -1.371495574712753296e-01 2.008872777223587036e-01 8.119807392358779907e-02 -2.245686501264572144e-01 -1.041452884674072266e-01 2.484216243028640747e-01 2.561323940753936768e-01 -2.555992603302001953e-01 3.242106363177299500e-02 2.524939179420471191e-01 -2.462295591831207275e-01 -8.457311987876892090e-02 6.752397119998931885e-02 -2.119204215705394745e-02 2.838368117809295654e-01 -1.028282195329666138e-01 -2.485824981704354286e-03 3.510804772377014160e-01 -1.697066873311996460e-01 -1.942763775587081909e-01
-1.383159309625625610e-01 2.901212573051452637e-01 5.852277949452400208e-02 1.167517807334661484e-02 -2.427955418825149536e-01 1.362178176641464233e-01 5.505887791514396667e-02 1.232819538563489914e-02 2.293805181980133057e-01 -2.824673056602478027e-02 3.456879556179046631e-01 -1.721771992743015289e-02 8.703131228685379028e-02 3.189396858215332031e-02 3.474679216742515564e-02 -1.615093648433685303e-01 -2.359640784561634064e-03 -3.827993571758270264e-02 -2.860350906848907471e-02 -1.672947853803634644e-01 1.687059993855655193e-03 -1.899220347404479980e-01 3.416441380977630615e-02 1.956146210432052612e-01 1.782637834548950195e-01 4.856704548001289368e-02 -2.530949115753173828e-01 3.374246507883071899e-02 -3.604677319526672363e-01 1.355414390563964844e-01 -2.176057547330856323e-01 1.607932597398757935e-01 -1.503032445907592773e-01 -6.070278957486152649e-02 -7.665197551250457764e-02 2.666300237178802490e-01 1.084619686007499695e-01 1.632751338183879852e-02 2.294071167707443237e-01 2.019493281841278076e-02 1.269661039113998413e-01 1.358770579099655151e-01 -2.322681695222854614e-01 -6.951954215764999390e-02 3.062559068202972412e-01 -2.582857944071292877e-02 -3.772917687892913818e-01 -1.743184775114059448e-01 -2.345284223556518555e-01 1.519126147031784058e-01 2.482418529689311981e-02 -1.087172850966453552e-01 -7.734185457229614258e-02 3.592054247856140137e-01 -2.668123245239257812e-01 -7.977707684040069580e-02 -2.474043667316436768e-01 2.194205671548843384e-02 -1.725244685076177120e-03 3.460570797324180603e-02
1.762785911560058594e-01 6.742344796657562256e-02 1.644945703446865082e-02 7.633849978446960449e-02 -1.576796472072601318e-01 -1.293452233076095581e-01 -2.017316967248916626e-02 1.611616313457489014e-01 -8.947432041168212891e-03 -4.241215810179710388e-02 2.315897494554519653e-01 5.503615364432334900e-02 -9.165795892477035522e-02 1.211523935198783875e-01 1.271654516458511353e-01 3.700860440731048584e-01 8.478409796953201294e-02 1.790228858590126038e-02 -1.075760461390018463e-02 1.365898270159959793e-02 -9.094848483800888062e-02 6.203041225671768188e-02 7.907011359930038452e-02 -2.353502810001373291e-01 -2.492088377475738525e-01 1.237745210528373718e-01 -1.423253118991851807e-02 -3.993692696094512939e-01 -1.602355092763900757e-01 1.038280129432678223e-01 -1.516815274953842163e-01 2.213052511215209961e-01 -1.729268878698348999e-01 3.049287497997283936e-01 -1.307404488325119019e-01 -1.965312361717224121e-01 -1.269740909337997437e-01 -1.607054620981216431e-01 4.184997826814651489e-02 -9.893354028463363647e-02 -1.152535229921340942e-01 -3.266464173793792725e-01 2.882004156708717346e-02 8.548943698406219482e-02 -9.748970717191696167e-02 6.025692448019981384e-02 2.416472434997558594e-01 1.662274152040481567e-01 -1.857917159795761108e-01 -2.468641102313995361e-01 -1.774457655847072601e-02 2.812956273555755615e-01 -1.006140112876892090e-01 -1.145699396729469299e-01 -9.350471198558807373e-03 -1.619209498167037964e-01 1.192445680499076843e-01 -3.465161919593811035e-01 -2.884711325168609619e-01 -3.435677587985992432e-01
7.971151173114776611e-02 1.119557842612266541e-01 -2.056585997343063354e-01 -3.303475975990295410e-01 -3.299834430217742920e-01 9.945464879274368286e-02 3.353490531444549561e-01 1.253169625997543335e-01 -1.182793527841567993e-01 -1.277860850095748901e-01 -1.711367815732955933e-01 3.007226884365081787e-01 -4.252994805574417114e-02 2.860862016677856445e-01 2.608670890331268311e-01 -2.727611958980560303e-01 2.545387484133243561e-02 1.052813157439231873e-01 -1.472669094800949097e-02 -2.407256662845611572e-01 -4.406098648905754089e-02 6.075335294008255005e-02 -9.821153432130813599e-02 2.565097510814666748e-01 1.911043971776962280e-01 2.459826134145259857e-02 4.690899048000574112e-03 1.836242526769638062e-01 -6.137981638312339783e-02 -1.422783285379409790e-01 -1.808754652738571167e-01 -1.343856751918792725e-01 1.649314612150192261e-01 3.101507425308227539e-01 -2.542591989040374756e-01 -2.347066067159175873e-02 -1.019797846674919128e-01 1.471846550703048706e-01 -1.294564306735992432e-01 -9.511932730674743652e-02 -4.420169070363044739e-02 4.534038528800010681e-02 -2.639478445053100586e-01 -9.497296810150146484e-02 -3.030639290809631348e-01 -2.857781648635864258e-01 -8.005570620298385620e-02 -2.429245710372924805e-01 -2.516689300537109375e-01 -1.683854609727859497e-01 3.596481680870056152e-01 -4.442296922206878662e-02 -1.598704792559146881e-02 -3.048367202281951904e-01 -9.743066877126693726e-02 2.226202487945556641e-01 -1.918160170316696167e-01 1.119262203574180603e-01 1.997479647397994995e-01 8.280055969953536987e-02
-4.722778871655464172e-02 1.176936998963356018e-01 -5.664363503456115723e-02 -2.148097008466720581e-01 -5.919970944523811340e-02 2.618870139122009277e-01 3.408265113830566406e-01 4.174384102225303650e-02 6.272521615028381348e-02 4.907942935824394226e-02 9.219204634428024292e-02 -1.375266760587692261e-01 2.600484192371368408e-01 -1.367748826742172241e-01 -9.900206327438354492e-02 -2.314467877149581909e-01 1.204479560256004333e-01 -2.923422753810882568e-01 3.543223738670349121e-01 1.654784679412841797e-01 1.859895437955856323e-01 2.381473630666732788e-01 1.173923537135124207e-01 -1.933409273624420166e-01 4.212638735771179199e-02 -7.453961670398712158e-02 2.453567534685134888e-01 3.752879500389099121e-01 -1.735882312059402466e-01 -1.362912505865097046e-01 -8.452464640140533447e-02 -1.705359071493148804e-01 -1.028909608721733093e-01 1.227315813302993774e-01 3.192374482750892639e-02 1.605838984251022339e-01 -1.493338495492935181e-01 9.029437601566314697e-02 1.671926975250244141e-01 9.631036967039108276e-02 1.167610660195350647e-01 -2.567389048635959625e-02 -3.197480440139770508e-01 -2.440078705549240112e-01 2.832250855863094330e-02 -4.469205625355243683e-03 -6.774346530437469482e-02 -4.355409368872642517e-02 -1.653828471899032593e-01 4.852641373872756958e-02 -6.250446289777755737e-02 -3.753719031810760498e-01 -2.811863720417022705e-01 -4.963229596614837646e-02 1.792180389165878296e-01 3.357572257518768311e-01 5.361751839518547058e-02 -1.026894673705101013e-01 -2.089074403047561646e-01 2.009233683347702026e-01
