2.030776590108871460e-01 -9.780333191156387329e-02 8.331470936536788940e-02 -1.731862127780914307e-02 -2.853400409221649170e-01 -9.938949719071388245e-03 -2.057165205478668213e-01 -6.247614696621894836e-02 -2.228142321109771729e-02 -2.248407453298568726e-01 -1.446475833654403687e-01 -1.854552775621414185e-01 -1.781649738550186157e-01 -1.669057309627532959e-01 -1.909468173980712891e-01 -4.432963579893112183e-02 -1.211336031556129456e-01 -7.079329341650009155e-02 4.739551991224288940e-02 1.424245685338973999e-01
-3.932074010372161865e-01 1.455853581428527832e-01 1.844806820154190063e-01 1.581544801592826843e-02 -3.741491734981536865e-01 -4.155568405985832214e-02 1.566238105297088623e-01 1.627218574285507202e-01 -4.807016626000404358e-02 -2.373041026294231415e-02 -2.661908864974975586e-01 -3.043137304484844208e-02 1.563186347484588623e-01 7.589792460203170776e-02 3.551949262619018555e-01 1.912222951650619507e-01 -1.392434090375900269e-01 -1.431540101766586304e-01 -1.099584698677062988e-01 -2.147653400897979736e-01
4.755977168679237366e-02 -7.689028233289718628e-02 3.274531364440917969e-01 2.149942368268966675e-01 9.901708923280239105e-03 -2.160044759511947632e-01 -4.849485680460929871e-02 -8.583173900842666626e-02 -1.571432650089263916e-01 3.175285086035728455e-02 7.914673537015914917e-02 8.993500471115112305e-02 -5.268685985356569290e-03 -3.543581664562225342e-01 -1.433644741773605347e-01 -1.872585900127887726e-02 -1.338286846876144409e-01 -1.979666799306869507e-01 2.744039297103881836e-01 -2.639712765812873840e-02
-6.030957028269767761e-02 1.811136119067668915e-02 1.373113095760345459e-01 3.044853806495666504e-01 -9.825364686548709869e-03 1.191760897636413574e-01 2.123141288757324219e-01 2.936817109584808350e-01 -2.152077406644821167e-01 5.216526612639427185e-02 2.098530083894729614e-01 4.213699139654636383e-03 -1.599559187889099121e-01 -6.675462704151868820e-03 2.609780132770538330e-01 -2.656399905681610107e-01 -1.250341236591339111e-01 6.995610892772674561e-02 -6.947625428438186646e-02 2.414929121732711792e-01
-1.877651065587997437e-01 -9.219136834144592285e-02 -2.543920278549194336e-01 9.701111167669296265e-02 -5.346355959773063660e-02 1.597508639097213745e-01 4.624901339411735535e-02 9.365164488554000854e-02 -4.500349611043930054e-02 3.236176669597625732e-01 1.254121065139770508e-01 5.234076455235481262e-02 3.044457873329520226e-03 1.611908078193664551e-01 9.042928926646709442e-03 -2.798957824707031250e-01 1.223660446703433990e-02 3.578522205352783203e-01 -1.286749392747879028e-01 -1.951405405998229980e-01
-1.228574514389038086e-01 6.238451600074768066e-02 -3.923472762107849121e-02 -3.248576819896697998e-02 1.211579442024230957e-01 -2.082766778767108917e-02 2.717668414115905762e-01 -1.384796649217605591e-01 3.269921541213989258e-01 1.700783222913742065e-01 -1.110781356692314148e-01 -2.580084800720214844e-01 3.645421266555786133e-01 3.333735093474388123e-02 6.866583973169326782e-02 -1.439844965934753418e-01 -1.843158155679702759e-01 1.416199654340744019e-01 -1.086256057024002075e-01 1.849260330200195312e-01
1.623457670211791992e-01 3.506507575511932373e-01 3.063479363918304443e-01 2.119385004043579102e-01 -6.927699595689773560e-02 -9.670510888099670410e-02 5.592397972941398621e-02 -2.011680155992507935e-01 -1.512367725372314453e-01 3.232783079147338867e-01 -2.148644179105758667e-01 -9.028822183609008789e-02 2.198070734739303589e-01 -9.509604424238204956e-02 9.191819280385971069e-02 4.978098720312118530e-02 1.199437305331230164e-01 1.080591231584548950e-01 -4.881813377141952515e-02 2.052563428878784180e-02
6.884022802114486694e-02 -1.378708332777023315e-01 8.146078139543533325e-02 2.363389581441879272e-01 1.671314686536788940e-01 -5.728891119360923767e-02 3.385886549949645996e-02 1.517007052898406982e-01 -1.029878631234169006e-01 -4.433975741267204285e-02 -3.153769671916961670e-02 -3.791874647140502930e-02 1.723985821008682251e-01 -6.236029416322708130e-02 1.461638659238815308e-01 2.352875284850597382e-02 2.881773710250854492e-01 -1.909722238779067993e-01 6.447272002696990967e-02 -7.703123241662979126e-02
-2.974880933761596680e-01 2.175028808414936066e-02 2.777034938335418701e-01 -3.778292536735534668e-01 1.183827072381973267e-01 -4.287053272128105164e-02 2.712109982967376709e-01 -5.667398124933242798e-02 1.350660771131515503e-01 3.048520982265472412e-01 -4.734189435839653015e-02 -5.773175880312919617e-02 -1.593129634857177734e-01 1.946365684270858765e-01 -3.276351988315582275e-01 -1.942500174045562744e-01 -7.635600864887237549e-02 1.570422798395156860e-01 -9.568633884191513062e-02 -1.611788719892501831e-01
3.490163087844848633e-01 3.311194181442260742e-01 -1.745083928108215332e-01 -6.275821477174758911e-02 8.786682039499282837e-02 2.271150983870029449e-02 3.767273426055908203e-01 -2.925348281860351562e-01 -2.370899468660354614e-01 -6.854303926229476929e-02 2.722287178039550781e-01 -6.977488845586776733e-02 -7.977326214313507080e-02 2.344041615724563599e-01 -2.547000050544738770e-01 -1.273349206894636154e-02 8.756002783775329590e-02 -3.952621817588806152e-01 -2.392245084047317505e-01 -5.376295000314712524e-02
