-2.406401336193084717e-01 3.704925179481506348e-01 -1.287788748741149902e-01 -2.030027061700820923e-01 3.623146414756774902e-01 -1.947133243083953857e-01 4.844028130173683167e-02 4.507868364453315735e-02 -1.143215969204902649e-01 -3.384138345718383789e-01 3.923699259757995605e-02 4.391022957861423492e-03 1.436475962400436401e-01 1.327202916145324707e-01 -2.322639822959899902e-01 -3.830542042851448059e-02 -1.521556545048952103e-02 -2.156191319227218628e-01 -8.332399278879165649e-02 2.368145622313022614e-02 3.886947175487875938e-03 2.372571229934692383e-01 -2.637234888970851898e-02 8.876483479980379343e-05 4.271510615944862366e-02 -5.183567106723785400e-02 1.031284257769584656e-01 1.924423277378082275e-01 2.716718018054962158e-01 -2.997023165225982666e-01 3.475486934185028076e-01 1.797948479652404785e-01 6.913235783576965332e-02 -2.491159439086914062e-01 1.860836595296859741e-01 9.912584722042083740e-02 6.459812074899673462e-02 -2.476786077022552490e-02 2.399884164333343506e-01 4.924330487847328186e-02 -2.603201940655708313e-02 1.370631158351898193e-01 -5.149050801992416382e-02 1.738868281245231628e-02 -3.647274896502494812e-02 5.014128237962722778e-02 2.587644755840301514e-02 -4.066477715969085693e-01 -2.217604815959930420e-01 2.889462048187851906e-03 -1.065042018890380859e-01 4.942417144775390625e-02 -8.256953209638595581e-02 2.595994472503662109e-01 -6.055322289466857910e-02 1.343858093023300171e-01 -3.212575241923332214e-02 -5.125225335359573364e-02 -2.246501147747039795e-01 2.188557684421539307e-01 -1.303466260433197021e-01 2.523530460894107819e-02 -3.692164272069931030e-02 8.355796337127685547e-02 9.256043285131454468e-02 -7.525513321161270142e-02 -1.275910139083862305e-01 -7.477541267871856689e-02 -1.154525429010391235e-01 9.516309201717376709e-02 -1.660322248935699463e-01 1.045849397778511047e-01 3.618051409721374512e-01 2.053473591804504395e-01 -3.257459402084350586e-01 1.450283080339431763e-01 2.320119589567184448e-01 -6.754156202077865601e-02 -2.594422399997711182e-01 2.747956477105617523e-02
-1.623604297637939453e-01 -2.502411305904388428e-01 1.676680743694305420e-01 2.680957317352294922e-03 2.954916562885046005e-03 9.164788760244846344e-03 1.072462797164916992e-01 -1.535123139619827271e-01 1.279375106096267700e-01 4.775176197290420532e-02 1.249182596802711487e-01 -3.382953107357025146e-01 -2.294164896011352539e-01 1.211934611201286316e-01 5.775736644864082336e-02 -2.542043626308441162e-01 -1.488618105649948120e-01 2.437829039990901947e-02 -2.177810519933700562e-01 2.042908072471618652e-01 8.978301286697387695e-02 1.866329163312911987e-01 -9.095544926822185516e-03 2.605307102203369141e-01 -1.530024856328964233e-01 1.162084639072418213e-01 1.561559736728668213e-01 2.226206846535205841e-02 3.340331092476844788e-02 -1.100400686264038086e-01 1.385480165481567383e-01 -6.076007615774869919e-03 1.328082568943500519e-02 -2.822116315364837646e-01 -1.172500550746917725e-01 2.250277996063232422e-01 -5.782649293541908264e-02 2.060052007436752319e-01 2.135864496231079102e-01 -1.316487640142440796e-01 7.555677741765975952e-02 -6.781352311372756958e-02 -1.061151325702667236e-01 -3.830555081367492676e-02 6.212094333022832870e-03 -1.537910252809524536e-01 1.062380447983741760e-01 1.183981299400329590e-01 1.102792918682098389e-01 1.455257534980773926e-01 -1.268573403358459473e-01 1.984685957431793213e-01 3.483600157778710127e-04 -1.316075026988983154e-01 1.612656377255916595e-02 3.053342923521995544e-02 1.982454359531402588e-01 -1.298902332782745361e-01 1.455297470092773438e-01 2.395172566175460815e-01 2.778087556362152100e-02 -1.341497004032135010e-01 8.796478807926177979e-02 2.247973978519439697e-01 -1.439450234174728394e-01 -2.710278704762458801e-02 3.013384342193603516e-01 2.241319566965103149e-01 2.375721782445907593e-01 1.669862121343612671e-01 1.228681206703186035e-01 5.205783247947692871e-02 3.878277540206909180e-02 -3.194735050201416016e-01 -1.757743060588836670e-01 -6.543131917715072632e-02 -8.137008408084511757e-04 -9.492785466136410832e-05 2.851041220128536224e-02 1.967080235481262207e-01
2.130705118179321289e-01 -2.638483643531799316e-01 1.289068162441253662e-01 6.365168839693069458e-02 -1.528945416212081909e-01 2.513893544673919678e-01 -5.534563586115837097e-02 -1.072462201118469238e-01 3.633765280246734619e-01 -3.636868596076965332e-01 -2.953221201896667480e-01 -1.940640062093734741e-01 -1.014695018529891968e-01 -3.136514127254486084e-01 -1.569746285676956177e-01 -1.760068684816360474e-01 7.309423387050628662e-02 1.663571894168853760e-01 2.277127355337142944e-01 -7.495614886283874512e-02 -1.699385941028594971e-01 -1.510407328605651855e-01 -1.667783111333847046e-01 2.623786330223083496e-01 -8.533845096826553345e-02 -2.744840383529663086e-01 -1.854510903358459473e-01 -4.978914558887481689e-02 1.914138719439506531e-02 2.176343202590942383e-01 -4.239907860755920410e-02 -8.306605368852615356e-02 -3.255518376827239990e-01 2.664993703365325928e-01 7.814323902130126953e-02 1.497044265270233154e-01 2.088355086743831635e-02 2.228738963603973389e-01 2.202328592538833618e-01 6.950607150793075562e-02 -1.709775179624557495e-01 -1.565533503890037537e-02 2.697601616382598877e-01 -3.398079872131347656e-01 1.285926401615142822e-01 1.901107728481292725e-01 8.831819286569952965e-04 -1.551223695278167725e-01 4.924718290567398071e-02 -1.568221859633922577e-02 9.204399771988391876e-03 -3.381881117820739746e-01 2.972637116909027100e-01 2.107628434896469116e-01 -1.247672140598297119e-01 -1.256250441074371338e-01 -1.449444144964218140e-01 1.635809689760208130e-01 2.894196808338165283e-01 -2.598668932914733887e-01 -1.633950620889663696e-01 2.992216264829039574e-03 1.564392447471618652e-01 -1.265732347965240479e-01 1.312386151403188705e-02 -7.198155671358108521e-02 -1.766704209148883820e-02 -8.911640942096710205e-02 -2.197337299585342407e-01 1.255324631929397583e-01 2.204992324113845825e-01 -8.846983313560485840e-02 -1.890924572944641113e-01 -1.160105764865875244e-01 2.754162549972534180e-01 2.290570586919784546e-01 1.187454983592033386e-01 -3.657750319689512253e-03 1.589635759592056274e-01 -1.338744759559631348e-01
4.621715471148490906e-02 1.919705048203468323e-02 4.777432605624198914e-02 3.117128312587738037e-01 -9.292631596326828003e-02 -3.057555854320526123e-01 8.265548944473266602e-02 9.243682771921157837e-02 -9.768113493919372559e-02 -7.393622398376464844e-02 9.039494395256042480e-02 -5.290763825178146362e-02 2.507767975330352783e-01 -1.676420271396636963e-01 -5.877822637557983398e-02 -5.873332265764474869e-03 -1.596056669950485229e-01 -1.910931617021560669e-02 1.501396894454956055e-01 2.295212075114250183e-02 -2.332402467727661133e-01 -3.323686122894287109e-01 1.653508692979812622e-01 -1.429673135280609131e-01 -3.322598934173583984e-01 -2.894907295703887939e-01 3.026949763298034668e-01 -5.078087095171213150e-03 -2.968447804450988770e-01 -9.860783815383911133e-02 1.207127124071121216e-01 -1.570422947406768799e-01 -1.639584451913833618e-01 -2.507389187812805176e-01 1.337125748395919800e-01 1.396664511412382126e-02 -2.151382863521575928e-01 8.007133752107620239e-02 4.461503773927688599e-02 -4.025740176439285278e-02 -8.211733773350715637e-03 2.658720016479492188e-01 -1.666078269481658936e-01 1.192214433103799820e-02 2.113988697528839111e-01 -5.769034475088119507e-02 -5.033288523554801941e-02 -2.461004555225372314e-01 -2.370659960433840752e-03 -3.434411808848381042e-02 9.449296444654464722e-02 -1.397001743316650391e-01 9.638197720050811768e-02 -4.322073236107826233e-02 3.574718534946441650e-01 -1.120243296027183533e-01 -2.142500728368759155e-01 -4.657692089676856995e-02 -3.673897683620452881e-02 -3.084431290626525879e-01 -8.265527337789535522e-02 2.706286497414112091e-02 -3.532399237155914307e-02 -2.343198508024215698e-01 1.088065654039382935e-01 -6.654528528451919556e-02 4.094979166984558105e-02 -1.716810613870620728e-01 -2.060345560312271118e-01 1.879606693983078003e-01 6.800797581672668457e-02 3.612917959690093994e-01 -6.342931091785430908e-02 2.060589939355850220e-01 1.630772948265075684e-01 -1.611337810754776001e-01 1.889466047286987305e-01 -6.363505125045776367e-02 2.202298939228057861e-01 -1.426401734352111816e-01
4.487925325520336628e-04 -4.028991609811782837e-02 -4.392501711845397949e-02 2.436429560184478760e-01 2.097123488783836365e-02 -3.095066249370574951e-01 -9.735286980867385864e-02 1.458332091569900513e-01 -3.873716294765472412e-01 1.465454846620559692e-01 -1.484970301389694214e-01 -4.995745047926902771e-02 7.808461040258407593e-02 -1.098037958145141602e-01 -9.292602539062500000e-02 2.108861878514289856e-02 -6.009512022137641907e-02 1.145210266113281250e-01 -1.674081087112426758e-01 2.666428387165069580e-01 -2.859424054622650146e-01 -1.193332821130752563e-01 5.155019462108612061e-03 -3.364474475383758545e-01 -5.257738754153251648e-02 -6.900180131196975708e-02 -1.276960223913192749e-02 1.904726922512054443e-01 1.933587789535522461e-01 1.317619234323501587e-01 8.143848180770874023e-02 1.466782093048095703e-01 -6.894468516111373901e-02 -2.200308591127395630e-01 2.930497527122497559e-01 -1.765890568494796753e-01 -2.825278341770172119e-01 -1.300845444202423096e-01 -1.947434544563293457e-01 -5.514730513095855713e-02 -8.933298289775848389e-02 1.349463164806365967e-01 1.791519969701766968e-01 3.174325227737426758e-01 1.538856774568557739e-01 1.388671100139617920e-01 6.281012296676635742e-02 1.729660853743553162e-02 1.124740242958068848e-01 -2.922933995723724365e-01 -1.242524236440658569e-01 -1.897549815475940704e-02 2.630245685577392578e-01 -6.380297709256410599e-04 -2.248530238866806030e-01 1.222941130399703979e-01 -1.511822044849395752e-01 1.154638174921274185e-02 -2.416682690382003784e-01 -1.491800695657730103e-01 -3.574744462966918945e-01 4.192924872040748596e-02 2.354563921689987183e-01 2.841707170009613037e-01 -2.526111714541912079e-02 2.979813516139984131e-01 -1.517074108123779297e-01 1.951718032360076904e-01 2.272136211395263672e-01 -8.617404848337173462e-02 -1.209968850016593933e-01 1.394158154726028442e-01 1.903883516788482666e-01 5.853381380438804626e-02 2.715455368161201477e-02 -2.800340354442596436e-01 7.460364699363708496e-02 -1.918997429311275482e-02 5.297143384814262390e-02 -1.841038092970848083e-02
2.515490725636482239e-02 7.800612598657608032e-02 -9.422922879457473755e-02 6.891480088233947754e-02 8.239159733057022095e-02 2.472570687532424927e-01 -1.793599873781204224e-01 -3.692035004496574402e-02 -1.178001537919044495e-01 -8.643338084220886230e-02 -7.278769463300704956e-02 2.732713818550109863e-01 -1.054627597332000732e-01 5.411427468061447144e-02 -2.200766354799270630e-01 2.577480375766754150e-01 -3.827792778611183167e-02 -1.217774674296379089e-01 -1.878361999988555908e-01 3.725743293762207031e-02 8.082710206508636475e-02 4.217841662466526031e-03 -1.868017613887786865e-01 -2.532911002635955811e-01 -2.635497450828552246e-01 -7.678689807653427124e-02 1.687965542078018188e-01 -7.738740742206573486e-02 -5.403749644756317139e-02 -2.172241806983947754e-01 -2.790786921977996826e-01 -1.397875696420669556e-01 1.071055233478546143e-01 6.430630385875701904e-02 1.226643398404121399e-01 1.985850483179092407e-01 -2.100940495729446411e-01 -1.358747780323028564e-01 -1.183530837297439575e-01 1.669033318758010864e-01 -8.934278786182403564e-02 -2.249828726053237915e-01 -1.053654849529266357e-01 1.951432824134826660e-01 1.209371909499168396e-01 1.842947900295257568e-01 1.315782032907009125e-02 -8.390865474939346313e-02 2.988580055534839630e-02 9.823235869407653809e-02 -8.502758108079433441e-03 -2.533078491687774658e-01 -1.007177680730819702e-01 4.512391053140163422e-03 6.320324260741472244e-03 -1.446967273950576782e-01 3.492771089076995850e-02 -2.700718045234680176e-01 2.259780913591384888e-01 3.609542921185493469e-02 3.428564965724945068e-01 1.607933938503265381e-01 3.248217701911926270e-02 8.714286237955093384e-02 -2.337545305490493774e-01 1.835538893938064575e-01 6.042645126581192017e-02 1.286329030990600586e-01 -2.804101705551147461e-01 -1.051607429981231689e-01 2.004596292972564697e-01 -2.183771282434463501e-01 7.943177968263626099e-02 8.481464534997940063e-02 5.244592577219009399e-02 -1.317397207021713257e-01 -1.115285158157348633e-01 2.326161414384841919e-01 2.009078115224838257e-02 1.244763135910034180e-01
-1.474952548742294312e-01 -1.056684777140617371e-01 -1.734765022993087769e-01 3.552543222904205322e-01 -2.650857865810394287e-01 1.330636907368898392e-03 -1.981332153081893921e-01 1.308073997497558594e-01 9.844227135181427002e-02 -3.995069861412048340e-01 -5.196303501725196838e-02 -1.263160258531570435e-01 3.213730752468109131e-01 9.677151590585708618e-02 2.005611509084701538e-01 -8.503192663192749023e-02 -1.508493870496749878e-01 1.114707067608833313e-01 -9.215684980154037476e-02 -9.421764314174652100e-02 2.707991600036621094e-01 2.009006440639495850e-01 -2.144925668835639954e-02 -2.681468427181243896e-01 2.654464840888977051e-01 2.493859529495239258e-01 -2.345367521047592163e-02 1.904163882136344910e-02 -3.003987371921539307e-01 3.871546983718872070e-01 -2.925300300121307373e-01 -1.025993078947067261e-01 7.388607412576675415e-02 -1.914805546402931213e-02 -1.087028980255126953e-01 -1.441049389541149139e-02 9.294832497835159302e-02 8.005350083112716675e-02 4.600183665752410889e-02 -2.204167842864990234e-01 3.177365958690643311e-01 7.395140826702117920e-02 4.751317575573921204e-02 3.085093796253204346e-01 -1.566122174263000488e-01 -2.281847298145294189e-01 -1.266790553927421570e-02 -1.556627154350280762e-01 -4.332963377237319946e-02 1.036162208765745163e-02 1.098182238638401031e-02 1.955812573432922363e-01 -1.514359116554260254e-01 1.266594529151916504e-01 -1.621181070804595947e-01 1.192110870033502579e-02 -1.354213524609804153e-02 -1.948028504848480225e-01 -2.199260294437408447e-01 2.195343077182769775e-01 -2.585518360137939453e-01 -4.569825902581214905e-02 -8.330945670604705811e-02 1.422736942768096924e-01 1.504330039024353027e-01 -3.643579781055450439e-02 -2.740072458982467651e-02 -1.668663173913955688e-01 -2.150440216064453125e-01 -3.489009141921997070e-01 -1.048847436904907227e-01 -1.922170668840408325e-01 -3.135140612721443176e-02 -1.565466970205307007e-01 1.005871370434761047e-01 -1.099003627896308899e-01 -1.267933249473571777e-01 2.012839466333389282e-01 -1.722722351551055908e-01 -1.435059159994125366e-01
-5.254297703504562378e-02 6.271822750568389893e-02 2.422596216201782227e-01 -2.305770814418792725e-01 -1.994516551494598389e-01 3.938069194555282593e-02 -1.448358595371246338e-02 -3.514731526374816895e-01 -5.656235665082931519e-02 -1.584322899580001831e-01 2.947423756122589111e-01 -2.802649438381195068e-01 -1.564690843224525452e-03 8.685793727636337280e-02 1.119778901338577271e-01 2.499522715806961060e-01 -3.745152801275253296e-02 -1.191522926092147827e-01 3.444161498919129372e-03 -1.252801157534122467e-02 1.717577129602432251e-01 -3.195857107639312744e-01 2.269655764102935791e-01 -1.865632385015487671e-01 7.349362969398498535e-02 3.697794303297996521e-02 -2.253722846508026123e-01 9.445971995592117310e-02 -2.619278132915496826e-01 -2.922838628292083740e-01 1.115329414606094360e-01 2.131595909595489502e-01 1.190237775444984436e-01 -4.875192791223526001e-02 7.993762940168380737e-02 1.089690439403057098e-02 8.862402290105819702e-02 -3.661706745624542236e-01 1.386985927820205688e-02 1.325718760490417480e-01 2.053338736295700073e-01 6.143937632441520691e-02 -2.419600486755371094e-01 -2.601232007145881653e-02 2.624828219413757324e-01 1.265884930035099387e-05 -1.030788868665695190e-01 -7.778991013765335083e-02 3.026913106441497803e-01 2.783468663692474365e-01 1.316101700067520142e-01 -1.323347240686416626e-01 -2.762603759765625000e-01 -1.990467011928558350e-01 3.286243081092834473e-01 2.231111079454421997e-01 1.261123120784759521e-01 5.575342476367950439e-02 -1.666220426559448242e-01 -3.125525712966918945e-01 2.430761791765689850e-02 -3.071462921798229218e-02 -2.757857441902160645e-01 -7.063616067171096802e-02 -1.633677184581756592e-01 1.341460794210433960e-01 4.488627612590789795e-02 1.266082562506198883e-02 9.558109939098358154e-02 -9.135367721319198608e-02 8.668415993452072144e-02 1.289785206317901611e-01 1.651729643344879150e-02 2.050980925559997559e-02 -5.347239226102828979e-02 -4.608705639839172363e-03 2.871800586581230164e-02 -1.069522202014923096e-01 2.548821866512298584e-01 1.995085477828979492e-01
7.263792678713798523e-03 2.155903428792953491e-01 2.668891251087188721e-01 1.676806993782520294e-02 -7.770894467830657959e-02 2.446135133504867554e-02 8.003868907690048218e-02 -4.003390669822692871e-02 2.027154266834259033e-01 -4.271459579467773438e-02 2.152698189020156860e-01 1.108708605170249939e-01 3.546981215476989746e-01 1.766624115407466888e-02 -2.437265217304229736e-01 -3.628827333450317383e-01 2.703068591654300690e-02 -5.218153819441795349e-02 1.326145231723785400e-01 2.839506566524505615e-01 3.754053637385368347e-02 8.903487771749496460e-02 3.685093224048614502e-01 -1.038049608469009399e-01 -1.524542868137359619e-01 -1.756824851036071777e-01 -1.654158085584640503e-01 7.397066056728363037e-02 6.359092146158218384e-02 2.822413146495819092e-01 8.967416733503341675e-02 2.377477735280990601e-01 -3.017755746841430664e-01 1.374607384204864502e-01 1.863265037536621094e-01 -1.082135736942291260e-02 -7.622659206390380859e-02 3.469235450029373169e-02 -1.017448231577873230e-01 -2.501101195812225342e-01 -5.416380372480489314e-05 1.879055351018905640e-01 -9.188634157180786133e-02 -1.906645596027374268e-01 -2.827688753604888916e-01 8.982884883880615234e-02 5.986425653100013733e-02 4.818105325102806091e-02 1.067879647016525269e-01 -1.132229566574096680e-01 7.077001035213470459e-02 1.064676493406295776e-01 7.594961673021316528e-02 6.546901911497116089e-02 2.162698209285736084e-01 1.935407519340515137e-01 -1.413050293922424316e-01 -2.895275652408599854e-01 -3.067036271095275879e-01 1.403194814920425415e-01 5.120993033051490784e-02 -1.820252090692520142e-01 2.799566276371479034e-02 2.486299276351928711e-01 2.654094696044921875e-01 -3.655317425727844238e-01 1.473663896322250366e-01 2.415887080132961273e-02 9.668690711259841919e-02 -1.226399540901184082e-01 -3.006601035594940186e-01 1.684051305055618286e-01 -1.858545243740081787e-01 1.448430567979812622e-01 -9.274717420339584351e-02 -1.961717307567596436e-01 8.754879236221313477e-02 2.946047186851501465e-01 7.652034517377614975e-03 -6.708328425884246826e-02
1.308076530694961548e-01 -1.053569391369819641e-01 -1.390885114669799805e-01 1.133175641298294067e-01 -1.315027326345443726e-01 3.913012892007827759e-02 1.801573485136032104e-01 -2.075620591640472412e-01 4.685214161872863770e-02 7.517721503973007202e-02 1.719256304204463959e-02 6.913899630308151245e-02 -1.771218925714492798e-01 -3.026490448974072933e-04 -2.253745496273040771e-01 -5.844292417168617249e-02 2.435418069362640381e-01 -1.458431929349899292e-01 -8.747997879981994629e-02 1.983028650283813477e-01 2.050429433584213257e-01 -1.374469101428985596e-01 -2.270561754703521729e-01 3.424911992624402046e-03 -2.689637541770935059e-01 1.153031140565872192e-01 -4.532401915639638901e-03 -1.965510547161102295e-01 4.984153062105178833e-02 -1.320207715034484863e-01 -1.631066203117370605e-01 1.837444007396697998e-01 -2.784542739391326904e-01 2.406495362520217896e-01 -1.184556782245635986e-01 2.377687990665435791e-01 2.652231156826019287e-01 1.771598458290100098e-01 3.526591956615447998e-01 3.623267635703086853e-02 -1.154796108603477478e-01 3.964488953351974487e-02 -1.822915971279144287e-01 -1.028472110629081726e-01 3.045773506164550781e-01 1.868645548820495605e-01 1.272421777248382568e-01 1.561644226312637329e-01 -2.849538922309875488e-01 1.127779576927423477e-02 4.424553189892321825e-04 3.060252405703067780e-02 2.360149770975112915e-01 1.295123398303985596e-01 2.593053877353668213e-02 -8.933575451374053955e-02 1.557016819715499878e-01 -2.309032529592514038e-01 1.953846514225006104e-01 9.056122601032257080e-02 4.412944614887237549e-02 -1.523631364107131958e-01 -1.841146945953369141e-01 -1.180115193128585815e-01 -3.365616872906684875e-02 2.405633032321929932e-01 -4.762067273259162903e-02 9.583838284015655518e-02 -5.386142432689666748e-02 1.227215081453323364e-01 3.613555729389190674e-01 -3.515588119626045227e-02 1.021877974271774292e-01 -4.006424546241760254e-02 -2.211436927318572998e-01 1.304678022861480713e-01 -1.861391067504882812e-01 1.605621725320816040e-01 -1.911549866199493408e-01 2.761838436126708984e-01
2.720529735088348389e-01 -2.632085680961608887e-01 -8.272860199213027954e-02 -1.611912250518798828e-01 -1.226633340120315552e-01 -2.481609433889389038e-01 1.948032714426517487e-02 -6.684747338294982910e-02 -1.823009401559829712e-01 1.252112537622451782e-01 1.979690343141555786e-01 -2.367842197418212891e-01 -2.979006469249725342e-01 -1.461373120546340942e-01 -1.808063238859176636e-01 2.095465064048767090e-01 -1.469404250383377075e-01 -3.590189293026924133e-02 -3.105523288249969482e-01 7.317183911800384521e-02 -2.348227798938751221e-01 3.017447143793106079e-02 -2.000867202877998352e-02 -3.364818170666694641e-02 1.600319445133209229e-01 4.724273923784494400e-03 4.023887589573860168e-02 -7.813733071088790894e-02 -1.625509858131408691e-01 -5.030914396047592163e-02 3.018302231794223189e-05 5.013505369424819946e-02 -1.266037672758102417e-01 -2.282536476850509644e-01 -2.402165532112121582e-02 2.361365705728530884e-01 -7.380528002977371216e-02 -5.566332838498055935e-04 -4.075109213590621948e-02 -2.494111210107803345e-01 8.224850147962570190e-02 -1.330528706312179565e-01 -1.327012181282043457e-01 2.182459682226181030e-01 -1.863271594047546387e-01 6.947913020849227905e-02 2.336828410625457764e-02 -1.717537175863981247e-03 3.251461088657379150e-01 -1.576113104820251465e-01 2.554307579994201660e-01 1.609082072973251343e-01 6.396975368261337280e-02 -1.944591403007507324e-01 1.851404309272766113e-01 -1.802557855844497681e-01 3.097069263458251953e-01 2.165399044752120972e-01 1.129831671714782715e-01 1.939654722809791565e-02 -2.540525197982788086e-01 -1.630106271477416158e-05 3.626396181061863899e-03 -1.296207755804061890e-01 1.390918642282485962e-01 -2.415848970413208008e-01 -1.366353631019592285e-01 -1.863511502742767334e-01 -3.283152878284454346e-01 -5.509899184107780457e-02 1.118805706501007080e-01 1.630788445472717285e-01 4.405114427208900452e-02 -1.837682723999023438e-01 3.570324555039405823e-02 2.839654088020324707e-01 4.278787598013877869e-02 -1.099998280405998230e-01 -2.490774989128112793e-01 -1.874632835388183594e-01
8.862347155809402466e-02 1.068332698196172714e-02 -1.980292052030563354e-01 2.378675937652587891e-01 1.580332815647125244e-01 -1.744068115949630737e-01 6.270901858806610107e-02 -9.105360507965087891e-02 1.341437399387359619e-01 -3.016310334205627441e-01 -5.801391229033470154e-02 9.134113043546676636e-02 4.090907797217369080e-02 5.453145131468772888e-02 2.909017503261566162e-01 1.195013001561164856e-01 6.450500339269638062e-02 -1.631983965635299683e-01 6.011141836643218994e-02 -7.631529122591018677e-02 1.152789518237113953e-01 2.457550466060638428e-01 2.085696905851364136e-01 -1.191845834255218506e-01 2.476731836795806885e-01 -1.520560234785079956e-01 1.133005097508430481e-01 -1.275471150875091553e-01 -1.282658129930496216e-01 3.869433701038360596e-02 2.378465682268142700e-01 -1.418174654245376587e-01 6.603231281042098999e-02 6.584092974662780762e-02 5.490115657448768616e-02 6.788188219070434570e-02 -2.032712548971176147e-01 1.211008355021476746e-01 -1.957464665174484253e-01 -2.164765298366546631e-01 1.834829598665237427e-01 1.605596691370010376e-01 -8.702032268047332764e-02 -2.334001958370208740e-01 8.530735969543457031e-02 -1.415197178721427917e-02 -2.075876146554946899e-01 7.648999989032745361e-02 3.522058948874473572e-02 1.403017640113830566e-01 -1.183175593614578247e-01 2.775718271732330322e-01 -5.479453876614570618e-02 1.759872585535049438e-01 -4.509029164910316467e-02 -2.678578495979309082e-01 7.858574390411376953e-02 4.254902154207229614e-02 -5.804049968719482422e-02 4.697416722774505615e-02 -2.807665467262268066e-01 2.915855944156646729e-01 2.202593833208084106e-01 -8.879252523183822632e-02 -8.539032936096191406e-02 3.450921922922134399e-02 -8.640152215957641602e-02 1.298901811242103577e-02 -1.390280574560165405e-01 6.984306126832962036e-02 3.037362694740295410e-01 1.643056273460388184e-01 3.687190711498260498e-01 2.534566223621368408e-01 -2.751020900905132294e-02 -1.165970563888549805e-01 1.932847201824188232e-01 -1.075605899095535278e-01 6.271851807832717896e-02 3.662034124135971069e-02
1.346322149038314819e-01 -6.689957529306411743e-02 6.096618622541427612e-02 -2.485411465167999268e-01 -7.300557568669319153e-03 -2.240949571132659912e-01 -1.541855037212371826e-01 -2.664037235081195831e-02 7.384181953966617584e-03 1.705564409494400024e-01 8.585000783205032349e-02 1.082242801785469055e-01 1.074796468019485474e-01 5.990476533770561218e-02 1.156369894742965698e-01 9.896622598171234131e-02 2.480639964342117310e-01 -1.268683820962905884e-01 1.059401854872703552e-01 -6.138360872864723206e-02 4.576058313250541687e-02 -2.430025935173034668e-01 -1.226717904210090637e-01 -2.668901681900024414e-01 -1.648747175931930542e-01 -1.658907234668731689e-01 2.083007991313934326e-01 -1.722120344638824463e-01 -2.216597795486450195e-01 -2.039526551961898804e-01 -1.859221793711185455e-02 4.084498807787895203e-02 -6.629139184951782227e-02 3.027291595935821533e-01 -7.509317249059677124e-02 -1.423531677573919296e-02 1.312913745641708374e-01 -2.363368868827819824e-01 2.250328212976455688e-01 -3.887918964028358459e-02 3.676480650901794434e-01 -1.377806812524795532e-01 3.825782537460327148e-01 1.419892311096191406e-01 3.419739305973052979e-01 -1.176035404205322266e-01 -1.588560454547405243e-02 -3.974119946360588074e-02 -2.441990524530410767e-01 -1.556323319673538208e-01 -9.864977002143859863e-02 2.692993879318237305e-01 2.305291295051574707e-01 1.267839372158050537e-01 1.033918336033821106e-01 -2.798554301261901855e-01 -9.106983244419097900e-02 1.026899963617324829e-01 1.643161177635192871e-01 -1.949375420808792114e-01 9.265571087598800659e-02 -5.193464085459709167e-02 -3.485321700572967529e-01 -2.373768091201782227e-01 -7.618009299039840698e-02 2.397682517766952515e-02 1.541785150766372681e-01 -2.659044973552227020e-02 -4.245587065815925598e-02 -9.983150660991668701e-02 1.960759311914443970e-01 -8.397021144628524780e-02 -3.007699036970734596e-03 -2.653394043445587158e-01 -2.062737792730331421e-01 -2.506557106971740723e-01 3.501464799046516418e-02 4.350563138723373413e-02 -5.743523593991994858e-03 -1.340297162532806396e-01
-8.468596637248992920e-02 4.724109172821044922e-02 -1.318671926856040955e-02 1.370604783296585083e-01 3.334732651710510254e-01 -1.231102496385574341e-01 4.026689752936363220e-02 1.912728697061538696e-01 -6.091812625527381897e-02 -1.465431228280067444e-02 1.362760365009307861e-01 -1.700265854597091675e-01 1.726547926664352417e-01 -2.739516496658325195e-01 1.184478849172592163e-01 2.738304734230041504e-01 -8.207147568464279175e-02 -1.628877520561218262e-01 3.836310207843780518e-01 9.165012277662754059e-03 -6.273542344570159912e-02 -2.735648751258850098e-01 1.108755320310592651e-01 -2.156920880079269409e-01 -2.543192803859710693e-01 -3.165483940392732620e-03 2.210978120565414429e-01 -3.801069036126136780e-02 -8.659689873456954956e-02 -6.707522273063659668e-02 4.390328750014305115e-02 -8.339212834835052490e-02 3.169048130512237549e-01 1.531454827636480331e-02 -6.910699605941772461e-02 -1.286957114934921265e-01 3.002293966710567474e-02 9.864110499620437622e-02 -1.010076925158500671e-01 -1.022478118538856506e-01 -1.428052634000778198e-01 -1.633837670087814331e-01 -4.354163631796836853e-02 -2.982274591922760010e-01 2.445785999298095703e-01 -2.316336333751678467e-01 1.026611179113388062e-01 -1.042160540819168091e-01 -1.942267268896102905e-01 -1.515320315957069397e-02 -1.873729079961776733e-01 1.252160519361495972e-01 1.327617317438125610e-01 -1.065133810043334961e-01 -2.764188349246978760e-01 -2.354667335748672485e-01 -2.768732905387878418e-01 3.737232685089111328e-01 -9.174500405788421631e-02 -5.939918383955955505e-02 -1.170359477400779724e-01 2.629737136885523796e-03 6.975670158863067627e-02 1.658170111477375031e-02 -2.575836181640625000e-01 -2.778461277484893799e-01 -2.949474155902862549e-01 -2.738416492938995361e-01 -3.265525773167610168e-02 -2.028590142726898193e-01 -3.345177471637725830e-01 -1.335043609142303467e-01 -1.177550032734870911e-01 -7.977341860532760620e-02 -1.490872651338577271e-01 -2.976667284965515137e-01 1.020779833197593689e-01 1.161707341670989990e-01 -8.496084809303283691e-02 -6.929043680429458618e-02
-1.230644360184669495e-01 -1.066180840134620667e-01 -6.002430245280265808e-02 -1.490375101566314697e-01 9.916777908802032471e-02 1.448637060821056366e-02 -6.009410694241523743e-02 -2.904280722141265869e-01 1.819860488176345825e-01 2.537011206150054932e-01 8.486065268516540527e-02 3.639000654220581055e-02 -1.425799727439880371e-01 1.604317873716354370e-01 8.682391047477722168e-02 1.945996880531311035e-01 -1.724314391613006592e-01 5.011818557977676392e-02 3.146244585514068604e-01 1.821513660252094269e-02 7.971240580081939697e-02 1.087841838598251343e-01 -2.250438183546066284e-01 1.154001429677009583e-01 -1.549129257909953594e-03 -6.303883623331785202e-03 2.529778778553009033e-01 -1.131723150610923767e-01 2.402367293834686279e-01 9.956359863281250000e-02 -2.902304530143737793e-01 -4.796802997589111328e-02 -7.483862340450286865e-02 2.424272000789642334e-01 -5.884118750691413879e-02 -1.369560211896896362e-01 -1.121597215533256531e-01 2.836605161428451538e-02 -2.654753252863883972e-02 -2.649197876453399658e-01 1.228861510753631592e-01 -1.843984127044677734e-01 -5.297680199146270752e-02 -4.672019928693771362e-02 -2.158014029264450073e-01 -8.523168414831161499e-02 -1.630539000034332275e-01 -1.189895346760749817e-01 -2.420506477355957031e-01 -4.378040134906768799e-02 -4.839087650179862976e-02 -1.135994568467140198e-01 1.762024709023535252e-03 -1.242762356996536255e-01 1.016326770186424255e-01 4.206286743283271790e-03 2.245135456323623657e-01 -2.012566477060317993e-01 -7.497112266719341278e-03 -5.076991021633148193e-02 -6.984882056713104248e-02 -5.267899855971336365e-02 -8.760844916105270386e-02 1.135015264153480530e-01 2.802380025386810303e-01 3.192000091075897217e-01 5.130336806178092957e-02 -2.201619297266006470e-01 -7.210617512464523315e-02 -3.122596628963947296e-02 -1.181387435644865036e-02 1.206473112106323242e-01 -1.111577898263931274e-01 -8.570028096437454224e-02 2.529845237731933594e-01 -1.109757274389266968e-02 -2.330127507448196411e-01 7.321285456418991089e-02 6.698795408010482788e-02 -1.105394214391708374e-01
-1.814107149839401245e-01 -4.360263049602508545e-02 8.871019631624221802e-02 -2.993957698345184326e-01 -7.576224952936172485e-02 7.109525799751281738e-02 1.254870090633630753e-02 -5.421408265829086304e-02 6.587255746126174927e-02 1.850204356014728546e-02 9.746780246496200562e-02 -9.688536822795867920e-02 6.687424331903457642e-02 -3.018652200698852539e-01 2.083086818456649780e-01 -2.417958527803421021e-01 -1.904764920473098755e-01 1.242778450250625610e-01 -1.424032747745513916e-01 2.033048719167709351e-01 -8.800849318504333496e-02 -1.926111131906509399e-01 -5.883824080228805542e-02 -7.972365245223045349e-03 1.121261809021234512e-02 9.317509084939956665e-02 -2.004592679440975189e-02 9.518517617834731936e-05 7.127173990011215210e-02 -1.749357879161834717e-01 1.106401085853576660e-01 1.958536915481090546e-02 1.727084368467330933e-01 -2.622531354427337646e-01 1.872515678405761719e-01 -5.901726335287094116e-02 2.996308207511901855e-01 -1.498053222894668579e-01 -2.803786993026733398e-01 1.768437027931213379e-01 6.588333100080490112e-02 -1.601258963346481323e-01 1.024105325341224670e-01 7.216115295886993408e-02 3.620498478412628174e-01 -6.449718028306961060e-02 -9.463950991630554199e-02 2.373236268758773804e-01 5.827207490801811218e-02 2.144522219896316528e-01 1.368119753897190094e-02 -2.460030019283294678e-01 -2.682009339332580566e-01 -9.041087329387664795e-02 1.612383872270584106e-02 -1.158904507756233215e-01 -2.191678881645202637e-01 -1.581024080514907837e-01 -7.661974430084228516e-02 -1.400854289531707764e-01 -1.016242802143096924e-02 8.086887188255786896e-03 -1.719188876450061798e-02 7.922346889972686768e-02 1.208411715924739838e-02 1.608476191759109497e-01 7.361289858818054199e-02 1.889580935239791870e-01 -1.650935560464859009e-01 -6.885759532451629639e-02 1.868701912462711334e-02 4.843674600124359131e-02 6.106531247496604919e-02 7.175143063068389893e-02 -2.804373204708099365e-02 1.959678530693054199e-02 -7.356281578540802002e-02 9.780540317296981812e-02 2.583778500556945801e-01 -6.824171543121337891e-02
1.194211170077323914e-01 2.163491696119308472e-01 -3.005976788699626923e-02 -2.376499176025390625e-01 -1.365407705307006836e-01 1.333381980657577515e-01 -1.044603623449802399e-02 3.569651395082473755e-02 4.878285899758338928e-02 2.600211799144744873e-01 1.613250076770782471e-01 3.260979661718010902e-03 2.723059654235839844e-01 -9.514199197292327881e-02 1.440661251544952393e-01 3.213094174861907959e-02 -2.144173681735992432e-01 2.590650878846645355e-02 -2.727048993110656738e-01 1.352899968624114990e-01 -6.665243208408355713e-02 3.462575608864426613e-03 -1.811103709042072296e-02 3.996075987815856934e-01 3.482442498207092285e-01 1.391421109437942505e-01 -6.827048957347869873e-02 -2.259167283773422241e-01 2.108300663530826569e-02 1.126346141099929810e-01 -2.373571693897247314e-01 2.447829693555831909e-01 -1.737121343612670898e-01 2.260396927595138550e-01 6.514789164066314697e-02 -7.133638486266136169e-03 -1.142183542251586914e-01 -1.745359152555465698e-01 2.739916145801544189e-01 2.903049439191818237e-02 -1.374516785144805908e-01 1.623223125934600830e-01 -6.699298322200775146e-02 -1.517934948205947876e-01 1.888052225112915039e-01 1.172762364149093628e-01 -1.369222849607467651e-01 1.403815001249313354e-01 -5.337545648217201233e-02 2.987836115062236786e-02 1.421743184328079224e-01 -1.626332253217697144e-01 2.809695005416870117e-01 8.242427371442317963e-03 -1.563388407230377197e-01 -5.925668776035308838e-02 1.011878028512001038e-01 2.847128510475158691e-01 -1.852084994316101074e-01 -8.864448964595794678e-02 8.766836673021316528e-02 -2.555161118507385254e-01 1.573140770196914673e-01 2.580402791500091553e-02 -3.009053766727447510e-01 -6.034289672970771790e-02 -6.191824749112129211e-02 2.159103900194168091e-01 3.989756852388381958e-02 -4.005950391292572021e-01 -2.728514969348907471e-01 -3.414930701255798340e-01 -1.770657449960708618e-01 1.289051324129104614e-01 2.385274916887283325e-01 -5.288153886795043945e-02 -7.226473838090896606e-02 1.760630905628204346e-01 1.188200339674949646e-01 5.839077010750770569e-02
1.491402238607406616e-01 -1.116421744227409363e-01 1.354967057704925537e-01 -3.465450555086135864e-02 3.374055773019790649e-02 2.090037763118743896e-01 -1.331120133399963379e-01 7.624562829732894897e-02 -1.056552603840827942e-01 -1.244730595499277115e-02 1.748080700635910034e-01 -1.586998105049133301e-01 -2.606098055839538574e-01 -1.292803436517715454e-01 1.777086853981018066e-01 1.215600222349166870e-01 -1.052514016628265381e-01 1.555875241756439209e-01 1.565253436565399170e-01 4.414526373147964478e-02 -2.077865600585937500e-02 -1.904894597828388214e-02 -9.369159489870071411e-02 1.751850843429565430e-01 -2.463299781084060669e-01 3.530679270625114441e-02 -1.724678128957748413e-01 1.138543151319026947e-02 -2.954423427581787109e-01 -3.960109502077102661e-02 5.677773058414459229e-02 -1.337668001651763916e-01 -1.769133955240249634e-01 6.329201906919479370e-02 -1.951728202402591705e-02 -7.874245941638946533e-02 -2.975578792393207550e-02 -9.271956980228424072e-02 1.193791553378105164e-01 2.428130656480789185e-01 1.350408941507339478e-01 -8.275421708822250366e-02 -3.837497234344482422e-01 -1.529170945286750793e-02 -3.728979527950286865e-01 -1.647319346666336060e-01 -1.062305867671966553e-01 8.054985851049423218e-02 2.405285276472568512e-02 2.558450698852539062e-01 4.951276816427707672e-03 -2.673769891262054443e-01 -8.810051530599594116e-02 1.667384356260299683e-01 2.265419661998748779e-01 1.739296503365039825e-02 1.225161775946617126e-01 1.504279859364032745e-02 4.797545447945594788e-02 -2.093699574470520020e-01 1.451664716005325317e-01 9.815753251314163208e-02 -7.490168511867523193e-02 7.188422977924346924e-02 5.139223858714103699e-02 1.606654375791549683e-01 -3.433099761605262756e-02 -2.686018645763397217e-01 5.761871486902236938e-02 1.335861235857009888e-01 -1.607072651386260986e-01 -3.126146495342254639e-01 -7.689553499221801758e-02 2.580145001411437988e-01 8.148784935474395752e-02 6.193157751113176346e-03 -1.229023560881614685e-01 -2.265605628490447998e-01 1.626895517110824585e-01 6.418281793594360352e-02
-1.521392166614532471e-01 8.451035618782043457e-02 -9.891144931316375732e-02 1.861145943403244019e-01 -1.402662098407745361e-01 -1.995170116424560547e-02 -1.003470048308372498e-01 9.058611840009689331e-02 -6.969202309846878052e-02 2.126473933458328247e-01 3.020544350147247314e-01 8.002857118844985962e-02 -7.772073149681091309e-02 1.851862967014312744e-01 -1.126676425337791443e-02 -4.989217966794967651e-02 1.202766448259353638e-01 3.760023713111877441e-01 -5.870189634151756763e-04 9.218230098485946655e-02 3.888420294970273972e-03 1.432661414146423340e-01 -1.350883245468139648e-01 1.351777911186218262e-01 9.013985842466354370e-02 1.656705439090728760e-01 3.722852468490600586e-02 -1.075271368026733398e-01 -1.568977683782577515e-01 -2.151184976100921631e-01 2.312963157892227173e-01 -2.751213125884532928e-02 -3.950933739542961121e-02 3.301856666803359985e-02 -3.032220900058746338e-02 3.166275620460510254e-01 -6.953832507133483887e-02 -2.832072675228118896e-01 7.880315184593200684e-02 4.007633626461029053e-01 -7.764936238527297974e-02 -7.242681086063385010e-02 -1.691029071807861328e-01 8.239204436540603638e-02 -1.346037685871124268e-01 2.994953989982604980e-01 2.194827497005462646e-01 2.323474884033203125e-01 1.808275729417800903e-01 -8.991074562072753906e-02 -1.105574145913124084e-01 2.318591475486755371e-01 3.489697352051734924e-02 -1.982968300580978394e-02 6.875779479742050171e-02 -9.403907507658004761e-02 -2.598598003387451172e-01 7.049168646335601807e-02 2.603834569454193115e-01 -2.403870522975921631e-01 -2.953700907528400421e-02 1.487094014883041382e-01 -9.528857469558715820e-02 -5.164786428213119507e-02 2.010833472013473511e-01 2.422735095024108887e-01 1.496214419603347778e-01 -3.353695571422576904e-02 -1.366173475980758667e-01 -2.652719914913177490e-01 -1.581351459026336670e-01 -8.701768517494201660e-02 -1.716662645339965820e-01 4.894138872623443604e-02 1.781497001647949219e-01 1.493348479270935059e-01 4.616127163171768188e-02 -2.553440257906913757e-02 2.653048038482666016e-01 -2.542460709810256958e-02
3.280950710177421570e-02 -1.814384311437606812e-01 -1.625096797943115234e-01 1.729626804590225220e-01 4.164301976561546326e-02 -8.328315615653991699e-02 2.549284398555755615e-01 1.413725912570953369e-01 -5.322900414466857910e-02 1.558584570884704590e-01 1.996706426143646240e-01 -2.405128479003906250e-01 -8.614252146799117327e-05 -2.057537138462066650e-01 -7.485510408878326416e-02 1.283600926399230957e-01 -1.272811889648437500e-01 -3.673582151532173157e-02 3.314781486988067627e-01 -7.455664128065109253e-02 -2.190859913825988770e-01 -3.612124919891357422e-01 -1.724382787942886353e-01 -1.336514651775360107e-01 5.763703212141990662e-02 -7.744642347097396851e-02 1.691443622112274170e-01 9.498078376054763794e-02 1.484271604567766190e-02 5.274292547255754471e-03 -2.580505795776844025e-02 -1.129774302244186401e-01 -9.474448859691619873e-03 -1.055879220366477966e-01 1.913737952709197998e-01 1.135745197534561157e-01 -1.667392402887344360e-01 -1.799593493342399597e-02 -1.132143428549170494e-03 1.843774020671844482e-01 1.219012364745140076e-01 -1.681626141071319580e-01 -1.925807148218154907e-01 -6.269694119691848755e-02 1.275593228638172150e-02 -7.147903740406036377e-02 -2.732128500938415527e-01 -4.381599649786949158e-02 -1.218318846076726913e-02 -9.565273672342300415e-02 -3.581756725907325745e-02 -1.527673155069351196e-01 -4.259940236806869507e-02 -2.632750868797302246e-01 2.693156301975250244e-01 1.490417420864105225e-01 1.504406332969665527e-01 2.879788279533386230e-01 -2.760816216468811035e-01 -2.647855505347251892e-02 9.004278481006622314e-02 -3.887374699115753174e-01 -3.749141469597816467e-03 1.407669484615325928e-01 2.031790465116500854e-02 5.866130068898200989e-02 2.274351119995117188e-01 9.767687320709228516e-02 1.445356663316488266e-02 -2.515891194343566895e-01 1.482679098844528198e-01 1.026882827281951904e-01 3.240396454930305481e-02 -1.381934285163879395e-01 -1.639197468757629395e-01 3.351711034774780273e-01 -1.141905263066291809e-01 1.440172642469406128e-01 -2.323559224605560303e-01 -6.547435373067855835e-02
-3.039090633392333984e-01 -2.166366577148437500e-01 4.671822488307952881e-02 2.346748299896717072e-02 4.249267280101776123e-02 -1.621529310941696167e-01 -1.484559476375579834e-01 -2.321027964353561401e-01 2.262751460075378418e-01 -1.003596186637878418e-01 9.738809615373611450e-02 -1.306599825620651245e-01 2.489213645458221436e-01 8.956231921911239624e-02 8.816812187433242798e-02 1.448696702718734741e-01 -3.716912120580673218e-02 1.660732030868530273e-01 -3.318942487239837646e-01 -5.598747520707547665e-04 -2.334311604499816895e-01 -1.026378795504570007e-01 -4.567434266209602356e-02 -2.319882661104202271e-01 1.510937064886093140e-01 7.427341490983963013e-02 -1.627728343009948730e-01 -8.803725242614746094e-02 3.237605467438697815e-02 6.461374461650848389e-02 2.635142207145690918e-02 -9.177898615598678589e-02 2.497154660522937775e-02 2.662128396332263947e-02 7.706721872091293335e-02 -1.825514584779739380e-01 1.717756316065788269e-02 -1.821581721305847168e-01 1.106632649898529053e-01 -1.286933571100234985e-01 -4.889690503478050232e-02 -5.179015174508094788e-02 -2.055310606956481934e-01 -1.431289613246917725e-01 -2.439597100019454956e-01 1.073931679129600525e-01 -3.272520005702972412e-01 -2.566769421100616455e-01 -1.791841089725494385e-01 1.891180276870727539e-01 3.870177268981933594e-02 -5.657793208956718445e-02 -1.151280105113983154e-01 -1.225607320666313171e-01 5.249282345175743103e-02 -1.603487730026245117e-01 -2.113733440637588501e-01 -9.014443308115005493e-02 3.563155606389045715e-02 3.135627135634422302e-02 -3.913658112287521362e-02 1.165503859519958496e-01 -6.210720911622047424e-02 3.443459570407867432e-01 3.750054538249969482e-02 -8.094530552625656128e-02 7.819423824548721313e-02 -6.906832754611968994e-02 -1.640538275241851807e-01 6.214927136898040771e-02 3.117269603535532951e-03 -2.939745783805847168e-01 -6.897297501564025879e-02 3.389464616775512695e-01 -2.273969501256942749e-01 -1.239494606852531433e-01 4.633718356490135193e-02 -1.188013106584548950e-01 3.128973767161369324e-02 -1.154295206069946289e-01
-5.778440833091735840e-02 7.842375338077545166e-02 1.373258829116821289e-01 1.222575902938842773e-01 -1.051161140203475952e-01 1.021268963813781738e-01 -4.141885787248611450e-02 -1.772657632827758789e-01 6.467789411544799805e-02 7.631003111600875854e-02 -1.513553708791732788e-01 -3.990592435002326965e-03 2.259833663702011108e-01 -1.394110321998596191e-01 -1.149256080389022827e-01 2.811805717647075653e-02 -3.786981478333473206e-02 -3.971902728080749512e-01 1.757447719573974609e-01 5.020456016063690186e-02 -1.773490943014621735e-02 4.674136638641357422e-02 -1.823744922876358032e-01 1.468463540077209473e-01 -2.125968933105468750e-01 6.661310046911239624e-02 -1.813241243362426758e-01 1.236954033374786377e-01 -2.860614098608493805e-02 -1.250914633274078369e-01 7.547591626644134521e-02 1.179759763181209564e-02 -1.188760474324226379e-01 -1.019837483763694763e-01 2.217935174703598022e-01 -4.573477804660797119e-02 -9.534768760204315186e-02 -1.415283381938934326e-01 9.794092178344726562e-02 1.361750215291976929e-01 6.258500507101416588e-04 -1.575766056776046753e-01 -2.615729868412017822e-01 2.005215883255004883e-01 1.422822922468185425e-01 -1.001306921243667603e-01 -1.671318858861923218e-01 2.366520166397094727e-01 -1.422570198774337769e-01 -7.141973823308944702e-02 -5.670115351676940918e-02 -4.468486458063125610e-02 2.906092107295989990e-01 -7.693226635456085205e-02 1.402378529310226440e-01 -6.588920205831527710e-02 -7.042481750249862671e-02 3.553634881973266602e-02 -5.524002388119697571e-02 -3.933204710483551025e-02 6.447689980268478394e-02 2.416591495275497437e-01 -7.658389955759048462e-02 -1.246868148446083069e-01 1.144297122955322266e-01 -1.060225293040275574e-01 2.492654696106910706e-02 6.891297176480293274e-03 2.750318124890327454e-02 -2.531643807888031006e-01 -2.726086378097534180e-01 -1.452095061540603638e-01 1.743436008691787720e-01 2.108013480901718140e-01 -2.310915291309356689e-02 4.874832462519407272e-03 1.541819423437118530e-01 2.276044785976409912e-01 -4.532371088862419128e-02 6.448983401060104370e-02
-2.104495093226432800e-02 -6.448788940906524658e-02 -7.600928843021392822e-02 1.386740505695343018e-01 -3.647589683532714844e-01 -1.655893400311470032e-02 -4.762011021375656128e-02 1.167595833539962769e-01 -1.384383440017700195e-01 1.217643693089485168e-01 -1.864273548126220703e-01 3.388676792383193970e-03 1.115520717576146126e-03 1.834150403738021851e-01 1.550496667623519897e-01 2.057040929794311523e-01 2.421676069498062134e-01 1.789194159209728241e-02 -6.795480847358703613e-02 1.558974087238311768e-01 3.764395415782928467e-02 1.743688583374023438e-01 1.996117979288101196e-01 2.432490140199661255e-01 -2.612344026565551758e-01 -1.209143847227096558e-01 2.441443502902984619e-01 1.830792427062988281e-02 1.723730713129043579e-01 -3.245332092046737671e-02 -2.603866457939147949e-01 -1.568076461553573608e-01 1.585691720247268677e-01 1.205949559807777405e-01 1.100226938724517822e-01 -1.784425377845764160e-01 -3.143619000911712646e-01 2.537176609039306641e-01 -1.849711090326309204e-01 -4.322678223252296448e-02 -6.121458485722541809e-02 -2.473323978483676910e-02 3.335042297840118408e-02 2.148210257291793823e-01 -1.029569581151008606e-01 -2.170127183198928833e-01 2.748624607920646667e-02 2.017612010240554810e-01 2.198702991008758545e-01 -6.513693928718566895e-02 2.415687218308448792e-02 -7.021196186542510986e-02 1.574644297361373901e-01 1.875779405236244202e-02 -3.062515333294868469e-02 -3.117487728595733643e-01 1.193783059716224670e-01 -3.191261738538742065e-02 1.463413834571838379e-01 -1.110394969582557678e-01 3.213677704334259033e-01 2.463140338659286499e-01 -3.431816771626472473e-02 -2.880418896675109863e-01 -1.684277653694152832e-01 -2.988990247249603271e-01 1.782101541757583618e-01 2.848915159702301025e-01 -1.521334946155548096e-01 1.197810098528862000e-01 1.959797888994216919e-01 -3.281086683273315430e-02 2.093040943145751953e-01 -5.366299301385879517e-02 8.917491883039474487e-02 9.791037440299987793e-02 -1.096360534429550171e-01 3.331877291202545166e-01 -3.087721168994903564e-01 -8.243242651224136353e-02
-6.575867068022489548e-03 -2.145569771528244019e-01 6.657180842012166977e-03 -1.651675552129745483e-01 1.619891226291656494e-01 1.765385866165161133e-01 -3.079228103160858154e-02 2.376722842454910278e-01 1.950669288635253906e-01 -4.653045535087585449e-02 1.475507467985153198e-01 1.992825120687484741e-01 1.192842647433280945e-01 1.493020951747894287e-01 -1.857295334339141846e-01 9.840626269578933716e-02 1.057154014706611633e-01 -1.049857959151268005e-02 -1.416369825601577759e-01 -2.153437286615371704e-01 -2.359932214021682739e-01 -6.472939997911453247e-02 1.922564697451889515e-04 2.985072135925292969e-01 2.616030871868133545e-01 -2.165563963353633881e-02 4.121329635381698608e-03 2.761040031909942627e-01 1.502656936645507812e-01 2.264154851436614990e-01 7.433152198791503906e-02 -3.104328513145446777e-01 1.451787631958723068e-02 3.298929333686828613e-01 3.240197151899337769e-02 2.381246387958526611e-01 -1.938252449035644531e-01 1.305443942546844482e-01 1.541137248277664185e-01 -7.154242694377899170e-02 4.247520491480827332e-02 1.369446665048599243e-01 4.429614171385765076e-02 9.880184382200241089e-02 2.838470935821533203e-01 -8.458238840103149414e-02 1.734560728073120117e-01 1.336919814348220825e-01 -4.796302691102027893e-02 -1.572277369632502086e-06 -9.810233861207962036e-02 8.644863218069076538e-02 1.640238612890243530e-01 -1.768454164266586304e-02 -4.130416200496256351e-04 2.096924036741256714e-01 1.831013709306716919e-01 5.293780192732810974e-02 4.258882626891136169e-02 2.750755846500396729e-01 8.857315988279879093e-04 2.027585357427597046e-01 -9.634137898683547974e-02 1.498059481382369995e-01 -1.751257926225662231e-01 1.004142612218856812e-01 3.340533077716827393e-01 1.038307622075080872e-01 -1.780921369791030884e-01 -1.013355180621147156e-01 1.945128887891769409e-01 9.584270417690277100e-02 -1.088058650493621826e-01 1.025156378746032715e-01 2.495651543140411377e-01 -3.480102866888046265e-02 2.331165075302124023e-01 1.724192649126052856e-01 5.038727819919586182e-02 1.275703776627779007e-02
-1.993830800056457520e-01 4.089285805821418762e-02 -1.349475681781768799e-01 2.382931560277938843e-01 2.256595939397811890e-01 1.594261825084686279e-02 1.019935756921768188e-01 -1.130360364913940430e-02 -2.414705008268356323e-01 6.848639249801635742e-02 -9.182661026716232300e-02 4.158437659498304129e-04 2.802613377571105957e-01 1.243392080068588257e-01 1.968405097723007202e-01 1.659077405929565430e-01 -9.303124994039535522e-02 6.129514798521995544e-02 2.140566855669021606e-01 -2.309366166591644287e-01 -1.690538823604583740e-01 -2.545628547668457031e-01 7.670612633228302002e-02 1.993629485368728638e-01 8.151976019144058228e-02 1.229921877384185791e-01 -6.818860024213790894e-02 4.257516190409660339e-02 -1.205517798662185669e-01 3.894771635532379150e-02 -1.675840914249420166e-01 -2.202839851379394531e-01 -3.260674774646759033e-01 -4.842391610145568848e-02 4.269146546721458435e-02 7.169639319181442261e-02 5.410024523735046387e-02 -2.773947417736053467e-01 2.094600498676300049e-01 1.291311681270599365e-01 -1.429706662893295288e-01 -8.188299834728240967e-02 -1.304641664028167725e-01 -2.672373950481414795e-01 2.037684619426727295e-01 6.569673120975494385e-02 -1.223900318145751953e-01 -4.047579204780049622e-05 -2.875243425369262695e-01 -1.673772782087326050e-01 1.527823209762573242e-01 -2.601063251495361328e-01 2.338809669017791748e-01 6.082122679799795151e-03 1.981622129678726196e-01 -3.521542847156524658e-01 9.981577843427658081e-02 -1.087060421705245972e-01 -7.001330703496932983e-02 1.038059145212173462e-01 -1.581680476665496826e-01 -1.705262809991836548e-01 1.708561182022094727e-02 -5.221730098128318787e-02 1.099705696105957031e-01 -6.686264276504516602e-02 2.556224167346954346e-01 -1.346183568239212036e-01 -2.814886532723903656e-02 5.023723840713500977e-02 2.373847663402557373e-01 3.296548873186111450e-02 6.712385267019271851e-02 3.154217898845672607e-01 2.807306945323944092e-01 -6.510435789823532104e-02 1.900858879089355469e-01 -1.721227765083312988e-01 -1.452746894210577011e-02 -7.673054467886686325e-03
3.322255909442901611e-01 7.562957704067230225e-02 1.488638818264007568e-01 2.016073018312454224e-01 1.546410024166107178e-01 -4.257993400096893311e-02 2.095398902893066406e-01 7.724893093109130859e-02 6.471437215805053711e-02 -8.806178718805313110e-02 -1.793125458061695099e-02 2.544211968779563904e-02 -1.039499323815107346e-02 2.490254491567611694e-01 -5.834178999066352844e-02 -9.752203524112701416e-02 6.651482731103897095e-02 -1.568827331066131592e-01 2.292039692401885986e-01 -3.067478351294994354e-02 -4.302421212196350098e-02 1.062524616718292236e-01 -5.411402881145477295e-02 2.099768258631229401e-02 1.852427273988723755e-01 1.727507561445236206e-01 1.312570273876190186e-01 -1.124072074890136719e-01 -8.152130991220474243e-02 7.620735466480255127e-02 8.255044370889663696e-02 -2.118374109268188477e-01 -1.089275926351547241e-01 -2.005617767572402954e-01 2.504356801509857178e-01 -2.272163033485412598e-01 -6.992562115192413330e-02 1.595761477947235107e-01 3.480453416705131531e-02 2.094997465610504150e-01 -5.368966143578290939e-03 -2.210110723972320557e-01 4.919326677918434143e-02 -1.029011756181716919e-01 2.008520662784576416e-01 9.192564338445663452e-02 1.967753022909164429e-01 -4.242851436138153076e-01 2.600381076335906982e-01 -3.055281341075897217e-01 8.258818089962005615e-02 -8.982118219137191772e-02 7.699640095233917236e-02 9.358761459589004517e-02 1.579588204622268677e-01 2.798387408256530762e-01 2.253097444772720337e-01 -1.829841434955596924e-01 -4.777079448103904724e-02 -8.516873419284820557e-02 -1.959284693002700806e-01 7.900347560644149780e-02 5.538323521614074707e-02 -7.247884571552276611e-02 8.534251898527145386e-02 -1.377225071191787720e-01 -4.609658569097518921e-02 3.066681623458862305e-01 -1.801874041557312012e-01 7.920455187559127808e-02 2.814866416156291962e-02 -1.099549680948257446e-01 2.633454650640487671e-02 -3.403630480170249939e-02 -1.959861218929290771e-01 1.415277272462844849e-01 -3.948212042450904846e-02 2.183524370193481445e-01 -8.346725255250930786e-02 -1.667601913213729858e-01
2.954495549201965332e-01 -8.782865852117538452e-02 -7.164007425308227539e-02 -1.258980296552181244e-02 8.936405181884765625e-02 2.554326057434082031e-01 -2.837926447391510010e-01 -3.161203265190124512e-01 -1.092700287699699402e-01 1.877674609422683716e-01 1.830268949270248413e-01 -2.329280078411102295e-01 -1.095153912901878357e-01 1.983118653297424316e-01 1.307248771190643311e-01 -2.968981564044952393e-01 -2.791048884391784668e-01 2.625360786914825439e-01 3.162902593612670898e-01 -2.840831689536571503e-02 -9.706550091505050659e-02 2.189939096570014954e-02 1.427070945501327515e-01 3.287583962082862854e-02 2.623838782310485840e-01 1.655938774347305298e-01 -2.595445215702056885e-01 1.777905523777008057e-01 -1.376375257968902588e-01 -1.064222082495689392e-01 -3.931432962417602539e-03 9.752357751131057739e-02 -4.003263637423515320e-02 -4.405662044882774353e-02 -9.389681369066238403e-02 -2.422391623258590698e-01 2.854604721069335938e-01 -1.990366727113723755e-01 -1.391420066356658936e-01 1.261933743953704834e-01 -9.183185547590255737e-02 -3.223429322242736816e-01 1.650051027536392212e-01 -2.331298589706420898e-01 -7.769710570573806763e-02 -1.911448389291763306e-01 1.012030020356178284e-01 -1.251228600740432739e-01 4.903122410178184509e-02 -2.103853821754455566e-01 3.442859947681427002e-01 -1.373951733112335205e-01 1.318155322223901749e-02 1.979869753122329712e-01 1.633475720882415771e-01 -1.204857826232910156e-01 -9.545449167490005493e-02 -2.329515963792800903e-01 -2.583019733428955078e-01 -1.765198111534118652e-01 2.677739262580871582e-01 -8.183075487613677979e-02 9.078632295131683350e-02 -3.984588757157325745e-02 -3.653118759393692017e-02 -2.575948834419250488e-01 -2.508363723754882812e-01 -1.274390965700149536e-01 -4.260773956775665283e-02 1.108427569270133972e-01 -9.192783385515213013e-02 2.012971192598342896e-01 -9.343714267015457153e-02 -2.698107957839965820e-01 -2.240694463253021240e-01 1.203371658921241760e-01 -1.421152949333190918e-01 -8.267526328563690186e-02 -1.500617805868387222e-02 1.346712708473205566e-01
1.467109322547912598e-01 -4.252558946609497070e-02 3.648717701435089111e-02 1.475251913070678711e-01 9.782829880714416504e-02 -1.275922507047653198e-01 1.476708501577377319e-01 2.088874727487564087e-01 -1.990674287080764771e-01 5.891585722565650940e-02 -1.160715427249670029e-02 -1.774125248193740845e-01 -1.367720216512680054e-01 -2.058615535497665405e-01 -6.385514885187149048e-02 6.856188178062438965e-02 2.875536121428012848e-02 5.708424001932144165e-02 2.984607815742492676e-01 2.165256887674331665e-01 -5.547045264393091202e-03 1.811349093914031982e-01 2.336128428578376770e-02 7.419779151678085327e-02 1.120776087045669556e-01 -2.178149996325373650e-03 9.202464669942855835e-02 -1.602551639080047607e-01 5.381422117352485657e-02 -4.842860624194145203e-02 -6.269289553165435791e-02 2.826393842697143555e-01 1.611190587282180786e-01 -2.223011255264282227e-01 -1.827986240386962891e-01 -3.641841933131217957e-02 -9.081909805536270142e-02 6.556361040566116571e-05 9.882439672946929932e-02 1.866133138537406921e-02 -1.199355646967887878e-01 1.127332374453544617e-01 8.501156419515609741e-02 -1.515580806881189346e-03 1.645916104316711426e-01 -2.277122735977172852e-01 1.349284648895263672e-01 -1.859767585992813110e-01 -6.384453177452087402e-02 -2.622851729393005371e-01 3.351302072405815125e-02 -5.373696610331535339e-02 -1.018212363123893738e-01 -8.865716308355331421e-02 -1.942848563194274902e-01 1.820367127656936646e-01 6.703907996416091919e-02 -2.453935891389846802e-01 1.984741091728210449e-01 2.306046336889266968e-01 8.442863076925277710e-02 -1.088213548064231873e-01 9.746087715029716492e-03 2.349143177270889282e-01 1.155415400862693787e-01 3.338963165879249573e-02 2.458344213664531708e-02 -1.661113351583480835e-01 -6.608274579048156738e-02 1.073783561587333679e-01 2.280895113945007324e-01 1.383009403944015503e-01 -1.627566665410995483e-02 6.850789487361907959e-02 -3.088390529155731201e-01 -1.041659861803054810e-01 -2.672831900417804718e-02 1.433732956647872925e-01 6.078680232167243958e-02 -1.246071085333824158e-01
4.781881580129265785e-04 2.806686758995056152e-01 1.391044408082962036e-01 1.919857598841190338e-02 1.577978879213333130e-01 -4.707692191004753113e-02 1.017276644706726074e-01 1.818372905254364014e-01 9.486787021160125732e-02 -1.049868091940879822e-01 -1.179620325565338135e-01 3.426950424909591675e-02 8.718638122081756592e-02 -2.740269154310226440e-02 -2.921619713306427002e-01 -2.127593755722045898e-01 3.422429561614990234e-01 -5.074813589453697205e-02 4.361185431480407715e-02 6.060703471302986145e-02 2.909287251532077789e-02 2.267321944236755371e-01 -7.376281917095184326e-02 -3.464525938034057617e-01 -1.251150015741586685e-02 3.206362202763557434e-02 4.255368560552597046e-02 -1.501202490180730820e-02 1.107903346419334412e-01 1.725282818078994751e-01 -8.004116266965866089e-02 1.472871154546737671e-01 7.944115996360778809e-02 -2.190507948398590088e-01 2.341282814741134644e-01 1.333741284906864166e-02 1.364143043756484985e-01 1.471177637577056885e-01 1.129399985074996948e-03 2.410158067941665649e-01 1.808977127075195312e-01 -2.025251239538192749e-01 4.912308230996131897e-02 1.781268268823623657e-01 1.105745439417660236e-03 1.484540700912475586e-01 9.424470365047454834e-02 -2.290343493223190308e-01 1.989937573671340942e-01 -3.072079420089721680e-01 5.405163764953613281e-02 2.790350615978240967e-01 -1.691412776708602905e-01 -3.855692595243453979e-02 -1.107062697410583496e-01 -1.593451350927352905e-01 -9.887862205505371094e-02 -2.147699445486068726e-01 -2.237565517425537109e-01 -1.922884434461593628e-01 -6.338784098625183105e-02 -2.649434842169284821e-02 -1.733750700950622559e-01 -6.106187775731086731e-02 1.106357574462890625e-01 1.759990602731704712e-01 9.374996274709701538e-02 -1.635011434555053711e-01 -6.305503845214843750e-02 -9.592340141534805298e-02 -7.734037190675735474e-02 -4.331910610198974609e-02 1.972323805093765259e-01 2.268890738487243652e-01 1.564196050167083740e-01 2.194855213165283203e-01 2.441759705543518066e-01 6.361219286918640137e-02 1.168453097343444824e-01 -1.050621047616004944e-01
-2.649548351764678955e-01 2.111717313528060913e-01 -1.072924509644508362e-01 2.125112898647785187e-02 5.935802124440670013e-03 -5.869513005018234253e-02 1.746755093336105347e-01 1.109650358557701111e-01 -2.590948939323425293e-01 3.850949406623840332e-01 3.475605696439743042e-02 -1.270639896392822266e-01 -6.207919679582118988e-03 9.245338290929794312e-02 3.019807487726211548e-02 -1.579697281122207642e-01 1.189232096076011658e-01 5.082258209586143494e-02 2.330852001905441284e-01 -2.003583684563636780e-02 -1.741833686828613281e-01 -1.455117613077163696e-01 4.949497058987617493e-02 1.051266305148601532e-02 -2.795169502496719360e-02 2.139561772346496582e-01 2.117080241441726685e-02 3.713428974151611328e-02 8.832002431154251099e-02 -1.464188098907470703e-01 1.541838329285383224e-02 1.002848800271749496e-02 -2.446192651987075806e-01 -2.205839753150939941e-02 -2.041081339120864868e-01 -5.950124561786651611e-02 7.501204311847686768e-02 -8.423010259866714478e-02 -2.260504215955734253e-01 -5.556666478514671326e-02 8.915584534406661987e-02 -1.144039779901504517e-01 3.564958274364471436e-02 5.959627404808998108e-02 1.602324396371841431e-01 -1.482244674116373062e-02 -2.686901092529296875e-01 -3.196364268660545349e-03 1.504256874322891235e-01 2.737036049365997314e-01 -5.698549374938011169e-02 1.514639705419540405e-01 -9.474554657936096191e-02 3.542248308658599854e-01 1.058765687048435211e-02 2.634148299694061279e-01 8.428047411143779755e-03 -2.989338934421539307e-01 -3.824628889560699463e-02 1.527169644832611084e-01 -1.795112341642379761e-01 -1.561064124107360840e-01 1.881281286478042603e-01 1.086873784661293030e-01 5.383400619029998779e-02 -4.549859464168548584e-02 5.127296224236488342e-02 8.308299630880355835e-02 -8.793892711400985718e-02 3.222649693489074707e-01 -3.082654774188995361e-01 -3.055323660373687744e-01 -4.810392111539840698e-02 -2.030958533287048340e-01 3.999624401330947876e-02 -3.012814559042453766e-02 4.161745309829711914e-02 -1.276936195790767670e-02 1.198265403509140015e-01 1.261543203145265579e-02
1.552122533321380615e-01 2.856433205306529999e-02 2.988459765911102295e-01 4.377182200551033020e-02 -1.816419810056686401e-01 1.732768267393112183e-01 -5.512677878141403198e-02 -2.847169041633605957e-01 4.555712640285491943e-02 -3.280360251665115356e-02 -2.525288462638854980e-01 1.295102834701538086e-01 2.630523778498172760e-02 1.315840184688568115e-01 1.429325900971889496e-02 -8.110798150300979614e-02 -4.402851313352584839e-02 -3.649194836616516113e-01 1.246234402060508728e-02 1.945518851280212402e-01 -4.749488085508346558e-02 -1.171643435955047607e-01 -2.251960337162017822e-01 -2.843937277793884277e-01 1.772305071353912354e-01 -6.079105194658041000e-03 2.335552275180816650e-01 -2.160981297492980957e-02 -3.737120330333709717e-02 2.593339681625366211e-01 4.155448451638221741e-02 3.226350620388984680e-02 1.359824389219284058e-01 -3.315845131874084473e-02 -1.998212933540344238e-01 -3.397110998630523682e-01 2.272951602935791016e-01 2.367373555898666382e-01 -1.471950709819793701e-01 -1.413261294364929199e-01 -1.541050523519515991e-01 -1.753495037555694580e-01 2.261973917484283447e-01 3.501408100128173828e-01 2.006864547729492188e-01 5.483650788664817810e-02 -7.929909229278564453e-02 1.045859232544898987e-01 7.555731385946273804e-02 -2.693443931639194489e-02 -4.792590439319610596e-02 -2.945457100868225098e-01 -8.151884377002716064e-02 -1.328632235527038574e-01 -5.354531481862068176e-02 5.605211481451988220e-03 -3.537331521511077881e-01 6.104084895923733711e-04 1.384330242872238159e-01 -2.302173674106597900e-01 -9.122058749198913574e-02 1.042836904525756836e-01 2.612436711788177490e-01 -1.577718257904052734e-01 3.021920844912528992e-02 5.994292348623275757e-02 -7.972491532564163208e-02 1.320376396179199219e-01 4.348265379667282104e-02 -1.935218572616577148e-01 1.004794910550117493e-01 -1.069519668817520142e-01 -2.592543065547943115e-01 -1.854058653116226196e-01 -1.790102757513523102e-02 5.623883008956909180e-02 1.201273426413536072e-01 -1.488933265209197998e-01 2.524372935295104980e-02 -2.568051405251026154e-02
-1.663147704675793648e-03 -1.552156209945678711e-01 2.498093545436859131e-01 -1.749311573803424835e-03 -2.365317940711975098e-02 -3.445603549480438232e-01 -2.682638820260763168e-03 3.260343894362449646e-02 1.799496263265609741e-01 -2.080664485692977905e-01 1.939702630043029785e-01 1.988086849451065063e-01 -3.692580386996269226e-02 2.514962293207645416e-02 1.137835904955863953e-01 -8.391276746988296509e-02 -1.061038598418235779e-01 1.108349859714508057e-01 6.266623735427856445e-02 -4.146236181259155273e-02 -1.807675957679748535e-01 5.153196863830089569e-03 2.924144566059112549e-01 -2.417996376752853394e-01 -6.186566874384880066e-02 1.546144038438796997e-01 -2.642731666564941406e-01 2.572196424007415771e-01 -7.472961395978927612e-02 7.732114940881729126e-02 2.879267185926437378e-02 1.430789977312088013e-01 -1.215589344501495361e-01 -2.171393781900405884e-01 5.920087918639183044e-02 2.873282320797443390e-02 -2.439884096384048462e-01 1.132818013429641724e-01 -2.619333267211914062e-01 -2.690288424491882324e-01 -3.392144292593002319e-02 -1.308588683605194092e-01 1.368469092994928360e-02 1.349350661039352417e-01 -2.877874299883842468e-02 -2.086447030305862427e-01 1.618946492671966553e-01 -1.106840092688798904e-03 2.688272669911384583e-02 -1.661066859960556030e-01 1.404343843460083008e-01 1.249333024024963379e-01 2.210117280483245850e-01 -2.643599212169647217e-01 7.695756107568740845e-02 8.182897418737411499e-02 -4.766618460416793823e-02 7.963969558477401733e-02 -1.218110769987106323e-01 4.102829471230506897e-02 2.872092127799987793e-01 4.013025682070292532e-05 1.361362636089324951e-01 1.525095701217651367e-01 3.476449549198150635e-01 -1.529865264892578125e-01 -5.240640416741371155e-02 2.382647097110748291e-01 -1.985011845827102661e-01 9.763037413358688354e-02 1.101260110735893250e-01 1.343128532171249390e-01 2.405067682266235352e-01 -2.693631350994110107e-01 -1.785978078842163086e-01 -1.818558759987354279e-02 -4.327774792909622192e-02 9.223095327615737915e-02 1.728975623846054077e-01 1.354074627161026001e-01
-2.507036924362182617e-01 1.258709728717803955e-01 4.907022044062614441e-02 1.784843653440475464e-01 -9.367480874061584473e-02 2.526673115789890289e-02 -3.793017566204071045e-02 -5.670230835676193237e-02 9.806925430893898010e-03 1.639603227376937866e-01 -4.329843912273645401e-03 1.738448739051818848e-01 2.810108847916126251e-02 -1.886570602655410767e-01 2.713793814182281494e-01 -9.526909887790679932e-02 -1.124156522564589977e-03 7.289321720600128174e-02 -1.484506279230117798e-01 2.176503986120223999e-01 8.058358728885650635e-02 1.585347056388854980e-01 6.381150335073471069e-02 -1.844079345464706421e-01 2.419105768203735352e-01 1.564971804618835449e-01 -2.538246214389801025e-01 2.886356599628925323e-02 -3.225350752472877502e-02 1.201237291097640991e-01 6.284700240939855576e-03 1.262505054473876953e-01 1.740690171718597412e-01 -8.762639015913009644e-02 -7.942964881658554077e-02 -4.340170323848724365e-02 -1.451219432055950165e-03 -1.923804879188537598e-01 -6.758566200733184814e-02 4.895068705081939697e-02 1.191865727305412292e-01 2.486221939325332642e-01 -8.700802177190780640e-02 -2.295774817466735840e-01 1.511939913034439087e-01 -1.390609741210937500e-01 3.298322260379791260e-01 2.241820842027664185e-01 1.727469861507415771e-01 1.926964372396469116e-01 -3.332373127341270447e-02 -2.021592557430267334e-01 -2.760445177555084229e-01 -2.828014269471168518e-02 3.368414342403411865e-01 1.958186030387878418e-01 -1.566762924194335938e-01 9.753102064132690430e-02 2.138776890933513641e-02 -1.594973802566528320e-01 4.304413218051195145e-03 9.477697312831878662e-02 2.240171879529953003e-01 -6.926259957253932953e-03 4.371541365981101990e-02 2.197609841823577881e-01 1.148409843444824219e-01 1.703579127788543701e-01 1.940423399209976196e-01 5.155228078365325928e-02 -1.655750125646591187e-01 -1.604116708040237427e-01 -2.266797423362731934e-01 1.628948748111724854e-01 1.607424765825271606e-01 -3.537748456001281738e-01 -2.986160516738891602e-01 -1.409873459488153458e-02 -1.507651358842849731e-01 3.837904706597328186e-02
-1.911183260381221771e-02 -1.493980288505554199e-01 -8.028391748666763306e-02 1.986645013093948364e-01 2.456995993852615356e-01 6.272252649068832397e-02 -3.456572815775871277e-02 -1.864120480604469776e-03 1.353470329195261002e-02 1.052952706813812256e-01 1.337787955999374390e-01 -4.790738970041275024e-02 -5.928337946534156799e-02 2.145908307284116745e-03 -2.862630784511566162e-01 9.089756011962890625e-02 -3.990890458226203918e-03 4.994248598814010620e-02 1.073716729879379272e-01 -2.733417451381683350e-01 5.140163376927375793e-02 -3.745843097567558289e-02 -1.671300530433654785e-01 -3.229990303516387939e-01 -1.437076330184936523e-01 -3.565313294529914856e-02 7.186553627252578735e-02 4.975154250860214233e-02 8.880577981472015381e-02 1.542402431368827820e-02 -4.949442297220230103e-02 2.086518406867980957e-01 -6.619535386562347412e-02 1.037894785404205322e-01 -2.150048613548278809e-01 -2.222356647253036499e-01 -1.578222513198852539e-01 7.565244287252426147e-02 -2.186795324087142944e-01 2.460021376609802246e-01 3.147373199462890625e-01 2.820613607764244080e-02 -3.683618706418201327e-05 -1.843394339084625244e-02 -5.545068159699440002e-02 6.871281564235687256e-02 -2.178481519222259521e-01 1.246171072125434875e-01 1.247285157442092896e-01 6.174147129058837891e-02 -4.974307119846343994e-02 2.124954946339130402e-02 2.915987670421600342e-01 -9.621640294790267944e-02 5.401621386408805847e-02 -2.308127284049987793e-01 1.606425037607550621e-03 -1.373984757810831070e-02 3.975376784801483154e-01 -2.877542376518249512e-02 -9.062083065509796143e-02 -8.530226349830627441e-02 3.377961516380310059e-01 1.266686990857124329e-02 -2.072592228651046753e-01 3.081458061933517456e-02 2.951912395656108856e-02 -1.292246133089065552e-01 -3.293181657791137695e-01 2.643369883298873901e-02 -4.885625094175338745e-02 1.489417403936386108e-01 2.623145878314971924e-01 -2.579658292233943939e-02 3.562091290950775146e-01 -1.050151437520980835e-01 7.141306530684232712e-03 -8.773557841777801514e-02 1.982592195272445679e-01 2.000004947185516357e-01
8.078527450561523438e-02 8.857261389493942261e-02 2.043872699141502380e-02 1.042202860116958618e-01 -1.624138094484806061e-02 1.876582056283950806e-01 2.183658182621002197e-01 -7.477694749832153320e-02 3.688060939311981201e-01 2.401402443647384644e-01 1.219136789441108704e-01 4.024277627468109131e-02 1.372524946928024292e-01 -2.699404060840606689e-01 1.488331109285354614e-01 -5.744944885373115540e-02 1.644861102104187012e-01 -7.111486792564392090e-02 -4.037068784236907959e-02 1.802155375480651855e-01 -1.097684130072593689e-01 1.180223673582077026e-01 1.031993627548217773e-01 8.914890699088573456e-03 2.349352091550827026e-01 1.352616548538208008e-01 -1.233713850378990173e-01 -1.895136386156082153e-01 6.328743696212768555e-02 3.091949820518493652e-01 3.588102459907531738e-01 -1.020828112959861755e-01 3.366996347904205322e-02 -1.156148687005043030e-01 2.547003328800201416e-01 -3.115212023258209229e-01 -4.770604148507118225e-02 -1.570069789886474609e-01 1.624713540077209473e-01 -1.342724561691284180e-01 -1.485548764467239380e-01 -5.084390193223953247e-02 -2.600644230842590332e-01 -3.359546661376953125e-01 -3.308449313044548035e-02 4.992675781250000000e-02 -3.104434609413146973e-01 -5.114249140024185181e-02 1.500231176614761353e-01 4.018548130989074707e-02 -3.872240334749221802e-02 2.907849252223968506e-01 -2.087770700454711914e-01 1.067881062626838684e-01 1.439699809998273849e-02 -1.074138507246971130e-01 -2.050782591104507446e-01 -2.087940424680709839e-01 -1.154711190611124039e-02 3.554997146129608154e-01 5.026658251881599426e-02 -7.475692033767700195e-02 -1.998444497585296631e-01 -1.570149809122085571e-01 -3.150279521942138672e-01 1.718523912131786346e-02 -2.525218576192855835e-02 -1.750853210687637329e-01 7.819036394357681274e-02 3.120544366538524628e-02 -3.364954516291618347e-02 -2.078354060649871826e-01 -5.625928565859794617e-02 2.271884083747863770e-01 -1.689036935567855835e-02 1.498904675245285034e-01 9.634544141590595245e-03 -7.626650040037930012e-05 1.113118156790733337e-01 2.125296592712402344e-01
-7.656835019588470459e-02 -3.001521527767181396e-01 1.750311441719532013e-02 -1.847509741783142090e-01 -2.180911451578140259e-01 -2.672407031059265137e-01 1.507900804281234741e-01 2.693836390972137451e-01 -5.750957876443862915e-02 1.265673637390136719e-01 -1.168707609176635742e-01 6.715276092290878296e-02 1.112298369407653809e-01 -2.442396990954875946e-02 3.140187263488769531e-02 -1.096585392951965332e-01 1.049742028117179871e-01 2.694686353206634521e-01 -1.222880631685256958e-01 -2.118322104215621948e-01 -2.077329903841018677e-01 -2.942248880863189697e-01 -9.248839318752288818e-02 2.057540118694305420e-01 1.215625833719968796e-02 -1.145346835255622864e-01 2.005216777324676514e-01 -1.009669452905654907e-01 1.414137613028287888e-02 -5.154453963041305542e-02 -1.571556031703948975e-01 -3.065688908100128174e-01 -2.559486627578735352e-01 4.367860499769449234e-03 1.694425046443939209e-01 -7.322821021080017090e-02 2.887743115425109863e-01 -1.247574239969253540e-01 -1.590224355459213257e-01 -1.673456281423568726e-01 5.229016393423080444e-02 1.331173926591873169e-01 -5.833888426423072815e-02 -1.549834106117486954e-02 8.502873778343200684e-02 3.844833374023437500e-02 2.398266270756721497e-02 1.368198990821838379e-01 1.212131828069686890e-01 -1.122479289770126343e-01 -3.375889360904693604e-01 1.613536924123764038e-01 -2.175660133361816406e-01 -9.280359745025634766e-02 -2.371592223644256592e-01 -6.865499913692474365e-02 6.919828802347183228e-02 -9.897798299789428711e-02 -7.501284033060073853e-02 5.846713483333587646e-02 -2.358243614435195923e-01 -4.444889351725578308e-02 -1.984000205993652344e-01 1.908836769871413708e-03 1.049781800247728825e-03 -3.821920603513717651e-02 -5.587148666381835938e-02 7.024490623734891415e-04 3.019395172595977783e-01 -5.562723055481910706e-02 -1.006304100155830383e-01 1.326045691967010498e-01 2.875930513255298138e-04 1.938627809286117554e-01 -9.849443286657333374e-02 2.789829075336456299e-01 -5.969965364784002304e-03 2.117486856877803802e-02 -2.819255590438842773e-01 7.355120778083801270e-02
-1.501181870698928833e-01 -9.855117648839950562e-02 2.260258495807647705e-01 2.022188156843185425e-01 -2.581511139869689941e-01 1.286324858665466309e-01 3.484483659267425537e-01 2.166011780500411987e-01 1.303870081901550293e-01 1.099125072360038757e-01 -2.489768341183662415e-02 1.409303545951843262e-01 -2.908356189727783203e-01 -1.769288480281829834e-01 7.452347874641418457e-02 1.222349703311920166e-02 3.899306952953338623e-01 -1.730011850595474243e-01 -8.819421380758285522e-02 -3.814252093434333801e-02 -1.205012202262878418e-01 5.782058835029602051e-02 4.151924699544906616e-02 8.071671426296234131e-02 -1.058481633663177490e-01 -3.175324574112892151e-02 -7.859176397323608398e-02 1.758160740137100220e-01 1.875232309103012085e-01 -2.643728442490100861e-02 1.394412517547607422e-01 3.039980232715606689e-01 -5.223929509520530701e-02 4.678414762020111084e-02 1.946976482868194580e-01 -7.979331165552139282e-02 -1.525432150810956955e-02 -4.376805201172828674e-02 -2.252204120159149170e-01 1.526696979999542236e-01 8.072979003190994263e-02 -1.604540795087814331e-01 -2.629658393561840057e-02 -4.970736056566238403e-02 2.744645476341247559e-01 -1.996068656444549561e-02 -2.265895903110504150e-02 -1.548584997653961182e-01 -8.453761111013591290e-04 2.646963596343994141e-01 -1.083580479025840759e-01 -8.443563431501388550e-02 -2.935616075992584229e-01 -2.006598412990570068e-01 7.138648629188537598e-02 6.381446868181228638e-02 -7.143380120396614075e-03 1.600633957423269749e-03 1.703654676675796509e-01 3.589003086090087891e-01 -9.979355335235595703e-02 -8.772394806146621704e-02 -2.380213700234889984e-02 1.484021544456481934e-02 -7.091487944126129150e-02 3.627968132495880127e-01 -2.764059044420719147e-02 1.311077037826180458e-03 7.349418103694915771e-02 -7.194902002811431885e-02 -3.224773108959197998e-01 -1.545918434858322144e-01 -9.143734723329544067e-02 -8.204191923141479492e-02 -3.984111174941062927e-02 -1.957883499562740326e-02 -2.196063846349716187e-02 -9.372026473283767700e-02 -3.979257494211196899e-02 7.028986513614654541e-02
-6.077619269490242004e-02 -1.781293936073780060e-02 4.831308498978614807e-02 3.239071741700172424e-02 -6.490334123373031616e-02 -1.745913326740264893e-01 5.357755720615386963e-02 -3.603579401969909668e-01 1.404083371162414551e-01 2.569871842861175537e-01 -2.770621478557586670e-01 -1.799093931913375854e-01 9.457343071699142456e-02 -2.619643509387969971e-01 -2.914923988282680511e-02 6.254272907972335815e-02 1.563868373632431030e-01 9.148266166448593140e-02 -2.015118300914764404e-01 9.401958435773849487e-02 -1.256945133209228516e-01 -1.551362425088882446e-01 -3.419287502765655518e-02 1.298535913228988647e-01 -3.798189014196395874e-02 -9.621770121157169342e-03 -1.468996703624725342e-01 4.775220155715942383e-02 1.184726953506469727e-01 1.505532413721084595e-01 -2.204848527908325195e-01 -4.514225199818611145e-02 -2.061307877302169800e-01 8.734580874443054199e-02 -3.182545900344848633e-01 4.341547936201095581e-02 1.131548359990119934e-01 -2.420453280210494995e-01 -3.899064287543296814e-02 3.546987846493721008e-02 -4.705592244863510132e-02 2.165271788835525513e-01 4.809761792421340942e-02 4.155411571264266968e-02 -1.206626594066619873e-01 -2.544562220573425293e-01 -1.453880127519369125e-02 8.764177560806274414e-02 -5.896544829010963440e-02 1.272899657487869263e-02 -6.221950799226760864e-02 -3.118126392364501953e-01 3.546737134456634521e-01 -1.118340715765953064e-01 -1.450056880712509155e-01 2.883632853627204895e-02 -7.160396873950958252e-02 -2.292099967598915100e-02 -1.737803593277931213e-02 -1.206205636262893677e-01 -1.115471348166465759e-01 -1.495541781187057495e-01 -1.684064716100692749e-01 1.317181885242462158e-01 -8.584966883063316345e-03 -3.710159286856651306e-02 -1.165346354246139526e-01 -7.922278344631195068e-02 -3.403769731521606445e-01 -2.247931621968746185e-02 -1.598739326000213623e-01 -1.818494200706481934e-01 -5.736608058214187622e-02 -1.500165611505508423e-01 2.863891422748565674e-01 -3.692391514778137207e-01 1.150863394141197205e-01 7.172504067420959473e-02 -1.164975925348699093e-03 -4.306129645556211472e-03
-4.641831293702125549e-02 -5.413761362433433533e-02 6.404009461402893066e-02 -4.028299823403358459e-02 8.947268873453140259e-02 1.898379176855087280e-01 -1.373409181833267212e-01 -1.504797488451004028e-01 2.011861652135848999e-01 -1.801044791936874390e-01 6.932792812585830688e-02 -2.317941486835479736e-01 1.882452219724655151e-01 5.151784792542457581e-02 -1.875071823596954346e-01 5.054767802357673645e-02 4.099102690815925598e-02 -1.155543923377990723e-01 -1.557352989912033081e-01 -1.360722929239273071e-01 7.487522810697555542e-02 -9.232147037982940674e-02 -1.975009776651859283e-02 1.876270025968551636e-01 3.506718575954437256e-01 1.510816216468811035e-01 6.310894154012203217e-03 5.550595000386238098e-02 1.250931918621063232e-01 -2.047441527247428894e-02 2.023065835237503052e-02 8.638194203376770020e-02 7.145397365093231201e-02 -4.484925884753465652e-03 -1.021414436399936676e-02 -1.518774032592773438e-01 -1.562494784593582153e-01 -2.848621904850006104e-01 -8.722518384456634521e-02 -1.416842341423034668e-01 -2.321277856826782227e-01 -1.798699945211410522e-01 -7.549651712179183960e-02 -1.065530907362699509e-02 -3.000673353672027588e-01 -5.668444931507110596e-02 -1.049086526036262512e-01 -4.767409712076187134e-02 7.936388999223709106e-02 -1.952026188373565674e-01 2.040097117424011230e-01 4.749170690774917603e-02 2.131880521774291992e-01 2.116567268967628479e-02 -7.550128549337387085e-02 9.840265661478042603e-02 1.565449871122837067e-02 -2.004275768995285034e-01 1.163596510887145996e-01 6.919877976179122925e-02 6.735099852085113525e-02 -7.349521666765213013e-02 4.232506453990936279e-02 1.601223945617675781e-01 1.113641709089279175e-01 -1.044980287551879883e-01 3.105571679770946503e-02 -8.147285133600234985e-02 2.852790951728820801e-01 6.600730121135711670e-02 2.017263025045394897e-01 2.887595593929290771e-01 7.253666967153549194e-02 -6.203255429863929749e-02 -1.572538614273071289e-01 3.119334578514099121e-01 -7.599908858537673950e-02 -6.710916012525558472e-02 2.471879124641418457e-01 -1.471498161554336548e-01
3.442388400435447693e-02 -1.420139223337173462e-01 4.764617979526519775e-02 1.066036149859428406e-01 1.621894538402557373e-01 3.447689488530158997e-02 -5.261193029582500458e-03 -2.292339205741882324e-01 5.782777443528175354e-02 -2.260051369667053223e-01 -2.287320494651794434e-01 -1.008112207055091858e-01 -3.294027745723724365e-01 2.433420345187187195e-02 -2.440972775220870972e-01 2.847242653369903564e-01 -5.040593817830085754e-02 -6.195695325732231140e-02 -1.765337139368057251e-01 -9.585528075695037842e-02 9.887974709272384644e-02 -3.394630551338195801e-01 5.693249477189965546e-06 -9.378292597830295563e-04 -2.981592155992984772e-02 2.329025715589523315e-01 1.775989085435867310e-01 -2.235744707286357880e-02 4.985539615154266357e-02 -2.986721694469451904e-01 -3.173534870147705078e-01 1.443575322628021240e-01 -6.985489279031753540e-02 -2.278983741998672485e-01 9.856615215539932251e-02 2.086459845304489136e-02 -3.820212185382843018e-02 -7.749655097723007202e-02 1.372049450874328613e-01 7.163238525390625000e-02 6.790382415056228638e-02 1.473939120769500732e-01 1.148966327309608459e-01 8.242351561784744263e-02 -2.521606683731079102e-01 2.792854607105255127e-01 2.276450246572494507e-01 -3.099032491445541382e-02 1.143808010965585709e-02 1.474658213555812836e-02 1.273935139179229736e-01 -5.765162408351898193e-02 -8.196466416120529175e-02 -1.461877673864364624e-02 1.866383291780948639e-02 -1.474929004907608032e-01 1.442550402134656906e-02 2.320056259632110596e-01 2.010637372732162476e-01 -9.179165959358215332e-02 -1.733575761318206787e-01 9.482687711715698242e-02 -1.201028078794479370e-01 -1.652240008115768433e-01 1.022294759750366211e-01 1.491274312138557434e-02 -4.677868261933326721e-02 1.525209695100784302e-01 1.816479563713073730e-01 -2.090293020009994507e-01 1.565296053886413574e-01 -1.047248020768165588e-01 2.703951299190521240e-01 -5.928951129317283630e-02 9.145975857973098755e-02 -3.575336560606956482e-02 6.623969227075576782e-02 -1.081323833204805851e-03 1.480883508920669556e-01 1.530342847108840942e-01
