-2.037123441696166992e-01 -2.553108930587768555e-01 -2.688142359256744385e-01 -9.885291755199432373e-02 1.197281628847122192e-01 -2.523779682815074921e-02 -8.331563323736190796e-02 7.465311139822006226e-02 -1.127813830971717834e-01 -1.332431882619857788e-01 -2.682862989604473114e-02 -2.987330555915832520e-01 -3.003261424601078033e-02 4.915684089064598083e-02 1.226819679141044617e-01 -3.119613230228424072e-01 -1.360168009996414185e-01 2.177453786134719849e-01 1.055335626006126404e-01 1.670740395784378052e-01 -2.009176760911941528e-01 1.375530511140823364e-01 -8.034274727106094360e-02 -1.463579982519149780e-01 -2.346440106630325317e-01 8.136479556560516357e-02 7.456983625888824463e-02 1.112659350037574768e-01 1.732076257467269897e-01 1.442322134971618652e-01 2.169585227966308594e-01 -8.655603229999542236e-02 2.461785525083541870e-01 2.331460453569889069e-02 1.961282491683959961e-01 5.715110898017883301e-02 2.379204481840133667e-01 1.530790776014328003e-01 -1.692935675382614136e-01 3.241632506251335144e-02
1.964172571897506714e-01 4.056333377957344055e-02 6.351429969072341919e-02 -1.270953714847564697e-01 1.644366830587387085e-01 -3.080377280712127686e-01 2.530417144298553467e-01 -8.736803382635116577e-02 1.325407177209854126e-01 -6.131690368056297302e-02 3.129165768623352051e-01 1.280642002820968628e-01 -1.055440586060285568e-02 1.135413646697998047e-01 -7.446114718914031982e-02 -2.868297509849071503e-02 -9.290053695440292358e-02 -7.322205603122711182e-02 -2.827061712741851807e-01 1.894801557064056396e-01 -1.685012429952621460e-01 7.668488472700119019e-02 2.682698071002960205e-01 -1.048739776015281677e-01 7.388878613710403442e-02 1.105169653892517090e-01 -1.370920836925506592e-01 2.825399935245513916e-01 -8.853142708539962769e-02 1.521931886672973633e-01 -1.148941442370414734e-01 -7.784070912748575211e-04 1.380955725908279419e-01 -9.174052625894546509e-02 -1.638834327459335327e-01 -4.169109463691711426e-02 -3.291074931621551514e-01 -1.267893016338348389e-01 6.451811641454696655e-02 2.594639062881469727e-01
1.476242393255233765e-01 -1.896369457244873047e-01 7.215549796819686890e-02 -7.086483389139175415e-02 9.094948321580886841e-02 -3.043336868286132812e-01 9.716670215129852295e-02 -3.889119625091552734e-02 3.177135884761810303e-01 -1.148202642798423767e-01 -2.627999186515808105e-01 -3.460629582405090332e-01 2.659896016120910645e-01 -4.852655529975891113e-02 2.322757691144943237e-01 9.917210787534713745e-02 6.875708699226379395e-03 -1.012764289043843746e-03 -1.154169365763664246e-01 -1.813127249479293823e-01 -5.052998289465904236e-02 2.240425795316696167e-01 -1.801324486732482910e-01 7.898014970123767853e-03 7.862024754285812378e-02 -2.670952081680297852e-01 3.061932325363159180e-01 2.185405045747756958e-01 -1.633030921220779419e-01 1.854119747877120972e-01 -8.764817565679550171e-02 2.157258540391921997e-01 -1.473826617002487183e-01 -5.102951079607009888e-02 3.163775503635406494e-01 -6.582348793745040894e-02 -2.611370757222175598e-02 9.242004901170730591e-02 9.707617759704589844e-02 2.095241099596023560e-01
-4.696986079216003418e-02 -1.206840202212333679e-01 -3.479948267340660095e-02 -2.838372588157653809e-01 -3.228075206279754639e-01 -4.954667296260595322e-03 -4.683880135416984558e-02 -1.169167757034301758e-01 -1.445147246122360229e-01 -2.289567291736602783e-01 -9.707377851009368896e-02 6.346855312585830688e-02 -2.751977145671844482e-01 2.719366550445556641e-01 8.106869645416736603e-03 6.813751906156539917e-02 -1.393173076212406158e-02 -3.152593672275543213e-01 -1.346610337495803833e-01 -2.196176052093505859e-01 1.500325091183185577e-02 -2.569005787372589111e-01 3.977758586406707764e-01 -1.541904956102371216e-01 1.178720965981483459e-01 -1.990666240453720093e-01 -1.084913983941078186e-01 -2.557061612606048584e-01 2.313736975193023682e-01 3.683894574642181396e-01 -2.286027520895004272e-01 1.297634690999984741e-01 2.809334397315979004e-01 -1.822475492954254150e-01 1.866568326950073242e-01 1.567198187112808228e-01 -1.534962058067321777e-01 1.534013729542493820e-02 9.688330441713333130e-02 -3.612490594387054443e-01
2.875030636787414551e-01 -1.201155409216880798e-01 1.845238357782363892e-01 -6.863432377576828003e-02 -5.086031742393970490e-03 -3.021189942955970764e-02 -2.726565599441528320e-01 -1.250468310900032520e-03 2.503431737422943115e-01 2.416373975574970245e-02 -1.814341843128204346e-01 -2.742905318737030029e-01 -1.544582545757293701e-01 -1.216346621513366699e-01 -3.298865258693695068e-01 9.424074739217758179e-02 -1.480054706335067749e-01 3.202767670154571533e-01 2.095019668340682983e-01 3.503472357988357544e-02 1.358034461736679077e-01 -3.139040991663932800e-02 2.043679505586624146e-01 2.230451852083206177e-01 2.093033045530319214e-01 2.011285871267318726e-01 -1.293558347970247269e-02 1.297693550586700439e-01 -3.228252753615379333e-02 6.447156518697738647e-02 -2.481577731668949127e-02 -2.704929746687412262e-02 2.460136413574218750e-01 -1.689385920763015747e-01 1.049199253320693970e-01 9.219414554536342621e-03 1.605378687381744385e-01 1.403294783085584641e-02 1.630323976278305054e-01 -1.079717427492141724e-01
1.425856649875640869e-01 -1.185467764735221863e-01 1.343930959701538086e-01 -3.585630059242248535e-01 6.810867041349411011e-02 -1.714330017566680908e-01 -1.701956614851951599e-02 3.908209204673767090e-01 1.077171191573143005e-01 -4.572740569710731506e-02 -1.476633995771408081e-01 3.194384872913360596e-01 1.649738103151321411e-01 1.905839294195175171e-01 -9.093128144741058350e-02 9.838252514600753784e-02 8.599983155727386475e-02 2.585205435752868652e-01 -1.798174530267715454e-01 1.765052676200866699e-01 -1.811070889234542847e-01 -2.691737376153469086e-02 1.314081549644470215e-01 -5.644591990858316422e-03 2.286141179502010345e-02 -1.622297614812850952e-01 -1.136586219072341919e-01 1.998619884252548218e-01 -9.828992933034896851e-02 1.748829931020736694e-01 3.215036541223526001e-02 -2.742589712142944336e-01 1.121731922030448914e-01 -1.191245242953300476e-01 4.099552333354949951e-02 3.378019481897354126e-02 1.876468807458877563e-01 -8.040007203817367554e-02 -3.370749354362487793e-01 -1.097407564520835876e-01
-2.508831918239593506e-01 -1.977156847715377808e-01 -3.062144853174686432e-02 -1.951131671667098999e-01 2.510386109352111816e-01 4.917414486408233643e-02 -1.365472525358200073e-01 -8.437531441450119019e-02 -2.014390081167221069e-01 6.394333904609084129e-04 -2.177677452564239502e-01 -2.949427664279937744e-01 3.385155694559216499e-03 -2.386817485094070435e-01 -2.348421663045883179e-01 -5.180524662137031555e-02 5.241661891341209412e-02 8.889551274478435516e-03 -3.166887760162353516e-01 -2.359669096767902374e-02 4.651652276515960693e-02 7.447700947523117065e-02 3.542231917381286621e-01 -1.644581407308578491e-01 8.737774938344955444e-02 2.626718580722808838e-01 1.895651072263717651e-01 -9.442400187253952026e-02 -3.828976452350616455e-01 -3.360399901866912842e-01 -5.279020220041275024e-02 2.343806326389312744e-01 -1.310733258724212646e-01 -3.116493225097656250e-01 -2.522739470005035400e-01 6.249741464853286743e-02 2.946501076221466064e-01 -1.578131318092346191e-01 -2.730825217440724373e-03 -1.225924417376518250e-01
1.387401204556226730e-02 -1.829388588666915894e-01 1.204240322113037109e-01 1.400049626827239990e-01 4.270854219794273376e-02 3.431675732135772705e-01 -3.833100497722625732e-01 1.966418921947479248e-01 -7.157288491725921631e-02 2.894055247306823730e-01 -6.439172476530075073e-02 2.079793214797973633e-01 1.145798191428184509e-01 1.340455859899520874e-01 -9.199916571378707886e-02 6.541671603918075562e-02 -1.120722759515047073e-02 -5.768425017595291138e-02 -9.768842719495296478e-03 -2.574056386947631836e-01 -3.209226951003074646e-02 -8.001516759395599365e-02 1.582727283239364624e-01 3.731320202350616455e-01 1.820049136877059937e-01 -1.882404386997222900e-01 -9.387412667274475098e-02 -1.230518147349357605e-01 -1.073525324463844299e-01 -9.873932600021362305e-02 4.152496159076690674e-02 2.505173981189727783e-01 -1.890841685235500336e-02 -1.197808310389518738e-01 9.815994650125503540e-03 3.383226990699768066e-01 -2.613116614520549774e-02 -1.424271613359451294e-01 -1.820649355649948120e-01 2.802366912364959717e-01
1.537291705608367920e-01 1.691869348287582397e-01 1.764391064643859863e-01 9.094970673322677612e-02 4.841714352369308472e-02 -1.885120421648025513e-01 2.270461320877075195e-01 -1.522032767534255981e-01 -9.119912236928939819e-02 -1.554645299911499023e-01 -2.665578722953796387e-01 1.214813590049743652e-01 1.445203740149736404e-02 1.112317964434623718e-01 1.596278399229049683e-01 -9.088169783353805542e-02 6.163528189063072205e-02 -9.557497501373291016e-02 -1.413667500019073486e-01 -1.029657870531082153e-01 -3.311405777931213379e-01 3.608718886971473694e-02 -1.366553157567977905e-01 5.668804049491882324e-02 -1.207530722022056580e-01 -1.568611362017691135e-03 -1.019122600555419922e-01 3.619323670864105225e-01 -3.565998971462249756e-01 -2.273339480161666870e-01 -2.687723636627197266e-01 -4.619257152080535889e-02 -5.524891242384910583e-02 -8.887409418821334839e-02 -3.223476111888885498e-01 -2.671734988689422607e-01 1.403908431529998779e-01 7.593541592359542847e-02 -4.626986011862754822e-02 6.181449815630912781e-02
9.775057435035705566e-02 6.705710291862487793e-02 -4.735724255442619324e-02 1.774004548788070679e-01 -1.766856461763381958e-01 -2.560303807258605957e-01 2.350471466779708862e-01 1.491976380348205566e-01 2.198318205773830414e-02 -1.272443830966949463e-01 1.204959899187088013e-01 1.467241495847702026e-01 7.333616912364959717e-02 4.008950665593147278e-02 -2.951512038707733154e-01 -1.839647442102432251e-02 -5.729131773114204407e-02 -8.889573626220226288e-03 -3.160272836685180664e-01 2.250059135258197784e-02 5.862686038017272949e-02 -1.376009434461593628e-01 1.195293441414833069e-01 1.394132226705551147e-01 8.352809399366378784e-02 5.025855824351310730e-02 -3.138294219970703125e-01 2.788257300853729248e-01 2.698158919811248779e-01 -1.895650774240493774e-01 -3.389443755149841309e-01 2.509508132934570312e-01 -6.876295059919357300e-02 2.026233077049255371e-02 3.670700490474700928e-01 2.982987165451049805e-01 1.249333992600440979e-01 -3.146946132183074951e-01 2.340880930423736572e-01 2.858528494834899902e-02
6.943114101886749268e-02 -8.182688057422637939e-02 -1.906346827745437622e-01 3.326837718486785889e-01 -9.128732234239578247e-02 -2.288417816162109375e-01 1.007884740829467773e-01 -1.379802525043487549e-01 4.516376648098230362e-03 2.784155122935771942e-02 -2.438122965395450592e-02 -1.620167866349220276e-02 -1.281556338071823120e-01 -3.487820969894528389e-03 1.583419740200042725e-01 -3.519616425037384033e-01 1.480414718389511108e-01 2.021548748016357422e-01 -2.030544579029083252e-01 -1.664623916149139404e-01 3.676970899105072021e-01 1.373204439878463745e-01 1.664865612983703613e-01 3.061580955982208252e-01 -2.422319538891315460e-02 1.696490868926048279e-02 -1.926129162311553955e-01 -2.080340236425399780e-01 -3.882861435413360596e-01 2.887323796749114990e-01 1.240871101617813110e-01 2.133511155843734741e-01 -3.525798022747039795e-01 3.717113733291625977e-01 4.917937144637107849e-02 6.651289761066436768e-02 -1.820404976606369019e-01 3.885477185249328613e-01 1.586884111166000366e-01 1.251263469457626343e-01
1.674755513668060303e-01 1.211249381303787231e-01 4.871176183223724365e-02 3.261839598417282104e-02 9.881278127431869507e-02 1.644242852926254272e-01 -2.944335639476776123e-01 -1.880357274785637856e-03 9.411037713289260864e-02 2.677559554576873779e-01 -2.749658226966857910e-01 -1.658060401678085327e-01 -8.292286843061447144e-02 -1.842341274023056030e-01 -5.627877265214920044e-02 -3.363769352436065674e-01 6.570163369178771973e-02 -3.156045377254486084e-01 -3.912223577499389648e-01 -2.639300934970378876e-02 1.244142744690179825e-02 -1.481493860483169556e-01 2.738127410411834717e-01 -3.991138041019439697e-01 5.244032479822635651e-03 -9.658990800380706787e-02 1.435587704181671143e-01 -1.533634662628173828e-01 -1.330541521310806274e-01 -3.150469809770584106e-02 6.569361686706542969e-02 6.477820873260498047e-02 5.987817794084548950e-02 -2.861698567867279053e-01 -1.325933076441287994e-02 3.327935636043548584e-01 -1.220933720469474792e-01 2.488636225461959839e-01 -1.026341840624809265e-01 6.138985231518745422e-02
-1.386688798666000366e-01 1.942715048789978027e-01 -2.080532312393188477e-01 -1.067519411444664001e-01 6.239218637347221375e-02 3.270131051540374756e-01 9.243513643741607666e-02 -1.222407259047031403e-02 -1.690472811460494995e-01 -2.436326593160629272e-01 -3.705662116408348083e-02 5.066131707280874252e-03 6.652032583951950073e-02 2.444303827360272408e-03 -6.979503482580184937e-02 -2.562758028507232666e-01 -8.322837203741073608e-02 1.359612494707107544e-01 4.622062295675277710e-02 -4.147134348750114441e-02 -1.215710043907165527e-01 -4.028904065489768982e-02 3.206437230110168457e-01 -2.643348872661590576e-01 1.503118574619293213e-01 -7.375191897153854370e-02 -1.370727866888046265e-01 -3.208244740962982178e-01 4.405667539685964584e-03 -1.100694909691810608e-01 -5.909622460603713989e-02 -6.686229258775711060e-03 1.458751410245895386e-01 -1.505067497491836548e-01 -1.396332830190658569e-01 -2.719052731990814209e-01 -1.770950555801391602e-01 -1.570668071508407593e-01 -5.260559543967247009e-02 -2.972616255283355713e-02
1.986597329378128052e-01 4.872207529842853546e-03 -9.286379069089889526e-02 -1.039161607623100281e-01 8.706053346395492554e-02 3.457724452018737793e-01 6.359513849020004272e-02 -2.399968951940536499e-01 1.367818843573331833e-02 1.736692339181900024e-02 2.756775021553039551e-01 9.841498732566833496e-02 -1.364476531744003296e-01 2.484665662050247192e-01 2.064607590436935425e-01 2.143315374851226807e-01 8.684345334768295288e-02 1.463827677071094513e-02 2.660351432859897614e-02 -1.330981124192476273e-02 -2.188310958445072174e-02 -2.603978216648101807e-01 -1.185976490378379822e-01 2.836465537548065186e-01 7.857158780097961426e-02 -3.556580469012260437e-02 1.462769955396652222e-01 7.857195287942886353e-02 -3.043057620525360107e-01 -2.755971550941467285e-01 9.780230931937694550e-03 -1.439230889081954956e-01 3.936402872204780579e-02 9.552558511495590210e-02 2.781797051429748535e-01 -2.481384128332138062e-01 -2.247465848922729492e-01 2.436936944723129272e-01 -1.197517737746238708e-01 3.352887332439422607e-01
3.226825296878814697e-01 1.962530165910720825e-01 1.159430369734764099e-01 -3.105377219617366791e-02 3.542835712432861328e-01 1.412692070007324219e-01 6.141253933310508728e-02 -5.721322819590568542e-02 -1.950401812791824341e-01 1.028285846114158630e-01 3.011876046657562256e-01 3.289347589015960693e-01 -2.429606169462203979e-01 9.495748579502105713e-02 -2.313652336597442627e-01 1.017794944345951080e-02 2.129938602447509766e-01 -2.234246730804443359e-01 9.169820696115493774e-03 3.426155745983123779e-01 2.450670115649700165e-02 5.324689671397209167e-02 1.005630847066640854e-02 2.225178061053156853e-03 -8.097830414772033691e-02 -1.552316993474960327e-01 3.700525686144828796e-02 -2.945271730422973633e-01 2.098132856190204620e-02 -2.904136180877685547e-01 9.948252700269222260e-03 2.017336338758468628e-01 -9.572383016347885132e-02 -3.754123672842979431e-02 -6.735479086637496948e-02 -1.454567909240722656e-01 -6.455846130847930908e-02 -2.550257146358489990e-01 1.371954232454299927e-01 2.850570380687713623e-01
-2.429836057126522064e-02 -2.007186412811279297e-01 1.672245115041732788e-01 -1.649523973464965820e-01 2.960867583751678467e-01 -5.839818716049194336e-02 -1.963822990655899048e-01 1.956689357757568359e-02 1.952522546052932739e-01 1.307648271322250366e-01 -1.700549758970737457e-02 2.398584187030792236e-01 -1.326736956834793091e-01 -3.285574913024902344e-01 -3.304242715239524841e-02 2.143243849277496338e-01 -2.891340553760528564e-01 -1.580690266564488411e-03 1.401089318096637726e-02 -7.949768006801605225e-02 -1.480179280042648315e-02 1.515666246414184570e-01 -2.710864841938018799e-01 1.187159419059753418e-01 3.336399197578430176e-01 -1.797768920660018921e-01 3.409551680088043213e-01 1.423638761043548584e-01 8.183975704014301300e-03 -9.122013300657272339e-02 1.955423802137374878e-01 -4.509681370109319687e-03 -2.113193273544311523e-01 2.855304181575775146e-01 -1.562572568655014038e-01 -2.210683189332485199e-02 -4.416431114077568054e-02 3.897853195667266846e-01 1.385698169469833374e-01 -3.830160498619079590e-01
2.252112478017807007e-01 -1.345445364713668823e-01 -3.742153048515319824e-01 -3.867119923233985901e-02 -7.226733118295669556e-02 7.252173125743865967e-02 -8.228691667318344116e-02 -8.358263224363327026e-02 -2.698639929294586182e-01 -1.748038679361343384e-01 2.932572066783905029e-01 -2.410305105149745941e-02 -2.190721035003662109e-01 1.798595190048217773e-01 1.037616655230522156e-01 -1.034198030829429626e-01 1.962850540876388550e-01 6.402526795864105225e-02 2.065504342317581177e-01 -7.822345197200775146e-02 -1.839978545904159546e-01 -2.346504479646682739e-01 -7.332579791545867920e-02 1.476247515529394150e-02 2.670718431472778320e-01 5.999338626861572266e-02 1.184091940522193909e-01 2.813252806663513184e-02 3.876045942306518555e-01 -1.493631303310394287e-01 1.001587063074111938e-01 -1.170294210314750671e-01 4.536383599042892456e-02 -2.683673202991485596e-01 -8.058658242225646973e-02 -8.950978517532348633e-02 1.796256452798843384e-01 1.045757755637168884e-01 -1.622116565704345703e-01 -3.761667013168334961e-02
-1.942852698266506195e-02 -2.619734704494476318e-01 -9.479124844074249268e-02 -1.278061717748641968e-01 1.707317829132080078e-01 3.764481469988822937e-02 -8.850625157356262207e-02 -3.067190945148468018e-01 -6.787955015897750854e-02 2.667759954929351807e-01 -6.661349534988403320e-02 -3.569696843624114990e-01 -9.198265522718429565e-02 -2.276309393346309662e-02 -3.303015530109405518e-01 1.881355494260787964e-01 3.065410256385803223e-02 -1.053099185228347778e-01 -2.485441714525222778e-01 2.172891609370708466e-02 6.754560768604278564e-02 1.623529493808746338e-01 -2.238458842039108276e-01 5.921074654906988144e-03 1.955886930227279663e-01 7.229030132293701172e-02 -1.951461285352706909e-01 8.608832210302352905e-02 8.994510397315025330e-03 -6.920348852872848511e-03 -1.311249583959579468e-01 6.191526725888252258e-02 1.258743256330490112e-01 -1.023529171943664551e-01 -1.486085820943117142e-02 -2.059396803379058838e-01 -9.331224113702774048e-02 -2.125755399465560913e-01 1.376687176525592804e-02 3.993153199553489685e-02
2.401712164282798767e-02 -1.811694800853729248e-01 2.088503837585449219e-01 3.330716490745544434e-02 2.306754142045974731e-01 -2.526418268680572510e-01 -4.044736549258232117e-02 1.905314922332763672e-01 2.401324510574340820e-01 -1.880285888910293579e-01 -4.756423458456993103e-02 3.528358638286590576e-01 1.696735173463821411e-01 1.548517495393753052e-01 -1.380925476551055908e-01 2.273856699466705322e-01 5.500958766788244247e-03 -1.529049128293991089e-01 5.589844658970832825e-02 2.477108687162399292e-01 -1.349814981222152710e-01 -1.480393707752227783e-01 1.809932887554168701e-01 1.914386451244354248e-01 1.515677422285079956e-01 -1.929117739200592041e-01 4.606022499501705170e-03 1.281155366450548172e-02 -2.803496420383453369e-01 2.274484187364578247e-02 2.149054855108261108e-01 -1.285542696714401245e-01 1.527018249034881592e-01 -2.991642355918884277e-01 4.953147098422050476e-02 -1.458948105573654175e-01 1.520594209432601929e-01 -1.723385155200958252e-01 2.042385339736938477e-01 -4.360041767358779907e-02
1.248716711997985840e-01 -3.179430067539215088e-01 -3.135825693607330322e-01 3.425198793411254883e-01 -3.895683959126472473e-02 1.925501525402069092e-01 -3.375260904431343079e-02 -1.656420901417732239e-02 -7.014482468366622925e-02 2.718776762485504150e-01 3.698619082570075989e-02 -1.342803090810775757e-01 8.768191188573837280e-02 1.675141900777816772e-01 -1.097761988639831543e-01 -2.796990573406219482e-01 7.634720951318740845e-02 -7.564662396907806396e-02 6.251981109380722046e-02 -3.244072794914245605e-01 1.793787777423858643e-01 1.016524955630302429e-01 2.989852130413055420e-01 -1.773921102285385132e-01 7.071768492460250854e-02 1.068842560052871704e-01 2.490862160921096802e-01 -3.809784725308418274e-02 -1.920742839574813843e-01 -3.488727211952209473e-01 3.119026720523834229e-01 -1.833874285221099854e-01 2.497668266296386719e-01 1.709125488996505737e-01 -1.605296730995178223e-01 -1.502037397585809231e-03 -1.913750469684600830e-01 -3.028697967529296875e-01 -6.770180165767669678e-02 -3.104447126388549805e-01
