-4.703214392066001892e-02 -3.572351858019828796e-02 -1.104129776358604431e-01 -1.250439435243606567e-01 -1.899885684251785278e-01 7.734242826700210571e-02 -1.103067770600318909e-01 -1.736401766538619995e-01 -8.777194470167160034e-02 -1.671599000692367554e-01 2.433314621448516846e-01 -1.401560902595520020e-01 -3.135925233364105225e-01 -6.655932962894439697e-02 -3.390410840511322021e-01 -1.919802874326705933e-01 -2.867189347743988037e-01 8.024846017360687256e-02 -7.054530829191207886e-02 -5.674887821078300476e-02
-3.688387572765350342e-01 -1.344742029905319214e-01 2.926225364208221436e-01 -1.390486806631088257e-01 1.600067168474197388e-01 3.317719325423240662e-02 -3.143849223852157593e-02 -5.328792333602905273e-02 5.215205624699592590e-02 -9.963201731443405151e-02 2.532790005207061768e-01 1.157451793551445007e-01 1.630776375532150269e-01 1.144902333617210388e-01 2.929243445396423340e-01 -2.603569328784942627e-01 -3.415042459964752197e-01 -1.375253647565841675e-01 1.889290362596511841e-01 2.628254890441894531e-01
-2.205960005521774292e-01 6.489839404821395874e-02 -1.325628906488418579e-01 -1.435073167085647583e-01 1.780977696180343628e-01 -9.743400663137435913e-02 7.537866383790969849e-02 -1.650679670274257660e-02 -9.943271428346633911e-02 -2.693037092685699463e-01 -1.848662197589874268e-01 -1.784209460020065308e-01 5.143668875098228455e-02 3.195669651031494141e-01 -1.496646106243133545e-01 3.237559497356414795e-01 -2.797540426254272461e-01 9.943741373717784882e-03 -1.273958235979080200e-01 9.629323333501815796e-02
2.922283671796321869e-02 6.838081032037734985e-02 -1.087512373924255371e-01 -3.779373690485954285e-02 1.232629939913749695e-01 1.500196307897567749e-01 -1.518252044916152954e-01 -6.555965542793273926e-02 7.398413866758346558e-02 -2.667225897312164307e-01 -1.265775598585605621e-02 -1.227156743407249451e-01 -2.067377232015132904e-02 1.265559196472167969e-01 -1.955145001411437988e-01 8.044204115867614746e-02 -1.915364116430282593e-01 1.867581158876419067e-02 -1.071860417723655701e-01 1.526267677545547485e-01
