-1.434996575117111206e-01 6.787104904651641846e-02 -2.697657048702239990e-01 -8.200006932020187378e-02 -2.549172043800354004e-01 2.722307853400707245e-02 3.044484369456768036e-02 9.840752184391021729e-02 -1.894419640302658081e-01 -8.501265197992324829e-02 -9.239228069782257080e-02 -5.115125700831413269e-02 -4.447442293167114258e-02 1.540162321180105209e-02 4.807974025607109070e-02 -1.308361347764730453e-02 2.735278904438018799e-01 -2.285337820649147034e-02 6.955692172050476074e-02 1.669790595769882202e-02
1.263960599899291992e-01 -2.527453303337097168e-01 1.462732404470443726e-01 3.125184178352355957e-01 1.757982224225997925e-01 1.365738548338413239e-02 7.609252631664276123e-02 -6.756923347711563110e-02 2.503051459789276123e-01 1.015475019812583923e-01 1.056778132915496826e-01 3.054326027631759644e-02 1.356766074895858765e-01 -1.891054958105087280e-01 -1.084816381335258484e-01 1.753857731819152832e-01 -2.956680655479431152e-01 1.377377510070800781e-01 -1.548132002353668213e-01 -7.353517413139343262e-02
3.115375712513923645e-02 4.777729138731956482e-02 3.503047302365303040e-02 1.868444681167602539e-01 -6.477881222963333130e-02 1.509921848773956299e-01 -1.335012726485729218e-02 -3.530447557568550110e-02 5.624074488878250122e-02 2.746463119983673096e-01 1.425542533397674561e-01 -1.205513849854469299e-01 -2.208273112773895264e-01 -2.859703078866004944e-02 -1.892255097627639771e-01 8.819672465324401855e-02 1.096804291009902954e-01 -6.105355545878410339e-02 -4.598391056060791016e-02 4.711894318461418152e-02
