-3.371126949787139893e-01 4.943776503205299377e-02 3.379482924938201904e-01 -2.304116338491439819e-01 -1.202533394098281860e-01 -2.216278202831745148e-02 2.997744269669055939e-02 5.732276663184165955e-02 -7.257170975208282471e-02 -1.072943489998579025e-02 -6.152250617742538452e-02 1.786953657865524292e-01 1.870236247777938843e-01 -4.297085851430892944e-02 1.192587018013000488e-01 1.213762462139129639e-01 2.825956046581268311e-01 -3.662030212581157684e-04 1.788273453712463379e-01 4.832462593913078308e-02 3.072805106639862061e-01 -5.558191239833831787e-02 -1.407807618379592896e-01 8.350095897912979126e-02 -1.236116737127304077e-01 -3.319453389849513769e-05 -3.888027742505073547e-02 -1.618822962045669556e-01 -1.311164051294326782e-01 -8.487514220178127289e-03 6.185251101851463318e-02 1.786896735429763794e-01 9.680135548114776611e-02 -2.811957895755767822e-01 2.080137133598327637e-01 2.941271364688873291e-01 -1.418717503547668457e-01 5.172309651970863342e-02 -1.465967390686273575e-02 6.251234561204910278e-03 7.755785435438156128e-02 -4.336427897214889526e-02 2.103222906589508057e-01 -2.380613386631011963e-01 8.716822415590286255e-02 -8.982434868812561035e-02 -1.239697337150573730e-01 1.368779838085174561e-01 8.330716192722320557e-02 8.094087243080139160e-03 2.311564832925796509e-01 -3.079657815396785736e-02 -2.967223525047302246e-03 -4.269795492291450500e-02 1.542732715606689453e-01 -1.436350643634796143e-01 -1.942125558853149414e-01 -1.320374105125665665e-02 -1.710019446909427643e-02 -6.928316503763198853e-02 2.280928194522857666e-03 -7.892964035272598267e-02 2.961190417408943176e-02 -5.869734659790992737e-02 -1.588766574859619141e-01 8.496550470590591431e-02 7.768335752189159393e-03 -2.839335985481739044e-02 -1.321509033441543579e-01 -2.805062197148799896e-02 9.626192599534988403e-02 -8.244164288043975830e-02 -8.534971624612808228e-02 1.764554381370544434e-01 1.001926884055137634e-01 -9.805602580308914185e-02 -2.288426272571086884e-02 -2.113443911075592041e-01 1.109975352883338928e-01 1.507470458745956421e-01
-2.318500913679599762e-02 1.271700114011764526e-01 -6.513423472642898560e-02 -1.026104763150215149e-01 -2.238366901874542236e-01 -2.175337076187133789e-01 1.614596508443355560e-02 -2.029893994331359863e-01 -3.052310319617390633e-03 1.419087219983339310e-02 -2.105641663074493408e-01 1.346803009510040283e-01 -2.060760557651519775e-01 -1.936427056789398193e-01 -2.129174321889877319e-01 1.386580336838960648e-02 8.725786209106445312e-02 -7.307089865207672119e-02 -9.426524490118026733e-02 1.622559726238250732e-01 -4.635416716337203979e-02 2.204960435628890991e-01 -1.109424158930778503e-01 1.725936233997344971e-01 -2.720617651939392090e-01 1.871976703405380249e-01 1.103249490261077881e-01 2.021099478006362915e-01 -1.938234716653823853e-01 1.926082819700241089e-01 2.571624219417572021e-01 7.186374813318252563e-02 -2.459850609302520752e-01 9.255070239305496216e-02 -1.424277275800704956e-01 1.728478521108627319e-01 2.760548293590545654e-01 8.732410520315170288e-02 -2.763876616954803467e-01 -3.244473934173583984e-01 -2.628968060016632080e-01 -1.648979485034942627e-01 -1.259395331144332886e-01 -1.108386963605880737e-01 1.913424432277679443e-01 -2.805079221725463867e-01 3.455240279436111450e-02 -3.138141632080078125e-01 3.671745955944061279e-02 1.370005458593368530e-01 -3.226791918277740479e-01 3.452056273818016052e-02 2.426923438906669617e-02 2.404574453830718994e-01 7.031108438968658447e-02 -4.337505623698234558e-02 -1.560705807060003281e-02 -5.653188377618789673e-02 7.995489239692687988e-02 -8.760649710893630981e-02 1.687222570180892944e-01 9.284789115190505981e-02 1.159092858433723450e-01 1.372763812541961670e-01 -2.275343984365463257e-01 2.941651046276092529e-01 4.459287226200103760e-02 3.075003921985626221e-01 2.872743606567382812e-01 7.964082807302474976e-02 -3.365554213523864746e-01 1.013042256236076355e-01 2.690976262092590332e-01 1.650280058383941650e-01 -2.501050569117069244e-02 -1.281060576438903809e-01 -1.239914819598197937e-01 -7.445458322763442993e-02 1.864755898714065552e-01 1.303191334009170532e-01
-7.003854215145111084e-02 -7.700061053037643433e-02 4.824100434780120850e-02 1.358301043510437012e-01 -1.001961678266525269e-01 -2.882405817508697510e-01 3.168192207813262939e-01 -6.579186022281646729e-02 7.754699885845184326e-02 1.079805418848991394e-01 2.603249810636043549e-02 5.158202350139617920e-02 8.807872235774993896e-02 1.861452609300613403e-01 1.862461715936660767e-01 5.595965310931205750e-03 -1.419365555047988892e-01 -8.027894794940948486e-02 1.298589259386062622e-01 1.589600145816802979e-01 5.268207192420959473e-02 1.997517794370651245e-01 1.026739031076431274e-01 2.487328350543975830e-01 5.228502303361892700e-02 -2.037425898015499115e-02 -2.553968876600265503e-02 -2.094314992427825928e-01 -5.766951944679021835e-03 -4.158819839358329773e-02 2.588012218475341797e-01 -2.229925245046615601e-01 -2.987364232540130615e-01 -4.503052309155464172e-02 -2.155359536409378052e-01 -1.484051998704671860e-02 7.604976743459701538e-02 2.582210898399353027e-01 4.244076833128929138e-02 -2.182386070489883423e-01 -1.275917515158653259e-02 -7.341635227203369141e-02 -1.309825628995895386e-01 -2.750723063945770264e-01 1.850481033325195312e-01 -5.506265908479690552e-03 -2.637583017349243164e-01 -2.748626843094825745e-02 -2.127314358949661255e-01 -8.522326126694679260e-03 -3.761423751711845398e-02 -2.510150671005249023e-01 -1.835031807422637939e-01 1.533143804408609867e-03 3.122537434101104736e-01 -1.444188654422760010e-01 -3.533488512039184570e-01 -1.269228458404541016e-01 -1.367143541574478149e-01 -2.201013267040252686e-02 9.133794903755187988e-02 3.817255198955535889e-01 5.378725007176399231e-02 -3.935626521706581116e-02 1.243143230676651001e-01 3.292863070964813232e-01 2.987870573997497559e-01 -2.202036082744598389e-01 1.052085086703300476e-01 2.739450335502624512e-01 -2.121685594320297241e-01 4.487147089093923569e-03 3.020159006118774414e-01 3.607012331485748291e-01 1.067903544753789902e-02 2.662721872329711914e-01 -2.960593998432159424e-01 9.116189181804656982e-02 8.618713170289993286e-02 -2.354322224855422974e-01
3.226614892482757568e-01 -2.653388381004333496e-01 1.966144191101193428e-03 3.172699734568595886e-02 -2.644555568695068359e-01 -1.071735471487045288e-02 2.959398329257965088e-01 -6.106659024953842163e-02 -6.604147702455520630e-02 -1.324373297393321991e-02 1.147616654634475708e-02 1.676168143749237061e-01 2.201716899871826172e-01 -8.712747693061828613e-02 1.011133864521980286e-01 -6.570249050855636597e-02 -1.342967152595520020e-01 6.015900149941444397e-02 -2.217342257499694824e-01 -5.150096490979194641e-02 8.295609056949615479e-02 1.194774359464645386e-01 -3.075727224349975586e-01 1.867164820432662964e-01 -2.216676920652389526e-01 1.485393047332763672e-01 -7.682156562805175781e-02 1.717089414596557617e-01 -2.177443727850914001e-02 -1.173842847347259521e-01 1.491300463676452637e-01 -1.811613291501998901e-01 3.300060704350471497e-02 7.384750247001647949e-02 8.218266069889068604e-02 2.067079246044158936e-01 -2.198203206062316895e-01 -1.356196105480194092e-01 2.489642798900604248e-01 -1.250115483999252319e-01 1.094812154769897461e-01 2.581824064254760742e-01 -2.449966967105865479e-02 2.315315008163452148e-01 9.395616501569747925e-02 3.416289687156677246e-01 -1.080132201313972473e-01 -2.629309594631195068e-01 1.318545192480087280e-01 -3.741866052150726318e-01 2.069714292883872986e-02 -2.690804302692413330e-01 4.830837249755859375e-02 -6.234810501337051392e-02 6.103554740548133850e-02 -3.452969016507267952e-03 3.780872374773025513e-02 1.831155270338058472e-01 2.111944369971752167e-02 -6.579694896936416626e-02 2.612908184528350830e-01 2.119395732879638672e-01 -1.168929934501647949e-01 -1.618224382400512695e-01 -3.909835591912269592e-02 -2.672993242740631104e-01 2.189114540815353394e-01 6.687138229608535767e-02 -1.795067489147186279e-01 8.099854737520217896e-02 -2.156080491840839386e-02 6.943062692880630493e-02 1.321628242731094360e-01 -2.008982561528682709e-02 -1.860894411802291870e-01 -1.858351528644561768e-01 1.408935040235519409e-01 -1.076760366559028625e-01 2.169629931449890137e-01 -6.217418611049652100e-02
-6.468451768159866333e-02 -5.577111616730690002e-03 -2.020771848037838936e-03 2.240928821265697479e-02 -1.716787964105606079e-01 -7.161405403167009354e-03 1.120583489537239075e-01 -1.589699462056159973e-02 2.789519727230072021e-01 2.045152634382247925e-01 2.832405567169189453e-01 1.783423498272895813e-02 1.197088044136762619e-02 -1.621873378753662109e-01 1.845659166574478149e-01 6.269132345914840698e-02 -2.026736922562122345e-02 -1.075444743037223816e-01 -7.353815436363220215e-02 2.560051381587982178e-01 9.901697188615798950e-02 -3.661493062973022461e-01 -1.735705882310867310e-02 2.336001023650169373e-03 -2.526694536209106445e-01 -1.972398906946182251e-01 -1.043735370039939880e-01 1.365498006343841553e-01 1.165218465030193329e-02 -5.828883126378059387e-02 -6.543314456939697266e-02 4.371288523543626070e-04 -2.674505114555358887e-01 3.759351372718811035e-01 -3.606237587518990040e-04 2.159747779369354248e-01 -7.266922388225793839e-03 1.263032406568527222e-01 1.336712986230850220e-01 1.408502086997032166e-02 1.949805617332458496e-01 1.653763800859451294e-01 1.260112822055816650e-01 -1.617596950381994247e-03 -9.776573628187179565e-02 -5.396565049886703491e-02 2.264789193868637085e-01 2.540424838662147522e-02 1.094388142228126526e-01 4.822400212287902832e-02 3.437023460865020752e-01 2.293290644884109497e-01 -2.350976616144180298e-01 1.051624789834022522e-01 1.652875244617462158e-01 -9.272129274904727936e-03 2.801667749881744385e-01 -3.215802833437919617e-02 -3.034667484462261200e-02 -1.027972251176834106e-01 7.632927596569061279e-02 3.524691238999366760e-02 -6.028662621974945068e-02 2.841899357736110687e-02 1.220297217369079590e-01 -3.415326029062271118e-02 -1.394567787647247314e-01 -2.580677866935729980e-01 -2.190551608800888062e-01 1.948756873607635498e-01 1.706127822399139404e-01 7.404286414384841919e-02 1.798855811357498169e-01 -1.175434514880180359e-01 -1.618797145783901215e-02 -6.622663699090480804e-03 3.443863987922668457e-01 -2.194854468107223511e-01 5.931983515620231628e-02 -1.123347356915473938e-01
7.062017917633056641e-02 3.476306498050689697e-01 2.454465329647064209e-01 -3.208961486816406250e-01 6.002837046980857849e-02 1.860868930816650391e-01 1.395419090986251831e-01 2.338346540927886963e-01 -2.176543697714805603e-02 2.769651412963867188e-01 2.553596794605255127e-01 3.368165194988250732e-01 2.774910926818847656e-01 -3.124531917273998260e-02 2.040452361106872559e-01 1.181687414646148682e-01 6.880621612071990967e-02 1.015134453773498535e-01 -1.301206275820732117e-02 -2.330940663814544678e-01 -5.557078868150711060e-02 -2.053481936454772949e-01 5.013212934136390686e-02 -3.102064430713653564e-01 -3.002499043941497803e-01 5.522533878684043884e-02 2.518744170665740967e-01 3.704551374539732933e-03 1.171138323843479156e-02 -6.890220567584037781e-03 4.166944697499275208e-02 -2.867462635040283203e-01 -1.140973940491676331e-01 -2.647387087345123291e-01 6.163883581757545471e-02 -4.441190138459205627e-02 1.739879399538040161e-01 2.118594199419021606e-01 -1.853930354118347168e-01 -1.922318637371063232e-01 -4.667307250201702118e-03 7.788176089525222778e-02 -1.573884189128875732e-01 -6.585708260536193848e-02 -2.308681309223175049e-01 -4.843779280781745911e-02 2.121895179152488708e-02 -4.006337746977806091e-02 6.874015927314758301e-02 2.655422687530517578e-01 1.198018342256546021e-01 2.301546484231948853e-01 2.529742717742919922e-01 5.936646834015846252e-02 -1.377358883619308472e-01 -3.203032314777374268e-01 1.434241384267807007e-01 -2.607936561107635498e-01 -5.960642173886299133e-02 2.287984341382980347e-01 7.502063363790512085e-02 -3.119524419307708740e-01 -3.684271574020385742e-01 8.802667260169982910e-02 -8.750826120376586914e-02 -4.894207790493965149e-02 -1.597923487424850464e-01 4.687865078449249268e-02 -1.245337873697280884e-01 -1.193404123187065125e-01 -2.517881989479064941e-01 -1.747891753911972046e-01 1.162690222263336182e-01 -2.290915884077548981e-02 1.544773876667022705e-01 2.014960534870624542e-02 1.865031570196151733e-02 2.687115967273712158e-01 -2.462018877267837524e-01 1.299333274364471436e-01
-3.447317704558372498e-02 3.900928422808647156e-02 -3.859726712107658386e-02 -3.070432245731353760e-01 6.503026932477951050e-02 3.030198812484741211e-02 -9.434886276721954346e-03 -1.203600782901048660e-02 -1.202227622270584106e-01 -1.916575282812118530e-01 -1.857222467660903931e-01 -2.363948374986648560e-01 1.234698966145515442e-01 6.083231791853904724e-02 1.842896789312362671e-01 1.014669388532638550e-01 -1.057283952832221985e-01 -6.347908824682235718e-02 -9.799747914075851440e-02 2.258210629224777222e-01 8.028560876846313477e-02 2.507235109806060791e-01 5.448628216981887817e-02 -1.960906535387039185e-01 -7.215788215398788452e-02 -6.884635239839553833e-02 -6.615616381168365479e-02 2.587589621543884277e-01 3.256416618824005127e-01 -1.301228106021881104e-01 -1.659143567085266113e-01 -1.748420596122741699e-01 3.551787137985229492e-01 5.562081560492515564e-02 -9.345705062150955200e-02 -7.205177843570709229e-02 -6.798529997467994690e-03 1.734964316710829735e-03 -1.051080152392387390e-01 1.936787962913513184e-01 2.413183301687240601e-01 -1.469340547919273376e-02 2.847052812576293945e-01 2.948872447013854980e-01 1.832209229469299316e-01 2.428240627050399780e-01 5.204801913350820541e-03 5.190062802284955978e-03 -1.160424873232841492e-01 -2.748802006244659424e-01 -4.736750945448875427e-02 -3.221463561058044434e-01 1.658183187246322632e-01 -1.289325654506683350e-01 1.734743453562259674e-02 1.270468086004257202e-01 1.315937936305999756e-02 3.838569624349474907e-03 2.163828760385513306e-01 1.891927123069763184e-01 1.022257506847381592e-01 6.268555670976638794e-02 -1.786002665758132935e-01 3.295865654945373535e-01 -7.219141721725463867e-02 1.670147329568862915e-01 1.814068853855133057e-01 -2.379033118486404419e-01 -5.893738195300102234e-02 -3.848802670836448669e-02 -2.881656587123870850e-02 2.901488728821277618e-02 -2.997188270092010498e-01 -4.655371978878974915e-02 -3.174101412296295166e-01 2.135315835475921631e-01 -7.376655191183090210e-02 -8.977436274290084839e-02 -1.892874687910079956e-01 1.845309883356094360e-01
-1.728320419788360596e-01 -3.500249087810516357e-01 -9.797745943069458008e-02 6.254581362009048462e-02 1.217707172036170959e-01 2.340466976165771484e-01 2.860799990594387054e-02 -1.979194283485412598e-01 -1.828148216009140015e-01 -4.569185525178909302e-02 -4.034020379185676575e-02 2.252617776393890381e-01 2.937410473823547363e-01 -7.297328859567642212e-02 -2.493553161621093750e-01 7.159638404846191406e-02 -3.378889709711074829e-02 -7.205588370561599731e-02 -6.651394814252853394e-02 3.970724046230316162e-01 -1.118282750248908997e-01 7.415158301591873169e-02 -1.878376752138137817e-01 -5.541075393557548523e-02 -6.951478868722915649e-02 -1.327081322669982910e-01 1.742834895849227905e-01 -1.409035176038742065e-01 -1.855851411819458008e-01 1.462794095277786255e-01 -2.438400089740753174e-01 -1.011093780398368835e-01 -3.760564625263214111e-01 -1.960871666669845581e-01 -6.337483972311019897e-02 5.998753011226654053e-02 2.941924631595611572e-01 -1.428723782300949097e-01 1.897365003824234009e-01 -2.561528682708740234e-01 1.396881788969039917e-01 -4.145435988903045654e-01 -3.502283245325088501e-02 2.670564949512481689e-01 1.920565962791442871e-01 -1.581764072179794312e-01 -1.103446353226900101e-02 2.394950240850448608e-01 1.306075043976306915e-02 -3.037391044199466705e-02 1.737803965806961060e-01 -2.933690845966339111e-01 -2.488547861576080322e-01 -1.603840291500091553e-02 -2.862890996038913727e-02 -2.989343404769897461e-01 -1.794833987951278687e-01 1.305416524410247803e-01 -1.419061869382858276e-01 -2.496472895145416260e-01 1.482981443405151367e-01 -8.360962569713592529e-02 -1.905545890331268311e-01 -1.532191336154937744e-01 -2.009898573160171509e-01 3.346223616972565651e-03 1.799019239842891693e-02 -2.103446274995803833e-01 -1.547823287546634674e-02 -7.323716580867767334e-02 -2.858593361452221870e-04 -1.151405498385429382e-01 -8.004452288150787354e-02 -3.589154034852981567e-02 -1.374125182628631592e-01 -1.622109562158584595e-01 2.614022493362426758e-01 2.449552714824676514e-01 -1.128595396876335144e-01 1.008075941354036331e-02
-1.648676544427871704e-01 4.586635623127222061e-03 2.733156085014343262e-01 2.900679707527160645e-01 -1.658564507961273193e-01 1.493893563747406006e-01 -7.014223933219909668e-02 -4.098950698971748352e-02 -2.884433418512344360e-02 -8.163772523403167725e-02 7.018657773733139038e-02 -2.100807800889015198e-02 -2.073686197400093079e-02 -2.874011397361755371e-01 -2.529362738132476807e-01 -1.032594442367553711e-01 2.001573145389556885e-01 -4.566794633865356445e-02 -1.533928792923688889e-02 1.624724417924880981e-01 -5.606489256024360657e-03 3.090382516384124756e-01 -2.104267030954360962e-01 1.101690605282783508e-01 5.818934366106987000e-02 1.126157939434051514e-01 4.595348238945007324e-02 8.531054109334945679e-02 -6.851579248905181885e-02 -9.093951433897018433e-03 -1.763845086097717285e-01 -5.453085526823997498e-02 3.078997507691383362e-02 -1.821691095829010010e-01 9.729128330945968628e-03 1.571616381406784058e-01 1.447469592094421387e-01 -3.113260492682456970e-02 1.412635855376720428e-02 1.290141493082046509e-01 8.922370523214340210e-02 8.502950519323348999e-02 2.004898637533187866e-01 -6.696751713752746582e-02 3.145933523774147034e-02 4.920038580894470215e-02 1.009242516010999680e-02 -1.128249764442443848e-01 -2.629819810390472412e-01 -1.117734014987945557e-01 -4.395662993192672729e-02 -1.216472834348678589e-01 5.884663015604019165e-02 3.672184944152832031e-01 -1.592282056808471680e-01 -1.373804640024900436e-03 1.077476888895034790e-01 -1.212887838482856750e-01 1.461547464132308960e-01 5.517295002937316895e-02 7.190173119306564331e-02 2.688452601432800293e-02 -1.598142683506011963e-01 -1.472719609737396240e-01 -3.491440787911415100e-03 1.939408928155899048e-01 -3.766868263483047485e-02 -1.363657265901565552e-01 -1.067382618784904480e-01 1.878215000033378601e-02 8.275723084807395935e-03 -1.149505898356437683e-01 2.262026518583297729e-01 5.263895168900489807e-02 -1.254490315914154053e-01 -7.214622944593429565e-02 2.291789054870605469e-01 -2.007858306169509888e-01 1.713692024350166321e-02 -1.451674252748489380e-01
-9.144767318502999842e-06 -1.657740622758865356e-01 1.892031431198120117e-01 -3.564741462469100952e-02 -1.306029707193374634e-01 -2.733630836009979248e-01 1.383125633001327515e-01 4.688942059874534607e-02 6.921626627445220947e-02 2.789431624114513397e-02 2.663095891475677490e-01 -7.208424061536788940e-02 -2.289912430569529533e-03 -2.920324802398681641e-01 -2.426778674125671387e-01 7.721347361803054810e-02 -1.428018212318420410e-01 -2.620750851929187775e-02 -8.377779275178909302e-02 -2.215442806482315063e-01 -7.647226005792617798e-02 -3.302149474620819092e-02 2.491107443347573280e-03 6.428945064544677734e-02 1.339897364377975464e-01 4.336522892117500305e-02 2.995907962322235107e-01 -7.293375581502914429e-02 -1.244219690561294556e-01 -1.263917386531829834e-01 1.894517242908477783e-02 5.648474022746086121e-02 -3.521850109100341797e-01 -3.244840204715728760e-01 2.056064903736114502e-01 -1.160815358161926270e-01 1.484302580356597900e-01 7.413639873266220093e-02 1.513208635151386261e-02 -7.006072252988815308e-02 -1.987179517745971680e-01 2.145868837833404541e-01 -6.161277182400226593e-03 2.784907519817352295e-01 1.490374952554702759e-01 -1.000513061881065369e-01 2.516980469226837158e-01 -1.417504698038101196e-01 1.934692263603210449e-01 1.039786636829376221e-01 -2.875465713441371918e-02 1.595530286431312561e-02 -1.547540873289108276e-01 9.868314117193222046e-02 -9.100382775068283081e-02 1.029437929391860962e-01 1.875623762607574463e-01 3.273466601967811584e-02 -1.218586713075637817e-01 1.886225938796997070e-01 -1.920839995145797729e-01 -1.457379162311553955e-01 -4.099730402231216431e-02 1.994444727897644043e-01 6.571534276008605957e-02 -1.269611297175288200e-03 -6.044376268982887268e-02 9.223123639822006226e-02 -1.517271846532821655e-01 9.928602725267410278e-02 8.543797582387924194e-02 -7.280275225639343262e-02 -1.158790290355682373e-01 -1.255550086498260498e-01 -2.591172456741333008e-01 3.495112061500549316e-03 9.021705947816371918e-03 -2.067357450723648071e-01 1.637401282787322998e-01 -2.958571910858154297e-01
-4.561392590403556824e-02 5.613850429654121399e-03 -2.573302686214447021e-01 -1.981439292430877686e-01 -2.100282162427902222e-01 2.258882671594619751e-02 1.638954728841781616e-01 3.608123362064361572e-01 1.406740546226501465e-01 -2.610552906990051270e-01 1.532319635152816772e-01 3.127079308032989502e-01 -7.826580549590289593e-04 1.354758441448211670e-01 -1.935742497444152832e-01 1.253668814897537231e-01 1.945997239090502262e-03 1.050844490528106689e-01 -1.811028458178043365e-03 5.034833401441574097e-02 2.127343788743019104e-02 6.225685030221939087e-02 -7.008384168148040771e-02 1.637947410345077515e-01 -2.999874763190746307e-03 1.617853343486785889e-01 -1.291933353058993816e-03 7.135650143027305603e-03 -2.941269278526306152e-01 7.181747350841760635e-03 4.073297604918479919e-02 -1.715518385171890259e-01 1.508668512105941772e-01 -9.760583937168121338e-02 2.336380779743194580e-01 -1.714229956269264221e-02 -1.251894831657409668e-01 -3.067969083786010742e-01 2.200092673301696777e-01 1.163777150213718414e-02 -2.586714923381805420e-01 -1.026244461536407471e-01 1.156076639890670776e-01 9.001065976917743683e-03 2.058563977479934692e-01 1.282405555248260498e-01 -1.243663951754570007e-01 -9.278130531311035156e-02 -2.969401702284812927e-02 1.789201498031616211e-01 -3.311115503311157227e-02 -1.227990165352821350e-01 2.888009324669837952e-02 -2.560725808143615723e-01 -6.145559251308441162e-02 2.024497985839843750e-01 4.583551362156867981e-02 2.396597862243652344e-01 5.284645780920982361e-02 -9.483264386653900146e-02 -2.462593764066696167e-01 3.261296451091766357e-02 -1.262774765491485596e-01 -6.335990130901336670e-02 -1.493568439036607742e-02 -6.408595293760299683e-02 -4.228904098272323608e-02 -1.831254661083221436e-01 1.243312507867813110e-01 1.766366511583328247e-01 -1.503511983901262283e-02 1.831975579261779785e-01 5.258766934275627136e-02 -4.624529555439949036e-02 -4.693768545985221863e-02 1.966634020209312439e-02 -1.216243430972099304e-01 -1.789921522140502930e-01 1.024510432034730911e-02 6.873969733715057373e-02
-2.781880497932434082e-01 2.404364496469497681e-01 -9.379348903894424438e-02 -2.161572128534317017e-01 -2.190733999013900757e-01 -8.723238133825361729e-04 -1.313150376081466675e-01 3.320946171879768372e-02 -1.951811909675598145e-01 2.024328559637069702e-01 1.727149188518524170e-01 9.752412140369415283e-02 -4.401820152997970581e-02 6.116856634616851807e-02 2.302086502313613892e-01 -1.619309484958648682e-01 -9.463419020175933838e-02 6.164047867059707642e-02 3.288320899009704590e-01 6.145183742046356201e-02 -1.453620940446853638e-01 -1.790155917406082153e-01 -2.672412991523742676e-01 4.924159124493598938e-02 1.551724877208471298e-02 -9.616576135158538818e-02 3.486050367355346680e-01 2.966538071632385254e-01 2.998541668057441711e-02 -1.509386152029037476e-01 3.934203386306762695e-01 -1.909356564283370972e-01 -1.086746691726148129e-03 1.214996129274368286e-01 1.255182772874832153e-01 -3.699080049991607666e-01 3.699187189340591431e-02 1.797394752502441406e-01 -2.181390998885035515e-03 -3.285647034645080566e-01 9.092928469181060791e-02 -5.748975090682506561e-04 1.459840387105941772e-01 -2.271537035703659058e-01 -2.140838950872421265e-01 3.352966010570526123e-01 -1.335600018501281738e-01 -7.149991113692522049e-03 -7.558696717023849487e-02 -1.690815538167953491e-01 1.957269906997680664e-01 -2.794528603553771973e-01 2.430464141070842743e-02 3.125287592411041260e-01 2.660219073295593262e-01 2.249849885702133179e-01 -1.318421810865402222e-01 6.307395547628402710e-02 8.733678609132766724e-02 2.984285950660705566e-01 1.045640707015991211e-01 3.599951043725013733e-02 9.769229590892791748e-02 1.683931648731231689e-01 -4.206888005137443542e-02 -3.744969610124826431e-03 -1.240315511822700500e-01 -3.409155085682868958e-02 -1.453787386417388916e-01 -3.185450658202171326e-02 -8.030927926301956177e-02 2.265792898833751678e-02 -1.171228364109992981e-01 2.054854482412338257e-02 -6.118134036660194397e-02 2.590867280960083008e-01 -1.589724570512771606e-01 8.046928793191909790e-03 -3.958489687647670507e-04 -3.053529188036918640e-02
1.100196167826652527e-01 -4.572801291942596436e-01 -4.686608910560607910e-02 8.842471870593726635e-04 2.184439264237880707e-02 4.957845434546470642e-02 8.211195468902587891e-02 7.714591175317764282e-02 -3.605860844254493713e-02 2.396144866943359375e-01 6.313072890043258667e-02 -1.014435663819313049e-02 -1.167098525911569595e-02 -1.697111427783966064e-01 8.458939194679260254e-02 2.677869796752929688e-01 -3.179333209991455078e-01 -3.302158787846565247e-02 1.123376116156578064e-01 2.623724378645420074e-02 2.039236277341842651e-01 3.939391970634460449e-01 -1.698703877627849579e-02 -2.276905812323093414e-02 2.811202406883239746e-01 4.065141826868057251e-02 -1.028802841901779175e-01 5.451392009854316711e-02 -2.169922553002834320e-02 -3.215245157480239868e-02 3.713893005624413490e-03 -4.681033082306385040e-03 1.272446811199188232e-01 -2.092800438404083252e-01 -8.404555916786193848e-02 -4.098150506615638733e-02 1.053314730525016785e-01 -2.962607145309448242e-02 1.391397863626480103e-01 -2.600095868110656738e-01 -1.702678389847278595e-02 1.948210000991821289e-01 -1.385642886161804199e-01 2.665255963802337646e-01 -2.104051113128662109e-01 -1.098896041512489319e-01 1.707948744297027588e-01 -9.932683780789375305e-03 9.707948565483093262e-02 1.085512116551399231e-01 6.959445029497146606e-02 -2.629346847534179688e-01 5.150957405567169189e-02 -5.191260576248168945e-02 2.850757837295532227e-01 -1.981646865606307983e-01 -2.294382452964782715e-01 1.703797578811645508e-01 -2.036798894405364990e-01 1.563040568726137280e-04 -6.122037395834922791e-02 -2.761787362396717072e-02 -5.241618305444717407e-02 -2.176298797130584717e-01 -9.078720211982727051e-02 -3.159250831231474876e-03 -1.521817990578711033e-03 2.595294415950775146e-01 1.916396766901016235e-01 -1.215343028306961060e-01 -3.297652602195739746e-01 -1.598708145320415497e-02 2.095839530229568481e-01 3.073163628578186035e-01 2.916561663150787354e-01 1.298467963933944702e-01 8.781266957521438599e-02 1.165321990847587585e-01 1.129362061619758606e-01 1.084631122648715973e-02
1.028950363397598267e-01 -1.964401453733444214e-01 -6.089385715313255787e-04 1.053474657237529755e-02 1.941006034612655640e-01 -1.637076493352651596e-03 1.311428099870681763e-01 -2.843590378761291504e-01 1.146509796380996704e-01 1.030116751790046692e-01 -3.653284534811973572e-02 -1.770554035902023315e-01 1.472136676311492920e-01 1.428375244140625000e-01 -1.278683692216873169e-01 -4.132097959518432617e-02 -6.127570569515228271e-02 3.033940196037292480e-01 -2.184114605188369751e-02 -1.746142469346523285e-02 -2.110247015953063965e-01 1.589892059564590454e-02 2.750354409217834473e-01 1.640186905860900879e-01 -1.190714910626411438e-02 1.085740104317665100e-01 -2.165201455354690552e-01 1.720885783433914185e-01 -1.580694019794464111e-01 -2.928156033158302307e-02 -2.919358201324939728e-02 1.107509210705757141e-01 7.499180734157562256e-02 -1.276844441890716553e-01 -2.192269414663314819e-01 1.246070582419633865e-02 -2.660225331783294678e-01 7.529938966035842896e-02 1.122041568160057068e-01 -2.262890934944152832e-01 -3.923876211047172546e-02 -2.330135740339756012e-02 -3.316189721226692200e-02 2.029232233762741089e-01 -5.732679739594459534e-02 -2.157042771577835083e-01 -3.852789849042892456e-02 6.004392355680465698e-02 8.520499616861343384e-02 8.197202533483505249e-02 -1.032991483807563782e-01 -9.683737158775329590e-02 2.066587060689926147e-01 4.698760062456130981e-02 -7.661185413599014282e-02 -2.058751732110977173e-01 -8.853150904178619385e-02 7.440701127052307129e-02 1.668041758239269257e-02 -9.997527301311492920e-02 3.202804327011108398e-01 -4.384205862879753113e-02 4.456550627946853638e-02 -1.739407032728195190e-01 -1.751721054315567017e-01 -4.941661283373832703e-02 2.061880379915237427e-01 1.544038504362106323e-01 1.623696386814117432e-01 -3.418800532817840576e-01 -8.248098939657211304e-02 -1.260274350643157959e-01 4.183931052684783936e-01 7.858958840370178223e-02 1.437681633979082108e-02 6.428214255720376968e-04 -5.177119374275207520e-02 1.810439676046371460e-01 -1.249132975935935974e-01 -1.725145429372787476e-02
2.130029797554016113e-01 -2.806672155857086182e-01 -2.693521976470947266e-01 2.133499085903167725e-01 2.173354327678680420e-01 -2.486986666917800903e-01 -1.547691524028778076e-01 -1.870890110731124878e-01 1.881815642118453979e-01 1.881261616945266724e-01 -7.931984961032867432e-02 2.769321948289871216e-02 8.036325126886367798e-02 -4.203662648797035217e-02 2.025069855153560638e-02 2.373472154140472412e-01 -3.829493746161460876e-02 -3.149602115154266357e-01 -3.436294496059417725e-01 3.736926987767219543e-02 -2.105920463800430298e-01 1.897552162408828735e-01 -3.568947315216064453e-01 1.069178506731987000e-01 -3.798786923289299011e-02 3.065816462039947510e-01 -1.114263609051704407e-01 -1.105562001466751099e-01 8.661207556724548340e-02 -2.483454197645187378e-01 1.610636711120605469e-01 -1.578633636236190796e-01 -1.569894999265670776e-01 1.155231222510337830e-01 -1.495960205793380737e-01 1.594933718442916870e-01 -1.833823770284652710e-01 -1.477632224559783936e-01 3.348625898361206055e-01 1.611407995223999023e-01 -2.135514914989471436e-01 3.219517469406127930e-01 -1.672347337007522583e-01 -2.245324552059173584e-01 -8.132978342473506927e-03 -8.482309430837631226e-02 3.438128158450126648e-02 -1.546329408884048462e-01 -1.587478369474411011e-01 -2.051195055246353149e-01 -1.826608330011367798e-01 -3.783275559544563293e-02 1.847513318061828613e-01 -1.103692222386598587e-02 1.265136152505874634e-01 -1.241940632462501526e-01 -1.165997311472892761e-01 1.682346314191818237e-02 -2.732160389423370361e-01 -7.746323198080062866e-02 4.618015140295028687e-02 -1.218070834875106812e-01 1.554964017122983932e-02 1.052755862474441528e-01 -8.844503015279769897e-02 -3.028728365898132324e-01 1.329932063817977905e-01 -1.045799478888511658e-01 -5.746490880846977234e-02 1.793072670698165894e-01 -7.507215440273284912e-02 7.261525094509124756e-02 -3.124242722988128662e-01 -7.793611381202936172e-03 -2.216861695051193237e-01 -1.981858015060424805e-01 4.787038639187812805e-02 9.706220775842666626e-02 -3.180449604988098145e-01 2.252402007579803467e-01
4.691678658127784729e-02 -3.612186014652252197e-01 -2.918424606323242188e-01 -8.646238595247268677e-02 2.765496969223022461e-01 1.021074578166007996e-01 5.080775171518325806e-02 2.065603286027908325e-01 4.980606213212013245e-02 2.228423058986663818e-01 -2.273389548063278198e-01 -2.110567688941955566e-01 5.446543917059898376e-02 -2.083779424428939819e-01 -2.865782380104064941e-01 -2.571914792060852051e-01 2.076046615839004517e-01 2.235089614987373352e-02 -7.666027173399925232e-03 -3.964165151119232178e-01 -2.875555753707885742e-01 -8.474493771791458130e-02 -1.676912158727645874e-01 -2.134380638599395752e-01 -1.420149356126785278e-01 6.071983277797698975e-02 1.179099828004837036e-01 -2.011687867343425751e-02 -8.799363672733306885e-02 1.959957778453826904e-01 -6.634919345378875732e-02 -1.425341516733169556e-01 2.975627407431602478e-02 3.094083368778228760e-01 2.049396047368645668e-03 -4.871845617890357971e-02 1.495874077081680298e-01 3.903924524784088135e-01 -2.837395668029785156e-01 -2.842626348137855530e-02 4.027911461889743805e-03 -3.018341958522796631e-01 -2.802911587059497833e-02 -2.528344094753265381e-02 -2.359718084335327148e-02 -1.909795403480529785e-01 -2.335895150899887085e-01 4.973448067903518677e-02 6.482094526290893555e-02 8.005555719137191772e-02 -2.239324897527694702e-02 1.168139372020959854e-02 -1.747663132846355438e-02 8.392364531755447388e-02 2.100378274917602539e-01 1.377286016941070557e-01 1.762421429157257080e-01 4.391990974545478821e-02 3.070044144988059998e-02 1.059247031807899475e-01 1.904015094041824341e-01 1.858284175395965576e-01 1.512864828109741211e-01 -3.532796725630760193e-02 -4.469422250986099243e-02 1.322436612099409103e-03 7.869686186313629150e-02 2.139062136411666870e-01 -1.094357967376708984e-01 2.891378104686737061e-01 -1.531421393156051636e-01 -1.142437756061553955e-01 -9.523524343967437744e-02 1.302167475223541260e-01 2.439386956393718719e-02 7.906227558851242065e-02 1.515866070985794067e-01 1.150027066469192505e-01 -9.970577061176300049e-02 -5.047467350959777832e-02
-2.714342772960662842e-01 4.015345498919487000e-02 1.394902765750885010e-01 1.371050328016281128e-01 2.551995813846588135e-01 -3.739406168460845947e-02 -3.782976418733596802e-02 2.139626294374465942e-01 -9.698928147554397583e-02 1.378398984670639038e-01 1.252995729446411133e-01 -2.029868811368942261e-01 5.477373674511909485e-02 8.773794770240783691e-02 -3.447592258453369141e-02 9.792076796293258667e-02 8.543393760919570923e-02 2.171479761600494385e-01 1.903504431247711182e-01 -9.796614199876785278e-02 3.005508780479431152e-01 -1.663308888673782349e-01 -1.978978961706161499e-01 -6.024331599473953247e-02 2.947065234184265137e-01 -1.196468621492385864e-01 -2.161798253655433655e-02 2.266141176223754883e-01 9.391456842422485352e-02 8.907405287027359009e-02 -1.645266413688659668e-01 -1.293881563469767570e-03 -2.968607246875762939e-01 1.404247581958770752e-01 1.431954950094223022e-01 2.085826545953750610e-01 -2.249285345897078514e-03 -1.323108226060867310e-01 5.112649500370025635e-02 1.607628352940082550e-02 2.586036548018455505e-02 2.198584079742431641e-01 6.362616270780563354e-02 -1.705840528011322021e-01 4.696242883801460266e-02 -3.805025666952133179e-02 -1.582594215869903564e-01 -2.328208833932876587e-01 -1.630835533142089844e-01 1.469354983419179916e-02 2.216836810111999512e-02 1.774641722440719604e-01 -1.424478590488433838e-01 -1.197176575660705566e-01 2.755616009235382080e-01 -4.113245382905006409e-02 -8.111683279275894165e-02 8.578978478908538818e-03 -9.524284541839733720e-05 2.287219315767288208e-01 2.935871481895446777e-01 1.925118565559387207e-01 -1.138096004724502563e-01 3.728004172444343567e-02 -2.511962354183197021e-01 -1.739483326673507690e-02 -5.969472602009773254e-02 2.450885996222496033e-02 1.582430675625801086e-02 6.307841092348098755e-02 -2.175846993923187256e-01 1.774831861257553101e-01 -1.403429657220840454e-01 -1.704466938972473145e-01 -3.833922371268272400e-02 8.487159758806228638e-02 2.357165068387985229e-01 6.245484575629234314e-03 2.179775536060333252e-01 -1.514358371496200562e-01
6.875057518482208252e-02 -8.040863275527954102e-02 -7.414650171995162964e-02 3.291749954223632812e-01 1.438756138086318970e-01 2.940466441214084625e-02 -2.166646160185337067e-02 6.273804605007171631e-02 9.857857972383499146e-02 7.942409068346023560e-02 -1.100789383053779602e-01 -8.666594326496124268e-02 -1.433364450931549072e-01 2.101163715124130249e-01 -2.443300485610961914e-01 1.250429917126893997e-02 7.081318646669387817e-02 1.726366579532623291e-01 -1.069802045822143555e-02 -3.110870122909545898e-01 -2.148651517927646637e-02 -2.828920781612396240e-01 2.875721752643585205e-01 -2.017247378826141357e-01 -1.397480722516775131e-03 -1.017702892422676086e-01 -1.786710321903228760e-01 3.210265338420867920e-01 2.221510261297225952e-01 5.484353750944137573e-02 -1.436736881732940674e-01 2.854669466614723206e-02 -3.201992809772491455e-01 -1.668721139430999756e-01 -1.766291409730911255e-01 -2.083267122507095337e-01 1.594125032424926758e-01 1.957590691745281219e-02 5.790432542562484741e-02 -3.307025134563446045e-01 2.878833413124084473e-01 1.545459330081939697e-01 -2.774154543876647949e-01 -2.649243175983428955e-02 6.584515795111656189e-03 -1.028144508600234985e-01 -4.891122877597808838e-02 -6.576948612928390503e-02 -1.502047777175903320e-01 -3.170450776815414429e-02 2.806918881833553314e-02 -8.356725424528121948e-02 1.526588350534439087e-01 -2.476581037044525146e-01 7.702328264713287354e-02 2.689573466777801514e-01 -5.701009929180145264e-02 -1.883911527693271637e-02 -1.319683194160461426e-01 8.147103339433670044e-02 1.863354444503784180e-01 -1.837967783212661743e-01 -3.269923035986721516e-04 2.447289377450942993e-01 -1.730799376964569092e-01 2.044208198785781860e-01 -8.406694233417510986e-02 1.477836072444915771e-01 4.667366296052932739e-02 -8.862842619419097900e-02 -9.223368018865585327e-02 2.963792532682418823e-02 3.559022024273872375e-02 -2.236024290323257446e-02 1.705964356660842896e-01 1.259707286953926086e-02 -1.602799147367477417e-01 -3.440629318356513977e-02 -2.253021001815795898e-01 1.848873496055603027e-01
-8.268388360738754272e-02 1.905084773898124695e-02 -8.978253602981567383e-02 1.503607928752899170e-01 -4.014524165540933609e-03 1.728191375732421875e-01 3.981022909283638000e-02 -2.400709390640258789e-01 -1.113236173987388611e-01 -3.178618103265762329e-02 8.943325839936733246e-03 2.223018109798431396e-01 1.249389946460723877e-01 3.631253540515899658e-02 -1.299798488616943359e-01 -7.093417458236217499e-03 -1.616158634424209595e-01 2.822005152702331543e-01 -1.761750578880310059e-01 4.052840173244476318e-02 9.208322502672672272e-03 -5.271526519209146500e-03 1.105686724185943604e-01 3.000240921974182129e-01 -2.733318507671356201e-01 2.703216392546892166e-03 1.566406786441802979e-01 5.840512365102767944e-02 -1.197921577841043472e-02 -1.896428316831588745e-01 5.202714353799819946e-02 -1.270748861134052277e-02 8.566194772720336914e-02 1.358496546745300293e-01 2.088070213794708252e-01 1.178274527192115784e-01 3.342504380270838737e-03 1.762505918741226196e-01 -2.361321747303009033e-01 -1.956313401460647583e-01 -4.046510905027389526e-02 -6.648023426532745361e-02 1.857868134975433350e-01 1.321431547403335571e-01 2.030135504901409149e-02 -1.593775600194931030e-01 1.319851167500019073e-02 1.660680323839187622e-01 -2.833583354949951172e-01 -1.184583902359008789e-01 -8.046782761812210083e-02 2.684007883071899414e-01 2.023860216140747070e-01 -3.529436588287353516e-01 -1.737929880619049072e-01 -6.985277682542800903e-02 -1.459566056728363037e-01 8.225487917661666870e-02 -1.667899894528090954e-03 2.553404271602630615e-01 -1.508423835039138794e-01 1.784800589084625244e-01 -1.147832721471786499e-01 -8.523117005825042725e-02 1.300041824579238892e-01 -2.691130042076110840e-01 -1.585787907242774963e-02 -2.497047036886215210e-01 9.085343033075332642e-02 1.051751710474491119e-02 3.328893184661865234e-01 1.435053534805774689e-03 3.025415539741516113e-01 -1.810876429080963135e-01 2.189467102289199829e-01 2.281015366315841675e-01 -3.002268373966217041e-01 1.491957753896713257e-01 1.394241750240325928e-01 6.960759870707988739e-03
-4.429874196648597717e-02 1.202519685029983521e-01 2.654173970222473145e-01 -1.959578245878219604e-01 -1.156399920582771301e-01 3.483288921415805817e-03 5.557844415307044983e-02 -1.543556153774261475e-01 -1.370233744382858276e-01 -4.717438668012619019e-02 3.376068547368049622e-02 -1.292976178228855133e-02 9.979044646024703979e-02 2.169481851160526276e-02 -2.646752893924713135e-01 -2.505231797695159912e-01 2.460714876651763916e-01 2.184059023857116699e-01 -6.416495144367218018e-02 1.856537759304046631e-01 8.856216073036193848e-02 -2.049016067758202553e-03 1.925109326839447021e-01 -5.814293399453163147e-02 1.945886015892028809e-01 1.152145862579345703e-02 -6.898826360702514648e-02 2.411362379789352417e-01 2.612086832523345947e-01 -3.516379743814468384e-02 1.902169138193130493e-01 2.273591160774230957e-01 -3.649782836437225342e-01 2.824193984270095825e-02 -1.130811646580696106e-01 2.467154115438461304e-01 1.003480609506368637e-02 -4.735457769129425287e-04 -2.958954870700836182e-01 -9.229932725429534912e-02 -5.905383080244064331e-02 -2.913788557052612305e-01 -2.514483034610748291e-02 3.769689202308654785e-01 2.916540503501892090e-01 -1.952971071004867554e-01 -1.651394367218017578e-02 5.760418623685836792e-02 2.718950994312763214e-02 -1.545864045619964600e-01 3.541842997074127197e-01 1.216663494706153870e-01 -1.231504753232002258e-01 1.598939001560211182e-01 2.939527854323387146e-02 -8.064117282629013062e-02 2.277177423238754272e-01 -1.769704222679138184e-01 -8.533174544572830200e-02 -1.249164119362831116e-01 8.066306263208389282e-02 -1.519890725612640381e-01 1.036264672875404358e-01 -2.811630666255950928e-01 -1.857962757349014282e-01 1.618635207414627075e-01 -2.851592842489480972e-03 -2.306109108030796051e-02 2.586933076381683350e-01 1.638914346694946289e-01 1.138576120138168335e-01 -1.040646731853485107e-01 2.492980211973190308e-01 2.301074117422103882e-01 -1.909212470054626465e-01 1.993840374052524567e-02 2.863616123795509338e-02 -1.122611612081527710e-01 -1.727929413318634033e-01 -2.143566757440567017e-01
-1.311276257038116455e-01 3.026591055095195770e-02 1.951591819524765015e-01 1.260292977094650269e-01 1.080182194709777832e-02 2.164599299430847168e-01 -2.333534061908721924e-01 1.349044777452945709e-02 -6.907095015048980713e-02 2.772040665149688721e-02 1.076137796044349670e-01 3.182690963149070740e-02 -2.700520157814025879e-01 3.600996732711791992e-01 1.973218768835067749e-01 1.931018680334091187e-01 -1.261342763900756836e-01 1.550953835248947144e-01 4.331474006175994873e-02 3.932343795895576477e-02 3.742377460002899170e-01 -2.072704136371612549e-01 2.015017159283161163e-02 -1.211994364857673645e-01 -2.142565697431564331e-01 7.366561144590377808e-02 3.471840405836701393e-03 -1.118491888046264648e-01 4.682160913944244385e-02 2.196338176727294922e-01 -8.999777585268020630e-02 2.252629585564136505e-02 2.792550921440124512e-01 -1.442754268646240234e-01 2.330601513385772705e-01 -1.952756494283676147e-01 1.930663436651229858e-01 8.502189815044403076e-02 8.127748966217041016e-02 4.759737476706504822e-02 -4.241971299052238464e-02 -5.243771523237228394e-02 -2.668817937374114990e-01 1.006283834576606750e-01 -1.689144670963287354e-01 4.104188457131385803e-02 2.346415668725967407e-01 2.315534353256225586e-01 -7.364045828580856323e-02 -1.256166696548461914e-01 2.069063931703567505e-01 3.073203563690185547e-01 -3.263303637504577637e-01 -2.796905934810638428e-01 -1.994858682155609131e-01 -8.468119800090789795e-02 -6.659943610429763794e-02 -6.148502603173255920e-02 2.494953386485576630e-02 9.336737543344497681e-02 -3.054082207381725311e-02 -1.814197003841400146e-01 1.727040410041809082e-01 -1.818932890892028809e-01 4.239658266305923462e-02 -1.183793768286705017e-01 -2.408702820539474487e-01 4.815947636961936951e-02 9.680216200649738312e-03 1.839747428894042969e-01 -5.182648822665214539e-02 -8.912248164415359497e-02 -2.087436318397521973e-01 -2.958896756172180176e-02 5.152801051735877991e-02 -1.626078188419342041e-01 -4.666960239410400391e-02 -3.115578554570674896e-03 -3.100170791149139404e-01 4.869742318987846375e-02
2.771975994110107422e-01 9.326595813035964966e-02 8.685626089572906494e-04 -3.163626492023468018e-01 -6.568104773759841919e-02 5.521768331527709961e-02 1.114064902067184448e-01 -4.087114632129669189e-01 1.401623636484146118e-01 2.195641100406646729e-01 -1.365228146314620972e-01 3.377569839358329773e-02 2.649334669113159180e-01 -4.562723636627197266e-02 -4.010545015335083008e-01 -6.227374076843261719e-02 -2.627577185630798340e-01 4.122151061892509460e-02 1.326902359724044800e-01 4.749475046992301941e-02 -5.446286126971244812e-02 1.946347802877426147e-01 1.096641346812248230e-01 8.439630270004272461e-02 -3.850817680358886719e-02 -1.007575839757919312e-01 1.091446354985237122e-01 2.755066156387329102e-01 -1.513895541429519653e-01 -8.181253820657730103e-02 -2.622915059328079224e-02 6.696026027202606201e-02 1.631212085485458374e-01 9.124728292226791382e-02 3.132818043231964111e-01 -1.569716334342956543e-01 5.818224325776100159e-02 4.158542454242706299e-01 -1.425710469484329224e-01 2.353905588388442993e-01 9.793573617935180664e-02 3.868289291858673096e-02 -1.667972952127456665e-01 -2.693659812211990356e-02 -6.687571853399276733e-02 3.179480433464050293e-01 1.860696971416473389e-01 3.889819234609603882e-02 -1.350280791521072388e-01 4.243207871913909912e-01 -3.502691984176635742e-01 1.139105036854743958e-01 2.498131990432739258e-02 6.842304021120071411e-02 -9.579113125801086426e-02 2.548157274723052979e-01 -1.581337749958038330e-01 9.764060378074645996e-03 1.763391494750976562e-01 1.896689236164093018e-01 -2.827179431915283203e-01 4.257643222808837891e-02 8.279868960380554199e-02 -1.937180459499359131e-01 -2.497694082558155060e-02 -3.229973092675209045e-02 -1.610149815678596497e-02 -1.260397583246231079e-01 -1.381602436304092407e-01 2.157250046730041504e-01 6.968299299478530884e-02 4.137816652655601501e-02 3.144049346446990967e-01 5.304858554154634476e-03 9.268008172512054443e-03 -3.059938549995422363e-01 -2.937787175178527832e-01 2.073829025030136108e-01 -1.062143072485923767e-01 4.617182537913322449e-02
3.304529488086700439e-01 -2.233048528432846069e-01 -3.323503583669662476e-02 1.030528619885444641e-01 -1.187874153256416321e-01 -2.106034606695175171e-01 -1.067884638905525208e-01 2.308019623160362244e-02 -9.456961601972579956e-02 -2.264095470309257507e-02 -1.231910437345504761e-01 7.127220928668975830e-02 -2.359129488468170166e-02 8.895707875490188599e-02 -2.628989815711975098e-01 -2.968643605709075928e-01 -1.507986783981323242e-01 7.066521793603897095e-02 5.895425751805305481e-02 1.030801162123680115e-01 5.139108002185821533e-02 -2.399110980331897736e-02 -1.119085028767585754e-01 7.672179490327835083e-02 1.775736175477504730e-02 -8.824333548545837402e-02 1.320416033267974854e-01 1.701657623052597046e-01 -1.784686148166656494e-01 3.164519071578979492e-01 -2.515531182289123535e-01 2.848996408283710480e-02 9.838972240686416626e-02 -1.945766657590866089e-01 -9.255477041006088257e-02 7.117801904678344727e-02 -1.150244474411010742e-01 -6.415916979312896729e-02 5.659424513578414917e-02 7.121988572180271149e-03 -1.291308254003524780e-01 -9.541567414999008179e-02 -3.865426480770111084e-01 -2.581460177898406982e-01 -2.739360742270946503e-02 -4.077788293361663818e-01 -1.736038476228713989e-01 1.588554084300994873e-01 2.556195296347141266e-02 -9.335536742582917213e-04 -4.047135263681411743e-02 2.659598290920257568e-01 1.234727501869201660e-01 -1.822763979434967041e-01 -1.105657145380973816e-01 2.474193125963211060e-01 -1.306454371660947800e-02 -1.659761965274810791e-01 -3.168032765388488770e-01 1.138464361429214478e-01 5.507743358612060547e-02 2.425353527069091797e-01 -1.504002511501312256e-01 -2.311689108610153198e-01 -6.678963452577590942e-02 1.906520575284957886e-01 -3.453102707862854004e-02 1.100563630461692810e-01 8.805586397647857666e-02 2.351895123720169067e-01 4.924269765615463257e-02 -5.608743801712989807e-02 -1.913612186908721924e-01 4.092351719737052917e-02 -1.912242919206619263e-02 -1.442694216966629028e-01 -1.083199158310890198e-01 -2.445179075002670288e-01 1.207027137279510498e-01 -1.339809298515319824e-01
-3.253481388092041016e-01 2.672182917594909668e-01 -6.542926281690597534e-02 2.810695469379425049e-01 -1.882754266262054443e-02 1.472061425447463989e-01 -2.796622514724731445e-01 -7.867254316806793213e-02 4.431991651654243469e-02 -5.836912989616394043e-02 8.705088496208190918e-02 -8.183818310499191284e-02 -2.507912218570709229e-01 1.396012157201766968e-01 7.592514157295227051e-02 -1.126043125987052917e-01 -2.483871877193450928e-01 1.223569437861442566e-01 2.286227792501449585e-02 1.212395355105400085e-02 1.658948212862014771e-01 -2.256886661052703857e-01 9.194552898406982422e-02 -1.182326599955558777e-01 -8.004577457904815674e-02 -5.756035074591636658e-02 -4.816635698080062866e-02 -2.892637550830841064e-01 -2.185275033116340637e-02 -2.439314723014831543e-01 1.168231014162302017e-02 2.547411024570465088e-01 -4.841950256377458572e-03 3.519476056098937988e-01 -3.213851749897003174e-01 3.613489493727684021e-02 1.383391022682189941e-01 -6.780567346140742302e-04 -4.433997720479965210e-02 5.376704968512058258e-03 -1.180373877286911011e-01 4.505013301968574524e-02 -1.486908048391342163e-01 -2.129572033882141113e-01 2.035276442766189575e-01 6.739836186170578003e-02 1.218517497181892395e-01 -1.069154068827629089e-01 8.308473229408264160e-02 -1.254977434873580933e-01 3.371985554695129395e-01 2.774219028651714325e-02 1.172031089663505554e-02 -1.520822346210479736e-01 3.004410266876220703e-01 -3.226303160190582275e-01 3.636903464794158936e-01 6.007634510751813650e-05 -5.068932846188545227e-02 -1.163270696997642517e-01 -2.232299558818340302e-02 2.250728197395801544e-02 -1.467271447181701660e-01 -3.811916708946228027e-02 1.852635294198989868e-01 5.048971995711326599e-02 -6.873873621225357056e-02 2.690783739089965820e-01 -3.496980527415871620e-03 -2.242780774831771851e-01 3.278998658061027527e-02 3.231415897607803345e-02 -8.771721273660659790e-02 7.603120803833007812e-02 -3.676217049360275269e-02 -1.084459275007247925e-01 1.538295997306704521e-03 2.850799560546875000e-01 -2.082977592945098877e-01 -1.374404579401016235e-01
-5.316757410764694214e-02 6.651034206151962280e-02 2.033636718988418579e-01 1.480587124824523926e-01 -1.033417787402868271e-02 -1.364874988794326782e-01 2.235236018896102905e-01 1.529312133789062500e-02 -2.518656849861145020e-01 -2.967910766601562500e-01 -2.953473627567291260e-01 3.394995331764221191e-01 -2.057673037052154541e-01 4.873906821012496948e-02 -1.181030794978141785e-01 5.517975240945816040e-02 2.968085929751396179e-02 -1.020070258527994156e-02 6.168602849356830120e-04 1.003631278872489929e-01 -7.367792725563049316e-02 2.346136048436164856e-02 -1.689800173044204712e-01 -1.336402259767055511e-02 -2.698521614074707031e-01 2.567714080214500427e-03 -1.918846219778060913e-01 -5.627756565809249878e-02 -3.959773480892181396e-02 -1.588519364595413208e-01 -1.093280594795942307e-02 2.039366960525512695e-01 2.420926392078399658e-01 -1.643407158553600311e-02 2.711112499237060547e-01 1.745590120553970337e-01 -5.877958983182907104e-02 6.463409215211868286e-02 -2.864599227905273438e-02 -1.238136738538742065e-02 1.599917188286781311e-02 -6.058129365555942059e-04 -3.139012551400810480e-04 8.714731782674789429e-02 -1.038177404552698135e-02 -6.580790504813194275e-03 -2.990385890007019043e-02 -2.336545735597610474e-01 1.229168176651000977e-01 1.137959137558937073e-01 8.667457848787307739e-03 -2.882346808910369873e-01 2.190085500478744507e-02 2.195485234260559082e-01 -2.160730026662349701e-02 1.073981970548629761e-01 1.613460332155227661e-01 -1.813524663448333740e-01 6.207957863807678223e-02 -3.235813975334167480e-01 -1.757514774799346924e-01 1.397766768932342529e-01 -3.327217102050781250e-01 -7.903628796339035034e-02 -2.863597571849822998e-01 2.848941832780838013e-02 -2.601528167724609375e-01 -2.833801805973052979e-01 7.469302415847778320e-02 -1.920748800039291382e-01 -3.285342454910278320e-01 -1.088060140609741211e-01 -4.250697046518325806e-02 -1.448855102062225342e-01 -1.665652394294738770e-01 -2.190644294023513794e-01 5.545194819569587708e-02 -3.463671207427978516e-01 1.686365455389022827e-01 -8.124509453773498535e-02
1.036221813410520554e-02 -1.519997119903564453e-01 1.884012520313262939e-01 1.486001815646886826e-02 -9.768493473529815674e-02 2.484539449214935303e-01 1.762239485979080200e-01 -3.642638325691223145e-01 -3.530706837773323059e-02 -1.834098100662231445e-01 2.783301472663879395e-01 -3.117215819656848907e-02 -7.794713228940963745e-02 -1.504612863063812256e-01 -4.379813745617866516e-02 6.195612717419862747e-03 -5.456244572997093201e-03 -3.445029854774475098e-01 -8.937284350395202637e-02 4.993181675672531128e-02 2.336183339357376099e-01 -3.960030898451805115e-02 -3.241340219974517822e-01 2.317074835300445557e-01 -2.751862406730651855e-01 -1.365774571895599365e-01 1.457067131996154785e-01 1.728533506393432617e-01 -8.925365284085273743e-03 1.699420064687728882e-01 3.241446614265441895e-01 2.624002993106842041e-01 2.768483385443687439e-02 -2.131365090608596802e-01 -1.710805296897888184e-01 3.661044538021087646e-01 3.246555328369140625e-01 -1.560506075620651245e-01 2.003439962863922119e-01 -1.801253110170364380e-01 2.556331753730773926e-01 -1.752772629261016846e-01 1.776464730501174927e-01 2.046720534563064575e-01 -2.121815532445907593e-01 -2.295406758785247803e-01 -2.311321645975112915e-01 -3.090498223900794983e-02 3.874102607369422913e-02 8.382741361856460571e-02 -3.221985697746276855e-02 -1.838153153657913208e-01 1.461110860109329224e-01 -8.758404105901718140e-02 -1.474626511335372925e-01 -8.777565509080886841e-02 -7.169069349765777588e-02 2.366340458393096924e-01 8.064187318086624146e-02 3.458375632762908936e-01 3.107895329594612122e-02 2.040580287575721741e-02 -1.352283358573913574e-01 -3.795561790466308594e-01 2.996866703033447266e-01 3.195333182811737061e-01 1.225453987717628479e-01 -1.209885254502296448e-01 -1.858052611351013184e-02 9.341098368167877197e-03 -1.685958653688430786e-01 2.081693559885025024e-01 9.447190910577774048e-02 -6.825255230069160461e-03 2.912057638168334961e-01 -1.414546817541122437e-01 1.801925897598266602e-01 3.397890925407409668e-02 -1.916219145059585571e-01 -1.021369397640228271e-01
2.086933553218841553e-01 3.224488347768783569e-02 7.541406899690628052e-02 -1.890504360198974609e-01 4.769888147711753845e-02 -4.337812215089797974e-02 -1.183311268687248230e-01 -7.675797492265701294e-02 -1.217064931988716125e-01 -4.635250940918922424e-02 -2.916206419467926025e-01 1.072354763746261597e-01 4.377773776650428772e-02 -2.495209723711013794e-01 3.175587654113769531e-01 2.215076684951782227e-01 -1.224979534745216370e-01 2.961531467735767365e-02 1.489512622356414795e-01 -1.176663711667060852e-01 2.309593744575977325e-02 9.187319129705429077e-02 -7.135971635580062866e-02 1.115790233016014099e-01 1.046397611498832703e-01 9.068055450916290283e-02 1.120149195194244385e-01 2.609749138355255127e-01 -5.750676244497299194e-02 1.935801059007644653e-01 2.606936991214752197e-01 4.184154793620109558e-02 3.746334463357925415e-02 2.709995508193969727e-01 -3.333241343498229980e-01 -9.850131720304489136e-02 1.966193020343780518e-01 -7.909368723630905151e-02 -1.588940322399139404e-01 2.237199842929840088e-01 4.127449169754981995e-02 -2.438560128211975098e-01 4.398977756500244141e-02 1.396736055612564087e-01 -2.561697959899902344e-01 -1.320201605558395386e-01 -3.014452941715717316e-02 2.747520506381988525e-01 1.118490565568208694e-02 5.631491914391517639e-02 2.826792001724243164e-01 -2.266167849302291870e-01 1.380525827407836914e-01 -3.680979311466217041e-01 -1.495963782072067261e-01 -5.348446778953075409e-03 1.688814163208007812e-01 3.998883441090583801e-02 4.335749894380569458e-03 1.168882381170988083e-02 -2.018349245190620422e-02 1.430058181285858154e-01 -3.296459317207336426e-01 -8.721461892127990723e-02 1.826058514416217804e-02 -1.079617664217948914e-01 2.286122888326644897e-01 1.112996041774749756e-02 1.443178951740264893e-02 -1.134670823812484741e-01 -3.345362097024917603e-02 -1.703957170248031616e-01 1.064662858843803406e-01 -2.912587821483612061e-01 -1.245569512248039246e-01 -3.183864057064056396e-01 -2.413268759846687317e-02 1.024186685681343079e-01 2.730294317007064819e-02 -1.657628454267978668e-02
-6.667526066303253174e-02 7.990924268960952759e-02 -1.336083561182022095e-01 2.459417581558227539e-01 -1.448722630739212036e-01 -1.289761066436767578e-01 -7.251468952745199203e-03 -6.518303882330656052e-03 4.673603922128677368e-02 6.254298239946365356e-02 -2.090719938278198242e-01 3.919610381126403809e-01 -1.813064068555831909e-01 -2.366579025983810425e-01 -4.066135361790657043e-02 2.768453359603881836e-01 1.550406217575073242e-01 1.796274073421955109e-02 1.151120290160179138e-02 1.417394727468490601e-01 7.203487306833267212e-02 -1.293166577816009521e-01 -1.240777373313903809e-01 3.605472296476364136e-02 1.142083853483200073e-01 -5.195816978812217712e-02 -1.972203701734542847e-01 2.129329591989517212e-01 -4.367960616946220398e-02 -2.472033165395259857e-02 -1.555126160383224487e-01 8.475448936223983765e-02 -7.653052359819412231e-02 -1.289114207029342651e-01 -4.515134915709495544e-02 2.959563732147216797e-01 1.662302464246749878e-01 2.105255722999572754e-01 4.815826192498207092e-02 2.646433413028717041e-01 -1.053034588694572449e-01 7.634814083576202393e-02 -1.174613535404205322e-01 -1.809369176626205444e-01 1.893278211355209351e-01 -1.485174801200628281e-02 -4.050127416849136353e-02 1.054987534880638123e-01 -2.999143116176128387e-02 2.096884399652481079e-01 3.530251085758209229e-01 -2.149211466312408447e-01 5.618585646152496338e-02 3.083440661430358887e-02 1.868522167205810547e-01 7.772230356931686401e-02 -1.446646451950073242e-01 3.298852145671844482e-01 1.449158340692520142e-01 -2.249998450279235840e-01 -2.804855406284332275e-01 3.536694943904876709e-01 3.242744803428649902e-01 8.057541400194168091e-02 -4.313836991786956787e-02 1.548443436622619629e-01 1.736475080251693726e-01 -1.644377559423446655e-01 -1.651058793067932129e-01 -7.932762801647186279e-02 -3.196571171283721924e-01 -1.325440872460603714e-02 1.577406227588653564e-01 9.368547797203063965e-02 -3.571468219161033630e-02 -1.291020214557647705e-01 2.582629024982452393e-01 -7.888224720954895020e-02 -3.310726284980773926e-01 2.744507491588592529e-01
1.623032838106155396e-01 2.662793993949890137e-01 1.117632836103439331e-01 -2.340299189090728760e-01 1.562877148389816284e-01 8.741774410009384155e-02 -6.271228194236755371e-02 6.471776962280273438e-02 -2.995146904140710831e-03 1.430218815803527832e-01 4.886035993695259094e-02 -2.630755901336669922e-01 -3.703804395627230406e-04 -3.624343127012252808e-02 -3.156279027462005615e-01 -4.906046390533447266e-02 2.566696202848106623e-04 8.137806504964828491e-02 4.073989689350128174e-01 -6.818408519029617310e-02 3.328365981578826904e-01 1.087878718972206116e-01 -6.786233186721801758e-02 -3.706575632095336914e-01 -2.930711805820465088e-01 -1.091211661696434021e-01 -4.833862185478210449e-02 2.287142574787139893e-01 -2.734765782952308655e-02 -1.072839796543121338e-01 -1.428888887166976929e-01 -2.324733287096023560e-01 2.569615542888641357e-01 1.125132441520690918e-01 1.851612702012062073e-02 2.138377279043197632e-01 1.025089845061302185e-01 1.671280413866043091e-01 3.292484208941459656e-02 3.100608661770820618e-02 4.966007173061370850e-02 8.033958822488784790e-02 2.307651042938232422e-01 -2.833570241928100586e-01 -4.068454727530479431e-02 1.980673288926482201e-03 -2.145640850067138672e-01 2.903759665787220001e-02 4.547531157732009888e-02 -2.900009974837303162e-02 -1.058823540806770325e-01 7.422640174627304077e-02 -1.187211200594902039e-01 2.157286107540130615e-01 4.740634560585021973e-02 -1.523225605487823486e-01 1.367445886135101318e-01 -3.500868007540702820e-02 1.016959454864263535e-02 -3.511540219187736511e-02 -1.172113604843616486e-02 1.110958531498908997e-01 3.331793248653411865e-01 2.602818012237548828e-01 1.014484986662864685e-01 4.044641926884651184e-02 -3.296343237161636353e-02 -7.216623425483703613e-02 -9.635062515735626221e-02 -1.621979176998138428e-01 1.408935785293579102e-01 -3.576994314789772034e-02 -8.331627398729324341e-02 2.439772486686706543e-01 6.798965390771627426e-03 -9.180175513029098511e-02 3.038433147594332695e-03 -9.892019629478454590e-02 -6.060553342103958130e-02 -6.560765206813812256e-02
-5.837942287325859070e-02 -2.514138817787170410e-01 1.155206095427274704e-02 -1.847667396068572998e-01 -1.560700833797454834e-01 3.454973921179771423e-02 2.120285779237747192e-01 -1.621449925005435944e-02 -9.546151012182235718e-02 6.270343437790870667e-03 -2.452713251113891602e-01 3.072844147682189941e-01 -1.557973474264144897e-01 1.364077478647232056e-01 1.922685652971267700e-01 -9.034983068704605103e-02 -1.008428707718849182e-01 -9.721824526786804199e-02 -2.560945153236389160e-01 -3.403895720839500427e-02 9.123651683330535889e-02 -3.688253462314605713e-02 -1.145882755517959595e-01 -2.106314450502395630e-01 -3.990031778812408447e-02 1.025603860616683960e-01 -1.293448656797409058e-01 3.117137849330902100e-01 9.653211385011672974e-02 -8.376021683216094971e-02 -7.898810505867004395e-02 -1.937361247837543488e-02 5.644807219505310059e-02 1.657759398221969604e-01 3.282486274838447571e-02 1.065331622958183289e-01 3.520536050200462341e-02 -1.762387901544570923e-01 -2.793907821178436279e-01 -6.991934776306152344e-02 -3.071475401520729065e-02 -1.043624244630336761e-02 -5.773337185382843018e-02 1.609268784523010254e-01 1.365783661603927612e-01 -8.094029873609542847e-02 -1.732861809432506561e-02 -2.105144709348678589e-01 6.378820538520812988e-02 2.599255740642547607e-02 6.652762740850448608e-02 7.961567491292953491e-02 1.818090975284576416e-01 3.122903406620025635e-01 -6.039860472083091736e-02 1.992110759019851685e-01 -1.240375936031341553e-01 7.818525284528732300e-02 -9.315755218267440796e-02 -6.572505831718444824e-02 7.722810655832290649e-02 -8.311511576175689697e-02 1.468810439109802246e-01 1.291364133358001709e-01 -5.697299167513847351e-02 1.177798062562942505e-01 4.861088842153549194e-02 5.334968119859695435e-02 -3.419274464249610901e-02 -2.408645115792751312e-02 1.276434659957885742e-01 2.573566325008869171e-02 -1.707432270050048828e-01 2.516543865203857422e-01 5.554163828492164612e-02 1.492212563753128052e-01 8.017043024301528931e-02 3.530438989400863647e-02 6.737860292196273804e-02 2.788450419902801514e-01
-2.256190925836563110e-01 3.150997161865234375e-01 2.246479988098144531e-01 1.443023085594177246e-01 -1.504304166883230209e-02 2.142759039998054504e-02 3.599706292152404785e-02 -1.860783696174621582e-01 1.400345098227262497e-02 -6.446815282106399536e-02 7.824781537055969238e-02 -2.689387798309326172e-01 1.842145323753356934e-01 -2.834170162677764893e-01 8.043605089187622070e-02 -2.546314895153045654e-01 -2.699420973658561707e-02 8.474987000226974487e-03 -2.036840170621871948e-01 4.285856708884239197e-02 4.634322971105575562e-02 2.623515762388706207e-02 6.358434911817312241e-03 8.289239555597305298e-02 -2.486764267086982727e-02 5.071615800261497498e-02 -3.620154783129692078e-02 -3.950154781341552734e-02 1.028995290398597717e-01 2.297018617391586304e-01 6.213151384145021439e-03 -1.626427471637725830e-01 -1.201366707682609558e-01 1.822427213191986084e-01 -7.530198246240615845e-02 -7.703040540218353271e-02 1.296643018722534180e-01 -1.035606563091278076e-01 1.664468944072723389e-01 1.855117380619049072e-01 1.842270046472549438e-01 6.577737629413604736e-02 -6.057126075029373169e-02 -1.450404822826385498e-01 9.835599362850189209e-02 1.710008531808853149e-01 -1.100540980696678162e-01 1.121750846505165100e-01 8.271742612123489380e-02 4.099630936980247498e-02 3.279467299580574036e-02 3.079092800617218018e-01 7.035985589027404785e-02 1.600176841020584106e-01 4.796400293707847595e-02 -1.361437588930130005e-01 1.270025521516799927e-01 1.902203820645809174e-02 4.325535264797508717e-04 1.154568195343017578e-01 -6.849142909049987793e-02 -1.486991196870803833e-01 3.300246968865394592e-02 -2.993352897465229034e-02 3.243493735790252686e-01 1.574014313519001007e-02 -1.039413958787918091e-01 1.919255591928958893e-02 -3.111191280186176300e-02 -1.710302531719207764e-01 -4.447396844625473022e-03 5.407307296991348267e-03 -2.853862643241882324e-01 9.638045914471149445e-03 -1.727253198623657227e-01 -1.498181466013193130e-02 -1.553315371274948120e-01 5.019117891788482666e-02 -1.275148391723632812e-01 1.287321746349334717e-02
5.759281665086746216e-02 -1.799480430781841278e-02 -1.406156569719314575e-01 1.143391057848930359e-01 1.296024024486541748e-01 -2.847870588302612305e-01 3.780422359704971313e-02 2.224762290716171265e-01 1.460339128971099854e-01 5.559461563825607300e-02 -1.053943410515785217e-01 -1.448702216148376465e-01 1.512029767036437988e-01 3.577949106693267822e-01 -4.736235365271568298e-02 -1.105553731322288513e-01 -6.819667667150497437e-02 8.559536188840866089e-02 -1.795401424169540405e-01 -3.243835642933845520e-02 1.874232888221740723e-01 -1.714280843734741211e-01 2.748667597770690918e-01 -1.321219950914382935e-01 -8.451013267040252686e-02 2.664957344532012939e-01 1.395546644926071167e-01 4.160221219062805176e-01 -1.420218199491500854e-01 -1.024104878306388855e-01 -9.667101502418518066e-02 2.820410728454589844e-01 2.712199650704860687e-02 1.448372006416320801e-01 -1.079628840088844299e-01 1.861104667186737061e-01 -2.096218168735504150e-01 1.978760063648223877e-01 2.667403547093272209e-03 -2.570004463195800781e-01 1.217871382832527161e-01 -7.649715989828109741e-03 3.374588787555694580e-01 8.611284196376800537e-02 -8.073908835649490356e-02 1.673388481140136719e-01 2.203770428895950317e-01 -2.799549996852874756e-01 -2.604627311229705811e-01 2.684046626091003418e-01 3.585551381111145020e-01 3.297011554241180420e-02 9.426736831665039062e-02 1.385254412889480591e-01 5.506507679820060730e-02 9.218704700469970703e-02 7.986681908369064331e-02 4.944708570837974548e-02 8.405373431742191315e-03 1.688056588172912598e-01 2.921592071652412415e-02 2.252111583948135376e-01 -5.409942567348480225e-02 8.275692164897918701e-02 -4.016916733235120773e-03 -3.215410411357879639e-01 2.599129080772399902e-02 -3.494725525379180908e-01 -1.581350266933441162e-01 -2.039733678102493286e-01 5.410996079444885254e-02 4.115519113838672638e-03 8.527880162000656128e-02 1.254177540540695190e-01 1.439107656478881836e-01 3.519385457038879395e-01 -1.490784436464309692e-01 -1.167150912806391716e-03 4.581720102578401566e-03 -3.983319923281669617e-02
1.965543627738952637e-01 8.920343965291976929e-02 1.487442255020141602e-01 -2.358548194169998169e-01 -1.759488321840763092e-02 -5.001162365078926086e-02 4.351309686899185181e-02 -7.908742129802703857e-02 1.903116144239902496e-02 -9.364292025566101074e-03 3.063603639602661133e-01 -2.867450714111328125e-01 -1.232912316918373108e-01 3.502263426780700684e-01 9.781263023614883423e-02 3.484648168087005615e-01 1.341380923986434937e-01 -1.730630248785018921e-01 8.043520152568817139e-02 -3.695172667503356934e-01 3.601897880434989929e-02 -3.007884919643402100e-01 1.357374787330627441e-01 6.737738847732543945e-02 -8.284011483192443848e-02 1.082729473710060120e-01 5.283303931355476379e-02 7.139360904693603516e-02 -8.869572775438427925e-04 -2.456338405609130859e-01 -2.806508243083953857e-01 -1.518427878618240356e-01 -1.317082941532135010e-01 1.675902865827083588e-02 -7.715766876935958862e-02 4.947565868496894836e-02 -1.489267498254776001e-02 -1.599873155355453491e-01 -7.762578874826431274e-02 3.920398280024528503e-02 -2.151269838213920593e-02 6.790573894977569580e-02 -4.850979894399642944e-03 -2.690536975860595703e-01 2.380691021680831909e-01 2.736296653747558594e-01 7.716830074787139893e-02 -3.794850036501884460e-02 2.212791889905929565e-01 9.075947850942611694e-02 3.077573180198669434e-01 5.547299981117248535e-02 3.627619892358779907e-02 -1.326155215501785278e-01 -1.853040754795074463e-01 1.645712703466415405e-01 -2.658784203231334686e-02 2.761519849300384521e-01 8.646225929260253906e-02 -1.087003946304321289e-01 3.617138788104057312e-02 1.132043376564979553e-01 1.483646929264068604e-01 1.083871163427829742e-02 1.001104861497879028e-01 2.763026654720306396e-01 -1.054553464055061340e-01 -2.548107206821441650e-01 -1.628278493881225586e-01 2.411065846681594849e-01 -8.782009780406951904e-02 -1.831991523504257202e-01 -1.970154345035552979e-01 -1.194761842489242554e-01 3.984254971146583557e-02 3.874214738607406616e-02 3.472997993230819702e-02 -9.629784524440765381e-02 -3.977669775485992432e-02 -9.895290434360504150e-02
-1.900127902626991272e-02 -1.608229130506515503e-01 1.278949379920959473e-01 5.122542846947908401e-03 -9.719819575548171997e-02 7.364885509014129639e-02 -8.534707129001617432e-02 2.021428346633911133e-01 1.150028780102729797e-01 -4.507387802004814148e-02 -1.694723665714263916e-01 9.582941234111785889e-02 -1.034067273139953613e-01 2.535327803343534470e-03 -1.463613566011190414e-02 4.094519466161727905e-02 -5.627309158444404602e-02 1.016923859715461731e-01 1.141168624162673950e-01 -7.872476126067340374e-04 7.691618800163269043e-02 -8.245085924863815308e-02 -3.144958913326263428e-01 -1.281149387359619141e-01 -1.260579526424407959e-01 -4.325499013066291809e-02 -7.825247198343276978e-02 -3.154340982437133789e-01 3.968113064765930176e-01 -2.309100478887557983e-01 1.346615999937057495e-01 1.708812487777322531e-04 3.625740110874176025e-02 2.348978072404861450e-01 8.336490951478481293e-03 8.999752998352050781e-02 -4.368336498737335205e-02 6.010484881699085236e-03 7.030532509088516235e-02 -1.340212672948837280e-01 -5.953206680715084076e-03 2.809429168701171875e-01 2.201443016529083252e-01 -1.481572240591049194e-01 -4.356006160378456116e-02 9.526637382805347443e-03 -1.100436970591545105e-01 5.615823715925216675e-02 1.659552603960037231e-01 1.929044127464294434e-01 -2.194587439298629761e-01 -2.531988024711608887e-01 1.195100620388984680e-01 -1.015033200383186340e-01 7.811725139617919922e-02 -2.761706113815307617e-01 -1.349448263645172119e-01 2.116326689720153809e-01 9.721253812313079834e-02 -6.713616102933883667e-02 7.078354060649871826e-02 -9.337659180164337158e-02 -1.091142222285270691e-01 1.997959911823272705e-01 -1.314542591571807861e-01 -2.550646103918552399e-02 2.297038286924362183e-01 -1.764117032289505005e-01 2.271760702133178711e-01 -3.736834228038787842e-02 -7.173475809395313263e-03 2.842388451099395752e-01 6.880358606576919556e-02 2.657536417245864868e-02 2.077698260545730591e-01 1.305280067026615143e-02 2.561483383178710938e-01 -1.529203206300735474e-01 -5.533639714121818542e-02 3.406062424182891846e-01
2.721725106239318848e-01 -8.468017727136611938e-02 2.076775021851062775e-02 -3.583227694034576416e-01 3.008458912372589111e-01 -5.641988292336463928e-02 7.437805831432342529e-02 -5.123674497008323669e-02 -5.844293534755706787e-02 -2.285106033086776733e-01 -1.513207554817199707e-01 -6.890971958637237549e-02 -9.571431437507271767e-04 -2.332692034542560577e-02 2.628221809864044189e-01 2.273622900247573853e-01 -7.634271681308746338e-02 8.835651725530624390e-02 -3.444488644599914551e-01 -1.250839382410049438e-01 2.362674772739410400e-01 5.583228915929794312e-02 -1.652417331933975220e-02 -4.119654372334480286e-02 -1.037168130278587341e-01 1.189381703734397888e-01 -4.750886186957359314e-02 -2.285623848438262939e-01 -8.045861870050430298e-02 -2.656986415386199951e-01 1.499694734811782837e-01 2.287093400955200195e-01 2.211553603410720825e-01 -4.503993391990661621e-01 -1.678483188152313232e-02 -1.016077697277069092e-01 -2.134301364421844482e-01 2.974365353584289551e-01 5.535747855901718140e-02 4.833104554563760757e-03 1.688182651996612549e-01 -1.882362365722656250e-01 -3.706970065832138062e-02 1.249891594052314758e-01 -1.144608762115240097e-02 -1.014116872102022171e-02 -3.225814318284392357e-03 1.573491841554641724e-01 -4.430384188890457153e-02 -2.702808976173400879e-01 7.487548887729644775e-02 -2.653859555721282959e-01 -1.654295921325683594e-01 -3.854137146845459938e-03 -1.071435958147048950e-01 -9.441588819026947021e-02 7.692543417215347290e-02 6.212348863482475281e-02 -6.018159911036491394e-02 -2.535443194210529327e-02 -7.428205758333206177e-02 6.584656238555908203e-02 -3.078786469995975494e-02 -4.200041666626930237e-02 2.203520387411117554e-01 9.582404978573322296e-03 -9.193056821823120117e-02 1.535875839181244373e-03 2.241594903171062469e-02 1.572054624557495117e-02 8.521122485399246216e-02 -1.104735061526298523e-01 9.027567505836486816e-02 -1.730702235363423824e-03 4.143948853015899658e-02 9.294466674327850342e-02 3.666658103466033936e-01 1.376953572034835815e-01 -2.010428905487060547e-01 -2.420571260154247284e-02
-1.869062483310699463e-01 1.704885363578796387e-01 2.879739506170153618e-03 -1.886563301086425781e-01 2.500674724578857422e-01 3.305429518222808838e-01 1.918173581361770630e-01 8.150448650121688843e-02 -7.496232539415359497e-02 -2.060185186564922333e-02 6.900633871555328369e-02 -4.576277360320091248e-02 1.655029058456420898e-01 -1.261595934629440308e-01 1.690120995044708252e-01 2.160462886095046997e-01 6.635949760675430298e-02 -2.219839841127395630e-01 1.798519045114517212e-01 1.696548797190189362e-02 -1.279022693634033203e-01 1.313000470399856567e-01 -2.621333599090576172e-01 -7.706474512815475464e-03 2.132328748703002930e-01 -1.480379104614257812e-01 -1.532748639583587646e-01 -9.513056278228759766e-02 7.154533267021179199e-02 -1.867681145668029785e-01 -6.647258996963500977e-02 1.080879941582679749e-01 6.050572171807289124e-02 2.560736835002899170e-01 1.009464077651500702e-02 9.044483304023742676e-02 9.115987271070480347e-02 -1.013631559908390045e-02 -2.794748544692993164e-02 3.937434405088424683e-02 -2.386506348848342896e-01 -3.810155764222145081e-02 -8.743301779031753540e-02 8.821976184844970703e-02 2.260215282440185547e-01 -4.754107445478439331e-02 2.054820582270622253e-02 1.133131459355354309e-01 3.604555130004882812e-02 -1.474942862987518311e-01 -1.052223742008209229e-01 -2.460047751665115356e-01 3.019332289695739746e-01 -3.359061777591705322e-01 -2.281233370304107666e-01 1.979838162660598755e-01 2.294535338878631592e-01 1.356860101222991943e-01 1.608489304780960083e-01 -1.805864274501800537e-01 -6.537305563688278198e-02 1.112475171685218811e-01 -3.123632371425628662e-01 -4.132367074489593506e-01 3.310134708881378174e-01 1.105963811278343201e-01 2.204269617795944214e-01 -3.706276789307594299e-02 2.182087153196334839e-01 -1.687403321266174316e-01 9.292726218700408936e-02 -1.924209110438823700e-02 -3.132448792457580566e-01 1.000687554478645325e-01 2.231059074401855469e-01 9.134530276060104370e-02 -8.121266961097717285e-02 -1.052180081605911255e-01 -2.411357164382934570e-01 -9.976889938116073608e-02
5.762407183647155762e-02 -1.359429657459259033e-01 2.557322382926940918e-01 -2.404202669858932495e-01 -1.899186819791793823e-01 -3.238373622298240662e-02 1.668071746826171875e-01 -7.759201526641845703e-02 -1.790495961904525757e-01 -1.874069571495056152e-01 5.810303613543510437e-03 -8.950221538543701172e-02 -1.414102464914321899e-01 -3.443424403667449951e-01 -2.453314326703548431e-02 -1.349445432424545288e-01 3.043878078460693359e-01 4.334004595875740051e-02 -2.781688272953033447e-01 -5.003552883863449097e-02 1.062999218702316284e-01 -6.431946903467178345e-02 -8.464662730693817139e-02 5.840464308857917786e-02 -8.625138550996780396e-02 -6.796224415302276611e-02 -4.454521462321281433e-02 -4.763310309499502182e-03 1.953284442424774170e-01 1.996534615755081177e-01 -5.024078115820884705e-02 -2.643234562128782272e-03 9.074047952890396118e-02 2.882075607776641846e-01 2.051933556795120239e-01 2.347366213798522949e-01 -5.693684890866279602e-02 7.772119715809822083e-03 2.702539265155792236e-01 -2.894709408283233643e-01 -9.620862454175949097e-02 -3.363645076751708984e-01 -2.170780450105667114e-01 -1.733997911214828491e-01 -1.608321517705917358e-01 1.099695712327957153e-01 2.485668063163757324e-01 -1.002144534140825272e-02 -1.751451790332794189e-01 7.700031250715255737e-02 -1.918447017669677734e-01 3.693986833095550537e-01 9.538014978170394897e-02 7.475121412426233292e-03 8.926586061716079712e-02 -2.416691929101943970e-02 1.091299578547477722e-01 9.173975884914398193e-02 8.523388206958770752e-02 -2.634293437004089355e-01 -1.418930143117904663e-01 1.431553065776824951e-01 2.530535757541656494e-01 4.342418015003204346e-01 6.062999740242958069e-02 -1.996030807495117188e-01 1.004092097282409668e-01 2.078981511294841766e-02 -1.508984267711639404e-01 4.990989342331886292e-03 1.163637414574623108e-01 1.834153681993484497e-01 3.159946203231811523e-01 -1.067598015069961548e-01 -1.338938623666763306e-01 8.208086341619491577e-02 -2.251731008291244507e-01 -1.781399548053741455e-01 -2.110801786184310913e-01 1.628350913524627686e-01
-1.374660730361938477e-01 8.459093980491161346e-03 9.418458491563796997e-02 6.655146926641464233e-02 5.218289420008659363e-02 1.976377218961715698e-01 -2.741317749023437500e-01 -8.803304284811019897e-02 -2.096586376428604126e-01 2.076738923788070679e-01 4.070359095931053162e-02 1.976756453514099121e-01 5.157670751214027405e-02 -2.215231657028198242e-01 -4.000189527869224548e-02 2.613670565187931061e-02 -2.754455059766769409e-02 1.281568408012390137e-01 1.960357427597045898e-01 3.695454597473144531e-01 1.015586629509925842e-01 -6.162795238196849823e-03 2.970497310161590576e-01 1.583417356014251709e-01 -1.551406234502792358e-01 1.248090490698814392e-01 -2.228848636150360107e-01 2.843627929687500000e-01 1.755263209342956543e-01 -3.216742575168609619e-01 -1.309729963541030884e-01 -1.773677617311477661e-01 3.360179066658020020e-02 1.333118677139282227e-01 5.095573514699935913e-02 9.457064419984817505e-02 -4.234664887189865112e-02 3.110332787036895752e-01 -1.874926537275314331e-01 -3.307510539889335632e-02 9.183819591999053955e-02 3.367932438850402832e-01 -3.670883364975452423e-03 2.362175732851028442e-01 1.308801583945751190e-02 -2.415154427289962769e-01 -2.376072295010089874e-02 -1.042863205075263977e-01 -1.081025600433349609e-01 -1.107687801122665405e-01 -1.796972751617431641e-01 -2.865681052207946777e-01 -3.854303853586316109e-03 3.796524601057171822e-03 8.894050121307373047e-02 -1.599688827991485596e-01 -1.572509109973907471e-01 1.059036850929260254e-01 6.167283281683921814e-02 -1.730313152074813843e-01 -5.585456266999244690e-02 -1.252588480710983276e-01 -1.874526217579841614e-02 -1.699461340904235840e-01 -5.680667981505393982e-02 2.782234549522399902e-01 -1.911894977092742920e-01 7.033912092447280884e-02 -8.847913891077041626e-02 -1.479261517524719238e-01 2.990398406982421875e-01 1.440953016281127930e-01 -2.913664877414703369e-01 -1.783466786146163940e-01 -2.025856077671051025e-01 -8.435750007629394531e-02 -4.874556139111518860e-02 -1.358949244022369385e-01 -4.031419381499290466e-02 -2.732148468494415283e-01
-8.650439977645874023e-02 1.734784692525863647e-01 2.757451832294464111e-01 4.681330546736717224e-02 -1.980830281972885132e-01 -1.866317242383956909e-01 -4.500252008438110352e-02 -2.282736897468566895e-01 6.464990973472595215e-02 1.549435127526521683e-02 -2.237504534423351288e-02 1.417972296476364136e-01 1.630276143550872803e-01 5.412295460700988770e-03 -2.328507900238037109e-01 -1.509431600570678711e-01 1.219115480780601501e-01 -6.191533058881759644e-02 1.453043334186077118e-02 1.149111911654472351e-01 1.351099759340286255e-01 1.066536456346511841e-01 -1.306676864624023438e-02 7.489694654941558838e-02 -2.786694765090942383e-01 -1.158562209457159042e-02 1.003902256488800049e-01 3.566436469554901123e-02 -3.378907442092895508e-01 -2.962939441204071045e-01 -2.552111446857452393e-01 -1.622635722160339355e-01 -5.336769670248031616e-02 8.489363640546798706e-02 -2.458578944206237793e-01 -9.151808172464370728e-02 -4.788743704557418823e-02 9.554404765367507935e-03 -9.032797068357467651e-02 5.409047752618789673e-02 2.365626394748687744e-01 -2.377283573150634766e-02 1.600759103894233704e-02 -5.074937269091606140e-02 2.399171590805053711e-01 2.158661335706710815e-01 5.825124680995941162e-02 -2.003917098045349121e-01 -5.250410363078117371e-02 -1.197803020477294922e-01 1.665430516004562378e-02 3.045146465301513672e-01 2.739418148994445801e-01 -3.480853512883186340e-02 7.491198927164077759e-02 -1.128858849406242371e-01 -1.178143793367780745e-04 -6.242565438151359558e-02 -1.715219914913177490e-01 1.264750212430953979e-01 2.683720318600535393e-03 2.007318288087844849e-01 2.066081613302230835e-01 -4.657357931137084961e-02 -6.030589714646339417e-02 2.308107726275920868e-02 6.184105202555656433e-02 2.806958854198455811e-01 -1.332540959119796753e-01 1.416413187980651855e-01 -1.827026344835758209e-02 -7.282229512929916382e-02 2.655229568481445312e-01 2.307001501321792603e-01 1.868202164769172668e-02 -3.793676197528839111e-01 2.378786802291870117e-01 1.022208705544471741e-01 -1.751291751861572266e-01 -3.089741468429565430e-01
1.981871426105499268e-01 3.198707699775695801e-01 -2.503573298454284668e-01 1.535571813583374023e-01 2.327108681201934814e-01 -2.322814166545867920e-01 1.495655179023742676e-01 -1.085541844367980957e-01 8.814907073974609375e-02 -1.546118557453155518e-01 1.594277471303939819e-01 3.816913366317749023e-01 -1.005112379789352417e-01 4.334639012813568115e-02 -2.525187134742736816e-01 -5.620098114013671875e-02 -1.617936342954635620e-01 7.744441926479339600e-02 2.466222792863845825e-01 2.002171427011489868e-01 2.193689793348312378e-01 -2.567725777626037598e-01 -1.434925571084022522e-02 1.340138167142868042e-01 1.532290577888488770e-01 1.428318023681640625e-01 -1.138330437242984772e-02 -1.668957918882369995e-01 2.310213148593902588e-01 -2.649702727794647217e-01 -1.430557519197463989e-01 5.914634466171264648e-02 -7.100659608840942383e-02 9.035341441631317139e-02 -8.264983445405960083e-02 1.920588463544845581e-01 3.201380074024200439e-01 -1.132630836218595505e-02 1.447803229093551636e-01 -2.934067845344543457e-01 2.522394955158233643e-01 -2.109722979366779327e-02 1.702608466148376465e-01 -7.147663831710815430e-02 -9.135402739048004150e-02 9.441621601581573486e-02 7.619903981685638428e-02 3.834490105509757996e-02 -6.326025724411010742e-02 2.144132852554321289e-01 2.179739437997341156e-02 2.892456203699111938e-02 1.560177505016326904e-01 4.011683166027069092e-02 1.471637785434722900e-01 -9.539712220430374146e-02 5.762545391917228699e-02 1.573115140199661255e-01 -1.257689595222473145e-01 -2.118982076644897461e-01 -2.073746919631958008e-01 -5.380000174045562744e-02 3.637299239635467529e-01 2.004104293882846832e-02 -5.856334418058395386e-02 4.317581187933683395e-03 1.329692304134368896e-01 5.276533216238021851e-02 -4.796290770173072815e-02 -9.422365576028823853e-03 1.303158849477767944e-01 -1.014255359768867493e-01 -2.734197080135345459e-01 1.585370004177093506e-01 -4.048937465995550156e-03 -1.756622046232223511e-01 1.328934878110885620e-01 -2.780408859252929688e-01 -5.209485534578561783e-03 8.949999511241912842e-02
